{"learner":{"attributes":{"best_iteration":"10","best_score":"-0.785523"},"feature_names":[],"feature_types":[],"gradient_booster":{"model":{"gbtree_model_param":{"num_parallel_tree":"1","num_trees":"61"},"iteration_indptr":[0,1,2,3,4,5,6,7,8,9,10,11,12,13,14,15,16,17,18,19,20,21,22,23,24,25,26,27,28,29,30,31,32,33,34,35,36,37,38,39,40,41,42,43,44,45,46,47,48,49,50,51,52,53,54,55,56,57,58,59,60,61],"tree_info":[0,0,0,0,0,0,0,0,0,0,0,0,0,0,0,0,0,0,0,0,0,0,0,0,0,0,0,0,0,0,0,0,0,0,0,0,0,0,0,0,0,0,0,0,0,0,0,0,0,0,0,0,0,0,0,0,0,0,0,0,0],"trees":[{"base_weights":[7.4422104E-8,-6.1435914E-1,7.6935284E-2,-6.333436E-2,-1.402024E0,1.3206069E-1,-5.444994E-1,-1.0989075E0,2.427517E-1,-2.0743531E-1,-1.7041149E0,-8.1304795E-1,1.6238149E-1,-1.565981E0,6.146822E-2,4.3444093E-2,-1.4354901E0,7.428234E-1,-2.8343946E-1,-1.3355039E-1,6.959417E-1,-1.9115298E0,4.206317E-3,4.814079E-2,-1.1155357E0,9.1845915E-2,5.7495475E-1,-1.7775227E0,1.4070759E-2,7.4724364E-1,-1.0401262E0,-2.7119607E-2,-1.6987988E0,1.1296382E0,3.2617427E-2,-1.4284298E-1,4.800281E-2,1.02481864E-1,-2.2223115E-3,-7.483142E-1,-2.0802402E-1,-1.5401872E0,2.6709533E-1,1.09432235E-1,-1.5776058E-1,7.4881685E-1,-6.619629E-1,-1.8745024E0,-4.788872E-2,1.4324808E-1,1.1732873E-2,-1.3874328E0,5.5261124E-2,-1.9363864E-1,-4.788872E-2,-2.2223115E-3,1.3059114E0,4.668435E-1,-9.355512E-2,9.1858643E-1,-5.314631E-1,-1.3922153E-1,1.4070759E-2,-2.7119607E-2,-1.7618904E0,-4.788872E-2,8.91105E-2,1.9088635E-1,-1.9229591E-1,1.0813477E0,1.2044629E-1,5.5261124E-2,-1.0287133E0,-1.9950196E-1,-4.788872E-2,-4.6818012E-1,6.959417E-1,-1.7030386E0,-1.0058466E-2,4.3444093E-2,1.3956788E-1,9.102688E-2,-4.788872E-2,1.2146806E-1,-2.2223115E-3,-1.6011225E-1,3.2617427E-2,-1.9437954E-1,-4.788872E-2,6.2884045E-1,1.081944E-1,5.004548E-2,-6.6632485E-1,7.51785E-2,1.2364707E0,-1.9776076E-1,1.09088935E-1,8.0977306E-2,-1.8540363E-1,-8.6027485E-1,2.7454978E-2,1.02481864E-1,-2.2223115E-3,-1.888076E-1,-4.788872E-2,6.7485875E-1,-1.3922153E-1,-2.7032545E-1,9.912102E-1,2.204679E-2,6.255325E-1,3.1754264E-1,-6.011386E-1,-9.749167E-1,7.2038203E-1,1.0752386E-1,-7.483142E-1,1.3221264E0,-1.0058466E-2,-1.063457E0,2.174972E-1,5.5261124E-2,-4.788872E-2,1.4070759E-2,-1.506907E-1,1.0752386E-1,4.206317E-3,9.951167E-2,-7.710883E-2,-9.463665E-4,1.2740526E-1,-6.2238134E-2,9.069061E-3,5.805928E-3,8.613978E-2,-1.7795695E-2,6.826E-2,-8.568515E-2,2.6224092E-2,-1.2307036E-1,1.8689794E-2,1.1180204E-1,4.206317E-3,1.4070759E-2,-1.3922153E-1,3.8645495E-2,1.3773166E-1,4.3444093E-2,-1.6383831E-1,-9.1648124E-2,6.3711606E-2],"categories":[],"categories_nodes":[],"categories_segments":[],"categories_sizes":[],"default_left":[0,0,0,0,0,0,0,0,0,0,0,0,0,0,0,0,0,0,0,0,0,0,0,0,0,0,0,0,0,0,0,0,0,0,0,0,0,0,0,0,0,0,0,0,0,0,0,0,0,0,0,0,0,0,0,0,0,0,0,0,0,0,0,0,0,0,0,0,0,0,0,0,0,0,0,0,0,0,0,0,0,0,0,0,0,0,0,0,0,0,0,0,0,0,0,0,0,0,0,0,0,0,0,0,0,0,0,0,0,0,0,0,0,0,0,0,0,0,0,0,0,0,0,0,0,0,0,0,0,0,0,0,0,0,0,0,0,0,0,0,0,0,0,0,0,0,0,0,0,0,0],"id":0,"left_children":[1,3,5,7,9,11,13,15,17,19,21,23,25,27,29,-1,31,33,35,-1,37,39,-1,-1,41,43,45,47,-1,49,51,-1,53,55,57,-1,59,-1,-1,61,-1,63,65,67,-1,69,71,73,-1,-1,75,77,-1,-1,-1,-1,79,81,-1,83,85,-1,-1,-1,87,-1,-1,89,91,93,95,-1,97,-1,-1,99,101,103,-1,-1,-1,-1,-1,-1,-1,-1,105,-1,-1,107,109,111,113,115,117,119,-1,121,-1,123,-1,-1,-1,-1,-1,125,-1,127,129,131,133,135,137,139,141,-1,143,145,-1,147,149,-1,-1,-1,-1,-1,-1,-1,-1,-1,-1,-1,-1,-1,-1,-1,-1,-1,-1,-1,-1,-1,-1,-1,-1,-1,-1,-1,-1,-1,-1],"loss_changes":[2.3668919E1,2.4099518E1,1.5317261E1,1.0992641E1,7.907715E0,1.1868993E1,2.2661877E1,4.701228E0,7.2987003E0,6.7984414E0,6.6478806E0,5.587305E0,1.1520033E1,5.164463E0,1.8790115E1,0E0,1.5966768E0,3.8333092E0,5.324531E0,0E0,9.3339825E-1,1.6282921E0,0E0,0E0,6.726795E0,1.0178508E1,1.2941267E1,6.368027E-1,0E0,7.683055E0,6.0586014E0,0E0,6.039667E-1,1.8747969E0,2.9579751E0,0E0,6.394643E0,0E0,0E0,2.2667308E0,0E0,1.8788872E0,1.9999374E0,8.34834E0,0E0,1.0570072E1,3.9818583E0,8.937988E-1,0E0,0E0,3.0764115E0,3.1341496E0,0E0,0E0,0E0,0E0,1.1735916E-2,2.4519262E0,0E0,1.4324532E0,4.675785E0,0E0,0E0,0E0,6.909218E-1,0E0,0E0,9.5941925E0,8.349006E0,5.1142426E0,6.035692E0,0E0,5.8605623E0,0E0,0E0,1.8440796E0,9.3339825E-1,5.620613E-1,0E0,0E0,0E0,0E0,0E0,0E0,0E0,0E0,6.4274435E0,0E0,0E0,1.40072E1,1.0042096E1,8.6965275E0,1.1211292E1,5.3515697E0,3.4360619E0,5.6378307E0,0E0,1.2198553E0,0E0,2.7075753E0,0E0,0E0,0E0,0E0,0E0,1.1727524E0,0E0,8.940569E0,8.579161E0,8.658598E0,4.2562E0,6.500601E0,3.440023E0,6.3258934E0,1.3138185E0,0E0,2.2667308E0,8.7106323E-1,0E0,5.056694E0,5.815402E0,0E0,0E0,0E0,0E0,0E0,0E0,0E0,0E0,0E0,0E0,0E0,0E0,0E0,0E0,0E0,0E0,0E0,0E0,0E0,0E0,0E0,0E0,0E0,0E0,0E0,0E0,0E0,0E0,0E0,0E0],"parents":[2147483647,0,0,1,1,2,2,3,3,4,4,5,5,6,6,7,7,8,8,9,9,10,10,11,11,12,12,13,13,14,14,16,16,17,17,18,18,20,20,21,21,24,24,25,25,26,26,27,27,29,29,30,30,32,32,33,33,34,34,36,36,39,39,41,41,42,42,43,43,45,45,46,46,47,47,50,50,51,51,56,56,57,57,59,59,60,60,64,64,67,67,68,68,69,69,70,70,72,72,75,75,76,76,77,77,86,86,89,89,90,90,91,91,92,92,93,93,94,94,95,95,97,97,99,99,105,105,107,107,108,108,109,109,110,110,111,111,112,112,113,113,114,114,116,116,117,117,119,119,120,120],"right_children":[2,4,6,8,10,12,14,16,18,20,22,24,26,28,30,-1,32,34,36,-1,38,40,-1,-1,42,44,46,48,-1,50,52,-1,54,56,58,-1,60,-1,-1,62,-1,64,66,68,-1,70,72,74,-1,-1,76,78,-1,-1,-1,-1,80,82,-1,84,86,-1,-1,-1,88,-1,-1,90,92,94,96,-1,98,-1,-1,100,102,104,-1,-1,-1,-1,-1,-1,-1,-1,106,-1,-1,108,110,112,114,116,118,120,-1,122,-1,124,-1,-1,-1,-1,-1,126,-1,128,130,132,134,136,138,140,142,-1,144,146,-1,148,150,-1,-1,-1,-1,-1,-1,-1,-1,-1,-1,-1,-1,-1,-1,-1,-1,-1,-1,-1,-1,-1,-1,-1,-1,-1,-1,-1,-1,-1,-1],"split_conditions":[2.9460303E2,7.0982456E0,3.876686E2,5.687755E0,1.743092E4,1.3629504E2,6.7980976E0,1.3180678E4,6.470152E0,4.0634042E2,2.447967E2,9.0852785E0,8.52617E0,2.7884434E4,8.093541E0,4.3444093E-2,1.0951138E1,7.833275E0,9.854012E0,-1.3355039E-1,1.9984587E2,1.0346574E1,4.206317E-3,4.814079E-2,1.6568655E1,2.758865E2,3.0846586E4,8.40571E1,1.4070759E-2,1.7717403E2,2.6687875E4,-2.7119607E-2,3.9830987E0,1.4034485E4,4.9188058E2,-1.4284298E-1,2.0852764E4,1.02481864E-1,-2.2223115E-3,2.7533197E2,-2.0802402E-1,5.188777E0,6.3406825E0,3.50836E2,-1.5776058E-1,7.410891E0,5.381994E0,5.050683E0,-4.788872E-2,1.4324808E-1,7.7744684E0,7.683123E1,5.5261124E-2,-1.9363864E-1,-4.788872E-2,-2.2223115E-3,1.6409938E4,2.3372883E4,-9.355512E-2,2.2993669E2,1.7219814E2,-1.3922153E-1,1.4070759E-2,-2.7119607E-2,7.533969E1,-4.788872E-2,8.91105E-2,5.622807E0,2.069225E2,1.1009592E1,9.999807E0,5.5261124E-2,3.644279E0,-1.9950196E-1,-4.788872E-2,6.6129E0,8.272055E0,4.3083577E0,-1.0058466E-2,4.3444093E-2,1.3956788E-1,9.102688E-2,-4.788872E-2,1.2146806E-1,-2.2223115E-3,-1.6011225E-1,4.722741E2,-1.9437954E-1,-4.788872E-2,6.476057E0,3.393279E2,4.3280263E0,3.800782E2,9.771896E0,1.9806288E1,1.249351E1,1.09088935E-1,6.7575407E0,-1.8540363E-1,7.0390944E0,2.7454978E-2,1.02481864E-1,-2.2223115E-3,-1.888076E-1,-4.788872E-2,3.808913E0,-1.3922153E-1,3.133648E2,1.5765787E4,1.6437117E2,1.7076664E4,6.8480334E0,8.018607E1,8.463003E0,1.2957785E1,1.0752386E-1,6.053072E0,3.0561642E2,-1.0058466E-2,1.6479099E2,3.4603055E2,5.5261124E-2,-4.788872E-2,1.4070759E-2,-1.506907E-1,1.0752386E-1,4.206317E-3,9.951167E-2,-7.710883E-2,-9.463665E-4,1.2740526E-1,-6.2238134E-2,9.069061E-3,5.805928E-3,8.613978E-2,-1.7795695E-2,6.826E-2,-8.568515E-2,2.6224092E-2,-1.2307036E-1,1.8689794E-2,1.1180204E-1,4.206317E-3,1.4070759E-2,-1.3922153E-1,3.8645495E-2,1.3773166E-1,4.3444093E-2,-1.6383831E-1,-9.1648124E-2,6.3711606E-2],"split_indices":[4,0,4,3,2,1,0,2,0,5,1,6,0,2,3,0,6,3,6,0,1,6,0,0,6,1,2,7,0,1,2,0,8,2,5,0,2,0,0,4,0,0,3,4,0,3,3,8,0,0,0,7,0,0,0,0,2,2,0,1,1,0,0,0,7,0,0,0,1,6,0,0,8,0,0,3,0,8,0,0,0,0,0,0,0,0,5,0,0,3,4,8,4,6,6,6,0,3,0,0,0,0,0,0,0,8,0,4,2,1,2,0,7,3,6,0,3,4,0,1,5,0,0,0,0,0,0,0,0,0,0,0,0,0,0,0,0,0,0,0,0,0,0,0,0,0,0,0,0,0,0],"split_type":[0,0,0,0,0,0,0,0,0,0,0,0,0,0,0,0,0,0,0,0,0,0,0,0,0,0,0,0,0,0,0,0,0,0,0,0,0,0,0,0,0,0,0,0,0,0,0,0,0,0,0,0,0,0,0,0,0,0,0,0,0,0,0,0,0,0,0,0,0,0,0,0,0,0,0,0,0,0,0,0,0,0,0,0,0,0,0,0,0,0,0,0,0,0,0,0,0,0,0,0,0,0,0,0,0,0,0,0,0,0,0,0,0,0,0,0,0,0,0,0,0,0,0,0,0,0,0,0,0,0,0,0,0,0,0,0,0,0,0,0,0,0,0,0,0,0,0,0,0,0,0],"sum_hessian":[4.9876147E2,5.4730503E1,4.4403098E2,3.2838303E1,2.1892202E1,4.085751E2,3.545585E1,6.9008026E0,2.59375E1,4.7591743E0,1.7133028E1,1.1897936E1,3.966772E2,1.2611812E1,2.2844036E1,1.1897936E0,5.711009E0,1.3087729E1,1.2849771E1,1.9036697E0,2.8555045E0,1.5229358E1,1.9036697E0,2.1416285E0,9.756308E0,3.3980505E2,5.687213E1,1.1184059E1,1.4277523E0,1.4277523E1,8.566514E0,1.4277523E0,4.283257E0,8.090596E0,4.997133E0,2.1416285E0,1.0708142E1,1.665711E0,1.1897936E0,2.6175458E0,1.2611812E1,7.37672E0,2.3795872E0,3.371875E2,2.6175458E0,5.020929E1,6.662844E0,9.994266E0,1.1897936E0,6.9008026E0,7.37672E0,7.1387615E0,1.4277523E0,3.0934632E0,1.1897936E0,1.1897936E0,6.9008026E0,3.8073394E0,1.1897936E0,4.045298E0,6.662844E0,1.1897936E0,1.4277523E0,1.4277523E0,5.948968E0,1.1897936E0,1.1897936E0,2.657999E2,7.138761E1,3.2362385E1,1.7846903E1,1.4277523E0,5.2350917E0,8.804472E0,1.1897936E0,4.5212154E0,2.8555045E0,5.4730506E0,1.665711E0,1.1897936E0,5.711009E0,2.6175458E0,1.1897936E0,2.8555045E0,1.1897936E0,1.665711E0,4.997133E0,4.7591743E0,1.1897936E0,4.116686E1,2.2463303E2,4.78297E1,2.3557913E1,4.5212154E0,2.784117E1,1.4039564E1,3.8073394E0,2.6175458E0,2.6175458E0,2.8555045E0,1.665711E0,1.665711E0,1.1897936E0,4.283257E0,1.1897936E0,3.8073394E0,1.1897936E0,1.1897936E1,2.9268923E1,1.9346043E2,3.1172592E1,3.4266056E1,1.3563646E1,1.9512615E1,4.045298E0,1.9036697E0,2.6175458E0,2.6175459E1,1.665711E0,4.045298E0,9.994266E0,1.4277523E0,1.1897936E0,1.4277523E0,1.4277523E0,1.9036697E0,1.9036697E0,3.0934632E0,8.804472E0,6.662844E0,2.2606077E1,1.7846903E1,1.7561353E2,9.518349E0,2.1654243E1,1.475344E1,1.9512615E1,1.0470183E1,3.0934632E0,1.59432335E1,3.5693808E0,2.1416285E0,1.9036697E0,1.4277523E0,1.1897936E0,1.9036697E0,2.427179E1,1.1897936E0,2.8555045E0,2.3795872E0,7.614679E0],"tree_param":{"num_deleted":"0","num_feature":"9","num_nodes":"151","size_leaf_vector":"1"}},{"base_weights":[-1.4997203E-3,-5.5929744E-1,6.9053374E-2,-6.4863205E-2,-1.248619E0,1.1954382E-1,-4.9458697E-1,-1.0016327E0,2.1866672E-1,-1.9127093E-1,-1.509178E0,-7.3588365E-1,1.474292E-1,-8.942471E-1,7.156173E-1,4.1318174E-2,-1.3058547E0,6.9038063E-1,-2.6897645E-1,-1.22640245E-1,6.5981317E-1,-1.6878002E0,3.933066E-3,4.5217644E-2,-1.0075799E0,8.3376266E-2,5.269388E-1,-1.3413249E0,-2.3142288E-2,-6.2595196E-2,1.1265533E0,-2.5433395E-2,-1.5383686E0,1.0624598E0,2.1677876E-2,4.5126072E-1,-6.874318E-1,-4.3732035E-3,9.908427E-2,-1.7648696E0,-3.903881E-2,-1.3860242E0,2.5399393E-1,1.9251539E-1,-1.4677408E-1,8.4828186E-1,-7.7125706E-2,-8.7239087E-1,-1.8979317E-1,-8.16171E-1,6.0561275E-1,-5.890015E-3,1.346194E-1,-1.7425427E-1,-4.502855E-2,-2.100984E-3,1.2328771E0,4.4844854E-1,-9.166985E-2,-8.961072E-2,1.01126395E-1,-1.4564918E-1,-1.4454965E-1,-6.5611504E-2,-1.8997084E0,-2.5433395E-2,-1.5784637E0,-4.8301205E-2,8.769701E-2,5.4716873E-1,3.2525476E-2,-3.3443823E-1,4.2007098E-1,9.8629194E-1,-6.960695E-1,2.7080044E-1,-8.752897E-1,-1.1522373E0,8.925005E-2,-1.2266657E-2,-1.2846713E-1,-4.1684132E-2,1.05743244E-1,1.3266426E-1,3.761513E-2,8.7334886E-2,-4.45067E-2,1.9650698E-1,-8.960275E-2,-4.5068044E-2,-2.0063455E-1,-1.7313713E-1,-4.502855E-2,-9.16365E-1,6.8215024E-1,-6.9631547E-1,1.2672476E-1,-1.51001E-1,-1.0391529E0,1.0893537E-1,1.9817683E-1,-4.137277E-2,1.1506011E0,1.2018355E-3,-1.0494387E-1,1.0372805E-1,-5.060643E-2,-1.2020402E0,1.661505E-2,-1.6564988E-1,-3.297026E-1,-4.8856717E-2,5.1395154E-1,-1.7622685E-2,-1.2366717E-1,6.743163E-2,8.6463845E-1,-4.3890546E-3,-1.1358608E0,-1.17200166E-1,2.8302383E-1,4.304688E-2,-5.7511204E-1,2.3493173E-2,-1.2431068E0,-1.3702486E-1,7.9721695E-1,1.0230607E-1,-8.128073E-1,1.2275683E0,-9.4163865E-3,-3.9565173E-1,8.485515E-2,-4.2259195E-3,-1.5411133E-1,6.3529843E-1,-1.494894E-1,1.0199235E-1,-2.4990518E-2,-6.437034E-2,3.9687216E-2,-6.653177E-2,9.223218E-2,-9.010431E-2,2.7898893E-2,-1.4784336E-1,3.722943E-2,5.8690244E-3,-6.6564575E-2,4.322401E-2,-1.0582445E-2,-4.73947E-2,2.9916942E-2,-2.8148968E-2,-1.4563498E-1,-1.442586E-1,2.273423E-2,-5.5882704E-2,8.7813795E-2,-4.7712238E-3,1.1551769E-1,1.3268977E-2,-1.413453E-1,1.3598147E-1,6.327998E-2,-1.4696151E-1,5.285338E-3,9.399458E-2,1.5340996E-3],"categories":[],"categories_nodes":[],"categories_segments":[],"categories_sizes":[],"default_left":[0,0,0,0,0,0,0,0,0,0,0,0,0,0,0,0,0,0,0,0,0,0,0,0,0,0,0,0,0,0,0,0,0,0,0,0,0,0,0,0,0,0,0,0,0,0,0,0,0,0,0,0,0,0,0,0,0,0,0,0,0,0,0,0,0,0,0,0,0,0,0,0,0,0,0,0,0,0,0,0,0,0,0,0,0,0,0,0,0,0,0,0,0,0,0,0,0,0,0,0,0,0,0,0,0,0,0,0,0,0,0,0,0,0,0,0,0,0,0,0,0,0,0,0,0,0,0,0,0,0,0,0,0,0,0,0,0,0,0,0,0,0,0,0,0,0,0,0,0,0,0,0,0,0,0,0,0,0,0,0,0,0,0,0,0,0,0,0,0],"id":1,"left_children":[1,3,5,7,9,11,13,15,17,19,21,23,25,27,29,-1,31,33,35,-1,37,39,-1,-1,41,43,45,47,49,-1,51,-1,53,55,57,59,61,-1,-1,63,-1,65,67,69,71,73,75,77,-1,79,81,-1,-1,-1,-1,-1,83,85,-1,-1,-1,-1,87,-1,89,-1,91,-1,-1,93,95,97,99,101,103,105,107,109,-1,-1,-1,-1,-1,-1,-1,-1,-1,111,-1,-1,-1,-1,-1,113,115,117,119,121,123,-1,125,127,129,-1,-1,-1,131,133,-1,-1,135,-1,137,-1,-1,139,141,143,145,147,149,151,153,-1,155,157,159,-1,161,163,-1,165,-1,-1,-1,167,-1,-1,-1,-1,-1,-1,-1,-1,-1,-1,-1,-1,-1,-1,-1,-1,-1,-1,-1,-1,-1,-1,-1,-1,-1,-1,-1,-1,-1,-1,-1,-1,-1],"loss_changes":[1.966256E1,1.9039072E1,1.2681804E1,9.175792E0,6.1517334E0,9.838196E0,1.8371634E1,3.989108E0,6.3293014E0,5.8897586E0,5.21389E0,4.6659427E0,9.578506E0,1.0875132E1,6.0289288E0,0E0,1.2802057E0,3.4245186E0,4.4850044E0,0E0,9.3182385E-1,9.816742E-1,0E0,0E0,5.5682974E0,8.565233E0,1.112477E1,3.169983E0,5.737498E0,0E0,2.0970745E0,0E0,4.1510868E-1,1.6658459E0,2.8036656E0,5.202584E0,3.612934E0,0E0,0E0,1.0689735E0,0E0,1.4626026E0,1.9691663E0,1.3088022E1,1.1830526E1,8.630844E0,5.9856324E0,6.8984566E0,0E0,1.491704E0,3.4154859E0,0E0,0E0,0E0,0E0,0E0,1.18839264E-1,2.2027612E0,0E0,0E0,0E0,0E0,1.8364897E0,0E0,1.1478729E0,0E0,4.492035E-1,0E0,0E0,1.4797661E1,1.1089359E1,1.0587673E1,3.9091616E0,5.8949623E0,9.2438316E-1,3.792142E0,2.418589E0,3.889863E0,0E0,0E0,0E0,0E0,0E0,0E0,0E0,0E0,0E0,1.3985386E0,0E0,0E0,0E0,0E0,0E0,1.3194094E0,7.374321E0,5.6194324E0,5.4752207E0,5.548593E0,4.7087364E0,0E0,4.5434093E0,5.543947E0,2.9793015E0,0E0,0E0,0E0,3.9497602E0,1.9344416E0,0E0,0E0,6.923984E0,0E0,1.8367374E0,0E0,0E0,4.062796E0,5.1150284E0,2.3318882E0,6.3913193E0,5.484765E0,5.1104984E0,6.3626676E0,5.059914E0,0E0,4.6721916E0,6.9191766E0,2.4958358E0,0E0,2.3936682E0,1.3592873E0,0E0,4.4610896E0,0E0,0E0,0E0,6.6702783E-1,0E0,0E0,0E0,0E0,0E0,0E0,0E0,0E0,0E0,0E0,0E0,0E0,0E0,0E0,0E0,0E0,0E0,0E0,0E0,0E0,0E0,0E0,0E0,0E0,0E0,0E0,0E0,0E0,0E0,0E0,0E0,0E0,0E0],"parents":[2147483647,0,0,1,1,2,2,3,3,4,4,5,5,6,6,7,7,8,8,9,9,10,10,11,11,12,12,13,13,14,14,16,16,17,17,18,18,20,20,21,21,24,24,25,25,26,26,27,27,28,28,30,30,32,32,33,33,34,34,35,35,36,36,39,39,41,41,42,42,43,43,44,44,45,45,46,46,47,47,49,49,50,50,56,56,57,57,62,62,64,64,66,66,69,69,70,70,71,71,72,72,73,73,74,74,75,75,76,76,77,77,87,87,93,93,94,94,95,95,96,96,97,97,98,98,100,100,101,101,102,102,106,106,107,107,110,110,112,112,115,115,116,116,117,117,118,118,119,119,120,120,121,121,122,122,124,124,125,125,126,126,128,128,129,129,131,131,135,135],"right_children":[2,4,6,8,10,12,14,16,18,20,22,24,26,28,30,-1,32,34,36,-1,38,40,-1,-1,42,44,46,48,50,-1,52,-1,54,56,58,60,62,-1,-1,64,-1,66,68,70,72,74,76,78,-1,80,82,-1,-1,-1,-1,-1,84,86,-1,-1,-1,-1,88,-1,90,-1,92,-1,-1,94,96,98,100,102,104,106,108,110,-1,-1,-1,-1,-1,-1,-1,-1,-1,112,-1,-1,-1,-1,-1,114,116,118,120,122,124,-1,126,128,130,-1,-1,-1,132,134,-1,-1,136,-1,138,-1,-1,140,142,144,146,148,150,152,154,-1,156,158,160,-1,162,164,-1,166,-1,-1,-1,168,-1,-1,-1,-1,-1,-1,-1,-1,-1,-1,-1,-1,-1,-1,-1,-1,-1,-1,-1,-1,-1,-1,-1,-1,-1,-1,-1,-1,-1,-1,-1,-1,-1],"split_conditions":[2.9460303E2,7.0982456E0,3.876686E2,5.687755E0,1.743092E4,1.3629504E2,7.793915E0,1.3180678E4,6.470152E0,4.0634042E2,2.447967E2,9.0852785E0,8.52617E0,2.175203E4,3.936846E2,4.1318174E-2,1.0951138E1,7.833275E0,2.0852764E4,-1.22640245E-1,4.68603E2,5.431149E2,3.933066E-3,4.5217644E-2,1.6568655E1,2.0986609E2,7.410891E0,1.9756029E2,6.3612404E1,-6.2595196E-2,3.4415424E2,-2.5433395E-2,3.9830987E0,1.4034485E4,4.297914E0,1.0439619E1,1.7969916E2,-4.3732035E-3,9.908427E-2,3.4603055E2,-3.903881E-2,5.188777E0,3.9065263E0,6.3203754E0,8.038213E0,3.400642E4,2.1875217E4,1.9212105E2,-1.8979317E-1,4.129985E0,5.622807E0,-5.890015E-3,1.346194E-1,-1.7425427E-1,-4.502855E-2,-2.100984E-3,7.3693604E0,3.9711496E2,-9.166985E-2,-8.961072E-2,1.01126395E-1,-1.4564918E-1,2.2640375E2,-6.5611504E-2,9.456473E0,-2.5433395E-2,7.533969E1,-4.8301205E-2,8.769701E-2,5.018671E0,1.6437117E2,3.5301196E2,3.2032397E2,1.1047844E1,8.92241E0,1.7661282E2,3.3753952E2,6.356511E0,8.925005E-2,-1.2266657E-2,-1.2846713E-1,-4.1684132E-2,1.05743244E-1,1.3266426E-1,3.761513E-2,8.7334886E-2,-4.45067E-2,6.6129E0,-8.960275E-2,-4.5068044E-2,-2.0063455E-1,-1.7313713E-1,-4.502855E-2,3.2917447E2,1.6266435E4,1.5209416E2,1.3353182E1,7.520135E1,1.3597896E4,1.0893537E-1,2.5694873E4,9.771896E0,1.9806288E1,1.2018355E-3,-1.0494387E-1,1.0372805E-1,9.999807E0,3.2690793E2,1.661505E-2,-1.6564988E-1,7.291957E0,-4.8856717E-2,3.2740564E4,-1.7622685E-2,-1.2366717E-1,6.1058796E1,3.735308E1,3.227357E2,3.5279352E2,7.7360985E1,4.4125896E0,3.8490652E2,2.3856938E2,2.3493173E-2,3.8235788E2,4.3939443E0,1.2249489E1,1.0230607E-1,6.053072E0,6.8114157E0,-9.4163865E-3,1.249351E1,8.485515E-2,-4.2259195E-3,-1.5411133E-1,8.673483E0,-1.494894E-1,1.0199235E-1,-2.4990518E-2,-6.437034E-2,3.9687216E-2,-6.653177E-2,9.223218E-2,-9.010431E-2,2.7898893E-2,-1.4784336E-1,3.722943E-2,5.8690244E-3,-6.6564575E-2,4.322401E-2,-1.0582445E-2,-4.73947E-2,2.9916942E-2,-2.8148968E-2,-1.4563498E-1,-1.442586E-1,2.273423E-2,-5.5882704E-2,8.7813795E-2,-4.7712238E-3,1.1551769E-1,1.3268977E-2,-1.413453E-1,1.3598147E-1,6.327998E-2,-1.4696151E-1,5.285338E-3,9.399458E-2,1.5340996E-3],"split_indices":[4,0,4,3,2,1,0,2,0,5,1,6,0,2,4,0,6,3,2,0,5,5,0,0,6,1,3,1,7,0,5,0,8,2,8,6,1,0,0,5,0,0,8,0,3,2,2,1,0,8,0,0,0,0,0,0,3,5,0,0,0,0,1,0,6,0,7,0,0,3,1,4,4,6,0,1,4,0,0,0,0,0,0,0,0,0,0,3,0,0,0,0,0,4,2,1,6,7,2,0,2,6,6,0,0,0,0,4,0,0,0,0,2,0,0,7,7,5,4,7,8,5,1,0,4,8,6,0,3,3,0,6,0,0,0,3,0,0,0,0,0,0,0,0,0,0,0,0,0,0,0,0,0,0,0,0,0,0,0,0,0,0,0,0,0,0,0,0,0],"split_type":[0,0,0,0,0,0,0,0,0,0,0,0,0,0,0,0,0,0,0,0,0,0,0,0,0,0,0,0,0,0,0,0,0,0,0,0,0,0,0,0,0,0,0,0,0,0,0,0,0,0,0,0,0,0,0,0,0,0,0,0,0,0,0,0,0,0,0,0,0,0,0,0,0,0,0,0,0,0,0,0,0,0,0,0,0,0,0,0,0,0,0,0,0,0,0,0,0,0,0,0,0,0,0,0,0,0,0,0,0,0,0,0,0,0,0,0,0,0,0,0,0,0,0,0,0,0,0,0,0,0,0,0,0,0,0,0,0,0,0,0,0,0,0,0,0,0,0,0,0,0,0,0,0,0,0,0,0,0,0,0,0,0,0,0,0,0,0,0,0],"sum_hessian":[4.9764716E2,5.509948E1,4.4254767E2,3.2722496E1,2.2376984E1,4.0688696E2,3.5660694E1,7.0144286E0,2.5708065E1,4.766918E0,1.7610065E1,1.2043526E1,3.9484344E2,2.7003939E1,8.6567545E0,1.177976E0,5.8364525E0,1.2856135E1,1.2851931E1,1.9519137E0,2.8150046E0,1.5708161E1,1.9019052E0,2.1179566E0,9.92557E0,3.388694E2,5.597406E1,1.7488504E1,9.515435E0,1.9071878E0,6.7495666E0,1.4360235E0,4.4004292E0,7.8817434E0,4.974392E0,4.6941147E0,8.157815E0,1.1784041E0,1.6366004E0,1.4487281E1,1.22088E0,7.5592995E0,2.3662696E0,2.2997632E2,1.0889307E2,3.627345E1,1.9700613E1,1.08852005E1,6.6033034E0,4.076191E0,5.4392447E0,1.1694729E0,5.580094E0,3.1987233E0,1.2017059E0,1.1903726E0,6.691371E0,3.7781863E0,1.1962057E0,1.2019768E0,3.4921381E0,2.6793275E0,5.478488E0,2.2068324E0,1.2280449E1,1.4360235E0,6.123276E0,1.186849E0,1.1794205E0,7.0741646E1,1.5923466E2,8.211683E1,2.6776237E1,3.362952E1,2.6439276E0,1.4180109E1,5.5205035E0,9.695058E0,1.190143E0,2.1521974E0,1.9239936E0,1.6906872E0,3.7485573E0,5.5368767E0,1.1544944E0,2.575845E0,1.2023413E0,4.276234E0,1.2022538E0,1.2000455E0,1.1080403E1,4.9215703E0,1.2017059E0,5.484735E0,6.525691E1,1.7493284E1,1.417414E2,6.612005E1,1.5996778E1,5.6936297E0,2.1082607E1,4.7388415E0,2.889068E1,1.2017758E0,1.4421518E0,3.5313516E0,1.0648758E1,4.0847187E0,1.4357847E0,5.3818045E0,4.3132534E0,1.183364E0,3.09287E0,2.124892E0,3.3598428E0,1.5251417E1,5.0005493E1,7.188007E0,1.0305279E1,5.5451813E1,8.628957E1,4.5980583E1,2.0139467E1,2.1864305E0,1.3810347E1,1.4012799E1,7.0698085E0,1.8542074E0,2.884634E0,2.7221327E1,1.6693518E0,8.100302E0,2.5484564E0,1.1784673E0,2.9062517E0,2.6080549E0,1.7051985E0,1.6588403E0,1.4340298E0,4.526507E0,1.0724911E1,1.4341112E0,4.8571384E1,1.2027282E0,5.9852786E0,8.413814E0,1.891465E0,4.2662598E1,1.2789212E1,6.2279076E1,2.4010502E1,1.4950969E1,3.1029613E1,1.6095861E1,4.043606E0,1.2177334E1,1.6330131E0,1.0217095E1,3.7957041E0,2.3617768E0,4.7080317E0,1.4232831E0,1.4613509E0,2.121737E1,6.0039577E0,1.7155799E0,6.3847218E0,1.4026475E0,1.2054074E0],"tree_param":{"num_deleted":"0","num_feature":"9","num_nodes":"169","size_leaf_vector":"1"}},{"base_weights":[-3.7714061E-3,-6.0539156E-1,5.2015036E-2,-2.0715025E-1,-1.3321103E0,9.60051E-2,-4.534876E-1,-8.1258094E-1,3.5322037E-1,-6.767346E-1,-1.7772214E-1,-6.967879E-1,1.2175512E-1,-8.138524E-1,6.6558325E-1,4.4761828E-1,-1.1991855E0,-1.301282E-1,5.860647E-1,2.0552588E-1,-1.4321339E-1,4.2491492E-2,-9.4334084E-1,1.3692868E-1,-1.2303196E0,-1.2110565E0,-2.7448855E-2,-5.80129E-2,1.0615497E0,-4.872564E-2,1.00749604E-1,3.934837E-2,-1.4252479E0,-2.683789E-1,9.462046E-1,9.743448E-2,-4.9250595E-2,-1.2838149E0,2.4172412E-1,7.858023E-2,4.9586755E-1,-6.1611864E-3,-1.601486E-1,-7.9085594E-1,-1.7041628E-1,-7.5514686E-1,5.6413126E-1,-5.56787E-3,1.2758717E-1,-1.5692496E0,-5.497637E-2,7.3002584E-2,-1.2170865E-1,1.1569319E0,-1.8297351E-4,-2.3858367E-2,-1.4542023E0,8.5127436E-2,-4.7016885E-2,5.375872E-1,2.9531397E-2,6.3680476E-1,-6.3642746E-1,-1.0478553E0,8.543003E-2,-1.1409754E-2,-1.183332E-1,-3.8885225E-2,9.9734984E-2,-1.7297141E-1,-3.7778895E-2,1.3308278E-1,4.2638782E-2,-5.04779E-2,-1.6055018E-1,-5.5460584E-1,7.730919E-1,-2.3346372E-1,1.0547162E-1,7.4630207E-1,-6.753132E-1,-1.1796303E-1,2.6603732E-1,-1.4940366E-1,-3.0638686E-1,-1.23110965E-1,2.2502305E-1,1.2645634E0,3.5951635E-1,-3.3419173E-2,-8.7179357E-1,1.3410038E-1,-8.9913416E-1,9.982685E-1,4.2494744E-1,1.9675696E-2,-1.1679931E-1,4.170851E-2,-5.852882E-4,6.04574E-1,-1.3841651E-1,8.983314E-2,-4.0522616E-2,1.3221018E-1,3.751065E-2,8.338868E-2,-1.4035051E-2,-3.380498E-2,5.183036E-2,-1.4590463E-1,-5.039446E-3,2.4359941E-2,-8.089415E-3,-1.7702875E-1,-5.0766487E-3,1.08895995E-1,-4.6721905E-2,1.3638224E-3,9.3238406E-2,8.987486E-2,1.4504791E-3],"categories":[],"categories_nodes":[],"categories_segments":[],"categories_sizes":[],"default_left":[0,0,0,0,0,0,0,0,0,0,0,0,0,0,0,0,0,0,0,0,0,0,0,0,0,0,0,0,0,0,0,0,0,0,0,0,0,0,0,0,0,0,0,0,0,0,0,0,0,0,0,0,0,0,0,0,0,0,0,0,0,0,0,0,0,0,0,0,0,0,0,0,0,0,0,0,0,0,0,0,0,0,0,0,0,0,0,0,0,0,0,0,0,0,0,0,0,0,0,0,0,0,0,0,0,0,0,0,0,0,0,0,0,0,0,0,0,0,0,0,0],"id":2,"left_children":[1,3,5,7,9,11,13,15,17,19,-1,21,23,25,27,29,31,-1,33,35,-1,-1,37,39,41,43,45,-1,47,-1,-1,-1,49,51,53,-1,-1,55,57,59,61,-1,-1,63,-1,65,67,-1,-1,69,-1,-1,-1,71,-1,-1,73,-1,-1,75,77,79,81,83,-1,-1,-1,-1,-1,-1,-1,-1,-1,-1,-1,85,87,89,91,93,95,-1,97,-1,99,-1,101,103,105,107,109,111,113,115,117,-1,-1,-1,-1,119,-1,-1,-1,-1,-1,-1,-1,-1,-1,-1,-1,-1,-1,-1,-1,-1,-1,-1,-1,-1,-1],"loss_changes":[1.6685963E1,1.193368E1,1.0162267E1,9.934861E0,3.100275E0,8.64737E0,1.530278E1,7.343978E0,6.7205124E0,5.34683E0,0E0,4.091103E0,8.5202675E0,8.755754E0,5.285039E0,2.5889118E0,4.5082607E0,0E0,4.6379595E0,2.825834E0,0E0,0E0,4.849365E0,8.411195E0,1.9045496E0,2.5210476E0,4.9313855E0,0E0,1.8755608E0,0E0,0E0,0E0,3.749771E-1,5.627697E0,2.0485096E0,0E0,0E0,1.2376175E0,1.8549073E0,7.8244276E0,9.37838E0,0E0,0E0,5.9463835E0,0E0,1.27051E0,3.0074103E0,0E0,0E0,8.552723E-1,0E0,0E0,0E0,4.9741077E-1,0E0,0E0,2.6032066E-1,0E0,0E0,9.061522E0,6.329412E0,7.7601204E0,3.6101873E0,3.109211E0,0E0,0E0,0E0,0E0,0E0,0E0,0E0,0E0,0E0,0E0,0E0,3.7239873E0,5.2421E0,9.042477E0,7.1853695E0,3.3886414E0,2.1267107E0,0E0,1.3971536E-1,0E0,6.048851E0,0E0,2.01127E0,1.3918877E-1,4.057225E0,9.441034E0,8.083988E0,5.6627736E0,5.036229E0,3.9182606E0,4.6700435E0,0E0,0E0,0E0,0E0,6.071645E-1,0E0,0E0,0E0,0E0,0E0,0E0,0E0,0E0,0E0,0E0,0E0,0E0,0E0,0E0,0E0,0E0,0E0,0E0,0E0,0E0,0E0],"parents":[2147483647,0,0,1,1,2,2,3,3,4,4,5,5,6,6,7,7,8,8,9,9,11,11,12,12,13,13,14,14,15,15,16,16,18,18,19,19,22,22,23,23,24,24,25,25,26,26,28,28,32,32,33,33,34,34,37,37,38,38,39,39,40,40,43,43,45,45,46,46,49,49,53,53,56,56,59,59,60,60,61,61,62,62,63,63,75,75,76,76,77,77,78,78,79,79,80,80,82,82,84,84,86,86,87,87,88,88,89,89,90,90,91,91,92,92,93,93,94,94,99,99],"right_children":[2,4,6,8,10,12,14,16,18,20,-1,22,24,26,28,30,32,-1,34,36,-1,-1,38,40,42,44,46,-1,48,-1,-1,-1,50,52,54,-1,-1,56,58,60,62,-1,-1,64,-1,66,68,-1,-1,70,-1,-1,-1,72,-1,-1,74,-1,-1,76,78,80,82,84,-1,-1,-1,-1,-1,-1,-1,-1,-1,-1,-1,86,88,90,92,94,96,-1,98,-1,100,-1,102,104,106,108,110,112,114,116,118,-1,-1,-1,-1,120,-1,-1,-1,-1,-1,-1,-1,-1,-1,-1,-1,-1,-1,-1,-1,-1,-1,-1,-1,-1,-1],"split_conditions":[2.8632758E2,7.330197E0,3.876686E2,1.9886595E2,1.3381575E1,1.3629504E2,7.793915E0,1.9096822E4,8.12347E0,2.6999383E4,-1.7772214E-1,9.0852785E0,2.7861945E2,2.175203E4,3.936846E2,5.8135467E0,5.230454E0,-1.301282E-1,2.5727655E2,3.3958662E0,-1.4321339E-1,4.2491492E-2,1.6568655E1,8.52617E0,1.950035E4,1.9756029E2,6.3612404E1,-5.80129E-2,3.4415424E2,-4.872564E-2,1.00749604E-1,3.934837E-2,4.688959E0,6.470152E0,8.335619E0,9.743448E-2,-4.9250595E-2,5.188777E0,1.8148596E1,5.0687957E0,8.863273E0,-6.1611864E-3,-1.601486E-1,1.9212105E2,-1.7041628E-1,4.129985E0,5.622807E0,-5.56787E-3,1.2758717E-1,7.834841E1,-5.497637E-2,7.3002584E-2,-1.2170865E-1,7.260808E1,-1.8297351E-4,-2.3858367E-2,1.1546324E1,8.5127436E-2,-4.7016885E-2,5.620299E0,3.5909918E2,3.400642E4,4.474501E2,6.356511E0,8.543003E-2,-1.1409754E-2,-1.183332E-1,-3.8885225E-2,9.9734984E-2,-1.7297141E-1,-3.7778895E-2,1.3308278E-1,4.2638782E-2,-5.04779E-2,-1.6055018E-1,6.525155E1,3.3402744E2,7.420641E0,6.019852E2,6.8114157E0,8.92241E0,-1.1796303E-1,5.0747626E2,-1.4940366E-1,7.291957E0,-1.23110965E-1,6.831435E1,4.943209E2,4.212202E2,7.075819E1,3.3416113E2,7.2911575E1,6.9417195E0,1.9806288E1,3.9145436E0,1.9675696E-2,-1.1679931E-1,4.170851E-2,-5.852882E-4,8.673483E0,-1.3841651E-1,8.983314E-2,-4.0522616E-2,1.3221018E-1,3.751065E-2,8.338868E-2,-1.4035051E-2,-3.380498E-2,5.183036E-2,-1.4590463E-1,-5.039446E-3,2.4359941E-2,-8.089415E-3,-1.7702875E-1,-5.0766487E-3,1.08895995E-1,-4.6721905E-2,1.3638224E-3,9.3238406E-2,8.987486E-2,1.4504791E-3],"split_indices":[4,0,4,1,6,1,0,2,6,2,0,6,1,2,4,0,0,0,4,8,0,0,6,0,2,1,7,0,5,0,0,0,8,0,3,0,0,0,6,0,3,0,0,1,0,8,0,0,0,7,0,0,0,7,0,0,6,0,0,3,5,2,5,0,0,0,0,0,0,0,0,0,0,0,0,7,4,0,5,3,0,0,5,0,0,0,7,5,5,7,4,7,0,6,8,0,0,0,0,3,0,0,0,0,0,0,0,0,0,0,0,0,0,0,0,0,0,0,0,0,0],"split_type":[0,0,0,0,0,0,0,0,0,0,0,0,0,0,0,0,0,0,0,0,0,0,0,0,0,0,0,0,0,0,0,0,0,0,0,0,0,0,0,0,0,0,0,0,0,0,0,0,0,0,0,0,0,0,0,0,0,0,0,0,0,0,0,0,0,0,0,0,0,0,0,0,0,0,0,0,0,0,0,0,0,0,0,0,0,0,0,0,0,0,0,0,0,0,0,0,0,0,0,0,0,0,0,0,0,0,0,0,0,0,0,0,0,0,0,0,0,0,0,0,0],"sum_hessian":[4.9522638E2,4.1188072E1,4.540383E2,2.7437431E1,1.3750642E1,4.1843512E2,3.5603157E1,1.2972125E1,1.4465306E1,6.581096E0,7.169546E0,1.234349E1,4.0609164E2,2.7137156E1,8.466003E0,3.0082936E0,9.963832E0,1.2184972E0,1.3246809E1,3.3714137E0,3.2096825E0,2.093879E0,1.0249611E1,4.0247363E2,3.6180012E0,1.7671484E1,9.46567E0,1.9297874E0,6.5362163E0,1.1753771E0,1.8329164E0,1.146418E0,8.817413E0,4.0034018E0,9.243407E0,1.4159865E0,1.9554272E0,7.897342E0,2.352268E0,3.4724506E2,5.5228592E1,1.1531197E0,2.4648814E0,1.0946906E1,6.7245793E0,4.1205378E0,5.3451324E0,1.1711895E0,5.365027E0,6.891454E0,1.9259593E0,2.062921E0,1.9404807E0,7.382166E0,1.8612416E0,1.4433622E0,6.45398E0,1.1617464E0,1.1905217E0,3.256222E1,3.1468283E2,4.9504364E1,5.7242293E0,9.781887E0,1.1650182E0,2.1572776E0,1.96326E0,1.702477E0,3.6426554E0,5.6753473E0,1.2161071E0,5.2990956E0,2.0830703E0,1.483173E0,4.970807E0,5.5354877E0,2.7026731E1,7.0041565E1,2.4464127E2,4.608939E1,3.4149737E0,3.3816555E0,2.3425741E0,5.4733243E0,4.3085628E0,2.6537042E0,2.8817835E0,1.1410023E1,1.561671E1,5.4130196E1,1.5911367E1,2.3870528E2,5.935991E0,2.4653072E1,2.1436317E1,1.4496516E0,1.9653221E0,1.1626478E0,1.1799262E0,2.5729265E0,1.7356364E0,1.187642E0,1.6941415E0,1.0259903E1,1.1501193E0,7.6698513E0,7.9468584E0,3.5123974E1,1.9006224E1,8.825415E0,7.0859528E0,1.58067E2,8.0638275E1,2.392517E0,3.5434737E0,2.345829E1,1.1947818E0,1.2406748E1,9.029571E0,1.367864E0,1.2050625E0],"tree_param":{"num_deleted":"0","num_feature":"9","num_nodes":"121","size_leaf_vector":"1"}},{"base_weights":[-5.4119686E-3,-4.809489E-1,5.5021603E-2,-6.0006253E-2,-1.0545377E0,1.481192E-1,-1.804346E-1,-8.7249434E-1,1.9282508E-1,-1.3151819E-1,-1.2814757E0,-2.4669513E-1,1.9658293E-1,-4.5057046E-1,7.0569944E-1,3.7867807E-2,-1.136434E0,6.086376E-1,-2.2473632E-1,-1.049333E-1,6.336738E-1,-1.440186E0,7.511052E-3,7.5900364E-1,-4.7854728E-1,-1.3411444E-1,2.690294E-1,-2.4905705E-1,-8.9860976E-1,-4.8181242E-1,8.611658E-1,-2.1152942E-2,-1.3439726E0,9.656942E-1,-7.537478E-3,-1.1805328E-1,6.2150076E-2,9.443839E-2,-2.5142033E-3,-1.5375242E0,-5.515507E-2,9.376217E-1,-6.7403237E-3,-7.801688E-1,2.9187024E-1,-4.124326E-1,2.317309E-1,-7.0136017E-1,2.965728E-1,-6.162611E-1,1.18907556E-1,-1.1025422E0,1.4159541E-1,4.158562E-2,-9.904122E-2,9.991095E-1,-5.9747815E-2,-1.516131E-1,-4.068969E-2,-4.3595587E-3,1.1345465E0,3.931949E-1,-8.505346E-2,8.1180096E-1,-4.166409E-1,-5.6617584E-2,-1.6236672E0,3.0687077E-2,1.1500835E-1,9.0336494E-2,-9.4248074E-1,-6.186582E-1,8.487429E-1,-5.998866E-1,5.635851E-1,4.7341716E-1,-7.7612126E-1,4.104538E-2,-1.0138454E0,3.492903E-1,-1.9270086E-1,-1.2093753E0,-3.41056E-1,3.5546252E-1,-1.1143405E0,2.2907471E-2,-1.194908E0,-9.026824E-2,9.143858E-2,1.3710184E-1,6.7272633E-1,1.2337663E-1,2.9948398E-2,8.001673E-2,-4.2825233E-2,-8.850582E-3,1.1137544E-1,8.211495E-2,-1.3532262E-1,-7.5371504E-1,-1.7806531E-1,-5.126079E-2,-1.2595745E0,-1.2096252E-1,2.3433534E-2,1.263492E-1,-4.227914E-2,1.34203E-1,-7.7613944E-1,7.470457E-1,-3.83122E-3,1.0198896E0,-2.8917593E-1,4.1942008E-2,-1.2836955E-1,-1.2731567E-1,-3.521225E-3,4.4348702E-1,8.315203E-2,5.362258E-1,-4.7190475E-1,-1.440216E0,1.4317431E-2,-5.79552E-2,-8.1830627E-1,-1.04265854E-1,6.9115657E-1,-1.4924888E-1,-4.687377E-1,-1.3136189E0,-3.3161452E-3,-7.3727414E-2,1.0110022E0,-1.1064917E-1,6.30638E-1,-1.2110995E-2,-1.1119341E-1,-1.0291233E-1,7.252783E-1,-1.6009843E-1,-4.1975194E-1,-7.300681E-2,8.676901E-2,-5.3408533E-1,-1.4912228E-1,9.38117E-2,2.9679338E-2,-1.222138E-2,1.2273567E0,7.8873396E-2,-7.969087E-1,3.1571665E-1,6.575389E-1,8.344165E-1,-2.8717063E-2,-2.6382357E-1,1.0366043E-1,-6.8785095E-1,5.886162E-1,1.8442486E-4,-1.6591489E0,3.5693195E-1,-9.6530324E-1,4.169866E-1,-1.4427307E0,5.538742E-1,-5.787617E-1,8.4612423E-1,-4.952882E-2,1.3881323E-2,-9.249014E-2,-1.413851E0,-3.1148259E-2,7.153511E-2,-7.899706E-1,1.3237171E-1,9.662021E-2,1.0079463E-1,4.336853E-3,1.0007478E-1,1.2401096E-2,2.3682654E-2,-1.2194836E-1,-1.7801946E-2,-1.3874716E-1,1.3889693E-1,4.3309733E-2,7.0989914E-3,-1.2217535E-1,4.9793635E-2,-3.7597034E-3,1.04764774E-1,4.3819077E-2,1.2797223E-1,-2.4248926E-2,-1.756603E-2,6.307652E-2,3.837373E-2,-7.721793E-2,-1.0004049E-1,-1.9989707E-2,8.942119E-2,1.6418075E-3,-4.6017256E-2,-1.8061389E-1,7.716926E-2,-5.0600022E-2,-1.2788253E-1,6.7826905E-3,8.8307165E-2,-1.2429436E-2,-1.6418962E-1,-3.3979814E-2,-2.8054947E-2,9.926448E-2,5.3745706E-2,-8.8514425E-2,9.2997804E-2,-1.292064E-2,-1.8275735E-1,-1.06925584E-1,-1.260481E-1,4.6420647E-3,-8.987015E-2,9.132932E-2],"categories":[],"categories_nodes":[],"categories_segments":[],"categories_sizes":[],"default_left":[0,0,0,0,0,0,0,0,0,0,0,0,0,0,0,0,0,0,0,0,0,0,0,0,0,0,0,0,0,0,0,0,0,0,0,0,0,0,0,0,0,0,0,0,0,0,0,0,0,0,0,0,0,0,0,0,0,0,0,0,0,0,0,0,0,0,0,0,0,0,0,0,0,0,0,0,0,0,0,0,0,0,0,0,0,0,0,0,0,0,0,0,0,0,0,0,0,0,0,0,0,0,0,0,0,0,0,0,0,0,0,0,0,0,0,0,0,0,0,0,0,0,0,0,0,0,0,0,0,0,0,0,0,0,0,0,0,0,0,0,0,0,0,0,0,0,0,0,0,0,0,0,0,0,0,0,0,0,0,0,0,0,0,0,0,0,0,0,0,0,0,0,0,0,0,0,0,0,0,0,0,0,0,0,0,0,0,0,0,0,0,0,0,0,0,0,0,0,0,0,0,0,0,0,0,0,0,0,0,0,0,0,0,0,0,0,0,0,0,0,0,0,0,0,0],"id":3,"left_children":[1,3,5,7,9,11,13,15,17,19,21,23,25,27,29,-1,31,33,35,-1,37,39,-1,41,43,45,47,49,51,53,55,-1,57,59,61,-1,63,-1,-1,65,-1,67,-1,69,71,73,75,77,79,81,83,85,87,-1,-1,89,-1,-1,-1,-1,91,93,-1,95,97,-1,99,-1,-1,-1,101,103,105,107,109,111,113,-1,115,117,119,121,123,125,127,-1,129,-1,-1,-1,131,-1,-1,-1,-1,-1,-1,133,-1,135,-1,137,139,-1,-1,-1,-1,141,143,145,-1,147,149,-1,-1,-1,-1,151,153,155,157,159,-1,161,163,165,167,-1,169,171,-1,173,175,-1,177,-1,-1,-1,179,-1,181,-1,-1,183,-1,-1,-1,-1,185,-1,187,189,191,193,195,197,-1,199,201,-1,203,205,207,209,211,213,215,217,-1,-1,-1,219,-1,-1,221,-1,223,-1,-1,-1,-1,-1,-1,-1,-1,-1,-1,-1,-1,-1,-1,-1,-1,-1,-1,-1,-1,-1,-1,-1,-1,-1,-1,-1,-1,-1,-1,-1,-1,-1,-1,-1,-1,-1,-1,-1,-1,-1,-1,-1,-1,-1,-1,-1,-1],"loss_changes":[1.4215423E1,1.3403045E1,9.648802E0,6.993835E0,4.7636185E0,6.0781317E0,3.019965E1,3.0942626E0,4.678933E0,4.710954E0,4.1526623E0,8.500053E0,6.773697E0,8.46871E0,5.8710585E0,0E0,1.0423822E0,2.9504094E0,3.8527536E0,0E0,7.944907E-1,6.1095047E-1,0E0,1.085315E0,6.959988E0,5.3093414E0,6.382742E0,9.233267E0,6.4108524E0,2.2665904E0,5.9272575E0,0E0,2.6360703E-1,1.4941564E0,2.3275695E0,0E0,4.4842134E0,0E0,0E0,3.0592346E-1,0E0,4.1908216E-1,0E0,6.615137E0,5.0271735E0,5.7245755E0,5.9123707E0,2.7346878E0,5.8798065E0,5.1524754E0,1.0519001E1,3.319828E0,5.4408746E0,0E0,0E0,2.0609055E0,0E0,0E0,0E0,0E0,2.3528576E-1,1.9082037E0,0E0,1.4146717E0,3.7125928E0,0E0,4.2160797E-1,0E0,0E0,0E0,5.51038E0,2.273584E0,3.6620464E0,3.3623457E0,6.093464E-1,8.205447E0,3.4401834E0,0E0,1.3502879E0,5.0718994E0,4.845122E0,3.4572802E0,3.2871368E0,4.682296E0,7.2285557E-1,0E0,3.1725998E0,0E0,0E0,0E0,3.8754888E0,0E0,0E0,0E0,0E0,0E0,0E0,4.592446E0,0E0,7.0563745E-1,0E0,5.469091E0,3.487749E0,0E0,0E0,0E0,0E0,4.2647038E0,2.743904E0,7.2515965E-2,0E0,2.8225155E0,5.3917313E0,0E0,0E0,0E0,0E0,3.9025555E0,4.6045985E0,2.9625072E0,4.2629404E0,2.8397694E0,0E0,6.581285E0,7.6308823E0,4.5289936E0,3.6176386E0,0E0,1.1288795E0,1.6822853E0,0E0,3.7449334E0,2.8534746E0,0E0,1.0031073E0,0E0,0E0,0E0,5.472214E-1,0E0,3.2022765E0,0E0,0E0,4.8698077E0,0E0,0E0,0E0,0E0,6.3528347E-1,0E0,2.4516473E0,6.201317E0,4.2687206E0,3.7138648E0,4.8016505E0,1.4095461E0,0E0,2.0049548E0,5.778955E-1,0E0,5.438404E-1,4.72082E0,1.858006E0,1.077414E0,8.210211E-1,2.5325463E0,3.3209662E0,1.4087772E0,0E0,0E0,0E0,7.444191E-1,0E0,0E0,1.4061499E0,0E0,3.8574722E0,0E0,0E0,0E0,0E0,0E0,0E0,0E0,0E0,0E0,0E0,0E0,0E0,0E0,0E0,0E0,0E0,0E0,0E0,0E0,0E0,0E0,0E0,0E0,0E0,0E0,0E0,0E0,0E0,0E0,0E0,0E0,0E0,0E0,0E0,0E0,0E0,0E0,0E0,0E0,0E0,0E0,0E0,0E0,0E0,0E0,0E0,0E0,0E0],"parents":[2147483647,0,0,1,1,2,2,3,3,4,4,5,5,6,6,7,7,8,8,9,9,10,10,11,11,12,12,13,13,14,14,16,16,17,17,18,18,20,20,21,21,23,23,24,24,25,25,26,26,27,27,28,28,29,29,30,30,32,32,33,33,34,34,36,36,39,39,41,41,43,43,44,44,45,45,46,46,47,47,48,48,49,49,50,50,51,51,52,52,55,55,60,60,61,61,63,63,64,64,66,66,70,70,71,71,72,72,73,73,74,74,75,75,76,76,78,78,79,79,80,80,81,81,82,82,83,83,84,84,86,86,90,90,97,97,99,99,101,101,102,102,107,107,108,108,109,109,111,111,112,112,117,117,118,118,119,119,120,120,121,121,123,123,124,124,125,125,126,126,128,128,129,129,131,131,132,132,134,134,138,138,140,140,143,143,148,148,150,150,151,151,152,152,153,153,154,154,155,155,157,157,158,158,160,160,161,161,162,162,163,163,164,164,165,165,166,166,167,167,171,171,174,174,176,176],"right_children":[2,4,6,8,10,12,14,16,18,20,22,24,26,28,30,-1,32,34,36,-1,38,40,-1,42,44,46,48,50,52,54,56,-1,58,60,62,-1,64,-1,-1,66,-1,68,-1,70,72,74,76,78,80,82,84,86,88,-1,-1,90,-1,-1,-1,-1,92,94,-1,96,98,-1,100,-1,-1,-1,102,104,106,108,110,112,114,-1,116,118,120,122,124,126,128,-1,130,-1,-1,-1,132,-1,-1,-1,-1,-1,-1,134,-1,136,-1,138,140,-1,-1,-1,-1,142,144,146,-1,148,150,-1,-1,-1,-1,152,154,156,158,160,-1,162,164,166,168,-1,170,172,-1,174,176,-1,178,-1,-1,-1,180,-1,182,-1,-1,184,-1,-1,-1,-1,186,-1,188,190,192,194,196,198,-1,200,202,-1,204,206,208,210,212,214,216,218,-1,-1,-1,220,-1,-1,222,-1,224,-1,-1,-1,-1,-1,-1,-1,-1,-1,-1,-1,-1,-1,-1,-1,-1,-1,-1,-1,-1,-1,-1,-1,-1,-1,-1,-1,-1,-1,-1,-1,-1,-1,-1,-1,-1,-1,-1,-1,-1,-1,-1,-1,-1,-1,-1,-1,-1],"split_conditions":[2.9460303E2,7.0982456E0,3.50836E2,5.687755E0,1.743092E4,1.5929019E2,7.91667E0,1.3180678E4,6.470152E0,4.0634042E2,2.447967E2,5.188777E0,3.4981607E2,2.0778658E2,3.551648E2,3.7867807E-2,1.0951138E1,7.833275E0,9.854012E0,-1.049333E-1,1.9984587E2,2.9027646E2,7.511052E-3,7.6317444E1,4.401152E0,6.787391E1,8.001414E0,6.869639E0,2.8266756E4,1.8777681E2,9.370849E0,-2.1152942E-2,3.9830987E0,1.4034485E4,4.297914E0,-1.1805328E-1,2.0852764E4,9.443839E-2,-2.5142033E-3,3.1434307E0,-5.515507E-2,5.660868E1,-6.7403237E-3,2.5456314E0,1.3936226E2,1.737574E1,2.3463596E2,1.3121172E4,8.7083916E1,6.3906794E0,8.983276E0,4.3005095E0,7.659204E0,4.158562E-2,-9.904122E-2,6.3071598E1,-5.9747815E-2,-1.516131E-1,-4.068969E-2,-4.3595587E-3,7.543964E1,3.9711496E2,-8.505346E-2,6.4162984E0,4.722741E2,-5.6617584E-2,7.330197E0,3.0687077E-2,1.1500835E-1,9.0336494E-2,1.1546324E1,6.402152E1,7.663119E1,3.2207297E2,3.4079257E2,1.5952393E1,3.7563918E0,4.104538E-2,7.70101E0,4.8742163E2,3.9857422E2,5.104144E2,6.1504874E0,1.8253182E4,1.4905256E4,2.2907471E-2,2.522749E2,-9.026824E-2,9.143858E-2,1.3710184E-1,1.3381575E1,1.2337663E-1,2.9948398E-2,8.001673E-2,-4.2825233E-2,-8.850582E-3,1.1137544E-1,1.7219814E2,-1.3532262E-1,1.4121049E1,-1.7806531E-1,3.5425277E0,1.6568655E1,-1.2096252E-1,2.3433534E-2,1.263492E-1,-4.227914E-2,5.3319977E1,3.3884814E2,6.7828684E0,-3.83122E-3,2.8728607E2,6.704792E0,4.1942008E-2,-1.2836955E-1,-1.2731567E-1,-3.521225E-3,2.3829793E4,1.7110388E2,3.765698E2,5.202011E2,3.0390189E0,1.4317431E-2,3.9234625E2,3.4866464E0,1.3677994E4,5.6479346E2,-1.4924888E-1,4.2746615E0,1.8892393E1,-3.3161452E-3,6.9118676E0,8.983811E0,-1.1064917E-1,3.808913E0,-1.2110995E-2,-1.1119341E-1,-1.0291233E-1,7.312352E0,-1.6009843E-1,4.0398993E2,-7.300681E-2,8.676901E-2,7.8741665E0,-1.4912228E-1,9.38117E-2,2.9679338E-2,-1.222138E-2,7.91667E0,7.8873396E-2,7.0926914E0,6.787391E1,6.3965697E0,7.2308455E0,8.077261E0,3.1298273E2,1.0366043E-1,7.0390944E0,2.120862E4,1.8442486E-4,1.1119274E1,2.8135076E4,1.990994E4,3.6926422E2,3.800782E2,6.4647927E0,7.025504E0,7.7744684E0,-4.952882E-2,1.3881323E-2,-9.249014E-2,3.6241007E0,-3.1148259E-2,7.153511E-2,7.6076393E0,1.3237171E-1,1.8939938E4,1.0079463E-1,4.336853E-3,1.0007478E-1,1.2401096E-2,2.3682654E-2,-1.2194836E-1,-1.7801946E-2,-1.3874716E-1,1.3889693E-1,4.3309733E-2,7.0989914E-3,-1.2217535E-1,4.9793635E-2,-3.7597034E-3,1.04764774E-1,4.3819077E-2,1.2797223E-1,-2.4248926E-2,-1.756603E-2,6.307652E-2,3.837373E-2,-7.721793E-2,-1.0004049E-1,-1.9989707E-2,8.942119E-2,1.6418075E-3,-4.6017256E-2,-1.8061389E-1,7.716926E-2,-5.0600022E-2,-1.2788253E-1,6.7826905E-3,8.8307165E-2,-1.2429436E-2,-1.6418962E-1,-3.3979814E-2,-2.8054947E-2,9.926448E-2,5.3745706E-2,-8.8514425E-2,9.2997804E-2,-1.292064E-2,-1.8275735E-1,-1.06925584E-1,-1.260481E-1,4.6420647E-3,-8.987015E-2,9.132932E-2],"split_indices":[4,0,4,3,2,1,0,2,0,5,1,0,5,1,4,0,6,3,6,0,1,4,0,7,8,7,6,0,2,1,3,0,8,2,8,0,2,0,0,8,0,7,0,8,1,6,1,2,7,3,3,3,3,0,0,7,0,0,0,0,7,5,0,3,5,0,0,0,0,0,6,7,7,4,4,6,8,0,6,5,5,5,0,2,2,0,1,0,0,0,6,0,0,0,0,0,0,1,0,6,0,8,6,0,0,0,0,7,5,0,0,5,0,0,0,0,0,2,1,5,5,8,0,4,8,2,5,0,8,6,0,3,0,0,8,0,0,0,3,0,5,0,0,3,0,0,0,0,0,0,3,7,0,0,0,4,0,0,2,0,6,2,2,4,4,3,0,0,0,0,0,8,0,0,3,0,2,0,0,0,0,0,0,0,0,0,0,0,0,0,0,0,0,0,0,0,0,0,0,0,0,0,0,0,0,0,0,0,0,0,0,0,0,0,0,0,0,0,0,0,0,0,0,0,0],"split_type":[0,0,0,0,0,0,0,0,0,0,0,0,0,0,0,0,0,0,0,0,0,0,0,0,0,0,0,0,0,0,0,0,0,0,0,0,0,0,0,0,0,0,0,0,0,0,0,0,0,0,0,0,0,0,0,0,0,0,0,0,0,0,0,0,0,0,0,0,0,0,0,0,0,0,0,0,0,0,0,0,0,0,0,0,0,0,0,0,0,0,0,0,0,0,0,0,0,0,0,0,0,0,0,0,0,0,0,0,0,0,0,0,0,0,0,0,0,0,0,0,0,0,0,0,0,0,0,0,0,0,0,0,0,0,0,0,0,0,0,0,0,0,0,0,0,0,0,0,0,0,0,0,0,0,0,0,0,0,0,0,0,0,0,0,0,0,0,0,0,0,0,0,0,0,0,0,0,0,0,0,0,0,0,0,0,0,0,0,0,0,0,0,0,0,0,0,0,0,0,0,0,0,0,0,0,0,0,0,0,0,0,0,0,0,0,0,0,0,0,0,0,0,0,0,0],"sum_hessian":[4.9272833E2,5.4773197E1,4.379551E2,3.222712E1,2.2546076E1,3.1412387E2,1.2383126E2,7.066766E0,2.5160355E1,4.761062E0,1.7785013E1,3.389607E1,2.8022778E2,9.527763E1,2.8553629E1,1.1553342E0,5.9114313E0,1.2377298E1,1.2783057E1,1.9958241E0,2.765238E0,1.5867062E1,1.9179515E0,5.9243817E0,2.7971685E1,5.020503E1,2.3002277E2,6.679245E1,2.848518E1,3.0624347E0,2.5491194E1,1.4534221E0,4.4580092E0,7.477216E0,4.900082E0,2.2319765E0,1.0551081E1,1.5845007E0,1.1807373E0,1.3642498E1,2.2245636E0,4.7608123E0,1.1635696E0,2.0092669E1,7.879017E0,2.8441053E1,2.1763977E1,5.6735206E0,2.2434924E2,3.3093033E1,3.3699417E1,2.3765936E1,4.719244E0,1.1735294E0,1.8889054E0,2.3576601E1,1.9145926E0,3.244073E0,1.2139362E0,1.1779581E0,6.2992578E0,3.6829207E0,1.2171614E0,3.84125E0,6.7098308E0,1.7281692E0,1.191433E1,1.8154649E0,2.9453473E0,1.3653512E0,1.8727318E1,2.947949E0,4.931068E0,2.4182026E1,4.2590275E0,1.7982084E1,3.7818918E0,1.1759633E0,4.4975576E0,2.0278589E2,2.1563353E1,9.412669E0,2.3680365E1,2.8872936E1,4.8264832E0,1.4455584E0,2.2320377E1,1.9355874E0,2.7836566E0,9.5237665E0,1.4052835E1,5.2035336E0,1.0957237E0,2.480101E0,1.2028196E0,1.1422871E0,2.698963E0,4.9735904E0,1.7362404E0,2.7081308E0,9.206198E0,5.2193975E0,1.3507919E1,1.4944658E0,1.4534832E0,3.723019E0,1.208049E0,4.7281103E0,1.9453915E1,3.0792954E0,1.1797322E0,1.0278872E1,7.7032127E0,1.1788657E0,2.603026E0,3.3175447E0,1.1800128E0,1.492826E2,5.3503307E1,5.7170672E0,1.5846285E1,7.985041E0,1.4276284E0,1.5567369E1,8.112995E0,1.2476265E1,1.6396671E1,2.2164612E0,2.6100218E0,2.0132452E1,2.1879246E0,4.626299E0,9.426537E0,1.2492794E0,3.7243109E0,1.4628558E0,1.2452751E0,2.1662555E0,3.053142E0,8.959367E0,4.5485525E0,2.172686E0,2.5554242E0,1.5839251E1,3.6146648E0,1.4011571E0,1.6781383E0,1.6433235E0,8.635549E0,2.289401E0,5.4138117E0,9.503181E1,5.4250782E1,6.09734E0,4.7405968E1,2.3817182E0,3.335349E0,1.3457445E1,2.3888395E0,1.1831945E0,6.8018465E0,1.1098962E1,4.4684076E0,2.835587E0,5.2774076E0,5.156606E0,7.3196588E0,1.4756137E1,1.640534E0,1.4176242E0,1.1923976E0,1.792844E1,2.2040124E0,2.2018197E0,2.424479E0,6.690686E0,2.7358499E0,1.8313686E0,1.8929423E0,1.6382046E0,1.4149375E0,2.8843627E0,1.6641898E0,1.2028921E1,3.8103292E0,6.553341E0,2.082207E0,2.0529094E0,3.3609023E0,6.2426388E1,3.2605415E1,1.8166185E1,3.6084595E1,4.180394E0,1.9169458E0,3.936782E1,8.038145E0,1.1552551E0,1.226463E0,7.5629015E0,5.8945436E0,1.190343E0,1.1984966E0,1.1939117E0,5.607935E0,7.5674615E0,3.5315008E0,3.2456424E0,1.2227652E0,1.184335E0,1.651252E0,4.0562696E0,1.2211381E0,1.9013503E0,3.2552562E0,1.4139879E0,5.9056706E0,1.3630737E1,1.125399E0,6.1914377E0,1.1737002E1,1.2271186E0,1.1973605E0,1.1877884E0,1.5480616E0],"tree_param":{"num_deleted":"0","num_feature":"9","num_nodes":"225","size_leaf_vector":"1"}},{"base_weights":[-6.906508E-3,-4.489745E-1,4.904562E-2,-6.099296E-2,-9.730438E-1,1.3514896E-1,-1.6897106E-1,-8.094358E-1,1.754221E-1,-1.2114826E-1,-1.1815903E0,-2.4592136E-1,1.7842871E-1,-4.1477638E-1,6.580627E-1,3.6053706E-2,-1.0554873E0,8.9476866E-1,-4.6264857E-2,-9.786957E-2,6.02798E-1,-1.3287419E0,7.024502E-3,6.013087E-1,-4.8237023E-1,-1.8109325E-1,2.2719285E-1,-2.328564E-1,-8.166315E-1,-3.5730135E-1,8.255332E-1,-1.985584E-2,-1.2486765E0,1.09387636E-1,3.529763E-1,-1.09546684E-1,1.4144121E-1,-3.2743241E-3,9.083353E-2,-1.3934413E0,-2.8293623E-2,-2.9576495E-1,1.0775641E0,8.93491E-2,-7.0877117E-1,-4.8113456E-1,6.736256E-1,2.4251978E-1,-8.715241E-1,-5.932829E-1,8.0581754E-2,-1.066837E0,-8.708147E-2,4.8738822E-2,-8.415462E-1,9.652629E-1,-5.543614E-2,-1.4083101E-1,-3.8323503E-2,7.203412E-2,-1.7514424E-2,5.8510935E-1,-3.0377442E-1,-5.1278602E-2,-1.5020996E0,4.459923E-2,-9.008147E-2,3.3070024E-2,1.2006559E-1,-3.0267665E-1,-1.2104164E0,3.6124223E-1,-8.0333114E-1,1.1738181E0,-3.5106993E-1,-5.762013E-1,2.6199222E-1,-4.0922523E-3,-1.2368559E-1,-1.2226377E0,-3.1468534E-1,2.6959157E-1,-9.216006E-1,1.1478787E-2,-1.1426253E0,8.46157E-2,-5.657432E-1,-4.0317536E-4,-1.2855111E-1,1.0958071E0,3.0730805E-1,8.393242E-1,-3.8638603E-2,-7.7446127E-1,2.876156E-1,-3.3659056E-2,-1.5919714E-1,7.103653E-2,-5.200899E-1,1.2028108E-2,-1.5846229E0,1.125415E-1,-3.1118676E-1,-4.144198E-1,-1.3622894E0,1.2837067E-1,3.3997096E-2,3.9046966E-2,-8.182839E-2,4.0429186E-2,-8.959148E-1,6.834201E-2,3.467906E-1,-1.534393E0,4.923477E-2,-7.2730356E-1,1.9401213E-2,-7.731895E-1,3.8788748E-1,-1.1614028E0,-9.7790705E-3,-4.6975997E-1,-1.3211163E0,-1.008123E0,3.311195E-2,5.8630747E-1,1.2828602E0,9.840712E-2,-4.7196995E-2,1.0953234E0,-9.131692E-3,-1.21600285E-1,-2.3522401E-1,-6.59019E-2,8.338345E-2,-9.5428836E-1,2.1358924E-1,-1.7125691E-1,-4.72486E-2,-1.01692215E-1,4.4650424E-2,-1.271848E0,2.387945E-1,-3.8774636E-2,-1.5851796E-1,-1.0385931E-2,-1.4851184E-1,-4.3751892E-1,4.0464634E-1,6.5392566E-1,1.8726988E-1,-1.6585556E-1,-5.7315793E-2,-9.444506E-1,5.1370807E-2,4.4713715E-1,-8.073249E-1,-1.3242227E-1,6.5607666E-3,1.0014583E-1,2.6744324E-1,-1.4805406E-1,-3.7309673E-2,-1.125127E-1,-5.193813E-2,-1.4635944E0,-3.8272342E-1,1.45747615E-2,-1.4969103E-1,9.4808817E-1,-1.20002806E-1,3.3787213E-2,1.3392152E-1,1.19778454E-1,3.262381E-2,3.0231757E-2,-7.6893285E-2,7.746104E-4,-1.3812354E-1,-8.083307E-2,9.1497675E-2,-1.5328673E-1,-4.0892396E-2,-1.5632486E-2,1.0293909E-1,3.7603077E-2,-9.707326E-2,7.68018E-2,9.18294E-3,-4.5056466E-2,8.1520714E-2,3.326757E-2,-3.8890757E-2,-2.514253E-2,-1.2582426E-1,-7.210567E-2,9.793471E-2,-1.2553805E-1,3.812922E-2,-4.0076066E-2,4.5410484E-2,-8.210259E-2,5.6713194E-2,-4.309384E-2,-1.5567422E-1,1.4956807E-2,-7.4138544E-2,2.6056884E-2,1.0777711E-1,7.218154E-2,-8.431816E-2],"categories":[],"categories_nodes":[],"categories_segments":[],"categories_sizes":[],"default_left":[0,0,0,0,0,0,0,0,0,0,0,0,0,0,0,0,0,0,0,0,0,0,0,0,0,0,0,0,0,0,0,0,0,0,0,0,0,0,0,0,0,0,0,0,0,0,0,0,0,0,0,0,0,0,0,0,0,0,0,0,0,0,0,0,0,0,0,0,0,0,0,0,0,0,0,0,0,0,0,0,0,0,0,0,0,0,0,0,0,0,0,0,0,0,0,0,0,0,0,0,0,0,0,0,0,0,0,0,0,0,0,0,0,0,0,0,0,0,0,0,0,0,0,0,0,0,0,0,0,0,0,0,0,0,0,0,0,0,0,0,0,0,0,0,0,0,0,0,0,0,0,0,0,0,0,0,0,0,0,0,0,0,0,0,0,0,0,0,0,0,0,0,0,0,0,0,0,0,0,0,0,0,0,0,0,0,0,0,0,0,0,0,0,0,0,0,0,0,0,0,0,0,0,0,0,0,0,0,0,0,0],"id":4,"left_children":[1,3,5,7,9,11,13,15,17,19,21,23,25,27,29,-1,31,33,35,-1,37,39,-1,41,43,45,47,49,51,53,55,-1,57,-1,59,-1,61,-1,-1,63,-1,65,67,-1,69,71,73,75,77,79,81,83,85,-1,87,89,-1,-1,-1,-1,-1,91,93,-1,95,-1,-1,-1,-1,97,99,101,103,105,107,109,111,-1,-1,113,115,117,119,-1,121,-1,123,-1,-1,125,127,129,-1,131,133,-1,-1,-1,135,-1,137,-1,139,141,143,-1,-1,-1,-1,-1,145,147,149,151,-1,153,155,157,159,161,-1,163,165,167,-1,169,171,-1,-1,173,-1,-1,175,-1,-1,177,179,-1,-1,-1,-1,181,183,-1,-1,-1,-1,185,187,189,191,-1,-1,193,-1,195,197,-1,-1,-1,199,-1,-1,-1,201,203,205,-1,-1,207,209,-1,-1,-1,-1,-1,-1,-1,-1,-1,-1,-1,-1,-1,-1,-1,-1,-1,-1,-1,-1,-1,-1,-1,-1,-1,-1,-1,-1,-1,-1,-1,-1,-1,-1,-1,-1,-1,-1,-1,-1],"loss_changes":[1.2145927E1,1.1157798E1,8.207254E0,5.939778E0,4.0142784E0,5.207852E0,2.5457155E1,2.6961055E0,4.1433864E0,4.138734E0,3.5352478E0,6.7715335E0,4.9807806E0,6.8362427E0,5.1871862E0,0E0,8.944564E-1,2.728815E-1,4.2146616E0,0E0,7.5179386E-1,7.40427E-1,0E0,3.5249393E0,8.685451E0,9.096779E0,4.3968573E0,7.6802263E0,5.3015423E0,2.36182E0,5.3552265E0,0E0,2.1212101E-1,0E0,7.3111486E-1,0E0,3.8065736E0,0E0,0E0,7.165642E-1,0E0,1.921908E0,7.340479E-2,0E0,4.2691774E0,7.3205776E0,5.1812816E0,4.071354E0,1.0530643E0,5.146144E0,7.2601523E0,2.093876E0,4.3364015E0,0E0,1.2588413E0,1.6443691E0,0E0,0E0,0E0,0E0,0E0,2.681212E0,2.9584298E0,0E0,8.5863686E-1,0E0,0E0,0E0,0E0,3.432797E0,5.093686E0,4.3871794E0,3.5759335E0,1.5761185E-1,1.6436642E0,2.251026E0,3.9318905E0,0E0,0E0,5.7451553E0,3.2138686E0,4.2370157E0,1.0914474E0,0E0,1.8639088E0,0E0,2.836315E0,0E0,0E0,1.0449657E0,3.2113018E0,1.9772077E0,0E0,1.0813987E0,3.1786427E0,0E0,0E0,0E0,4.035598E0,0E0,2.944374E-1,0E0,3.1075928E0,7.399476E0,9.879074E-1,0E0,0E0,0E0,0E0,0E0,2.1113625E0,1.2868845E1,8.07329E0,2.0881653E-2,0E0,3.2908306E0,5.241142E0,1.7442858E0,1.8997264E0,6.1307335E-1,0E0,1.5541022E0,1.5520573E0,2.7399216E0,0E0,1.8783438E0,2.372303E-1,0E0,0E0,1.02249146E-1,0E0,0E0,1.3299319E0,0E0,0E0,3.1895084E0,4.5305967E0,0E0,0E0,0E0,0E0,6.4269257E-1,2.6702058E0,0E0,0E0,0E0,0E0,1.3496958E1,5.082244E0,1.0481939E1,9.47064E0,0E0,0E0,1.6871948E0,0E0,6.7608376E0,3.1745367E0,0E0,0E0,0E0,3.4102068E0,0E0,0E0,0E0,2.677008E0,6.143818E-1,7.6697E-1,0E0,0E0,1.3633299E-1,2.5729723E0,0E0,0E0,0E0,0E0,0E0,0E0,0E0,0E0,0E0,0E0,0E0,0E0,0E0,0E0,0E0,0E0,0E0,0E0,0E0,0E0,0E0,0E0,0E0,0E0,0E0,0E0,0E0,0E0,0E0,0E0,0E0,0E0,0E0,0E0,0E0,0E0,0E0,0E0,0E0,0E0],"parents":[2147483647,0,0,1,1,2,2,3,3,4,4,5,5,6,6,7,7,8,8,9,9,10,10,11,11,12,12,13,13,14,14,16,16,17,17,18,18,20,20,21,21,23,23,24,24,25,25,26,26,27,27,28,28,29,29,30,30,32,32,34,34,36,36,39,39,41,41,42,42,44,44,45,45,46,46,47,47,48,48,49,49,50,50,51,51,52,52,54,54,55,55,61,61,62,62,64,64,69,69,70,70,71,71,72,72,73,73,74,74,75,75,76,76,79,79,80,80,81,81,82,82,84,84,86,86,89,89,90,90,91,91,93,93,94,94,98,98,100,100,102,102,103,103,104,104,110,110,111,111,112,112,113,113,115,115,116,116,117,117,118,118,119,119,121,121,122,122,123,123,125,125,126,126,129,129,132,132,135,135,136,136,141,141,142,142,147,147,148,148,149,149,150,150,153,153,155,155,156,156,160,160,164,164,165,165,166,166,169,169,170,170],"right_children":[2,4,6,8,10,12,14,16,18,20,22,24,26,28,30,-1,32,34,36,-1,38,40,-1,42,44,46,48,50,52,54,56,-1,58,-1,60,-1,62,-1,-1,64,-1,66,68,-1,70,72,74,76,78,80,82,84,86,-1,88,90,-1,-1,-1,-1,-1,92,94,-1,96,-1,-1,-1,-1,98,100,102,104,106,108,110,112,-1,-1,114,116,118,120,-1,122,-1,124,-1,-1,126,128,130,-1,132,134,-1,-1,-1,136,-1,138,-1,140,142,144,-1,-1,-1,-1,-1,146,148,150,152,-1,154,156,158,160,162,-1,164,166,168,-1,170,172,-1,-1,174,-1,-1,176,-1,-1,178,180,-1,-1,-1,-1,182,184,-1,-1,-1,-1,186,188,190,192,-1,-1,194,-1,196,198,-1,-1,-1,200,-1,-1,-1,202,204,206,-1,-1,208,210,-1,-1,-1,-1,-1,-1,-1,-1,-1,-1,-1,-1,-1,-1,-1,-1,-1,-1,-1,-1,-1,-1,-1,-1,-1,-1,-1,-1,-1,-1,-1,-1,-1,-1,-1,-1,-1,-1,-1,-1],"split_conditions":[2.9460303E2,7.0982456E0,3.50836E2,5.687755E0,1.743092E4,3.260262E2,7.91667E0,1.3180678E4,5.4185038E0,4.0634042E2,2.447967E2,6.286043E0,1.6218439E2,2.0778658E2,3.5547302E2,3.6053706E-2,1.0951138E1,4.244173E0,9.3001175E0,-9.786957E-2,6.611013E1,5.431149E2,7.024502E-3,6.604008E0,5.5140624E0,1.6022503E1,2.7861945E2,6.7980976E0,2.5694873E4,1.8777681E2,9.370849E0,-1.985584E-2,3.9830987E0,1.09387636E-1,2.0165085E2,-1.09546684E-1,6.931488E1,-3.2743241E-3,9.083353E-2,3.4603055E2,-2.8293623E-2,2.9160028E2,2.8966058E2,8.93491E-2,2.3031215E4,5.729689E0,4.7106265E2,7.70101E0,2.175203E4,6.3906794E0,8.983276E0,4.7395487E0,1.3381575E1,4.8738822E-2,4.7493747E2,9.895889E0,-5.543614E-2,-1.4083101E-1,-3.8323503E-2,7.203412E-2,-1.7514424E-2,4.9188058E2,2.1130681E2,-5.1278602E-2,9.456473E0,4.459923E-2,-9.008147E-2,3.3070024E-2,1.2006559E-1,2.7163074E2,6.109073E0,1.2721922E1,1.4235105E1,8.110141E0,1.7149908E1,1.44179795E4,1.7397402E4,-4.0922523E-3,-1.2368559E-1,5.0906284E2,1.9330035E4,4.2815365E1,1.9333551E2,1.1478787E-2,6.084325E0,8.46157E-2,7.794727E0,-4.0317536E-4,-1.2855111E-1,1.3381575E1,7.240363E1,2.5366121E4,-3.8638603E-2,6.755669E0,2.6257205E2,-3.3659056E-2,-1.5919714E-1,7.103653E-2,1.7638322E4,1.2028108E-2,8.983276E0,1.125415E-1,3.9959738E0,6.464499E1,1.8743223E4,1.2837067E-1,3.3997096E-2,3.9046966E-2,-8.182839E-2,4.0429186E-2,2.0876025E2,7.038092E0,6.704792E0,1.7236048E1,4.923477E-2,4.9048376E0,4.2091365E0,6.7302766E0,1.0807557E1,1.4393046E1,-9.7790705E-3,5.6910255E1,2.3981601E2,2.6999383E4,3.311195E-2,1.1949914E1,1.3154774E2,9.840712E-2,-4.7196995E-2,2.9027646E2,-9.131692E-3,-1.21600285E-1,4.6976132E2,-6.59019E-2,8.338345E-2,7.1236115E0,7.4255805E0,-1.7125691E-1,-4.72486E-2,-1.01692215E-1,4.4650424E-2,4.5883542E2,4.302016E0,-3.8774636E-2,-1.5851796E-1,-1.0385931E-2,-1.4851184E-1,1.9545148E2,6.819603E0,5.381994E0,3.0846586E4,-1.6585556E-1,-5.7315793E-2,5.652501E0,5.1370807E-2,1.277923E1,6.961585E1,-1.3242227E-1,6.5607666E-3,1.0014583E-1,1.2326183E1,-1.4805406E-1,-3.7309673E-2,-1.125127E-1,3.4538615E0,4.110987E1,6.8969795E1,1.45747615E-2,-1.4969103E-1,3.5883005E0,6.2430927E1,3.3787213E-2,1.3392152E-1,1.19778454E-1,3.262381E-2,3.0231757E-2,-7.6893285E-2,7.746104E-4,-1.3812354E-1,-8.083307E-2,9.1497675E-2,-1.5328673E-1,-4.0892396E-2,-1.5632486E-2,1.0293909E-1,3.7603077E-2,-9.707326E-2,7.68018E-2,9.18294E-3,-4.5056466E-2,8.1520714E-2,3.326757E-2,-3.8890757E-2,-2.514253E-2,-1.2582426E-1,-7.210567E-2,9.793471E-2,-1.2553805E-1,3.812922E-2,-4.0076066E-2,4.5410484E-2,-8.210259E-2,5.6713194E-2,-4.309384E-2,-1.5567422E-1,1.4956807E-2,-7.4138544E-2,2.6056884E-2,1.0777711E-1,7.218154E-2,-8.431816E-2],"split_indices":[4,0,4,3,2,5,0,2,0,5,1,3,1,1,4,0,6,8,6,0,7,5,0,0,0,6,1,0,2,1,3,0,8,0,1,0,7,0,0,5,0,5,5,0,2,0,5,6,2,3,3,0,6,0,5,0,0,0,0,0,0,5,1,0,6,0,0,0,0,5,0,6,6,3,6,2,2,0,0,5,2,7,1,0,3,0,3,0,0,6,7,2,0,0,4,0,0,0,2,0,3,0,8,7,2,0,0,0,0,0,1,0,0,6,0,8,8,3,6,6,0,7,1,2,0,6,1,0,0,4,0,0,5,0,0,3,3,0,0,0,0,5,8,0,0,0,0,1,3,3,2,0,0,0,0,6,7,0,0,0,6,0,0,0,8,7,7,0,0,8,7,0,0,0,0,0,0,0,0,0,0,0,0,0,0,0,0,0,0,0,0,0,0,0,0,0,0,0,0,0,0,0,0,0,0,0,0,0,0,0,0],"split_type":[0,0,0,0,0,0,0,0,0,0,0,0,0,0,0,0,0,0,0,0,0,0,0,0,0,0,0,0,0,0,0,0,0,0,0,0,0,0,0,0,0,0,0,0,0,0,0,0,0,0,0,0,0,0,0,0,0,0,0,0,0,0,0,0,0,0,0,0,0,0,0,0,0,0,0,0,0,0,0,0,0,0,0,0,0,0,0,0,0,0,0,0,0,0,0,0,0,0,0,0,0,0,0,0,0,0,0,0,0,0,0,0,0,0,0,0,0,0,0,0,0,0,0,0,0,0,0,0,0,0,0,0,0,0,0,0,0,0,0,0,0,0,0,0,0,0,0,0,0,0,0,0,0,0,0,0,0,0,0,0,0,0,0,0,0,0,0,0,0,0,0,0,0,0,0,0,0,0,0,0,0,0,0,0,0,0,0,0,0,0,0,0,0,0,0,0,0,0,0,0,0,0,0,0,0,0,0,0,0,0,0],"sum_hessian":[4.8915894E2,5.416741E1,4.3499152E2,3.1766365E1,2.2401045E1,3.1210794E2,1.2288358E2,7.0436826E0,2.4722681E1,4.716292E0,1.7684753E1,3.1354565E1,2.807534E2,9.5113174E1,2.777041E1,1.1430756E0,5.9006066E0,5.108866E0,1.9613815E1,1.9978533E0,2.7184386E0,1.576962E1,1.9151335E0,6.5045943E0,2.484997E1,3.3208E1,2.4754538E2,6.656061E1,2.8552563E1,3.7713594E0,2.3999052E1,1.45858E0,4.4420266E0,2.990769E0,2.1180973E0,2.2425847E0,1.7371231E1,1.1724616E0,1.545977E0,1.453782E1,1.2317998E0,2.3871472E0,4.1174474E0,3.0949783E0,2.1754992E1,2.4903084E1,8.304918E0,2.4490822E2,2.637163E0,3.0544397E1,3.6016212E1,2.0916687E1,7.635877E0,1.3718644E0,2.399495E0,2.2065187E1,1.9338651E0,3.220687E0,1.2213397E0,1.0345116E0,1.0835859E0,8.543355E0,8.827875E0,2.2248755E0,1.2312945E1,1.1905196E0,1.1966276E0,1.1042129E0,3.0132344E0,1.2908557E1,8.846435E0,6.8562818E0,1.8046803E1,5.482953E0,2.821965E0,5.0253716E0,2.3988284E2,1.1452928E0,1.4918702E0,8.332546E0,2.2211853E1,3.0916424E1,5.0997877E0,1.2297014E0,1.9686985E1,2.3284273E0,5.30745E0,1.1808915E0,1.2186034E0,1.785677E1,4.208418E0,6.8792777E0,1.6640774E0,4.743203E0,4.0846725E0,1.2211807E0,1.1091764E1,1.8802309E0,1.1028326E1,2.0906267E0,6.7558084E0,2.8938963E0,3.9623852E0,1.1669102E1,6.3777003E0,4.3678384E0,1.1151148E0,1.1542517E0,1.6677133E0,1.1706605E0,3.8547108E0,7.36036E1,1.6627925E2,7.13993E0,1.1926157E0,9.411303E0,1.28005495E1,2.5858688E0,2.8330555E1,3.632586E0,1.4672018E0,4.888905E0,1.47980795E1,3.471211E0,1.836239E0,5.905548E0,1.19512205E1,2.1117084E0,2.0967097E0,5.2564E0,1.6228778E0,1.9178088E0,2.8253944E0,1.4189774E0,2.6656952E0,6.7392716E0,4.289055E0,5.574587E0,1.1812215E0,1.8743904E0,2.0879948E0,4.636299E0,7.032803E0,1.6970992E0,4.680601E0,2.1460655E0,1.7086456E0,2.9272158E1,4.433144E1,5.578112E1,1.1049813E2,5.6807113E0,1.4592187E0,8.213164E0,1.1981382E0,8.738517E0,4.0620327E0,1.2113664E0,1.3745024E0,3.448483E0,2.4882072E1,1.9606911E0,1.6718949E0,1.2443161E0,3.6445887E0,1.2361523E1,2.4365575E0,1.2417213E0,2.2294896E0,3.6788735E0,2.2266746E0,1.0663054E0,1.0884915E1,4.1465616E0,1.1098384E0,1.6236439E0,1.2017505E0,2.3733306E0,4.365941E0,1.6835917E0,2.6054633E0,2.9635224E0,1.6727767E0,5.2241697E0,1.8086333E0,1.1706211E1,1.7565947E1,1.983533E1,2.449611E1,6.8789463E0,4.8902176E1,8.8569176E1,2.1928953E1,3.1211648E0,5.091999E0,2.6240113E0,6.114506E0,2.9092183E0,1.1528144E0,5.182603E0,1.9699469E1,1.479875E0,2.1647139E0,1.488301E0,1.0873221E1,1.2155454E0,1.2210121E0,1.0613513E0,2.6175222E0,1.0298086E0,1.1968659E0],"tree_param":{"num_deleted":"0","num_feature":"9","num_nodes":"211","size_leaf_vector":"1"}},{"base_weights":[-8.954623E-3,-4.91987E-1,3.534957E-2,-1.23533174E-1,-9.858796E-1,-1.454234E-2,3.404876E-1,1.6708161E-1,-9.475628E-1,5.250257E-1,-1.281004E0,6.695836E-2,-3.534354E-1,6.8212557E-1,-1.5549725E-1,4.5161116E-1,-7.548354E-1,-2.0723726E-1,-1.2654555E-1,-8.335823E-3,8.3375864E-2,-1.399174E0,-1.2592763E-2,2.7457035E-1,-3.7158273E-2,-4.63042E-1,6.007672E-1,-6.9635205E-2,7.9363596E-1,1.10075034E-1,-3.417693E-1,9.058711E-1,1.2647822E-3,1.622184E-2,-1.10527866E-1,-6.075287E-2,3.0427272E-2,-5.2094102E-2,-1.5175603E-1,-5.5262214E-1,3.935055E-1,-6.9076115E-1,3.7118353E-2,-6.293901E-1,1.1263344E-1,9.7120345E-1,-8.261029E-2,9.1746494E-2,-7.1416014E-1,8.754733E-1,-5.8537252E-2,3.051834E-1,-5.9692574E-1,3.6868083E-1,1.1590572E-1,-6.154226E-1,5.969685E-1,-7.885506E-1,6.913973E-2,-9.917291E-2,6.1249197E-1,-2.0663708E-1,-1.2265631E0,-2.360467E-1,1.2660465E-1,-4.569964E-1,-1.1579865E0,-1.02515474E-1,3.8878015E-1,1.14522435E-1,3.465374E-2,3.0456425E-3,-1.10018365E-1,9.7874224E-1,-1.988128E-1,-3.3191705E-1,6.6265076E-1,-1.5130852E-1,-2.8413597E-1,9.046839E-2,-3.6937293E-2,-1.0827911E-1,-7.3769495E-2,-2.1407718E-2,9.153846E-2,-2.1647224E-2,-1.3924552E0,3.98375E-1,-5.663008E-1,2.5386563E-1,9.6417785E-1,-6.3836056E-1,4.5940393E-1,1.1205539E-2,-1.4288951E0,8.5718185E-2,-3.2344183E-1,3.2084683E-1,-1.0277055E-1,-6.7607784E-1,1.16304874E-1,1.5239589E-2,-1.3139142E0,6.6535497E-1,-7.545992E-2,2.5643867E-1,1.0371438E0,5.0344314E-2,-8.762316E-2,3.7600316E-2,-8.5776284E-2,-1.501556E-2,9.272165E-2,-1.2863176E-1,-6.624909E-2,3.9428953E-2,-4.979269E-2,-5.521265E-1,5.900453E-1,-1.7224559E-1,4.7334502E-3,-6.5948986E-2,6.0626245E-1,-8.1736517E-1,9.738284E-2,3.765555E-1,-1.0266931E-1,1.1261681E0,2.7311873E-1,-1.124339E0,4.7350634E-2,9.592646E-2,-5.5767234E-2,-1.62867E-1,-6.5933836E-1,-1.3324334E-1,-8.205992E-1,-1.8951596E-1,5.172623E-1,-8.4620136E-1,1.5088385E-1,-7.3336065E-1,4.0475708E-2,-2.811251E-1,9.979708E-2,-1.571054E-1,-7.913186E-1,-1.3465061E-2,8.1222135E-1,-5.4935098E-2,8.857461E-2,2.4723804E-1,1.1057013E0,4.2263103E-1,-5.672237E-1,-7.598284E-2,-3.9797393E-3,8.8071726E-2,3.0459824E-3,9.435033E-2,1.4263645E-2,-2.656654E-3,-1.3839269E-1,4.7396332E-2,-8.164572E-2,1.312691E-1,3.976361E-2,7.629925E-2,-3.9957847E-2,-3.5424765E-2,-1.2477479E-1,1.4901929E-2,-1.16398446E-1,-6.4336084E-2,1.5955253E-2,4.2023655E-2,-1.10010244E-1,1.169781E-1,-4.620741E-2,5.7313006E-2,-4.5353975E-2,-4.1123787E-3,-1.3340835E-1,6.2210437E-2,-9.029829E-3,-2.2822514E-3,-8.4037535E-2,6.740355E-2,-8.002964E-2,-1.2479194E-1,-2.1091213E-2,9.4056174E-2,-1.0338287E-2,-4.553558E-2,7.9805724E-2,1.1941313E-1,5.4578956E-2,-2.3272706E-2,7.096074E-2,-9.6409485E-2,7.695291E-2],"categories":[],"categories_nodes":[],"categories_segments":[],"categories_sizes":[],"default_left":[0,0,0,0,0,0,0,0,0,0,0,0,0,0,0,0,0,0,0,0,0,0,0,0,0,0,0,0,0,0,0,0,0,0,0,0,0,0,0,0,0,0,0,0,0,0,0,0,0,0,0,0,0,0,0,0,0,0,0,0,0,0,0,0,0,0,0,0,0,0,0,0,0,0,0,0,0,0,0,0,0,0,0,0,0,0,0,0,0,0,0,0,0,0,0,0,0,0,0,0,0,0,0,0,0,0,0,0,0,0,0,0,0,0,0,0,0,0,0,0,0,0,0,0,0,0,0,0,0,0,0,0,0,0,0,0,0,0,0,0,0,0,0,0,0,0,0,0,0,0,0,0,0,0,0,0,0,0,0,0,0,0,0,0,0,0,0,0,0,0,0,0,0,0,0,0,0,0,0,0,0,0,0,0,0,0,0,0,0,0,0,0,0,0,0,0,0,0,0,0,0],"id":5,"left_children":[1,3,5,7,9,11,13,15,17,19,21,23,25,27,29,31,33,35,-1,-1,-1,37,-1,39,41,43,45,47,49,-1,51,53,55,-1,-1,-1,-1,-1,-1,57,59,61,63,65,67,69,-1,-1,71,73,-1,75,77,79,-1,81,83,85,-1,87,89,91,93,95,97,99,101,-1,103,-1,-1,-1,-1,105,107,109,111,-1,113,-1,-1,-1,115,-1,-1,117,119,121,123,125,127,129,131,-1,133,-1,135,137,139,141,143,-1,145,147,-1,149,151,-1,-1,-1,-1,-1,-1,-1,153,-1,-1,155,157,-1,-1,-1,159,161,-1,163,-1,165,167,169,-1,-1,-1,-1,171,173,175,177,179,181,183,185,-1,187,-1,-1,189,-1,191,-1,-1,193,195,197,199,-1,-1,-1,-1,-1,-1,-1,-1,-1,-1,-1,-1,-1,-1,-1,-1,-1,-1,-1,-1,-1,-1,-1,-1,-1,-1,-1,-1,-1,-1,-1,-1,-1,-1,-1,-1,-1,-1,-1,-1,-1,-1,-1,-1,-1,-1],"loss_changes":[1.0415733E1,7.3191566E0,6.7949123E0,6.040304E0,8.399017E0,1.0637722E1,1.0733399E1,5.3269777E0,1.2801495E0,7.3456335E-1,1.8421326E0,6.724697E0,8.086671E0,3.1840096E0,6.552676E0,3.0983477E0,1.740293E0,8.3282036E-1,0E0,0E0,0E0,5.9386444E-1,0E0,1.04362545E1,1.0111843E1,6.537986E0,5.098319E0,4.307324E0,4.1895523E0,0E0,4.102598E0,5.9836245E-1,3.530251E0,0E0,0E0,0E0,0E0,0E0,0E0,4.4994955E0,9.92138E0,5.2591763E0,4.6134286E0,4.2590446E0,5.421868E0,3.5452175E-1,0E0,0E0,1.1933632E0,3.6512547E0,0E0,1.900482E0,4.5478253E0,1.8699653E0,0E0,1.1156831E0,1.4580148E0,5.4312925E0,0E0,6.962E0,7.752922E0,3.8493261E0,2.8374062E0,4.731243E0,6.3547974E0,5.2626925E0,2.7073746E0,0E0,4.799753E0,0E0,0E0,0E0,0E0,9.402447E-1,2.1364338E0,1.5578434E0,1.2274706E0,0E0,3.011269E0,0E0,0E0,0E0,8.436601E-1,0E0,0E0,2.3411362E0,3.208582E0,3.6154501E0,6.735988E0,5.5325327E0,3.2363815E0,4.812887E0,3.303236E0,0E0,2.5748825E-1,0E0,4.0411158E0,7.8239274E0,1.2539389E1,2.1548204E0,4.578206E0,0E0,2.4431229E-1,1.4575725E0,0E0,2.2449155E0,1.1415005E0,0E0,0E0,0E0,0E0,0E0,0E0,0E0,3.3507466E0,0E0,0E0,3.7868273E-1,5.21E-1,0E0,0E0,0E0,1.8576035E0,6.124794E0,0E0,3.9454308E0,0E0,2.9195518E0,2.7210064E0,1.1003208E-1,0E0,0E0,0E0,0E0,1.5869212E0,5.022753E0,4.6073923E0,8.746914E0,3.2929192E0,6.5813293E0,5.729955E0,2.17488E0,0E0,5.1186514E0,0E0,0E0,1.2381895E0,0E0,1.2531838E0,0E0,0E0,1.6693407E0,5.242996E-1,1.4819938E0,4.296662E0,0E0,0E0,0E0,0E0,0E0,0E0,0E0,0E0,0E0,0E0,0E0,0E0,0E0,0E0,0E0,0E0,0E0,0E0,0E0,0E0,0E0,0E0,0E0,0E0,0E0,0E0,0E0,0E0,0E0,0E0,0E0,0E0,0E0,0E0,0E0,0E0,0E0,0E0,0E0,0E0,0E0,0E0,0E0,0E0,0E0,0E0],"parents":[2147483647,0,0,1,1,2,2,3,3,4,4,5,5,6,6,7,7,8,8,9,9,10,10,11,11,12,12,13,13,14,14,15,15,16,16,17,17,21,21,23,23,24,24,25,25,26,26,27,27,28,28,30,30,31,31,32,32,39,39,40,40,41,41,42,42,43,43,44,44,45,45,48,48,49,49,51,51,52,52,53,53,55,55,56,56,57,57,59,59,60,60,61,61,62,62,63,63,64,64,65,65,66,66,68,68,73,73,74,74,75,75,76,76,78,78,82,82,85,85,86,86,87,87,88,88,89,89,90,90,91,91,92,92,94,94,96,96,97,97,98,98,99,99,100,100,102,102,103,103,105,105,106,106,114,114,117,117,118,118,122,122,123,123,125,125,127,127,128,128,129,129,134,134,135,135,136,136,137,137,138,138,139,139,140,140,141,141,143,143,146,146,148,148,151,151,152,152,153,153,154,154],"right_children":[2,4,6,8,10,12,14,16,18,20,22,24,26,28,30,32,34,36,-1,-1,-1,38,-1,40,42,44,46,48,50,-1,52,54,56,-1,-1,-1,-1,-1,-1,58,60,62,64,66,68,70,-1,-1,72,74,-1,76,78,80,-1,82,84,86,-1,88,90,92,94,96,98,100,102,-1,104,-1,-1,-1,-1,106,108,110,112,-1,114,-1,-1,-1,116,-1,-1,118,120,122,124,126,128,130,132,-1,134,-1,136,138,140,142,144,-1,146,148,-1,150,152,-1,-1,-1,-1,-1,-1,-1,154,-1,-1,156,158,-1,-1,-1,160,162,-1,164,-1,166,168,170,-1,-1,-1,-1,172,174,176,178,180,182,184,186,-1,188,-1,-1,190,-1,192,-1,-1,194,196,198,200,-1,-1,-1,-1,-1,-1,-1,-1,-1,-1,-1,-1,-1,-1,-1,-1,-1,-1,-1,-1,-1,-1,-1,-1,-1,-1,-1,-1,-1,-1,-1,-1,-1,-1,-1,-1,-1,-1,-1,-1,-1,-1,-1,-1,-1,-1],"split_conditions":[2.8632758E2,2.6999383E4,8.52617E0,4.3280263E0,5.877974E0,3.6272195E2,7.3315682E0,7.91667E0,6.470152E0,6.2430927E1,4.7429667E0,6.492627E0,7.793915E0,1.1009592E1,4.7400093E1,1.743092E4,1.2392869E1,1.9330035E4,-1.2654555E-1,-8.335823E-3,8.3375864E-2,3.2412672E0,-1.2592763E-2,5.381994E0,1.6437117E2,2.7218822E4,9.370849E0,9.771896E0,3.992774E4,1.10075034E-1,1.5222246E4,6.691806E0,2.1575246E4,1.622184E-2,-1.10527866E-1,-6.075287E-2,3.0427272E-2,-5.2094102E-2,-1.5175603E-1,3.4172824E2,1.7182451E4,1.5209416E2,7.038092E0,2.1676216E2,5.497159E0,7.6157104E1,-8.261029E-2,9.1746494E-2,6.053072E0,1.9339144E1,-5.8537252E-2,1.381845E1,5.5694893E1,5.8503275E0,1.1590572E-1,6.602452E0,1.816654E2,1.8669563E2,6.913973E-2,1.9545148E2,3.9959738E0,6.931488E1,3.4758838E2,1.7029143E2,7.230164E0,4.722741E2,4.3827214E0,-1.02515474E-1,5.02919E2,1.14522435E-1,3.465374E-2,3.0456425E-3,-1.10018365E-1,3.0561642E2,3.7563918E0,3.765698E2,7.4878235E0,-1.5130852E-1,1.6616518E4,9.046839E-2,-3.6937293E-2,-1.0827911E-1,1.9968678E4,-2.1407718E-2,9.153846E-2,1.7172255E2,3.024917E4,8.672527E3,1.845989E1,2.3856938E2,3.3604883E2,1.4625032E2,7.659204E0,1.1205539E-2,7.1536835E1,8.5718185E-2,4.833199E2,3.2359634E2,3.5909918E2,9.435696E1,1.9240788E2,1.5239589E-2,2.3713983E2,5.126763E0,-7.545992E-2,2.034603E2,1.5441833E2,5.0344314E-2,-8.762316E-2,3.7600316E-2,-8.5776284E-2,-1.501556E-2,9.272165E-2,-1.2863176E-1,2.3031215E4,3.9428953E-2,-4.979269E-2,1.5554505E1,5.1714535E0,-1.7224559E-1,4.7334502E-3,-6.5948986E-2,7.1536835E1,1.3472757E1,9.738284E-2,8.980101E1,-1.0266931E-1,5.035823E0,1.9066992E2,5.4132656E1,4.7350634E-2,9.592646E-2,-5.5767234E-2,-1.62867E-1,1.4805199E1,1.7505854E4,1.4702059E4,1.3597896E4,3.686047E4,1.9488086E2,4.220395E2,1.1930625E4,4.0475708E-2,1.2176679E1,9.979708E-2,-1.571054E-1,3.663922E0,-1.3465061E-2,8.034019E1,-5.4935098E-2,8.857461E-2,9.036505E0,8.034019E1,3.2629062E2,3.5732877E2,-7.598284E-2,-3.9797393E-3,8.8071726E-2,3.0459824E-3,9.435033E-2,1.4263645E-2,-2.656654E-3,-1.3839269E-1,4.7396332E-2,-8.164572E-2,1.312691E-1,3.976361E-2,7.629925E-2,-3.9957847E-2,-3.5424765E-2,-1.2477479E-1,1.4901929E-2,-1.16398446E-1,-6.4336084E-2,1.5955253E-2,4.2023655E-2,-1.10010244E-1,1.169781E-1,-4.620741E-2,5.7313006E-2,-4.5353975E-2,-4.1123787E-3,-1.3340835E-1,6.2210437E-2,-9.029829E-3,-2.2822514E-3,-8.4037535E-2,6.740355E-2,-8.002964E-2,-1.2479194E-1,-2.1091213E-2,9.4056174E-2,-1.0338287E-2,-4.553558E-2,7.9805724E-2,1.1941313E-1,5.4578956E-2,-2.3272706E-2,7.096074E-2,-9.6409485E-2,7.695291E-2],"split_indices":[4,2,0,8,0,4,3,0,0,7,8,0,0,6,7,2,6,2,0,0,0,8,0,3,1,2,3,6,2,0,2,3,2,0,0,0,0,0,0,4,2,1,0,1,3,7,0,0,3,6,0,6,7,3,0,3,1,1,0,1,8,7,5,1,3,5,3,0,5,0,0,0,0,4,8,5,3,0,2,0,0,0,2,0,0,1,2,2,6,1,4,1,3,0,7,0,5,4,5,7,1,0,1,0,0,1,1,0,0,0,0,0,0,0,2,0,0,6,3,0,0,0,7,6,0,7,0,8,1,7,0,0,0,0,6,2,2,2,2,1,5,2,0,6,0,0,8,0,7,0,0,0,7,4,4,0,0,0,0,0,0,0,0,0,0,0,0,0,0,0,0,0,0,0,0,0,0,0,0,0,0,0,0,0,0,0,0,0,0,0,0,0,0,0,0,0,0,0,0,0,0],"split_type":[0,0,0,0,0,0,0,0,0,0,0,0,0,0,0,0,0,0,0,0,0,0,0,0,0,0,0,0,0,0,0,0,0,0,0,0,0,0,0,0,0,0,0,0,0,0,0,0,0,0,0,0,0,0,0,0,0,0,0,0,0,0,0,0,0,0,0,0,0,0,0,0,0,0,0,0,0,0,0,0,0,0,0,0,0,0,0,0,0,0,0,0,0,0,0,0,0,0,0,0,0,0,0,0,0,0,0,0,0,0,0,0,0,0,0,0,0,0,0,0,0,0,0,0,0,0,0,0,0,0,0,0,0,0,0,0,0,0,0,0,0,0,0,0,0,0,0,0,0,0,0,0,0,0,0,0,0,0,0,0,0,0,0,0,0,0,0,0,0,0,0,0,0,0,0,0,0,0,0,0,0,0,0,0,0,0,0,0,0,0,0,0,0,0,0,0,0,0,0,0,0],"sum_hessian":[4.8489566E2,3.9889565E1,4.450061E2,2.3561977E1,1.6327587E1,3.8328845E2,6.1717636E1,1.8008179E1,5.553799E0,2.5408041E0,1.3786784E1,3.0962814E2,7.366033E1,3.6322876E1,2.5394756E1,1.415094E1,3.8572392E0,2.1646216E0,3.3891776E0,1.1010641E0,1.43974E0,1.231552E1,1.4712636E0,1.0286827E2,2.0675986E2,6.6532646E1,7.1276846E0,4.7404046E0,3.1582474E1,2.6452708E0,2.2749485E1,6.541298E0,7.609642E0,1.2149677E0,2.6422715E0,1.1090208E0,1.0556008E0,2.1044312E0,1.0211089E1,1.2472911E1,9.039536E1,2.0251896E1,1.8650797E2,5.1544853E1,1.4987794E1,5.912151E0,1.2155336E0,1.7052748E0,3.0351298E0,3.0157894E1,1.4245785E0,6.379107E0,1.6370378E1,2.8822122E0,3.659086E0,3.7227035E0,3.886938E0,1.079228E1,1.6806308E0,2.7983923E1,6.2411438E1,1.1366948E1,8.884949E0,4.561777E1,1.4089018E2,4.027449E1,1.1270365E1,2.3974388E0,1.2590355E1,3.972222E0,1.9399287E0,1.3507379E0,1.684392E0,2.7594252E1,2.563643E0,2.3184671E0,4.06064E0,3.1898732E0,1.3180506E1,1.5388619E0,1.3433503E0,1.4620857E0,2.260618E0,1.1881791E0,2.698759E0,5.210839E0,5.5814414E0,1.362201E1,1.4361913E1,3.1753319E1,3.0658117E1,6.9218254E0,4.4451222E0,1.2252085E0,7.6597404E0,2.7248175E0,4.2892956E1,7.607159E1,6.48186E1,2.9009518E1,1.1264971E1,1.2009009E0,1.0069464E1,1.0474688E1,2.1156673E0,2.4674952E0,2.5126757E1,1.384845E0,1.178798E0,1.1096096E0,1.2088574E0,1.103348E0,2.9572918E0,1.4781373E0,1.1702369E1,1.1081679E0,1.15245E0,2.8428273E0,2.3680115E0,4.380991E0,1.2004502E0,1.8804963E0,1.1741514E1,1.2752371E1,1.6095414E0,2.9621262E1,2.132058E0,2.4326216E1,6.3319016E0,4.8087735E0,2.1130521E0,3.0184774E0,1.4266448E0,5.1948085E0,2.4649317E0,3.194117E1,1.0951786E1,2.1150248E1,5.4921337E1,1.58953085E1,4.8923294E1,2.785474E1,1.154778E0,8.234317E0,3.0306535E0,5.4041395E0,4.6653237E0,1.6375978E0,8.83709E0,1.1377416E0,1.3297536E0,2.374505E0,2.275225E1,6.0018234E0,5.700545E0,1.6790442E0,1.163783E0,1.1807873E0,1.1872244E0,6.1980267E0,5.5434875E0,5.759807E0,6.992564E0,2.794251E1,1.6787499E0,1.8729223E1,5.596993E0,3.5861528E0,2.745749E0,1.1987709E0,3.6100025E0,1.2182335E0,1.2466983E0,1.1211269E1,2.07299E1,1.9208385E0,9.030948E0,2.9827702E0,1.8167477E1,5.232005E1,2.601287E0,6.4070387E0,9.48827E0,1.602816E1,3.2895138E1,3.804897E0,2.4049843E1,2.7945924E0,5.439725E0,1.9674608E0,2.697863E0,7.72677E0,1.1103201E0,1.119652E0,1.254853E0,1.8670765E1,4.081486E0,1.8853507E0,4.1164727E0,4.6105027E0,1.0900422E0],"tree_param":{"num_deleted":"0","num_feature":"9","num_nodes":"201","size_leaf_vector":"1"}},{"base_weights":[-9.428909E-3,-4.5608082E-1,3.1309355E-2,-1.5998362E-1,-9.902563E-1,4.3666642E-2,-1.0907735E0,-6.393119E-1,2.9415676E-1,-4.336474E-1,-1.3868736E-1,-2.0013854E-3,3.318955E-1,-1.3979821E-1,-3.814887E-3,3.6037987E-1,-9.340453E-1,-1.1075508E-1,5.074971E-1,2.8285727E-1,-1.0745893E-1,9.260012E-2,-2.5367E-1,6.249371E-1,-9.172098E-2,-4.6116047E-2,8.8783294E-2,3.2265343E-2,-1.1041597E0,-2.2560656E-1,8.257246E-1,7.934318E-2,-4.2284466E-2,6.031307E-1,4.014359E-2,-3.4522283E-1,6.13957E-1,-6.514544E-2,7.3207885E-1,1.0511152E-1,-2.6515466E-1,-1.1938307E0,-2.536203E-2,6.2028784E-2,-9.841757E-2,1.0335655E0,-4.8820865E-3,9.9018073E-1,1.48404E-1,-3.7932035E-1,9.760855E-2,-1.9694221E-1,-6.8262535E-1,8.820132E-1,-6.2166404E-2,8.804539E-2,-6.6613764E-1,8.5479236E-1,-2.1969649E-1,-4.6089745E-1,8.6450495E-2,-1.3059676E-1,-3.919555E-2,1.20905615E-1,3.385484E-2,1.2301002E-1,-3.6960598E-2,-2.9409897E-1,1.1010921E-1,-4.2565852E-2,-1.1202956E0,3.7232105E-2,4.9124536E-1,-4.929997E-1,1.0425086E-1,-8.069044E-1,4.0797237E-1,1.1013712E0,1.0761779E-3,2.8722684E-3,-1.0236883E-1,2.1256463E-1,1.047944E0,3.9557833E-2,-5.6337584E-2,2.0279555E-1,-7.0326394E-1,-1.2344078E-1,2.0033096E-1,4.5172343E-1,-5.451955E-1,1.0502028E-2,-1.3075106E0,-2.7550828E-1,1.05661295E-1,-7.758988E-2,6.0190797E-1,5.462327E-1,-5.85066E-1,3.1070817E-1,-9.370113E-1,-1.05613E0,-2.3527813E-1,-2.650862E-2,8.784633E-2,1.2070117E-1,2.3934519E-2,7.4755204E-1,-6.689968E-1,-3.6046838E-3,1.1181362E0,-3.8867387E-1,9.7737506E-2,-1.4079396E-1,-3.9507183E-1,-5.0853383E-2,6.193862E-2,7.2841026E-2,-3.569551E-2,3.026188E-2,-9.173188E-2,-3.1968635E-2,-1.506286E-1,5.855091E-3,-6.725963E-2,3.1665694E-2,-3.1501204E-3,8.669265E-2,6.5751406E-3,-2.1262884E-3,8.527937E-2,-2.6599605E-2,-1.1041208E-1,-8.937442E-3,6.109769E-2,-1.3129114E-1,-3.516146E-2,1.22920545E-2,-1.1462145E-1,-5.8544774E-2,4.2657193E-2,1.0334853E-1,-1.7146023E-2,-6.173682E-4,-1.0677612E-1,2.2106616E-2,1.1550672E-1,3.4842413E-2,-1.1943034E-1,2.8381858E-2,-8.620388E-2],"categories":[],"categories_nodes":[],"categories_segments":[],"categories_sizes":[],"default_left":[0,0,0,0,0,0,0,0,0,0,0,0,0,0,0,0,0,0,0,0,0,0,0,0,0,0,0,0,0,0,0,0,0,0,0,0,0,0,0,0,0,0,0,0,0,0,0,0,0,0,0,0,0,0,0,0,0,0,0,0,0,0,0,0,0,0,0,0,0,0,0,0,0,0,0,0,0,0,0,0,0,0,0,0,0,0,0,0,0,0,0,0,0,0,0,0,0,0,0,0,0,0,0,0,0,0,0,0,0,0,0,0,0,0,0,0,0,0,0,0,0,0,0,0,0,0,0,0,0,0,0,0,0,0,0,0,0,0,0,0,0,0,0,0,0,0,0,0,0,0,0],"id":6,"left_children":[1,3,5,7,9,11,13,15,17,19,-1,21,23,-1,-1,25,27,-1,29,31,-1,33,35,37,39,-1,-1,-1,41,43,45,-1,-1,47,49,51,53,55,57,-1,59,61,-1,-1,-1,63,-1,65,67,69,71,73,75,77,-1,-1,79,81,83,85,-1,-1,-1,-1,-1,-1,-1,87,-1,89,91,93,95,97,99,101,103,105,-1,-1,-1,107,109,-1,-1,111,113,-1,115,117,119,-1,121,123,125,-1,127,129,131,133,135,137,139,-1,-1,-1,-1,141,143,-1,145,147,-1,-1,149,-1,-1,-1,-1,-1,-1,-1,-1,-1,-1,-1,-1,-1,-1,-1,-1,-1,-1,-1,-1,-1,-1,-1,-1,-1,-1,-1,-1,-1,-1,-1,-1,-1,-1,-1,-1],"loss_changes":[8.772286E0,6.214964E0,6.176698E0,6.0910563E0,2.5284452E0,5.768242E0,1.516139E0,4.316645E0,4.9309072E0,3.6811576E0,0E0,9.052407E0,7.4975986E0,0E0,0E0,2.0548897E0,2.6460247E0,0E0,3.3043542E0,1.8718424E0,0E0,7.376896E0,8.463131E0,2.676591E0,5.309147E0,0E0,0E0,0E0,4.3396568E-1,3.710367E0,1.7834959E0,0E0,0E0,4.372547E0,6.1036763E0,4.598441E0,3.9514568E0,3.8239763E0,3.7920265E0,0E0,5.447629E0,2.4963188E-1,0E0,0E0,0E0,5.3577995E-1,0E0,4.922591E0,5.7971973E0,7.57028E0,5.2614565E0,6.0368795E0,4.1888266E0,1.6807618E0,0E0,0E0,1.036201E0,3.1934376E0,1.1363258E0,3.3781357E0,0E0,0E0,0E0,0E0,0E0,0E0,0E0,4.7359385E0,0E0,5.7194242E0,2.3165913E0,4.1742134E0,4.5981483E0,3.5750523E0,7.621585E0,3.4411964E0,1.3656666E0,3.545065E-1,0E0,0E0,0E0,4.094813E0,1.6318703E0,0E0,0E0,3.2004855E0,2.6921902E0,0E0,2.4501865E0,2.8675694E0,3.8665643E0,0E0,1.1511984E0,4.6887274E0,4.6301174E0,0E0,3.8728971E0,5.8983445E-1,4.962757E0,3.5633812E0,8.3474255E-1,2.026085E0,2.3703494E0,0E0,0E0,0E0,0E0,1.5477512E0,8.937311E-1,0E0,3.9653206E-1,2.914018E0,0E0,0E0,3.9843533E0,0E0,0E0,0E0,0E0,0E0,0E0,0E0,0E0,0E0,0E0,0E0,0E0,0E0,0E0,0E0,0E0,0E0,0E0,0E0,0E0,0E0,0E0,0E0,0E0,0E0,0E0,0E0,0E0,0E0,0E0,0E0,0E0,0E0,0E0,0E0,0E0],"parents":[2147483647,0,0,1,1,2,2,3,3,4,4,5,5,6,6,7,7,8,8,9,9,11,11,12,12,15,15,16,16,18,18,19,19,21,21,22,22,23,23,24,24,28,28,29,29,30,30,33,33,34,34,35,35,36,36,37,37,38,38,40,40,41,41,45,45,47,47,48,48,49,49,50,50,51,51,52,52,53,53,56,56,57,57,58,58,59,59,67,67,69,69,70,70,71,71,72,72,73,73,74,74,75,75,76,76,77,77,81,81,82,82,85,85,86,86,88,88,89,89,90,90,92,92,93,93,94,94,96,96,97,97,98,98,99,99,100,100,101,101,102,102,107,107,108,108,110,110,111,111,114,114],"right_children":[2,4,6,8,10,12,14,16,18,20,-1,22,24,-1,-1,26,28,-1,30,32,-1,34,36,38,40,-1,-1,-1,42,44,46,-1,-1,48,50,52,54,56,58,-1,60,62,-1,-1,-1,64,-1,66,68,70,72,74,76,78,-1,-1,80,82,84,86,-1,-1,-1,-1,-1,-1,-1,88,-1,90,92,94,96,98,100,102,104,106,-1,-1,-1,108,110,-1,-1,112,114,-1,116,118,120,-1,122,124,126,-1,128,130,132,134,136,138,140,-1,-1,-1,-1,142,144,-1,146,148,-1,-1,150,-1,-1,-1,-1,-1,-1,-1,-1,-1,-1,-1,-1,-1,-1,-1,-1,-1,-1,-1,-1,-1,-1,-1,-1,-1,-1,-1,-1,-1,-1,-1,-1,-1,-1,-1,-1],"split_conditions":[2.8632758E2,7.330197E0,2.7861945E2,1.9886595E2,1.3381575E1,8.52617E0,8.92241E0,1.9096822E4,8.12347E0,2.6999383E4,-1.3868736E-1,3.50836E2,7.3315682E0,-1.3979821E-1,-3.814887E-3,5.8135467E0,5.230454E0,-1.1075508E-1,2.5727655E2,3.5083725E0,-1.0745893E-1,5.0687957E0,7.91667E0,1.1009592E1,4.7400093E1,-4.6116047E-2,8.8783294E-2,3.2265343E-2,1.9372112E2,6.470152E0,8.335619E0,7.934318E-2,-4.2284466E-2,3.3402744E2,1.6437117E2,2.0778658E2,9.263166E0,9.771896E0,3.400642E4,1.0511152E-1,2.3376434E2,7.7360985E1,-2.536203E-2,6.2028784E-2,-9.841757E-2,7.260808E1,-4.8820865E-3,4.961052E2,2.67443E4,7.0390944E0,3.393279E2,6.869639E0,2.522749E2,2.146386E2,-6.2166404E-2,8.804539E-2,6.053072E0,3.243419E2,3.4221785E0,1.5222246E4,8.6450495E-2,-1.3059676E-1,-3.919555E-2,1.20905615E-1,3.385484E-2,1.2301002E-1,-3.6960598E-2,6.476057E0,1.1010921E-1,4.220395E2,1.5300839E4,1.143598E1,5.729689E0,2.8135269E0,8.983276E0,2.3372883E4,6.7575407E0,2.7336963E4,1.0761779E-3,2.8722684E-3,-1.0236883E-1,2.1575246E4,4.0096695E1,3.9557833E-2,-5.6337584E-2,4.4320877E2,5.5694893E1,-1.2344078E-1,3.895104E0,1.5842213E2,6.5466E0,1.0502028E-2,5.018671E0,2.1103303E4,1.4247947E1,-7.758988E-2,2.0876025E2,1.9968678E4,6.1504874E0,1.8253182E4,1.4905256E4,4.9072995E0,7.794727E0,-2.650862E-2,8.784633E-2,1.2070117E-1,2.3934519E-2,6.5566683E0,4.0616446E0,-3.6046838E-3,8.575673E0,8.863273E0,9.7737506E-2,-1.4079396E-1,6.816364E1,-5.0853383E-2,6.193862E-2,7.2841026E-2,-3.569551E-2,3.026188E-2,-9.173188E-2,-3.1968635E-2,-1.506286E-1,5.855091E-3,-6.725963E-2,3.1665694E-2,-3.1501204E-3,8.669265E-2,6.5751406E-3,-2.1262884E-3,8.527937E-2,-2.6599605E-2,-1.1041208E-1,-8.937442E-3,6.109769E-2,-1.3129114E-1,-3.516146E-2,1.22920545E-2,-1.1462145E-1,-5.8544774E-2,4.2657193E-2,1.0334853E-1,-1.7146023E-2,-6.173682E-4,-1.0677612E-1,2.2106616E-2,1.1550672E-1,3.4842413E-2,-1.1943034E-1,2.8381858E-2,-8.620388E-2],"split_indices":[4,0,1,1,6,0,0,2,6,2,0,4,3,0,0,0,0,0,4,8,0,0,0,6,7,0,0,0,1,0,3,0,0,4,1,1,3,6,2,0,1,7,0,0,0,7,0,5,2,0,4,0,1,1,0,0,3,4,8,2,0,0,0,0,0,0,0,3,0,5,2,6,0,8,3,2,3,2,0,0,0,2,7,0,0,5,7,0,8,1,3,0,3,2,6,0,1,2,0,2,2,3,3,0,0,0,0,3,8,0,0,3,0,0,7,0,0,0,0,0,0,0,0,0,0,0,0,0,0,0,0,0,0,0,0,0,0,0,0,0,0,0,0,0,0,0,0,0,0,0,0],"split_type":[0,0,0,0,0,0,0,0,0,0,0,0,0,0,0,0,0,0,0,0,0,0,0,0,0,0,0,0,0,0,0,0,0,0,0,0,0,0,0,0,0,0,0,0,0,0,0,0,0,0,0,0,0,0,0,0,0,0,0,0,0,0,0,0,0,0,0,0,0,0,0,0,0,0,0,0,0,0,0,0,0,0,0,0,0,0,0,0,0,0,0,0,0,0,0,0,0,0,0,0,0,0,0,0,0,0,0,0,0,0,0,0,0,0,0,0,0,0,0,0,0,0,0,0,0,0,0,0,0,0,0,0,0,0,0,0,0,0,0,0,0,0,0,0,0,0,0,0,0,0,0],"sum_hessian":[4.8031958E2,3.9295094E1,4.410245E2,2.6117487E1,1.31776085E1,4.371711E2,3.8533998E0,1.2508008E1,1.3609479E1,6.3539295E0,6.823679E0,3.782352E2,5.8935905E1,2.7288826E0,1.124517E0,2.797289E0,9.710719E0,1.2440746E0,1.2365404E1,3.2639105E0,3.0900187E0,2.7536017E2,1.0287504E2,3.4556087E1,2.4379818E1,1.1428753E0,1.6544137E0,1.0508689E0,8.65985E0,3.830984E0,8.53442E0,1.8216403E0,1.4422703E0,2.4678654E1,2.506815E2,9.360034E1,9.274691E0,4.696789E0,2.9859297E1,2.5455265E0,2.1834291E1,7.4688087E0,1.1910417E0,1.897424E0,1.9335601E0,6.748716E0,1.7857041E0,1.2695277E1,1.1983376E1,2.9529657E1,2.2115186E2,6.6124054E1,2.7476294E1,7.8564806E0,1.4182101E0,1.6444366E0,3.0523522E0,2.6539434E1,3.3198636E0,1.9114254E1,2.7200365E0,6.000972E0,1.4678369E0,4.7976985E0,1.9510174E0,1.0872344E1,1.8229332E0,8.654735E0,3.328641E0,2.1029657E1,8.5E0,1.9269124E2,2.8460608E1,3.3025166E1,3.3098885E1,2.489905E1,2.5772436E0,6.0652785E0,1.7912018E0,1.3494714E0,1.7028807E0,6.621964E0,1.991747E1,1.1356846E0,2.1841788E0,5.1566434E0,1.3957611E1,2.4667778E0,6.187957E0,1.0653861E1,1.0375796E1,1.184768E0,7.315232E0,3.404948E1,1.5864175E2,1.8030756E0,2.6657532E1,2.286169E0,3.0738998E1,2.82076E1,4.8912854E0,1.6748997E1,8.150053E0,1.2399764E0,1.3372673E0,5.046617E0,1.0186619E0,4.2156525E0,2.4063118E0,1.2408749E0,1.8676596E1,3.2064269E0,1.9502165E0,3.161201E0,1.079641E1,2.219676E0,3.9682806E0,8.01188E0,2.641981E0,3.2219515E0,7.1538444E0,1.6623546E0,5.6528773E0,1.8955387E1,1.5094094E1,6.198392E1,9.665784E1,1.7426704E1,9.230828E0,1.1282432E0,1.1579257E0,1.9973486E1,1.0765511E1,1.2394856E1,1.5812743E1,2.2218192E0,2.6694663E0,1.1629872E0,1.5586009E1,5.4055424E0,2.7445104E0,3.1202765E0,1.0953759E0,1.2853293E0,1.1209824E0,1.0147111E0,1.7661884E1,1.9707936E0,1.2356333E0,4.5596557E0,6.236754E0],"tree_param":{"num_deleted":"0","num_feature":"9","num_nodes":"151","size_leaf_vector":"1"}},{"base_weights":[-9.540206E-3,-7.836597E-1,1.0920941E-2,6.8110816E-2,-1.0646094E0,2.2707928E-2,-1.0638762E0,-6.597404E-2,5.891494E-2,3.108763E-3,-1.208086E0,5.0783206E-2,-3.273212E-1,-1.3478501E-1,-3.6113292E-3,-1.3161705E-1,-3.055499E-2,3.2610798E-1,9.1554215E-3,4.8038926E-2,-9.7307444E-1,-2.7698892E-1,7.037338E-1,-3.7307316E-1,5.7559736E-2,-7.387866E-1,5.427811E-1,-1.1562117E0,3.7925255E-2,4.8224103E-1,-7.223036E-1,-2.4395835E-2,9.393833E-1,-2.522996E-1,-1.3102682E-1,3.2600096E-1,6.41052E-3,-1.0181639E0,-2.3253918E-1,1.201966E-1,-4.5736898E-2,-1.3281416E0,-3.431327E-1,-2.9771698E-1,9.876544E-1,-9.422953E-1,6.3708656E-2,-3.7869316E-1,9.679978E-2,1.176327E0,1.7741387E-1,-4.6148053E-1,3.141855E-1,-2.5643486E-1,6.0592955E-1,-2.0992863E-1,1.0166475E-1,-2.0733437E-2,-1.313904E-1,-6.9032006E-2,2.6143504E-2,-3.6772293E-1,7.003831E-2,-4.36245E-2,-1.5409228E-1,-6.467893E-2,1.20523935E-2,3.2574147E-2,-8.848562E-2,1.1064742E-1,2.2463156E-2,-2.2963452E-1,-1.2826552E0,6.188411E-1,-1.0370008E0,2.9259613E-1,1.2605518E0,9.9491644E-1,-8.5349625E-1,-2.8557712E-1,-1.365793E-1,-4.203956E-1,1.0593659E0,-5.42641E-1,7.8879994E-1,7.5680107E-1,-6.0560954E-1,-8.688286E-2,-1.0352212E0,-2.1604493E-1,2.3611829E-1,-7.735412E-1,1.7050293E-1,-9.0179525E-2,3.3533048E-2,-1.4936839E-1,1.662322E-3,-7.834378E-3,9.468775E-2,-1.3123663E-1,-5.4812073E-3,-2.7666345E-2,7.141423E-2,1.3098298E-1,2.2196395E-2,1.1215887E-1,3.0915638E-2,-1.4426991E-1,3.118727E-2,-8.449442E-2,-5.2613616E-3,-7.876111E-2,7.2792664E-2,1.2408147E-1,1.4295434E-2,4.8904594E-2,-7.720842E-2,7.258171E-4,1.0839702E-1,8.840783E-2,9.743892E-3,-1.0705449E-1,4.1053228E-2,-4.6015065E-2,1.6254032E-2,-1.296302E-1,-1.2925141E-2,6.607167E-2,-3.159968E-2,3.505225E-2,-1.1962774E-2,2.657234E-4,-1.0728399E-1,-5.3837862E-2,8.440789E-2],"categories":[],"categories_nodes":[],"categories_segments":[],"categories_sizes":[],"default_left":[0,0,0,0,0,0,0,0,0,0,0,0,0,0,0,0,0,0,0,0,0,0,0,0,0,0,0,0,0,0,0,0,0,0,0,0,0,0,0,0,0,0,0,0,0,0,0,0,0,0,0,0,0,0,0,0,0,0,0,0,0,0,0,0,0,0,0,0,0,0,0,0,0,0,0,0,0,0,0,0,0,0,0,0,0,0,0,0,0,0,0,0,0,0,0,0,0,0,0,0,0,0,0,0,0,0,0,0,0,0,0,0,0,0,0,0,0,0,0,0,0,0,0,0,0,0,0,0,0,0,0,0,0,0,0],"id":7,"left_children":[1,3,5,7,9,11,13,-1,-1,-1,15,17,19,-1,-1,-1,-1,21,23,25,27,29,31,33,35,37,39,41,-1,43,45,47,49,51,-1,53,55,57,59,-1,61,63,65,67,69,71,-1,73,-1,75,77,79,81,83,85,87,89,-1,-1,-1,-1,91,-1,-1,-1,-1,-1,-1,-1,-1,-1,93,95,97,99,101,103,105,107,109,-1,111,113,115,117,119,121,123,125,127,129,131,133,-1,-1,-1,-1,-1,-1,-1,-1,-1,-1,-1,-1,-1,-1,-1,-1,-1,-1,-1,-1,-1,-1,-1,-1,-1,-1,-1,-1,-1,-1,-1,-1,-1,-1,-1,-1,-1,-1,-1,-1,-1,-1],"loss_changes":[7.56201E0,3.0144706E0,5.922471E0,1.9015092E0,1.5003147E0,4.5519867E0,1.4314642E0,0E0,0E0,0E0,4.0286827E-1,4.903653E0,8.385664E0,0E0,0E0,0E0,0E0,1.299375E1,6.9209104E0,9.241213E0,3.5821915E0,7.9069886E0,6.0011425E0,4.4289904E0,4.5545616E0,1.063067E0,5.687517E0,1.1416149E0,0E0,3.788541E0,4.934159E0,3.70456E0,4.548252E0,4.705761E0,0E0,8.811718E0,5.786601E0,1.0767088E0,1.2125838E0,0E0,2.3317852E0,1.0516777E0,5.4859656E-1,1.8454558E0,2.6013136E-1,2.828823E0,0E0,5.7079134E0,0E0,1.1138916E0,7.1087275E0,4.145697E0,6.452697E0,5.793935E0,7.067195E0,8.628195E0,8.377324E0,0E0,0E0,0E0,0E0,1.5924722E0,0E0,0E0,0E0,0E0,0E0,0E0,0E0,0E0,0E0,2.34547E0,2.3544464E0,9.1887116E-1,1.2861514E0,9.260342E-1,6.246071E-1,5.3204536E-2,3.075078E0,3.2309337E0,0E0,3.2056346E0,7.757473E-1,3.85105E0,9.7562194E-1,2.649437E0,2.5935242E0,7.132288E0,2.4455404E0,5.3337946E0,5.635381E0,9.3049407E-1,2.2182343E0,0E0,0E0,0E0,0E0,0E0,0E0,0E0,0E0,0E0,0E0,0E0,0E0,0E0,0E0,0E0,0E0,0E0,0E0,0E0,0E0,0E0,0E0,0E0,0E0,0E0,0E0,0E0,0E0,0E0,0E0,0E0,0E0,0E0,0E0,0E0,0E0,0E0,0E0,0E0,0E0,0E0,0E0],"parents":[2147483647,0,0,1,1,2,2,3,3,4,4,5,5,6,6,10,10,11,11,12,12,17,17,18,18,19,19,20,20,21,21,22,22,23,23,24,24,25,25,26,26,27,27,29,29,30,30,31,31,32,32,33,33,35,35,36,36,37,37,38,38,40,40,41,41,42,42,43,43,44,44,45,45,47,47,49,49,50,50,51,51,52,52,53,53,54,54,55,55,56,56,61,61,71,71,72,72,73,73,74,74,75,75,76,76,77,77,78,78,79,79,81,81,82,82,83,83,84,84,85,85,86,86,87,87,88,88,89,89,90,90,91,91,92,92],"right_children":[2,4,6,8,10,12,14,-1,-1,-1,16,18,20,-1,-1,-1,-1,22,24,26,28,30,32,34,36,38,40,42,-1,44,46,48,50,52,-1,54,56,58,60,-1,62,64,66,68,70,72,-1,74,-1,76,78,80,82,84,86,88,90,-1,-1,-1,-1,92,-1,-1,-1,-1,-1,-1,-1,-1,-1,94,96,98,100,102,104,106,108,110,-1,112,114,116,118,120,122,124,126,128,130,132,134,-1,-1,-1,-1,-1,-1,-1,-1,-1,-1,-1,-1,-1,-1,-1,-1,-1,-1,-1,-1,-1,-1,-1,-1,-1,-1,-1,-1,-1,-1,-1,-1,-1,-1,-1,-1,-1,-1,-1,-1,-1,-1],"split_conditions":[2.5727655E2,6.470152E0,2.7861945E2,2.096256E2,1.428606E2,3.876686E2,8.92241E0,-6.597404E-2,5.891494E-2,3.108763E-3,2.4368808E2,5.622807E0,8.124266E0,-1.3478501E-1,-3.6113292E-3,-1.3161705E-1,-3.055499E-2,6.627059E0,1.6218439E2,6.356511E0,2.6687875E4,3.3071954E2,1.6409938E4,3.44568E4,1.3677994E4,1.7219814E2,1.7717403E2,7.683123E1,3.7925255E-2,5.381994E0,1.808249E1,1.6244755E1,3.410296E2,1.6329624E1,-1.3102682E-1,7.038092E0,3.2359634E2,4.0938092E2,1.6175222E4,1.201966E-1,7.6157104E1,1.1551216E4,1.2352311E1,4.5963312E2,7.9780464E1,1.786781E2,6.3708656E-2,1.2001548E1,9.679978E-2,3.0390189E0,2.8135076E4,1.5198192E1,4.0161443E0,1.6666613E1,8.952896E0,1.8148596E1,1.2458831E1,-2.0733437E-2,-1.313904E-1,-6.9032006E-2,2.6143504E-2,2.175203E4,7.003831E-2,-4.36245E-2,-1.5409228E-1,-6.467893E-2,1.20523935E-2,3.2574147E-2,-8.848562E-2,1.1064742E-1,2.2463156E-2,4.9738665E0,5.5140624E0,6.439052E1,4.860593E2,4.79746E0,2.522749E2,7.467399E1,8.37366E0,5.5694893E1,-1.365793E-1,7.260808E1,1.8709274E1,3.2395563E2,6.185925E0,2.3060376E2,1.492915E1,1.9886595E2,7.9888926E0,5.206597E0,4.8742163E2,1.2224311E4,6.286043E0,-9.0179525E-2,3.3533048E-2,-1.4936839E-1,1.662322E-3,-7.834378E-3,9.468775E-2,-1.3123663E-1,-5.4812073E-3,-2.7666345E-2,7.141423E-2,1.3098298E-1,2.2196395E-2,1.1215887E-1,3.0915638E-2,-1.4426991E-1,3.118727E-2,-8.449442E-2,-5.2613616E-3,-7.876111E-2,7.2792664E-2,1.2408147E-1,1.4295434E-2,4.8904594E-2,-7.720842E-2,7.258171E-4,1.0839702E-1,8.840783E-2,9.743892E-3,-1.0705449E-1,4.1053228E-2,-4.6015065E-2,1.6254032E-2,-1.296302E-1,-1.2925141E-2,6.607167E-2,-3.159968E-2,3.505225E-2,-1.1962774E-2,2.657234E-4,-1.0728399E-1,-5.3837862E-2,8.440789E-2],"split_indices":[4,0,1,1,1,4,0,0,0,0,1,0,3,0,0,0,0,3,1,0,2,4,2,2,2,1,1,7,0,3,6,6,4,6,0,0,4,4,2,0,7,2,6,5,7,1,0,6,0,8,2,6,8,6,3,6,6,0,0,0,0,2,0,0,0,0,0,0,0,0,0,3,0,7,5,0,1,7,3,7,0,7,6,4,0,1,6,1,3,3,5,2,3,0,0,0,0,0,0,0,0,0,0,0,0,0,0,0,0,0,0,0,0,0,0,0,0,0,0,0,0,0,0,0,0,0,0,0,0,0,0,0,0,0,0],"split_type":[0,0,0,0,0,0,0,0,0,0,0,0,0,0,0,0,0,0,0,0,0,0,0,0,0,0,0,0,0,0,0,0,0,0,0,0,0,0,0,0,0,0,0,0,0,0,0,0,0,0,0,0,0,0,0,0,0,0,0,0,0,0,0,0,0,0,0,0,0,0,0,0,0,0,0,0,0,0,0,0,0,0,0,0,0,0,0,0,0,0,0,0,0,0,0,0,0,0,0,0,0,0,0,0,0,0,0,0,0,0,0,0,0,0,0,0,0,0,0,0,0,0,0,0,0,0,0,0,0,0,0,0,0,0,0],"sum_hessian":[4.7587823E2,1.12937765E1,4.6458444E2,2.9891074E0,8.304668E0,4.60513E2,4.0714397E0,1.1359998E0,1.8531076E0,1.0522453E0,7.2524233E0,4.271101E2,3.34029E1,2.9460082E0,1.1254315E0,6.0674996E0,1.1849239E0,5.519806E1,3.7191205E2,2.1709387E1,1.1693514E1,2.1356546E1,3.3841515E1,4.105E1,3.3086206E2,8.190364E0,1.3519024E1,1.0426534E1,1.2669806E0,7.8647623E0,1.3491784E1,8.493637E0,2.5347878E1,3.7488213E1,3.5617878E0,5.209318E1,2.7876886E2,4.62617E0,3.5641932E0,5.885007E0,7.634017E0,8.083717E0,2.3428159E0,3.254042E0,4.6107206E0,1.1876604E1,1.6151799E0,6.714779E0,1.7788584E0,1.8920515E1,6.427362E0,2.7513798E1,9.974414E0,1.6936998E1,3.515618E1,8.485174E1,1.9391713E2,1.6910083E0,2.9351618E0,1.6435674E0,1.9206258E0,5.6869726E0,1.9470444E0,2.144598E0,5.9391193E0,1.1770025E0,1.1658134E0,1.7941332E0,1.4599088E0,3.6000004E0,1.0107201E0,4.3800797E0,7.4965243E0,2.6934073E0,4.021372E0,2.035628E0,1.6884888E1,3.6041877E0,2.8231745E0,2.4134954E1,3.3788435E0,5.242414E0,4.732E0,1.3673708E1,3.263291E0,3.159681E1,3.5593722E0,7.480419E1,1.0047545E1,5.748201E1,1.3643512E2,2.9930384E0,2.6939342E0,1.7280068E0,2.652073E0,6.3203487E0,1.1761755E0,1.1053499E0,1.5880574E0,2.8782604E0,1.1431111E0,1.0123012E0,1.0233268E0,1.5870703E1,1.0141845E0,2.5057836E0,1.0984043E0,1.7170626E0,1.1061118E0,6.323854E0,1.78111E1,4.2101836E0,1.0322305E0,3.654432E0,1.0775678E0,2.281871E0,1.1391837E1,1.1754812E0,2.0878096E0,2.6198822E1,5.397988E0,2.4052925E0,1.1540796E0,2.9624922E1,4.5179268E1,7.46535E0,2.5821955E0,5.3082814E0,5.217373E1,1.03246735E2,3.3188385E1,1.1087465E0,1.884292E0,1.4103628E0,1.2835715E0],"tree_param":{"num_deleted":"0","num_feature":"9","num_nodes":"135","size_leaf_vector":"1"}},{"base_weights":[-9.573349E-3,-4.1113898E-1,2.6518933E-2,-9.311104E-2,-8.41191E-1,3.7290618E-2,-9.535523E-1,1.709505E-1,-8.337517E-1,4.335995E-1,-1.0853808E0,-3.2935676E-3,2.9925776E-1,-1.228534E-1,-3.418658E-3,4.2884204E-1,-6.508174E-1,-1.0322328E0,-3.6554318E-3,-1.4336434E-2,7.618919E-2,-1.2006077E0,-6.0031223E-3,7.9854324E-2,-2.250639E-1,5.6757706E-1,-7.799306E-2,8.389662E-1,2.4682915E-2,3.7398327E-3,-1.1054947E-1,-5.6503513E-3,-1.2723364E-1,-4.23817E-2,-1.3061842E-1,2.6863527E-1,-3.9836723E-2,-3.064134E-1,5.655691E-1,-7.5906895E-2,6.714256E-1,9.045495E-2,-2.598601E-1,3.2815745E-1,1.0848855E-1,-5.4687464E-1,5.7797104E-1,-4.510315E-1,3.7892735E-1,-1.1945252E-1,4.9479398E-1,-1.7333336E-1,-6.1047924E-1,8.174548E-1,-5.4958384E-2,8.484462E-2,-6.4913255E-1,7.5272954E-1,-5.4534663E-2,-4.2739823E-1,7.6774426E-2,8.2835235E-2,-3.339367E-2,-9.4637714E-2,-7.940741E-2,-1.04279285E-2,8.297369E-2,-6.88372E-1,7.4218E-2,1.8366909E-2,6.4069575E-1,-7.867141E-1,-6.978002E-2,-5.165301E-1,6.540013E-1,-4.5567983E-1,7.508172E-2,-7.2599936E-1,3.9904484E-1,1.0306648E0,1.727742E-3,6.3329696E-4,-9.745935E-2,8.56702E-1,-2.1580529E-1,-1.13477305E-1,-2.2773013E-1,-4.9135838E-2,3.74324E-2,9.802964E-3,-1.1651986E0,4.8988914E-1,-5.6645447E-1,2.7482858E-1,8.977191E-1,-1.004278E0,4.6492398E-2,6.235844E-1,-1.3072078E-1,3.717607E-2,-1.0861295E-1,-4.496636E-2,7.508048E-1,-1.020195E0,-2.0931825E-1,2.2122131E-1,-7.605623E-1,-9.498425E-1,-2.1882653E-1,8.8981435E-2,-2.151515E-2,1.1278512E-1,2.5404563E-2,9.62023E-1,3.6937505E-1,4.398794E-2,-8.186368E-2,6.271422E-1,-4.2803776E-1,4.5366887E-2,-7.183503E-2,-1.3526833E-1,-2.0534322E-2,7.903457E-3,7.0919E-2,-7.6063894E-2,9.2353635E-2,4.4656176E-2,-8.995625E-2,-4.5930922E-2,9.665764E-2,-1.1630171E-1,1.3283306E-3,1.2136074E-1,7.575001E-3,2.2228189E-2,-2.296036E-2,9.4313316E-2,7.152829E-3,-1.3003723E-1,4.9664047E-2,-6.2188637E-2,5.72866E-3,-6.571201E-2,3.2337405E-2,-1.0235224E-1,-8.623808E-4,-2.6313627E-2,-1.1229078E-1,-5.414191E-2,3.9982956E-2,2.6009029E-2,1.0092717E-1,-5.9626646E-2,6.978663E-2,-4.886056E-3,9.596664E-2,-1.4203584E-1,-6.047338E-3],"categories":[],"categories_nodes":[],"categories_segments":[],"categories_sizes":[],"default_left":[0,0,0,0,0,0,0,0,0,0,0,0,0,0,0,0,0,0,0,0,0,0,0,0,0,0,0,0,0,0,0,0,0,0,0,0,0,0,0,0,0,0,0,0,0,0,0,0,0,0,0,0,0,0,0,0,0,0,0,0,0,0,0,0,0,0,0,0,0,0,0,0,0,0,0,0,0,0,0,0,0,0,0,0,0,0,0,0,0,0,0,0,0,0,0,0,0,0,0,0,0,0,0,0,0,0,0,0,0,0,0,0,0,0,0,0,0,0,0,0,0,0,0,0,0,0,0,0,0,0,0,0,0,0,0,0,0,0,0,0,0,0,0,0,0,0,0,0,0,0,0,0,0,0,0,0,0,0,0],"id":8,"left_children":[1,3,5,7,9,11,13,15,17,19,21,23,25,-1,-1,27,29,31,-1,-1,-1,33,-1,35,37,39,41,43,45,-1,-1,-1,-1,-1,-1,47,49,51,53,55,57,-1,59,61,-1,63,65,67,69,71,73,75,77,79,-1,-1,81,83,-1,85,-1,-1,-1,-1,87,-1,-1,89,-1,91,93,95,97,99,101,103,105,107,109,111,-1,-1,-1,113,115,-1,117,-1,-1,119,121,123,125,127,129,131,-1,133,135,-1,-1,-1,137,139,141,143,145,147,149,-1,-1,-1,-1,151,153,-1,-1,155,157,-1,-1,-1,-1,-1,-1,-1,-1,-1,-1,-1,-1,-1,-1,-1,-1,-1,-1,-1,-1,-1,-1,-1,-1,-1,-1,-1,-1,-1,-1,-1,-1,-1,-1,-1,-1,-1,-1,-1,-1],"loss_changes":[6.8687487E0,5.266784E0,4.628792E0,4.756406E0,5.603819E0,4.586667E0,1.1632862E0,4.1405783E0,9.70274E-1,7.4669117E-1,1.596714E0,6.922776E0,5.901895E0,0E0,0E0,2.3779905E0,1.5275354E0,1.1144657E0,0E0,0E0,0E0,4.834423E-1,0E0,6.1810837E0,6.757556E0,2.3188095E0,4.6900325E0,5.4244614E-1,2.946837E0,0E0,0E0,0E0,0E0,0E0,0E0,8.591507E0,7.209745E0,3.676422E0,3.2306023E0,3.525562E0,3.3113604E0,0E0,4.0836806E0,1.5211769E0,0E0,7.849947E-1,8.961017E-1,4.6326866E0,8.721874E0,4.8181562E0,3.8750415E0,4.692216E0,3.5618668E0,1.4288278E0,0E0,0E0,8.6628425E-1,2.9950771E0,0E0,2.4814079E0,0E0,0E0,0E0,0E0,7.8466064E-1,0E0,0E0,4.2255683E0,0E0,1.12944355E1,4.7919407E0,3.214312E0,5.9098454E0,2.1983466E0,2.4126482E0,4.1289415E0,4.5874095E0,2.6907158E0,1.2543858E0,2.1753454E-1,0E0,0E0,0E0,9.4843864E-1,1.7451656E0,0E0,3.0731835E0,0E0,0E0,2.3066795E0,1.0773115E0,1.9851484E0,5.9964304E0,5.151473E0,3.3435593E0,1.4549093E0,0E0,3.5661688E0,4.5056543E0,0E0,0E0,0E0,2.3142624E0,4.56773E0,2.5649838E0,3.0455642E0,1.1007874E0,1.7741461E0,2.0360754E0,0E0,0E0,0E0,0E0,4.0958214E-1,2.3629766E0,0E0,0E0,8.370112E-1,4.970991E0,0E0,0E0,0E0,0E0,0E0,0E0,0E0,0E0,0E0,0E0,0E0,0E0,0E0,0E0,0E0,0E0,0E0,0E0,0E0,0E0,0E0,0E0,0E0,0E0,0E0,0E0,0E0,0E0,0E0,0E0,0E0,0E0,0E0,0E0,0E0,0E0,0E0,0E0,0E0,0E0],"parents":[2147483647,0,0,1,1,2,2,3,3,4,4,5,5,6,6,7,7,8,8,9,9,10,10,11,11,12,12,15,15,16,16,17,17,21,21,23,23,24,24,25,25,26,26,27,27,28,28,35,35,36,36,37,37,38,38,39,39,40,40,42,42,43,43,45,45,46,46,47,47,48,48,49,49,50,50,51,51,52,52,53,53,56,56,57,57,59,59,64,64,67,67,69,69,70,70,71,71,72,72,73,73,74,74,75,75,76,76,77,77,78,78,79,79,83,83,84,84,86,86,89,89,90,90,91,91,92,92,93,93,94,94,95,95,97,97,98,98,102,102,103,103,104,104,105,105,106,106,107,107,108,108,113,113,114,114,117,117,118,118],"right_children":[2,4,6,8,10,12,14,16,18,20,22,24,26,-1,-1,28,30,32,-1,-1,-1,34,-1,36,38,40,42,44,46,-1,-1,-1,-1,-1,-1,48,50,52,54,56,58,-1,60,62,-1,64,66,68,70,72,74,76,78,80,-1,-1,82,84,-1,86,-1,-1,-1,-1,88,-1,-1,90,-1,92,94,96,98,100,102,104,106,108,110,112,-1,-1,-1,114,116,-1,118,-1,-1,120,122,124,126,128,130,132,-1,134,136,-1,-1,-1,138,140,142,144,146,148,150,-1,-1,-1,-1,152,154,-1,-1,156,158,-1,-1,-1,-1,-1,-1,-1,-1,-1,-1,-1,-1,-1,-1,-1,-1,-1,-1,-1,-1,-1,-1,-1,-1,-1,-1,-1,-1,-1,-1,-1,-1,-1,-1,-1,-1,-1,-1,-1,-1],"split_conditions":[2.8632758E2,2.6999383E4,2.7861945E2,4.3280263E0,5.877974E0,8.52617E0,8.92241E0,7.91667E0,1.5518323E1,1.3472757E1,4.7429667E0,3.50836E2,7.3315682E0,-1.228534E-1,-3.418658E-3,1.743092E4,6.1168633E0,3.5997443E2,-3.6554318E-3,-1.4336434E-2,7.618919E-2,3.2412672E0,-6.0031223E-3,6.6587415E0,7.91667E0,1.1009592E1,4.8658108E1,6.691806E0,2.1575246E4,3.7398327E-3,-1.1054947E-1,-5.6503513E-3,-1.2723364E-1,-4.23817E-2,-1.3061842E-1,5.381994E0,3.393279E2,2.0778658E2,9.263166E0,9.771896E0,3.992774E4,9.045495E-2,2.3376434E2,5.8503275E0,1.0848855E-1,6.602452E0,1.816654E2,5.166468E2,1.9692465E4,8.811986E0,6.832217E0,6.7980976E0,2.522749E2,2.146386E2,-5.4958384E-2,8.484462E-2,6.053072E0,1.9339144E1,-5.4534663E-2,5.5694893E1,7.6774426E-2,8.2835235E-2,-3.339367E-2,-9.4637714E-2,3.1834354E0,-1.04279285E-2,8.297369E-2,2.0526049E4,7.4218E-2,1.9778558E2,3.9065263E0,4.628975E0,1.2224311E4,1.3866074E1,3.1853662E2,6.3906794E0,9.134812E0,2.3372883E4,4.1618854E2,7.908553E1,1.727742E-3,6.3329696E-4,-9.745935E-2,6.8114157E0,3.7563918E0,-1.13477305E-1,1.0439619E1,-4.9135838E-2,3.74324E-2,7.560098E1,3.024917E4,4.0324374E2,1.8600727E1,2.3060376E2,2.7163074E2,2.3541745E2,4.6492398E-2,3.332892E2,6.030276E0,3.717607E-2,-1.0861295E-1,-4.496636E-2,8.018607E1,5.0906284E2,1.6479099E2,4.2815365E1,1.9333551E2,6.084325E0,7.794727E0,8.8981435E-2,-2.151515E-2,1.1278512E-1,2.5404563E-2,1.4956328E2,1.3894419E1,4.398794E-2,-8.186368E-2,1.6616518E4,1.249351E1,4.5366887E-2,-7.183503E-2,-1.3526833E-1,-2.0534322E-2,7.903457E-3,7.0919E-2,-7.6063894E-2,9.2353635E-2,4.4656176E-2,-8.995625E-2,-4.5930922E-2,9.665764E-2,-1.1630171E-1,1.3283306E-3,1.2136074E-1,7.575001E-3,2.2228189E-2,-2.296036E-2,9.4313316E-2,7.152829E-3,-1.3003723E-1,4.9664047E-2,-6.2188637E-2,5.72866E-3,-6.571201E-2,3.2337405E-2,-1.0235224E-1,-8.623808E-4,-2.6313627E-2,-1.1229078E-1,-5.414191E-2,3.9982956E-2,2.6009029E-2,1.0092717E-1,-5.9626646E-2,6.978663E-2,-4.886056E-3,9.596664E-2,-1.4203584E-1,-6.047338E-3],"split_indices":[4,2,1,8,0,0,0,0,6,6,8,4,3,0,0,2,3,5,0,0,0,8,0,0,0,6,7,3,2,0,0,0,0,0,0,3,4,1,3,6,2,0,1,3,0,3,1,5,2,6,0,0,1,1,0,0,3,6,0,7,0,0,0,0,8,0,0,2,0,1,8,8,2,6,5,3,3,2,5,7,0,0,0,3,8,0,6,0,0,7,2,5,6,1,5,1,0,4,3,0,0,0,7,5,1,7,1,3,3,0,0,0,0,1,6,0,0,2,6,0,0,0,0,0,0,0,0,0,0,0,0,0,0,0,0,0,0,0,0,0,0,0,0,0,0,0,0,0,0,0,0,0,0,0,0,0,0,0,0],"split_type":[0,0,0,0,0,0,0,0,0,0,0,0,0,0,0,0,0,0,0,0,0,0,0,0,0,0,0,0,0,0,0,0,0,0,0,0,0,0,0,0,0,0,0,0,0,0,0,0,0,0,0,0,0,0,0,0,0,0,0,0,0,0,0,0,0,0,0,0,0,0,0,0,0,0,0,0,0,0,0,0,0,0,0,0,0,0,0,0,0,0,0,0,0,0,0,0,0,0,0,0,0,0,0,0,0,0,0,0,0,0,0,0,0,0,0,0,0,0,0,0,0,0,0,0,0,0,0,0,0,0,0,0,0,0,0,0,0,0,0,0,0,0,0,0,0,0,0,0,0,0,0,0,0,0,0,0,0,0,0],"sum_hessian":[4.721696E2,3.8081413E1,4.340882E2,2.2591372E1,1.5490042E1,4.3032062E2,3.7675796E0,1.7220802E1,5.3705688E0,2.3654687E0,1.3124574E1,3.7345245E2,5.6868156E1,2.6412878E0,1.1262916E0,1.3471312E1,3.7494907E0,4.06393E0,1.3066385E0,1.0621231E0,1.3033457E0,1.1645004E1,1.4795688E0,2.7208145E2,1.01371E2,3.2937138E1,2.3931019E1,6.152338E0,7.3189735E0,1.8567681E0,1.8927227E0,1.0465016E0,3.0174286E0,1.9933107E0,9.651694E0,1.050882E2,1.6699324E2,9.246915E1,8.901854E0,4.614298E0,2.8322842E1,3.1171002E0,2.081392E1,2.757999E0,3.3943393E0,3.605752E0,3.7132215E0,1.3554477E1,9.153373E1,1.4602426E2,2.0968979E1,6.5410904E1,2.7058243E1,7.4793987E0,1.4224552E0,1.5824299E0,3.031868E0,2.6906347E1,1.4164939E0,1.8398375E1,2.4155438E0,1.4280413E0,1.3299576E0,1.3918145E0,2.2139375E0,1.1588116E0,2.55441E0,1.1658574E1,1.8959022E0,3.895171E1,5.2582016E1,9.089189E0,1.3693507E2,2.5467856E0,1.8422194E1,3.02241E1,3.5186802E1,2.4531902E1,2.5263417E0,5.67834E0,1.8010589E0,1.3312747E0,1.7005932E0,2.4402227E1,2.5041194E0,3.0191116E0,1.5379264E1,1.1169293E0,1.0970083E0,5.1286244E0,6.52995E0,2.1654625E1,1.7297087E1,2.2550764E1,3.0031254E1,7.9115977E0,1.1775908E0,1.0317156E1,1.2661791E2,1.130734E0,1.4160516E0,1.1915953E0,1.7230598E1,8.228406E0,2.1995693E1,3.0575031E1,4.611772E0,1.6414474E1,8.117426E0,1.1548338E0,1.371508E0,4.6448264E0,1.0335133E0,1.9264671E1,5.137556E0,1.3289572E0,1.1751622E0,2.5149734E0,1.286429E1,3.4205148E0,1.7081094E0,5.1205215E0,1.4094282E0,8.009475E0,1.3645151E1,1.5735803E1,1.561283E0,2.0214512E1,2.336252E0,1.1764053E0,2.8854849E1,6.72029E0,1.1913075E0,4.3822007E0,5.9349556E0,2.7433802E1,9.918411E1,1.3125768E1,4.10483E0,7.06595E0,1.1624562E0,8.111155E0,1.3884539E1,2.6194499E0,2.7955582E1,3.1492658E0,1.4625063E0,3.8114514E0,1.26030245E1,5.4174123E0,2.7000139E0,1.6251973E0,1.7639475E1,1.0971572E0,4.040399E0,1.1104842E0,1.4044893E0,2.7029204E0,1.0161369E1],"tree_param":{"num_deleted":"0","num_feature":"9","num_nodes":"159","size_leaf_vector":"1"}},{"base_weights":[-9.544521E-3,-3.3174115E-1,3.0152284E-2,-2.0179491E-2,-7.5671375E-1,-7.5962837E-3,2.7432823E-1,-6.237433E-1,1.7252995E-1,-8.7684464E-1,2.372103E-2,7.400115E-2,-2.1650863E-1,5.5214304E-1,-1.1309146E-1,-1.0435436E-1,3.492738E-2,3.997051E-1,-4.12704E-1,-5.661588E-2,-1.0817475E0,-5.5332206E-2,2.1572849E-1,-2.914829E-1,5.325062E-1,6.4645284E-1,-2.3454899E-1,5.2524112E-2,-1.0608295E-1,-6.448741E-2,6.3564E-2,-4.003633E-2,5.149951E-1,5.185885E-1,-9.9772435E-1,-6.3379645E-1,8.2464956E-2,-3.6934766E-1,-1.1953288E0,1.3081954E-2,-9.3274903E-1,5.226012E-1,4.6667945E-2,-1.6098449E-1,-5.839904E-1,7.7746373E-1,-5.1579863E-2,-1.4171825E-1,7.8730613E-1,-5.569328E-2,3.6827717E-2,9.278797E-2,-9.072623E-2,-4.494746E-2,6.184236E-1,8.149315E-2,-7.4394434E-3,2.6465342E-3,-1.320506E-1,-9.362406E-2,-8.603063E-3,2.620548E-2,-8.9714654E-2,-1.2623873E-1,-4.595163E-2,-4.9117526E-1,7.8646176E-2,-1.2967569E0,2.640217E-2,6.3241416E-1,-1.2868546E-1,2.661431E-1,-4.0649337E-1,1.3415509E-2,-5.122088E-1,-7.6568633E-1,-5.9653055E-2,1.0029224E0,2.8675532E-3,8.167768E-2,-7.399198E-1,1.712523E-1,9.620014E-1,-8.060547E-1,1.7925552E-1,8.9390415E-1,1.542659E-1,1.3113549E-2,-8.923231E-1,-2.6264023E-2,4.0833294E-1,-1.5109386E0,-1.6258553E-2,-9.2596695E-2,8.388133E-1,-2.9760835E-1,4.0899554E-1,-1.1266328E0,-8.320762E-2,9.221049E-2,-9.826827E-2,-1.1990181E0,-2.860797E-1,-9.7279936E-1,-2.9724964E-1,8.049633E-2,-5.0685364E-1,1.1083323E-1,2.836513E-2,5.9720216E-4,-1.1439437E-1,6.590404E-1,-6.98054E-2,-1.0578206E-2,1.028907E0,-1.1315931E0,1.6911438E-2,-3.7436327E-1,3.9188042E-1,1.0206723E0,5.283971E-3,6.273057E-1,-6.0540527E-2,-3.187812E-1,8.920112E-2,1.8947717E-2,-1.1971071E0,1.0143534E-1,-3.2726783E-1,6.0929364E-1,-6.176218E-1,-4.0568497E-2,-1.677012E-1,7.143164E-1,-5.569682E-1,-8.0767594E-2,9.259161E-1,4.4679946E-1,-8.61434E-1,5.476885E-1,-2.8856033E-1,3.51872E-2,-1.4103427E0,-3.125639E-1,9.620587E-2,-6.993283E-2,5.5848825E-1,-1.438788E-1,-3.460898E-2,-8.8029765E-2,-8.9291215E-2,-1.24790035E-1,-1.1325107E0,-6.4354503E-1,7.310321E-2,-8.3654225E-1,2.2536878E-2,9.5200576E-2,-1.9397467E-2,5.9268576E-1,1.1396357E0,-1.2962574E-1,-3.5274714E-2,-6.882258E-1,3.4808747E-2,6.8386286E-1,-9.0430774E-2,3.123333E-2,1.0814382E-1,2.0125998E-2,8.595164E-2,1.723523E-2,-1.13782264E-1,-1.3461158E-1,-2.8326023E-2,4.7558814E-2,-9.1174515E-3,-8.379524E-2,1.9588503E-3,1.08358385E-2,8.0588154E-2,1.0254298E-2,-1.4245592E-1,3.2293957E-3,9.935164E-2,-1.2111837E-1,5.565629E-2,-1.3986056E-2,1.0712967E-1,9.400836E-2,-4.841241E-2,-1.2740473E-1,4.9626943E-2,6.8505496E-2,-2.4939666E-2,-1.2882935E-1,6.7363404E-2,-3.208922E-2,-1.6898593E-1,4.4961004E-3,-9.6633255E-2,-1.737181E-2,1.0162818E-1,1.18549936E-1,5.252999E-3,-3.329022E-2,4.740573E-2,5.9916835E-2,-8.251276E-2,4.5407433E-3,-1.2667449E-1,-8.635562E-2,1.6942991E-2,2.4230825E-2,-1.3206457E-1,-4.866165E-5,9.4785176E-2,1.1925834E-1,2.9701164E-2,-1.001506E-1,-1.4874148E-3,9.2400715E-2,-9.43173E-3,-6.820927E-2,6.627528E-2],"categories":[],"categories_nodes":[],"categories_segments":[],"categories_sizes":[],"default_left":[0,0,0,0,0,0,0,0,0,0,0,0,0,0,0,0,0,0,0,0,0,0,0,0,0,0,0,0,0,0,0,0,0,0,0,0,0,0,0,0,0,0,0,0,0,0,0,0,0,0,0,0,0,0,0,0,0,0,0,0,0,0,0,0,0,0,0,0,0,0,0,0,0,0,0,0,0,0,0,0,0,0,0,0,0,0,0,0,0,0,0,0,0,0,0,0,0,0,0,0,0,0,0,0,0,0,0,0,0,0,0,0,0,0,0,0,0,0,0,0,0,0,0,0,0,0,0,0,0,0,0,0,0,0,0,0,0,0,0,0,0,0,0,0,0,0,0,0,0,0,0,0,0,0,0,0,0,0,0,0,0,0,0,0,0,0,0,0,0,0,0,0,0,0,0,0,0,0,0,0,0,0,0,0,0,0,0,0,0,0,0,0,0,0,0,0,0,0,0,0,0,0,0,0,0,0,0,0,0,0,0,0,0,0,0,0,0,0,0,0,0,0,0,0,0],"id":9,"left_children":[1,3,5,7,9,11,13,15,17,19,-1,21,23,25,27,-1,29,31,33,35,37,39,41,43,45,47,49,51,-1,-1,-1,-1,53,55,57,59,-1,61,63,65,67,69,71,73,75,77,-1,79,81,-1,-1,-1,83,-1,85,-1,-1,-1,-1,-1,-1,-1,-1,-1,-1,87,89,91,-1,93,-1,95,97,99,101,103,105,107,-1,-1,109,111,113,115,117,119,121,123,125,127,129,131,-1,133,135,137,139,141,143,145,-1,147,149,151,153,-1,155,-1,-1,-1,-1,157,-1,-1,159,161,-1,163,165,167,-1,169,-1,171,-1,-1,173,175,177,179,181,-1,-1,183,185,-1,187,189,191,193,195,-1,197,199,-1,201,203,-1,-1,-1,205,207,209,211,-1,213,-1,-1,-1,215,217,-1,-1,219,-1,221,