tree
version=v4
num_class=1
num_tree_per_iteration=1
label_index=0
max_feature_idx=8
objective=binary sigmoid:1
feature_names=Column_0 Column_1 Column_2 Column_3 Column_4 Column_5 Column_6 Column_7 Column_8
feature_infos=[0:13.999999999999998] [73.492233689061095:323.12400000000002] [320.94261127435902:61227.196007712133] [0.35200000000000031:13.127000000000002] [129.00000000000003:481.03064230599722] [181.483753985146:753.34261955830459] [4.3718986084411426:28.300000000000011] [0.73799999999999955:118.3572747362022] [1.4961009425719864:6.7389999999999999]
tree_sizes=9622 9944 9935 9954 9971 9966 9940 9941 9967 9974 9951 9959 9951 9960 9949 9960 9972 9945 9940 9955 9976 9982 9989 9943 9950 9973

Tree=0
num_leaves=95
num_cat=0
split_feature=4 0 3 4 0 3 0 4 1 0 3 1 5 1 3 0 7 3 2 4 1 3 2 0 1 5 0 3 6 5 7 4 0 0 0 4 7 5 6 5 0 3 0 2 3 3 5 2 1 4 1 8 4 6 3 6 2 0 2 6 3 8 1 2 4 1 4 2 7 2 0 4 1 0 2 6 1 6 3 3 5 3 5 5 0 3 7 3 6 5 2 7 8 0
split_gain=26.8732 22.6533 22.9344 15.4703 33.2811 13.8206 13.856 13.8096 11.5453 12.4315 20.0497 20.2312 14.2798 14.3097 11.0048 10.9785 11.0121 9.60304 8.8096 8.41653 9.31539 13.3804 8.32645 8.21771 8.50554 7.95502 7.95761 7.63109 7.31158 7.69407 6.7829 6.6762 6.55732 7.0505 6.50893 6.45233 6.41064 6.34046 6.15784 6.01038 5.89429 5.87142 5.70509 5.5192 5.35458 8.10801 6.55886 5.4189 5.25957 7.30524 4.83817 5.63195 6.11357 4.70675 4.54806 4.51392 4.48257 4.43272 10.477 4.40925 4.23889 4.56704 5.88563 6.93997 5.13529 4.19149 4.0114 7.37803 9.47097 9.12952 7.94003 7.03181 8.0583 6.77018 7.17392 6.10182 6.00469 7.47442 5.17435 5.78332 4.77547 4.29722 10.8872 4.52607 4.68477 4.42942 6.87667 5.12294 4.10296 3.84564 5.25301 3.80044 3.75092 3.66756
threshold=295.93565051145885 7.1465467604343456 5.6919646778610646 387.32842254386139 7.9073471424845847 8.9400641439829798 7.0397446385810607 255.29393596573081 280.6791609674836 6.1031323053418491 5.5020337564525938 221.80215556508873 349.62359162489071 138.43600245868802 6.7018567603180452 8.1785327084512112 82.481196711050956 7.7099152384910878 17409.348842110645 355.12602511889276 174.14083888292802 9.0872493566478756 26872.796890394788 7.8726165477100194 190.99953226453485 400.36812470370842 6.4522841728946547 6.9723680883766548 10.150185533006125 475.06636474048668 81.081640956803611 328.78930197928457 8.7892595647672636 7.6830399799748426 7.7470769173358009 348.54689342389651 54.953814875722635 524.36247031692403 13.450834154564378 483.7279980336437 5.9412092064254516 6.9549105338938579 6.6862247584187342 20237.302920295482 8.493377186126887 8.416626643565321 554.08282034683168 21026.534780450191 206.31576362469693 285.5917607435502 159.35868511327581 3.4269427406781015 341.63923412463959 14.140658420786879 6.398148851018882 13.886016418615784 26772.593108870551 7.4810629427594053 24777.780960730222 15.733052923999113 5.5715729984204279 4.7632251103191106 221.80215556508873 27665.441410021656 326.94829734644435 219.60852192372553 333.53256261154587 23103.531991477965 78.379437252182569 30888.50836180833 7.1592256507253582 357.9225087273357 215.98748765981298 6.7310808628985486 13202.713890213659 11.017172060437789 219.19166244815503 11.362589046254813 7.0185775102740751 7.9249303762392591 447.46723462670838 7.0185775102740751 398.54595898970143 474.19419040815666 7.0821124408146083 6.0436773968593824 64.984879209696871 5.1691979343318817 14.434489551570069 414.83678637271333 24288.415726976516 59.503512202816644 3.748743708334914 7.5198731950625257
decision_type=2 2 2 2 2 2 2 2 2 2 2 2 2 2 2 2 2 2 2 2 2 2 2 2 2 2 2 2 2 2 2 2 2 2 2 2 2 2 2 2 2 2 2 2 2 2 2 2 2 2 2 2 2 2 2 2 2 2 2 2 2 2 2 2 2 2 2 2 2 2 2 2 2 2 2 2 2 2 2 2 2 2 2 2 2 2 2 2 2 2 2 2 2 2
left_child=1 2 22 8 5 6 36 42 9 10 38 31 14 89 23 16 44 -8 -3 20 -17 35 -1 24 -11 27 -27 -18 -9 -30 32 -12 33 -16 37 59 -5 39 -2 55 54 -13 -4 -43 45 46 66 -48 -20 -50 51 -33 -53 -26 -38 -28 -25 -46 -59 60 -22 62 63 64 -62 -31 67 68 76 75 92 72 -68 -73 -75 -69 77 93 -76 -80 -72 82 -79 84 -83 87 -87 -84 -74 -14 -91 -78 -71 -15
right_child=3 18 7 4 -6 -7 17 28 -10 12 11 41 13 15 30 19 25 -19 48 -21 21 -23 -24 56 53 26 34 -29 29 65 -32 50 -34 -35 -36 -37 40 -39 -40 -41 -42 43 -44 -45 57 -47 47 -49 49 -51 -52 52 -54 -55 -56 -57 -58 58 -60 -61 61 -63 -64 -65 -66 -67 71 69 -70 70 80 73 88 74 78 -77 91 81 79 -81 -82 83 85 -85 -86 86 -88 -89 -90 90 -92 -93 -94 -95
leaf_value=0.41358125409959345 0.44939724445505913 0.43972064355200352 0.44414423253625751 0.31807194648501858 0.50484570359796521 0.33207997826848928 0.50078540453029252 0.40562214513171224 0.35309202594369582 0.37060206567303466 0.51538019904488452 0.37810636841417977 0.33717380800793328 0.5281924232370836 0.40880578871886469 0.41695217083893138 0.50607447831581354 0.39311497389647021 0.33761803734567558 0.51448891388368811 0.51713345077644857 0.36009604183543137 0.31807194648501835 0.5281924232370836 0.50192736364307544 0.31807194648501846 0.40212013718584444 0.4099996550640469 0.51038560317334924 0.39447939257667841 0.4581522643197285 0.38110808951063785 0.46815800130792212 0.35196234596115783 0.33908399416022483 0.40212013718584444 0.31807194648501835 0.48616832788667058 0.36582660029230585 0.35039817367764375 0.4581522643197285 0.39447939257667841 0.33717380800793334 0.48879483384607136 0.48768727109210719 0.36009604183543137 0.4507796160126385 0.37336680878819339 0.36309776293188945 0.46515628021146405 0.48851932622795241 0.51418439145361261 0.41358125409959345 0.42813505335514779 0.41358125409959345 0.47970308244814547 0.44414423253625751 0.37060206567303461 0.50909056171416855 0.50818094926069646 0.39447939257667852 0.5281924232370836 0.50484570359796521 0.36009604183543137 0.47566230404906729 0.48616832788667053 0.4952323484524459 0.41358125409959351 0.36476538576325501 0.43121374165920734 0.4326831156225085 0.37810636841417988 0.46639228301588798 0.5281924232370836 0.4716215256499891 0.49488064033736595 0.5281924232370836 0.31807194648501846 0.36309776293188945 0.46515628021146405 0.33717380800793334 0.48471922115044941 0.40212013718584438 0.39311497389647021 0.41695217083893138 0.33717380800793334 0.45178497714542348 0.49817521227250283 0.3881121054023734 0.36009604183543137 0.46515628021146405 0.44414423253625751 0.51068238350774486 0.44414423253625751
leaf_weight=5.2350917160510999 3.8073394298553449 4.5212155729532268 2.3795871436595943 3.3314220011234337 8.5665137171745283 7.1387614309787741 5.4730504304170591 2.8555045723915127 2.8555045723915091 3.8073394298553493 19.512614578008652 4.9971330016851407 2.61754585802555 2.8555045723915091 20.940366864204414 8.0905962884426099 4.521215572953226 3.3314220011234283 10.232224717736246 10.94610086083412 4.5212155729532268 2.3795871436595908 4.0452981442213058 4.7591742873191825 3.8073394298553449 2.3795871436595943 4.7591742873191851 3.8073394298553467 14.039564147591593 2.61754585802555 6.4248852878808966 2.3795871436595899 3.3314220011234275 7.3767201453447333 2.3795871436595908 2.3795871436595908 2.3795871436595917 3.5693807154893866 5.2350917160511017 3.0934632867574692 2.85550457239151 2.6175458580255508 2.6175458580255508 3.8073394298553467 19.750573292374614 2.3795871436595908 4.5212155729532224 4.5212155729532242 6.6628440022468549 2.3795871436595917 34.028096154332161 3.5693807154893875 2.6175458580255508 4.9971330016851425 2.6175458580255508 3.0934632867574692 2.3795871436595917 2.8555045723915091 2.6175458580255508 14.991399005055426 2.6175458580255562 2.3795871436595908 4.2832568585872641 2.3795871436595908 7.6146788597106934 2.3795871436595917 24.271788865327839 2.6175458580255535 4.2832568585872641 3.0934632867574674 2.6175458580255508 3.331422001123431 4.045298144221305 2.8555045723915091 6.1869265735149366 19.512614578008652 3.0934632867574683 2.8555045723915127 3.3314220011234283 2.3795871436595917 2.6175458580255508 6.9008027166128141 2.3795871436595899 3.3314220011234275 4.0452981442213058 2.6175458580255508 2.6175458580255508 3.3314220011234283 2.85550457239151 2.3795871436595917 2.3795871436595917 2.3795871436595917 2.85550457239151 2.3795871436595917
leaf_count=22 16 19 10 14 36 30 23 12 12 16 82 21 11 12 88 34 19 14 43 46 19 10 17 20 16 10 20 16 59 11 27 10 14 31 10 10 10 15 22 13 12 11 11 16 83 10 19 19 28 10 143 15 11 21 11 13 10 12 11 63 11 10 18 10 32 10 102 11 18 13 11 14 17 12 26 82 13 12 14 10 11 29 10 14 17 11 11 14 12 10 10 10 12 10
internal_value=0.446189 0.414794 0.439721 0.45048 0.41893 0.391798 0.413126 0.463111 0.453273 0.453988 0.471272 0.479912 0.449496 0.454496 0.427023 0.456502 0.450516 0.460045 0.376906 0.474664 0.466221 0.475375 0.371949 0.457308 0.433044 0.421321 0.403677 0.462155 0.48023 0.491421 0.411313 0.49116 0.401804 0.393998 0.415734 0.482039 0.37619 0.428299 0.401014 0.409429 0.400847 0.418755 0.388112 0.45037 0.455482 0.451586 0.453202 0.412073 0.362171 0.389955 0.480064 0.446479 0.471622 0.460045 0.368101 0.432683 0.500176 0.476653 0.436836 0.486942 0.473561 0.46334 0.454206 0.437008 0.454895 0.438141 0.456162 0.448988 0.435321 0.466657 0.429838 0.467288 0.481677 0.442485 0.457023 0.485265 0.443113 0.435139 0.439942 0.405622 0.384928 0.424913 0.405018 0.444144 0.459675 0.4277 0.394479 0.458152 0.434 0.385853 0.412626 0.49165 0.469359 0.489989
internal_weight=498.761 59.9656 36.1697 438.796 35.6938 27.1273 19.9885 26.8893 403.102 400.247 82.5717 73.5292 317.675 259.851 57.824 252.474 189.891 8.80447 23.7959 62.5831 51.637 43.5464 9.28039 19.7506 12.6118 27.6032 19.2747 8.32856 21.8922 19.0367 38.0734 62.1072 31.6485 28.3171 16.8951 41.1669 11.1841 14.5155 9.04243 10.9461 7.85264 11.422 4.99713 6.42489 162.288 137.064 134.685 9.04243 19.2747 9.04243 42.5946 8.56651 6.18693 8.80447 4.99713 7.85264 7.13876 25.2236 5.47305 38.7873 23.7959 19.2747 16.8951 12.6118 10.2322 4.99713 125.642 76.3847 43.0705 33.3142 11.1841 49.2575 31.1726 18.0849 14.7534 22.1302 38.7873 33.3142 11.8979 5.71101 5.23509 28.0791 13.8016 14.2775 10.9461 10.9461 5.23509 5.71101 6.9008 7.37672 4.75917 5.47305 5.94897 5.23509
internal_count=2096 252 152 1844 150 114 84 113 1694 1682 347 309 1335 1092 243 1061 798 37 100 263 217 183 39 83 53 116 81 35 92 80 160 261 133 119 71 173 47 61 38 46 33 48 21 27 682 576 566 38 81 38 179 36 26 37 21 33 30 106 23 163 100 81 71 53 43 21 528 321 181 140 47 207 131 76 62 93 163 140 50 24 22 118 58 60 46 46 22 24 29 31 20 23 25 22
is_linear=0
shrinkage=1


Tree=1
num_leaves=95
num_cat=0
split_feature=4 0 2 4 0 3 3 0 1 0 3 1 1 0 3 5 7 4 7 0 2 2 0 4 3 1 6 3 5 4 4 2 2 1 4 3 2 6 7 3 0 3 4 6 6 6 0 2 2 8 8 3 0 3 2 2 7 4 8 3 2 3 4 4 1 6 1 5 7 1 1 1 4 1 3 1 2 1 1 7 6 2 4 1 1 4 8 8 3 0 1 1 7 3
split_gain=24.1243 20.2063 16.6313 13.9163 29.9222 13.5981 12.1293 15.7295 10.2562 11.3148 18.162 18.4783 13.0246 16.5167 13.0393 11.2387 9.78361 7.85413 7.47921 9.33559 8.23322 7.41775 7.00338 6.92964 6.813 9.08471 10.2479 6.72183 6.58366 6.58026 6.2453 6.12851 5.80785 5.71194 5.54601 7.63049 6.08529 5.4181 5.33555 5.69407 5.32063 5.08976 8.14444 5.06887 4.94674 4.91399 4.87362 8.40711 4.85146 7.36006 4.7785 5.68428 4.79271 4.63758 4.63637 4.52359 6.37914 4.68283 4.4045 5.64543 5.17083 6.27753 4.37779 8.25454 6.98564 8.33461 6.15288 5.88212 5.6647 5.56107 9.65566 5.43499 8.34393 5.96093 5.29611 6.54739 5.65987 7.24666 5.2465 7.94301 5.12123 4.97219 5.47348 5.43769 4.71519 13.6782 4.43576 4.34553 3.92554 3.89587 4.27586 3.79387 7.37861 5.23858
threshold=295.93565051145885 6.8387230009186117 12342.87533748563 387.32842254386139 7.9073471424845847 5.7754647250822257 8.0223697755542531 7.0397446385810607 280.6791609674836 6.1031323053418491 5.5020337564525938 221.80215556508873 163.94224104752871 8.1785327084512112 8.530759190800163 350.5589249160227 83.372596864142963 333.27583171351745 86.1252118461138 6.4925209840550533 22312.610006219162 34369.608032833021 7.1592256507253582 262.07978681416972 6.812679457864923 189.46082069974941 14.92795045932357 7.9249303762392591 444.73642773660839 275.5038827398086 328.78930197928457 16664.866656021277 16187.506370265221 167.42114582582812 327.93607373782413 6.9723680883766548 21227.87443078923 13.450834154564378 54.953814875722635 5.6127830545059458 6.2858958854446838 7.2325897128191157 341.03296829266441 17.786005428557619 15.923070517212581 15.530343069775229 6.9024688896324697 24400.933211026528 22621.63705632569 4.2803321157819818 3.4896108379298689 8.416626643565321 7.2710072251008704 6.9723680883766548 24777.780960730222 16008.748370011903 73.861260659038479 373.47498454996025 4.5344570706528682 7.6313820254113747 21026.534780450191 8.4640819490501258 333.53256261154587 350.03029155237755 217.94088900349939 11.19883699529723 215.98748765981298 403.20120302973049 73.403060437479652 192.77653283872078 208.82776130317311 209.63101109806146 319.54955459074728 207.37968975073281 7.5684421730558258 185.76723203851458 18462.281296279831 192.17211135330066 214.16813927491873 69.256496152532137 14.948400378875819 23103.531991477965 312.39354888057716 182.51834478511776 192.17211135330066 316.18944157148934 3.7940442725242449 3.4219727346148261 8.0345760629079646 6.8650210073924978 205.25063707796599 206.31576362469693 65.180235001510184 7.0185775102740751
decision_type=2 2 2 2 2 2 2 2 2 2 2 2 2 2 2 2 2 2 2 2 2 2 2 2 2 2 2 2 2 2 2 2 2 2 2 2 2 2 2 2 2 2 2 2 2 2 2 2 2 2 2 2 2 2 2 2 2 2 2 2 2 2 2 2 2 2 2 2 2 2 2 2 2 2 2 2 2 2 2 2 2 2 2 2 2 2 2 2 2 2 2 2 2 2
left_child=1 5 -3 8 6 54 7 38 9 10 37 30 17 15 21 41 33 22 53 -20 32 24 -11 -4 48 26 -26 -7 -29 -25 -12 -27 -21 -17 -13 -36 -37 -2 -5 -40 -35 43 50 46 -16 -22 47 -14 -15 -50 -43 52 -52 -18 -1 56 -32 87 60 -60 -19 -62 64 66 71 -66 -64 89 -67 86 -71 73 -73 74 81 -76 -77 -78 79 -74 -70 83 -83 -42 -85 -86 -69 -57 -44 -65 -91 -31 -93 -94
right_child=3 2 23 4 -6 27 -8 -9 -10 12 11 34 13 14 44 16 18 58 19 20 45 -23 -24 29 25 31 -28 28 -30 91 55 -33 -34 40 35 36 -38 -39 39 -41 62 42 88 -45 -46 -47 -48 -49 49 -51 51 -53 -54 -55 -56 57 -58 -59 59 -61 61 -63 63 67 65 68 -68 69 80 70 -72 72 78 -75 75 76 77 -79 -80 -81 -82 82 -84 84 85 -87 -88 -89 -90 90 -92 92 93 -95
leaf_value=-0.011697369860445809 0.003049757107171194 0.064335586325076605 -0.096658578341391951 -0.11872376249951611 0.056511441622093962 0.056167883173481897 -0.090568148648683539 0.039897599489628947 -0.086789984431984685 -0.021838346076327734 0.066840659187758694 0.041705141892963565 0.029857404869247268 0.068739647377083088 -0.079976223876987093 0.068808117478359923 -0.030233508161690709 0.0086067703907472971 -0.10075730529153332 -0.021826518003048054 -0.089237184930410718 -0.030111319536138017 -0.10428945286786746 0.0010562552223877639 -0.06630502004869257 0.0035090615360837646 0.059963089964581218 0.03164495545249963 -0.07017859142008194 -0.080568915311237665 0.041034168835980406 0.063027081046727051 0.058975356474821189 0.044627947122602443 -0.097071683015799048 -0.063005410220892497 0.045303965768932697 -0.075092896889767169 -0.10012716603845731 -0.005237386704031316 -0.059542272561995506 -0.11126625009072538 -0.037301041428320018 -0.069026194562195317 0.0032676508590981732 0.0054022235207855313 0.027020820023484021 -0.091271452060378733 0.053463468118125024 -0.041327749556854976 0.0099039378671736348 -0.096906168229333359 -0.071621459835463933 -0.12391184316449838 -0.103211719094781 0.0077915890450250928 -0.04117811854141875 -0.011049388838167633 -0.023117814853919356 0.067489148816298264 -0.02225122599032936 -0.10902507172350746 0.054674504350518884 -0.02237545888873017 -0.063877009565850879 0.051749518850308852 -0.005191137271474737 -0.0087052715476936739 0.040394965643271628 0.05445654153128944 -0.033252709562449079 -0.11023377266884636 -0.10863216195771075 0.065162819834935673 0.014802709623764827 -0.11031457228301166 -0.090907950832490092 0.011765558458025144 0.029349687226329354 0.017783739224084213 -0.063153893204495978 -0.023845485599553816 0.046546819896160621 0.042467983012420669 0.066198941342270709 -0.057953604401300651 -0.087738203489769975 0.057362288239513018 0.04101369628459401 0.080611631133824399 -0.0024053058956553302 -0.10651763701527404 0.036194712782706209 -0.056033820271869497
leaf_weight=2.6365905404090908 3.8046505451202375 2.8501248359680167 9.9168877154588682 2.9253839850425774 8.4500527381896955 10.137273192405702 11.384835779666899 6.1257990002632132 2.9084036350250235 5.2553404420614225 19.196786433458328 2.3992148488759986 2.8594852238893536 21.824481382966045 3.361593320965766 4.0209962278604499 2.6384471356868771 7.4096772372722688 2.4206888228654888 3.3446722924709302 2.8878604620695105 4.0283513516187659 5.0505681186914444 5.4964281916618374 5.0247056335210827 7.0877198278903988 2.3623667061328888 4.0229455381631842 2.6222539395093918 10.881981402635576 4.9686651378869993 11.096526354551314 6.6365629285573959 9.480108514428137 3.8603742122650129 2.3954525291919708 2.8277108073234558 5.3200129568576813 2.424909383058548 4.5426402240991592 4.5513296574354198 3.5977758765220669 2.8883714675903311 2.6327159702777854 3.804399773478508 2.6123733073472977 9.9902911782264692 2.8704981058835983 7.3083838373422605 2.8449298590421677 4.7892441451549512 3.6028006076812744 2.8909471482038498 2.6461808532476425 2.913244366645813 5.4420547336339977 4.493400052189827 3.7878559678792945 3.3284429162740699 3.5556609034538269 7.6338606774806959 2.8670347630977631 17.215090692043308 2.3842808753252047 2.3880534321069744 13.68732073903084 5.717510759830474 3.3195396512746838 2.3828471004962912 5.4636322855949384 7.3712632358074188 3.1066517084836951 2.6185114532709104 3.0772050172090522 5.2223976403474799 3.107172489166258 2.8728554099798203 4.2771301418542862 3.8008639514446259 2.3647049218416214 2.3933860212564468 3.7930936068296424 10.154498860239981 5.0060825794935218 3.3126489967107755 6.7166771739721298 3.8166079968214035 23.566853329539299 3.5875997841358185 4.4745436608791351 2.373992070555687 2.6355296075344068 3.3164501190185547 2.8738196045160294
leaf_count=11 16 12 41 12 36 43 47 26 12 22 82 10 12 93 14 17 11 31 10 14 12 17 21 23 21 30 10 17 11 45 21 47 28 40 16 10 12 22 10 19 19 15 12 11 16 11 42 12 31 12 20 15 12 11 12 23 19 16 14 15 32 12 73 10 10 58 24 14 10 23 31 13 11 13 22 13 12 18 16 10 10 16 43 21 14 28 16 100 15 19 10 11 14 12
internal_value=2.09733e-05 -0.0296286 -0.0518249 0.00410276 -0.0257457 0.00811143 -0.0511102 -0.0230667 0.00676368 0.00744515 0.0239937 0.0323134 0.00316402 0.00673777 0.028052 -0.000129326 0.00535806 -0.025559 -0.0248748 -0.00944595 0.00483153 0.0354807 -0.0622448 -0.0612515 0.040072 0.0208337 -0.0259248 0.0305479 -0.00853551 -0.0473202 0.0431918 0.0398286 0.031899 0.0100168 -0.0259078 -0.0437663 -0.00436899 -0.0425103 -0.0620547 -0.0382618 0.00840258 -0.0241267 -0.0407209 -0.00481656 -0.0357824 -0.0442876 0.0059368 -0.0308234 0.0554561 0.0269032 -0.06109 -0.0450904 -0.0207835 -0.0771412 -0.0597355 0.0324489 0.00199272 0.0412357 -0.0103105 0.023681 -0.0233755 -0.0459429 0.00589531 0.0172977 -0.00111234 0.0240209 0.0397489 -0.000332253 0.0353895 -0.0155898 0.00408387 -0.00930323 -0.0398045 -0.00234076 -0.00657879 -0.0307698 -0.0539729 -0.0294885 -0.0148959 -0.0486435 -0.0114937 0.00458788 0.0274034 -0.0116589 0.00283573 -0.0169465 -0.0509743 0.0480629 0.00608426 0.0326705 0.0518345 -0.0608122 -0.0364526 -0.00662219
internal_weight=498.34 60.3035 37.9712 438.037 35.8536 22.3323 27.4036 16.0187 402.183 399.275 82.063 72.9384 317.212 282.111 68.7435 213.368 173.658 35.1006 23.1868 17.9022 15.4815 61.5775 10.3059 35.1211 57.5491 25.5713 7.38707 16.7825 6.6452 25.2042 61.4556 18.1842 9.98124 150.471 11.4828 9.08354 5.22316 9.12466 9.89293 6.96755 146.45 39.7097 21.3567 18.353 7.16599 5.50023 15.7203 5.72998 31.9778 10.1533 14.8808 11.283 7.68019 5.28463 5.54983 42.2588 9.46207 32.7968 24.7947 6.8841 17.9106 10.5009 136.97 52.1365 84.8334 20.8516 22.9326 29.2039 18.4636 19.971 12.8349 63.9818 11.8907 52.0911 49.0139 15.4796 10.2572 7.14999 8.78408 4.98322 4.77623 33.5343 13.9476 19.5867 15.0354 10.0293 7.13615 29.0089 6.47597 9.23282 6.84854 19.7078 8.8258 6.19027
internal_count=2096 252 158 1844 150 94 114 67 1694 1682 347 309 1335 1188 291 897 731 147 97 75 65 261 43 146 244 108 31 71 28 105 261 77 42 634 48 38 22 38 41 29 617 166 89 77 30 23 66 24 136 43 62 47 32 22 23 179 40 139 104 29 75 44 577 220 357 88 97 123 78 84 54 269 50 219 206 65 43 30 37 21 20 141 59 82 63 42 30 123 27 39 29 82 37 26
is_linear=0
shrinkage=0.05


Tree=2
num_leaves=95
num_cat=0
split_feature=4 0 3 4 0 4 2 3 1 0 3 1 5 1 0 7 3 0 2 1 4 3 6 7 5 5 3 4 0 2 2 4 5 2 7 3 0 0 0 5 1 0 0 8 2 6 3 3 5 2 0 3 0 3 1 3 0 0 2 8 7 0 6 1 5 3 7 0 1 1 7 7 3 5 2 4 7 1 1 6 3 3 3 1 5 6 5 0 1 5 1 7 1 1
split_gain=21.7068 18.0406 23.1113 12.5539 26.989 11.5467 11.0942 11.3715 9.15421 10.3121 16.4773 16.8867 11.9314 11.9896 9.23435 9.08493 8.85481 7.91254 7.47823 7.95104 7.47703 8.3111 10.317 7.42781 7.07605 6.85673 6.55703 6.48283 6.15453 6.00848 5.97854 6.17327 5.836 6.85799 5.75484 5.68286 5.60136 6.00332 5.53345 5.46266 6.40903 5.43079 5.9439 5.27908 8.55879 4.79598 4.7813 6.72338 6.02852 4.8486 4.60691 4.54961 5.44002 4.50776 4.43432 4.29455 4.28703 4.03305 9.13168 3.82644 4.02257 5.15251 3.76336 3.64929 3.5694 3.47066 3.47011 3.43545 3.43199 6.93446 4.80819 4.3324 3.96637 3.39573 3.76862 7.32699 7.28353 6.0345 6.26912 6.53132 5.7839 6.72394 6.08675 4.78534 4.49612 4.66504 6.78182 8.28564 5.1769 4.23299 8.51996 4.1612 4.28563 7.22505
threshold=295.93565051145885 7.3325537051933809 5.6919646778610646 387.32842254386139 7.9073471424845847 255.29393596573081 26953.596417891404 8.0223697755542531 280.6791609674836 6.1031323053418491 5.5020337564525938 221.80215556508873 349.62359162489071 138.43600245868802 8.1785327084512112 82.481196711050956 6.7018567603180452 6.8246990188337078 13757.96341283328 195.53447216284854 355.12602511889276 5.3362088830447512 14.298549807362521 71.72220957902806 459.88821983835436 400.36812470370842 6.9723680883766548 321.78158916603417 6.4522841728946547 31364.464048223294 19517.311420659094 337.88900655770163 400.93480998663279 27358.796686330632 81.081640956803611 5.4306675981794452 7.6577664825397331 7.1592256507253582 7.2821410471331482 464.9380630283419 219.60852192372553 8.7892595647672636 7.6830399799748426 4.864121972320131 20237.302920295482 13.450834154564378 8.493377186126887 8.416626643565321 554.08282034683168 21026.534780450191 6.6862247584187342 8.1064348921956455 8.8959967231138908 6.519546724492808 179.26029932374459 6.398148851018882 5.5895758133000699 7.4810629427594053 24777.780960730222 3.4393225023499254 74.039777438356424 4.8997992812573097 16.590001786386129 192.17211135330066 354.39890217298722 8.0345760629079646 85.789541572855327 5.6273732237783269 197.50950264141679 209.63101109806146 66.159168210199383 67.664664944070282 7.4311084669119243 355.8554919172812 23103.531991477965 333.53256261154587 78.379437252182569 213.66093123011282 205.94666110964695 12.266334959790614 7.3257127262842348 8.1475008190381768 7.038069583720941 215.98748765981298 382.86379233834992 16.532431647564952 469.03848300412295 7.3942804997354425 197.29361047516775 417.04180293704161 187.80831699186874 77.591593002147007 191.99338511503478 184.71174898211194
decision_type=2 2 2 2 2 2 2 2 2 2 2 2 2 2 2 2 2 2 2 2 2 2 2 2 2 2 2 2 2 2 2 2 2 2 2 2 2 2 2 2 2 2 2 2 2 2 2 2 2 2 2 2 2 2 2 2 2 2 2 2 2 2 2 2 2 2 2 2 2 2 2 2 2 2 2 2 2 2 2 2 2 2 2 2 2 2 2 2 2 2 2 2 2 2
left_child=1 2 23 8 6 50 7 17 9 10 45 30 16 -14 15 46 18 55 -11 38 21 -16 29 -1 -3 26 -17 53 -27 51 59 -32 -33 67 41 -21 37 62 -20 -7 -41 42 68 44 -13 -2 47 48 73 -50 -4 52 63 -24 -25 -5 -46 -48 -59 -12 64 -62 -30 -23 -61 -26 -36 -34 70 -70 -18 72 -71 -15 75 76 77 78 79 -75 82 89 84 91 -76 86 87 -86 -87 -82 -91 92 93 -77
right_child=3 24 5 4 -6 39 -8 -9 -10 12 11 43 13 14 20 25 34 -19 19 35 -22 22 27 54 65 28 -28 -29 36 -31 31 32 33 -35 66 -37 -38 -39 -40 40 -42 -43 -44 -45 56 -47 57 -49 49 -51 -52 -53 -54 -55 -56 -57 -58 58 -60 60 61 -63 -64 -65 -66 -67 -68 -69 69 71 -72 -73 -74 74 80 83 -78 -79 -80 -81 81 -83 -84 -85 85 88 -88 -89 -90 90 -92 -93 -94 -95
leaf_value=-0.10802970921019371 0.0028992818682599714 -0.089701448522269411 -0.0022321699765249802 -0.093134430035561155 0.054502361030758895 0.047667997288054598 0.030908301361298653 -0.10039164761943949 -0.081328650802076852 0.07920403735548126 -0.025183717943077041 -0.10457385885797502 -0.054655444203922925 0.063393313720563282 0.071206865716197776 0.057137416143860413 -0.033242132375453336 0.016150371064906324 -0.091762719736340773 -0.045386401291665983 0.064430013288852145 -0.068689486200363511 -0.059188058840208252 0.023467313302801555 -0.0042419639443017207 -0.1123568767046467 -0.031972429561943093 0.045956499361126439 -0.054088368311932505 -0.077607846633424432 0.067183957830049865 0.06899798928852395 0.080211720168293144 -0.056775932195138795 0.060009069739031307 0.042864878527165154 -0.087973168998434229 0.035118603626202616 0.0051060116865504195 -0.039708546563031362 0.050710720698101834 0.02066381116532795 -0.085033664465878567 0.041596028560314816 -0.043986874523172792 -0.070448565366229343 0.039329908019788418 -0.077403859433063937 0.0038558323942175922 -0.069243840458267134 -0.097743504695273181 -0.057908084219150148 0.041778887215311679 0.025345705010018552 -0.068066123425103861 -0.019093413451658776 0.042943911145390257 -0.069978154485901639 0.059602989099719429 -0.0069344599221106687 0.059589527298935158 -0.031830759448077416 0.018509520540663606 0.0091557501165525634 0.062526514499029864 -0.070968152794617934 -0.016219777224072453 -0.00539579660703415 -0.10901689418952032 -0.047367206618000791 0.046227297052970351 -0.082271702850162609 0.035751794311271776 0.04282221865013968 0.068716564471067373 0.027178136742333728 -0.073956852810284607 0.032048627298552783 -0.073800245183114607 -0.020145266402006607 -0.07206672716384796 0.062002444075580622 0.080474158987193567 -0.022014086625506222 -0.031188337940351536 0.028148343676920474 0.05793555530248512 0.056305484532085032 -0.061093895013291204 -0.080676047080855462 0.035929053580894203 0.079267998953503255 0.04900150425885004 -0.052691680760971998
leaf_weight=5.8712597340345365 3.8020787239074689 12.448019564151766 2.3761924058198955 4.6674412786960655 8.326617479324339 15.435276389122011 3.8180144876241675 10.320706278085707 2.9474347829818717 3.2490455359220531 3.7687333822250393 3.4072598814964277 7.501149281859397 2.8291593939065924 6.4916673004627219 4.437211140990259 6.7720273584127479 5.4075268059968939 3.3908793032169369 2.3643875718116742 10.635672166943548 2.6324285864830035 2.8375863730907467 2.4221091568470001 5.0591502189636213 2.4694121032953289 3.860503613948822 19.16339698433876 7.2238877415657061 3.3851413875818244 26.154079794883728 4.6733145266771299 2.3458584100008011 3.2844287902116776 2.3638817667961112 7.983875960111618 3.1592748016118994 4.2700289934873572 2.6082000732421875 4.8250582218170148 3.3002563416957855 3.3083954304456702 7.5644633322954169 2.3928037583827964 3.1200456172227859 5.3853944838047028 19.489285632967952 2.4379602819681159 4.5029599070548993 4.5712742954492569 2.6938033849000931 3.1446424275636664 6.3626996576786041 3.5499993413686752 2.916198194026947 3.3743044435977936 2.6001651883125305 2.9029875695705405 2.5572550594806671 2.3236907720565823 2.3558462113142005 4.4573778063058853 2.3710376620292664 3.5168139636516571 9.0630445480346662 3.1697321832180023 4.0521451383829117 2.3418457955121994 3.61831310391426 2.6544616520404798 2.6474662721157074 2.4061121493577957 3.1249057650566101 5.1969311088323655 4.231499612331393 9.3843191564083188 4.3765713274478903 8.2217181473970395 4.0961202532052985 19.840160205960274 3.5669541060924512 2.5993430465459815 4.9336430877447119 5.7308827489614478 7.5597622543573433 2.829350382089614 8.915702670812605 4.2143587321043015 3.8178959637880325 2.4121743738651276 4.4685828685760498 3.4917096048593512 8.1685223430395109 4.0549913495779029
leaf_count=24 16 51 10 19 36 66 16 42 12 14 16 14 31 12 28 19 28 23 14 10 46 11 12 10 21 10 16 82 30 14 113 20 10 14 10 34 13 18 11 20 14 14 31 10 13 22 83 10 19 19 11 13 27 15 12 14 11 12 11 10 10 19 10 15 39 13 17 10 15 11 11 10 13 22 18 40 18 35 17 83 15 11 21 24 32 12 38 18 16 10 19 15 35 17
internal_value=3.91183e-05 -0.0280254 -0.00835838 0.00392681 -0.0243933 0.0154703 -0.0482057 -0.0609132 0.00646358 0.00711373 0.0229769 0.030993 0.00303041 0.00763376 0.00949592 0.0040173 -0.0174412 -0.0306182 0.00992099 -0.00384906 0.0262898 0.0183491 0.0106542 -0.0692198 -0.0659197 -0.0223872 0.0156791 0.031416 -0.0385906 -0.0172048 0.041515 0.053316 0.0246335 -0.00137319 -0.031364 0.0227011 -0.0278906 -0.0142001 -0.0496474 0.0302001 -0.00298298 -0.0400056 -0.046978 -0.0245097 -0.0418396 -0.0400948 0.00856381 0.00488397 0.00638093 -0.0329692 -0.0529795 -0.00414489 0.00936748 -0.0122071 -0.0265354 -0.0620669 -0.00447183 0.0286894 -0.00929 0.020673 0.0301687 -0.00021986 -0.0361484 -0.024169 0.0483516 -0.0299446 0.0118655 0.0374446 -0.0334141 -0.0513755 -0.0109063 -0.0258957 -0.00242474 0.00923887 0.00798418 0.00072567 -0.0129307 -0.00578079 -0.0164567 -0.00707515 0.0186138 -0.00995978 0.028827 0.0192107 0.0207554 0.0133314 0.0250389 0.00012868 -0.0231086 -0.0278637 -0.00494898 0.0286234 0.0204395 0.00307932
internal_weight=497.378 60.5171 39.8402 436.861 35.9146 28.6306 27.588 23.77 400.947 397.999 81.476 72.2885 316.523 258.415 250.913 189.193 58.1086 13.4493 19.5964 16.3473 61.72 51.0844 44.5927 11.2096 20.6769 27.7914 8.29771 25.551 19.4936 19.0417 60.7682 38.7995 12.6454 7.97213 38.5122 10.3483 17.0242 13.865 5.99908 23.5606 8.12531 32.0961 28.7877 11.5203 9.12747 9.18747 161.402 136.453 134.015 9.07423 5.07 15.6566 12.5119 6.38759 5.33831 8.04175 5.72021 24.9495 5.46024 21.9687 18.2 6.81322 9.59493 6.14924 11.3867 8.22888 6.41603 4.6877 21.2233 11.8038 9.41949 8.18548 5.77937 124.94 122.111 72.5619 41.7315 37.3549 29.1332 25.0371 49.5493 13.0471 36.5022 30.8304 31.5686 27.3371 20.6898 11.7741 6.64725 10.4477 6.88076 25.0995 21.6078 13.4393
internal_count=2096 252 167 1844 150 121 114 98 1694 1682 347 309 1335 1092 1061 798 243 56 83 69 263 217 189 46 85 116 35 109 81 80 261 167 54 34 160 44 71 58 25 100 34 133 119 48 38 38 682 576 566 38 21 66 53 27 22 33 24 106 23 94 78 29 40 26 49 34 27 20 88 49 39 34 24 528 516 306 175 157 122 105 210 55 155 131 134 116 88 50 28 44 29 107 92 57
is_linear=0
shrinkage=0.05


Tree=3
num_leaves=95
num_cat=0
split_feature=4 0 2 4 0 3 2 3 1 0 3 1 1 0 3 5 7 6 0 8 2 4 2 4 0 0 5 5 3 3 1 6 0 2 4 2 5 2 1 0 1 8 2 2 8 1 7 7 2 2 8 3 2 3 5 5 3 0 2 1 3 4 4 6 1 1 5 6 2 2 6 0 8 5 1 1 5 5 1 4 7 5 6 3 1 6 7 6 6 8 7 5 7 3
split_gain=19.5694 16.3111 14.6198 11.3463 24.3987 11.0519 9.92595 10.0442 8.20252 9.41213 15.0593 14.4621 10.9968 13.7569 11.5425 9.21014 8.10721 7.98373 7.0748 6.92647 7.2927 6.70132 6.52343 6.40724 6.86673 6.95664 9.05291 9.67885 6.04432 6.03156 7.69324 8.64008 5.90842 5.76497 6.05192 5.72949 5.71665 5.46404 5.26513 4.83384 4.59662 5.35602 4.43619 4.4286 6.56043 4.15826 4.71211 4.08481 3.88084 3.86822 3.85939 5.22248 4.55249 5.4007 3.8218 4.39649 4.64077 4.55984 4.65294 3.82121 3.81097 3.75269 7.38369 6.31136 7.27808 5.49972 5.80731 5.41353 5.36951 6.37168 6.40666 5.11642 5.95078 5.7752 5.7885 8.116 4.67964 6.80973 4.37042 4.35396 4.2238 5.2091 4.41059 4.09276 3.81365 3.79275 5.81472 3.68747 3.62877 3.62041 3.61134 7.09778 4.24768 3.50824
threshold=295.93565051145885 6.8387230009186117 17409.348842110645 387.32842254386139 7.9073471424845847 5.7754647250822257 26953.596417891404 8.0223697755542531 280.6791609674836 6.1031323053418491 6.0436773968593824 221.80215556508873 163.94224104752871 8.1785327084512112 8.530759190800163 350.5589249160227 83.372596864142963 12.668811713311358 6.8246990188337078 3.2607002964574887 20777.043748010186 333.27583171351745 34369.608032833021 369.32590543782288 7.7470769173358009 7.309576440730841 400.36812470370842 524.36247031692403 7.9249303762392591 6.812679457864923 189.46082069974941 14.92795045932357 7.1592256507253582 19517.311420659094 373.47498454996025 16664.866656021277 444.73642773660839 20237.302920295482 167.42114582582812 6.2858958854446838 206.31576362469693 3.8087103085413316 25045.165721822686 22621.63705632569 4.2803321157819818 174.88049510467883 89.145469730150708 67.876203290722643 14807.341021869066 24777.780960730222 4.5344570706528682 7.6313820254113747 21026.534780450191 8.4640819490501258 303.29498764118586 316.55772950890247 5.8371191473902657 7.2402727380788736 25928.139695789305 207.05816781664979 6.398148851018882 333.53256261154587 350.03029155237755 8.0012513184270535 217.94088900349939 231.08930394321507 488.68707108534915 11.017172060437789 23103.531991477965 28403.107611128591 17.961792260382314 6.8650210073924978 3.6488256517669062 403.20120302973049 192.77653283872078 208.82776130317311 395.39717048177636 507.07791966677388 184.71174898211194 321.35191437884453 73.403060437479652 385.6352219983375 14.639795665895749 7.038069583720941 205.25063707796599 16.03023652081038 61.517180111272843 10.817140325190026 14.212209453056319 3.9953437420926972 73.861260659038479 437.51474375572548 77.831918885977188 8.053600444768227
decision_type=2 2 2 2 2 2 2 2 2 2 2 2 2 2 2 2 2 2 2 2 2 2 2 2 2 2 2 2 2 2 2 2 2 2 2 2 2 2 2 2 2 2 2 2 2 2 2 2 2 2 2 2 2 2 2 2 2 2 2 2 2 2 2 2 2 2 2 2 2 2 2 2 2 2 2 2 2 2 2 2 2 2 2 2 2 2 2 2 2 2 2 2 2 2
left_child=1 5 17 8 6 49 7 18 9 10 19 33 21 15 22 45 38 -3 60 -2 -21 32 29 24 25 26 -18 -28 -7 43 31 -31 -11 90 -35 89 -30 -13 -17 -40 87 42 -42 -15 -45 -14 48 -16 -47 -1 52 -52 -23 -54 -50 -56 -57 58 59 -58 -5 63 65 -41 67 66 -63 -65 76 70 -70 72 -64 84 78 -76 83 85 -75 -71 81 -66 -82 -69 -73 86 -78 -4 -79 -32 -12 92 -92 -85
right_child=3 2 40 4 -6 28 -8 -9 -10 12 11 37 13 14 47 16 23 -19 -20 20 -22 50 -24 -25 -26 -27 27 -29 36 30 35 -33 -34 34 -36 -37 -38 -39 39 61 41 -43 -44 44 -46 46 -48 -49 54 -51 51 -53 53 -55 55 56 57 -59 -60 -61 -62 62 71 64 80 -67 -68 68 69 79 -72 73 -74 74 75 -77 77 88 -80 -81 82 -83 -84 93 -86 -87 -88 -89 -90 -91 91 -93 -94 -95
leaf_value=-0.0090311728350779674 -0.088433745754235252 -0.043717823080527844 -0.029194405050241391 -0.087615126004186611 0.052612021075059662 0.052981105397540577 0.029559885201859395 -0.094345615830692106 -0.076540045254481423 -0.019838464407580556 0.039207391377236361 -0.061881913414683513 0.042174470730899229 0.065078334972087121 -0.068925538877689499 0.066278418018853716 0.037925516722090553 0.052060860001134093 0.015404587108763813 0.0475276022531829 -0.033218848199827865 0.0086788363225327198 -0.028325957533217046 -0.099454990503938426 -0.091810991765659752 0.055409800166036208 -0.075161818920801399 0.040904526257667689 0.029307982180336742 -0.059763194750736909 -0.03406372486473222 0.056815823801962775 -0.095059643253634432 0.061545055613189563 -0.0095230811433560832 0.059846401791162768 -0.065454586205093784 0.011215658910954785 0.042489163082001458 -0.080887611695401956 -0.058427991967354077 -0.071382768431796181 0.029051709420817296 0.050339169381098163 -0.039226902776442175 -0.075161454781290327 0.033435147431624637 0.0066865709781736647 0.0023381292542236699 -0.091993982510123931 -0.022036492649472866 0.065399115858450554 -0.020375174893452766 -0.10016412074768732 -0.074393652097759375 -0.077170129735828333 0.026629277782257557 -0.049717854259364438 0.064863741052735915 -0.060533963902872537 -0.018075271109944231 0.066730210638198395 0.01943995254639995 0.035601894417924378 -0.027091326786297654 -0.030471931540291722 0.010585050206939735 -0.11347009856053347 0.048779803175654619 -0.058971177029680778 -0.042621309796874375 0.077013351685493142 -0.082448805303672323 -0.0090348826207802685 0.067754054868310903 -0.020925818474193756 -0.024944564159737247 -0.10237907634151795 -0.09720593389665444 0.0019905248854895892 0.039794275118724229 0.054395908424837519 -0.052159086887834299 0.0054344783234588937 -0.0018246917619213169 -0.032913117271991525 0.045742529723090682 -0.090712578518278006 -0.019395150032375373 0.037712244071314294 -0.023592201910370411 -0.072544458437727874 0.064317563824927523 -0.078047001798458693
leaf_weight=2.6608950197696712 3.149558261036872 3.8668406307697278 2.9463964402675691 4.7121186405420357 8.1977974176406843 9.8962495625019091 3.793211728334426 10.429864332079886 2.9744843244552603 5.2828871309757215 11.516060233116152 4.6557583361864072 2.3973716497421256 21.133381798863415 3.872190684080123 3.9399946033954611 4.6784870177507498 4.9750309586524963 5.386407181620597 4.2670445740222922 8.1127205938100797 7.4018703401088777 4.0492753684520713 2.4220663607120505 2.4700703322887412 3.9887096136808387 7.3341629654169065 2.3787589073181152 3.9648374170064917 5.1170447468757656 3.5098619163036373 2.3053899109363556 5.1607271432876587 31.913940697908401 3.3059051483869544 10.820744082331656 2.6587369441986084 5.6698975265026093 9.3444064259529096 2.4122197628021231 2.4253028780221921 6.5873416662216187 3.6009415239095688 7.1425775736570341 2.8643966466188431 4.355317994952201 3.087015986442565 3.3156760782003403 9.1298242360353488 2.9769289046525955 3.3368909358978263 3.4981684535741806 7.678251311182974 2.9301730692386627 5.5901905149221447 3.1107191443443289 2.632417753338812 4.3794442415237427 2.8574531525373459 2.4072516560554504 3.385845884680748 12.702825069427496 2.379206761717799 6.5923453718423835 2.3345010280609158 2.6363318115472785 7.2253118604421607 2.462241783738139 9.7690634280443209 4.5507101267576209 2.385334610939025 4.3254563212394741 3.6035526394844055 3.3134027421474483 4.4059258699417096 6.2259105443954468 5.0411852002143913 2.9161726534366599 2.4407060593366623 8.2186388820409757 2.367665320634841 12.264996036887167 2.9029993116855621 2.6097832471132278 2.3768525123596191 5.9921997636556616 6.8794959038496017 14.059580966830252 2.4028906524181366 3.5176226645708084 2.3713134974241239 2.5973358452320099 3.2675120085477829 2.4305482655763626
leaf_count=11 13 16 12 19 36 43 16 42 12 22 50 19 10 93 16 17 20 21 23 18 34 31 17 10 10 17 30 10 17 21 15 10 21 140 14 47 11 24 40 10 10 27 15 31 12 18 13 14 38 12 14 15 32 12 23 13 11 18 12 10 14 55 10 28 10 11 31 10 42 19 10 19 15 14 19 26 21 12 10 35 10 53 12 11 10 25 29 57 10 15 10 11 14 10
internal_value=5.41056e-05 -0.0265619 -0.0462479 0.00376047 -0.0231626 0.00760905 -0.0455821 -0.0575009 0.00618074 0.0068014 0.0220252 0.0325502 0.0029026 0.00621407 0.0258536 -3.29945e-05 0.00497095 0.0101737 -0.0290023 -0.0222302 -0.00538725 -0.0234023 0.0329748 -0.0224802 -0.0135384 -0.00301953 -0.0192138 -0.0467364 0.0282381 0.0373751 0.019226 -0.023554 -0.0570091 0.0427484 0.0548743 0.0370166 -0.0087302 -0.0217435 0.00924554 0.00770129 -0.0630905 -0.0402197 -0.00615509 0.0521033 0.0247018 -0.0216693 -0.0257455 -0.0340466 -0.0310466 -0.0528379 -0.0092758 0.0227129 -0.0214158 -0.0424138 -0.024665 -0.0364172 -0.0226204 -0.00879827 0.0138942 -0.0150052 -0.0585398 0.00531401 0.0159344 -0.00117329 0.00116824 0.0373954 0.0463738 -0.00724146 -0.012316 0.00492966 0.0308421 -0.000723275 -0.04193 0.00995444 -0.00603873 0.0158239 -0.0263011 -0.0152138 -0.0464342 -0.0197349 0.0275148 0.0413659 -0.0108522 -0.0606332 0.0490549 -0.000462605 0.0158494 -0.0800542 -0.064891 0.00186389 0.0211271 -0.00415344 0.0273486 -0.034822
internal_weight=495.935 60.6191 38.4614 435.316 35.9052 22.1576 27.7074 23.9142 399.411 396.436 80.827 65.2977 315.609 280.32 67.6482 212.672 172.725 8.84187 13.4844 15.5293 12.3798 35.289 60.4603 23.2723 20.8502 18.3801 14.3914 9.71292 16.5198 56.411 25.2707 7.42243 10.4436 54.9721 35.2198 17.8482 6.62357 10.3257 149.453 145.513 29.6196 12.6136 6.02624 31.1404 10.007 39.947 37.5496 7.18787 34.4626 5.63782 24.8454 6.83506 18.0103 10.6084 30.1073 20.9775 15.3873 12.2766 7.89712 5.03967 8.09796 136.168 51.6355 84.533 82.1208 22.5645 19.9281 62.2506 55.6583 24.9237 12.1544 29.071 5.98276 23.0883 16.3859 10.6318 30.7345 23.2319 5.75411 12.7693 19.8702 14.5995 5.27066 7.50257 6.70231 17.9129 11.9207 17.006 5.31906 7.02748 19.7522 8.23616 5.63883 5.04033
internal_count=2096 252 158 1844 150 94 114 98 1694 1682 347 282 1335 1188 291 897 731 37 56 65 52 147 261 97 87 77 60 40 71 244 108 31 43 239 154 77 28 43 634 617 121 52 25 136 43 166 156 30 143 23 104 29 75 44 125 87 64 51 33 21 33 577 220 357 347 97 86 262 234 106 52 123 25 98 69 45 128 97 24 54 85 63 22 31 29 75 50 69 22 30 85 35 24 21
is_linear=0
shrinkage=0.05


Tree=4
num_leaves=95
num_cat=0
split_feature=4 2 4 0 1 0 3 5 4 3 0 1 0 4 1 0 3 6 5 8 1 4 0 3 0 2 3 1 4 5 1 0 2 5 8 7 8 0 7 5 7 0 5 1 5 0 2 5 1 0 7 7 6 6 0 4 1 6 7 1 2 2 2 8 6 8 4 8 4 1 1 7 7 7 4 3 8 2 3 0 7 3 5 5 5 4 8 8 8 3 0 6 8 3
split_gain=18.2114 14.5286 9.08753 16.7126 9.23684 11.1948 9.10321 6.8811 8.61864 9.32053 12.3179 6.71476 8.95414 9.12527 13.403 11.0017 8.34013 6.22041 8.22683 6.09453 7.20203 7.19442 6.87073 6.04487 11.3835 8.46533 7.05146 6.43767 5.90634 5.88457 5.87708 7.14962 5.63582 5.44583 5.3806 5.33612 8.7223 5.30564 5.29301 5.05594 5.00645 4.97869 4.8677 5.77329 4.82544 4.67399 4.60295 4.44186 4.86037 4.36467 4.31054 4.78251 7.81421 4.27421 6.06431 4.27286 4.17893 4.11342 4.02835 3.94211 4.4508 5.30053 3.89571 3.85331 4.20018 3.87882 7.77752 6.7056 6.79752 5.32875 4.75174 3.99787 3.79328 3.73566 3.73103 4.25474 3.67424 6.39178 4.45767 6.58996 5.1232 4.03577 3.93229 3.59687 3.57181 3.56269 3.55756 3.50469 4.04069 5.29893 3.88338 3.42852 3.42616 5.65959
threshold=262.07978681416972 15944.863224857019 409.11840539485985 7.4653491593259753 280.6791609674836 4.7245490690906484 5.2592295105369358 358.05019677374173 295.93565051145885 5.6919646778610646 7.3325537051933809 136.11675204275463 8.1785327084512112 371.66247342215729 177.06836478661111 7.0397446385810607 9.0872493566478756 11.249642515034312 475.06636474048668 4.6293631364755763 253.18336268441689 333.53256261154587 7.6079870512438275 7.6054698030160752 5.6273732237783269 13757.96341283328 5.1282397012480061 229.25326041972841 321.78158916603417 411.36328458038111 182.22735984824496 7.5045986109389329 17259.020328704177 472.33605970421161 4.3020975037151734 65.90022469074809 4.8127270282763153 6.5279600211693767 58.175540175388655 472.33605970421161 66.150626146094126 7.4920492349268946 381.84983301927144 213.66093123011282 403.20120302973049 7.1167369620110721 27665.441410021656 371.9587446851981 231.08930394321507 6.1031323053418491 63.763109068435021 60.415006899159295 15.530343069775229 12.403806957557181 9.5415745751086831 359.56394447401402 162.25528700133916 9.8706551423114224 69.648181381136254 170.28057078266673 19199.989116958783 32331.278176897384 11384.690137067066 4.4237016016909418 8.8461515533010431 4.0314050865205422 333.99414667854745 3.787229651939934 316.18944157148934 208.82776130317311 206.82285250845726 82.884793013191768 71.972931206617659 65.308103680467482 383.66250898365382 7.7099152384910878 3.008213647481039 20123.358926562451 6.1898768377157039 6.1031323053418491 62.654847786853175 6.9112509118430827 329.06008539979928 444.03327520483543 460.7957415829116 333.27583171351745 3.6123899035541744 3.198611432685897 4.2184897192812603 6.344774343518627 8.8163803635237397 14.298549807362521 3.5719832105876739 5.8371191473902657
decision_type=2 2 2 2 2 2 2 2 2 2 2 2 2 2 2 2 2 2 2 2 2 2 2 2 2 2 2 2 2 2 2 2 2 2 2 2 2 2 2 2 2 2 2 2 2 2 2 2 2 2 2 2 2 2 2 2 2 2 2 2 2 2 2 2 2 2 2 2 2 2 2 2 2 2 2 2 2 2 2 2 2 2 2 2 2 2 2 2 2 2 2 2 2 2
left_child=1 -1 4 29 5 6 -2 23 9 33 17 73 13 19 37 -16 28 -11 -19 20 22 32 40 25 -25 -7 45 30 34 -4 31 -26 44 -9 -14 36 -34 -15 -38 42 50 -37 -24 -44 -21 -27 47 -42 63 -3 51 56 84 54 57 -8 -13 -30 -12 -58 62 -62 -61 64 -49 66 67 68 -66 -68 -67 72 -70 -10 -17 -76 77 -28 92 -80 -81 91 -83 -55 -53 -46 -86 -85 89 -89 -91 -82 -78 -94
right_child=2 49 3 -5 -6 7 55 8 11 10 58 12 16 14 15 74 -18 18 -20 21 -22 -23 39 24 27 26 76 -29 53 -31 -32 -33 35 -35 -36 41 38 -39 -40 -41 46 -43 43 -45 85 -47 -48 48 -50 -51 -52 52 -54 83 -56 -57 59 -59 -60 60 61 -63 -64 -65 65 70 69 -69 71 -71 -72 -73 -74 -75 75 -77 78 -79 79 80 81 82 -84 87 86 -87 -88 88 -90 90 -92 -93 93 -95
leaf_value=0.039442582527810133 -0.044814715581665776 -0.019457310112221907 -0.095503568664933036 0.051808119600069528 -0.073231113362070985 0.048021975131737331 0.059519758880082901 -0.10937633921996813 -0.074077948304823477 -0.046566410878154829 -0.023342205874919086 -0.024669051242396815 0.022635450961946815 -0.018676117638604127 -0.080267596493739879 -0.038390725846936202 -0.037066047627314067 0.070985049506487929 -0.014716293969788533 -0.079972313928184824 -0.061336994080516419 0.061025842784826825 -0.06001223264980711 0.076548000114945142 0.030591171982577704 -0.090944717076952328 -0.10028934712399631 0.016392380515034832 0.042079622242444041 -0.015430714848663811 -0.058853953594895606 -0.069118238861610184 0.063488207252896667 -0.021426733229174502 -0.048864279525092078 0.071969667838679072 0.0055299802008164454 0.056387161941793142 -0.089985021934392631 -0.054167557909632603 0.043827905413422776 -0.0050862491622384121 -0.010305291794096356 0.064914290243655817 -0.040601967199820843 -0.0018959918457321673 0.025201105458956003 0.060337424234255026 -0.065732178759086754 -0.088977723641959924 0.05182457979871067 -0.019011636698173018 -0.066850686751515939 0.065099849135791144 0.077664571771693558 -0.00063693862159843438 0.07714278067466919 -0.032442280821430816 -0.095379975642386164 -0.0059286169382811128 -0.0025089875300510099 0.052950370393811945 0.060191131088061484 -0.059521393617102049 0.041823283696209607 0.034597907873684386 0.048705925576847997 -0.077847453438815453 -0.0051114678683773099 -0.036843371467538709 -0.03446218679215967 0.014893882330132162 -0.076029662574234685 -0.0071876701844519331 0.06109889623302403 -0.025983552659256521 0.068561390792348173 0.0067667460560040431 0.042266099950498681 -0.049629914297988763 0.0071297407411737793 0.00061134656295700688 0.078738016274529699 0.075984072742928177 -0.0044716394899333494 0.032573889334044169 0.077977166449922808 0.056729169672381112 0.056749453261305198 0.017305298977178109 -0.066731472605706346 -0.064625196606357224 -0.028346032049941433 0.049455003431973468
leaf_weight=3.5448975861072567 2.9502051472663906 2.8636419326066962 7.1593356877565366 3.8568927198648444 3.9295810461044303 7.8604317009448996 17.030905872583393 3.9636948406696346 3.6724891066551191 2.6511645764112499 4.4154983311891547 4.2368737161159506 8.6152178794145566 3.8436438292264956 10.271268889307978 5.2682990878820402 4.8385431766510001 7.310475677251814 4.5388402938842773 2.4120916277170199 4.0905569344758979 10.685548886656759 3.113217353820807 2.4874779433012 4.7546459734439876 3.9067158848047248 2.4159999787807456 5.2194074392318717 2.7533497363328916 3.3766577988862991 19.445081815123558 2.8909873217344284 3.4358047097921389 3.1659506112337112 3.7882531136274329 8.0072593837976438 3.2733255475759506 6.0744824707508087 2.6045281141996384 7.1829179674386969 4.1783567667007437 2.8396524637937537 9.6780947893857938 3.4639795720577231 2.840107649564743 2.366008847951889 15.203032374382017 2.5558981895446768 3.6088889539241782 10.66974490880966 9.0408324748277646 4.4500897675752622 4.3028317987918845 16.768099471926689 2.7356512993574134 3.5707020461559287 3.642351120710372 5.6546613126993179 3.4624000787734985 2.8343352228403083 18.983273938298229 5.5731998085975638 10.409135863184927 3.1027515083551398 3.9509067982435289 9.7941128313541395 6.2702760100364667 5.7891498655080786 2.8524532169103605 2.564823254942894 3.3402879685163489 3.0417712330818167 5.5626039952039719 4.8356584310531616 2.9829593598842621 2.6476442068815231 3.7722233533859244 3.2967710047960281 5.4843263030052212 8.4594897478818911 3.3098206073045713 5.3060741126537323 2.3125384300947189 3.5934991836547878 2.3354044854640961 4.0144713222980499 2.9750231802463531 2.6786588877439481 4.7838894873857489 2.5007686913013458 3.0529711842536926 3.349327489733696 4.4937799870967847 4.8715059906244278
leaf_count=15 12 12 29 17 16 34 75 16 15 11 18 18 37 16 42 22 20 32 19 10 17 46 13 11 20 16 10 22 12 14 80 12 15 13 16 35 14 26 11 30 18 12 41 15 12 10 65 11 15 43 39 19 18 74 12 15 16 24 14 12 81 24 45 13 17 42 27 24 12 11 14 13 23 20 13 11 16 14 24 35 14 22 10 16 10 17 13 12 21 11 13 14 19 21
internal_value=6.70228e-05 -0.0506648 0.00188346 -0.0372426 0.00310081 0.00375478 0.03733 0.00193741 0.00528299 -0.0205367 -0.00467535 0.00774387 0.00898167 0.0046014 -0.0206671 -0.0431382 0.0259549 0.0226671 0.0381574 0.00837375 0.00419564 0.0258858 0.00582981 -0.00988011 -0.0265196 -0.000419848 -0.00755785 -0.0344546 0.0313115 -0.0698412 -0.0442509 -0.00711122 0.0131258 -0.0703219 0.00079809 0.0279606 0.00020035 0.0272973 -0.0367935 -0.019233 0.0100078 0.0517969 -0.00379599 0.00952104 -0.019149 -0.0573564 0.00077411 -0.00578568 -0.00973928 -0.0742673 0.0196486 0.0147794 -0.0107165 0.0398124 0.0130005 0.0490933 0.0226289 -0.00803879 -0.0550034 0.0274644 0.0226775 0.0100778 0.0460403 -0.00560058 -0.00194147 -0.00562903 -0.015541 -0.0319684 -0.0147302 0.023871 0.0170348 -0.0342328 -0.0519905 -0.0360604 -0.00814701 0.0201506 -0.000921765 -0.0385086 0.00426996 -0.00692969 -0.0187959 -0.000526991 0.0243258 0.048764 0.0140297 0.0022544 0.0417181 0.0322724 0.0202046 -0.00103185 -0.0288909 -0.0289606 0.0283287 0.0121234
internal_weight=494.063 17.0783 476.985 14.3929 462.592 458.663 23.5518 435.111 339.108 29.508 22.3784 309.6 301.092 239.329 31.0883 21.1702 61.7636 14.5005 11.8493 208.24 168.127 40.1128 164.037 96.0026 34.7976 61.205 53.3446 32.3101 56.925 10.536 27.0907 7.64563 29.4272 7.12965 12.4035 20.1606 9.31366 9.91813 5.87785 23.4382 140.599 10.8469 16.2553 13.1421 9.26667 6.27272 71.8153 56.6123 52.4339 13.5334 68.7834 59.7425 14.0633 44.5215 11.1437 20.6016 45.6792 8.40801 7.8779 41.4423 37.7999 24.5565 13.2435 48.825 45.7223 43.1664 30.032 21.1969 15.4077 8.8351 13.1344 11.4568 8.41506 8.50815 10.8989 5.6306 47.0719 5.71277 41.3591 28.2216 22.7373 14.2778 7.61861 33.3779 9.76052 6.85458 5.31043 16.6098 13.0163 8.2324 5.55374 6.65915 13.1375 9.36529
internal_count=2096 70 2026 60 1966 1950 102 1848 1444 123 94 1321 1286 1018 130 88 268 62 51 888 716 172 699 404 145 259 225 134 248 43 112 32 126 29 53 87 40 42 25 99 600 47 69 56 39 26 305 240 222 55 295 256 60 195 48 90 196 36 32 178 162 105 57 207 194 183 127 89 65 38 56 48 35 35 46 24 199 24 175 119 95 60 32 147 42 29 23 73 57 36 24 28 56 40
is_linear=0
shrinkage=0.05


Tree=5
num_leaves=95
num_cat=0
split_feature=4 2 4 0 1 0 3 5 4 3 0 1 0 4 1 0 3 5 0 2 5 4 2 6 5 0 3 0 2 3 1 2 7 1 8 7 1 4 8 0 5 3 3 5 1 3 0 2 6 0 8 0 1 6 4 0 5 0 0 1 4 1 2 3 5 4 3 1 4 6 0 1 4 3 7 8 2 3 0 7 2 2 8 3 0 0 3 3 5 5 6 7 7 6
split_gain=16.4222 13.043 8.21344 15.0573 8.29934 10.2523 8.33309 6.2272 7.80252 8.34631 11.1083 6.05759 8.19279 8.25082 12.0673 9.79056 7.59178 5.78228 5.89629 5.76864 5.67143 7.2631 6.20212 5.65349 7.64386 5.51115 5.43548 10.3749 7.72679 6.31271 5.76102 5.36934 8.90046 7.36879 7.00205 6.4697 5.24884 5.03013 6.4607 4.86929 4.86466 4.83717 5.61282 4.77221 4.62441 4.46441 4.31927 4.49311 4.28213 5.4877 5.93713 4.14402 4.02275 5.04251 3.99165 3.91803 3.90387 3.86906 10.0488 8.55535 9.28087 6.69364 6.15262 5.13931 7.15959 4.50581 5.26217 3.96876 4.43278 3.80154 6.53804 4.28162 3.35599 3.90738 3.32909 3.30017 5.65537 4.0525 5.98501 4.57326 3.70852 3.71228 3.17445 5.15625 3.12823 4.11846 3.12648 6.42648 4.49446 5.15054 3.09747 2.96949 2.78201 5.36075
threshold=262.07978681416972 15944.863224857019 409.11840539485985 7.4653491593259753 280.6791609674836 4.7245490690906484 5.2592295105369358 358.05019677374173 295.93565051145885 5.6919646778610646 7.3325537051933809 136.11675204275463 8.1785327084512112 371.66247342215729 177.06836478661111 7.0397446385810607 9.0872493566478756 597.06826807736263 7.6079870512438275 25671.015957968939 383.25292660046688 321.78158916603417 21609.032267581049 11.249642515034312 475.06636474048668 6.9640888254077327 7.6054698030160752 5.6273732237783269 13757.96341283328 5.1282397012480061 229.25326041972841 17446.333037952998 66.150626146094126 194.76254313500689 4.6641099487422659 65.90022469074809 194.45427736922792 342.11117733709153 4.8899369624807028 6.5279600211693767 472.33605970421161 8.742900274953163 8.1475008190381768 469.99662839738488 213.00132932242613 6.2850079778469778 7.1306605273985051 19454.70354197031 10.418777572238186 7.0397446385810607 3.8375913157085502 7.1167369620110721 170.9695392569873 16.860563477566306 359.56394447401402 6.1031323053418491 459.88821983835436 6.7157592834531927 6.9468730490085902 214.16813927491873 324.68026301673439 231.54985025978024 24400.933211026528 5.9366338037443187 465.723510098323 314.27026684413039 6.5881539099818509 159.35868511327581 355.12602511889276 12.403806957557181 9.5415745751086831 190.8181934746024 383.66250898365382 7.7099152384910878 65.308103680467482 3.008213647481039 20123.358926562451 6.1898768377157039 6.1031323053418491 62.654847786853175 17446.333037952998 21609.032267581049 3.5719832105876739 5.8371191473902657 7.6830399799748426 8.0165073396506781 6.3591722444586987 7.0185775102740751 439.797608723579 494.0087943585263 12.620349207063898 52.778368854473563 79.27488305373015 13.715654149464287
decision_type=2 2 2 2 2 2 2 2 2 2 2 2 2 2 2 2 2 2 2 2 2 2 2 2 2 2 2 2 2 2 2 2 2 2 2 2 2 2 2 2 2 2 2 2 2 2 2 2 2 2 2 2 2 2 2 2 2 2 2 2 2 2 2 2 2 2 2 2 2 2 2 2 2 2 2 2 2 2 2 2 2 2 2 2 2 2 2 2 2 2 2 2 2 2
left_child=1 -1 4 19 5 6 -2 26 9 40 23 74 13 17 39 -16 20 18 31 -4 -14 22 45 -11 -25 -19 28 -28 -7 51 36 32 86 -34 57 37 46 38 -36 -15 -9 42 -38 52 -45 -22 -29 -48 -35 -50 -51 -30 -20 84 -8 -3 -12 61 62 60 65 63 -59 64 -33 66 -60 -65 -69 70 71 -23 -17 -74 -10 76 -31 82 -79 90 -81 -82 -77 -84 -54 -86 -13 -88 -89 -90 -80 -92 93 -62
right_child=2 55 3 -5 -6 7 54 8 11 10 56 12 16 14 15 72 -18 25 43 -21 21 69 -24 24 -26 -27 27 30 29 75 -32 34 33 48 35 -37 41 -39 -40 -41 -42 -43 -44 44 -46 -47 47 -49 49 50 -52 -53 53 -55 -56 -57 -58 58 59 -61 92 -63 -64 67 -66 -67 -68 68 -70 -71 -72 -73 73 -75 -76 77 -78 78 79 80 81 -83 83 -85 85 -87 87 88 89 -91 91 -93 -94 -95
leaf_value=0.037828483031583877 -0.042387812687846124 -0.018419093793838822 -0.086009604136876389 0.050018666113438484 -0.069184767910110814 0.046230221604470816 0.05762961949018798 -0.10324877900397161 -0.069808644902133773 -0.043894773827469202 -0.089091118582968851 0.054506426928127051 0.070087776037112623 -0.01768359728415992 -0.07564626018792224 -0.0362221362114694 -0.035016018842710779 -0.099275715885185162 -0.059453610041097185 0.0022323557877761647 0.075005283633261088 -0.050521322326593225 -0.061161888146538938 0.068942012091293373 -0.01394105551119449 0.0055807809764132797 0.07459524544644007 0.014694488925291023 -0.085473606142195346 -0.093878861656558454 0.015627609797552053 -0.052397606210454084 0.0091319381730035239 0.019612835195283798 0.057682506512951925 0.068594977845973223 -0.066286764087809341 0.076616983971659808 -0.046439876538568577 0.054355334324477311 -0.020299719218689741 -0.093783607745724001 0.013872777201946141 -0.017718029074416566 -0.097099378516831925 -0.012522695610972868 -0.0034495528411351015 -0.093347909864836473 -0.079173726422296642 0.033672226559513262 -0.06249199274115419 -0.0018004396756781682 -0.024016850022439345 -0.037148945786094172 -0.00060501046062326588 -0.084168107655088739 -0.018738028230993169 -0.003995243069062379 -0.071026517515954596 0.045187573356284746 0.057814289991008155 -0.041114938434570758 -0.09711282922331671 -0.013564774047894216 0.043344359996843954 -0.099409482508597269 0.021498100249325462 0.052110085846869825 -0.0098197095646395949 0.043620752736106841 0.07561133871053248 0.023994573151412582 0.059141252113355462 -0.024586458448479329 -0.0068199147230499704 0.066251815796829969 0.0064382278957686436 0.040654825757904439 -0.094297860890691643 -0.056861154074340503 0.061520399396889039 -0.0044896309168980198 -0.026768009322149729 0.047613941224309425 0.05468894632921846 -0.008505102077672624 -0.058116131642893802 0.055650842841263162 -0.043580584024418514 0.045479246353199054 0.0061039969986696647 -0.063838053511406964 -0.017299799579179986 0.0037520210103716856
leaf_weight=3.5121894925832775 2.9628163725137737 2.8735386729240409 8.1884965002536756 3.7966756075620642 3.950829789042472 7.7594193965196601 16.718000903725628 3.9882306605577496 3.7014238089323026 2.6713532656431225 3.743504971265792 6.0342193245887783 7.6561083346605292 3.8560747951269168 10.351548403501512 5.3035726994276029 4.8650131821632376 2.4216142147779456 2.416231691837317 2.3934539705514899 2.2196769416332227 4.0586575120687467 4.0844549536705017 7.1547130495309812 4.5513437688350677 2.5969791561365128 2.4265085309743872 5.7395755797624606 3.9477825611829749 2.4509433954954138 5.2015545815229407 4.0346380472183219 13.819859281182291 2.5388721823692348 2.2951400727033633 12.163809776306151 6.1088109612464887 2.2603237479925156 4.2458716630935669 5.9886649250984192 3.174408033490181 6.4283968508243552 3.3987974226474762 5.7758398056030256 2.6887457966804504 4.2390183806419373 2.8606529831886292 2.703394889831543 7.768519312143324 3.0616848170757294 3.3736584335565567 2.3669721335172653 2.8298054486513164 4.5252146124839774 3.5711653232574454 10.714117497205732 4.1664186716079712 3.5036813020706168 2.8786474913358671 14.206105500459669 7.1217528432607713 3.5802461653947821 3.5931733101606369 3.2085119336843517 3.7839770913124084 2.6662876158952713 3.2964361011981964 25.424831748008732 3.2599412053823462 27.723811790347099 2.671074852347374 3.6717024296522141 2.9289905577898026 2.6579135805368423 4.8414430022239685 3.7101149559020987 3.2918714731931686 5.4183032959699657 2.4459351003170031 2.42196962237358 2.7854658365249625 9.0500203222036344 4.520059257745741 4.8084928244352341 8.0669366866350156 3.7893219143152228 2.6955861598253241 6.6243291795253736 3.5437572300434113 2.9958086758852005 3.1432677209377289 2.9341494590044022 5.4474963694810858 12.875226587057112
leaf_count=15 12 12 33 17 16 34 75 16 15 11 15 26 34 16 42 22 20 10 10 10 10 17 17 32 19 11 11 24 16 10 22 17 59 11 10 54 25 10 18 26 13 26 14 24 11 18 12 11 32 13 14 10 12 19 15 43 17 15 12 61 31 15 15 14 16 11 14 112 14 124 12 16 13 11 20 16 14 24 10 10 12 38 19 21 35 16 11 29 15 13 13 12 23 55
internal_value=7.85827e-05 -0.0480621 0.00181095 -0.0354027 0.00297213 0.00359614 0.0359412 0.00186164 0.0050552 -0.0195332 -0.00444343 0.00740449 0.00858793 0.00440053 -0.0196212 -0.0408288 0.0249093 0.00800088 0.00931547 -0.0660508 0.0300853 0.0237924 -0.0129382 0.0217391 0.0367169 -0.0450155 -0.00938087 -0.0251307 -0.000386298 -0.00717333 -0.03259 0.012882 -0.000459328 -0.0178911 0.0187214 0.0449683 -0.0417974 0.0123153 -0.00990494 0.0261385 -0.0664866 -0.0602824 -0.0376312 -0.0111056 -0.0429332 0.0175583 -0.0157369 -0.0471283 -0.0401966 -0.0508873 -0.0167408 -0.0541102 0.00135106 0.00899855 0.0473795 -0.0702634 -0.0520338 0.0131564 0.00442818 0.0125608 -0.000957855 0.0243638 -0.0511411 0.0302671 -0.00606134 -0.0450889 -0.0216342 0.039173 0.0450719 0.0339499 0.00817346 -0.0151284 -0.00773439 0.0193086 -0.0341115 -0.000864447 -0.0363755 0.00408086 -0.00657731 -0.0178112 -0.000489868 0.0110457 0.0271316 0.0115729 0.023218 0.0344918 0.0238746 0.0122199 0.0266226 -0.00278182 -0.0467856 -0.0276637 0.0143767 0.0230058
internal_weight=492.286 17.0998 475.186 14.3786 460.807 456.857 23.252 433.605 337.682 29.45 22.2873 308.232 299.689 238.5 31.0868 21.242 61.1895 207.413 202.394 10.582 56.3245 48.6684 10.5432 14.3774 11.7061 5.01859 95.9225 34.8677 61.0548 53.2953 32.4412 172.302 52.4563 30.5626 119.846 20.9651 27.2396 8.80134 6.54101 9.84474 7.16264 15.936 9.50761 30.0921 8.46459 6.4587 11.3036 5.56405 16.7427 14.2039 6.43534 6.31475 21.6275 19.2113 20.2892 13.5877 7.90992 98.881 55.5888 48.492 34.2858 43.2921 7.09685 39.7119 7.81862 8.84137 6.17508 31.8933 28.6848 38.1252 10.4014 7.73036 10.8905 5.5869 8.54287 46.9806 5.74281 41.2378 28.1991 22.7808 14.2575 11.8355 13.0387 9.32855 14.6861 11.8563 21.8937 15.8595 13.1639 6.53957 8.52335 6.07742 25.4445 19.997
internal_count=2096 70 2026 60 1966 1950 102 1848 1444 123 94 1321 1286 1018 130 88 268 888 867 43 248 214 45 62 51 21 404 145 259 225 134 740 223 129 517 92 112 38 28 42 29 65 39 127 35 28 47 23 70 59 27 26 92 82 90 55 32 425 237 207 146 188 30 173 33 37 26 140 126 169 45 33 46 24 35 199 24 175 119 95 60 50 56 40 63 51 94 68 57 28 35 25 109 86
is_linear=0
shrinkage=0.05


Tree=6
num_leaves=95
num_cat=0
split_feature=4 2 4 0 2 1 0 3 1 4 0 3 1 3 2 6 1 7 2 8 3 3 1 1 1 0 7 4 3 6 1 0 4 4 5 1 4 5 6 2 3 6 0 7 3 3 4 3 1 0 4 7 0 5 7 1 1 8 5 6 5 4 2 5 4 3 0 3 2 6 3 4 0 0 5 0 0 7 3 0 2 2 7 4 2 3 8 6 8 2 2 4 2 6
split_gain=14.8478 11.7508 7.53547 19.3114 8.32149 8.26768 10.4665 16.8645 8.95465 8.94359 8.72232 10.9166 8.32602 8.05808 7.32139 5.71629 5.68472 13.3454 5.64098 5.47365 12.2073 10.2338 5.79506 8.92876 5.6297 5.14379 5.01761 4.63627 5.05448 4.78862 5.09797 4.99677 4.51888 5.62749 7.74708 6.87373 5.87522 5.73464 5.43233 6.50959 5.74054 5.68509 5.5438 6.4303 5.61885 5.46606 5.09619 6.82358 4.85222 4.99113 6.55334 6.42566 4.7995 4.93751 4.53148 4.45681 6.01392 4.454 4.35633 4.35228 4.29248 4.25241 3.95439 4.9059 4.01005 3.93839 3.92954 3.87256 3.79873 4.96976 3.77148 4.7344 5.0812 4.49411 4.25401 3.72259 3.54815 3.48749 3.92798 4.50697 5.32631 6.7369 4.0858 3.33573 6.03702 3.30894 3.30549 3.25064 3.17823 3.22316 3.27139 3.17495 4.87006 3.16613
threshold=262.07978681416972 15944.863224857019 387.32842254386139 7.9073471424845847 26953.596417891404 280.6791609674836 5.6077396415180356 5.5020337564525938 163.94224104752871 327.93607373782413 8.3160167521228825 8.530759190800163 230.68534864752974 8.0223697755542531 34552.122864001896 17.350441039217291 173.3864367587627 79.856440858082593 34369.608032833021 4.4047589510308702 6.235137755104442 7.9436632310631454 149.4357891577416 159.35868511327581 136.11675204275463 7.0397446385810607 54.953814875722635 293.36140974364849 6.812679457864923 15.03010710131676 189.46082069974941 8.7606285596482074 272.64278148256386 295.93565051145885 351.17364705058446 216.66544946127564 371.66247342215729 483.7279980336437 16.132163743597264 11690.859304831547 5.2592295105369358 15.692804657810855 6.5489920610117913 71.43250839670479 6.9320929277132777 5.9928033726880177 383.03592547735076 8.1064348921956455 214.98265059225841 6.5873703653187095 337.88900655770163 62.003067242516259 7.2710072251008704 400.36812470370842 81.526290157637774 222.48685721678063 229.73315520752854 3.6488256517669062 344.96047342994387 13.178184777836409 276.81970595449076 334.88147839895134 14807.341021869066 488.68707108534915 336.65045488158319 6.8428691642166841 7.309576440730841 6.7018567603180452 23478.064431984651 14.15857043069977 6.8707658901073767 372.57750476405175 6.9901332234641878 6.9274400962827212 335.67975671928815 5.4041971831870983 6.1031323053418491 63.488860373733814 6.2083459222393653 7.9181187750156905 19199.989116958783 21701.747750035745 51.854758358264512 319.54955459074728 22621.63705632569 5.5715729984204279 4.3020975037151734 14.245527756295902 4.2184897192812603 18041.269998119653 23165.3353034145 333.27583171351745 21026.534780450191 14.15857043069977
decision_type=2 2 2 2 2 2 2 2 2 2 2 2 2 2 2 2 2 2 2 2 2 2 2 2 2 2 2 2 2 2 2 2 2 2 2 2 2 2 2 2 2 2 2 2 2 2 2 2 2 2 2 2 2 2 2 2 2 2 2 2 2 2 2 2 2 2 2 2 2 2 2 2 2 2 2 2 2 2 2 2 2 2 2 2 2 2 2 2 2 2 2 2 2 2
left_child=1 -1 5 4 13 6 7 59 14 -9 16 18 62 25 19 -13 17 85 27 21 -21 22 24 57 -8 26 -4 -12 83 30 -30 -32 -18 35 60 58 37 38 39 -36 -40 42 45 77 52 -41 47 93 49 65 51 -51 53 -45 -52 -50 -57 -24 -34 -2 -35 -42 64 -64 -11 -39 -46 -53 69 -60 73 72 -72 74 -62 -28 -3 78 -44 80 -80 -82 -83 84 -29 -10 -63 -37 89 -74 -91 -23 -93 -38
right_child=2 76 3 -5 -6 -7 8 9 10 12 11 15 -14 -15 -16 -17 32 -19 -20 20 -22 91 23 -25 -26 -27 75 28 29 -31 31 -33 33 34 36 87 46 48 40 41 61 -43 43 44 66 -47 -48 -49 55 50 54 67 -54 -55 -56 56 -58 -59 68 -61 70 86 63 -65 -66 -67 -68 -69 -70 -71 71 -73 88 -75 -76 -77 -78 -79 79 -81 81 82 -84 -85 -86 -87 -88 -89 -90 90 -92 92 -94 -95
leaf_value=0.036291658852849677 0.0049809858464547876 -0.017442496564474972 -0.099770273019215788 0.048681588411607801 0.02899051383861383 -0.073229793533178142 -0.020476171335125207 0.06539959795461546 -0.0013883649544710233 -0.046258201965002729 -0.027680693292281056 -0.069668351063609982 -0.046514867811982302 -0.083820171138865113 -0.0770384775455287 0.023026959634796288 0.052961110913014343 -0.048758372704913851 -0.028236863475369772 -0.062471141906752653 0.046143263925925819 -0.096573950933073527 -0.030412590646990902 0.036286304166287371 0.060788934786910567 0.019619348761950643 -0.057828493498528623 0.060166716794740505 -0.045757453558521781 0.042958014951129241 0.078968743807288314 -0.01148526909062338 0.0072585193900560913 0.027545577116100547 -0.03029908203639331 0.06194214386735053 -0.10740235175244445 0.077308612241533958 -0.063775142633031023 -0.023182139250298165 -0.0098061930408188669 0.069393022152175257 0.044563195346124039 0.042179501917608345 -0.066317629032840233 0.059699921318116557 0.029946826420394659 0.017581398324948153 -0.079742858195531771 -0.06464899280470135 0.051661687973011378 -0.039039278067109856 0.06272577798398922 -0.045789978610628987 -0.027296759432449316 0.03580941598843175 -0.051010220116919483 -0.11835613924779376 -0.074345357492610578 -0.069660799462897827 0.0089825018353095407 0.053291068991023885 0.052311699247250855 -0.0013600937825215054 0.038893207623656924 0.0037071255496389545 -0.0048840211991816214 0.021771670763504326 -0.08343132611256826 0.02321341960273933 -0.010769926664529436 0.028101203289819313 -0.076850234654606109 0.022622783500947902 -0.068190783784987719 0.020209015978180717 -0.07993260392770779 0.046411459507089643 0.051337851884330765 -0.063133082853407102 -0.071120845441124889 -0.018608713272664102 0.061130171814901546 0.061389022849619418 -0.043227236545904525 0.056418533719657576 -0.0083046774420302422 -0.010031641421952871 -0.091481544087106514 0.025114233805972164 -0.050644775703952698 0.0096692892417331172 -0.082135386540459474 -0.038157109217385146
leaf_weight=3.4787353873252895 3.125112056732176 2.8824677765369406 2.9853308498859459 7.8763360083103171 3.769576206803321 3.4790052175521842 3.6500141322612816 16.395186647772789 3.0240171402692857 3.0753238350152996 2.9436235874891272 4.6697378605604163 4.0989235043525687 10.472033306956289 4.9458606243133536 2.5832214802503586 3.6812629252672187 4.7898163199424735 4.0346115678548804 3.6369484513998023 8.9603371322154981 4.4352575391530973 3.5334061682224256 3.2973455041646957 5.1214912086725235 4.3210627585649481 3.2136513143777847 3.5097700059413937 4.4149918705225009 10.516670465469359 2.5164776742458344 3.8820353299379349 3.0986467748880413 4.4907488971948615 6.1219594925642005 2.3574290722608557 3.4730266779661161 3.4086178690195075 3.6274200975894919 2.3654081523418418 20.807624906301502 6.1477364599704734 7.3175655454397228 2.7350535988807696 5.2638091146945936 12.509838983416556 2.8285807669162741 2.891440361738205 3.864458128809928 6.6997624486684861 5.8923816382884961 4.351507216691969 3.5989788621664047 3.8269801288843155 2.6273471266031265 3.4352178424596769 4.7563612461090088 2.4297785013914108 2.6881323009729368 5.2068348377943039 3.3341915756463987 5.9483183324336988 17.119203999638561 5.667030304670333 2.5119914561510086 3.893808051943779 5.1493372023105621 6.5719804316759109 6.9284708797931671 2.5377806276082993 8.1696608364582115 2.6357606947422019 4.1762629449367505 7.7117979228496552 3.844880074262619 2.9137912839651108 10.717495471239088 12.363744884729384 5.2909534275531795 2.373716175556182 3.1473881155252439 3.4922590851783752 2.9750450104475021 20.210773080587387 2.3618447035551071 13.648720428347586 3.4363688677549362 4.6893316209316254 5.1757973581552497 2.4247560948133469 3.4559135586023331 2.6469576060771942 3.1802038997411728 3.1462192088365555
leaf_count=15 13 12 12 36 16 14 15 75 13 13 12 19 17 42 20 11 16 20 17 15 39 18 15 14 22 19 13 16 18 47 11 17 13 19 26 10 14 15 15 10 88 27 32 12 22 56 12 12 16 28 26 18 16 16 11 15 20 10 11 21 14 26 77 25 11 17 22 28 28 11 34 11 17 33 16 12 43 54 23 10 13 15 13 93 10 60 15 20 21 10 14 11 13 13
internal_value=8.82217e-05 -0.0457122 0.00174224 -0.020395 -0.040054 0.00354171 0.00415728 0.0240858 0.00113113 0.0352963 0.00400061 0.0209662 0.0200972 -0.0509412 -0.0195802 -0.0366539 0.00011574 0.0248013 0.0286497 -0.0126306 0.0147853 -0.0248368 -0.00215167 -0.0297381 0.0269728 -0.0253112 -0.0466162 0.0332076 0.0369878 0.0189353 -0.00442797 0.0240895 -0.00202284 -0.00285219 -0.00044457 -0.0267947 0.00429833 0.00680172 0.0125954 0.0193609 -0.00434446 0.0232309 0.0193116 0.012277 -0.0101272 0.0465203 -0.0289741 -0.0464978 -0.00828676 0.00151629 -0.0086921 -0.0260979 0.0163246 -0.00912433 0.0273122 -0.035482 -0.0146016 -0.0662464 -0.045663 -0.0416645 -0.0188587 0.00279577 0.0297202 0.0389633 -0.00797513 0.0380627 -0.0359385 -0.00245313 -0.0591549 -0.0269694 -0.0239502 -0.0354281 -0.0425833 -0.0038798 -0.032349 -0.0207192 -0.066688 0.0247483 0.0138592 0.000856503 0.0110468 -0.0111253 0.0180722 0.0517512 0.0185767 0.0459338 0.0307367 0.0140465 -0.0596456 -0.0432612 -0.0194073 -0.0646966 -0.0404336 -0.0744891
internal_weight=489.994 17.0787 472.915 35.5518 27.6754 437.364 433.885 57.1996 376.685 48.8677 330.847 61.6438 32.4725 23.9059 45.8376 7.25296 269.204 21.4626 54.3908 40.8917 12.5973 28.2945 18.032 9.26053 8.77151 13.4338 9.11277 50.3562 47.4126 21.3302 10.8135 6.39851 247.741 244.06 221.76 22.2998 176.34 164.001 118.5 84.6798 33.8197 78.5578 72.4101 57.5348 20.5742 14.8752 12.3393 9.51069 45.5014 33.4454 26.143 17.6233 10.161 6.56203 8.51973 12.056 8.19158 5.96318 15.253 8.33195 45.4198 30.1923 28.3735 22.7862 5.58732 7.30243 10.4131 10.9235 12.1544 5.22591 40.929 26.0382 23.4024 14.8909 7.17907 6.12744 13.6 36.9607 24.5969 17.2794 14.9056 9.61469 6.4673 26.0824 5.87161 16.6727 9.38469 7.04676 15.2327 10.0569 5.88067 10.2624 5.82716 6.61925
internal_count=2096 70 2026 150 114 1876 1862 252 1610 218 1418 271 143 98 192 30 1147 93 241 172 54 118 76 39 37 56 37 224 212 93 46 28 1054 1038 945 93 756 705 511 367 144 341 314 248 88 66 51 39 194 143 111 74 44 28 37 51 35 25 63 34 189 129 126 102 24 32 44 46 50 22 170 107 96 63 30 25 55 160 106 74 64 41 28 119 26 73 41 30 62 41 24 42 24 27
is_linear=0
shrinkage=0.05


Tree=7
num_leaves=95
num_cat=0
split_feature=4 2 4 0 1 0 3 5 4 3 0 8 1 7 8 1 2 4 0 3 1 2 2 4 6 3 2 7 5 7 2 5 8 5 6 5 3 0 2 3 1 1 0 1 1 6 5 4 4 8 8 0 3 6 3 0 1 2 7 1 8 4 1 4 1 7 8 8 1 1 1 8 0 5 8 0 2 3 3 5 7 5 5 4 2 8 3 2 4 0 4 8 2 1
split_gain=13.4549 10.6184 7.02028 12.7347 6.74575 8.90685 7.05261 5.36439 6.38398 7.21431 9.52999 5.202 7.12213 5.99964 5.92506 5.70489 5.5535 5.43733 5.38158 6.49525 6.38696 6.54052 5.46914 5.64262 5.94484 5.23763 5.21264 6.31748 6.06109 7.78272 5.20456 5.05925 5.03568 4.99304 4.81957 7.06591 4.454 8.92331 6.86668 5.41134 5.02182 4.54988 5.94097 4.453 10.6576 4.40495 4.35158 4.33755 4.15051 4.11011 4.29442 4.51886 4.04731 6.40444 4.1034 5.09443 4.63107 3.91578 6.07973 5.08942 4.30021 3.82193 5.98945 12.531 5.20646 5.13462 5.8048 5.32414 6.79282 4.23557 5.52478 3.68342 3.5875 3.56571 3.77333 3.47385 3.47054 3.43583 7.82175 3.40415 3.36105 4.26099 4.59819 3.09812 5.31101 3.32751 3.09158 3.07762 3.03489 5.45056 5.2781 5.08564 3.99475 4.19981
threshold=262.07978681416972 15944.863224857019 409.11840539485985 7.4653491593259753 280.6791609674836 4.7245490690906484 5.2592295105369358 358.05019677374173 295.93565051145885 5.6919646778610646 7.3325537051933809 4.559586430583523 238.45991402954516 61.113329777169014 4.4818605020793898 159.35868511327581 24608.996747435693 358.55180906986442 8.2060253285832037 9.0872493566478756 185.76723203851458 9468.9694127272214 32331.278176897384 315.97264722165164 9.3269692447982795 6.3250207219301702 17259.020328704177 65.308103680467482 471.82033204169403 70.126176974681627 34369.608032833021 411.36328458038111 5.015166221677938 425.11516597740979 11.249642515034312 475.06636474048668 7.6054698030160752 5.6273732237783269 13757.96341283328 5.1282397012480061 229.25326041972841 182.22735984824496 7.5045986109389329 219.60852192372553 204.87548003604289 11.829546005905572 472.33605970421161 319.54955459074728 370.24710038831637 3.4094051517956707 3.9232246165281617 7.3684670534133518 6.812679457864923 16.80616863720596 7.2187459397358733 9.3865777667817838 195.11016419053416 31364.464048223294 74.296514269891034 175.67314170536454 3.2278949425734291 333.99414667854745 210.09208302304776 339.01273653427569 193.16505600555129 66.688039489657129 4.155214258516863 3.8645147271435762 219.19166244815503 199.02632357062092 214.16813927491873 3.4219727346148261 7.0397446385810607 397.24198827173478 3.2607002964574887 7.1167369620110721 21442.001798520021 6.3786412352975406 9.2558326696347368 459.88821983835436 49.852446212588823 510.54863244605372 427.80264501601135 346.46367204397052 20067.3390584634 3.7940442725242449 6.7983777768709901 19454.70354197031 369.32590543782288 5.4589776431746051 341.03296829266441 3.008213647481039 21166.5453738541 214.16813927491873
decision_type=2 2 2 2 2 2 2 2 2 2 2 2 2 2 2 2 2 2 2 2 2 2 2 2 2 2 2 2 2 2 2 2 2 2 2 2 2 2 2 2 2 2 2 2 2 2 2 2 2 2 2 2 2 2 2 2 2 2 2 2 2 2 2 2 2 2 2 2 2 2 2 2 2 2 2 2 2 2 2 2 2 2 2 2 2 2 2 2 2 2 2 2 2 2
left_child=1 -1 4 31 5 6 -2 36 9 46 34 12 14 -14 15 17 72 45 20 30 57 -22 23 43 87 -24 28 80 29 32 52 -4 -13 -15 -11 -36 38 -38 -7 75 41 42 -39 44 -23 -10 -9 -26 61 -47 -51 -52 -20 54 -54 56 -56 58 60 -59 76 65 64 -64 -63 66 69 68 -67 -49 -71 -8 -16 -60 -75 -40 -17 -3 -79 -12 -28 82 -82 85 -85 -43 -84 -25 89 -41 91 -91 93 -93
right_child=2 77 3 -5 -6 7 71 8 11 10 79 26 13 33 16 18 -18 -19 19 -21 21 22 25 24 47 -27 27 -29 -30 -31 -32 -33 -34 -35 35 -37 37 40 39 88 -42 83 -44 -45 -46 49 -48 48 -50 50 51 -53 53 -55 55 -57 -58 59 73 -61 -62 62 63 -65 -66 67 -68 -69 -70 70 -72 -73 -74 74 -76 -77 -78 78 -80 -81 81 -83 86 84 -86 -87 -88 -89 -90 90 -92 92 -94 -95
leaf_value=0.03482555448802227 -0.037906114994015409 -0.087999575805607633 -0.08466262452235318 0.047197899154760463 -0.062260741546286892 0.043918286420124519 0.0019355904990492195 -0.096099154840345327 0.019267027752924836 -0.039167653087562752 -0.082161881621248919 -0.033684076034005764 0.010722712089529176 0.0097579381640551469 -0.039128824726942485 -0.027183217774275077 -0.081277849123454718 0.030843312603597225 0.053872338951755951 -0.051891656553197177 -0.078396708699913331 0.057699609694570879 -0.022158087683673708 0.064349488061270457 -0.060668289298459958 0.057659353039105424 0.039700973261911972 0.047894589478791938 0.040129431972218771 -0.065581583181072059 -0.039094522060719894 -0.010455648363584777 0.042436416160089842 -0.06967423736264465 0.066842215400963148 -0.013362535086098026 0.071761284086344912 0.029255649865837625 -0.078790315715146456 0.07312261887369019 0.015379770038085161 -0.030306832725642247 -0.061566893254859027 0.077270938592075775 -0.050614942403204216 -0.0050071991573852693 -0.017643253233191693 0.056968450100332503 -0.046058129473218051 -0.10113714820566705 0.019981431649090303 -0.0730447337241176 -0.051513255387861334 0.065181395344872536 -0.013555461950948115 -0.046695102523741906 0.075044840578335173 0.03702620802235345 0.038245475791364086 -0.061303650088266805 0.051548451144820255 -0.016356201212803716 0.075220577811202893 -0.065390657522269288 0.046616033773412648 -0.07722404076392847 -0.054965654247392193 7.541089992045124e-05 0.0075059660625598438 -0.045118161486014954 0.038873136993885692 0.055625735009558086 0.033708015194280828 0.039728786757455128 -0.029853412733533421 -0.0021638165560445297 0.045577587697993908 0.0077514719488565101 -0.10271139619993493 -0.01644728265375953 -0.026419401216669854 -0.05908404544290552 -0.0017075602873214966 -0.055744234510217719 0.030605212120781725 -0.086754246272201338 0.066012283100330235 -0.0035625496705740558 -0.043605868598388546 -0.061526999929640495 0.033199036072243733 0.0042060562245374179 -0.018848380658509065 0.080082269169693826
leaf_weight=3.4448023140430477 2.9740950912237194 6.9577609896659833 7.161675423383711 3.6773753166198722 3.9549445211887351 7.5903740376234046 4.0109748542308834 3.9777350425720241 3.7865438759326997 2.6926712095737484 3.7321760505437842 3.7875780165195483 6.4107356071472195 2.6130292415618888 3.5459352582693082 3.6702016443014172 3.5958844274282455 4.8828053623437873 17.656595528125763 2.4485902786254874 2.6506490707397452 5.1810269355773908 2.836211830377577 4.060674011707305 4.3336312025785437 7.4649545848369598 6.5106491148471859 22.287853881716728 6.1962834298610678 5.5283536016941062 2.3931443095207205 3.3813183009624481 5.0957674980163574 8.1457474082708341 6.9499216973781568 4.5398119240999222 2.3183812201023093 4.700802922248843 3.9782086610794059 2.5873514413833609 5.1760355532169333 3.957656532526018 2.9184298515319824 3.38492228090763 4.0434622913599014 5.0127577781677237 3.1806401014328003 4.9576802700757963 6.785556584596633 3.8956373631954175 2.3374831974506378 2.9567258656024933 3.0087284594774273 5.2793486863374701 2.4326044917106611 2.3229040652513504 3.7460368126630783 2.3049338459968558 4.6229782849550238 3.0669354945421219 20.78974848985672 4.626056686043742 2.2179208248853675 5.5478840470314026 11.300318762660025 8.476487264037134 3.150649055838584 7.6200913935899726 3.2810871452093116 3.821214497089386 4.0151039063930511 15.692961439490317 3.2309325635433197 2.5220522284507743 8.5653185099363309 2.3544646203517914 2.9610673636198044 3.8966751545667648 2.7219987213611603 4.1755758970975876 5.0922572463750821 2.788920283317565 3.0009346753358841 5.3842593878507596 2.6606967747211456 7.6715724766254425 3.8443517237901688 2.8315291553735733 3.8429466933012 4.3242504298687008 8.5161262750625593 8.6998547464609164 16.356042072176933 2.3074192851781836
leaf_count=15 12 28 29 17 16 34 18 16 16 11 15 16 28 11 15 16 15 21 82 10 11 23 12 18 18 33 29 100 27 23 10 14 22 34 32 19 11 20 16 12 22 16 12 15 17 21 13 22 28 16 10 12 13 24 10 10 17 10 20 13 92 20 10 23 50 35 13 32 14 16 18 72 14 11 36 10 13 16 11 17 22 12 13 22 11 31 17 12 16 18 37 37 69 10
internal_value=9.69823e-05 -0.0435743 0.0016773 -0.0329187 0.00275582 0.00332446 0.0338636 0.00171203 0.00469674 -0.0176171 -0.0034812 0.00683709 0.00346672 -0.0275669 0.00584945 0.00764443 -0.0310531 -0.0159498 0.010479 0.0269646 0.00619228 -0.000876389 0.00117971 -0.00278555 -0.0078613 0.0356833 0.0194914 0.0293 -0.00122476 -0.0190049 0.0322059 -0.0608632 0.00998104 -0.0503822 0.0210415 0.0351518 -0.00874905 -0.0230073 -0.000558222 -0.00693192 -0.0297739 -0.0383371 -0.00553253 0.0282202 0.010221 -0.0286509 -0.0612393 -0.0122158 -0.00902467 -0.0414262 -0.0612916 -0.0319721 0.0371595 0.0195837 -0.00133029 0.0164296 0.0401618 0.0211429 0.0261566 -0.0191128 0.0403657 -0.00476652 0.01077 -0.025232 0.0283248 -0.0151875 0.00582812 -0.03248 -0.0535792 0.0207992 -0.00208344 0.0446965 -0.00440321 0.00135593 -0.0140255 -0.0503009 0.00530674 -0.063467 -0.0376775 -0.0474622 0.00978543 -0.0034404 0.0095594 -0.0510413 -0.027186 -0.0675441 0.0363243 0.0364491 -0.00104262 0.00277987 -0.00174711 -0.011139 -0.00317613 0.0201117
internal_weight=487.393 17.0212 470.372 14.2204 456.152 452.197 22.678 429.519 334.174 29.2485 22.0902 304.925 240.793 17.1695 223.623 213.25 10.3728 22.872 190.378 39.288 151.09 102.587 99.9365 89.6353 77.0259 10.3012 64.1329 43.525 20.608 14.4117 36.8394 10.543 8.88335 10.7588 14.1824 11.4897 95.3449 34.7878 60.557 52.9667 32.4695 27.2934 7.61923 12.6094 9.22449 17.9891 7.15838 70.1337 65.8001 14.2026 9.18985 5.29421 34.4462 16.7896 11.5103 8.50155 6.17864 48.5032 43.1314 5.37187 27.421 59.0145 23.6922 7.7658 15.9264 35.3223 15.9446 19.3777 11.7576 12.794 7.83632 19.7039 6.77687 15.7103 11.0874 6.33267 6.63127 13.5764 6.61867 7.90775 21.2371 14.7265 11.9375 19.6742 8.04496 11.6292 6.84529 6.8922 46.634 42.791 40.2037 31.6876 27.3633 11.0073
internal_count=2096 70 2026 60 1966 1950 102 1848 1444 123 94 1321 1040 73 967 923 44 96 827 176 651 440 429 384 329 45 281 193 88 61 166 43 38 45 62 51 404 145 259 225 134 112 32 55 40 75 29 299 281 59 38 22 156 74 50 37 27 211 188 23 121 253 103 33 70 150 69 81 49 56 34 90 29 67 47 26 29 55 27 32 93 64 52 80 33 47 30 30 199 183 171 134 116 47
is_linear=0
shrinkage=0.05


Tree=8
num_leaves=95
num_cat=0
split_feature=4 2 4 2 0 5 4 0 3 5 5 6 5 3 4 1 2 1 0 1 4 1 7 3 2 3 7 6 2 1 5 5 0 4 4 8 0 4 1 3 1 3 6 7 4 2 7 3 0 3 1 8 8 3 4 0 5 3 5 6 6 7 3 5 7 5 8 6 4 5 2 1 1 7 7 1 6 8 7 7 7 2 2 7 0 2 4 8 5 5 3 1 3 5
split_gain=12.3315 6.32116 6.31723 12.1279 6.13814 7.48938 5.85006 8.02136 13.4061 6.5063 5.48384 5.45205 7.14178 4.96983 4.9665 7.18767 4.80141 4.61249 6.07511 8.44131 10.979 9.83178 7.06077 5.58682 5.23549 7.04085 6.8601 5.28757 5.03557 4.63685 5.14461 5.94078 4.56805 9.33298 5.9391 7.49357 7.98816 7.16005 5.7237 4.73974 4.66329 4.54203 4.5264 4.4993 4.40195 4.39465 13.2323 4.38491 4.90609 5.189 6.36148 4.5702 5.63643 8.54752 4.78239 4.8926 4.31631 4.22409 4.18875 4.03896 5.17451 4.98689 4.03866 5.19741 5.64503 4.06288 4.03339 3.98546 3.90059 3.82537 6.66631 3.78538 3.70276 3.69037 9.61526 3.6736 3.62819 3.54332 3.52409 3.41111 3.36658 3.35294 3.31378 3.26976 3.26129 3.17271 6.1713 3.08807 3.03874 5.08397 4.1714 5.4479 5.70949 2.98454
threshold=257.74916656905299 18301.936797623479 409.11840539485985 26953.596417891404 4.7245490690906484 487.59857793244947 295.93565051145885 7.3325537051933809 5.6919646778610646 349.62359162489071 459.88821983835436 10.150185533006125 475.06636474048668 8.92118305009007 333.27583171351745 164.88807745938968 13683.034189454165 136.11675204275463 8.1785327084512112 210.09208302304776 352.80529025789468 213.22313849735355 58.812014611668552 9.0872493566478756 18253.093322834127 8.742900274953163 64.504379827334233 16.860563477566306 11690.859304831547 189.46082069974941 444.03327520483543 455.94752894715526 6.3167450082951087 383.66250898365382 333.53256261154587 3.5719832105876739 6.8766015424844342 347.05163049263359 207.05816781664979 4.9806100505689885 179.26029932374459 7.1073357703638154 16.254297632143167 79.407010643831669 316.56986702603325 15801.340274393266 73.861260659038479 5.3021144059030751 5.9857675535116019 6.344774343518627 196.13305699825528 4.4899878763119858 3.4569712707869247 7.2686838851475279 341.03296829266441 7.2710072251008704 398.01253194859498 7.6313820254113747 484.72602544354362 10.817140325190026 14.036129134835479 73.55928584739199 7.4719317362209283 473.47349447030803 60.790379590060972 424.25408766214201 4.3896665401591397 13.951542521987564 369.65272614929046 393.51351723809415 26772.593108870551 200.17681165745014 216.40495574934019 67.664664944070282 57.336880530954041 185.76723203851458 15.870390041450863 4.3552078077667113 84.771768700166618 63.283496387177948 83.211537788606122 15269.228425769539 29045.672326671989 71.72220957902806 7.3814330456995858 23103.531991477965 312.39354888057716 3.7166616078865231 398.54595898970143 369.40894893822923 6.9017052987051972 179.67345069192197 6.235137755104442 424.25408766214201
decision_type=2 2 2 2 2 2 2 2 2 2 2 2 2 2 2 2 2 2 2 2 2 2 2 2 2 2 2 2 2 2 2 2 2 2 2 2 2 2 2 2 2 2 2 2 2 2 2 2 2 2 2 2 2 2 2 2 2 2 2 2 2 2 2 2 2 2 2 2 2 2 2 2 2 2 2 2 2 2 2 2 2 2 2 2 2 2 2 2 2 2 2 2 2 2
left_child=1 -1 4 84 5 14 7 8 83 13 -9 -10 -13 16 -2 -16 41 -11 19 32 21 77 72 28 81 26 -26 43 -20 42 44 -32 33 39 38 80 37 -37 62 -19 -39 -8 58 -28 -31 46 -41 -18 67 50 -50 52 53 -51 55 71 -38 -12 79 -58 61 -61 78 64 93 75 69 -49 -56 -22 -71 -54 -23 74 -62 -66 -15 -21 85 -30 -36 -24 -53 -6 -4 88 -87 -33 89 -34 91 -90 -93 -64
right_child=2 -3 3 -5 6 -7 9 10 11 17 57 12 -14 76 15 -17 47 18 23 20 66 22 24 -25 25 -27 27 -29 29 30 31 87 34 -35 35 36 56 40 -40 45 -42 -43 -44 -45 -46 -47 -48 48 49 51 -52 82 54 -55 68 -57 59 -59 -60 60 73 -63 63 -65 65 -67 -68 -69 -70 70 -72 -73 -74 -75 -76 -77 -78 -79 -80 -81 -82 -83 -84 -85 -86 86 -88 -89 90 -91 -92 92 -94 -95
leaf_value=0.011246896917194424 0.069373107267527073 -0.066862453001086009 -0.075833176776368874 0.041605841725134853 -0.084023705171690416 -0.028730007229411759 0.06310303463339699 -0.067634793385003694 -0.048457296018699088 -0.030091185131399231 0.036036493613689199 0.051510821156862632 -0.01794146278763702 -0.069427871343089365 -0.055665990225844335 0.04099884958363078 -0.055772909758455315 -0.032066342736499914 0.071977670721410883 -0.073651246676442544 -0.10928955753707321 -0.021177474916507552 -0.0043964127410869025 -0.030269057817624852 -0.080745497981655825 0.075190811010339115 0.044669533868823302 -0.051718350587951933 0.0044000413574398897 -0.0005050532472417543 -0.060211276185341771 0.049813368697533368 0.020243169095300897 -0.053553725710363854 0.053166638692267731 0.024411937913187218 0.054231850411751187 -0.0044046243827981779 0.048754350719463962 0.052885399109139655 -0.091347317469978997 -0.0061496824146712176 0.041531025777827496 -0.015187110841155163 0.060555763482436346 0.042420635702437953 -0.083441068112492675 -0.0037182384485581043 -0.031397751472806448 0.029442183749337627 0.051564811081541928 -0.029334601222553783 0.051090641723776989 -0.075107327005772356 0.080880162828286778 -0.058600971866114321 0.062128572229623008 -0.050569280991524683 0.032438640820068219 0.0027763479800253796 0.060860889190731099 -0.078377896466033492 0.076694692863978883 -0.058978343837323637 -0.013046919056452728 0.012920841304857104 0.007069414535848648 0.072884486342341626 -0.00020369668252191803 -0.06321979775327119 0.027389488041458146 -0.032273946409423215 0.046979207148670238 0.055845814080464212 -0.06620117133990884 -0.087178594237784388 0.0041546098727302137 -0.00016899116880308513 -0.039961633698288285 -0.060910004309216809 -0.0084816975131352945 -0.055815263805656927 -0.095695805189775662 -0.019044020259848079 -0.0069456440869225117 -0.026866197464825381 0.042444093997564825 0.0039412753809124641 -0.07569709980102915 -0.074161915567918332 0.052883290539764476 0.037509831583438041 -0.048422291345669805 0.00081163452071556386
leaf_weight=3.4824832379817954 8.5628541409969383 10.109050557017325 7.885382413864134 4.0509761273860923 4.4382370710372951 4.8139201551675788 4.5313045680522901 9.8579514771699888 2.4639953523874309 8.5571990758180601 2.9138623923063269 12.481653973460199 5.2618897855281821 5.6530048549175245 2.5140483826398841 8.1805226504802686 5.0982733666896811 2.8821807801723471 5.2718501389026633 5.521079570055007 2.7119159400463131 2.3524234741926184 6.4337814003229123 4.8893063664436331 2.3947172313928666 3.5382690578699103 8.6302424371242541 2.8782805502414694 3.2143246680498105 3.6638564318418529 2.5048931837081936 6.2583961188793173 2.3480890691280392 3.6441008895635596 14.92092387378216 3.6304740160703641 6.5160278379917171 2.3172571212053299 4.6208651363849631 4.5775346904993048 4.6116725206375122 4.9585059881210327 4.36069232225418 4.9345979690551749 15.183547303080557 32.001125365495682 2.9125085920095444 3.6104163974523535 3.8233710378408414 2.809012249112131 5.8401153832674026 4.615704968571662 3.0900480002164823 6.4298575818538666 3.0354798287153235 3.9349882006645203 2.9338008165359524 2.724218487739563 3.0067009776830664 4.3988382220268276 2.9142557680606824 3.3229934126138687 2.2531418651342419 7.7366260141134253 3.0805245041847211 3.536807119846344 3.1029143482446662 3.2055203765630722 2.9004189074039459 9.3255413770675641 2.5947324782609931 2.4345760643482208 13.03265607357025 4.5228346288204193 3.0442316234111786 3.6528563499450684 2.3807979077100754 2.3340846747159958 4.7443858385086051 5.2890409231185913 2.6005205214023581 6.2506514340639114 3.1753754317760468 3.4338240325450897 2.1967303603887558 4.4883908331394187 11.289908692240713 8.8668739050626737 2.4438488483428946 3.6319819241762161 3.4929903149604788 5.7865508049726468 2.9025634825229645 3.0495555996894836
leaf_count=15 40 41 32 18 18 21 21 40 10 35 12 57 22 23 11 37 21 12 25 23 11 10 27 20 10 16 38 12 14 16 11 29 10 15 67 16 29 10 20 21 19 21 20 21 71 146 12 16 16 12 26 19 13 26 13 16 13 11 13 19 13 14 10 32 13 15 13 15 12 38 11 10 58 20 13 15 10 10 20 22 11 26 13 14 10 19 50 40 10 15 15 25 12 13
internal_value=0.000104675 -0.0468489 0.00145897 -0.0314642 0.00247696 0.0270518 0.00111084 -0.016263 -0.000326758 0.00305486 -0.0451404 0.0212364 0.0309146 -0.0105701 0.040996 0.0182752 -0.00588197 0.00612033 0.00712199 0.00359603 -0.0102623 0.000216784 0.00831921 0.0210458 -0.00407233 0.010475 -0.00168044 0.00983431 0.0254001 0.0207094 0.030525 0.0111103 0.00976501 0.0232302 0.00479972 0.0169416 0.00452688 -0.0324681 -0.00499934 0.0298336 -0.0622709 0.0269179 -0.00185089 0.022895 0.0486858 0.0343512 -0.000125243 -0.0116458 -0.0070456 -0.0134185 0.0187406 -0.0230027 -0.0124461 -0.0433198 0.00608127 -0.0159938 0.0186536 -0.00580985 -0.0182865 0.0076856 -0.00108897 -0.0321474 -0.00885402 -0.0254814 -0.00884002 -0.0304711 -0.0447101 0.0323079 0.0412607 -0.0556905 -0.0434965 0.0143538 0.0365579 0.0217925 -0.00405598 -0.0532633 -0.0476219 -0.0518167 0.000569454 -0.0362224 0.0440168 -0.0297347 -0.0563811 -0.0556793 -0.0608237 0.00585456 0.0227277 0.0229218 -0.00706539 -0.0370935 0.00521213 -0.0097448 0.00880455 0.0330547
internal_weight=484.811 13.5915 471.22 14.1331 457.087 24.0713 433.015 43.5756 28.0796 389.44 15.496 20.2075 17.7435 71.5268 19.2574 10.6946 63.493 317.913 309.356 246.846 76.0359 58.3008 50.4456 62.5095 35.0605 22.3761 18.8378 16.4431 57.6202 52.3483 36.4776 17.6302 170.81 46.0175 124.793 55.7338 38.2124 10.5594 69.0591 42.3733 6.92893 9.48981 15.8708 13.5648 18.8474 39.4912 7.49004 54.0032 48.9049 42.0889 9.66349 32.4255 24.6344 9.23887 15.3955 9.45961 27.653 5.63808 11.5101 21.137 18.2032 7.72183 64.4382 23.3095 15.5729 10.2702 17.7351 6.81594 5.9359 14.6322 11.9203 5.52462 15.3851 10.4813 5.95849 6.73338 8.0338 7.85516 41.1287 8.50337 17.5214 12.6844 7.79108 7.87206 10.0821 36.3843 15.7783 15.1253 20.606 5.98007 14.626 11.133 8.68911 5.3027
internal_count=2096 56 2040 60 1980 109 1871 184 121 1687 63 89 79 303 88 48 270 1384 1349 1068 324 251 218 281 150 97 81 71 261 236 167 80 744 206 538 244 166 45 294 191 29 42 69 59 87 179 33 228 207 176 42 134 102 38 64 39 121 23 49 92 79 33 274 98 66 43 73 31 25 60 49 23 68 46 26 28 33 33 176 36 78 53 32 32 42 156 69 69 87 25 62 47 37 23
is_linear=0
shrinkage=0.05


Tree=9
num_leaves=95
num_cat=0
split_feature=4 1 4 2 0 3 2 4 0 3 5 6 5 5 3 2 3 1 0 1 7 4 3 6 0 6 6 4 2 8 4 1 0 4 1 4 5 1 8 0 1 7 2 3 5 0 3 8 8 1 3 1 3 1 5 2 1 8 3 8 4 1 7 2 0 0 7 6 0 6 3 0 3 1 7 8 7 1 0 6 3 6 4 6 2 4 7 0 6 0 1 1 0 7
split_gain=11.1816 5.83521 5.93555 11.0086 8.31598 6.55308 5.73543 4.71895 7.92233 13.2385 5.79593 5.49975 6.13115 4.9731 4.55101 4.27737 4.23092 4.20867 5.58992 7.30491 6.02738 5.79224 6.79153 6.71524 5.29469 5.88413 9.67366 5.25835 4.22977 4.62914 4.11532 8.9693 5.7548 6.36835 6.35 5.61231 7.41247 5.18289 5.68628 9.53699 5.1717 5.09688 11.2907 6.42477 6.85804 4.84256 4.43828 3.8705 7.55844 4.25751 4.9017 4.81126 4.04041 4.98954 5.46594 4.57549 4.64859 3.85961 3.81584 3.80433 3.76681 5.64593 3.67453 3.66303 3.62184 4.05323 3.5762 4.02743 3.47974 3.47152 3.45002 4.46733 4.69421 5.81828 4.35886 4.96378 5.14764 5.06648 4.41003 3.74629 3.41782 3.26906 3.17124 3.15452 5.55112 3.04742 2.99822 2.98632 2.95618 2.83207 3.26866 3.49378 2.78989 4.82463
threshold=257.74916656905299 280.6791609674836 409.11840539485985 26953.596417891404 4.7245490690906484 5.2592295105369358 18301.936797623479 295.93565051145885 7.3325537051933809 5.6919646778610646 349.62359162489071 10.150185533006125 475.06636474048668 459.88821983835436 8.92118305009007 13683.034189454165 7.1073357703638154 136.11675204275463 8.1785327084512112 230.68534864752974 61.113329777169014 355.12602511889276 5.3362088830447512 14.298549807362521 5.9637722824547579 11.757861238064097 14.15857043069977 330.88214847262469 19882.844915943784 3.8727487177206128 377.15981807573962 178.97722557251214 6.3167450082951087 333.53256261154587 217.94088900349939 349.78641803618711 488.68707108534915 208.82776130317311 3.6412169878052874 6.8650210073924978 193.16505600555129 73.861260659038479 16108.185551411532 6.0555781249398031 452.93238882588633 7.0397446385810607 7.7099152384910878 2.4599008538196849 2.7462267993994809 210.09208302304776 8.1290870449469796 207.05816781664979 7.4719317362209283 185.76723203851458 463.34308495662384 18253.093322834127 192.17211135330066 3.8375913157085502 7.6313820254113747 3.8645147271435762 331.11639908712237 164.88807745938968 77.591593002147007 31364.464048223294 7.6159458740571644 7.0397446385810607 66.688039489657129 14.010964880947826 9.6720639874340915 14.298549807362521 5.3021144059030751 5.9857675535116019 6.344774343518627 196.13305699825528 49.852446212588823 4.4899878763119858 66.150626146094126 199.02632357062092 7.309576440730841 13.951542521987564 7.6423643678816662 15.870390041450863 343.03686806238346 15.149824908469499 23478.064431984651 360.60137742724538 71.72220957902806 7.3814330456995858 15.334357893400865 5.7354292357364658 159.35868511327581 203.08769997513653 6.8387230009186117 84.082419053101887
decision_type=2 2 2 2 2 2 2 2 2 2 2 2 2 2 2 2 2 2 2 2 2 2 2 2 2 2 2 2 2 2 2 2 2 2 2 2 2 2 2 2 2 2 2 2 2 2 2 2 2 2 2 2 2 2 2 2 2 2 2 2 2 2 2 2 2 2 2 2 2 2 2 2 2 2 2 2 2 2 2 2 2 2 2 2 2 2 2 2 2 2 2 2 2 2
left_child=6 2 4 87 5 -2 -1 8 9 86 14 -11 -13 -10 15 16 -9 -12 19 30 -21 22 -20 63 -22 -26 -27 28 -25 -30 32 59 41 34 47 36 -35 38 -37 -40 85 43 -43 44 -19 -33 -47 -34 -49 51 64 52 92 54 69 -55 -57 -28 -15 -32 -7 -62 -14 68 65 -51 67 -63 -24 -54 -17 79 73 -73 -74 76 77 -76 -78 -72 -39 -16 88 -44 -85 -41 -6 -4 -29 -45 -91 -92 -50 -94
right_child=1 -3 3 -5 7 60 -8 10 13 11 17 12 62 58 81 70 -18 18 21 20 24 -23 23 27 25 26 57 82 29 -31 31 45 33 35 -36 37 -38 80 39 40 -42 42 83 89 -46 46 -48 48 49 50 -52 -53 53 55 -56 56 -58 -59 -60 -61 61 66 -64 -65 -66 -67 -68 -69 -70 -71 71 72 74 -75 75 -77 78 -79 -80 -81 -82 -83 -84 84 -86 -87 -88 -89 -90 90 91 -93 93 -95
leaf_value=0.010712384573485964 -0.036736620971765242 -0.059168141402518609 -0.072508569007125878 0.040022986607689159 -0.080381904215637845 0.070635514284325004 -0.063801625883742899 0.061394271558081463 -0.064478849938950825 -0.045889188009607437 -0.028512029181679738 0.053310258834851944 0.028262432223511776 0.034434141260020729 -0.06590421894020175 -0.050810852968604214 -0.0058350524443934303 -0.078533805000371937 0.063274664014767973 0.010923572148216031 -0.096019353274537964 0.051237646371939942 -0.015886996822305297 0.029284569912787214 -0.092241546841174735 0.048434210492132854 0.00085730775638294615 0.0210335761165477 0.012064413801081468 -0.087063076619561863 0.075637940997698147 -0.066841598677033653 0.055533259730943245 0.057581127172555882 0.027917536760068303 0.046474626807616597 0.00017290130601958428 -0.07772586034924496 -0.07578930030570713 -0.045791016343316289 0.062048724617425423 -0.068176656143463299 0.05136092106550269 0.061191923684971831 0.033361016209948947 0.027383026195491968 -0.056510278895183709 -0.083700018325877867 0.027207920620023723 -0.076731790645381603 0.025475859843683321 0.046908973008707437 0.063043635516239399 -0.094467283888047648 -0.042989945658795575 -0.075050827966422179 0.0040620192330066869 -0.073345878231879519 -0.047956997895047475 0.00093907402409114892 -0.041462605421277575 -0.036838994089625619 -0.057318276592203045 -0.06308655802034957 -0.10424565355479265 0.0025096499183318989 0.073969125021634025 0.054878640023495157 0.052335573113086814 -0.01297742171440331 -0.0035286341644161744 -0.029671005578002063 0.026349325106768424 0.049802296199041751 -0.083275544515644506 -0.06587835934765944 0.034719381323307236 -0.011010359245964111 -0.026906708005862374 0.07128687980015945 0.0029568790506446711 0.0039494546086867848 -0.0038073998299506203 -0.053786479880417654 0.052703900125108165 0.02007647718230551 -0.018078516900655584 -0.0065869697377387328 0.072035726665954772 -0.025114376959933585 0.052983576349030517 -0.009430926187399746 0.0020549078216014808 -0.071455703028526288
leaf_weight=3.4736662060022345 2.9682827144861248 3.9421725571155539 7.8357931822538358 4.0018925666809073 4.4080745726823833 7.5630940943956402 10.065372660756109 4.4272044599056226 9.8242209106683713 2.4715815335512188 8.5789962708950025 12.02241697907448 2.6373679190874091 2.8974057883024207 5.6573168039321882 4.8787254095077506 4.9644213914871216 2.3938722908496848 5.8617968112230292 9.7451878339052218 3.2207733541727093 12.277197390794752 12.996195763349535 4.2090061008930224 2.6677601337432852 4.4280679821968061 2.8384499847888947 4.5651157200336439 2.2573041021823883 2.4626201987266541 2.8609103262424496 7.0947100222110731 2.2549151778221121 14.842329576611521 13.551622241735457 8.2549146711826378 9.0520983338356 2.9310130029916754 3.6263716518878928 3.0812977254390699 4.1206748485565186 4.3720367550849906 5.9727838188409788 13.082109928131105 3.199684664607048 3.8325146436691284 2.6782192885875702 3.4115316271781913 9.3535258769988996 2.9448679983615857 2.5628825128078452 4.5639756321907035 3.6067674309015292 3.4476339221000654 4.1142526865005493 2.9633843451738358 4.9724862426519394 4.5801396667957306 2.7288428992033005 4.2167025506496429 2.488906890153884 2.2125763744115812 2.3917073458433151 3.459626078605651 2.4859797358512878 3.5701399743556976 4.7312530279159546 2.6074151694774628 2.1830573678016654 2.5730636417865753 3.6140983700752249 3.8430556058883649 4.0938464105129233 5.7468498200178146 4.4318474531173759 6.8571194112300864 6.1158114522695524 5.3573559373617172 5.5261818766593933 3.1157661527395248 2.377131775021553 2.3792853206396103 3.114226981997489 2.5537683963775635 2.3497987687587738 4.0827880203723907 3.4362834393978119 2.2004322558641434 7.5234270989894867 2.3220464289188376 10.198402151465414 2.8740137666463843 25.861450925469402 2.4428899735212317
leaf_count=15 12 16 32 18 18 37 41 21 40 10 35 56 11 12 23 20 21 10 28 42 13 59 56 19 11 19 12 21 10 10 13 29 10 68 60 37 39 12 15 13 19 18 27 62 14 17 11 14 41 12 11 20 16 14 17 12 21 19 11 18 11 10 10 14 10 15 22 12 10 11 16 16 17 26 18 28 26 22 23 15 10 10 14 11 11 18 14 10 36 10 48 13 111 10
internal_value=0.00011228 0.00140711 0.00192125 -0.0300958 0.00291912 0.0324981 -0.0446838 0.00135865 -0.0143878 0.00177206 0.00310977 0.0238154 0.0339189 -0.0430118 -0.00979075 -0.00526877 0.0258568 0.00602694 0.00699704 0.00362119 -0.0206661 0.02055 0.0128029 0.00588566 -0.0380242 -0.0251549 -0.0100476 0.0232975 -0.00715778 -0.0396553 0.00669615 -0.0145177 0.00893055 0.00397352 -0.00376493 0.0179645 0.0358328 0.00297013 0.0131813 -0.00525012 0.0174177 0.0237106 -0.000315956 0.0344639 -0.0145266 -0.0382658 -0.00712686 -0.00905706 -0.0109036 -0.00761263 -0.0355302 -0.0025604 -0.0063655 -0.0235623 0.00166314 -0.0463737 -0.02548 -0.0449548 -0.00552721 0.0311338 0.0429814 0.0256103 -0.0124377 -0.0166574 -0.0529006 -0.0333085 0.0430885 0.0127764 -0.00607533 0.0313911 -0.0107245 -0.0067088 -0.0127726 0.0179542 -0.0218723 -0.0288508 -0.0170035 -0.0437268 0.00546692 0.0311092 -0.0415939 -0.0452236 0.0411845 0.0269624 -0.00275609 -0.00825336 -0.0530894 -0.0580553 0.0527753 0.044087 0.0295513 0.0392615 0.00353378 -0.00428964
internal_weight=481.938 468.399 464.457 14.0381 450.419 22.5715 13.539 427.847 42.8179 27.3674 385.029 19.5231 17.0515 15.4505 71.0089 62.9723 9.39163 314.021 305.442 244.532 27.4804 60.9096 48.6324 42.7706 17.7352 14.5144 11.8467 24.1317 8.92893 4.71992 217.052 20.6831 196.369 147.05 94.6814 52.3686 23.8944 28.4742 23.166 14.9111 11.2848 49.3185 15.2484 34.0701 5.59356 13.6054 6.51073 81.1297 78.8748 75.4633 11.5639 63.8994 59.3355 21.6776 10.2941 11.3835 7.93587 7.41859 5.62625 7.07761 19.6032 12.0402 5.02908 18.6389 9.00099 6.51501 9.55124 4.81999 15.1793 6.17983 53.5807 48.7019 41.9721 9.58991 32.3822 28.2883 21.4312 9.7892 11.642 6.72986 5.30814 8.0366 15.2028 10.8764 4.90357 7.16409 7.84436 10.0362 12.0885 28.4766 15.3945 13.0724 37.6579 28.3043
internal_count=2096 2040 2024 60 1964 104 56 1860 182 119 1678 87 77 63 302 269 42 1376 1341 1064 116 277 218 190 74 61 50 110 39 20 948 88 860 636 405 231 107 124 102 65 50 224 67 157 24 57 28 345 335 321 48 273 253 91 44 47 33 31 23 31 92 55 21 80 37 27 44 22 66 27 227 207 176 42 134 117 89 40 49 31 22 33 71 49 22 31 32 42 57 133 71 61 162 121
is_linear=0
shrinkage=0.05


Tree=10
num_leaves=95
num_cat=0
