tree
version=v4
num_class=1
num_tree_per_iteration=1
label_index=0
max_feature_idx=8
objective=binary sigmoid:1
feature_names=Column_0 Column_1 Column_2 Column_3 Column_4 Column_5 Column_6 Column_7 Column_8
feature_infos=[0:13.999999999999998] [73.492233689061095:317.33812405558257] [320.94261127435902:61227.196007712133] [0.53035129469961539:13.127000000000002] [129.00000000000003:481.03064230599722] [181.483753985146:753.34261955830459] [2.1999999999999886:28.300000000000011] [8.1758763842742681:124] [1.45:6.7389999999999999]
tree_sizes=9622 9926 9944 9930 9953

Tree=0
num_leaves=95
num_cat=0
split_feature=4 2 4 0 0 0 2 0 1 3 6 3 4 1 8 8 1 1 3 4 7 1 1 1 0 3 1 6 0 5 2 2 1 6 6 5 3 7 3 3 2 7 6 5 0 5 7 0 1 2 0 3 2 1 3 8 4 2 6 6 7 0 0 3 3 3 0 2 6 7 8 6 1 1 7 3 4 0 3 2 8 4 6 2 5 4 2 7 7 6 6 7 7 1
split_gain=33.0909 28.2016 21.6739 42.2986 19.8335 18.3043 17.0768 14.0331 15.0797 11.8308 11.0327 10.7023 10.2062 9.07351 8.97737 8.8311 8.77108 8.75713 8.40596 8.36978 8.3537 8.64643 7.83186 7.78361 7.43659 11.7451 9.27767 7.78523 7.08701 7.5249 10.5907 6.86156 6.21807 5.86566 7.06049 5.77475 5.71969 10.6149 5.63586 7.00711 5.63586 5.1179 7.1066 5.0165 6.56916 5.86437 4.99416 4.86441 4.67344 9.61437 5.89237 19.8232 9.64347 9.11108 5.53556 4.92152 4.50457 4.48549 4.45243 5.68693 5.25585 4.59376 4.43745 4.70032 6.89931 4.39405 7.22733 6.62459 4.99416 4.92256 8.04129 4.84778 4.37802 7.67409 4.36989 4.34865 4.28424 4.10485 7.57018 4.09946 4.07625 4.70668 5.5099 5.45053 4.06084 4.01518 3.97158 3.96043 11.7498 5.03003 7.00799 4.02078 3.86267 3.85803
threshold=296.27654821664925 18414.085099472719 363.51730902931126 7.7550193104860066 6.494037065684922 7.9976330383382193 19008.813163841598 5.2108308321489618 143.36577527003615 9.3391245146213269 12.378728378505345 6.4755535745465709 323.5363042889748 204.7327400377865 4.5670668341258525 4.4810162752888294 257.62681102267294 222.49554460967724 7.1253445604104124 259.1637027402017 60.133230117118728 223.71269802326466 161.86141914974544 200.97161195451051 6.9003213422035232 5.8857748265781922 176.35297760779432 13.272012732826143 8.7207455210818861 361.42643532372807 26158.284849533014 11922.544286353988 191.49699234624751 16.618103464136656 11.93261762010866 361.42643532372807 6.6547493293203228 67.304132236872263 6.0053046296777657 7.9092939484518228 13159.368307211533 66.617005089647549 14.392326273710639 330.30434900209895 7.1169065058700989 305.72847210908276 59.789904493810134 6.6301226136697728 184.22376983293779 34238.118025767959 8.0474557510629037 8.4246316781259267 19744.820833656922 192.37431002380382 9.0626898776583271 2.9135529616101077 336.47182900037916 21893.481429603384 14.220644582717911 18.209185586724036 68.692867951676718 7.0446712072460871 7.2351306138262137 6.1938729346141459 7.4180736980552089 8.4098618874036006 7.0446712072460871 31042.811337187322 10.839022174700888 77.93596298662986 3.8240115393437111 11.004504054844348 170.83149224746407 201.65126052764936 66.617005089647549 6.7993874489442048 312.92503296445744 7.4963714437828299 7.4301620315649926 17483.987663968281 4.8067562833713042 339.4473309408188 14.775048284371708 23030.748725361813 477.11344080953899 326.1168018144258 15707.000401668918 62.54648535369099 59.925113486438377 16.931889767399188 18.703967747001148 51.166863614576251 58.955610948197211 189.31900667412739
decision_type=2 2 2 2 2 2 2 2 2 2 2 2 2 2 2 2 2 2 2 2 2 2 2 2 2 2 2 2 2 2 2 2 2 2 2 2 2 2 2 2 2 2 2 2 2 2 2 2 2 2 2 2 2 2 2 2 2 2 2 2 2 2 2 2 2 2 2 2 2 2 2 2 2 2 2 2 2 2 2 2 2 2 2 2 2 2 2 2 2 2 2 2 2 2
left_child=1 5 7 6 38 -1 17 11 33 -5 20 12 -2 62 15 16 22 31 56 -15 35 65 41 -14 25 -8 -26 -28 29 30 32 -4 -16 34 -9 -10 37 -33 -3 -40 -37 42 -12 44 92 -46 -21 -31 49 85 52 -52 53 93 55 -54 -17 -23 60 61 -55 -60 63 -6 -65 67 -67 69 -69 -22 -71 -72 -27 -74 -61 -48 -49 84 -79 86 -78 82 -82 -84 -42 -45 -63 88 89 91 -91 -57 -24 -50
right_child=2 4 3 9 13 -7 24 8 10 -11 14 -13 23 19 28 18 -18 -19 -20 46 21 57 43 -25 26 72 27 -29 -30 47 -32 36 -34 -35 -36 40 -38 -39 39 -41 77 -43 -44 48 45 -47 75 76 50 -51 51 -53 54 58 -56 87 -58 -59 59 74 -62 79 -64 64 -66 66 -68 68 -70 70 71 -73 73 -75 -76 -77 80 78 -80 -81 81 -83 83 -85 -86 -87 -88 -89 -90 90 -92 -93 -94 -95
leaf_value=0.49094143473445812 0.53013372650671742 0.39636168930057608 0.44254489262174396 0.50080165190337755 0.33903081621222986 0.34094184531517469 0.33305885026552717 0.43203423255554713 0.36997128740276597 0.38298448557996201 0.38999159229075986 0.50956939159459325 0.45268675759789878 0.3349357538487765 0.53013372650671753 0.3349357538487765 0.38561215059651122 0.32800564831062479 0.46375061029915859 0.37597737886916405 0.48988013476383602 0.43763991792418544 0.42502712584474928 0.34094184531517474 0.5058783571231863 0.3987504756792572 0.4806717967834383 0.38999159229075986 0.53013372650671742 0.51511849784072195 0.3549560587367705 0.34995098251477208 0.43120986706015918 0.46706976610953654 0.33994083007077502 0.495098192952728 0.35495605873677044 0.47407687282033439 0.53013372650671742 0.42502712584474928 0.46545274148396781 0.38298448557996201 0.49303727921425811 0.46006265939873864 0.44162290489663897 0.35226101769415591 0.48809108624193021 0.53013372650671742 0.45594083192179874 0.41188880076200324 0.50010326917472658 0.3863036413903399 0.53013372650671742 0.50210529966352591 0.53013372650671742 0.45594083192179874 0.42502712584474928 0.36938245490606025 0.36897027215836631 0.50911240637432387 0.41884438462933937 0.41188880076200324 0.32575978077511264 0.46006265939873864 0.35226101769415591 0.48508804050873111 0.38999159229075986 0.36196316544756835 0.46006265939873864 0.50010326917472658 0.45594083192179874 0.3759773788691641 0.49191314444781997 0.38999159229075986 0.41547198033002491 0.41334861466008616 0.49779323399534259 0.43816545092749531 0.33493575384877655 0.37247382551376518 0.48162298773965523 0.49303727921425811 0.34094184531517474 0.44004235451074475 0.40400580571235561 0.50761088350772432 0.49191314444781992 0.47694725388258896 0.34094184531517469 0.38561215059651122 0.49191314444781992 0.53013372650671742 0.49860174630812698 0.53013372650671742
leaf_weight=14.033372163772585 2.6163914203643817 2.6163914203643781 5.7084903717041078 20.455423831939701 5.2327828407287615 2.3785376548767081 3.805660247802737 3.5678064823150617 4.9949290752410915 2.3785376548767081 2.854245185852049 21.882546424865723 4.5192215442657471 3.3299527168273917 2.6163914203643781 3.3299527168273908 3.8056602478027335 6.1841979026794425 4.5192215442657471 3.5678064823150617 22.358253955841064 5.9463441371917707 2.854245185852049 2.378537654876709 6.1841979026794425 5.7084903717041007 4.0435140132904035 5.7084903717041016 6.6599054336547843 9.9898581504821795 2.8542451858520508 3.3299527168273952 4.0435140132904053 2.3785376548767081 4.9949290752410889 2.8542451858520534 9.989858150482176 3.5678064823150635 3.5678064823150635 2.8542451858520508 6.1841979026794451 4.757075309753418 4.0435140132904053 5.7084903717041078 4.5192215442657471 3.0920989513397217 3.5678064823150635 2.8542451858520534 4.0435140132904044 3.8056602478027335 24.974645376205448 4.5192215442657462 2.8542451858520499 3.5678064823150661 3.8056602478027335 4.043514013290407 2.378537654876709 4.0435140132904053 7.1356129646301332 2.3785376548767081 4.0435140132904053 3.8056602478027326 8.5627355575561506 2.8542451858520508 3.0920989513397217 3.3299527168273908 4.9949290752410889 2.3785376548767081 2.8542451858520508 4.9949290752410871 4.0435140132904053 3.5678064823150635 5.232782840728758 2.8542451858520508 2.6163914203643799 4.2813677787780762 6.184197902679446 3.8056602478027335 3.3299527168273926 2.8542451858520508 3.0920989513397199 4.0435140132904044 2.378537654876709 3.3299527168273926 4.757075309753418 19.979716300964355 2.6163914203643799 19.741862535476685 2.3785376548767081 3.8056602478027344 2.6163914203643799 3.3299527168273926 4.757075309753418 3.0920989513397217
leaf_count=59 11 11 24 86 22 10 16 15 21 10 12 92 19 14 11 14 16 26 19 15 94 25 12 10 26 24 17 24 28 42 12 14 17 10 21 12 42 15 15 12 26 20 17 24 19 13 15 12 17 16 105 19 12 15 16 17 10 17 30 10 17 16 36 12 13 14 21 10 12 21 17 15 22 12 11 18 26 16 14 12 13 17 10 14 20 84 11 83 10 16 11 14 20 13
internal_value=0.448195 0.413349 0.452957 0.430312 0.392289 0.469202 0.40898 0.458412 0.455302 0.488529 0.457331 0.490321 0.446048 0.375011 0.463077 0.457917 0.460656 0.380726 0.412805 0.404684 0.441903 0.452372 0.462392 0.414154 0.433227 0.410824 0.457971 0.427591 0.482263 0.47456 0.435538 0.395155 0.470073 0.397608 0.378313 0.418277 0.379136 0.414154 0.458219 0.48342 0.429805 0.422882 0.450398 0.465402 0.438165 0.40532 0.425027 0.486209 0.468413 0.486057 0.463605 0.482666 0.456464 0.437474 0.472589 0.466941 0.372474 0.410012 0.425027 0.413349 0.457873 0.399131 0.352845 0.373592 0.404006 0.461093 0.42803 0.46794 0.415472 0.475793 0.450808 0.418458 0.432276 0.455941 0.460063 0.447322 0.473011 0.419495 0.389992 0.422332 0.464442 0.448384 0.427868 0.39875 0.438737 0.497045 0.444491 0.461919 0.443575 0.461271 0.42892 0.489447 0.471011 0.488091
internal_weight=498.541 59.9391 438.602 85.1516 43.5272 16.4119 62.3177 353.451 322.054 22.834 311.113 31.3967 9.51415 34.4888 226.675 178.628 168.4 28.7803 10.2277 14.7469 84.4381 58.512 164.595 6.89776 33.5374 17.6012 15.9362 9.752 48.0465 41.3866 9.51415 22.5961 6.65991 10.9413 8.56274 25.9261 16.8876 6.89776 9.03844 6.42205 20.9311 11.6548 6.89776 152.94 15.2226 7.61132 11.417 31.8724 137.717 29.4939 108.223 29.4939 78.7296 36.1538 42.5758 38.7702 5.70849 9.98986 29.0182 21.4068 7.61132 16.4119 19.7419 11.1791 5.94634 48.5222 8.32488 40.1973 5.23278 34.9645 12.6062 7.61132 13.7955 8.08703 4.99493 7.84917 21.8825 18.0769 7.13561 9.2763 19.0283 12.8441 8.80059 5.70849 10.9413 25.6882 6.42205 35.9159 16.1741 13.7955 6.42205 7.37347 7.61132 7.13561
internal_count=2096 252 1844 358 183 69 262 1486 1354 96 1308 132 40 145 953 751 708 121 43 62 355 246 692 29 141 74 67 41 202 174 40 95 28 46 36 109 71 29 38 27 88 49 29 643 64 32 48 134 579 124 455 124 331 152 179 163 24 42 122 90 32 69 83 47 25 204 35 169 22 147 53 32 58 34 21 33 92 76 30 39 80 54 37 24 46 108 27 151 68 58 27 31 32 30
is_linear=0
shrinkage=1


Tree=1
num_leaves=95
num_cat=0
split_feature=4 0 4 0 2 2 0 1 0 6 3 4 1 8 8 1 1 3 7 4 1 3 7 1 1 2 6 1 0 5 2 7 0 6 3 2 1 8 5 6 6 5 3 7 1 7 5 0 2 8 4 3 5 1 7 6 0 7 6 1 5 4 4 0 6 3 0 4 1 2 2 0 3 2 1 8 4 1 2 2 8 5 4 1 4 8 4 6 2 8 2 1 5 8
split_gain=29.6859 25.1416 19.5552 38.1507 17.8522 15.9306 12.8487 13.5169 10.6855 10.0075 9.88376 9.32119 9.08873 8.22265 7.95162 7.85946 7.79671 11.234 7.54583 7.55087 7.5385 7.43812 7.36909 7.0822 6.83203 6.82999 6.79831 11.1217 6.61921 6.87348 9.39662 6.51479 7.77362 6.39107 6.33359 6.03237 5.73441 5.6914 5.38915 5.18385 6.129 5.14903 4.95793 9.37385 4.92122 4.71375 5.30803 6.57117 5.19571 4.65985 4.90412 4.6291 4.62564 6.94035 4.53395 6.40174 4.52571 4.28949 4.25759 7.01968 4.2067 4.12494 4.66224 4.07609 4.20019 5.18552 7.40799 3.98416 3.92461 8.91617 6.05245 6.5893 14.3223 5.19129 9.45431 6.32014 5.77912 5.9748 5.51455 5.28922 5.84663 4.6977 4.4048 3.98962 3.89799 3.73447 4.27259 4.93575 4.75795 3.54094 6.24901 3.46946 3.41243 3.37925
threshold=296.27654821664925 6.6542146867728702 363.51730902931126 7.8121584167663514 17165.02761184466 19008.813163841598 5.2108308321489618 143.36577527003615 7.9309494901927637 12.378728378505345 6.4755535745465709 323.5363042889748 204.7327400377865 4.5670668341258525 4.4810162752888294 257.62681102267294 201.65126052764936 4.6584744910025178 53.320894754454692 332.62644352226272 222.49554460967724 7.1253445604104124 76.339414294047927 161.86141914974544 200.97161195451051 31554.980996952861 10.941122212138085 231.98593811386937 8.7207455210818861 361.42643532372807 26158.284849533014 65.361958491513491 7.8937273776355665 13.272012732826143 9.2965758156118969 11922.544286353988 191.49699234624751 4.7358617419704538 362.23970736295104 16.618103464136656 11.93261762010866 430.29587778567264 6.6547493293203228 67.304132236872263 197.25167246737027 42.739188116401571 330.30434900209895 7.1169065058700989 25000.149134044335 3.538712531272084 285.03896213948809 5.8182513192616705 477.11344080953899 196.65438458422537 66.617005089647549 14.392326273710639 6.6301226136697728 72.116082096424947 13.627649675044921 184.41208116401239 337.9155432154385 353.12284808605335 334.05378909161681 6.3099895956227998 9.9540731949806815 7.0471210644899545 7.1849327384257302 312.92503296445744 182.45107951809214 31347.368079924639 32833.39529981446 8.0474557510629037 8.4246316781259267 18171.94629622647 192.37431002380382 2.9135529616101077 354.91380990601596 193.16868149084021 10574.882734271237 15707.000401668918 3.8240115393437111 458.91417081547428 324.3623681776142 203.33578906352435 336.47182900037916 4.8067562833713042 339.4473309408188 14.775048284371708 23030.748725361813 3.8137187984664602 19882.844915943784 224.11509376628274 463.42544804776924 4.2565085969839265
decision_type=2 2 2 2 2 2 2 2 2 2 2 2 2 2 2 2 2 2 2 2 2 2 2 2 2 2 2 2 2 2 2 2 2 2 2 2 2 2 2 2 2 2 2 2 2 2 2 2 2 2 2 2 2 2 2 2 2 2 2 2 2 2 2 2 2 2 2 2 2 2 2 2 2 2 2 2 2 2 2 2 2 2 2 2 2 2 2 2 2 2 2 2 2 2
left_child=1 22 6 5 8 20 10 39 -3 18 11 -2 -6 14 15 23 17 -7 25 63 35 84 51 54 -13 38 27 61 29 30 36 41 44 -18 -5 93 -15 58 -9 40 -8 -28 43 -37 -33 -25 47 57 -49 91 -51 -1 53 -40 55 -11 -31 -47 59 -19 -48 62 -21 -20 -65 66 -66 -58 69 82 71 73 -73 74 -70 -76 77 81 -77 80 -80 -75 -62 -72 -16 -69 87 -87 -89 90 -79 -14 -35 -4
right_child=2 4 3 34 12 16 7 9 -10 13 -12 24 49 28 21 -17 33 37 19 26 -22 -23 -24 45 -26 -27 31 -29 -30 56 -32 32 -34 92 -36 42 -38 -39 52 -41 -42 -43 -44 -45 -46 46 60 48 -50 50 -52 -53 -54 -55 -56 -57 67 -59 -60 -61 68 -63 -64 64 65 -67 -68 85 70 -71 83 72 -74 76 75 78 -78 89 79 -81 -82 -83 -84 -85 -86 86 -88 88 -90 -91 -92 -93 -94 -95
leaf_value=-0.022601150459767606 0.079426311860146537 0.042692642826254089 -0.037853259080367276 0.052665294572077109 -0.092284010497906466 -0.10040368986437365 -0.01529739223518121 -0.084762406501794882 -0.080121653699550599 -0.05461457139374834 0.059174689284318516 0.0042718091332744788 -0.037892907978075561 0.079426311860146648 -0.10520240667311986 -0.058673393300526691 0.0077890604425436358 -0.046342546563978987 0.063435108037109902 0.0081317059516636796 -0.11150877298407012 0.014831071380036052 -0.033665491444630123 0.048510921381248087 -0.099726716869060983 -0.10704194981222284 -0.11286934604482715 -0.071982396433680762 0.079426311860146634 0.06461696831643407 -0.086911551420933583 0.039609317317420206 -0.073995729400878035 -0.1019909884853578 -0.030246251981525842 -0.09149474748031762 -0.016074841275297212 -0.040753028238679309 -0.042757491420077461 0.01800958383036123 -0.10063999370349352 -0.022864876673442665 -0.086911551420933597 0.024736437968187697 -0.027721745593548702 -0.016756989949591555 0.061340410350233576 -0.016020963475175537 -0.10406307698329578 -0.08938262500048999 -0.015491374521663024 0.055202504127261534 -0.047301062428089791 0.067439482851047922 -0.061105588023297644 0.043055629784110518 0.079426311860146537 0.064008205803287713 0.044693509554916772 0.05065700532265182 -0.00040424450077938216 -0.029769052880762554 0.057235375154212779 -0.027200427973385229 -0.058777579900701975 0.070908720585942983 0.051186650991766516 0.0476784741216143 0.041939997947433326 -0.045690834077536359 0.010829508216853266 0.045265946697657641 -0.054391646995897637 -0.068499964265625768 -0.10580791254988674 0.044076612458081185 -0.065119820475389709 -0.013787090982956452 -0.016346447746888728 0.0017493619048853928 -0.094538172378919774 0.010809530623258644 0.056436194475212864 0.080344658997760707 -0.021896995124912996 0.032006542750097532 0.043055629784110531 -0.099726716869060983 -0.0077305863398050819 0.007681475009875479 0.062254722322980953 0.041035803274468936 -0.030567617455698495 0.040129341592527422
leaf_weight=2.3822874575853374 2.5654865056276339 6.5945914387702924 3.3340770602226319 18.091731041669849 19.148915037512779 2.4234023243188885 3.5803154110908491 2.6580018252134314 2.4213815927505493 2.8887603878974897 21.569265425205231 4.5147275477647781 3.332034319639205 2.5654865056276304 3.4036472439765912 3.8549122810363761 3.3405540436506254 4.2823648899793687 5.4595817327499416 11.602943569421777 6.3282576203346244 4.5034935474395752 4.7541192322969428 10.653303414583204 2.4287338554859161 2.8835787028074256 3.5809475481510189 3.8502691388130179 6.5303292870521537 9.8331487476825732 2.9074541330337524 5.9329198300838453 3.8258720040321341 4.5730244219303131 2.6393849849700919 3.3949923813343075 4.0584018677473068 4.0548188090324393 2.3891223073005659 2.3684620857238761 5.1012019515037537 2.8567210286855698 10.176089465618132 3.5469462722539902 5.001683384180069 3.557916119694708 5.1803502440452567 4.5467563569545746 2.6538054496049881 6.036831319332121 3.5754765719175339 9.6796260923147184 3.8325154781341553 3.5548275262117386 4.8210442066192627 4.0018360763788223 2.7987125515937832 3.0560933202505112 10.890953570604323 3.3043771684169769 4.2700397372245851 3.5717551410198203 8.286163851618765 4.5414600223302832 2.8470782190561277 4.5157576501369476 3.3146984726190567 6.1133927106857326 5.1773773729801205 3.110836684703826 3.5479850471019727 21.386588320136074 4.3362047374248496 3.3253502398729315 2.6412954777479198 2.6200843006372478 2.377935826778411 3.5992200374603298 4.5405487865209562 6.1977897435426703 5.049202024936676 4.2578485906124115 16.891188472509384 4.934782087802887 2.3904092609882355 3.0685858130454999 4.0018360763788214 2.4287338554859161 3.3358891010284424 13.516055956482885 10.83520847558975 2.3916515409946442 2.6364853829145432 2.3814836144447327
leaf_count=10 11 28 14 77 79 10 15 11 10 12 92 19 14 11 14 16 14 18 23 49 26 19 20 45 10 12 15 16 28 42 12 25 16 19 11 14 17 17 10 10 21 12 42 15 21 15 22 19 11 25 15 41 16 15 20 17 12 13 46 14 18 15 35 19 12 19 14 26 22 13 15 91 18 14 11 11 10 15 19 26 21 18 72 21 10 13 17 10 14 57 46 10 11 10
internal_value=2.11121e-05 -0.0328639 0.00455174 -0.0169145 -0.0529345 -0.0358363 0.00975371 0.00678454 0.00970893 0.00871981 0.0404527 -0.00201457 -0.0693124 0.0142136 0.00927875 0.0118955 -0.0133458 0.00188831 -0.00595757 0.00107261 -0.0632196 -0.0333694 0.0190561 0.0135545 -0.0321055 -0.0377112 -0.00971192 0.0067787 0.0326643 0.0252365 -0.0119776 -0.030958 -0.0126523 -0.0493816 0.0421094 -0.0498364 0.0209135 0.0128899 -0.0216332 -0.0475566 -0.0654441 -0.0729298 -0.0646865 -0.032107 0.00881088 0.0164364 0.0140234 -0.0154193 -0.0484694 -0.0406295 -0.0618974 0.0398359 -0.00446984 0.0231467 -0.0239129 0.00210913 0.0364682 0.0205617 0.0246616 -0.00409475 0.0172062 0.0197045 0.0285892 0.0263717 0.0130758 0.0302065 0.000377155 0.0237404 0.0153415 0.0333475 0.0108975 0.00708646 0.0284662 -0.00148799 -0.0185908 -0.0334795 0.0103433 0.0153933 -0.0231012 -0.0342499 -0.057516 -0.0239689 0.0449666 0.0512694 -0.0708337 0.0155156 0.00019621 -0.019221 -0.0464901 0.0260727 0.0432937 -0.00491242 -0.0758718 -0.00536051
internal_weight=498.12 60.3169 437.803 85.3989 43.5009 64.6678 352.404 321.326 9.01597 310.276 31.0782 9.50895 34.4849 225.77 178.128 167.83 35.506 24.9559 84.5059 69.1879 29.1618 10.2976 16.816 163.975 6.94346 15.318 48.5093 27.3111 47.642 41.1116 9.53134 21.1981 14.7605 10.5501 20.7311 22.8336 6.62389 22.5325 12.4345 11.05 8.68152 6.43767 17.118 6.94194 10.9346 152.264 141.61 13.8146 7.20056 15.336 9.61231 12.0619 9.77647 5.94395 11.7116 6.8906 31.5803 6.61401 18.4777 7.58674 127.796 23.4609 19.8891 20.6786 15.219 10.6775 6.16178 21.7472 122.616 24.2721 98.3435 89.8607 25.7228 64.1379 26.2263 21.0489 37.9116 35.5337 18.4076 15.7875 9.58975 7.5832 21.1612 8.48277 5.79406 18.9484 12.835 8.83321 5.76462 27.9505 14.4344 5.72369 7.20951 5.71556
internal_count=2096 252 1844 358 181 270 1486 1354 38 1308 132 40 143 953 751 708 149 105 355 291 121 43 71 692 29 64 204 115 202 174 40 89 62 44 88 95 28 95 52 46 36 27 71 29 46 643 598 58 30 64 40 51 41 25 49 29 134 28 78 32 540 99 84 87 64 45 26 92 518 103 415 379 109 270 110 88 160 150 77 66 40 32 90 36 24 80 54 37 24 118 61 24 30 24
is_linear=0
shrinkage=0.05


Tree=2
num_leaves=95
num_cat=0
split_feature=4 2 4 0 0 0 2 0 1 3 6 4 8 0 0 1 3 1 7 4 4 1 6 1 1 2 3 7 0 6 0 2 5 0 1 0 7 5 1 8 3 1 8 8 3 6 6 8 5 1 1 7 5 1 6 4 1 2 0 3 2 1 3 3 8 5 1 8 5 1 3 3 6 7 5 5 3 3 0 6 8 4 4 4 0 3 3 0 7 4 2 5 1 6
split_gain=26.7011 22.8157 17.6754 34.4404 15.2394 15.077 14.1322 11.7833 12.1501 9.13447 9.08253 8.53581 7.58768 7.04598 7.54113 6.95972 10.0078 6.89689 6.76209 6.84943 6.74605 6.60147 6.09477 9.95833 6.04799 5.98363 5.81256 5.74523 6.90907 5.64743 5.59568 6.65043 5.44768 5.24478 11.7204 5.05697 5.0171 4.77354 4.72748 5.61768 8.4832 5.12632 5.59963 7.64276 4.63575 4.60725 5.38892 4.54299 4.46852 4.46451 4.32221 4.31101 4.15512 6.34174 4.12895 4.04522 3.98157 8.14297 4.97339 16.5676 8.08614 9.00331 6.30337 6.33083 5.52679 5.21669 5.4932 9.05613 4.70681 4.38902 4.27096 3.94644 3.79401 4.86016 7.26196 5.99882 5.00853 4.3243 3.76934 3.80994 4.96494 3.74056 4.30835 3.72543 3.67397 3.94306 5.94425 3.49247 3.61764 3.45631 3.83293 3.43537 5.59821 4.0226
threshold=296.27654821664925 18414.085099472719 363.51730902931126 7.8121584167663514 6.494037065684922 7.9976330383382193 19008.813163841598 5.2108308321489618 143.36577527003615 6.4755535745465709 12.378728378505345 323.5363042889748 4.590020300931644 8.1691903385348947 6.6301226136697728 201.65126052764936 4.6584744910025178 204.7327400377865 53.320894754454692 332.62644352226272 259.1637027402017 222.49554460967724 10.941122212138085 231.98593811386937 200.97161195451051 31554.980996952861 9.2965758156118969 65.361958491513491 7.8937273776355665 13.272012732826143 7.3268709982168954 10218.262387729394 330.30434900209895 7.0446712072460871 170.83149224746407 7.0971463225835807 76.339414294047927 362.23970736295104 257.62681102267294 4.4810162752888294 7.0066467381458004 161.86141914974544 3.4077591100386981 4.0322634212089552 7.4726596371332485 16.618103464136656 11.93261762010866 4.4899878763119858 430.29587778567264 197.25167246737027 176.35297760779432 59.789904493810134 477.11344080953899 196.65438458422537 14.573494661733152 333.98726364035076 184.22376983293779 34238.118025767959 8.0474557510629037 8.4246316781259267 18171.94629622647 192.37431002380382 8.7665564726536669 8.3611780246418714 2.8770292218845346 448.63103190945577 228.17768807704371 3.4596752949330294 389.24397017336281 217.86165168083866 7.6260373458215502 6.7993874489442048 18.04776788985254 66.617005089647549 424.27199643940054 484.59725111450376 7.3788709807202819 8.1778557906817113 6.3099895956227998 9.9540731949806815 4.1621223905429057 353.12284808605335 334.05378909161681 416.79345576080249 7.2351306138262137 6.1938729346141459 7.4180736980552089 6.8745320887958412 79.320131798327893 326.1168018144258 23892.514683779245 410.69123995332768 205.82054436874463 14.047880071431452
decision_type=2 2 2 2 2 2 2 2 2 2 2 2 2 2 2 2 2 2 2 2 2 2 2 2 2 2 2 2 2 2 2 2 2 2 2 2 2 2 2 2 2 2 2 2 2 2 2 2 2 2 2 2 2 2 2 2 2 2 2 2 2 2 2 2 2 2 2 2 2 2 2 2 2 2 2 2 2 2 2 2 2 2 2 2 2 2 2 2 2 2 2 2 2 2
left_child=1 5 7 6 36 -1 21 9 45 11 18 -2 32 14 -14 16 -8 84 25 78 -19 30 23 81 -13 37 -5 48 49 -17 31 -4 35 34 47 54 -3 -10 39 41 -41 42 -34 -44 55 46 -9 -18 -24 -29 -35 -22 53 -39 -12 -37 57 89 60 -60 61 -58 63 69 -63 66 67 -66 -69 70 91 -53 73 74 -16 -76 -75 -78 -20 -80 -81 82 -21 -33 85 -6 -87 -67 -89 90 -43 92 -62 -93
right_child=2 4 3 26 17 -7 15 8 10 -11 12 24 13 -15 72 29 33 20 19 22 51 -23 27 -25 -26 -27 -28 28 -30 -31 -32 83 38 50 -36 44 -38 52 -40 40 -42 56 43 -45 -46 -47 -48 -49 -50 -51 -52 71 -54 -55 -56 -57 58 -59 59 -61 62 64 -64 -65 65 87 -68 68 -70 -71 -72 -73 -74 76 75 -77 77 -79 79 80 -82 -83 -84 -85 -86 86 -88 88 -90 -91 -92 93 -94 -95
leaf_value=0.039922330563759968 0.077179499388358094 0.032741761115348177 0.040103746408519741 0.050733197304111091 -0.095732615782058939 -0.094482214467508735 -0.093932057375978997 -0.014484892272275354 -0.079393833705885569 0.057121286678355865 -0.023395226778725336 0.0040621982391769547 0.058733311250736199 0.072321570072119284 -0.089667863901574163 0.0074122079201436337 -0.020745376267695039 -0.10008622509376675 0.061205967897368423 0.0077400198326590232 -0.06531154586632644 -0.10430315681927189 -0.10496370765181476 -0.067502079173745413 -0.093347399014206911 -0.099811582235196025 -0.028563201088835817 0.037986985245441335 -0.069288959581222526 -0.071114203727229111 -0.11864309238126208 -0.038856739022196302 0.04495556687613847 0.069973351416171781 0.044611033415441023 -0.065339364482865175 -0.049351419535018343 -0.040267964691796491 -0.042586618655641915 -0.064640090913121812 0.019127652476690446 -0.033587696663138461 -0.086288168718560529 0.013661224228978575 -0.099621421479510475 0.017183132450802677 -0.094196417270786051 -0.10386426333354125 -0.021613749955072415 -0.026178962833415965 0.0034751651694305097 0.039462627944361603 -0.044519724768090019 0.065153896487284521 0.044587404133234559 0.01865509507138052 0.043605892601367303 -0.03274814181835297 0.04816960334399157 -0.055133387765775338 0.0023592811373273578 -0.098316923968422232 0.069954162855602867 -0.058638059397907775 0.062710873114918603 -0.09844379802504119 0.063766773729221224 -0.014854911904876939 -0.10307772085198484 0.046645094484668012 0.043801213400280557 -0.031609986580965692 0.054248900906593116 0.046917896263716063 0.049516114825397847 -0.052142962003590601 -0.059388623472646743 0.028000627923021423 -0.02569609638263053 0.056950021319212389 -0.01287603860592447 -0.028100051553013386 0.055153956885117428 -0.10040390326177429 -0.10751749958971045 0.014871999716949792 -0.084110512675805493 -0.055928243582776441 0.020718952789752314 0.055346634067619888 0.048807958354345864 -0.031343988542791044 -0.087726271698746652 0.026515505010785274
leaf_weight=13.796522587537767 2.5095752030611056 6.3233580291271192 2.3801174014806845 17.847931444644932 5.4147386401891726 2.4583394080400458 2.4598248302936581 3.5917840898036939 2.6948254853487006 21.235912978649139 4.7465593665838259 4.5104178637266159 10.153506144881247 8.7328577339649183 3.1398771852254921 3.3350203335285169 4.3183488696813601 3.4422206580638877 5.3775859773159054 11.581180527806291 3.6427815109491331 6.4244259297847739 3.65601319074631 3.8991876095533362 2.463984340429306 2.9363591820001593 2.6547499746084204 5.8783905357122404 3.8799871057271949 7.3041081875562668 2.4353186041116706 15.255811318755152 2.6250609606504423 5.3561924993991834 5.6277979761362076 2.6592704206705076 2.6373942792415619 2.4094382077455503 3.8916619867086402 5.6032605022191984 6.5616905987262726 2.6070715337991777 4.0971053391695023 3.5872249156236649 2.6823690682649612 2.3585171997547141 5.1755515336990356 2.654422402381897 2.8706098198890686 5.0308417975902557 4.4936601668596268 3.5584830641746521 3.8674078583717346 3.4970211982727051 4.2185060977935791 3.1096698194742203 5.591851249337199 3.8536586165428153 24.379516139626507 4.6161870509386054 4.9959900826215806 2.4341775476932552 5.5648056268692008 2.8470564335584632 2.6098208278417605 2.4355659484863263 2.8378801941871634 4.0719541758298874 2.4046283960342407 10.328750506043432 6.8146209418773642 4.3295874446630478 3.7617285847663871 7.2939688712358457 3.2775521576404572 2.6041628122329712 2.8351988047361374 2.8272012323141098 4.5663011223077765 6.3455640226602537 4.2513745278120041 3.5941060781478873 8.1718446314334852 2.9310446977615348 8.878456234931944 2.8904178291559219 3.1915753483772278 4.3072794079780579 2.3957463204860687 19.425709545612335 3.0776466876268387 4.00699055194855 2.633679136633873 12.000880882143973
leaf_count=59 11 27 10 77 22 10 10 15 11 92 20 19 44 38 13 14 18 14 23 49 15 26 15 16 10 12 11 25 16 30 10 63 11 23 24 11 11 10 16 23 28 11 17 15 11 10 21 11 12 21 19 15 16 15 18 13 24 16 105 19 21 10 24 12 11 10 12 17 10 44 29 18 16 31 14 11 12 12 19 27 18 15 35 12 36 12 13 18 10 84 13 17 11 51
internal_value=3.82144e-05 -0.0310727 0.00435499 -0.0160341 -0.0496604 0.0195954 -0.0338621 0.00932027 0.00648308 0.0389007 0.00833051 -0.00189758 0.0135868 0.032043 0.0222432 -0.0126466 0.00181158 -0.0644241 -0.00564242 0.00103556 -0.0386604 -0.0594918 -0.00920229 0.0064651 -0.0303516 -0.035598 0.0404657 -0.0292287 -0.0119844 -0.0464987 -0.0469763 -0.0384902 0.0090117 0.0123019 -0.00906495 -0.0175651 0.00857949 -0.0204758 0.0118582 0.0131932 -0.0194563 0.0159034 -0.0180917 -0.0396295 -0.0453143 -0.0448521 -0.0615404 -0.0523874 -0.0683038 0.00839657 0.0396358 -0.0203235 -0.00423113 0.0221489 0.00859396 -0.0200633 0.0184758 0.0349259 0.0140344 0.0317235 0.00748236 -0.0134153 0.0198397 0.0134475 -0.0269853 -0.0187417 0.00304207 -0.0159236 -0.0476103 0.01848 0.00892702 0.000452442 0.00784893 -9.28504e-05 -0.0282703 0.00450598 0.0195273 -0.0157557 0.0252397 0.0124843 0.0289366 0.0188183 0.0273552 -0.0487759 -0.083357 -0.0646989 -0.0370699 -0.0471656 -0.0285336 0.0453117 0.0110204 -0.00112709 -0.0287373 0.0120325
internal_weight=497.046 60.5639 436.482 85.4788 44.309 16.2549 64.9761 351.004 320.284 30.7199 309.158 9.48398 224.65 44.6261 35.8932 35.5494 24.9102 35.3483 84.508 69.103 14.9731 29.4267 48.5622 27.2463 6.9744 15.4051 20.5027 21.3158 14.7892 10.6391 23.0023 20.567 180.024 22.4504 12.6006 17.4164 8.96075 12.4687 162.607 158.716 12.165 146.551 10.3094 7.68433 8.45131 11.1259 8.76734 6.97277 6.52662 10.9092 9.84985 11.5309 9.77387 5.90646 8.96507 5.76894 136.241 28.9641 107.277 28.9957 78.2817 29.0889 49.1928 43.628 23.4971 21.0629 11.9243 9.0864 6.47658 40.7809 30.4522 7.88807 25.7397 21.978 9.02159 5.88171 12.9564 5.6624 20.5408 15.1632 10.5969 23.3471 19.753 18.1869 20.3752 11.4967 6.08199 9.13859 6.70303 25.1104 5.68472 23.6375 7.62967 16.0079
internal_count=2096 252 1844 358 183 69 270 1486 1354 132 1308 40 953 191 153 149 105 145 355 291 62 121 204 115 29 64 88 89 62 44 95 85 762 95 53 73 38 52 689 673 51 622 43 32 35 46 36 29 27 46 42 48 41 25 38 24 579 124 455 124 331 122 209 185 98 88 50 38 27 173 129 33 109 93 38 25 55 24 87 64 45 99 84 75 83 47 25 38 28 108 24 100 32 68
is_linear=0
shrinkage=0.05


Tree=3
num_leaves=95
num_cat=0
split_feature=4 2 4 0 0 0 2 0 1 5 3 6 4 8 0 0 1 3 1 7 4 4 1 1 3 2 8 1 1 5 6 1 3 6 7 0 2 0 1 3 3 0 8 8 1 8 2 1 4 8 4 2 0 5 7 5 2 7 3 6 6 1 3 8 0 8 1 3 5 5 1 7 5 5 1 3 7 0 5 1 7 6 3 8 6 7 5 0 3 3 1 3 1 1
split_gain=24.083 20.4579 15.9972 31.1445 13.7996 13.5898 12.5754 10.8221 10.9466 10.2414 8.4473 8.249 7.83526 6.96125 6.604 6.98007 6.22835 8.96281 6.12269 6.078 6.26318 5.98882 5.88066 5.39192 5.33918 5.29282 5.053 7.55138 6.22265 6.04751 5.04503 8.91124 5.2183 5.01401 4.98924 4.91888 5.96089 4.78903 10.5627 4.70268 6.52172 4.52744 4.52163 5.03135 5.65801 5.26301 5.27093 6.88969 10.0379 9.65104 5.87785 7.1555 7.10982 4.60395 4.55142 4.25014 4.15274 5.4768 6.44869 4.1142 4.78902 4.02943 3.99262 3.98424 3.92947 3.78972 6.29845 4.62067 3.84962 3.7384 5.8044 3.61335 4.93841 3.58796 3.52561 3.54963 3.52022 6.36586 6.36062 5.24616 3.98398 3.5014 6.84628 5.45359 3.47731 4.38563 6.43747 5.82248 4.57681 3.86299 3.44904 3.69633 4.49436 6.33551
threshold=296.27654821664925 18414.085099472719 363.51730902931126 7.8121584167663514 7.3268709982168954 6.494037065684922 19008.813163841598 5.2108308321489618 143.36577527003615 439.17545838295001 6.4755535745465709 12.378728378505345 323.5363042889748 4.590020300931644 8.1691903385348947 6.6301226136697728 201.65126052764936 4.6584744910025178 204.7327400377865 53.320894754454692 329.8775385841729 259.1637027402017 222.49554460967724 200.97161195451051 9.2965758156118969 31554.980996952861 4.3002135297666797 161.86141914974544 257.62681102267294 339.6859350232034 10.941122212138085 231.98593811386937 5.6607552597322366 13.272012732826143 60.911726961236994 7.3268709982168954 10218.262387729394 7.0446712072460871 170.83149224746407 6.0053046296777657 7.9092939484518228 6.3099895956227998 4.0817147071065767 3.7284668622381072 171.75165249251395 3.6243679543125529 19744.820833656922 210.35818965076928 334.21206869383599 2.7984218953425501 337.40535280378492 12227.13609392629 7.4115668316304291 505.11519698582077 66.622485098084852 362.23970736295104 21834.484552426573 62.969894059439078 7.0066467381458004 16.618103464136656 11.93261762010866 176.35297760779432 6.9054889038160452 4.4899878763119858 6.7040611397815182 4.3343688889831222 183.45034600818943 6.6547493293203228 453.67175153327281 477.11344080953899 196.65438458422537 53.916932854583855 419.03488632240385 410.200734652118 147.94247618686521 6.4418845288974493 65.766312772959694 7.7994374825550841 430.29587778567264 207.09052878022459 71.272349248838978 9.9540731949806815 7.0471210644899545 4.1621223905429057 18.04776788985254 66.617005089647549 424.27199643940054 7.1581954272618491 7.3788709807202819 8.1778557906817113 227.39635381868743 8.8489894441361745 185.632172507967 192.16671008603467
decision_type=2 2 2 2 2 2 2 2 2 2 2 2 2 2 2 2 2 2 2 2 2 2 2 2 2 2 2 2 2 2 2 2 2 2 2 2 2 2 2 2 2 2 2 2 2 2 2 2 2 2 2 2 2 2 2 2 2 2 2 2 2 2 2 2 2 2 2 2 2 2 2 2 2 2 2 2 2 2 2 2 2 2 2 2 2 2 2 2 2 2 2 2 2 2
left_child=1 4 7 6 -1 39 22 10 59 -6 12 19 -2 26 15 -15 17 -8 -7 25 41 -20 35 -14 -5 55 27 34 42 -28 31 65 -32 -18 -13 36 -4 38 63 -3 -41 -21 43 45 -45 46 47 48 49 -29 51 -49 -53 90 -51 -10 -23 -58 -59 60 -9 -39 -54 -19 -31 67 -67 -22 -68 70 -57 -66 -73 -69 -38 -76 78 79 -34 80 -78 -43 83 -83 85 86 -17 -88 -87 -90 91 92 -46 -94
right_child=2 5 3 24 9 18 16 8 11 -11 -12 13 23 14 -16 84 33 37 21 20 30 56 -24 -25 -26 -27 29 28 -30 64 32 -33 76 -35 -36 -37 74 61 -40 40 -42 81 -44 44 53 -47 -48 50 -50 54 -52 52 62 -55 -56 69 57 58 -60 -61 -62 -63 -64 -65 71 66 68 73 -70 -71 -72 72 -74 -75 75 -77 77 -79 -80 -81 -82 82 -84 -85 -86 88 87 -89 89 -91 -92 -93 93 -95
leaf_value=0.050951888554410775 0.075160702720559303 -0.047654597237261564 0.038456892585496984 0.04890804267027235 -0.11608408740667271 -0.078547808218269372 -0.088370203614697884 -0.01371939623642714 -0.07467620591158726 0.023393522068127656 0.055195378494852836 0.0046703907012523435 0.00386271886624639 0.05677712588646177 0.070244071224213334 -0.084008238415587078 0.0070532041905832692 -0.019626942044653151 -0.094084856114383511 0.067612395371069028 0.069864052510860419 -0.071163967872077905 -0.098219943414947691 -0.08785845855776761 -0.026993979079769193 -0.093670653661145867 -0.076208069007830614 -0.079264068409077765 -0.053739508735956135 0.032561462969768057 0.034758991985626098 -0.063501041817546205 -0.11151194284121298 -0.066863029362263196 -0.065692106563790625 -0.110988883039456 -0.087895695313598754 0.06781079588296611 0.042884691414321718 0.077990080354637947 -0.024386550191637338 -0.024290612287145592 0.037704048391041731 0.06266750992250672 -0.047794161681842917 0.052155903674777043 0.029590847303828383 0.06215856677407721 0.065936596347452817 0.056848342785714913 -0.082930680771359677 -0.080077769159413614 0.057953441985858639 -0.060457762846336707 -0.0098850967000659908 -0.037973926529732069 -0.054178864382165771 0.080856499172008267 -0.0275583929559261 0.016393763969050526 -0.088659950021381495 0.0033041235743155317 -0.03214665067446934 -0.097011455932636825 0.020690369422348837 0.059453599986506483 -0.004182894720398669 -0.026450561966700065 -0.08651633932017655 -0.041967364900873758 0.063039997311918394 0.013855439453160404 -0.047440137326663988 0.034852062480542532 0.0033684334539032068 -0.050805172053388664 0.079078914241757059 -0.075907179541942774 -0.013031959488419204 -0.054418432653027274 -0.0024501983960407469 0.040948653147643149 0.078726345056215022 -0.0640379824869695 0.052262701118251965 0.045101442747916817 0.048946341329604653 -0.051264772042698581 -0.055692131379173407 0.026786051880251068 0.037284913662277423 -0.060540398767054415 0.078735307429336335 -0.0042487141284737739
leaf_weight=10.869214400649073 2.4496486932039279 2.6514032334089261 2.3584964871406653 17.594773739576343 2.6829098463058463 20.535708338022232 2.4832405000925091 3.6023052781820279 2.7210820168256751 2.583405002951622 20.886960983276367 5.1963302344083768 4.5062871128320694 9.9825318753719312 8.5463100373744947 3.1826464384794289 3.3296736031770688 4.3357440084218997 3.4776821732521048 4.8274263292551067 5.344790652394301 2.8892683237791053 6.4795882403850547 2.4863840639591217 2.6682613790035239 2.9714234769344321 3.1139322817325619 3.3559165596962002 3.1844944357872 6.1246728897094753 3.1023071557283428 3.9365907758474341 3.4613014161586788 7.3780376315116882 4.8904190212488174 2.4720493555068961 3.9403437376022366 5.2532686442136747 5.5632885098457336 3.4445175379514694 2.8367300480604172 4.5883967578411093 22.038197010755539 3.0165313631296149 4.2520854324102499 10.931420758366583 32.032981023192406 2.7981005012989035 7.6390806436538687 4.4064427316188794 3.3220631927251807 3.8970147967338544 2.3233046978712082 3.8224548101425162 6.0812213718891144 2.4267771840095502 3.1789752990007383 2.8286304026842117 2.6628544181585312 2.348732501268386 5.2224617153406143 4.4900597631931305 2.6117708534002304 2.6985906660556793 5.6757255345582989 2.3526391237974149 3.530631348490715 3.7482061684131605 2.3745942711830139 3.8966918140649796 3.4351455718278885 5.0106327682733527 9.547009736299513 6.5718501359224319 4.3244351446628562 10.053340896964071 2.3220376968383771 3.6701581180095664 3.1153753995895386 2.8893576115369797 4.2244545966386795 2.5683616846799833 3.9350970387458801 2.386160746216774 3.7107590585947028 7.2104889154434186 3.2539030164480209 2.6138767302036285 2.8712325096130371 2.8081217259168625 4.6666346937417975 3.1110066771507254 2.7752664387226131 13.431471049785612
leaf_count=47 11 11 10 77 11 83 10 15 11 11 92 22 19 44 38 13 14 18 14 21 23 12 26 10 11 12 13 14 13 26 13 16 14 30 20 10 16 23 24 15 12 19 94 13 18 47 138 12 33 19 14 16 10 16 26 10 13 12 11 10 21 19 11 11 24 10 15 16 10 16 15 21 40 28 18 41 10 15 13 12 18 11 17 10 16 31 14 11 12 12 20 13 12 57
internal_value=5.23118e-05 -0.0294657 0.00416953 -0.015226 0.018766 -0.0469521 -0.0320618 0.00891227 0.00619877 -0.047663 0.0374535 0.00796335 -0.00179257 0.0129938 0.030771 0.0213038 -0.012004 0.00174458 -0.0607973 -0.00535387 0.000997837 -0.0365564 -0.0561163 -0.0287506 0.0389132 -0.033698 0.00861241 0.0123362 0.0153528 -0.0103126 -0.00806211 0.00620959 -0.0255122 -0.043878 -0.0294439 -0.044331 -0.0363616 0.011761 -0.00859779 0.00818442 0.0317549 0.0260633 0.0169646 0.0129719 -0.00279925 0.019939 0.0147953 0.00178734 0.0199266 -0.00546232 -0.0242743 -0.00751961 -0.0295944 -0.00895924 0.0181533 -0.0194185 -0.0192492 -0.00194962 0.0282855 -0.0424164 -0.0580689 0.0380839 0.0102701 -0.0493141 -0.00252772 0.0176808 -0.0097285 0.0321298 -0.0372906 -0.00401046 0.0212212 -0.0131493 -0.0263427 0.0125872 -0.0459946 -0.0345113 -0.0350119 -0.020033 -0.0648619 0.00169981 0.0264681 0.0111817 0.0294908 -0.00961424 0.00749871 -7.22315e-05 -0.0267503 0.00430603 0.0186594 -0.0149113 -0.00198773 -0.00976339 -0.00204215 0.0099616
internal_weight=495.404 60.6413 434.763 85.4232 16.1355 44.5058 65.1602 349.34 319.01 5.26631 30.3293 307.837 9.44232 223.436 44.1799 35.6336 35.5319 24.8242 35.5731 84.4009 68.9497 15.0374 29.6283 6.99267 20.263 15.4511 179.256 149.784 139.697 29.472 50.6443 27.8593 22.785 10.7077 10.0867 23.1487 20.6766 22.341 12.5976 8.93265 6.28125 18.3054 136.513 114.475 35.0755 79.3993 68.4679 36.4349 21.4827 13.8436 14.9523 11.6302 8.83209 32.0589 10.4877 12.4797 11.5597 8.67046 5.49148 11.1735 8.82477 9.74333 4.93508 7.03433 26.358 23.9227 8.25786 15.6648 5.90523 9.75861 5.86192 20.2334 14.5576 10.3201 18.3181 14.3778 19.6827 13.106 6.57668 9.43585 6.54649 13.478 8.88962 4.95452 25.651 21.9403 9.05043 5.86778 12.8898 5.67935 28.2365 23.5698 20.4588 16.2067
internal_count=2096 252 1844 358 69 183 270 1486 1354 22 132 1308 40 953 191 153 149 105 145 355 291 62 121 29 88 64 762 638 596 124 213 118 95 44 42 95 85 95 53 38 27 78 583 489 149 340 293 155 92 59 63 49 37 136 45 52 48 36 23 46 36 42 21 29 111 102 35 67 25 41 25 85 61 44 75 59 82 55 27 40 28 57 38 21 109 93 38 25 55 24 120 100 87 69
is_linear=0
shrinkage=0.05


Tree=4
num_leaves=95
num_cat=0
split_feature=4 2 4 0 0 0 2 0 1 5 3 6 4 8 8 3 1 0 3 1 1 0 5 2 0 7 7 1 1 0 1 8 1 3 1 3 3 5 2 2 7 7 5 0 2 4 3 1 6 1 1 5 7 3 2 4 7 3 7 5 8 3 7 1 7 6 1 2 2 0 3 5 0 3 0 1 2 7 8 6 1 2 1 1 1 6 4 5 6 6 4 3 4 4
split_gain=21.7561 18.3906 14.4964 28.2181 12.5703 12.158 11.2451 9.95334 9.88038 9.10182 7.816 7.48324 7.20753 6.41568 6.22979 6.01782 5.9365 5.6717 8.28095 7.44903 5.64663 5.6397 5.91703 7.71885 5.57003 6.61924 5.32789 5.31695 5.29793 5.29738 5.29368 5.6466 5.23091 4.90809 4.83564 4.6878 5.8898 4.6109 4.56692 4.55356 4.41288 4.2939 4.18497 5.34356 4.36387 4.16529 5.75254 5.59112 5.31119 8.17837 4.10688 6.62646 4.04934 6.47446 3.91345 3.81545 3.75515 3.75176 4.65395 3.73269 3.69605 4.1673 3.49524 3.43056 3.36739 5.58963 3.14563 5.8928 5.35263 4.74057 11.1227 4.51089 5.39452 6.31717 5.06007 5.26536 10.0446 5.97778 5.19856 4.22312 3.71243 3.67713 4.80288 4.74043 4.61152 3.27081 3.26563 4.0969 3.22513 3.13091 4.80354 3.50097 3.12684 3.02165
threshold=296.27654821664925 18414.085099472719 363.51730902931126 7.8121584167663514 7.3268709982168954 6.494037065684922 19008.813163841598 5.2108308321489618 143.36577527003615 439.17545838295001 6.4755535745465709 12.378728378505345 323.5363042889748 4.5670668341258525 4.4810162752888294 7.3061695761255034 257.62681102267294 6.9003213422035232 7.5627903298167505 203.05227678102943 173.60135655148417 8.7207455210818861 361.42643532372807 26158.284849533014 9.8014880137278748 53.320894754454692 67.404342100795972 191.49699234624751 222.49554460967724 9.1306880653369671 177.77783437236607 5.2150866111497285 161.86141914974544 9.2965758156118969 200.97161195451051 8.8703958582140903 5.7145215045638755 362.23970736295104 11922.544286353988 26559.37065136138 76.339414294047927 42.739188116401571 330.30434900209895 7.1169065058700989 25000.149134044335 332.62644352226272 5.5746293952224937 228.50562699679836 11.004504054844348 192.69113555102919 180.78605989834435 500.61196699537152 65.083950662475289 6.4571211562601682 14905.098149316282 375.71015804650818 72.116082096424947 5.5052765736462383 85.167822551908699 337.9155432154385 4.0661931806348948 8.4579667074846121 70.12165042032359 222.07781768799768 66.617005089647549 14.392326273710639 184.22376983293779 34238.118025767959 32833.39529981446 8.0474557510629037 8.4246316781259267 378.20405167900702 7.7360089314418401 9.1246945686349772 7.4526004246043831 204.35929106739789 18335.546790201581 72.952581107345381 4.1677893227211378 16.511444867389063 203.33578906352435 21692.310092506541 195.39058556355349 193.16868149084021 191.14299568620126 17.549997260353283 326.1168018144258 417.77152586454423 14.66623888519098 10.562513795695908 316.54712985777161 7.0471210644899545 332.62644352226272 335.65645184088771
decision_type=2 2 2 2 2 2 2 2 2 2 2 2 2 2 2 2 2 2 2 2 2 2 2 2 2 2 2 2 2 2 2 2 2 2 2 2 2 2 2 2 2 2 2 2 2 2 2 2 2 2 2 2 2 2 2 2 2 2 2 2 2 2 2 2 2 2 2 2 2 2 2 2 2 2 2 2 2 2 2 2 2 2 2 2 2 2 2 2 2 2 2 2 2 2
left_child=1 4 7 6 -1 40 28 10 60 -6 12 24 -2 14 16 -16 32 18 -8 -19 -7 22 23 27 25 37 -21 -15 38 30 39 45 64 -5 -14 36 -22 -10 -4 -27 -3 -34 43 56 -45 89 62 48 49 -48 -39 -52 -40 -54 -55 -20 -43 -24 -59 -44 -9 -62 -47 -12 65 -13 67 86 69 71 92 88 73 74 75 81 77 -77 85 -74 -70 82 -73 84 -83 -78 87 -61 -68 90 -32 -91 -71 -51
right_child=2 5 3 33 9 20 17 8 11 -11 63 13 34 21 15 -17 -18 19 55 26 35 -23 57 -25 -26 29 -28 -29 -30 -31 31 -33 41 -35 -36 -37 -38 50 52 -41 -42 42 59 44 -46 46 47 -49 -50 93 51 -53 53 54 -56 -57 -58 58 -60 66 61 -63 -64 -65 -66 -67 68 -69 80 70 -72 72 79 -75 -76 76 78 -79 -80 -81 -82 83 -84 -85 -86 -87 -88 -89 -90 91 -92 -93 -94 -95
leaf_value=0.049130588621790899 0.073338928109326212 0.030851338888781735 -0.0032645458367137254 0.047177583214725809 -0.10894484489114971 -0.090060189950400368 -0.061573727054044562 -0.074539760912301731 -0.090777556922610678 0.02235121916463292 0.061297578535259634 -0.049898588024948287 0.0036728893537704326 0.07590895116273938 -0.059675801939205235 0.018502027770671607 -0.05019914786770048 0.033730264929086672 0.050459078940371771 0.017276352525669 -0.078957580823002096 0.073750909231316261 -0.0098270853414109249 -0.079550642836683824 0.066545097586192856 0.057023616343147454 -0.073353670198530452 -0.017349465262854965 -0.093010906701471496 -0.057824768911635384 -0.047552533982892511 -0.071592365651783368 0.045392778388610049 -0.025527794816052298 -0.083074312015764568 -0.10734488086997318 -0.022620224090239751 -0.076393376891009307 -0.081764121886393842 -0.023004278118186672 -0.046076406567840386 -0.015695567916935247 0.057287753261870245 -0.013628196347533497 -0.093629322882198787 0.081726570095011275 -0.061389070754432451 -0.063752124454904927 -0.029969436178072479 0.0025518788177450779 0.023309220044859368 -0.074528491543799355 0.023207510020042191 -0.1079664043874554 -0.029150549280147483 -0.020930127132212834 0.060433439892157936 0.046564329953137938 -0.027514178702804527 -0.044620172021670505 0.019628911456530423 -0.060356010954018317 -0.0022722204860830867 0.00060311599317972009 -0.051650364102870362 0.041259481040158988 0.019694503331231149 -0.032361085953756454 0.0017384190859640056 0.016134938371626634 -0.047627264053867031 0.063966841716471975 -0.0016417455017767584 0.077698675518652893 0.051495213302838294 -0.023809630314212307 0.044253097656654625 -0.11316149124496584 -0.047843056860290029 -0.088260715040117454 0.076401464425374932 0.0049056015798384037 -0.011573792362936321 0.039244301027356619 -0.086511693326043762 -0.023800949786742846 0.049206697239126532 0.044606452425036178 -0.046597140437627013 0.011900478932883181 0.044592753468060652 0.076226788646016397 0.05615907596762696 0.055985630935087939
leaf_weight=10.712551221251486 2.3865717798471469 6.2303463369607908 5.7445586770772996 17.334808573126796 2.7148592323064795 9.703964024782179 9.964268237352373 4.6106402873992902 3.238378793001174 2.5690557360649109 17.848964929580692 2.9268434494733793 4.5023301988840103 2.4625241905450803 6.3764426559209806 4.009335994720459 3.942175641655921 11.06495773792267 3.081142231822013 2.8973234891891471 6.3967306762933793 6.1097040623426428 4.4120011180639294 2.9466118067502975 2.6293551325798026 7.12376521527767 3.6829859465360641 4.0288831889629364 6.4996826946735373 3.8440580070018759 3.0790817141532889 2.8768274188041678 10.416383862495421 2.6801193058490744 2.4977506697177887 2.730760693550109 16.885546371340752 2.7094990462064734 7.7039446383714703 2.3684668242931366 2.6601805537939072 3.5704308450221998 5.0071754902601233 4.5787476003170013 2.7155361622571945 2.5941648334264746 2.8154474049806657 5.1847953200340262 12.976449847221373 4.4729448258876783 5.8724629729986173 2.4537987858057022 3.339206784963606 2.734203889966011 3.7147729247808456 4.7678431868553162 2.9649433344602585 23.936633691191677 2.3262493908405295 2.3721652477979722 3.6384466588497162 2.9478294551372528 2.3696993738412857 2.6773447394371024 4.9344534128904343 3.9526789337396622 2.3727502077817908 3.395629107952117 2.5653167963027945 8.2021548300981575 4.4165679961442939 6.4759556651115435 3.0369961261749259 3.2012071460485449 5.1578058898448935 4.0960566103458431 6.9868985414504987 3.4471893608570099 3.0798669308423987 2.6221112906932831 4.7433306574821472 3.2935613840818387 3.1169219166040421 3.7222189009189606 2.3737864047288895 2.3626091033220291 16.682713240385056 2.8109410554170609 8.0911899954080564 4.4162932783365232 2.6159620136022568 4.0595126450061798 12.047098368406294 6.4768829792737961
leaf_count=47 11 27 24 77 11 39 41 19 13 11 80 12 19 11 26 17 16 48 13 12 26 28 19 12 11 31 15 17 26 16 13 12 45 11 10 11 69 11 31 10 11 15 22 19 11 11 12 21 54 19 25 10 14 11 15 20 13 105 10 10 15 12 10 12 20 17 10 14 11 36 18 28 13 14 22 17 30 14 13 11 21 14 13 16 10 10 74 12 34 19 11 18 53 28
internal_value=6.46055e-05 -0.0279931 0.00399356 -0.0144882 0.0180018 -0.044487 -0.0304308 0.00852442 0.00592801 -0.0451083 0.0360974 0.00761351 -0.00169749 0.0124215 0.00806917 -0.029496 0.0104239 -0.0114144 -0.031317 0.0086776 -0.0575104 0.0289999 0.0221838 -0.0124365 -0.00508298 -0.00739248 -0.0334491 0.0180282 -0.0531066 -0.000830778 0.00262322 -0.00343628 0.0119015 0.0374419 -0.02728 -0.045368 -0.0380987 -0.0383179 -0.0419447 0.0370554 0.00783339 0.0144256 0.0121135 -0.0139925 -0.0434112 0.000403685 -0.00844724 -0.0162326 -0.00701929 0.0146157 -0.0229239 -0.00552413 -0.0546475 -0.033305 -0.0625665 0.00709391 0.0188423 0.0328357 0.0400028 0.0149862 -0.0402054 -0.0161701 0.0416264 0.0533809 -0.0201309 0.00247693 0.0132309 0.0289197 0.00907712 0.00566616 0.0242662 -0.00156597 0.00435986 0.00987805 0.00495641 -0.00120552 -0.0191265 -0.0646426 0.00849675 -0.0417761 0.0501949 0.0176502 0.0394221 -0.00459313 -0.0333848 0.0270559 0.0384363 0.00376988 -0.0315652 0.0234449 -0.00522651 0.0427098 0.0399469 0.0341582
internal_weight=493.392 60.604 432.788 85.2098 15.9965 44.6075 65.1949 347.579 317.666 5.28391 29.913 306.469 9.38665 222.291 176.068 10.3858 165.682 35.4585 17.8133 17.6453 35.717 46.2226 40.1129 9.43802 84.1778 81.5485 6.58031 6.49141 29.7364 67.2744 63.4303 53.9381 161.74 20.0149 7.00008 26.013 23.2823 14.2741 23.2367 9.49223 8.89053 149.926 139.51 13.8297 7.29428 51.0612 36.8904 31.9265 26.7417 13.7653 11.0358 8.32626 17.4921 9.78818 6.44898 7.84899 6.53537 30.6749 26.2629 125.68 11.1969 6.58628 4.96386 20.5263 11.814 6.87952 120.673 25.2614 95.4116 88.1029 24.6658 63.4371 52.9732 47.3141 44.1129 38.9551 19.9726 7.54325 12.4294 5.65911 7.30865 18.9824 9.59288 9.38957 5.66735 9.34951 21.8658 5.18311 10.4639 14.1708 5.69504 8.47581 20.2493 10.9498
internal_count=2096 252 1844 358 69 183 270 1486 1354 22 132 1308 40 953 751 43 708 149 74 75 145 202 174 40 355 344 27 28 121 285 269 228 692 88 29 106 95 59 95 41 38 643 598 58 30 216 155 134 113 59 46 35 71 40 26 33 28 134 115 540 46 27 21 92 49 29 518 110 408 376 107 269 225 201 187 165 84 31 53 24 32 81 41 40 24 40 96 22 44 61 24 37 89 47
is_linear=0
shrinkage=0.05


end of trees

feature_importances:
Column_1=86
Column_0=63
Column_3=63
Column_2=50
Column_4=46
Column_6=44
Column_7=42
Column_5=40
Column_8=36

parameters:
[boosting: gbdt]
[objective: binary]
[metric: custom]
[tree_learner: serial]
[device_type: cpu]
[data_sample_strategy: bagging]
[data: ]
[valid: ]
[num_iterations: 10000]
[learning_rate: 0.05]
[num_leaves: 95]
[num_threads: 0]
[seed: 1238]
[deterministic: 0]
[force_col_wise: 0]
[force_row_wise: 0]
[histogram_pool_size: -1]
[max_depth: -1]
[min_data_in_leaf: 10]
[min_sum_hessian_in_leaf: 0.001]
[bagging_fraction: 1]
[pos_bagging_fraction: 1]
[neg_bagging_fraction: 1]
[bagging_freq: 0]
[bagging_seed: 10438]
[bagging_by_query: 0]
[feature_fraction: 1]
[feature_fraction_bynode: 1]
[feature_fraction_seed: 6707]
[extra_trees: 0]
[extra_seed: 23424]
[early_stopping_round: 0]
[early_stopping_min_delta: 0]
[first_metric_only: 0]
[max_delta_step: 0]
[lambda_l1: 0]
[lambda_l2: 0]
[linear_lambda: 0]
[min_gain_to_split: 0]
[drop_rate: 0.1]
[max_drop: 50]
[skip_drop: 0.5]
[xgboost_dart_mode: 0]
[uniform_drop: 0]
[drop_seed: 18682]
[top_rate: 0.2]
[other_rate: 0.1]
[min_data_per_group: 100]
[max_cat_threshold: 32]
[cat_l2: 10]
[cat_smooth: 10]
[max_cat_to_onehot: 4]
[top_k: 20]
[monotone_constraints: ]
[monotone_constraints_method: basic]
[monotone_penalty: 0]
[feature_contri: ]
[forcedsplits_filename: ]
[refit_decay_rate: 0.9]
[cegb_tradeoff: 1]
[cegb_penalty_split: 0]
[cegb_penalty_feature_lazy: ]
[cegb_penalty_feature_coupled: ]
[path_smooth: 0]
[interaction_constraints: ]
[verbosity: -1]
[saved_feature_importance_type: 0]
[use_quantized_grad: 0]
[num_grad_quant_bins: 4]
[quant_train_renew_leaf: 0]
[stochastic_rounding: 1]
[linear_tree: 0]
[max_bin: 255]
[max_bin_by_feature: ]
[min_data_in_bin: 3]
[bin_construct_sample_cnt: 200000]
[data_random_seed: 4081]
[is_enable_sparse: 1]
[enable_bundle: 1]
[use_missing: 1]
[zero_as_missing: 0]
[feature_pre_filter: 1]
[pre_partition: 0]
[two_round: 0]
[header: 0]
[label_column: ]
[weight_column: ]
[group_column: ]
[ignore_column: ]
[categorical_feature: ]
[forcedbins_filename: ]
[precise_float_parser: 0]
[parser_config_file: ]
[objective_seed: 31546]
[num_class: 1]
[is_unbalance: 0]
[scale_pos_weight: 1]
[sigmoid: 1]
[boost_from_average: 1]
[reg_sqrt: 0]
[alpha: 0.9]
[fair_c: 1]
[poisson_max_delta_step: 0.7]
[tweedie_variance_power: 1.5]
[lambdarank_truncation_level: 30]
[lambdarank_norm: 1]
[label_gain: ]
[lambdarank_position_bias_regularization: 0]
[eval_at: ]
[multi_error_top_k: 1]
[auc_mu_weights: ]
[num_machines: 1]
[local_listen_port: 12400]
[time_out: 120]
[machine_list_filename: ]
[machines: ]
[gpu_platform_id: -1]
[gpu_device_id: -1]
[gpu_use_dp: 0]
[num_gpu: 1]

end of parameters

pandas_categorical:null
