tree
version=v4
num_class=1
num_tree_per_iteration=1
label_index=0
max_feature_idx=8
objective=binary sigmoid:1
feature_names=Column_0 Column_1 Column_2 Column_3 Column_4 Column_5 Column_6 Column_7 Column_8
feature_infos=[0.22749905020219871:13.54124023656798] [77.459586100443715:323.12400000000002] [320.94261127435902:61227.196007712133] [0.35200000000000031:13.127000000000002] [129.00000000000003:476.53971733255162] [181.483753985146:753.34261955830459] [2.1999999999999886:28.300000000000011] [0.73799999999999955:124] [1.45:6.7389999999999999]
tree_sizes=9607 9936 9942 9956 9930

Tree=0
num_leaves=95
num_cat=0
split_feature=4 0 4 0 2 2 1 1 0 3 4 3 3 5 3 0 2 1 0 5 0 5 8 0 1 2 1 0 0 3 1 7 6 8 6 0 3 4 7 2 7 4 8 7 3 8 7 7 7 6 3 0 7 1 6 0 7 0 8 8 6 5 3 2 5 5 2 7 3 5 7 1 4 1 2 0 3 6 4 5 4 0 0 5 6 3 6 8 4 5 8 7 6 6
split_gain=29.1812 28.8268 24.6372 48.277 16.9816 15.1779 13.5523 10.3975 13.1249 8.78069 8.37528 8.19598 8.07261 7.62956 9.59035 10.9244 8.51166 7.36034 11.0443 9.90778 9.76164 8.88443 7.3372 7.32928 7.22414 6.87282 16.3112 13.744 9.5032 11.9485 9.07391 6.65905 6.61191 7.0049 6.367 6.09185 7.45898 6.24463 6.07487 6.04791 6.02006 5.83668 5.61878 5.97676 5.38186 5.33862 5.07263 4.93542 4.74451 4.64175 4.63779 4.58257 4.48257 4.5045 6.81227 4.32214 4.30864 4.3067 7.41481 6.06403 5.1575 4.71605 4.24205 4.53688 6.15383 11.9518 7.3828 6.55862 6.30494 5.71655 5.2605 5.21264 4.7516 9.00556 5.28096 6.11315 13.5055 9.20369 7.56148 8.49899 7.14249 4.58922 4.13776 4.1168 4.03431 3.96983 3.88986 3.82435 4.0243 3.78544 3.61735 3.47093 3.44228 3.36193
threshold=286.44433403881254 6.5491562998861772 362.66862871899838 7.794736216569575 17323.744705489658 26137.205590825379 209.80906934542173 281.5881985992097 4.588088946117634 5.7588997043906831 405.30778740412342 9.3125593413110277 7.7010133384830946 330.30434900209895 6.8647113137039542 7.6943023359238696 29240.417897579642 162.08320172982209 7.2483460899201457 425.48208322445277 9.3869032461686945 463.47003251987638 3.292170623735525 7.3268709982168954 217.36888009271902 30816.718097200301 200.10381293740832 7.5790315580047887 8.3844597953561593 8.4271255458954801 185.92957120646096 81.936466193721813 12.875964149589096 4.1625391264117644 10.106304204756187 6.7705110151940522 6.5584013227336646 391.03567258181778 77.131470252290342 27050.328035668485 62.172686597656721 333.46139588146707 4.0029738357182376 54.336700008212617 6.3403302987466352 4.2797843650540122 66.081075836249681 63.685414254800556 66.691178516706472 15.691071406018212 6.8450753833283011 5.6301771317706342 66.688039489657129 184.39407943860911 14.824168203921575 9.8952256707595883 89.600293434634864 6.7000473903508722 4.1356571191689753 3.153407032263766 18.286639282130327 403.78912909526986 4.5542644111292629 20279.042011573747 468.44447539587003 395.27916942507306 13736.199301871593 85.241526191544025 8.2878528412052184 539.53883717700353 40.845333468496001 195.19561863665098 347.07979720108727 207.82679608881847 22197.069902072704 7.0578676269245415 5.8371191473902657 17.028566581637623 329.33906699588954 421.16187817499434 333.46139588146707 7.3965066323200652 6.4532541703545201 407.82143116047865 15.488382679846042 7.3839724011353329 14.197604207600422 3.3013055861327798 333.46139588146707 306.73840321820063 3.9952853729446569 66.688039489657129 12.99545036498421 15.691071406018212
decision_type=2 2 2 2 2 2 2 2 2 2 2 2 2 2 2 2 2 2 2 2 2 2 2 2 2 2 2 2 2 2 2 2 2 2 2 2 2 2 2 2 2 2 2 2 2 2 2 2 2 2 2 2 2 2 2 2 2 2 2 2 2 2 2 2 2 2 2 2 2 2 2 2 2 2 2 2 2 2 2 2 2 2 2 2 2 2 2 2 2 2 2 2 2 2
left_child=1 9 7 5 23 6 10 8 41 -1 35 48 -11 14 16 31 -10 18 19 47 -20 -21 24 -3 -6 28 40 92 30 -30 34 39 -23 -34 -19 36 -4 45 -29 42 86 -2 -16 -44 -7 -37 -46 -15 -5 -31 -12 -38 -42 54 -54 -50 57 61 59 -59 -60 -36 84 64 65 67 90 68 81 71 -65 -68 74 -74 -72 76 -76 80 79 -77 -78 87 -48 -53 -32 -82 -27 -64 -89 -17 -66 -43 -28 -83
right_child=2 4 3 11 22 44 -8 -9 13 12 50 -13 -14 17 15 89 -18 25 20 21 -22 32 -24 -25 -26 26 27 38 29 49 62 -33 33 -35 56 37 51 -39 -40 -41 52 91 43 -45 46 -47 82 -49 55 -51 -52 83 53 -55 -56 -57 -58 58 60 -61 -62 -63 63 70 66 -67 69 -69 -70 -71 72 -73 73 -75 75 78 77 -79 -80 -81 85 93 -84 -85 -86 -87 -88 88 -90 -91 -92 -93 -94 -95
leaf_value=0.3811080895106379 0.5281924232370836 0.48395653339454353 0.34141866612413674 0.52341695785635478 0.33908399416022494 0.40212013718584444 0.34582370756547975 0.35627566953084833 0.48998870019125357 0.5281924232370836 0.42313218486105098 0.40212013718584444 0.44223404638396602 0.44064222459038976 0.37060206567303478 0.40562214513171219 0.40459214279469224 0.41695217083893138 0.35559346019074423 0.33908399416022483 0.4507796160126385 0.51068238350774486 0.33970199556243674 0.3881121054023734 0.45314939582563174 0.49317234377840602 0.46639228301588792 0.45403225497164879 0.49430202376094406 0.37060206567303461 0.44414423253625751 0.50909056171416855 0.35627566953084838 0.46252977425206321 0.4581522643197285 0.45037002444002239 0.46815800130792212 0.50017635967014162 0.35627566953084838 0.48316660679021251 0.33558198621435709 0.43972064355200347 0.49317234377840607 0.39978546522193259 0.42813505335514773 0.37410407361890241 0.44414423253625751 0.52011086643892723 0.49706346371825916 0.46515628021146405 0.34141866612413668 0.44064222459038976 0.37537753105376337 0.37288598389860056 0.48316660679021251 0.42313218486105098 0.42313218486105098 0.43121374165920734 0.40403032333813593 0.51030982947095038 0.48998870019125357 0.5178586292984575 0.33558198621435731 0.41262616102344768 0.42313218486105098 0.47798664560605919 0.44737685525552007 0.50718037556187712 0.46815800130792212 0.45465025637386075 0.50246338526744294 0.37310349992008301 0.48879483384607136 0.38442578124882842 0.33717380800793345 0.39223211475045316 0.51943740337241429 0.37537753105376337 0.50567951501364805 0.48616832788667058 0.48998870019125357 0.48616832788667058 0.5281924232370836 0.36009604183543137 0.36009604183543137 0.4099996550640469 0.41695217083893138 0.44737685525552007 0.37336680878819339 0.33043197452925743 0.49501550585517856 0.50347236714860533 0.52235574332730406 0.40212013718584444
leaf_weight=2.3795871436595908 8.5665137171745318 4.521215572953226 4.2832568585872677 10.470183432102209 2.3795871436595943 4.7591742873191825 12.611811861395834 2.61754585802555 10.470183432102202 5.7110091447830182 2.3795871436595899 2.3795871436595908 5.2350917160511017 2.8555045723915153 5.7110091447830289 2.8555045723915091 4.045298144221305 4.045298144221305 6.6628440022468549 2.3795871436595908 4.5212155729532242 2.8555045723915082 16.181192576885223 3.5693807154893875 3.3314220011234283 2.8555045723915127 4.0452981442213085 4.045298144221305 36.883600726723671 2.8555045723915091 3.5693807154893866 2.61754585802555 2.6175458580255508 3.8073394298553467 4.2832568585872677 6.4248852878808957 3.3314220011234266 3.5693807154893866 2.6175458580255508 3.3314220011234275 2.8555045723915091 4.5212155729532224 2.85550457239151 4.283256858587265 4.9971330016851407 3.5693807154893875 2.3795871436595917 6.1869265735149384 6.4248852878808957 2.3795871436595917 6.4248852878808975 2.85550457239151 2.6175458580255491 5.4730504304170609 3.3314220011234283 2.85550457239151 2.8555045723915091 3.0934632867574718 5.2350917160511008 11.184059575200079 2.6175458580255508 14.515481576323507 2.8555045723915153 4.7591742873191825 2.8555045723915127 26.889334723353386 3.0934632867574718 2.3795871436595908 4.9971330016851416 4.7591742873191825 11.659977003931997 9.9942660033702833 3.8073394298553449 4.5212155729532242 2.6175458580255535 4.0452981442213076 5.7110091447830182 2.61754585802555 13.325688004493712 5.9489678591489792 2.6175458580255508 2.3795871436595908 3.8073394298553467 3.5693807154893875 2.3795871436595917 3.8073394298553467 4.0452981442213058 3.0934632867574692 4.5212155729532242 4.0452981442213058 4.5212155729532242 4.0452981442213058 8.5665137171745283 2.3795871436595917
leaf_count=10 36 19 18 44 10 20 53 11 44 24 10 10 22 12 24 12 17 17 28 10 19 12 68 15 14 12 17 17 155 12 15 11 11 16 18 27 14 15 11 14 12 19 12 18 21 15 10 26 27 10 27 12 11 23 14 12 12 13 22 47 11 61 12 20 12 113 13 10 21 20 49 42 16 19 11 17 24 11 56 25 11 10 16 15 10 16 17 13 19 17 19 17 36 10
internal_value=0.446189 0.406969 0.449919 0.426003 0.379774 0.404275 0.390492 0.455573 0.456284 0.468158 0.405965 0.489783 0.487082 0.454184 0.4337 0.41535 0.46619 0.456855 0.434109 0.455737 0.394073 0.425276 0.356899 0.441672 0.405622 0.459478 0.440436 0.473717 0.462742 0.484269 0.458066 0.435101 0.447377 0.419241 0.476969 0.419509 0.396422 0.443407 0.415628 0.423132 0.410147 0.499009 0.407568 0.43714 0.446653 0.423132 0.465603 0.495016 0.500345 0.413581 0.363503 0.42057 0.391614 0.405622 0.435739 0.474315 0.482514 0.486657 0.471708 0.493172 0.432683 0.504255 0.451878 0.453634 0.445215 0.455458 0.425114 0.428662 0.419424 0.407723 0.463246 0.390659 0.467216 0.432137 0.472797 0.464296 0.441842 0.460412 0.481023 0.448147 0.478752 0.403433 0.495866 0.395894 0.410525 0.442588 0.448492 0.384928 0.403433 0.361545 0.46719 0.469826 0.504405 0.444144
internal_weight=498.761 43.3085 455.453 87.0929 29.9828 64.9627 49.0195 368.36 365.743 13.3257 36.4077 22.1302 10.9461 348.61 40.215 25.6995 14.5155 308.394 31.8865 20.7024 11.1841 11.66 21.8922 8.0906 5.71101 276.508 40.453 19.2747 236.055 42.1187 193.936 18.7987 9.28039 6.42489 47.8297 27.6032 14.0396 13.5636 6.66284 16.1812 21.1783 17.133 12.8498 7.13876 15.9432 9.99427 11.1841 9.04243 19.7506 5.23509 8.80447 9.75631 14.2775 11.422 5.94897 9.28039 43.7844 40.9289 22.1302 14.2775 7.85264 18.7987 146.107 140.158 74.719 49.4954 25.2236 22.6061 20.2265 17.8469 65.4386 13.0877 60.6795 8.32856 52.3509 40.6909 17.371 14.7534 23.32 9.99427 12.1359 15.2294 6.18693 6.42489 5.94897 6.42489 6.9008 10.4702 7.61468 6.9008 7.37672 8.56651 12.6118 4.75917
internal_count=2096 182 1914 366 126 273 206 1548 1537 56 153 93 46 1465 169 108 61 1296 134 87 47 49 92 34 24 1162 170 81 992 177 815 79 39 27 201 116 59 57 28 68 89 72 54 30 67 42 47 38 83 22 37 41 60 48 25 39 184 172 93 60 33 79 614 589 314 208 106 95 85 75 275 55 255 35 220 171 73 62 98 42 51 64 26 27 25 27 29 44 32 29 31 36 53 20
is_linear=0
shrinkage=1


Tree=1
num_leaves=95
num_cat=0
split_feature=4 0 4 0 2 2 1 1 0 3 5 3 3 1 5 3 0 2 5 0 4 2 6 8 1 7 3 5 6 2 1 0 7 6 0 8 4 4 8 6 3 6 4 0 6 3 8 0 7 2 6 8 2 1 5 8 1 0 5 1 2 1 7 4 5 5 0 7 3 3 8 0 7 5 6 7 2 1 1 2 3 3 5 8 4 0 2 7 4 0 0 1 4 6
split_gain=26.1498 25.5826 22.2084 43.438 14.8382 13.4278 11.7554 9.25123 12.0471 7.9281 7.91399 7.50209 7.49438 7.02136 6.85143 10.565 8.97109 7.76638 7.38161 6.58191 6.45798 6.92071 6.68766 6.31659 6.33705 6.21506 5.99436 5.97706 5.63544 9.70404 7.88428 8.17128 6.25532 8.34097 5.88276 5.75343 5.47676 4.93421 4.98397 6.15547 4.83445 4.74376 4.72712 4.66921 4.63766 5.15516 5.49113 4.56496 4.45183 4.41325 5.26972 4.52433 5.4336 4.39039 9.38059 5.58131 4.00849 3.95293 3.93933 3.88986 3.79556 3.72186 4.03532 3.70376 3.81922 4.3933 5.49907 5.19568 6.79078 4.81945 4.73451 4.50951 4.66809 6.10749 5.03229 5.63092 6.07023 5.65914 8.00979 4.46216 4.01804 3.83842 3.81904 4.34647 4.63088 9.15832 3.43946 5.98475 3.42254 4.7789 9.48188 7.83656 4.86199 3.24041
threshold=286.44433403881254 6.5491562998861772 362.66862871899838 7.794736216569575 17323.744705489658 26137.205590825379 209.80906934542173 281.5881985992097 4.588088946117634 5.7588997043906831 354.39890217298722 7.7010133384830946 9.3125593413110277 135.80207205051104 330.30434900209895 6.9552559791373856 5.913665775739072 18277.287624471915 270.30579895010413 7.3268709982168954 296.73629933061795 18442.283426173904 13.28389537933484 3.292170623735525 217.36888009271902 62.534313839096406 9.7302297140851035 400.14281547334696 11.286059441414041 31153.577698668592 221.94356221452514 9.1306880653369671 58.247173511490821 15.782715468401706 8.5143790881190586 4.2797843650540122 333.46139588146707 353.83203069230791 4.497578882438841 13.790614883288699 6.3403302987466352 15.421801738883888 352.8329310153473 5.1555681041018575 14.031833874807832 7.9892666180855167 3.9015928169265672 6.5049710144230577 66.691178516706472 28467.202988637509 11.017172060437789 3.4121292411527055 20428.336593572476 162.08320172982209 400.14281547334696 4.3836582526642998 199.11961542103208 9.8952256707595883 482.15710172757798 182.46416867161409 26517.666514177065 222.97291359074566 63.762138679419301 360.68501288864519 333.70730462218006 359.57270756596205 6.6428202238597116 66.081075836249681 7.9301431227464638 7.0750186573633203 2.4465589259002267 5.0939197478125608 90.923371703456596 413.13864193943363 17.414324674106641 86.1252118461138 21760.335228542561 200.10381293740832 197.78231738831511 22490.282735205186 6.2060251684173737 9.5443764721273521 527.29334467012563 4.4193093172631617 331.84752959337578 7.4422797796755349 23954.695257932199 66.688039489657129 318.92292710695227 7.0385933133213667 6.3996683371377214 199.00648055232867 328.90971149379141 18.526269198994019
decision_type=2 2 2 2 2 2 2 2 2 2 2 2 2 2 2 2 2 2 2 2 2 2 2 2 2 2 2 2 2 2 2 2 2 2 2 2 2 2 2 2 2 2 2 2 2 2 2 2 2 2 2 2 2 2 2 2 2 2 2 2 2 2 2 2 2 2 2 2 2 2 2 2 2 2 2 2 2 2 2 2 2 2 2 2 2 2 2 2 2 2 2 2 2 2
left_child=1 9 7 5 19 6 10 8 36 -1 -4 -11 48 25 15 17 -17 -15 -18 -3 21 -16 60 24 -6 -10 27 47 29 30 31 42 33 34 37 -32 -2 38 41 -40 -7 -30 49 -42 45 46 -20 -12 -5 50 51 52 -22 54 -34 -56 -46 -50 -53 -45 -23 62 -19 64 -55 66 -66 -68 69 -69 -67 -72 74 -74 75 76 81 78 80 -75 -78 88 83 84 93 -86 87 -38 -73 90 91 -90 -91 -76
right_child=2 4 3 12 23 40 -8 -9 13 11 26 -13 -14 14 20 16 18 61 44 -21 28 22 -24 -25 -26 -27 -28 -29 32 -31 35 -33 53 -35 -36 -37 86 -39 39 -41 43 -43 -44 59 56 -47 -48 -49 57 -51 -52 58 -54 63 55 -57 -58 -59 -60 -61 -62 -63 -64 -65 65 70 67 68 -70 -71 71 72 73 79 82 -77 77 -79 -80 -81 -82 -83 -84 -85 85 -87 -88 -89 89 92 -92 -93 -94 -95
leaf_value=-0.060990146127259927 0.079483490868165113 0.036197827715067923 -0.086870502803151214 0.07476067735531651 -0.099602637552113418 -0.041471715680650757 -0.093444905637530232 -0.083870232253817845 -0.09319022592587374 0.079483490868165155 -0.021219907357229478 -0.0037541580467550248 -0.041471715680650757 0.059666157913928541 0.039409376057615242 0.060169421906028697 0.040371559336513978 -0.03101672659133476 -0.063223058006907182 -0.054500892779446024 0.037814644088263905 -0.043811144388050116 -0.076590560640484348 -0.099038521557381881 0.0066225442272294793 -0.0053983299315182942 -0.10249953285012398 -0.034701587126792145 0.032050555066514483 -0.076472218938921241 -0.0045641570206043985 -0.071738773889895593 0.044765483589978089 0.051829088262141589 0.057789721994817272 -0.095124296000874783 -0.046911945355691008 -0.063153343783120847 0.019157029128661317 -0.070966560051744246 -0.043471447783392597 -0.042659343643452488 -0.036312759608841436 0.080852334021577391 -0.12306719674657779 -0.075008164156806736 0.0323651979427617 0.056059332986994795 0.048917931691352834 0.080834735021434664 -0.039502449022916782 0.054598078509431096 -0.052377618641866831 0.06563313302093686 -0.069735772981197292 0.019680388510216345 -0.051956599923669203 -0.021793600457922876 -0.00067217404135595782 0.010962782872928891 0.04348821890203905 -0.064155037521191421 0.049749264846685355 0.065893028802430351 0.036827480615027545 0.081235073274829095 -0.081048715872952704 -0.010073222948261516 -0.054775100598607608 0.080893496887543104 -0.046489485732899884 0.037768877508361359 0.046817009413327483 -0.0080702754087885551 0.017843221508772694 0.071990606516308869 -0.012676187533992998 0.049426885514044894 -0.0680221719515888 -0.082772433214466284 0.042061980132100822 -0.051660022960894961 -0.043193973560505389 -0.047255091002601418 0.067558342559843262 -0.030145842874693518 0.064878213369848059 0.058926987295667956 0.065615202354257371 -0.036715888728273118 -0.087596735646182533 -0.044936998969499861 0.024738698278104293 -0.064785479530235765
leaf_weight=2.4113759398460379 8.4003535509109515 4.482378304004671 6.7341615110635749 10.279707610607153 2.429493814706805 4.8031994700431815 12.86160948872566 2.6645475178956977 3.1162272095680219 5.600235700607298 3.8323823362588945 5.239618331193924 2.4015997350215903 7.0778011232614508 3.55673624575138 2.3660213053226498 2.3827126026153591 3.0937435477972013 2.3929399102926272 3.6122544854879379 3.3423852026462653 2.3806287199258787 5.9660262614488602 16.518841445446014 3.3262988030910492 5.7094875276088715 2.4100557267665854 19.902323782444 19.195797085762035 4.07188956439495 4.0419138818979254 2.6083516031503668 4.2250992059707633 25.336256414651871 6.5915231555700293 3.0982177257537842 3.0978271067142469 2.3937502950429908 4.0225361734628668 3.5815597921609879 2.3847509175539008 2.3891974985599509 3.3515027016401282 3.0650722086429578 3.3761053383350355 4.0899835526943207 4.0372297614812851 3.8115135878324509 6.3496525436639768 3.3018855899572364 3.310944363474845 13.227590352296831 3.3371984362602234 3.3013886064290991 6.5006667077541334 2.3856572806835175 4.7984250336885452 2.8696269392967224 4.2628455013036719 5.6809028685092926 2.6102093011140823 2.3858078569173813 3.0924102663993835 3.306458353996276 4.4955103099346188 2.6007320135831824 3.3509500324726096 3.8014034181833249 4.7528622448444366 2.359964907169342 3.099186345934867 9.2201352864503843 2.8509601056575766 4.9940573275089246 2.3657660186290803 5.4358121752738944 4.7533785849809709 23.822561055421829 2.63980709016323 3.3332784473896027 11.375909283757208 2.6168949604034415 4.7718059718608847 3.0921686440706244 7.3279643058776838 3.5653962790966034 3.0733892768621445 2.3480327427387238 3.2995134443044645 3.7977125793695476 3.8191316276788712 3.117603063583374 21.100194618105888 2.3803896456956863
leaf_count=10 36 19 28 44 10 20 53 11 13 24 16 22 10 30 15 10 10 13 10 15 14 10 25 68 14 24 10 83 81 17 17 11 18 107 28 13 13 10 17 15 10 10 14 13 14 17 17 16 27 14 14 56 14 14 27 10 20 12 18 24 11 10 13 14 19 11 14 16 20 10 13 39 12 21 10 23 20 101 11 14 48 11 20 13 31 15 13 10 14 16 16 13 89 10
internal_value=2.0642e-05 -0.0369595 0.00356801 -0.0190871 -0.0622529 -0.0394733 -0.0523122 0.00895739 0.00963565 0.0210083 -0.0378934 0.0392492 0.0418707 0.00763112 0.00877758 -0.0109102 -0.0321475 0.0209033 -0.0425104 -0.00427675 0.0113445 -0.021191 -0.0408626 -0.0833216 -0.0382146 -0.0363963 -0.0268833 -0.0202675 0.0129995 -0.00263422 0.0042172 0.0135599 0.0161578 0.0295873 0.0148255 -0.0438597 0.0508359 0.00585856 0.0115181 -0.0232915 0.000453827 0.0237811 0.0200779 0.0185458 -0.0530741 -0.0311217 -0.00320726 0.0173142 0.0521355 0.0262175 0.0196551 0.0277589 -0.00724647 0.0112521 -0.0165687 -0.0457308 -0.0813255 0.026908 0.0411274 0.0354559 0.00184644 -0.011103 0.00935757 0.0135213 0.0124215 0.0112818 -0.0113939 -0.0265903 -0.00987015 0.0247694 0.0144241 0.0131155 0.01454 -0.0163472 0.0174535 0.0225786 0.0195796 0.0332494 0.0127163 -0.0379722 0.0259304 0.00718439 -0.00326133 0.00691132 0.0176208 0.0355798 0.0225881 -0.00127851 0.0106562 0.00354111 -0.0252183 0.0119061 0.0153649 -0.0235984
internal_weight=498.349 43.6205 454.729 87.3866 30.3693 65.486 49.552 367.342 364.678 13.2512 36.6904 10.8399 21.9006 347.758 338.932 39.0932 23.4434 15.6498 21.0774 8.09463 299.839 14.5136 10.9569 22.2746 5.75579 8.82571 29.9563 27.5462 285.326 47.9547 43.8828 36.7427 237.371 63.5106 38.1744 7.14013 16.9196 31.5828 29.1891 7.6041 15.9339 21.585 34.1344 11.1307 18.6947 10.5202 6.43017 7.6439 19.499 30.7828 27.481 24.17 6.67958 173.86 13.1114 8.88632 8.17453 9.21928 17.4904 8.74598 4.99084 8.57196 6.18615 160.749 157.442 154.141 18.7607 14.2652 10.9142 6.16137 135.38 132.78 129.68 11.1783 118.502 94.9987 89.5628 42.5917 18.7691 8.32734 16.1293 46.9712 23.5035 18.7317 15.6395 10.8934 8.51925 5.44586 44.3543 35.1342 10.2362 6.41712 24.8979 4.74616
internal_count=2096 182 1914 366 126 273 206 1548 1537 56 153 46 93 1465 1428 164 98 66 88 34 1264 61 46 92 24 37 125 115 1203 202 185 155 1001 268 161 30 72 133 123 32 67 91 144 47 78 44 27 32 83 130 116 102 28 733 55 37 34 39 74 37 21 36 26 678 664 650 79 60 46 26 571 560 547 47 500 401 378 180 79 35 68 198 99 79 66 46 36 23 187 148 43 27 105 20
is_linear=0
shrinkage=0.05


Tree=2
num_leaves=95
num_cat=0
split_feature=4 4 0 0 3 4 2 4 1 0 2 1 3 0 0 1 0 3 5 4 2 2 5 1 6 6 3 8 4 5 4 7 6 3 4 0 6 2 0 2 0 3 3 3 3 7 3 7 3 3 5 7 5 2 5 7 8 8 1 8 1 0 4 7 5 8 1 6 1 3 2 3 8 4 5 0 3 3 1 2 6 3 7 0 7 7 4 1 7 4 8 0 5 8
split_gain=23.8705 16.799 39.1657 13.3813 32.9961 21.8805 18.7073 17.3181 16.2583 13.2196 11.9939 11.2613 11.1465 13.7333 13.6617 10.9612 10.9686 9.77014 9.06191 8.84443 8.63971 8.31532 9.27184 7.40616 7.78813 7.15847 6.86392 6.78012 6.71547 6.29158 6.44948 8.56156 6.21664 7.18192 6.19781 6.17452 6.4765 6.68444 6.00218 5.87448 5.72324 5.44824 5.41213 4.92962 5.59133 5.33616 6.22703 4.92687 4.7953 7.38203 5.45595 4.67629 5.20024 4.63603 7.74552 4.62883 4.54521 5.81054 4.3458 5.79236 4.29261 4.20466 4.97463 4.19547 4.18011 10.0061 6.04163 4.17848 4.1583 4.08284 4.0234 3.81927 3.78481 3.76835 4.50154 3.69737 4.33121 3.69157 3.65945 4.38534 3.63828 3.9449 4.61165 3.59799 3.43404 3.17611 4.03308 5.37276 3.06954 2.99046 2.98319 5.43507 2.96435 2.94831
threshold=255.76071196465651 362.66862871899838 7.794736216569575 6.3204015538355369 5.3225019487483287 319.98902248935281 31083.409348857334 328.26115909707988 222.97291359074566 6.5049710144230577 26785.806971107504 209.80906934542173 7.4152297130987916 9.435321519452776 7.7088636698149839 162.08320172982209 6.9331978064018793 7.6690148949141159 338.46963223405203 405.30778740412342 30816.718097200301 15801.340274393266 360.14330890023342 198.78756748834255 16.026480104713475 16.642647540793806 9.3125593413110277 4.3084637050984531 346.37178043374183 475.23342760207237 288.62222306542822 63.685414254800556 10.065650444823889 7.2133820713661416 312.01194635167411 8.0062787958090471 15.691071406018212 23717.279704721735 5.9460747163683232 34050.412961375587 7.5135984410428813 8.5240207692348804 5.4207553345609467 6.1477961507191798 6.4760256695069502 67.157141766831131 8.1863686631600849 52.391832595024276 8.1863686631600849 8.3470035641873341 552.21761803837285 56.461910122852331 333.70730462218006 16334.979950092638 402.99418379342245 53.759543116942204 4.5470852799876313 3.8288522106210472 208.75023981568452 4.2371462756153759 156.73908706826884 6.813441720933457 292.16896049231099 66.691178516706472 500.81183055701973 3.8825165020631669 203.38379327807698 18.825404984999981 176.89839895519714 8.1226560299905195 14579.391692021552 7.6690148949141159 4.2371462756153759 394.60710739160993 383.66102152107663 6.7202899529831024 6.7721356190847182 8.095708955060994 185.84273401577147 20380.220685032738 15.952262225166637 8.551362826296435 74.002209379087375 4.1151982851655307 59.714191297196372 60.078132593788908 329.33906699588954 204.51665453218868 70.570440919496448 296.73629933061795 3.441573717235618 7.4508834741146197 448.40328785246527 4.1356571191689753
decision_type=2 2 2 2 2 2 2 2 2 2 2 2 2 2 2 2 2 2 2 2 2 2 2 2 2 2 2 2 2 2 2 2 2 2 2 2 2 2 2 2 2 2 2 2 2 2 2 2 2 2 2 2 2 2 2 2 2 2 2 2 2 2 2 2 2 2 2 2 2 2 2 2 2 2 2 2 2 2 2 2 2 2 2 2 2 2 2 2 2 2 2 2 2 2
left_child=9 3 10 4 56 6 21 -6 27 -1 11 19 13 15 25 -7 28 -10 -16 42 35 41 71 24 29 39 63 60 75 30 -24 -32 -25 34 55 -20 37 70 -12 40 48 61 -3 -44 -45 47 -47 -46 50 -50 53 52 -18 -14 -55 -34 57 -2 -8 -60 -9 -5 -63 -4 85 -66 -67 -38 -40 -70 -37 90 -21 74 -65 76 -17 -72 -29 -80 81 -51 -83 -62 -49 -53 87 -87 -77 -35 -23 -92 -26 -88
right_child=1 2 26 5 7 12 58 8 17 -11 38 -13 14 -15 18 16 51 -19 20 72 -22 22 23 32 92 -27 -28 78 -30 -31 31 -33 33 89 -36 36 67 -39 68 -41 -42 -43 43 44 45 46 -48 84 49 80 -52 64 -54 54 -56 -57 -58 -59 59 -61 83 62 -64 73 65 66 -68 -69 69 -71 77 -73 -74 -75 -76 88 -78 -79 79 -81 -82 82 -84 -85 -86 86 93 -89 -90 -91 91 -93 -94 -95
leaf_value=0.010867247944556509 -0.080681911007583873 -0.08543480925266754 0.072526299683001547 -0.025528675079534088 0.058785876319200271 -0.0406283998035466 -0.082721805897914669 -0.031653159778939774 -0.088447899585116882 -0.1044836912617603 -0.039596959414228451 -0.088234970955734862 -0.094824928023744093 0.072086602571740752 -0.09663036414266124 0.041667664272038961 -0.013500174217327413 0.012231904129610564 -0.053884892443835035 -0.10722894513857631 -0.086119490045421257 -0.082135569892015398 -0.09413606200676225 -0.064084832198577635 -0.021234236312414709 0.048494198135335682 -0.039083293860614168 0.079647183264232868 -0.079345125781971809 -0.092717602511991848 -0.063960266057803569 0.045526805060675968 -0.043642638059209399 0.00958864689852253 -0.065600106375063916 0.006428560039993857 0.080998032833698094 0.048663355998124755 0.081041992863578771 0.079343668568369996 0.048992178416729787 -0.027298582858302459 0.048253337977078627 -0.086056429702977985 -0.035692884702768407 -0.0093005713374742487 -0.093038846174801404 0.083052768084882711 0.081319395863275037 -0.04496427010131962 0.038292015281990457 -0.01345159682119234 0.056343079543966848 0.028286821329782719 -0.066512474230477681 0.03734422653788369 -0.12040343925236646 0.01150664095299888 0.025147671462757905 -0.075685541532878334 0.079470603847109647 -0.0020068621427203593 0.068441375725379658 0.045024494332267448 0.055208049380397466 0.0058290972210540458 -0.086411039087109578 -0.0038051981183927228 -0.022775543295862313 0.059229441501136418 -0.023808749634075047 -0.088778219386400667 -0.044093104848827072 0.066309809094147923 -0.044395888302113454 -0.070369516541577443 -0.023451199956857155 -0.10591448914434108 -0.017215062425320015 0.056110405332591054 -0.063198495840192243 0.043298428203557088 -0.030674784235142801 0.013530814274617132 0.0097638994831903553 0.035256159909001925 0.023830180434938415 -0.058504150550424627 0.0044921383672796534 0.072489849327901798 0.020096070413171838 -0.069634651664152961 0.051814477752034599 0.051176929872943581
leaf_weight=3.5409681051969519 4.286105275154112 2.9162257611751583 10.071844577789312 2.3546614497900036 35.693708315491676 8.4113149642944318 11.86904612183571 4.7788881957531002 5.5188759565353376 8.3195046335458738 5.280702978372573 13.279556185007094 3.3613255172967902 11.304952964186667 4.3721154034137752 6.3616383075714165 3.1063093990087536 4.2771639376878738 5.4905082434415879 4.8866514116525632 4.1009439080953589 2.40257580578327 2.4593328088521975 2.3842659294605282 2.3891284316778174 10.630404278635977 2.4204382300376883 7.0017057657241848 3.3648588061332694 5.067203775048255 3.0832810252904892 4.2421767115592957 2.3773192465305346 2.6537527292966825 3.0659882426261893 3.3178056776523608 3.7771818339824668 3.0690253376960746 2.5855914056301099 2.3276079297065726 4.7083681672811499 4.5347585827112189 2.8658605068922069 2.9100813865661648 3.3569893836975115 6.4749266505241376 3.3785156458616257 2.6298903226852417 2.8335406929254559 3.1156693994998923 2.3535814732313147 4.7326007634401313 18.763883486390114 3.7774103283882123 5.0156174004077911 6.8426539897918701 2.6698495149612427 2.8429747670888901 2.6166430115699759 3.1254797279834747 2.3278637081384685 3.5627931058406821 8.4471836537122709 2.8188448548316938 3.9887329339981061 3.3085698634386063 3.8305014967918396 2.3602030277252197 4.2823151797056198 2.3511748313903809 2.8442724198102951 4.8602841496467581 4.6160010397434235 3.5235560685396194 2.8109047114849091 2.8974472582340232 4.2657206505537033 2.6393865942955017 3.0600335448980314 6.1115575134754181 2.3913743495941153 6.605939179658888 3.093592643737793 18.584343165159225 4.0749013721942902 3.2957216948270789 23.57908821105957 2.8484890311956406 2.5962164849042892 6.5617175847291946 4.0294818729162216 2.9036371409893036 3.3170071244239807 16.934730350971222
leaf_count=15 18 12 44 10 153 35 49 20 23 34 22 54 14 48 18 27 13 18 23 20 17 10 10 10 10 45 10 30 14 21 13 18 10 11 13 14 16 13 11 10 20 19 12 12 14 27 14 11 12 13 10 20 80 16 21 29 11 12 11 13 10 15 36 12 17 14 16 10 18 10 12 20 19 15 12 12 18 11 13 26 10 28 13 79 17 14 100 12 11 28 17 12 14 72
internal_value=3.70874e-05 0.00174876 -0.0180829 0.00610961 0.0222434 0.000900877 -0.0189263 0.0320027 0.0134975 -0.0700454 -0.0372524 -0.0485838 0.0100689 0.0195585 -0.00420147 0.0142699 0.0187154 -0.0444889 -0.0297494 -0.0347673 -0.0191546 -0.00836049 -0.0176561 -0.00641951 -0.0284203 0.0120649 0.040269 0.027066 -0.0150969 -0.0474957 -0.0240768 -0.000556241 0.0125163 0.0210105 -0.00401662 -0.00746784 0.00668448 -0.0148764 0.00290821 0.00228168 -0.00253279 0.0204812 -0.0208848 -0.0135576 -0.0213184 -0.0118587 -0.0380125 0.0137536 -0.00998634 0.00722436 -0.0313873 0.0265228 0.046423 -0.04488 -0.0257875 0.0164622 -0.0647578 -0.0439184 -0.065446 -0.0297366 0.0111008 0.0355648 0.0475427 0.0502594 0.0195614 -0.00822278 -0.0436628 0.048386 0.0272552 0.00629031 -0.0370324 -0.0528348 -0.0765601 0.025758 0.000377362 -0.00168668 0.0155296 -0.0633278 0.0524265 0.0316459 -0.00658226 0.00398259 0.0197052 0.020871 0.0385108 0.0255776 0.0295363 -0.00821162 -0.0349911 0.0543764 -0.0341221 -0.0174838 0.0212294 0.0352611
internal_weight=497.476 485.615 87.535 398.08 97.1531 300.927 95.1504 87.3541 51.6604 11.8605 65.8894 51.3896 205.777 123.591 82.1859 112.286 103.875 9.79604 31.9714 38.11 27.5993 77.5392 58.6398 44.4438 20.5581 50.2144 21.6456 41.8644 19.4859 14.852 9.78479 7.32546 23.8857 21.5014 12.286 23.4984 18.0079 11.8705 14.4998 39.584 37.2564 18.8994 28.6074 25.6912 22.8253 19.9152 9.85344 10.0618 32.5481 18.0401 14.5079 84.3886 21.8702 12.1544 8.79303 9.21997 9.79893 7.12908 17.6112 5.74212 25.6911 14.3646 12.01 19.2252 62.5184 11.1278 7.13907 6.13738 9.21908 6.63349 8.80146 14.196 9.50265 9.15331 5.62975 16.121 10.6274 5.48366 16.1733 9.17159 15.2066 12.8152 9.69953 20.9122 6.70479 51.3906 46.658 6.14421 5.49366 9.21547 9.33569 6.93312 5.70614 40.5138
internal_count=2096 2047 366 1681 413 1268 399 372 219 49 273 212 869 523 346 475 440 41 134 158 116 326 246 187 86 212 93 178 82 62 41 31 101 91 52 99 76 50 61 167 157 80 119 107 95 83 41 42 137 76 61 358 93 51 37 39 41 30 73 24 109 61 51 83 265 47 30 26 39 28 37 59 39 39 24 68 45 23 69 39 64 54 41 89 28 218 198 26 23 39 39 29 24 172
is_linear=0
shrinkage=0.05


Tree=3
num_leaves=95
num_cat=0
split_feature=4 4 0 0 3 4 2 4 1 0 2 3 0 0 1 1 0 3 5 4 2 2 5 1 6 6 3 8 4 6 3 4 5 4 7 0 6 2 0 3 0 2 2 3 4 0 2 2 7 5 6 5 3 3 1 3 7 8 8 7 7 1 1 0 4 1 8 5 8 1 3 0 5 5 8 6 6 8 5 0 4 8 0 3 8 3 7 3 3 4 1 5 7 2
split_gain=21.3813 15.175 35.3828 12.185 29.7866 19.7542 16.6355 16.0631 14.6839 11.6952 10.7071 10.1241 12.7341 12.2987 10.0484 9.89215 9.97738 8.62557 8.01248 7.84103 7.65024 7.51027 8.26818 6.67028 6.97436 6.55437 6.29326 6.27425 5.95699 5.58094 6.6048 5.52775 5.51813 5.74753 7.70188 5.51361 6.14213 5.42376 5.41483 5.28913 5.21412 5.14936 5.31678 4.9581 4.66283 6.15915 4.70763 6.55533 4.32397 4.80417 4.31875 5.34292 6.26101 5.85151 4.44009 5.20642 4.1902 3.98169 5.12656 3.9731 3.94889 3.87763 3.8663 3.85413 4.62951 3.81933 5.15411 3.8027 9.0556 5.32622 3.72816 3.68863 3.61971 5.47006 3.89656 3.55901 3.49894 3.45367 3.36901 3.35642 3.34692 4.9593 3.32676 3.94292 3.04882 2.98416 2.94336 3.16464 5.27747 3.94774 5.27928 2.95236 2.83657 2.82106
threshold=255.76071196465651 362.66862871899838 7.794736216569575 6.3204015538355369 5.3225019487483287 319.98902248935281 31083.409348857334 328.26115909707988 222.97291359074566 6.5049710144230577 26785.806971107504 7.4152297130987916 9.435321519452776 7.7088636698149839 214.72827836897457 162.08320172982209 6.9331978064018793 7.6690148949141159 338.46963223405203 405.30778740412342 30816.718097200301 15801.340274393266 360.14330890023342 198.78756748834255 16.026480104713475 16.642647540793806 9.3125593413110277 4.3084637050984531 346.37178043374183 10.065650444823889 7.2133820713661416 312.01194635167411 475.23342760207237 288.62222306542822 63.685414254800556 8.0062787958090471 14.062333119079371 34050.412961375587 5.9460747163683232 5.4207553345609467 7.5135984410428813 23954.695257932199 14579.391692021552 8.5240207692348804 368.30235888117119 6.7705110151940522 13232.520993488988 18990.65029300551 56.461910122852331 333.70730462218006 15.952262225166637 521.77749931200947 8.1863686631600849 8.3470035641873341 185.65769817299315 7.8564343517699102 53.759543116942204 4.5470852799876313 3.8288522106210472 66.691178516706472 65.874507306708807 156.73908706826884 176.89839895519714 6.813441720933457 292.16896049231099 208.75023981568452 4.2371462756153759 500.81183055701973 3.8825165020631669 203.38379327807698 8.1226560299905195 9.8952256707595883 427.36783578703961 359.57270756596205 3.5423102181727879 10.679219215897549 12.167421295631671 4.2371462756153759 304.97863247750519 4.1151982851655307 378.72503034651248 4.0318231475954187 6.7202899529831024 6.7721356190847182 5.1033525015214716 7.5655441042655083 60.078132593788908 6.9631338251262029 7.1487856486954406 329.33906699588954 204.51665453218868 393.9307526683761 71.778483404204891 24396.609303163659
decision_type=2 2 2 2 2 2 2 2 2 2 2 2 2 2 2 2 2 2 2 2 2 2 2 2 2 2 2 2 2 2 2 2 2 2 2 2 2 2 2 2 2 2 2 2 2 2 2 2 2 2 2 2 2 2 2 2 2 2 2 2 2 2 2 2 2 2 2 2 2 2 2 2 2 2 2 2 2 2 2 2 2 2 2 2 2 2 2 2 2 2 2 2 2 2
left_child=9 3 10 4 57 6 21 -6 27 -1 14 12 15 25 19 -7 28 -10 -15 39 35 43 78 24 32 37 59 61 82 -25 31 56 33 -24 -35 -20 41 40 -12 -3 50 42 -37 63 85 80 -47 -48 49 -18 51 52 54 -54 -13 76 -31 58 -2 -4 -38 -9 -40 -5 -65 -8 -67 84 -69 -70 -64 -61 73 -55 -74 -29 -56 -21 -23 -63 -46 -82 83 -17 86 -41 -50 89 -89 90 -88 -90 -81 -26
right_child=1 2 26 5 7 11 65 8 17 -11 38 13 -14 18 -16 16 48 -19 20 77 -22 22 23 29 93 -27 -28 75 -30 30 -32 -33 -34 34 -36 36 60 -39 62 44 -42 -43 -44 -45 45 46 47 -49 67 -51 -52 -53 53 72 55 -57 -58 -59 -60 71 -62 79 70 64 -66 66 -68 68 69 -71 -72 -73 74 -75 -76 -77 -78 -79 -80 92 81 -83 -84 -85 -86 -87 87 88 91 -91 -92 -93 -94 -95
leaf_value=0.010350630980663713 -0.07543358767007094 -0.082385150971865773 0.070491333873691081 -0.024103793359743761 0.056756829237520935 -0.038308508419647114 -0.07760454720189143 -0.029881880224862031 -0.082700800702823291 -0.098049648075015941 -0.037329738375052691 0.012588962143139835 0.069778861804067921 -0.090561034974761589 -0.087278922829312766 0.040002765092126552 -0.012789320165874883 0.011652282862926067 -0.050635999159131376 -0.10091399740856327 -0.080644600425620411 -0.0015206824583089327 -0.088544413022789245 -0.060103371271074936 -0.021087202156329254 0.046625499350407565 -0.036878278188676644 -0.0066633496677624207 -0.074331381956367765 -0.04108411016776195 0.052419948800397013 -0.061411723244855089 -0.086770830928805331 -0.059945042152582242 0.043753762101505694 0.0042557589263994408 -0.00262383841189868 0.077108698229613526 0.078640705335819738 -0.097965765997028539 0.047129819455463511 0.037791900367330662 -0.090769118861010717 -0.025788237333374122 0.0032194017756820904 0.083626616381170651 -0.044386812177710795 0.042365034861687571 -0.017464101243274535 0.054333136762517033 -0.062965776820789882 0.047105226197939228 0.078473844657618044 -0.040056700766980841 -0.078268026277775821 -0.12131093838221992 0.035807212470645805 -0.11242650368653886 0.010960523916929229 0.046245479609298083 0.061948769662809905 0.077225221557725945 -0.021530457621824588 -0.001905665386519042 0.066226795536069957 0.024026493987181249 -0.070955549494825271 0.053222835159173545 0.0055453093001388322 -0.080780745435861528 0.057151853075654173 -0.022325598455449916 -0.083383331992439816 0.055360526083652661 0.0049796224748337725 0.060290017161349962 0.0018980506443263903 -0.041596773177110878 -0.061991143385447228 -0.0040239197966643108 -0.10232027873273564 -0.016087974706218845 -0.033047041775769996 -0.022163323011772627 0.066642086844331969 -0.019436384144485223 0.040804225708574372 -0.057416272040545349 0.05296442553242945 0.039307657075202673 -0.062339125998866089 -0.016632562919288246 0.035521619073532261 0.050317476206117144
leaf_weight=3.5320506542921057 4.3532466441392881 3.2002989351749447 9.8500948548317009 2.3687861412763622 35.135511472821236 8.4729907810688001 12.015049800276758 4.8082664459943798 5.6048900187015516 8.4193078279495221 5.3202888816595069 2.8513257056474739 11.10008169710636 4.4302385151386252 11.417022630572317 6.2967568486928993 3.1147906631231335 4.265726238489151 5.5490603595972123 5.1990249902009946 4.1587791144847861 2.8853310048580161 2.4832274317741412 2.4142784476280239 2.3873764723539344 10.506805852055548 2.4364700913429251 2.3233000934123984 3.4109583646059027 2.3985272943973559 9.0857100635766965 3.1101349443197241 5.1416773349046698 3.1241985261440277 4.1946013271808624 2.59784844517708 4.2178585082292539 2.2766074240207663 2.5326504558324796 2.4340905845165279 4.6511674374341956 2.3458342999219894 3.3966866731643677 4.5596641302108756 4.3283438384532946 2.3866277486085883 3.8640198856592161 4.989411860704422 4.5144371837377539 18.492059320211411 3.3803797066211692 4.459807649254798 2.5366722792387 2.4098189324140531 2.4296483099460602 2.4194889813661575 6.7811412215232849 2.7150263786315918 2.8355899602174759 6.2288392782211286 5.39747454226017 2.2770541012287167 4.3029104918241501 3.5643502473831168 8.2969830781221372 2.6021847277879706 3.1660196036100388 3.9320853948593122 3.304112046957016 3.8909337967634201 2.3157171905040741 2.8624815195798874 2.3959325551986694 3.9872928261756897 2.6031205058097839 13.624407559633253 3.0949262827634811 4.6475148946046829 11.418915063142775 10.597334936261179 2.9158281236886978 3.8939744532108307 5.5241650938987723 4.2873388379812241 3.9529384523630133 2.4051056057214737 2.5694702416658393 2.8567951172590238 3.7264359593391418 28.462593480944633 2.398795023560524 2.5779744535684586 7.9262021631002417 3.288723886013031
leaf_count=15 18 13 44 10 153 35 49 20 23 34 22 12 48 18 46 27 13 18 23 21 17 12 10 10 10 45 10 10 14 10 39 13 21 13 18 11 18 10 11 10 20 10 14 19 18 10 16 21 19 80 14 19 11 10 10 10 29 11 12 27 23 10 18 15 36 11 13 17 14 16 10 12 10 17 11 59 13 19 47 45 12 16 23 18 17 10 11 12 16 122 10 11 34 14
internal_value=5.3386e-05 0.00168387 -0.0171597 0.00584127 0.0213009 0.000874613 -0.0179353 0.0306987 0.0128956 -0.0660135 -0.0352312 0.00961846 0.0187009 -0.00397648 -0.0458757 0.013629 0.0178885 -0.0419248 -0.0281325 -0.0341357 -0.0181347 -0.007928 -0.016733 -0.00608421 -0.0268983 0.0115277 0.0387617 0.0259167 -0.0143055 0.0119564 0.0200952 -0.00380204 -0.0448198 -0.0228143 -0.000512464 -0.00707462 0.00638767 0.00219099 0.00278258 -0.0215819 -0.0023915 -0.0250115 -0.0495882 0.0195855 -0.0144324 -0.00480866 0.0213033 0.00450278 0.0253879 0.0446569 -0.00946375 -0.00326747 -0.0123523 0.00979365 -0.0409346 -0.0601455 0.0157165 -0.0608391 -0.041356 0.0484914 0.0336234 0.0105852 0.0261027 0.0341243 0.0457529 -0.0615494 -0.0281067 0.0186929 -0.00779298 -0.0411381 0.00599881 0.0246553 -0.00549387 0.0194165 -0.0373707 0.0505361 -0.0333581 -0.0729166 -0.0497936 0.0199396 -0.0311596 -0.053011 -0.00159491 0.0148209 0.0244648 -0.0589363 0.0209255 0.0249945 -0.00104094 0.0321291 -0.0089958 0.0245051 0.0128976 0.0202846
internal_weight=496.218 484.267 87.5307 396.736 96.4666 300.269 95.2869 86.5627 51.4272 11.9514 66.1528 204.982 122.886 82.0968 51.6813 111.786 103.313 9.87062 32.0938 40.2642 27.6635 77.5036 58.7138 44.4096 20.6198 50.003 21.3779 41.5566 19.5192 23.7898 21.3755 12.2898 14.9437 9.80203 7.3188 23.5048 17.9557 39.4962 14.4716 30.4177 37.2196 8.34037 5.99454 18.7898 27.2174 22.3782 11.2401 8.85343 83.7934 21.6068 32.5684 29.188 24.7282 13.9328 10.7954 7.94406 9.17967 9.90386 7.18884 18.9414 9.61533 25.6089 9.15128 14.2301 11.8613 17.7833 5.7682 62.1866 11.1271 7.19505 6.61863 9.09132 11.3962 6.39711 4.99905 15.9477 5.52457 9.84654 14.3042 20.8006 11.1381 6.8098 16.1083 10.5841 51.0594 4.8392 47.1065 42.5921 9.16121 33.4309 4.96827 6.30441 18.5235 5.6761
internal_count=2096 2047 366 1681 413 1268 399 372 219 49 273 869 523 346 212 475 440 41 134 166 116 326 246 187 86 212 93 178 82 101 91 52 62 41 31 99 76 167 61 126 157 35 25 80 113 93 47 37 358 93 137 123 104 59 45 33 39 41 30 83 41 109 39 61 51 73 24 265 47 30 28 39 48 27 21 69 23 40 59 89 46 28 68 45 218 20 201 182 39 143 21 27 79 24
is_linear=0
shrinkage=0.05


Tree=4
num_leaves=95
num_cat=0
split_feature=4 0 4 0 2 2 1 1 0 5 3 3 3 0 1 0 2 5 3 0 4 7 1 7 0 8 4 3 5 6 3 7 6 8 1 7 5 4 1 5 6 7 7 2 3 3 0 2 5 3 8 1 7 6 0 8 0 7 0 2 7 4 8 6 0 4 7 0 8 7 6 2 6 6 3 4 6 7 2 0 0 2 4 2 3 1 0 8 3 1 6 8 1 7
split_gain=19.2849 18.5547 16.4275 32.0298 12.1448 10.1273 8.96709 8.17677 9.91724 6.63309 6.32757 6.86701 5.99148 5.63095 5.43453 5.76623 14.071 6.72538 8.23472 8.80144 6.3708 5.85296 5.32623 5.20137 5.13425 5.07094 4.94317 4.8977 4.89102 4.6752 4.49169 4.44652 9.56993 7.20271 4.66211 4.76201 4.2392 7.60302 3.95766 5.82714 7.26145 3.9563 3.9386 7.04296 3.86358 3.80065 3.75185 3.74582 3.73926 3.6948 3.57429 3.5308 4.89542 5.30519 3.24428 3.22608 3.21828 3.1512 3.93827 3.11383 5.07543 3.09377 3.41625 3.0821 7.49685 9.92559 7.55865 6.71398 6.54335 6.13846 4.9367 4.92987 4.72766 3.93309 5.27973 5.14323 5.25032 4.63999 5.95191 5.5853 9.30436 7.91395 6.60175 4.77246 4.73075 7.46419 6.16357 4.22039 4.61515 3.8864 4.53298 3.69552 3.52499 3.10585
threshold=286.44433403881254 6.5491562998861772 362.66862871899838 7.889553463359702 17323.744705489658 26137.205590825379 209.80906934542173 281.5881985992097 4.588088946117634 354.39890217298722 5.7588997043906831 7.7010133384830946 9.3125593413110277 7.3268709982168954 135.80207205051104 9.8014880137278748 29567.12347998012 330.30434900209895 6.9552559791373856 7.6943023359238696 298.38523341312543 70.040563157604382 223.69815791744233 62.534313839096406 6.968866688572084 4.0029738357182376 333.46139588146707 9.7302297140851035 400.14281547334696 11.375622951146058 6.3403302987466352 58.247173511490821 15.782715468401706 4.007427816500746 228.71175346944668 55.630061590314931 450.34716294214263 328.26115909707988 156.73908706826884 422.3296376509133 14.320715039192551 66.081075836249681 92.643637222758258 23342.579811483418 7.9665053218993496 6.3845293918209718 6.5049710144230577 19665.392051727526 376.57559594795794 7.4407552277805999 4.1935660445142533 220.92637304680932 72.097967150841995 13.28389537933484 6.6292104328737809 3.1759766498211706 6.4532541703545201 66.691178516706472 9.8952256707595883 23954.695257932199 66.688039489657129 353.83203069230791 4.8886122485392267 17.37300081671788 7.2044990117883563 332.78415903569885 78.581989592980506 7.9900172362541442 3.661705743773549 86.953832063124835 18.420469468019181 27050.328035668485 16.642647540793806 16.346261905952648 6.8647113137039542 333.46139588146707 10.753372637177081 82.220663941412155 18528.029860657523 7.0385933133213667 6.5718778026824198 18582.963647399087 334.05408710209861 25381.40484359338 7.8042821567189238 185.92957120646096 6.0118892714973517 4.1356571191689753 7.1728856432743164 207.37650165713691 11.503410875693506 4.8660769068933298 228.35540147306389 68.047348887730692
decision_type=2 2 2 2 2 2 2 2 2 2 2 2 2 2 2 2 2 2 2 2 2 2 2 2 2 2 2 2 2 2 2 2 2 2 2 2 2 2 2 2 2 2 2 2 2 2 2 2 2 2 2 2 2 2 2 2 2 2 2 2 2 2 2 2 2 2 2 2 2 2 2 2 2 2 2 2 2 2 2 2 2 2 2 2 2 2 2 2 2 2 2 2 2 2
left_child=1 10 7 5 13 6 9 8 26 -4 -1 -12 57 -3 23 17 44 18 22 21 24 25 -16 -10 -19 47 -2 28 46 -6 -7 32 33 36 35 45 -22 -38 39 -33 -41 -32 63 -44 -17 -35 -11 -20 -47 -39 -27 52 53 -26 -50 -31 -43 -5 -59 60 -28 62 -34 69 65 66 71 -66 -69 72 -67 -65 73 75 -75 76 -40 79 -79 80 84 -82 87 -83 85 -77 -86 88 -81 -84 -91 -89 -78 -74
right_child=2 4 3 12 29 30 -8 -9 14 27 11 -13 -14 -15 15 16 -18 20 19 -21 31 -23 -24 -25 51 50 59 -29 -30 55 41 38 61 34 -36 -37 37 49 42 40 -42 56 43 -45 -46 48 -48 -49 54 -51 -52 -53 -54 -55 -56 -57 -58 58 -60 -61 -62 -63 -64 64 67 70 -68 68 -70 -71 -72 -73 93 74 -76 77 92 78 -80 82 81 83 89 -85 86 -87 -88 91 -90 90 -92 -93 -94 -95
leaf_value=-0.053770638511355009 0.074777362410898163 0.03713118058493655 -0.075662849135101337 0.068507447803594551 -0.021877746925001901 -0.038732587132165659 -0.078968395399922897 -0.079034045754266743 -0.083008652741789785 -0.015717553278293047 0.075247093314879748 -0.0055241257164836731 -0.034835372553928177 -0.046215839517215834 0.03161146812231274 0.072236145917772721 -0.067971281302628112 0.017541731671849047 -0.11530462078283482 -0.084826005604007118 0.047927340644256473 0.03167835204315305 -0.042059547899232351 -0.003367450273713297 -0.019441960421117149 0.041626410213153275 -0.044377691521292055 -0.088822530568008096 -0.028207295801334964 -0.041152534991497042 -0.012944770487448999 0.027854518699856348 0.061873585457420791 0.014910041849938299 0.047264244995394285 0.036045393186689499 0.065096968453460857 0.0057356845277481078 -0.026865610771555755 0.00036213503774749044 -0.10146368063589002 0.0018690732503884326 0.021128818937291211 -0.05457040483396889 0.0019722182949086097 0.0093654780343371911 0.054323007530919155 -0.02939766846970452 -0.0091271791442247129 -0.068350488871551443 -0.032882745424830509 0.011419454255348307 -0.0033366688005958796 -0.11376277284168164 -0.071727574486048315 -0.092358941727042579 0.076454915205088791 0.050683243703192618 -0.021108690649883299 0.060797058936774777 0.054121966066969479 -0.006572118162020882 -7.2249324595104504e-05 0.04675540847779925 -0.10287154421982232 -0.0078674952050069823 -0.10571066068244171 0.056670277927646354 -0.045096563107205619 0.05503267482815595 0.058321738470544351 -0.048205583604712582 0.0093284378256930801 -0.083286592568929702 0.0075437378265992647 0.038536315611652432 0.02728078124067046 0.02266790842458781 -0.05952962197404052 0.010235095337945652 -0.10462857033216262 0.041371309572231452 0.063890571821873784 -0.058326813013095495 -0.0070645725284472069 -0.040761937952081474 0.077918671190959146 0.052762835630994445 -0.05002594356958006 -0.030407726504998817 0.047766475251760213 -0.010891418539057087 0.078097613373956584 0.069507990997214011
leaf_weight=2.4496055841445914 7.9597702771425274 4.4994062334299105 6.8965855091810218 9.3989351987838798 3.9359031021595028 4.8365901112556484 13.454943791031836 2.6888749897480002 3.1899218261241895 3.8943305462598863 5.3406956344842893 5.1873184740543365 2.4500222504138938 3.6870954036712646 11.398624852299688 10.439311191439627 2.6250333189964286 6.3241790235042599 2.4507286697626167 5.9275808036327353 12.721950665116312 4.9537719190120688 3.126272812485694 5.73771633207798 2.4026530385017377 2.5752975344657898 3.115378260612486 2.4731653183698645 20.405765846371651 3.874355465173724 5.2246106863021833 3.7482067197561246 18.147095471620567 3.7440210729837515 3.0251137465238562 3.2777430117130271 3.4825231432914716 3.9879747778177261 4.0538496375083914 3.583886593580246 3.4231729805469513 2.4158132821321487 5.8605909496545774 6.459064245223999 2.4076545834541312 2.8088885992765418 3.7561380863189697 2.6313261687755585 2.7984053492546064 2.911534458398819 4.292258083820343 2.8293059468269339 3.365418553352356 3.9282817095518112 7.9479631632566452 14.924328953027723 3.6037071347236633 5.689753055572508 2.8757728338241577 2.9668085873126984 2.2540259659290314 2.3236460238695136 2.5368303954601279 2.8348346054554048 2.9069089442491514 3.9678478240966788 2.3831665515899658 2.3052698522806168 5.0172621458768845 8.5250687003135663 9.713478744029997 2.6391136199235916 3.5042435824871045 2.660805255174636 4.0125652849674225 4.8592139035463386 27.402509242296222 3.4943675100803357 5.9561633914709091 7.2168477326631564 3.8994176834821683 2.388065829873085 9.9447100609540957 2.4134734272956848 3.9928861409425718 7.6227930635213852 4.5818130373954773 5.7628548443317396 5.6762798279523849 3.081156611442565 4.6573842167854309 3.7729368358850479 3.8980209380388251 5.5232699513435364
leaf_count=10 36 19 28 43 16 20 54 11 13 16 24 22 10 15 49 46 11 27 10 24 55 21 13 24 10 11 13 10 84 16 22 16 79 16 13 14 15 17 17 15 14 10 25 27 10 12 16 11 12 12 18 12 14 16 33 60 16 25 12 13 10 10 11 12 12 17 10 10 21 37 42 11 15 11 17 21 118 15 25 31 16 10 43 10 17 32 20 25 24 13 20 16 17 24
internal_value=6.66595e-05 -0.0315676 0.00314977 -0.0163141 -0.0526268 -0.0330292 -0.0439607 0.00783423 0.00848241 -0.0313751 0.0186089 0.0354498 0.0385129 -0.000407249 0.00667723 0.00770286 0.037514 0.00625997 -0.0136772 -0.0324017 0.00889813 -0.0140178 0.0157549 -0.0318239 -0.0191825 -0.0329614 0.0465957 -0.0213705 -0.0154246 -0.0714305 0.0015591 0.0109072 0.021736 0.00873392 -0.0106928 -0.0192133 0.0285795 0.00487098 0.00701079 -0.0224658 -0.049383 0.0188903 0.00874329 -0.0185595 0.059068 -0.0296833 0.0186701 -0.0708247 -0.0420002 -0.0255281 -0.0049422 -0.0377245 -0.0520643 -0.0779671 -0.0554261 -0.0818054 0.0465214 0.0485163 0.02658 0.0196867 -0.00302845 0.0481307 0.0542761 0.0107141 -0.00333581 0.0134034 -0.0313859 -0.0385807 -0.0130585 0.0139275 0.0391256 0.000972577 0.0112397 0.00864274 -0.0286721 0.0108142 0.026675 0.00374482 -0.0291368 0.00819236 -0.00822061 -0.0517142 0.0203685 -0.00874153 0.00975163 -0.00989133 0.0383455 0.00235748 -0.0162952 0.0432132 0.0166408 0.0275774 0.0336093 0.0461479
internal_weight=494.322 43.8987 450.424 87.3761 30.9211 66.9617 50.8809 363.047 360.359 37.426 12.9776 10.528 20.4145 8.1865 344.063 335.135 15.472 319.663 37.3559 22.831 282.307 16.9034 14.5249 8.92764 18.8498 11.9496 16.296 30.5294 28.0562 22.7346 16.0807 263.457 69.7137 46.7061 23.6021 20.577 23.104 10.382 193.744 10.7553 7.00706 11.2441 182.988 12.3197 12.847 17.2993 7.65047 5.08205 13.5553 6.89951 6.86756 12.5257 9.69635 6.33093 10.7464 18.7987 6.01952 17.9645 8.56553 8.33621 5.3694 23.0076 20.6839 170.669 31.7679 21.5384 7.85711 10.2294 7.32253 138.901 13.6813 5.47395 130.376 121.348 6.67337 114.675 35.3544 79.3204 9.45053 69.8698 29.7577 8.70096 40.1122 4.80154 21.0567 12.482 8.5747 22.4289 12.8931 17.6833 7.73854 9.53579 31.3005 9.02751
internal_count=2096 182 1914 366 126 276 208 1548 1537 154 56 46 90 34 1465 1428 67 1361 157 95 1204 71 62 37 79 50 72 126 116 92 68 1125 299 199 100 87 99 44 826 45 29 48 781 52 56 73 32 21 57 29 29 52 40 26 45 76 26 80 37 36 23 100 90 729 135 92 33 43 31 594 59 23 557 518 28 490 152 338 40 298 126 36 172 20 90 53 37 96 55 76 33 41 135 39
is_linear=0
shrinkage=0.05


end of trees

feature_importances:
Column_0=74
Column_3=67
Column_4=52
Column_1=51
Column_7=50
Column_2=48
Column_5=45
Column_6=42
Column_8=41

parameters:
[boosting: gbdt]
[objective: binary]
[metric: custom]
[tree_learner: serial]
[device_type: cpu]
[data_sample_strategy: bagging]
[data: ]
[valid: ]
[num_iterations: 10000]
[learning_rate: 0.05]
[num_leaves: 95]
[num_threads: 0]
[seed: 1238]
[deterministic: 0]
[force_col_wise: 0]
[force_row_wise: 0]
[histogram_pool_size: -1]
[max_depth: -1]
[min_data_in_leaf: 10]
[min_sum_hessian_in_leaf: 0.001]
[bagging_fraction: 1]
[pos_bagging_fraction: 1]
[neg_bagging_fraction: 1]
[bagging_freq: 0]
[bagging_seed: 10438]
[bagging_by_query: 0]
[feature_fraction: 1]
[feature_fraction_bynode: 1]
[feature_fraction_seed: 6707]
[extra_trees: 0]
[extra_seed: 23424]
[early_stopping_round: 0]
[early_stopping_min_delta: 0]
[first_metric_only: 0]
[max_delta_step: 0]
[lambda_l1: 0]
[lambda_l2: 0]
[linear_lambda: 0]
[min_gain_to_split: 0]
[drop_rate: 0.1]
[max_drop: 50]
[skip_drop: 0.5]
[xgboost_dart_mode: 0]
[uniform_drop: 0]
[drop_seed: 18682]
[top_rate: 0.2]
[other_rate: 0.1]
[min_data_per_group: 100]
[max_cat_threshold: 32]
[cat_l2: 10]
[cat_smooth: 10]
[max_cat_to_onehot: 4]
[top_k: 20]
[monotone_constraints: ]
[monotone_constraints_method: basic]
[monotone_penalty: 0]
[feature_contri: ]
[forcedsplits_filename: ]
[refit_decay_rate: 0.9]
[cegb_tradeoff: 1]
[cegb_penalty_split: 0]
[cegb_penalty_feature_lazy: ]
[cegb_penalty_feature_coupled: ]
[path_smooth: 0]
[interaction_constraints: ]
[verbosity: -1]
[saved_feature_importance_type: 0]
[use_quantized_grad: 0]
[num_grad_quant_bins: 4]
[quant_train_renew_leaf: 0]
[stochastic_rounding: 1]
[linear_tree: 0]
[max_bin: 255]
[max_bin_by_feature: ]
[min_data_in_bin: 3]
[bin_construct_sample_cnt: 200000]
[data_random_seed: 4081]
[is_enable_sparse: 1]
[enable_bundle: 1]
[use_missing: 1]
[zero_as_missing: 0]
[feature_pre_filter: 1]
[pre_partition: 0]
[two_round: 0]
[header: 0]
[label_column: ]
[weight_column: ]
[group_column: ]
[ignore_column: ]
[categorical_feature: ]
[forcedbins_filename: ]
[precise_float_parser: 0]
[parser_config_file: ]
[objective_seed: 31546]
[num_class: 1]
[is_unbalance: 0]
[scale_pos_weight: 1]
[sigmoid: 1]
[boost_from_average: 1]
[reg_sqrt: 0]
[alpha: 0.9]
[fair_c: 1]
[poisson_max_delta_step: 0.7]
[tweedie_variance_power: 1.5]
[lambdarank_truncation_level: 30]
[lambdarank_norm: 1]
[label_gain: ]
[lambdarank_position_bias_regularization: 0]
[eval_at: ]
[multi_error_top_k: 1]
[auc_mu_weights: ]
[num_machines: 1]
[local_listen_port: 12400]
[time_out: 120]
[machine_list_filename: ]
[machines: ]
[gpu_platform_id: -1]
[gpu_device_id: -1]
[gpu_use_dp: 0]
[num_gpu: 1]

end of parameters

pandas_categorical:null
