tree
version=v4
num_class=1
num_tree_per_iteration=1
label_index=0
max_feature_idx=8
objective=binary sigmoid:1
feature_names=Column_0 Column_1 Column_2 Column_3 Column_4 Column_5 Column_6 Column_7 Column_8
feature_infos=[0:13.999999999999998] [73.492233689061095:323.12400000000002] [320.94261127435902:61227.196007712133] [0.35200000000000031:13.127000000000002] [129.00000000000003:481.03064230599722] [181.483753985146:753.34261955830459] [4.3718986084411426:28.300000000000011] [0.73799999999999955:118.3572747362022] [1.4961009425719864:6.7389999999999999]
tree_sizes=1647 1698 1703 1707 1704 1705 1700 1696 1698 1707 1700 1706 1716 1704 1707 1710 1708 1703 1712 1703 1710 1706

Tree=0
num_leaves=15
num_cat=0
split_feature=4 2 3 4 3 3 5 7 6 5 3 8 5 8
split_gain=26.8732 18.6068 18.4324 15.4703 22.1483 12.8259 10.7148 7.84494 8.26296 11.3622 6.37041 5.31482 4.9309 5.60624
threshold=295.93565051145885 17409.348842110645 5.7284697306307129 387.32842254386139 8.0223697755542531 7.8220894567122317 349.62359162489071 79.27488305373015 16.29922684152513 400.36812470370842 7.2539869072595033 4.559586430583523 487.59857793244947 3.6488256517669062
decision_type=2 2 2 2 2 2 2 2 2 2 2 2 2 2
left_child=1 -1 -3 6 -5 -4 10 11 9 -9 -2 12 -8 -14
right_child=3 2 5 4 -6 -7 7 8 -10 -11 -12 -13 13 -15
leaf_value=0.4788702501693935 0.45358401267205645 0.25108055150863173 0.44646530651444838 0.4498974524729103 0.28510348976831434 0.3175277412347719 0.47745277076273274 0.49426700924174316 0.4966169120572369 0.38771504334312989 0.39423839147758943 0.50218180908616383 0.47860494653713082 0.41341605403829379
leaf_weight=15.229357719421385 38.311353012919426 13.087729290127752 18.322821006178859 23.081995293498039 12.611811861395834 13.325688004493712 149.91399005055428 13.80160543322563 17.608944863080978 36.407683297991753 34.26605486869812 59.251719877123833 23.557912722229958 29.982798010110855
leaf_count=64 161 55 77 97 53 56 630 58 74 153 144 249 99 126
internal_value=0.446189 0.383399 0.350898 0.45477 0.39167 0.392176 0.460358 0.467997 0.437676 0.417004 0.425565 0.475825 0.468149 0.442099
internal_weight=498.761 59.9656 44.7362 438.796 35.6938 31.6485 403.102 330.525 67.8182 50.2093 72.5774 262.706 203.455 53.5407
internal_count=2096 252 188 1844 150 133 1694 1389 285 211 305 1104 855 225
is_linear=0
shrinkage=1


Tree=1
num_leaves=15
num_cat=0
split_feature=3 0 2 3 0 2 3 2 5 1 5 3 5 2
split_gain=9.34906 9.12357 18.0622 17.5369 19.1963 20.8596 14.1712 9.49909 13.2616 8.98403 7.92203 7.37262 6.15284 11.2383
threshold=9.9670816489226564 8.3160167521228825 29220.977534850816 5.3916223523094056 6.1031323053418491 16187.506370265221 7.9249303762392591 18462.281296279831 452.93238882588633 219.19166244815503 358.05019677374173 6.7495370325716335 487.59857793244947 15427.682997237784
decision_type=2 2 2 2 2 2 2 2 2 2 2 2 2 2
left_child=1 3 6 7 5 -5 -3 -1 -9 -7 11 -6 -12 -14
right_child=-2 2 -4 4 10 9 -8 8 -10 -11 12 -13 13 -15
leaf_value=0.011926099069892573 -0.068481100267820588 0.080210562660125384 -0.063372296533769745 -0.039163954438135876 0.016581414086664071 0.090833374942819886 -0.030683218133874663 -0.13072085459554539 -0.0107416771093869 -0.0030299194616686376 0.011321084661166809 -0.063877159145326656 0.05714794941657303 -0.051714210153321609
leaf_weight=14.489639833569525 19.149374768137932 52.096872746944427 15.742470785975454 22.123383909463882 15.66944997012615 53.63911235332489 14.796670362353323 23.196761682629585 15.281804904341696 12.590761482715605 142.38342018425465 41.688748300075531 12.134906217455862 43.393626853823662
leaf_count=61 80 220 66 93 66 226 62 97 64 53 601 174 51 182
internal_value=3.59251e-05 0.00277379 0.033001 -0.00352453 0.00473148 0.0449065 0.0556812 -0.0570842 -0.083071 0.0729893 -0.00917375 -0.041897 0.00031 -0.0279241
internal_weight=498.377 479.228 82.636 396.592 343.623 88.3533 66.8935 52.9682 38.4786 66.2299 255.27 57.3582 197.912 55.5285
internal_count=2096 2016 348 1668 1446 372 282 222 161 279 1074 240 834 233
is_linear=0
shrinkage=0.1


Tree=2
num_leaves=15
num_cat=0
split_feature=4 4 0 0 1 4 0 0 4 1 5 4 4 0
split_gain=21.715 10.6527 30.9177 11.226 12.2792 12.1546 11.3215 11.2104 7.79956 7.41959 5.76927 8.07958 9.53122 7.05587
threshold=262.07978681416972 387.32842254386139 7.0397446385810607 5.6077396415180356 163.94224104752871 333.27583171351745 8.3160167521228825 7.0456098721311848 316.56986702603325 173.3864367587627 352.25820079965075 295.93565051145885 371.66247342215729 7.4158254165126616
decision_type=2 2 2 2 2 2 2 2 2 2 2 2 2 2
left_child=-1 3 -3 5 7 -2 9 -5 -8 -6 13 -12 -13 -11
right_child=1 2 -4 4 6 -7 8 -9 -10 10 11 12 -14 -15
leaf_value=-0.1112027180620199 0.10354383059392942 -0.16033727058729297 0.028317068024574572 -0.0011148257768665091 0.055207770848068639 0.012023592433592323 -0.018717824286774345 -0.10047604003171114 0.064886609091406977 -0.013682592860415219 -0.058186359160500384 0.015402690179640147 -0.076531294126754273 -0.098442392818043942
leaf_weight=16.941345557570457 23.988574296236038 14.630324885249136 21.384638473391533 24.734409302473068 22.074854925274849 36.730487689375877 14.36504355072975 20.991907700896263 49.99196295440197 39.659877777099609 19.744717463850975 167.39468471705914 12.09166383743286 13.054038166999815
leaf_count=70 102 61 89 104 93 156 61 88 213 165 82 707 51 54
internal_value=6.94228e-05 0.00398988 -0.0483198 0.00822512 0.0019089 0.0481809 0.00848159 -0.0467293 0.0462254 -0.000383011 -0.00525375 0.00253005 0.00920927 -0.0346725
internal_weight=497.779 480.837 36.015 444.822 384.103 60.7191 338.377 45.7263 64.357 274.02 251.945 199.231 179.486 52.7139
internal_count=2096 2026 150 1876 1618 258 1426 192 274 1152 1059 840 758 219
is_linear=0
shrinkage=0.1


Tree=3
num_leaves=15
num_cat=0
split_feature=4 4 0 4 0 3 0 1 5 3 7 0 7 1
split_gain=17.437 8.55107 8.24849 8.55254 17.8371 9.71555 8.3166 9.7941 8.38893 6.27371 6.23079 5.1843 4.91763 5.00556
threshold=255.29393596573081 409.11840539485985 4.7245490690906484 295.93565051145885 7.3325537051933809 6.6814399081632976 9.6720639874340915 238.45991402954516 349.62359162489071 7.770673786348838 68.306836806771187 7.0456098721311848 82.481196711050956 154.44621064855667
decision_type=2 2 2 2 2 2 2 2 2 2 2 2 2 2
left_child=-1 2 -2 4 5 -4 7 8 9 10 -5 -9 13 -10
right_child=1 -3 3 6 -6 -7 -8 11 12 -11 -12 -13 -14 -15
leaf_value=-0.11875178892809593 0.060859166197239925 -0.072369271798831486 -0.052789406140031518 -0.034823286713418528 -0.12361741992656923 0.060777344083483203 0.068550109240853169 -0.092054565882153772 -0.028259910752544984 -0.071174319087255383 0.042229500948017987 -0.0045311348209869139 -0.015442419580124834 0.025105694795452528
leaf_weight=12.045728266239164 25.359655424952507 14.581986516714094 14.355265721678736 25.819378465414047 16.062434136867523 15.850561425089834 20.773541942238808 15.517324924468996 19.07345587015152 19.998856216669083 17.681448489427567 12.002443686127661 43.921191230416298 223.93525156378746
leaf_count=49 109 60 59 108 66 66 89 65 80 82 74 51 185 953
internal_value=9.60368e-05 0.00304822 0.00538634 0.00222499 -0.0384723 0.00680495 0.00694755 0.00356164 0.00807279 -0.0248165 -0.00350423 -0.0538822 0.0153514 0.0209171
internal_weight=496.979 484.933 470.351 444.991 46.2683 30.2058 398.723 377.949 350.43 63.4997 43.5008 27.5198 286.93 243.009
internal_count=2096 2047 1987 1878 191 125 1687 1598 1482 264 182 116 1218 1033
is_linear=0
shrinkage=0.1


Tree=4
num_leaves=15
num_cat=0
split_feature=4 4 3 7 1 6 3 1 4 1 1 1 6 2
split_gain=14.0321 7.45514 16.1272 5.25712 5.86605 5.74058 5.64504 4.72844 4.94066 6.69362 5.74784 10.6195 7.97075 7.44613
threshold=262.07978681416972 387.32842254386139 8.0223697755542531 49.852446212588823 257.62681102267294 14.74101333637063 6.5519944079609687 164.37480121688517 295.93565051145885 205.25063707796599 210.09208302304776 213.22313849735355 11.48310530567713 20177.465703791469
decision_type=2 2 2 2 2 2 2 2 2 2 2 2 2 2
left_child=-1 3 -3 5 7 6 -2 -5 9 -9 -10 -12 -13 -14
right_child=1 2 -4 4 -6 -7 -8 8 10 -11 11 12 13 -15
leaf_value=-0.088307787678792576 0.057671430225874988 0.0097629501979920302 -0.1289293233847624 -0.022956834122188876 -0.066150103637256125 0.064324654161683897 -0.026087210567174175 -0.079525034165000702 0.023937555143893251 0.01381337913812853 -0.088057477380537097 -0.062548553684543262 -0.015782458361362432 0.049866297092717005
leaf_weight=17.322699010372162 12.793939083814619 23.269600465893745 13.106297999620436 53.12783108651638 12.101762741804121 30.941956877708435 21.684682130813599 14.073419168591501 183.23217703402042 16.920863345265388 13.609704524278639 13.708998546004294 30.978321522474289 39.064706787467003
leaf_count=70 55 97 53 223 51 132 92 58 781 70 58 58 132 166
internal_value=0.000108536 0.00330863 -0.0402081 0.00688806 0.00234511 0.0330551 0.004993 0.00461787 0.00931954 -0.0285683 0.0135046 -0.00612988 0.00718335 0.0208315
internal_weight=495.937 478.614 36.3759 442.238 376.818 65.4206 34.4786 364.716 311.588 30.9943 280.594 97.3617 83.752 70.043
internal_count=2096 2026 150 1876 1597 279 147 1546 1323 128 1195 414 356 298
is_linear=0
shrinkage=0.1


Tree=5
num_leaves=15
num_cat=0
split_feature=3 0 2 3 0 1 3 0 2 5 2 2 7 5
split_gain=5.84393 6.10305 13.1591 12.4366 14.0804 15.476 11.1725 9.46678 7.47078 6.42073 5.26515 6.73134 7.49682 7.00032
threshold=9.9670816489226564 8.3160167521228825 29220.977534850816 5.3916223523094056 6.268678046187989 221.80215556508873 7.9249303762392591 5.9637722824547579 19517.311420659094 452.93238882588633 13606.323481639003 17446.333037952998 79.27488305373015 427.80264501601135
decision_type=2 2 2 2 2 2 2 2 2 2 2 2 2 2
left_child=1 3 6 7 5 8 -3 -1 -5 -9 -6 -12 -13 -14
right_child=-2 2 -4 4 10 -7 -8 9 -10 -11 11 12 13 -15
leaf_value=-0.1238444377976359 -0.053633603720785475 0.069767887674293427 -0.054353999886331987 0.015607134193940006 0.02769113417818261 -0.04120535806173295 -0.029176428362041026 -0.054585852857798524 0.079920977882863106 0.027639256319338185 -0.049334721426224817 0.0050432414924855978 -0.0024719365179601532 -0.096504001487102795
leaf_weight=12.502908393740652 19.433573722839355 50.204723447561264 15.847655713558195 28.441923290491104 34.130657136440277 20.496788859367371 14.769527301192282 25.876316979527473 49.488700285553932 15.002924889326094 44.176137924194336 132.94475343823433 15.967415377497675 15.70319516956806
leaf_count=52 80 220 66 121 144 86 62 107 216 63 186 561 67 65
internal_value=0.000116442 0.00231295 0.0273487 -0.00281316 0.0042062 0.036113 0.0472765 -0.0476981 0.0564487 -0.0244087 -0.00872181 -0.0146741 -0.00537264 -0.0490957
internal_weight=494.987 475.554 80.8219 394.732 341.35 98.4274 64.9743 53.3822 77.9306 40.8792 242.922 208.792 164.615 31.6706
internal_count=2096 2016 348 1668 1446 423 282 222 337 170 1023 879 693 132
is_linear=0
shrinkage=0.1


Tree=6
num_leaves=15
num_cat=0
split_feature=4 4 0 0 3 1 0 0 3 6 2 5 1 0
split_gain=11.1475 5.79677 24.0864 8.50417 15.8868 8.80124 8.93943 7.12732 9.63739 11.7715 7.26022 5.85995 5.60526 4.51539
threshold=255.29393596573081 387.32842254386139 7.0397446385810607 5.6077396415180356 6.6369675071425958 163.94224104752871 7.0456098721311848 8.3160167521228825 6.812679457864923 15.03010710131676 22621.63705632569 437.51474375572548 173.3864367587627 6.5489920610117913
decision_type=2 2 2 2 2 2 2 2 2 2 2 2 2 2
left_child=-1 3 -3 4 -2 6 -5 12 10 -10 -9 -6 -7 -14
right_child=1 2 -4 5 11 7 -8 8 9 -11 -12 -13 13 -15
leaf_value=-0.094321709409891791 -0.026198403197255041 -0.13293868614852097 0.032387854806589365 0.0013443937454713428 0.11365285127226699 0.04788253209005456 -0.085544476365723376 0.11331201891748735 -0.067717434604212964 0.057623949444033595 0.017310708485621558 0.033575752486119582 0.01963956877214754 -0.012369760429833322
leaf_weight=12.186305180191992 22.285101786255836 15.009248346090315 21.343361958861351 24.81630802154541 21.972274824976921 21.576711222529411 22.646186366677284 19.235625088214874 14.873975753784181 15.098719194531439 13.341354191303251 15.645868241786955 56.769728198647499 196.99737632274628
leaf_count=49 96 61 89 104 97 93 93 87 64 66 58 69 241 829
internal_value=0.000133648 0.00252367 -0.0358721 0.00565844 0.0407106 0.000209606 -0.0401136 0.00587364 0.0363455 -0.00457682 0.0739963 0.0803478 -0.00104862 -0.00520902
internal_weight=493.798 481.612 36.3526 445.259 59.9032 385.356 47.4625 337.893 62.5497 29.9727 32.577 37.6181 275.344 253.767
internal_count=2096 2047 150 1897 262 1635 197 1438 275 130 145 166 1163 1070
is_linear=0
shrinkage=0.1


Tree=7
num_leaves=15
num_cat=0
split_feature=3 0 0 3 0 2 1 2 1 0 3 2 1 6
split_gain=4.8989 10.264 6.14681 10.6263 9.62168 17.9038 8.51883 7.81457 6.47411 6.39377 5.12983 5.55473 5.34668 4.76061
threshold=8.9749204674363359 7.7210555907926457 8.1785327084512112 5.3916223523094056 6.1031323053418491 16187.506370265221 205.25063707796599 29534.149558935529 174.14083888292802 5.9637722824547579 6.812679457864923 20440.419852194598 189.46082069974941 14.262382679266866
decision_type=2 2 2 2 2 2 2 2 2 2 2 2 2 2
left_child=2 -2 3 9 5 -5 8 10 -7 -1 11 -4 -12 -11
right_child=1 -3 7 4 -6 6 -8 -9 -10 13 12 -13 -14 -15
leaf_value=-0.10529473434414341 -0.0012256419186851336 -0.095766971947338617 0.10168241031929411 -0.049870062316604305 -0.0049930383770302577 0.041454692198966143 0.0081583229519775115 -0.036105562348561403 0.12635023129204939 0.013839214083102326 -0.037286365804498442 0.019336695341621232 0.04518293361952741 -0.056010273253162907
leaf_weight=12.744640126824377 41.677465245127678 15.850897982716559 21.129392802715302 18.001064702868462 225.68849994242191 15.044758483767508 17.851869657635689 15.458628311753271 22.293657213449478 18.11898709833622 12.405844956636427 13.378766134381292 21.460781961679459 21.143792971968651
leaf_count=52 175 65 97 76 950 67 78 64 102 75 53 60 94 88
internal_value=0.000148592 -0.0272748 0.00377764 -0.00203461 0.00522464 0.0367313 0.0649775 0.028105 0.0921433 -0.0437526 0.0426222 0.0697571 0.0149732 -0.0237761
internal_weight=492.249 57.5284 434.721 350.887 298.88 73.1914 55.1903 83.8334 37.3384 52.0074 68.3748 34.5082 33.8666 39.2628
internal_count=2096 240 1856 1488 1273 323 247 368 169 215 304 157 147 163
is_linear=0
shrinkage=0.1


Tree=8
num_leaves=15
num_cat=0
split_feature=4 5 8 1 1 0 4 0 0 8 4 8 8 1
split_gain=8.74188 5.17239 5.52082 9.26321 8.99315 8.07259 5.73266 5.52117 5.0919 4.53747 5.05034 4.03012 3.28149 3.18103
threshold=255.29393596573081 358.05019677374173 4.7243892454356251 229.73315520752854 172.35773097727233 7.0397446385810607 298.38523341312543 7.1465467604343456 5.4589776431746051 4.8899369624807028 333.53256261154587 3.008213647481039 3.748743708334914 222.48685721678063
decision_type=2 2 2 2 2 2 2 2 2 2 2 2 2 2
left_child=-1 8 3 6 -4 -5 7 -3 -2 -6 -11 -8 -7 -13
right_child=1 2 4 5 9 12 11 -9 -10 10 -12 13 -14 -15
leaf_value=-0.083680820281085644 0.044008172018201251 0.005513170694155349 -0.042190259602607659 -0.097957444332570212 0.10801337641609354 0.026448142659313424 0.046347969358971418 -0.081250729682775968 -0.024778507496295385 0.011017160700950641 0.091612996076238878 0.0060756738453565636 -0.043919948985422883 0.058109215151372733
leaf_weight=12.128306955099104 12.129226446151732 17.006110072135929 11.837464570999144 15.65599465370178 12.12701568007469 13.76963332295418 34.140015110373497 12.895746216177939 95.431357517838478 23.971548706293106 11.507131099700926 192.91322386264801 12.775747820734976 12.51097112894058
leaf_count=49 54 72 50 65 53 59 148 53 399 104 50 832 54 54
internal_value=0.000162605 0.00228698 0.0078833 0.00255663 0.0358116 -0.041007 0.00937918 -0.0319054 -0.0170217 0.0552073 0.0371576 0.0145322 -0.00741858 0.00924468
internal_weight=490.799 478.671 371.111 311.667 59.4432 42.2014 269.466 29.9019 107.561 47.6057 35.4787 239.564 26.5454 205.424
internal_count=2096 2047 1594 1337 257 178 1159 125 453 207 154 1034 113 886
is_linear=0
shrinkage=0.1


Tree=9
num_leaves=15
num_cat=0
split_feature=4 4 6 1 2 4 1 1 7 4 1 5 7 5
split_gain=7.13183 4.56888 4.0908 3.76119 3.81434 5.41247 6.32696 4.66463 5.48195 4.67944 5.85485 5.74684 4.50895 4.29018
threshold=255.29393596573081 409.11840539485985 8.3122823881788879 136.11675204275463 12342.87533748563 329.13858348469506 185.26298828941614 238.45991402954516 68.434803669264127 296.44202141533799 205.25063707796599 349.62359162489071 73.403060437479652 486.97713843343797
decision_type=2 2 2 2 2 2 2 2 2 2 2 2 2 2
left_child=-1 2 -2 -4 5 -5 -7 9 -9 10 -6 12 -11 -13
right_child=1 -3 3 4 7 6 -8 8 -10 11 -12 13 -14 -15
leaf_value=-0.075809617319396103 -0.045420230057466426 -0.052894578774127746 -0.047479428334061352 0.093414862679097321 -0.056675454423203479 0.074194271303185608 -0.017755840521871208 0.00054900491563460987 -0.085189943317355701 -0.033397068182361656 0.022393471058516981 0.025440103948436023 0.031144182551022755 -0.0033635438533751194
leaf_weight=12.05261707305908 16.279637649655342 14.654635801911352 12.956060916185377 11.668075084686278 23.64839780330658 11.465245455503462 21.546343341469765 19.063794091343883 12.24855901300907 43.324921935796738 15.505022451281546 189.74402062594891 14.429377257823942 71.082838043570518
leaf_count=49 69 60 54 50 98 50 93 81 51 181 64 830 61 305
internal_value=0.000161436 0.00207856 0.00381868 0.00561322 0.00719918 0.0348717 0.0141793 0.00402117 -0.0329898 0.00726072 -0.0253636 0.0112702 -0.017272 0.0175903
internal_weight=489.67 477.617 462.962 446.683 433.727 44.6797 33.0116 389.047 31.3124 357.735 39.1534 318.581 57.7543 260.827
internal_count=2096 2047 1987 1918 1864 193 143 1671 132 1539 162 1377 242 1135
is_linear=0
shrinkage=0.1


Tree=10
num_leaves=15
num_cat=0
split_feature=4 4 0 0 0 4 1 1 1 1 4 4 8 1
split_gain=5.83285 4.23714 31.8386 12.354 11.3484 11.1592 14.286 9.36389 8.05559 7.96776 6.40733 6.31318 6.19252 5.29098
threshold=255.29393596573081 365.33117369145026 7.9073471424845847 6.5489920610117913 6.8246990188337078 333.99414667854745 215.33212982352458 181.71225538120038 209.85008890623121 210.09208302304776 327.93607373782413 323.8345606631309 3.805222693977262 170.28057078266673
decision_type=2 2 2 2 2 2 2 2 2 2 2 2 2 2
left_child=-1 3 4 8 -3 6 11 -6 12 13 -10 -5 -2 -7
right_child=1 2 -4 5 7 9 -8 -9 10 -11 -12 -13 -14 -15
leaf_value=-0.068849375018852729 0.015508945215507997 -0.097270428646770282 0.095543922020445329 -0.055911120355232526 0.056444206112269468 -0.008823671378902883 0.025786724389599044 -0.05321144108653323 0.044033788390162788 -0.019326595015944321 -0.043961933471618864 -0.014396466723083793 0.07230034034916849 0.06733844437246371
leaf_weight=11.949342921376227 30.948102429509163 30.018470615148544 18.793442651629448 68.667236775159836 12.380736842751501 11.846819087862967 55.462670713663101 20.990130320191383 14.214661598205565 24.641660764813423 19.801977127790451 78.514332741498947 50.579038470983505 39.647331595420837
leaf_count=49 137 126 83 289 52 50 238 87 61 106 84 336 227 171
internal_value=0.000157157 0.00188763 -0.018768 0.00619256 -0.0526588 -0.00520257 -0.017466 -0.0125287 0.0336863 0.027438 -0.00719083 -0.033765 0.050742 0.0498165
internal_weight=488.456 476.507 82.1828 394.324 63.3893 278.78 202.644 33.3709 115.544 76.1358 34.0166 147.182 81.5271 51.4942
internal_count=2096 2047 348 1699 265 1190 863 139 509 327 145 625 364 221
is_linear=0
shrinkage=0.1


Tree=11
num_leaves=15
num_cat=0
split_feature=0 3 0 0 3 6 1 7 2 7 2 0 6 3
split_gain=4.26851 4.24216 9.57731 7.76038 8.79854 6.95826 5.8659 6.50031 5.67922 4.06841 3.73859 9.23382 5.66355 3.71825
threshold=4.7245490690906484 7.9249303762392591 9.6100273547042434 9.13302959372235 8.0659723893155775 16.663026565506645 229.73315520752854 61.113329777169014 17259.020328704177 68.306836806771187 15182.809250154178 6.6460636501153196 15.62757759019877 8.4493387896584036
decision_type=2 2 2 2 2 2 2 2 2 2 2 2 2 2
left_child=-1 2 6 4 -3 8 10 -8 9 -6 11 -2 -13 -10
right_child=1 3 -4 -5 5 -7 7 -9 13 -11 -12 12 -14 -15
leaf_value=0.0401746191920547 -0.044240732511869781 -0.088132868918460394 0.078801798291858752 -0.092685642797957407 -0.013509854483227815 0.046135038807462003 0.014278657834786941 -0.067726873371834792 0.041432089530542282 -0.085588441948752841 -0.0001952179251344706 0.083988735840453188 0.005737305543958968 -0.013541248277539353
leaf_weight=25.287126421928406 12.734893560409544 12.70789624750614 16.326867640018463 12.287163108587263 16.529901593923572 24.998538106679916 15.988884747028349 24.442883610725403 19.0023023635149 14.880382627248762 217.65572509169579 23.990296885371208 15.052566424012182 34.902279824018478
leaf_count=115 54 54 76 51 69 107 68 102 81 62 938 105 66 148
internal_value=0.00017049 -0.00202147 0.00415348 -0.0169076 -0.009339 -0.000262091 0.000220239 -0.0352975 -0.0138571 -0.0476565 0.00555011 0.0297015 0.0538197 0.00583781
internal_weight=486.788 461.501 326.192 135.308 123.021 110.313 309.865 40.4318 85.3149 31.4103 269.433 51.7778 39.0429 53.9046
internal_count=2096 1981 1409 572 521 467 1333 170 360 131 1163 225 171 229
is_linear=0
shrinkage=0.1


Tree=12
num_leaves=15
num_cat=0
split_feature=0 6 8 6 0 0 2 2 1 1 5 1 7 2
split_gain=3.49834 3.39146 4.14315 3.28133 2.76134 3.45584 3.67067 3.28338 3.66513 3.96839 3.7555 6.02503 4.32805 6.07214
threshold=4.7245490690906484 8.3122823881788879 5.1641582707370119 14.010964880947826 5.0952717324620815 5.6077396415180356 22020.521828717076 37195.678102651647 251.64954628081418 238.45991402954516 349.62359162489071 214.16813927491873 79.701647241489368 22516.055627599842
decision_type=2 2 2 2 2 2 2 2 2 2 2 2 2 2
left_child=-1 -2 4 -4 -3 6 -6 8 9 10 11 -7 -12 -14
right_child=1 2 3 -5 5 7 -8 -9 -10 -11 12 -13 13 -15
leaf_value=0.036613311964729278 -0.04675093881952283 -0.047751560523813463 0.074657731968195779 0.0027298357049565739 -0.0047668935357012944 -0.04056171795212378 0.073417944311749764 -0.042708133483557627 0.047748838106948237 -0.053958240104183181 0.010395992697682883 0.034208749871485339 0.0055373052685702348 -0.062391064622992515
leaf_weight=24.988353103399277 16.197533309459686 13.087947070598601 12.8199919462204 12.552481099963186 11.606162548065187 47.061643213033676 12.442194804549215 20.128815218806267 14.669539645314215 14.793675661087034 216.26281277835369 13.977955669164656 33.749846383929253 21.569879397749901
leaf_count=115 68 57 56 54 50 196 58 84 62 62 941 58 144 91
internal_value=0.000171673 -0.00180397 -0.000166933 0.039073 -0.00254111 -0.00108464 0.0356846 -0.0033981 -0.0012128 -0.00328019 -0.00102624 -0.0234394 0.00401124 -0.0209488
internal_weight=485.909 460.92 444.723 25.3725 419.35 406.263 24.0484 382.214 362.085 347.416 332.622 61.0396 271.583 55.3197
internal_count=2096 1981 1913 110 1803 1746 108 1638 1554 1492 1430 254 1176 235
is_linear=0
shrinkage=0.1


Tree=13
num_leaves=15
num_cat=0
split_feature=4 0 3 0 4 0 1 0 4 3 4 1 1 1
split_gain=4.75333 11.9889 7.35514 5.81444 9.42396 14.2164 10.207 9.90111 9.08752 9.57344 8.66328 12.3632 8.34562 7.81386
threshold=285.5917607435502 7.1465467604343456 6.6814399081632976 8.3844597953561593 365.33117369145026 6.8246990188337078 178.97722557251214 6.7157592834531927 355.12602511889276 7.9249303762392591 333.53256261154587 214.68661056768951 195.82280050010758 210.09208302304776
decision_type=2 2 2 2 2 2 2 2 2 2 2 2 2 2
left_child=1 2 -1 4 7 -6 -7 12 9 -5 11 -9 -2 -12
right_child=3 -3 -4 8 5 6 -8 10 -10 -11 13 -13 -14 -15
leaf_value=-0.0438901621046301 0.052436572831695075 -0.09850769482666373 0.063367290811520649 0.036671787993674473 -0.086518632103642051 0.078660881729586254 -0.030540195647095536 -0.040954329886792463 0.092862862113746877 -0.056139573397635194 0.049859673406407241 0.030674276001082447 -0.00095354361855907945 -0.029225632140703658
leaf_weight=12.521453961730005 65.113316312432289 16.470868483185768 13.063894331455229 37.529635310173035 30.236526802182198 12.652426376938818 26.458789497613907 96.128485426306725 17.155014246702194 15.789812311530111 38.1174436211586 32.157904967665672 53.197521790862083 18.584321364760399
leaf_count=52 295 68 55 174 126 54 110 404 80 65 165 137 233 78
internal_value=0.000165607 -0.0319632 0.0108756 0.00321492 -0.00176657 -0.0350239 0.00478621 0.00583754 0.0295555 0.009187 -0.00861175 -0.022999 0.0284301 0.023939
internal_weight=485.177 42.0562 25.5853 443.121 372.647 69.3477 39.1112 303.299 70.4745 53.3194 184.988 128.286 118.311 56.7018
internal_count=2096 175 107 1921 1602 290 164 1312 319 239 784 541 528 243
is_linear=0
shrinkage=0.1


Tree=14
num_leaves=15
num_cat=0
split_feature=4 3 4 4 1 1 1 1 3 3 3 4 6 3
split_gain=4.20098 3.16327 6.8708 5.53632 4.65029 4.13735 3.71193 7.71336 2.54498 4.0459 2.73003 8.91175 5.32436 3.95628
threshold=255.29393596573081 8.416626643565321 377.58754951927176 344.44506549406816 257.62681102267294 224.78170620106945 193.76913978473451 164.88807745938968 8.2040865730126686 7.9249303762392591 5.3916223523094056 301.99184054334677 13.976069005705485 4.7516360511935458
decision_type=2 2 2 2 2 2 2 2 2 2 2 2 2 2
left_child=-1 4 3 5 8 6 7 -3 9 10 11 -2 -13 -14
right_child=1 2 -4 -5 -6 -7 -8 -9 -10 -11 -12 12 13 -15
leaf_value=-0.059008199207589956 -0.081032652811450612 -0.062842657142796049 -0.082275554449318597 0.054979183007689142 -0.05625817772776516 0.034572702255901942 -0.059428679429544544 0.046335941018696571 0.043434745857443918 -0.029997068272836564 0.013168965697673091 0.052030023780772566 0.019524959668889171 -0.057117878276444482
leaf_weight=11.703852444887159 13.778215810656546 12.002717763185503 13.107099801301954 13.201193898916243 11.797099769115446 12.624637469649313 22.509223222732544 14.040587514638899 18.730857655405998 29.268309369683266 264.75497995316982 18.531893163919449 13.906606897711756 13.060336440801619
leaf_count=49 57 51 54 56 50 53 96 62 81 126 1164 81 60 56
internal_value=0.000173075 0.00164269 -0.0155172 -0.00375289 0.00555391 -0.0164265 -0.0296873 -0.00398178 0.00751397 0.00560957 0.00882575 -0.0105728 0.0107643 -0.0175939
internal_weight=483.018 471.314 87.4855 74.3784 383.828 61.1772 48.5525 26.0433 372.031 353.3 324.032 59.2771 45.4988 26.9669
internal_count=2096 2047 372 318 1675 262 209 113 1625 1544 1418 254 197 116
is_linear=0
shrinkage=0.1


Tree=15
num_leaves=15
num_cat=0
split_feature=3 2 2 6 3 0 3 3 0 0 3 3 5 7
split_gain=3.06207 3.70653 7.75976 8.98302 6.64156 6.38684 7.04056 5.11447 12.5029 7.92457 4.61478 4.56196 4.28371 6.17157
threshold=9.9670816489226564 13606.323481639003 16283.224976514597 17.069009992183201 7.4448274630457432 6.7047136589810892 7.7099152384910878 5.6127830545059458 6.1031323053418491 6.1772385135181631 8.1719301457740183 4.7516360511935458 319.59486647225265 79.27488305373015
decision_type=2 2 2 2 2 2 2 2 2 2 2 2 2 2
left_child=1 5 3 4 -3 -1 -7 9 10 -4 -9 -11 -10 -14
right_child=-2 2 7 -5 -6 6 -8 8 12 11 -12 -13 13 -15
leaf_value=-0.024454718297301295 -0.038977505806523829 0.026415738912311949 -0.088224458188482471 -0.10212034668121679 -0.056129396294706382 0.068756712715605614 -0.014388642859643395 0.067782007953243392 -0.043265944434802354 0.031382412118835828 0.0021256195553658124 -0.030667638710834166 0.012372510509354864 -0.030871307918528487
leaf_weight=19.716613948345184 19.190302073955536 21.137996330857277 14.084355577826498 15.237956136465071 18.088511034846306 33.111814022064209 14.708113759756086 42.608844697475433 21.88214422762394 21.445013776421547 14.29739663004875 26.477976322174072 158.00246094167233 41.715900331735611
leaf_count=84 80 92 59 66 76 153 62 203 90 93 66 113 684 175
internal_value=0.000164121 0.00178815 -0.00191357 -0.0369604 -0.0116483 0.0234372 0.0431835 0.00369209 0.00947487 -0.0222813 0.0512862 -0.00290092 -0.00126213 0.00334002
internal_weight=481.705 462.515 394.979 54.4645 39.2265 67.5365 47.8199 340.514 278.507 62.0073 56.9062 47.923 221.601 199.718
internal_count=2096 2016 1717 234 168 299 215 1483 1218 265 269 206 949 859
is_linear=0
shrinkage=0.1


Tree=16
num_leaves=15
num_cat=0
split_feature=4 0 4 3 4 0 0 5 3 5 0 5 0 3
split_gain=3.42712 2.87387 10.1229 8.14668 7.27517 11.8674 10.4692 6.93324 5.03218 4.79539 4.71249 4.52018 3.85332 9.26283
threshold=255.29393596573081 8.3160167521228825 355.12602511889276 8.2695110359761816 371.66247342215729 7.0397446385810607 7.4920492349268946 361.47844333735685 7.7099152384910878 469.99662839738488 9.6100273547042434 389.33417518757727 6.539242385934859 5.4306675981794452
decision_type=2 2 2 2 2 2 2 2 2 2 2 2 2 2
left_child=-1 4 3 10 6 -6 12 -8 -7 -9 11 -3 13 -2
right_child=1 2 -4 -5 5 8 7 9 -10 -11 -12 -13 -14 -15
leaf_value=-0.05366763646171048 -0.048795400951408725 0.049896063503901786 0.087641473931915445 -0.073109181310910903 -0.08092578316739657 0.056358324032445978 -0.091783468447710917 0.0077679651420027767 -0.029832649624553856 -0.057788984242214562 0.071358076509410187 -0.025641592785811514 0.0019406675995701215 0.036774261867077322
leaf_weight=11.540197551250456 14.464521959424017 11.966685280203817 16.857852533459663 12.170817837119101 28.249800235033035 13.066110312938692 15.140395045280455 32.851357877254486 14.065949603915213 16.897152066230774 12.478277161717413 23.437282368540764 156.15107889473438 100.86479471623898
leaf_count=49 60 54 82 50 119 56 62 142 58 71 60 107 662 464
internal_value=0.000168736 0.00149439 0.0191676 -5.41427e-05 -0.00197532 -0.03556 0.00355426 -0.0325313 0.0116747 -0.0144985 0.0185152 -0.000109557 0.0121794 0.0260422
internal_weight=480.202 468.662 76.9109 60.0531 391.751 55.3819 336.369 64.8889 27.1321 49.7485 47.8822 35.404 271.48 115.329
internal_count=2096 2047 353 271 1694 233 1461 275 114 213 221 161 1186 524
is_linear=0
shrinkage=0.1


Tree=17
num_leaves=15
num_cat=0
split_feature=4 2 1 2 3 2 5 4 2 8 5 5 7 7
split_gain=2.82469 11.3214 3.7937 3.75219 9.42134 8.69638 4.8145 4.33327 4.01234 3.81017 3.51573 3.36366 4.53075 3.72975
threshold=285.5917607435502 22448.632055497143 203.37249289164092 17446.333037952998 6.0673024839675893 15070.832655608554 477.91922146213864 377.15981807573962 14692.362453403393 2.5631739679883014 425.11516597740979 435.54864266030796 75.678092561533035 61.051154475117578
decision_type=2 2 2 2 2 2 2 2 2 2 2 2 2 2
left_child=1 -1 -3 4 8 6 7 11 -2 -5 -7 12 13 -6
right_child=3 2 -4 9 5 10 -8 -9 -10 -11 -12 -13 -14 -15
leaf_value=0.036091992977685325 0.0094334952515300191 -0.10943348887083988 -0.029449702389696072 0.06929315517994139 0.029182458563183786 -0.035150006945461429 0.043524448951863359 -0.072140665457166783 0.084889748279415325 0.0069133586540970245 -0.094833374098010209 -0.050335449571206475 0.062491856157610576 -0.049211387674152465
leaf_weight=17.533029973506927 17.252755716443065 11.990846425294878 11.732232853770254 10.145201027393339 11.246037542819979 22.860552832484245 16.962919473648071 11.454113185405729 11.913045793771742 280.98904220759869 17.368437439203262 11.673336729407309 11.728533178567885 13.183543398976324
leaf_count=74 80 51 50 45 50 99 75 50 53 1235 74 51 51 58
internal_value=0.000169049 -0.0248426 -0.0698776 0.00253154 -0.0105728 -0.0232998 -0.00345245 -0.0168936 0.0402543 0.00908712 -0.0609177 -0.00366366 0.0114039 -0.0131232
internal_weight=478.034 41.2561 23.7231 436.778 145.643 116.477 76.2485 59.2856 29.1658 291.134 40.229 47.8315 36.1581 24.4296
internal_count=2096 175 101 1921 641 508 335 260 133 1280 173 210 159 108
is_linear=0
shrinkage=0.1


Tree=18
num_leaves=15
num_cat=0
split_feature=4 5 8 1 8 5 8 1 1 1 5 8 2 1
split_gain=2.51267 2.36437 4.12461 3.70065 4.3404 6.64065 5.03249 4.40829 3.7622 3.73266 3.47899 4.72999 4.51541 3.67808
threshold=255.29393596573081 358.05019677374173 4.617313184674174 238.45991402954516 4.2520482745386063 477.05539082640843 4.0087527010886221 162.25528700133916 204.30141343973102 173.3864367587627 303.29498764118586 4.4899878763119858 27419.474234531055 194.45427736922792
decision_type=2 2 2 2 2 2 2 2 2 2 2 2 2 2
left_child=-1 10 3 4 6 -6 7 -3 -8 -9 -2 12 13 -12
right_child=1 2 -4 -5 5 -7 8 9 -10 -11 11 -13 -14 -15
leaf_value=-0.046465028170259617 0.01750208136299447 -0.033922358844480256 0.027187089826889301 -0.03759105755438949 0.0026652621197314832 -0.070975793630950981 0.065371598499452607 0.054431403278594082 -0.0035157661902475903 0.0040124583678472032 0.016076157178677438 -0.064063652748859765 0.04210282791881774 -0.045755485361299642
leaf_weight=11.283978849649428 29.201772943139076 27.539984181523323 68.729470387101173 24.083439692854881 37.211236953735352 18.251442819833755 25.038431033492088 16.534686654806137 11.601357251405714 131.15662182867527 14.802030622959135 20.575987920165062 13.615229323506354 27.483136311173439
leaf_count=49 124 118 309 102 166 78 111 75 51 584 65 88 59 117
internal_value=0.00016215 0.00129163 0.00515084 -4.63077e-05 0.00333601 -0.0215682 0.00985533 0.00280798 0.0435596 0.00965708 -0.0118604 -0.0230722 -0.00798393 -0.0241112
internal_weight=477.109 465.825 360.147 291.417 267.334 55.4627 211.871 175.231 36.6398 147.691 105.678 76.4764 55.9004 42.2852
internal_count=2096 2047 1594 1285 1183 244 939 777 162 659 453 329 241 182
is_linear=0
shrinkage=0.1


Tree=19
num_leaves=15
num_cat=0
split_feature=0 4 0 3 0 4 2 1 1 3 0 3 1 5
split_gain=2.7003 3.14086 9.46666 11.6662 4.91223 7.93453 6.74225 6.91178 6.35101 3.67902 3.47322 4.70188 3.81705 3.08466
threshold=4.7245490690906484 295.93565051145885 7.3325537051933809 6.0555781249398031 8.2870803674156921 355.12602511889276 17259.020328704177 230.68534864752974 184.71174898211194 6.0673024839675893 7.0397446385810607 7.7099152384910878 192.44162371227875 330.71326775484391
decision_type=2 2 2 2 2 2 2 2 2 2 2 2 2 2
left_child=-1 2 3 -2 6 8 7 9 -6 -3 12 -12 -11 -8
right_child=1 4 -4 -5 5 -7 13 -9 -10 10 11 -13 -14 -15
leaf_value=0.032893188043049637 -0.069238085718182657 0.026992306039615544 -0.078679941061465433 0.049198692640276959 -0.042616793668954434 0.085051650867792025 -0.024337379127303913 -0.090610479553822024 0.029952751043781336 -0.01765200612755331 0.037065661913636749 -0.036505500630415737 -0.082478789312839917 0.010733415393772093
leaf_weight=23.930325865745544 12.940545991063116 17.141573384404182 20.113073140382767 23.276431158185005 17.69610470533371 16.920920431613922 28.851497113704681 13.835821270942686 37.862053662538528 20.812807604670525 16.385731637477875 18.48786349594593 16.115731820464134 191.81991912424564
leaf_count=115 55 75 85 99 77 85 121 58 177 90 72 77 68 842
internal_value=0.000156435 -0.00157576 -0.0236695 0.00688051 0.00156758 0.0250979 -0.00370511 -0.0248603 0.00683827 -0.0146324 -0.0245697 -0.0019373 -0.0459426 0.00614811
internal_weight=476.19 452.26 56.3301 36.217 395.93 72.4791 323.451 102.78 55.5582 88.9437 71.8021 34.8736 36.9285 220.671
internal_count=2096 1981 239 154 1742 339 1403 440 254 382 307 149 158 963
is_linear=0
shrinkage=0.1


Tree=20
num_leaves=15
num_cat=0
split_feature=6 4 0 4 1 2 1 3 1 3 2 4 6 1
split_gain=2.58233 2.96662 3.26327 12.5953 11.4201 5.8897 8.07428 5.05705 4.80254 4.6765 8.61091 8.43234 5.65396 6.99332
threshold=7.7778910311151899 409.11840539485985 6.1403102943411207 327.93607373782413 219.19166244815503 33410.278205228773 203.08769997513653 6.3250207219301702 169.45645454021903 6.1323385886104065 18873.352992616066 319.25917681505706 15.733052923999113 171.72338823531783
decision_type=2 2 2 2 2 2 2 2 2 2 2 2 2 2
left_child=-1 2 3 -2 7 9 -7 -5 -9 10 -4 -12 -11 -14
right_child=1 -3 5 4 -6 6 -8 8 -10 12 11 -13 13 -15
leaf_value=-0.048588102953028164 0.069711833592728964 -0.045039782715191802 0.06323339315252903 -0.038930326978831191 -0.084127473455349822 -0.079287292061216014 0.019620394176517789 -0.015453343771281972 0.064525949035125194 -0.015579891025583152 -0.058115824432012179 0.029075065654924456 0.086174128315001611 0.0046418310322725066
leaf_weight=10.626777574419974 32.342143163084984 13.432852670550345 32.437721580266953 11.838784292340277 14.748326048254965 21.215015426278114 13.509360566735266 11.415390640497206 21.933252707123756 157.78938314318657 17.760263487696648 29.541730746626854 12.281614825129507 73.353272959589958
leaf_count=45 155 58 151 54 62 90 58 52 107 680 77 132 53 322
internal_value=0.000151664 0.00126889 0.00265073 0.0194181 -0.00772109 -0.00167256 -0.0408077 0.0172165 0.0371487 0.00253256 0.0235507 -0.0036621 -0.00435244 0.0163351
internal_weight=474.226 463.599 450.166 92.2779 59.9358 357.888 34.7244 45.1874 33.3486 323.164 79.7397 47.302 243.424 85.6349
internal_count=2096 2051 1993 430 275 1563 148 213 159 1415 360 209 1055 375
is_linear=0
shrinkage=0.1


Tree=21
num_leaves=15
num_cat=0
split_feature=2 4 2 7 3 4 0 2 6 4 6 1 3 0
split_gain=2.26583 6.06608 5.89505 6.54961 7.25749 5.6971 9.12346 4.87441 2.92834 5.8486 3.27028 3.78626 4.43137 3.19531
threshold=13606.323481639003 262.07978681416972 16283.224976514597 66.159168210199383 6.9723680883766548 318.95948496656717 7.9914893013848811 9468.9694127272214 15.62757759019877 285.5917607435502 16.151611133725456 182.22735984824496 6.2083459222393653 6.4925209840550533
decision_type=2 2 2 2 2 2 2 2 2 2 2 2 2 2
left_child=5 -2 3 -3 -5 -1 7 -7 9 -4 -10 -12 -13 -14
right_child=1 2 8 4 -6 6 -8 -9 10 -11 11 12 13 -15
leaf_value=0.073981678314502794 -0.070422767289916241 0.0044038005330306008 -0.066812760029733922 -0.0049029401916296416 -0.10813042821741531 -0.077895580946910403 0.065490559327417194 -0.0011074096059381477 0.053333346559794194 0.001804512722215174 0.03903243865141634 -0.053806812937856122 0.058920105955670411 -0.0030812953451846334
leaf_weight=13.914242431521414 12.828633844852446 26.772886142134666 13.223468899726866 11.738528817892076 16.224068626761436 11.469700738787649 16.498136848211288 29.60266400873661 20.714738950133324 204.90097534656525 29.721969068050385 14.035974219441412 10.460766956210135 40.466748952865601
leaf_count=62 58 117 56 51 69 50 83 129 93 906 133 62 53 174
internal_value=0.000156254 -0.00276699 -0.000531553 -0.0309482 -0.0647962 0.0165581 0.00267934 -0.022551 0.0044602 -0.00235531 0.0173426 0.00946871 -0.00405723 0.0096541
internal_weight=472.574 401.089 388.26 54.7355 27.9626 71.4847 57.5705 41.0724 333.525 218.124 115.4 94.6855 64.9635 50.9275
internal_count=2096 1772 1714 237 120 324 262 179 1477 962 515 422 289 227
is_linear=0
shrinkage=0.1


end of trees

feature_importances:
Column_0=55
Column_1=54
Column_4=50
Column_3=47
Column_2=33
Column_5=26
Column_6=16
Column_7=14
Column_8=13

parameters:
[boosting: gbdt]
[objective: binary]
[metric: custom]
[tree_learner: serial]
[device_type: cpu]
[data_sample_strategy: bagging]
[data: ]
[valid: ]
[num_iterations: 10000]
[learning_rate: 0.1]
[num_leaves: 15]
[num_threads: 0]
[seed: 1235]
[deterministic: 0]
[force_col_wise: 0]
[force_row_wise: 0]
[histogram_pool_size: -1]
[max_depth: -1]
[min_data_in_leaf: 50]
[min_sum_hessian_in_leaf: 0.001]
[bagging_fraction: 0.5]
[pos_bagging_fraction: 1]
[neg_bagging_fraction: 1]
[bagging_freq: 0]
[bagging_seed: 10961]
[bagging_by_query: 0]
[feature_fraction: 0.8]
[feature_fraction_bynode: 1]
[feature_fraction_seed: 53]
[extra_trees: 0]
[extra_seed: 11644]
[early_stopping_round: 0]
[early_stopping_min_delta: 0]
[first_metric_only: 0]
[max_delta_step: 0]
[lambda_l1: 0]
[lambda_l2: 0]
[linear_lambda: 0]
[min_gain_to_split: 0]
[drop_rate: 0.1]
[max_drop: 50]
[skip_drop: 0.5]
[xgboost_dart_mode: 0]
[uniform_drop: 0]
[drop_seed: 30626]
[top_rate: 0.2]
[other_rate: 0.1]
[min_data_per_group: 100]
[max_cat_threshold: 32]
[cat_l2: 10]
[cat_smooth: 10]
[max_cat_to_onehot: 4]
[top_k: 20]
[monotone_constraints: ]
[monotone_constraints_method: basic]
[monotone_penalty: 0]
[feature_contri: ]
[forcedsplits_filename: ]
[refit_decay_rate: 0.9]
[cegb_tradeoff: 1]
[cegb_penalty_split: 0]
[cegb_penalty_feature_lazy: ]
[cegb_penalty_feature_coupled: ]
[path_smooth: 0]
[interaction_constraints: ]
[verbosity: -1]
[saved_feature_importance_type: 0]
[use_quantized_grad: 0]
[num_grad_quant_bins: 4]
[quant_train_renew_leaf: 0]
[stochastic_rounding: 1]
[linear_tree: 0]
[max_bin: 255]
[max_bin_by_feature: ]
[min_data_in_bin: 3]
[bin_construct_sample_cnt: 200000]
[data_random_seed: 4071]
[is_enable_sparse: 1]
[enable_bundle: 1]
[use_missing: 1]
[zero_as_missing: 0]
[feature_pre_filter: 1]
[pre_partition: 0]
[two_round: 0]
[header: 0]
[label_column: ]
[weight_column: ]
[group_column: ]
[ignore_column: ]
[categorical_feature: ]
[forcedbins_filename: ]
[precise_float_parser: 0]
[parser_config_file: ]
[objective_seed: 602]
[num_class: 1]
[is_unbalance: 0]
[scale_pos_weight: 1]
[sigmoid: 1]
[boost_from_average: 1]
[reg_sqrt: 0]
[alpha: 0.9]
[fair_c: 1]
[poisson_max_delta_step: 0.7]
[tweedie_variance_power: 1.5]
[lambdarank_truncation_level: 30]
[lambdarank_norm: 1]
[label_gain: ]
[lambdarank_position_bias_regularization: 0]
[eval_at: ]
[multi_error_top_k: 1]
[auc_mu_weights: ]
[num_machines: 1]
[local_listen_port: 12400]
[time_out: 120]
[machine_list_filename: ]
[machines: ]
[gpu_platform_id: -1]
[gpu_device_id: -1]
[gpu_use_dp: 0]
[num_gpu: 1]

end of parameters

pandas_categorical:null
