tree
version=v4
num_class=1
num_tree_per_iteration=1
label_index=0
max_feature_idx=8
objective=binary sigmoid:1
feature_names=Column_0 Column_1 Column_2 Column_3 Column_4 Column_5 Column_6 Column_7 Column_8
feature_infos=[0:13.999999999999998] [73.492233689061095:323.12400000000002] [320.94261127435902:56867.859236154443] [0.35200000000000031:13.127000000000002] [129.00000000000003:481.03064230599722] [210.31918197203672:753.34261955830459] [2.1999999999999886:27.00670661116601] [0.73799999999999955:124] [1.45:6.4942494674729963]
tree_sizes=1655 1702 1700 1709 1704 1709 1699 1705 1702 1700 1707 1713

Tree=0
num_leaves=15
num_cat=0
split_feature=4 4 2 2 4 6 5 4 3 6 2 6 5 6
split_gain=24.8291 15.7039 19.6825 14.4101 6.06343 5.50422 7.39623 8.11268 6.85695 6.2252 6.34919 4.46117 8.01968 10.3944
threshold=294.86743435902105 387.53573276283402 21867.269390795522 18354.450431053319 264.06313059289658 15.733052923999113 296.23596464610313 328.74206647824673 5.905131396744407 14.644995726956042 26737.305464127425 12.470864208086171 502.95505053237929 13.95302103662212
decision_type=2 2 2 2 2 2 2 2 2 2 2 2 2 2
left_child=3 5 -3 -1 -5 6 -2 9 -7 10 -8 -9 13 -13
right_child=1 2 -4 4 -6 8 7 11 -10 -11 -12 12 -14 -15
leaf_value=0.46374794313041912 0.37583040099289994 0.33155752462039118 0.48486052691890413 0.29081242347629499 0.37632232184148334 0.42836052018091625 0.52242370342021716 0.42758388032148342 0.48654255968832555 0.42067511812776759 0.44711696916768212 0.51038832168220327 0.40007507138736897 0.44131366962842855
leaf_weight=15.705275148153303 12.373853147029875 21.892201721668243 13.563646718859671 11.897935718297957 27.365252152085304 24.747706294059753 37.597476869821548 85.427178457379341 111.60263703763485 12.135894432663916 15.943233862519262 38.073394298553467 19.512614578008652 50.923164874315262
leaf_count=66 52 92 57 50 115 104 158 359 469 51 67 160 82 214
internal_value=0.446189 0.454042 0.390204 0.382792 0.35041 0.459585 0.451364 0.454964 0.475982 0.485341 0.499999 0.444677 0.458135 0.470864
internal_weight=498.761 443.793 35.4558 54.9685 39.2632 408.337 271.987 259.613 136.35 65.6766 53.5407 193.936 108.509 88.9966
internal_count=2096 1865 149 231 165 1716 1143 1091 573 276 225 815 456 374
is_linear=0
shrinkage=1


Tree=1
num_leaves=15
num_cat=0
split_feature=1 0 0 3 1 2 3 2 0 1 1 6 6 3
split_gain=8.96894 9.3253 10.3043 15.9496 11.6883 9.24326 6.35353 6.01632 9.03249 6.10878 5.79165 5.65722 10.0449 5.42213
threshold=162.20811369230435 4.5841669232317352 8.3125223926996856 7.9436632310631454 209.90968663801078 23288.269979095425 8.949889986253412 20541.136161953051 6.3363049296455705 231.08930394321507 219.64069062631069 11.835458658716592 16.203643107444694 4.9276980372337453
decision_type=2 2 2 2 2 2 2 2 2 2 2 2 2 2
left_child=11 -2 4 5 6 -4 13 8 -6 10 -9 -1 -13 -3
right_child=1 2 3 -5 7 -7 -8 9 -10 -11 -12 12 -14 -15
leaf_value=0.017986368951802566 0.077236734601411561 -0.04839734968155239 0.091738317051627979 -0.053469808666020635 -0.11963387343013557 0.0053862222437823341 -0.042705162300532624 -0.016963114100495426 -0.029841398470541899 -0.047010895225603956 0.05986383632977893 -0.082275924388827526 0.0090785195883558416 0.019310759519148152
leaf_weight=16.255897045135498 17.336761340498924 12.64607088267803 36.292305797338486 15.195898726582525 14.770106837153433 18.826172471046448 21.204849272966385 22.611151710152626 46.384512051939964 24.545435324311256 17.335223659873009 33.595445111393929 18.755475416779518 182.69453328847885
leaf_count=68 73 53 153 64 62 79 89 95 195 103 73 141 79 769
internal_value=3.08123e-05 0.00538987 0.0023703 0.0372367 -0.00479413 0.062244 0.00928386 -0.0290568 -0.0515281 -0.00774835 0.0163769 -0.0335454 -0.0495469 0.0149274
internal_weight=498.45 429.843 412.506 70.3144 342.192 55.1185 216.545 125.646 61.1546 64.4918 39.9464 68.6068 52.3509 195.341
internal_count=2096 1808 1735 296 1439 232 911 528 257 271 168 288 220 822
is_linear=0
shrinkage=0.1


Tree=2
num_leaves=15
num_cat=0
split_feature=4 0 1 0 4 0 0 1 1 6 8 4 1 4
split_gain=19.3782 20.4083 13.4569 12.0428 19.5375 19.8031 13.8521 13.3965 12.0789 10.6342 9.58716 8.80429 8.37094 7.57285
threshold=286.44433403881254 7.3198165852487245 198.854520943734 8.5219343258633717 352.8329310153473 6.7997473043388812 6.4972516415191617 164.6707856421194 209.63101109806146 12.591335702577284 4.0273322473346331 319.02371004998912 192.18424607208684 387.53573276283402
decision_type=2 2 2 2 2 2 2 2 2 2 2 2 2 2
left_child=1 2 -1 4 6 13 10 -8 -7 -5 11 -2 -12 -6
right_child=3 -3 -4 9 5 8 7 -9 -10 -11 12 -13 -14 -15
leaf_value=-0.091270123201428299 0.079406389242872091 -0.16477359429015093 0.046664769396697024 -0.021932600890156306 -0.063220041501512211 0.027240954508829265 -0.082486095609901028 0.005400267709616673 -0.066446640260098652 0.06932865511166246 0.11114933299819961 -0.012641246742855092 0.02921233851377349 -0.15711530153382053
leaf_weight=13.039288938045503 14.234955877065657 13.753864899277685 15.457460358738897 17.280393406748772 25.007215678691864 41.440350115299225 19.349596619606018 167.33109007775784 20.603326812386513 48.898787692189217 26.981413945555687 38.483887851238251 23.180552110075951 13.083592414855955
leaf_count=54 60 57 64 73 105 174 81 706 86 208 114 162 98 54
internal_value=5.38825e-05 -0.064734 -0.0164503 0.00605844 -0.000639448 -0.0387153 0.0125277 -0.00370922 -0.00387061 0.0454989 0.0419902 0.0122131 0.0732851 -0.0954716
internal_weight=498.126 42.2506 28.4967 455.875 389.696 100.134 289.561 186.681 62.0437 66.1792 102.881 52.7188 50.162 38.0908
internal_count=2096 175 118 1921 1640 419 1221 787 260 281 434 222 212 159
is_linear=0
shrinkage=0.1


Tree=3
num_leaves=15
num_cat=0
split_feature=4 0 0 3 4 0 1 0 3 1 4 8 3 5
split_gain=16.0349 20.6413 10.4144 17.7019 16.6146 15.701 10.3557 9.75832 12.0041 10.7033 9.13037 9.06217 9.05339 8.98671
threshold=294.86743435902105 6.8659625150439174 8.5219343258633717 7.3398841673694317 352.8329310153473 6.8659625150439174 209.63101109806146 6.4972516415191617 5.5951235274490623 164.6707856421194 328.74206647824673 4.0666028711062561 8.1064348921956455 349.84056035561292
decision_type=2 2 2 2 2 2 2 2 2 2 2 2 2 2
left_child=1 -1 4 -4 7 -6 12 8 -2 -9 -10 -12 -7 -11
right_child=2 -3 3 -5 5 6 -8 9 10 13 11 -13 -14 -15
leaf_value=0.026115301648515804 -0.053227613263302047 -0.098499131802077144 0.085724204150256028 -0.022812558639213987 -0.082183476489960272 0.059823232388819314 -0.059700628448607546 -0.073213397414792922 0.096753777485006798 -0.044285970648226092 -0.0097772826236272384 0.070953640505492535 -0.044600950873999387 0.018083072468939317
leaf_weight=21.676301226019859 12.511740714311598 34.366490229964256 39.054152503609657 24.424595430493355 41.063393577933311 27.378374516963959 20.37116901576519 18.429476529359818 29.415834382176399 27.963442474603653 29.778545767068863 26.083461776375771 11.916055276989935 132.90791049599648
leaf_count=90 53 141 169 104 169 116 84 76 127 118 125 112 50 562
internal_value=8.56568e-05 -0.0503006 0.00648448 0.0439627 0.000187625 -0.0345929 -0.00183986 0.0128312 0.0382422 -0.00102782 0.0516624 0.0279181 0.0281565 0.00724178
internal_weight=497.341 56.0428 441.298 63.4787 377.819 100.729 59.6656 277.09 97.7896 179.301 85.2778 55.862 39.2944 160.871
internal_count=2096 231 1865 273 1592 419 250 1173 417 756 364 237 166 680
is_linear=0
shrinkage=0.1


Tree=4
num_leaves=15
num_cat=0
split_feature=4 4 3 1 4 5 7 5 7 6 3 5 1 5
split_gain=13.6312 7.26404 14.4903 8.54532 5.90264 4.4359 8.62383 9.52802 7.46597 6.80396 5.4702 4.90048 8.58964 5.88778
threshold=258.97027262410091 387.53573276283402 8.1604019458675694 139.34670230715275 294.86743435902105 349.84056035561292 79.292081529652123 400.36211753638207 73.22914924753421 16.577750510174273 7.2840649094349867 487.59111299299678 209.63101109806146 465.4568226417129
decision_type=2 2 2 2 2 2 2 2 2 2 2 2 2 2
left_child=-1 3 -3 -2 -5 8 11 -8 10 -9 -6 13 -13 -7
right_child=1 2 -4 4 5 6 7 9 -10 -11 -12 12 -14 -15
leaf_value=-0.097887717635174634 -0.066244669089609784 0.0052858687610287582 -0.1284408035578706 -0.027134246149219374 -0.0016599843659100084 0.027014182791241945 0.051050743510154456 -0.058506471758178108 0.039034719103344107 0.029403045207006841 -0.068899635535658685 0.027586884344698845 -0.050144454485343021 0.077140903913930664
leaf_weight=13.797813057899473 15.621412470936773 23.804423049092293 12.284458160400389 40.815605312585831 27.330577686429024 162.16072499752045 16.377537369728088 36.445159539580345 21.688377916812897 11.608524933457373 21.709947437047958 43.922254219651222 21.019475132226944 27.390074372291565
leaf_count=56 65 99 50 168 116 692 70 154 92 50 91 187 89 117
internal_value=0.0001145 0.00291889 -0.040234 0.00640998 0.00904657 0.0128365 0.0178611 -0.0148199 -0.00982026 -0.0372698 -0.0314266 0.0261352 0.00242784 0.0342575
internal_weight=495.976 482.179 36.0889 446.09 430.468 389.653 318.924 64.4312 70.7289 48.0537 49.0405 254.493 64.9417 189.551
internal_count=2096 2040 149 1891 1826 1658 1359 274 299 204 207 1085 276 809
is_linear=0
shrinkage=0.1


Tree=5
num_leaves=15
num_cat=0
split_feature=3 0 2 0 0 3 1 5 8 8 2 0 2 3
split_gain=6.27304 5.54363 6.38721 11.6069 10.0092 8.37266 6.96343 5.9298 4.87171 8.03187 4.70489 7.16103 6.75702 4.75024
threshold=9.9780041680335678 4.5841669232317352 34431.317704009423 7.2910228058685167 8.3125223926996856 6.7616827553104413 210.24167939569057 325.01839258815414 4.2683760006998801 4.0273322473346331 20541.136161953051 6.3363049296455705 14025.928932167488 6.3425362222223844
decision_type=2 2 2 2 2 2 2 2 2 2 2 2 2 2
left_child=1 -1 4 -4 6 -6 7 -3 9 -9 11 -8 -13 -12
right_child=-2 2 3 -5 5 -7 10 8 -10 -11 13 12 -14 -15
leaf_value=0.049538851736820579 -0.05906079412852612 -0.041183869787695289 0.0049816257396831064 -0.10437454964079228 0.072908467195440876 0.0045676216224292037 -0.104593538629124 0.011564039891959227 -0.0087316451122521881 0.075505824303521263 -0.046528009624694916 0.027725777725027323 -0.053886050188249414 0.018797234622576299
leaf_weight=23.581088349223137 17.283411830663681 23.749263435602188 24.696889325976372 15.989634841680525 34.569898292422295 37.236298114061356 14.572989910840986 109.42358934879303 75.60388945043087 23.943307593464851 16.435128509998322 16.134231835603714 27.328859254717827 34.494699135422707
leaf_count=102 72 99 104 67 152 159 60 462 322 102 69 67 114 145
internal_value=0.000123651 0.0022647 -0.000189783 -0.0379949 0.00353014 0.0374692 -0.00360224 0.00616623 0.0115475 0.0230435 -0.0244649 -0.0439304 -0.0235904 -0.00228332
internal_weight=495.043 477.76 454.179 40.6865 413.492 71.8062 341.686 232.72 208.971 133.367 108.966 58.0361 43.4631 50.9298
internal_count=2096 2024 1922 171 1751 311 1440 985 886 564 455 241 181 214
is_linear=0
shrinkage=0.1


Tree=6
num_leaves=15
num_cat=0
split_feature=4 4 0 0 3 1 2 0 4 6 5 4 2 2
split_gain=10.62 5.70008 17.1131 7.29057 19.1 11.4561 9.34998 7.78324 7.11779 7.93316 5.33662 5.07386 4.76435 5.98798
threshold=258.97027262410091 387.53573276283402 6.7997473043388812 5.7090438485860444 6.3786412352975406 162.20811369230435 17504.366088630657 9.9845403406416313 290.69694880776746 12.405197346508062 423.85038969284523 328.74206647824673 11964.360112423243 17859.92981337219
decision_type=2 2 2 2 2 2 2 2 2 2 2 2 2 2
left_child=-1 3 -3 4 -2 -5 -6 8 10 -10 -7 -8 -11 -14
right_child=1 2 -4 5 6 7 11 -9 9 12 -12 -13 13 -15
leaf_value=-0.086130871539076434 -0.047021053754048636 -0.12520900199640436 0.017251028379280647 -0.049751767118878985 -0.001943223676048601 -0.00083282964273504855 0.14568835193187429 0.087129278007512731 -0.017902891695889028 0.065637202366472233 -0.092814450950064409 0.066716065028663854 -0.014108624653373696 0.024508715608982375
leaf_weight=13.871460244059561 19.345377177000046 13.400573596358297 22.743203341960907 40.671083748340607 12.685075446963308 12.447351455688478 13.692160829901693 11.541811197996138 85.622815921902657 19.188893333077431 12.787624925374983 20.047190845012665 56.306681752204895 139.95811638236046
leaf_count=56 82 54 95 169 54 51 61 51 362 83 52 86 241 599
internal_value=0.000131496 0.00262211 -0.0355671 0.00572884 0.03646 0.0003892 0.0712471 0.00642521 0.00357067 0.00784649 -0.0474438 0.0987647 0.0180795 0.0134297
internal_weight=494.309 480.438 36.1438 444.294 65.7698 378.524 46.4244 337.853 326.311 301.077 25.235 33.7394 215.454 196.265
internal_count=2096 2040 149 1891 283 1608 201 1439 1388 1285 103 147 923 840
is_linear=0
shrinkage=0.1


Tree=7
num_leaves=15
num_cat=0
split_feature=3 2 0 0 1 1 6 6 0 3 3 0 8 2
split_gain=4.88168 4.21335 10.6059 7.57576 4.7937 5.01247 6.09886 6.89195 4.85148 13.9976 8.28985 10.2811 6.2161 6.18221
threshold=9.9780041680335678 34431.317704009423 7.2910228058685167 10.089804851243366 209.90968663801078 162.20811369230435 12.067213778390768 16.163516295040612 6.3217077993965356 6.0458067393163244 7.3791633141809676 6.9734847615609761 4.4212934927818406 21098.6176964837
decision_type=2 2 2 2 2 2 2 2 2 2 2 2 2 2
left_child=1 3 -3 4 5 6 -1 -8 9 -7 11 -10 -12 -13
right_child=-2 2 -4 -5 -6 8 7 -9 10 -11 12 13 -14 -15
leaf_value=0.039220092294683463 -0.051875016445083834 0.0096792414190332646 -0.09175098471983345 0.084884599806054978 -0.012244676775156157 -0.050562612195184403 -0.066343080085898412 0.019622059534858821 -0.025955957165318889 0.071385030670528787 -0.00072657599663562898 0.070951349522246049 -0.070447596732878565 0.013080420827432333
leaf_weight=14.5165529102087 17.40423196554184 28.324768722057343 16.207803681492805 11.573600754141806 139.85428217053413 12.210810482501982 26.607860401272774 14.358784466981886 27.057093665003777 41.074048727750778 51.465733543038368 42.684889420866966 17.015475526452065 32.525790110230446
leaf_count=61 72 121 67 52 590 51 110 60 115 180 219 186 72 140
internal_value=0.000142641 0.00204668 -0.0272367 0.00507274 0.00287013 0.0104327 -0.0164763 -0.0362124 0.0170969 0.0434394 0.00887628 0.0269069 -0.0180501 0.0459243
internal_weight=492.882 475.477 44.5326 430.945 419.371 279.517 55.4832 40.9666 224.034 53.2849 170.749 102.268 68.4812 75.2107
internal_count=2096 2024 188 1836 1784 1194 231 170 963 231 732 441 291 326
is_linear=0
shrinkage=0.1


Tree=8
num_leaves=15
num_cat=0
split_feature=4 4 0 1 0 0 4 1 4 0 6 0 5 1
split_gain=8.16531 4.53014 13.7774 5.76531 6.46496 6.18129 16.4654 7.38592 6.94144 12.1929 9.4063 10.5176 6.376 6.17336
threshold=258.97027262410091 387.53573276283402 6.7997473043388812 139.34670230715275 9.9845403406416313 5.6220172273750668 333.89797451525891 201.81960525688945 323.64623437831 7.0594031578666234 12.470864208086171 8.1677801476405474 507.63315542548929 197.78231738831511
decision_type=2 2 2 2 2 2 2 2 2 2 2 2 2 2
left_child=-1 3 -3 -2 5 6 -5 -8 9 -7 -10 12 13 -12
right_child=1 2 -4 4 -6 8 7 -9 10 -11 11 -13 -14 -15
leaf_value=-0.075527495165168268 -0.054164888152707272 -0.11223587636626015 0.015783011954799593 0.098636202699491082 0.080762289028671483 0.011524099686952644 0.026714036358650307 -0.071978782856663689 -0.02012965734333954 -0.05710783998088146 0.04108535225353676 0.071411589757423746 -0.036134738191389106 -0.0045315734349224163
leaf_weight=13.855387687683104 15.814921885728834 13.373451620340346 22.635109931230545 24.070690497756004 11.659051343798636 53.97685518860817 20.011881053447723 12.209135517477987 76.115270465612411 49.738020911812782 62.916182473301888 34.540516078472137 24.827757999300957 56.136828884482384
leaf_count=56 65 54 95 109 54 229 86 52 320 210 271 153 105 237
internal_value=0.00015099 0.0023445 -0.0317627 0.00512302 0.00732299 0.00525751 0.0360629 -0.0106825 0.000417091 -0.0213894 0.00930247 0.0218583 0.00996242 0.0195757
internal_weight=491.881 478.026 36.0086 442.017 426.202 414.543 56.2917 32.221 358.251 103.715 254.537 178.421 143.881 119.053
internal_count=2096 2040 149 1891 1826 1772 247 138 1525 439 1086 766 613 508
is_linear=0
shrinkage=0.1


Tree=9
num_leaves=15
num_cat=0
split_feature=4 2 1 4 2 1 5 5 4 2 4 6 4 2
split_gain=6.88881 11.2654 5.90244 5.46381 8.75319 10.4534 5.0586 4.4091 4.36279 4.06857 3.98629 3.91323 3.46517 5.67071
threshold=294.86743435902105 18354.450431053319 198.854520943734 350.70706656406838 26928.455168035951 217.81492431493612 463.61007055135286 325.01839258815414 339.28001541773091 23050.886556940117 377.81246332854903 12.841938175497889 333.10196533524112 13198.690174441183
decision_type=2 2 2 2 2 2 2 2 2 2 2 2 2 2
left_child=1 -1 -3 7 5 6 11 9 12 -2 -6 -5 13 -9
right_child=3 2 -4 4 10 -7 -8 8 -10 -11 -12 -13 -14 -15
leaf_value=0.037952548695379958 0.0062423471849489248 -0.10079885445115729 -0.024169828157209822 -0.066803212718085495 0.0031095519779579502 -0.090090140551407419 0.027473165237160403 0.091090055646417825 0.04953328192546276 -0.067395614073905749 0.079166247560534461 -0.0083376948890159803 0.00028631165311882181 0.01643292202860237
leaf_weight=16.10868901014328 18.107925936579708 19.352228030562401 20.915781438350677 17.252045884728432 16.008654400706295 20.935879424214363 24.185772895812988 11.357574105262755 33.236792117357254 12.811566337943075 12.099683180451391 34.029606282711029 136.13599571585655 97.636667564511299
leaf_count=66 77 79 86 72 68 87 103 51 143 54 51 146 585 428
internal_value=0.000160875 -0.0327236 -0.0609966 0.00443456 -0.0132535 -0.0275704 -0.0102264 0.0115554 0.0155346 -0.0242697 0.0358494 -0.0280065 0.0109248 0.0242125
internal_weight=490.175 56.3767 40.268 433.798 124.512 96.4033 75.4674 309.287 278.367 30.9195 28.1083 51.2817 245.13 108.994
internal_count=2096 231 165 1865 527 408 321 1338 1207 131 119 218 1064 479
is_linear=0
shrinkage=0.1


Tree=10
num_leaves=15
num_cat=0
split_feature=4 5 5 7 0 4 7 4 4 7 4 4 0 8
split_gain=6.08611 3.71674 5.85319 6.77463 5.80546 8.82038 8.44837 7.18792 5.59414 4.91066 4.35349 4.29743 17.0158 7.56247
threshold=258.97027262410091 360.05971859143295 400.36211753638207 79.292081529652123 7.2910228058685167 344.66110407824982 70.106768470235764 337.69242454993815 292.42989164324439 79.292081529652123 312.28113629064541 350.70706656406838 7.7531102832265812 4.0273322473346331
decision_type=2 2 2 2 2 2 2 2 2 2 2 2 2 2
left_child=-1 4 9 8 5 6 -2 -6 -4 10 -3 13 -13 -10
right_child=1 2 3 -5 7 -7 -8 -9 11 -11 -12 12 -14 -15
leaf_value=-0.065440305545716879 -0.0068694316589259577 0.070953887145874736 -0.044566781854039797 -0.030116124564453346 -0.083773266458261275 -0.050696286536279958 0.077273418180687739 0.0036102479609536396 0.00019876407798502635 0.081031244302782857 0.0061396048694054789 -0.042906047692826847 0.077672336314241863 0.045682215300543762
leaf_weight=13.7460401058197 30.877038538455963 12.830420568585394 18.557674869894981 58.827451467514038 21.504901871085167 21.640620693564415 19.448890164494514 16.741722539067268 76.476991385221481 15.533466324210165 53.893442213535309 42.915157616138458 16.091875016689301 70.030023187398911
leaf_count=56 130 56 76 249 92 90 83 72 332 68 234 180 71 307
internal_value=0.000157786 0.00205465 0.00691249 8.55093e-05 -0.0140402 0.00269119 0.0256483 -0.0455228 0.0080146 0.0303918 0.0186028 0.0127626 -0.010023 0.0219398
internal_weight=489.116 475.37 365.157 282.899 110.213 71.9665 50.3259 38.2466 224.072 82.2573 66.7239 205.514 59.007 146.507
internal_count=2096 2040 1573 1215 467 303 213 164 966 358 290 890 251 639
is_linear=0
shrinkage=0.1


Tree=11
num_leaves=15
num_cat=0
split_feature=3 0 2 6 0 3 6 3 2 0 0 7 7 2
split_gain=3.79843 3.46654 4.04477 6.99238 5.76512 6.82128 5.61185 4.86334 4.16868 4.74555 5.99919 3.88174 9.91228 7.50961
threshold=9.9780041680335678 4.5841669232317352 34431.317704009423 15.03193615413605 8.3125223926996856 6.7616827553104413 13.564071188035031 7.7061661127341221 26421.453726518757 6.2493370292222847 6.9647529071696939 75.475065573934899 80.58292683750102 14156.223424787604
decision_type=2 2 2 2 2 2 2 2 2 2 2 2 2 2
left_child=1 -1 4 -4 8 -6 -7 -8 11 -10 -11 -3 -13 -14
right_child=-2 2 3 -5 5 6 7 -9 9 10 -12 12 13 -15
leaf_value=0.040190504760820159 -0.045756580959689923 -0.00046456797305897052 -0.063721151708322474 0.021383569467395388 0.062457181358116731 -0.053216446108042673 0.074017164696003765 -0.017167476324733252 0.063196011176286468 -0.05285066128840922 0.024321874665006391 -0.081009072094339871 0.059560996622724884 -0.025541476910455076
leaf_weight=22.465247377753258 17.372914224863052 191.44152867794037 24.528951659798622 15.920179843902586 32.642238572239876 12.988399565219877 11.783284753561022 11.614462003111838 18.220607802271843 13.712157949805258 37.957261711359024 23.612948849797249 14.047636806964872 39.594845503568649
leaf_count=102 72 814 103 68 152 55 54 50 80 58 161 100 59 168
internal_value=0.000162423 0.00185785 -6.40936e-05 -0.0302252 0.0029289 0.029268 -0.000506295 0.0287538 -0.0024409 0.0193156 0.00384164 -0.00809991 -0.0270205 -0.00325525
internal_weight=487.903 470.53 448.065 40.4491 407.615 69.0284 36.3861 23.3977 338.587 69.89 51.6694 268.697 77.2554 53.6425
internal_count=2096 2024 1922 171 1751 311 159 104 1440 299 219 1141 327 227
is_linear=0
shrinkage=0.1


end of trees

feature_importances:
Column_0=33
Column_4=33
Column_1=21
Column_2=20
Column_3=19
Column_6=15
Column_5=14
Column_7=7
Column_8=6

parameters:
[boosting: gbdt]
[objective: binary]
[metric: custom]
[tree_learner: serial]
[device_type: cpu]
[data_sample_strategy: bagging]
[data: ]
[valid: ]
[num_iterations: 10000]
[learning_rate: 0.1]
[num_leaves: 15]
[num_threads: 0]
[seed: 1235]
[deterministic: 0]
[force_col_wise: 0]
[force_row_wise: 0]
[histogram_pool_size: -1]
[max_depth: -1]
[min_data_in_leaf: 50]
[min_sum_hessian_in_leaf: 0.001]
[bagging_fraction: 0.5]
[pos_bagging_fraction: 1]
[neg_bagging_fraction: 1]
[bagging_freq: 0]
[bagging_seed: 10961]
[bagging_by_query: 0]
[feature_fraction: 0.8]
[feature_fraction_bynode: 1]
[feature_fraction_seed: 53]
[extra_trees: 0]
[extra_seed: 11644]
[early_stopping_round: 0]
[early_stopping_min_delta: 0]
[first_metric_only: 0]
[max_delta_step: 0]
[lambda_l1: 0]
[lambda_l2: 0]
[linear_lambda: 0]
[min_gain_to_split: 0]
[drop_rate: 0.1]
[max_drop: 50]
[skip_drop: 0.5]
[xgboost_dart_mode: 0]
[uniform_drop: 0]
[drop_seed: 30626]
[top_rate: 0.2]
[other_rate: 0.1]
[min_data_per_group: 100]
[max_cat_threshold: 32]
[cat_l2: 10]
[cat_smooth: 10]
[max_cat_to_onehot: 4]
[top_k: 20]
[monotone_constraints: ]
[monotone_constraints_method: basic]
[monotone_penalty: 0]
[feature_contri: ]
[forcedsplits_filename: ]
[refit_decay_rate: 0.9]
[cegb_tradeoff: 1]
[cegb_penalty_split: 0]
[cegb_penalty_feature_lazy: ]
[cegb_penalty_feature_coupled: ]
[path_smooth: 0]
[interaction_constraints: ]
[verbosity: -1]
[saved_feature_importance_type: 0]
[use_quantized_grad: 0]
[num_grad_quant_bins: 4]
[quant_train_renew_leaf: 0]
[stochastic_rounding: 1]
[linear_tree: 0]
[max_bin: 255]
[max_bin_by_feature: ]
[min_data_in_bin: 3]
[bin_construct_sample_cnt: 200000]
[data_random_seed: 4071]
[is_enable_sparse: 1]
[enable_bundle: 1]
[use_missing: 1]
[zero_as_missing: 0]
[feature_pre_filter: 1]
[pre_partition: 0]
[two_round: 0]
[header: 0]
[label_column: ]
[weight_column: ]
[group_column: ]
[ignore_column: ]
[categorical_feature: ]
[forcedbins_filename: ]
[precise_float_parser: 0]
[parser_config_file: ]
[objective_seed: 602]
[num_class: 1]
[is_unbalance: 0]
[scale_pos_weight: 1]
[sigmoid: 1]
[boost_from_average: 1]
[reg_sqrt: 0]
[alpha: 0.9]
[fair_c: 1]
[poisson_max_delta_step: 0.7]
[tweedie_variance_power: 1.5]
[lambdarank_truncation_level: 30]
[lambdarank_norm: 1]
[label_gain: ]
[lambdarank_position_bias_regularization: 0]
[eval_at: ]
[multi_error_top_k: 1]
[auc_mu_weights: ]
[num_machines: 1]
[local_listen_port: 12400]
[time_out: 120]
[machine_list_filename: ]
[machines: ]
[gpu_platform_id: -1]
[gpu_device_id: -1]
[gpu_use_dp: 0]
[num_gpu: 1]

end of parameters

pandas_categorical:null
