tree
version=v4
num_class=1
num_tree_per_iteration=1
label_index=0
max_feature_idx=8
objective=binary sigmoid:1
feature_names=Column_0 Column_1 Column_2 Column_3 Column_4 Column_5 Column_6 Column_7 Column_8
feature_infos=[0.22749905020219871:13.54124023656798] [77.459586100443715:323.12400000000002] [320.94261127435902:61227.196007712133] [0.35200000000000031:13.127000000000002] [129.00000000000003:476.53971733255162] [181.483753985146:753.34261955830459] [2.1999999999999886:28.300000000000011] [0.73799999999999955:124] [1.45:6.7389999999999999]
tree_sizes=1651 1699 1698 1687 1700 1705 1697

Tree=0
num_leaves=15
num_cat=0
split_feature=4 4 2 2 3 5 5 2 7 7 7 3 5 4
split_gain=29.1812 24.6372 16.1318 15.9341 13.1522 7.24676 10.2907 7.30524 6.90435 4.93795 7.84448 3.7908 3.52443 4.99309
threshold=286.44433403881254 362.66862871899838 26872.796890394788 26872.796890394788 8.8648158316414314 330.30434900209895 304.97863247750519 30816.718097200301 58.247173511490821 53.414495187559943 68.218623697497677 6.9980607718407688 500.81183055701973 352.53494227557763
decision_type=2 2 2 2 2 2 2 2 2 2 2 2 2 2
left_child=3 5 4 -1 9 6 -2 12 -9 -3 -11 -12 13 -7
right_child=1 2 -4 -5 -6 7 -8 8 -10 10 11 -13 -14 -15
leaf_value=0.42027896338275988 0.47478457423254777 0.34853608652365486 0.48784691610658615 0.29770868527738847 0.28883481898921676 0.48659526769704298 0.37619774448372523 0.4930792168350045 0.41128149681414583 0.46669863718680438 0.42067511812776759 0.34124133789679068 0.45374220614222555 0.43240129857999443
leaf_weight=24.747706294059753 21.416284292936325 12.611811861395834 18.798738434910774 18.560779720544815 12.135894432663916 202.26490721106529 20.940366864204407 14.515481576323507 35.693807154893875 19.512614578008652 12.135894432663919 11.897935718297957 54.968463018536568 18.560779720544815
leaf_count=104 90 53 79 78 51 850 88 61 150 82 51 50 231 78
internal_value=0.446189 0.453648 0.405816 0.367749 0.383236 0.464957 0.426045 0.470013 0.434929 0.403636 0.419594 0.381351 0.4764 0.48204
internal_weight=498.761 455.453 87.0929 43.3085 68.2942 368.36 42.3567 326.003 50.2093 56.1583 43.5464 24.0338 275.794 220.826
internal_count=2096 1914 366 182 287 1548 178 1370 211 236 183 101 1159 928
is_linear=0
shrinkage=1


Tree=1
num_leaves=15
num_cat=0
split_feature=3 0 2 3 0 1 0 3 1 2 8 0 5 6
split_gain=18.2122 9.19699 22.3246 21.0854 17.9333 16.1056 14.8774 12.3036 8.02587 6.15725 5.71467 6.92151 4.83964 5.64145
threshold=9.9899802940953304 8.3844597953561593 30947.522345532099 5.3873442752125777 6.3204015538355369 222.48685721678063 6.7081766834839041 7.9301431227464638 155.45556127217381 23251.831726877394 3.9824348141887511 5.3247916433284868 324.00503527202858 9.3169054160996172
decision_type=2 2 2 2 2 2 2 2 2 2 2 2 2 2
left_child=1 3 7 6 5 8 -1 9 -5 -3 11 -10 -6 -14
right_child=-2 2 -4 4 12 -7 -8 -9 10 -11 -12 -13 13 -15
leaf_value=-0.13042504439018404 -0.10728283845048964 0.099750306610643436 -0.08759381386631114 0.00048960753399000074 -0.048968152519297016 -0.03809372964667114 -0.018706498904120288 -0.022840185216795181 0.10105263626119985 0.021058227797372819 0.10247625531426019 0.0059630993453678111 -0.07107662802246964 -0.00026017068877777423
leaf_weight=20.001453027129173 15.327598080039023 39.373675838112831 12.650196760892866 18.314121827483177 27.010668024420738 21.199474990367889 29.50196947157383 14.976500555872915 12.817007586359979 13.302499294281004 35.868912667036057 19.005951777100563 11.895093455910681 207.17498582601547
leaf_count=84 64 166 53 77 113 89 124 63 54 56 151 80 50 872
internal_value=3.24483e-05 0.00343736 0.034339 -0.0027234 0.00584119 0.0399759 -0.0638455 0.0571389 0.0592192 0.0798779 0.0751086 0.0442613 -0.00902966 -0.00410537
internal_weight=498.42 483.093 80.3029 402.79 353.286 107.205 49.5034 67.6527 86.006 52.6762 67.6919 31.823 246.081 219.07
internal_count=2096 2032 338 1694 1486 451 208 285 362 222 285 134 1035 922
is_linear=0
shrinkage=0.1


Tree=2
num_leaves=15
num_cat=0
split_feature=4 4 0 0 4 4 1 1 1 1 0 6 5 8
split_gain=22.7749 16.3828 45.7681 14.0521 22.719 18.4746 15.8888 13.7077 10.0363 9.62917 8.20648 7.4297 6.62317 6.30825
threshold=255.76071196465651 362.66862871899838 7.794736216569575 6.3204015538355369 319.98902248935281 328.26115909707988 218.46583037084926 198.78756748834255 162.08320172982209 201.65126052764936 6.7705110151940522 12.245982910028575 359.57270756596205 4.0683864082605776
decision_type=2 2 2 2 2 2 2 2 2 2 2 2 2 2
left_child=-1 3 9 5 7 -2 13 -5 -6 10 -3 -10 -9 -7
right_child=1 2 -4 4 8 6 -8 12 11 -11 -12 -13 -14 -15
leaf_value=-0.13640712202449223 0.097367418248626048 -0.092135122421496421 0.088570746593441496 -0.080476102646669823 -0.05341453761499812 -0.0019957982719486945 -0.091287449513006713 -0.064716784982388989 -0.0067733008022316191 -0.13403126571558208 -0.0064017022348513272 0.038419404149190206 0.01698756943376643 0.072887731236820893
leaf_weight=11.935030832886694 39.867477864027023 23.628244638442993 22.146699488162994 43.448243156075478 17.070963844656944 21.93638288974762 12.435414984822271 13.403935521841047 49.185951113700867 20.746390208601952 21.166814044117928 139.69624744355679 38.18725124001503 23.09155048429966
leaf_count=49 169 99 93 182 72 93 52 56 207 86 88 590 161 99
internal_value=6.63411e-05 0.00341773 -0.035713 0.0120321 0.0013514 0.0450618 0.00877277 -0.0390922 0.0200145 -0.077709 -0.0516239 0.026651 -0.00424009 0.0364065
internal_weight=497.947 486.012 87.6881 398.323 300.993 97.3308 57.4633 95.0394 205.953 65.5414 44.7951 188.882 51.5912 45.0279
internal_count=2096 2047 366 1681 1268 413 244 399 869 273 187 797 217 192
is_linear=0
shrinkage=0.1


Tree=3
num_leaves=15
num_cat=0
split_feature=4 0 4 0 0 1 0 3 0 0 1 5 5 3
split_gain=19.502 25.187 15.969 37.0042 7.68036 7.50188 6.45176 5.93441 16.1476 14.0084 9.28523 9.84703 10.0675 6.39893
threshold=286.44433403881254 6.5491562998861772 362.66862871899838 7.794736216569575 4.588088946117634 201.65126052764936 6.7705110151940522 7.3779492415656138 6.6428202238597116 9.2958198107168446 166.26485913786087 359.57270756596205 398.62757523352735 8.413379994810974
decision_type=2 2 2 2 2 2 2 2 2 2 2 2 2 2
left_child=1 -1 4 5 -2 6 -4 9 13 -6 -10 -12 -13 -9
right_child=2 -3 3 -5 7 -7 -8 8 10 -11 11 12 -14 -15
leaf_value=0.050953720461920531 0.079883759315239611 -0.11315071794881244 -0.081443811461903576 0.081461705039707108 0.015151752352038965 -0.11811215614310538 -0.0057542283560920587 0.014812151229012006 -0.10483966620409023 0.10794000373267031 -0.068240734335771783 0.077161704905088058 -0.014425312438108698 0.094318242793987095
leaf_weight=13.434956952929495 17.644306674599648 30.779839247465134 24.033222690224648 21.695357337594032 183.29628983139992 21.16303163766861 21.192262172698975 22.803722590208054 12.486343979835508 17.85550731420517 23.89574146270752 15.514455392956732 53.013095259666443 18.203958749771118
leaf_count=56 76 126 99 93 777 86 88 98 52 77 100 66 224 78
internal_value=0.000104034 -0.0632865 0.006294 -0.0319193 0.0155231 -0.0689715 -0.0459763 0.0122511 -0.00310174 0.0233882 -0.0239 -0.012965 0.00630974 0.0501062
internal_weight=497.012 44.2148 452.797 88.0839 364.713 66.3885 45.2255 347.069 145.917 201.152 104.91 92.4233 68.5276 41.0077
internal_count=2096 182 1914 366 1548 273 187 1472 618 854 442 390 290 176
is_linear=0
shrinkage=0.1


Tree=4
num_leaves=15
num_cat=0
split_feature=4 4 3 4 2 1 5 4 3 1 7 3 5 1
split_gain=16.343 12.1763 18.2531 7.25245 14.602 5.979 5.20927 5.46818 7.7828 7.54802 5.61131 4.7331 4.41036 4.90506
threshold=255.76071196465651 387.27272968766857 7.9054129934770998 296.73629933061795 17181.729586374666 199.00648055232867 330.30434900209895 352.8329310153473 8.4444026011626665 207.04121970823027 91.181259260130545 6.8647113137039542 486.17109686317195 209.65403338225275
decision_type=2 2 2 2 2 2 2 2 2 2 2 2 2 2
left_child=-1 3 -3 4 -2 -6 11 10 9 -9 12 -5 -8 -14
right_child=1 2 -4 6 5 -7 7 8 -10 -11 -12 -13 13 -15
leaf_value=-0.11434165779037386 0.068612987963878921 0.0047198214765225921 -0.13505519730477425 0.023552914609032919 -0.095123948025688507 -0.016290268502587555 0.034037279513931956 -0.00061208677921195339 0.061646714078227416 -0.080425149525897799 -0.033143087779955636 -0.043768398921257015 0.022655581489333429 -0.03450518418090931
leaf_weight=12.165774494409559 11.958917036652563 23.652106031775475 15.442948848009108 16.300524041056633 20.348501697182655 18.248418256640434 193.06552708148956 38.967833429574966 12.76467528939247 17.02635669708252 16.929101675748825 29.064060181379318 47.742859601974487 21.89794234931469
leaf_count=49 50 99 63 69 84 76 828 164 53 71 72 121 204 93
internal_value=0.000130142 0.00301101 -0.0504927 0.00771878 -0.0279367 -0.0578518 0.0122967 0.0164472 -0.00881775 -0.0248811 0.0226595 -0.0195783 0.0262555 0.00468188
internal_weight=495.576 483.41 39.0951 444.315 50.5558 38.5969 393.759 348.394 68.7589 55.9942 279.635 45.3646 262.706 69.6408
internal_count=2096 2047 162 1885 210 160 1675 1485 288 235 1197 190 1125 297
is_linear=0
shrinkage=0.1


Tree=5
num_leaves=15
num_cat=0
split_feature=3 2 0 3 3 0 0 2 1 3 0 8 2 1
split_gain=12.5376 5.59564 9.94504 12.9277 8.53448 11.8111 10.2445 13.7594 10.9424 8.36006 7.6139 6.08045 5.92566 4.67932
threshold=9.9899802940953304 34306.120016334171 8.3844597953561593 7.9301431227464638 5.3873442752125777 6.6488210980556692 6.3204015538355369 18582.963647399087 203.4565085232218 6.3199960146883649 6.7081766834839041 3.9742743540218815 23251.831726877394 174.11077501539125
decision_type=2 2 2 2 2 2 2 2 2 2 2 2 2 2
left_child=1 2 4 12 5 -1 7 8 13 -3 -11 -9 -4 -6
right_child=-2 9 3 -5 6 -7 -8 11 -10 10 -12 -13 -14 -15
leaf_value=-0.10544757629170956 -0.088138990072580303 -0.090171307483029775 0.086514187394859041 -0.036353887524996166 -0.017905512184967977 0.001944220468772354 -0.0060880140338358431 0.02870723017359755 -0.087250307248195214 0.056721508000911081 -0.045070651929487643 0.094419263513285334 0.015461606702488027 0.072071235722449695
leaf_weight=17.464618235826492 15.582470297813414 15.444630295038221 37.426555290818214 16.688537389039993 11.635792762041094 24.760735675692558 227.20639817416668 26.133814051747322 13.227846980094908 13.310896486043932 16.403635039925575 30.533412858843803 17.100520879030228 11.484904929995535
leaf_count=72 64 64 166 70 50 104 956 112 56 57 68 134 73 50
internal_value=0.000135455 0.0030082 0.00649666 0.0406601 -0.000215956 -0.0424736 0.00535625 0.0333107 -0.0147117 -0.0304915 0.000528078 0.0641142 0.064231 0.0267893
internal_weight=494.405 478.822 433.663 71.2156 362.448 42.2254 320.222 93.0158 36.3485 45.1592 29.7145 56.6672 54.5271 23.1207
internal_count=2096 2032 1843 309 1534 176 1358 402 156 189 125 246 239 100
is_linear=0
shrinkage=0.1


Tree=6
num_leaves=15
num_cat=0
split_feature=4 0 4 0 2 3 0 0 3 2 0 3 4 0
split_gain=12.4464 20.0274 10.7237 20.735 6.66537 4.92462 3.81942 4.00025 15.3802 11.3713 5.29453 8.20315 9.57858 6.45884
threshold=286.44433403881254 6.5491562998861772 387.27272968766857 7.6471307996304878 22197.069902072704 7.2982415401403697 4.588088946117634 8.3844597953561593 7.9301431227464638 23251.831726877394 7.6105909935241298 8.539664526409231 352.8329310153473 6.8706230932370298
decision_type=2 2 2 2 2 2 2 2 2 2 2 2 2 2
left_child=1 -1 6 5 -3 -4 -2 10 9 -9 11 12 -8 -14
right_child=2 4 3 -5 -6 -7 7 8 -10 -11 -12 -13 13 -15
leaf_value=0.05220030105373813 0.05317431763123226 -0.037712286570299645 -0.044646738733250743 0.067264060013485727 -0.13213659710344469 -0.12980005178512682 0.012250375470540325 0.094714186055286809 -0.046704339301782277 -0.0059006274060434925 -0.023154054811070302 0.052286413559557127 -0.075217425165144236 0.0023993613541532697
leaf_weight=13.338395610451697 19.454962864518166 12.483353957533838 12.182836681604387 11.602877393364905 18.636374250054359 15.347136929631231 178.58658017218113 31.878578007221222 18.978289738297462 17.344183668494225 61.963485643267632 38.030899122357368 23.749494478106499 19.543842881917953
leaf_count=56 86 51 50 50 75 62 763 146 79 74 262 163 98 81
internal_value=0.000151342 -0.0503182 0.00515238 -0.0448607 -0.0942593 -0.0921172 0.0099314 0.00777467 0.0297744 0.0592614 0.00311321 0.0093754 0.00202033 -0.040179
internal_weight=493.121 44.4581 448.663 39.1329 31.1197 27.53 409.53 390.075 68.2011 49.2228 321.874 259.911 221.88 43.2933
internal_count=2096 182 1914 162 126 112 1752 1666 299 220 1367 1105 942 179
is_linear=0
shrinkage=0.1


end of trees

feature_importances:
Column_0=23
Column_3=17
Column_4=16
Column_1=13
Column_2=11
Column_5=9
Column_7=4
Column_8=3
Column_6=2

parameters:
[boosting: gbdt]
[objective: binary]
[metric: custom]
[tree_learner: serial]
[device_type: cpu]
[data_sample_strategy: bagging]
[data: ]
[valid: ]
[num_iterations: 10000]
[learning_rate: 0.1]
[num_leaves: 15]
[num_threads: 0]
[seed: 1235]
[deterministic: 0]
[force_col_wise: 0]
[force_row_wise: 0]
[histogram_pool_size: -1]
[max_depth: -1]
[min_data_in_leaf: 50]
[min_sum_hessian_in_leaf: 0.001]
[bagging_fraction: 0.5]
[pos_bagging_fraction: 1]
[neg_bagging_fraction: 1]
[bagging_freq: 0]
[bagging_seed: 10961]
[bagging_by_query: 0]
[feature_fraction: 0.8]
[feature_fraction_bynode: 1]
[feature_fraction_seed: 53]
[extra_trees: 0]
[extra_seed: 11644]
[early_stopping_round: 0]
[early_stopping_min_delta: 0]
[first_metric_only: 0]
[max_delta_step: 0]
[lambda_l1: 0]
[lambda_l2: 0]
[linear_lambda: 0]
[min_gain_to_split: 0]
[drop_rate: 0.1]
[max_drop: 50]
[skip_drop: 0.5]
[xgboost_dart_mode: 0]
[uniform_drop: 0]
[drop_seed: 30626]
[top_rate: 0.2]
[other_rate: 0.1]
[min_data_per_group: 100]
[max_cat_threshold: 32]
[cat_l2: 10]
[cat_smooth: 10]
[max_cat_to_onehot: 4]
[top_k: 20]
[monotone_constraints: ]
[monotone_constraints_method: basic]
[monotone_penalty: 0]
[feature_contri: ]
[forcedsplits_filename: ]
[refit_decay_rate: 0.9]
[cegb_tradeoff: 1]
[cegb_penalty_split: 0]
[cegb_penalty_feature_lazy: ]
[cegb_penalty_feature_coupled: ]
[path_smooth: 0]
[interaction_constraints: ]
[verbosity: -1]
[saved_feature_importance_type: 0]
[use_quantized_grad: 0]
[num_grad_quant_bins: 4]
[quant_train_renew_leaf: 0]
[stochastic_rounding: 1]
[linear_tree: 0]
[max_bin: 255]
[max_bin_by_feature: ]
[min_data_in_bin: 3]
[bin_construct_sample_cnt: 200000]
[data_random_seed: 4071]
[is_enable_sparse: 1]
[enable_bundle: 1]
[use_missing: 1]
[zero_as_missing: 0]
[feature_pre_filter: 1]
[pre_partition: 0]
[two_round: 0]
[header: 0]
[label_column: ]
[weight_column: ]
[group_column: ]
[ignore_column: ]
[categorical_feature: ]
[forcedbins_filename: ]
[precise_float_parser: 0]
[parser_config_file: ]
[objective_seed: 602]
[num_class: 1]
[is_unbalance: 0]
[scale_pos_weight: 1]
[sigmoid: 1]
[boost_from_average: 1]
[reg_sqrt: 0]
[alpha: 0.9]
[fair_c: 1]
[poisson_max_delta_step: 0.7]
[tweedie_variance_power: 1.5]
[lambdarank_truncation_level: 30]
[lambdarank_norm: 1]
[label_gain: ]
[lambdarank_position_bias_regularization: 0]
[eval_at: ]
[multi_error_top_k: 1]
[auc_mu_weights: ]
[num_machines: 1]
[local_listen_port: 12400]
[time_out: 120]
[machine_list_filename: ]
[machines: ]
[gpu_platform_id: -1]
[gpu_device_id: -1]
[gpu_use_dp: 0]
[num_gpu: 1]

end of parameters

pandas_categorical:null
