{"learner":{"attributes":{"best_iteration":"3","best_score":"-0.764921"},"feature_names":[],"feature_types":[],"gradient_booster":{"model":{"gbtree_model_param":{"num_parallel_tree":"1","num_trees":"54"},"iteration_indptr":[0,1,2,3,4,5,6,7,8,9,10,11,12,13,14,15,16,17,18,19,20,21,22,23,24,25,26,27,28,29,30,31,32,33,34,35,36,37,38,39,40,41,42,43,44,45,46,47,48,49,50,51,52,53,54],"tree_info":[0,0,0,0,0,0,0,0,0,0,0,0,0,0,0,0,0,0,0,0,0,0,0,0,0,0,0,0,0,0,0,0,0,0,0,0,0,0,0,0,0,0,0,0,0,0,0,0,0,0,0,0,0,0],"trees":[{"base_weights":[-7.6363975E-8,-6.908124E-1,9.321737E-2,3.9602286E-1,-1.1138523E0,1.9821082E-1,-3.371406E-1,7.3603755E-1,-4.699918E-1,1.0796514E-1,-1.4198992E0,6.9700444E-1,1.1701011E-1,-7.517741E-1,8.064913E-1,-3.2620606E-1,1.0073664E0,-9.6105427E-1,4.136813E-2,7.7208805E-1,-1.2612726E-1,-1.8631452E0,-8.046431E-1,-1.0438642E-2,1.1298995E0,-5.551275E-1,1.829403E-1,-1.3040633E0,-2.6713902E-1,1.0497087E0,-8.338684E-2,3.250915E-2,-7.026489E-2,1.2942877E0,1.757752E-1,-1.13135815E-1,-7.639925E-3,1.0067266E0,3.0570289E-3,-1.4627126E-1,-5.9506696E-2,-1.2141303E0,-1.2046696E-1,7.517177E-1,-5.484685E-1,3.8043833E-1,1.3214474E0,-8.99951E-1,2.4792066E-1,-1.5692548E-1,3.0201778E-1,-1.0158432E0,-1.5518913E-1,6.961641E-2,-1.0010078E0,-3.6006875E-2,1.1631706E0,3.250915E-2,1.0391372E-1,7.67886E-2,-7.026489E-2,9.452287E-2,1.0467345E-2,-2.2793418E-1,-1.6203126E0,6.9468355E-1,-8.182397E-1,1.0137806E0,-3.6006875E-2,9.970996E-3,-1.4073735E0,-1.5884583E-1,7.156033E-2,1.4633485E0,3.3650732E-1,5.473074E-2,-1.1169949E0,-4.7230756E-1,6.981886E-1,-6.3794416E-1,6.3408546E-2,-2.9827073E-1,3.6749923E-1,4.8645757E-2,-1.1717806E0,-4.339268E-1,8.171466E-1,1.05557926E-1,-1.4809376E0,1.2626404E0,3.560706E-1,-8.223502E-2,4.8645757E-2,-3.6006875E-2,-1.3293467E-1,-1.7488616E-3,7.67886E-2,1.0467345E-2,-1.00290395E-1,1.015594E-1,-7.639925E-3,-7.445354E-2,3.4368776E-2,-1.3114715E-1,-3.5782766E-2,4.136813E-2,-4.666441E-2,1.16037376E-1,5.210127E-2,-3.5782766E-2,7.67886E-2,5.966389E-3,-9.9789925E-2,3.250915E-2,-7.445354E-2,7.7201664E-2,-7.639925E-3,-5.907913E-2,7.2268926E-2,1.5717762E-2,-5.958832E-2,7.156033E-2,-4.110976E-2,2.0544564E-2,5.2766953E-2,-1.0326382E-1,-3.517616E-2,-7.329484E-2,2.963521E-2,9.115569E-2,1.44312205E-2,-4.861668E-2,7.2268926E-2,-3.5782766E-2,-1.2544098E-1,1.0047596E-1,3.6013905E-2,7.2268926E-2,-3.6006875E-2],"categories":[],"categories_nodes":[],"categories_segments":[],"categories_sizes":[],"default_left":[0,0,0,0,0,0,0,0,0,0,0,0,0,0,0,0,0,0,0,0,0,0,0,0,0,0,0,0,0,0,0,0,0,0,0,0,0,0,0,0,0,0,0,0,0,0,0,0,0,0,0,0,0,0,0,0,0,0,0,0,0,0,0,0,0,0,0,0,0,0,0,0,0,0,0,0,0,0,0,0,0,0,0,0,0,0,0,0,0,0,0,0,0,0,0,0,0,0,0,0,0,0,0,0,0,0,0,0,0,0,0,0,0,0,0,0,0,0,0,0,0,0,0,0,0,0,0,0,0,0,0,0,0,0,0,0,0,0,0],"id":0,"left_children":[1,3,5,7,9,11,13,15,17,19,21,23,25,27,29,31,33,35,-1,37,-1,39,41,43,45,47,49,51,53,55,-1,-1,-1,57,59,-1,-1,61,-1,-1,-1,63,65,67,69,71,73,75,77,79,81,83,-1,85,87,-1,89,-1,-1,-1,-1,-1,-1,91,93,95,97,99,-1,101,103,105,-1,107,109,-1,111,113,115,117,119,121,123,-1,125,127,129,131,133,135,137,-1,-1,-1,-1,-1,-1,-1,-1,-1,-1,-1,-1,-1,-1,-1,-1,-1,-1,-1,-1,-1,-1,-1,-1,-1,-1,-1,-1,-1,-1,-1,-1,-1,-1,-1,-1,-1,-1,-1,-1,-1,-1,-1,-1,-1,-1,-1,-1],"loss_changes":[3.223275E1,2.780323E1,1.9994638E1,5.4730024E0,1.6269878E1,1.4303448E1,4.1796745E1,4.044505E0,3.2988286E0,1.2664259E1,7.9195175E0,1.5177887E1,1.3690144E1,1.685382E1,1.2176275E1,1.973373E0,2.281186E0,1.7710149E0,0E0,1.2733879E0,0E0,2.5299072E-1,4.398695E0,8.527621E0,3.9090424E0,7.8767996E0,1.1379195E1,4.465317E0,8.840185E0,4.2825336E0,0E0,0E0,0E0,9.908676E-4,4.5960727E0,0E0,0E0,1.0900488E0,0E0,0E0,0E0,3.6518278E0,4.654716E0,3.2665415E0,5.8557086E0,2.521436E0,2.871952E0,7.7311707E0,3.2766435E0,7.809935E0,8.273634E0,6.8844147E0,0E0,9.863201E0,6.119066E0,0E0,1.1774197E0,0E0,0E0,0E0,0E0,0E0,0E0,3.8265245E0,3.5413742E-1,9.347887E-1,2.3389049E0,2.9561243E0,0E0,4.2186413E0,6.913252E-1,1.9250691E0,0E0,2.6153946E-1,2.9099112E0,0E0,4.615492E0,2.3591683E0,1.6932213E0,6.3049994E0,6.585112E0,7.08809E0,5.7101173E0,0E0,2.5148659E0,7.479534E0,2.3821268E0,3.425077E0,7.211075E-1,4.2062378E-1,2.299668E0,0E0,0E0,0E0,0E0,0E0,0E0,0E0,0E0,0E0,0E0,0E0,0E0,0E0,0E0,0E0,0E0,0E0,0E0,0E0,0E0,0E0,0E0,0E0,0E0,0E0,0E0,0E0,0E0,0E0,0E0,0E0,0E0,0E0,0E0,0E0,0E0,0E0,0E0,0E0,0E0,0E0,0E0,0E0,0E0,0E0,0E0,0E0,0E0],"parents":[2147483647,0,0,1,1,2,2,3,3,4,4,5,5,6,6,7,7,8,8,9,9,10,10,11,11,12,12,13,13,14,14,15,15,16,16,17,17,19,19,21,21,22,22,23,23,24,24,25,25,26,26,27,27,28,28,29,29,33,33,34,34,37,37,41,41,42,42,43,43,44,44,45,45,46,46,47,47,48,48,49,49,50,50,51,51,53,53,54,54,56,56,63,63,64,64,65,65,66,66,67,67,69,69,70,70,71,71,73,73,74,74,76,76,77,77,78,78,79,79,80,80,81,81,82,82,84,84,85,85,86,86,87,87,88,88,89,89,90,90],"right_children":[2,4,6,8,10,12,14,16,18,20,22,24,26,28,30,32,34,36,-1,38,-1,40,42,44,46,48,50,52,54,56,-1,-1,-1,58,60,-1,-1,62,-1,-1,-1,64,66,68,70,72,74,76,78,80,82,84,-1,86,88,-1,90,-1,-1,-1,-1,-1,-1,92,94,96,98,100,-1,102,104,106,-1,108,110,-1,112,114,116,118,120,122,124,-1,126,128,130,132,134,136,138,-1,-1,-1,-1,-1,-1,-1,-1,-1,-1,-1,-1,-1,-1,-1,-1,-1,-1,-1,-1,-1,-1,-1,-1,-1,-1,-1,-1,-1,-1,-1,-1,-1,-1,-1,-1,-1,-1,-1,-1,-1,-1,-1,-1,-1,-1,-1,-1],"split_conditions":[2.9577423E2,6.64647E0,3.6303687E2,7.551906E1,1.6786926E4,5.6263394E0,7.7620206E0,5.770107E0,1.8215464E1,7.9617214E0,2.048605E2,6.8514047E0,1.5929019E2,1.8964092E4,9.380013E0,1.7681271E4,4.584319E0,8.376265E1,4.136813E-2,2.2933932E2,-1.2612726E-1,2.9241925E2,2.8397598E2,3.3183463E2,1.5736581E4,4.4014125E0,1.2318942E1,2.1877E2,2.0109732E2,1.2530272E2,-8.338684E-2,3.250915E-2,-7.026489E-2,1.7418498E2,7.6326385E0,-1.13135815E-1,-7.639925E-3,7.420641E0,3.0570289E-3,-1.4627126E-1,-5.9506696E-2,3.4331353E0,2.895997E2,4.9551312E2,2.0009901E2,8.457639E0,3.4079257E2,2.5440202E0,7.213329E0,6.0126343E1,3.300786E2,8.471678E3,-1.5518913E-1,7.031684E0,1.299676E1,-3.6006875E-2,8.5840256E1,3.250915E-2,1.0391372E-1,7.67886E-2,-7.026489E-2,9.452287E-2,1.0467345E-2,2.2357848E2,2.1417233E2,6.532733E1,2.1098503E2,5.15274E0,-3.6006875E-2,4.9663973E0,2.055724E4,3.2694397E2,7.156033E-2,5.166468E2,3.5127127E2,5.473074E-2,3.520391E2,6.357167E0,8.420763E0,2.3594511E2,2.3207518E2,2.7835513E2,4.5631833E0,4.8645757E-2,4.720641E2,1.718161E2,1.7515715E2,2.258579E4,5.7285763E1,2.3594511E2,6.7496963E0,-8.223502E-2,4.8645757E-2,-3.6006875E-2,-1.3293467E-1,-1.7488616E-3,7.67886E-2,1.0467345E-2,-1.00290395E-1,1.015594E-1,-7.639925E-3,-7.445354E-2,3.4368776E-2,-1.3114715E-1,-3.5782766E-2,4.136813E-2,-4.666441E-2,1.16037376E-1,5.210127E-2,-3.5782766E-2,7.67886E-2,5.966389E-3,-9.9789925E-2,3.250915E-2,-7.445354E-2,7.7201664E-2,-7.639925E-3,-5.907913E-2,7.2268926E-2,1.5717762E-2,-5.958832E-2,7.156033E-2,-4.110976E-2,2.0544564E-2,5.2766953E-2,-1.0326382E-1,-3.517616E-2,-7.329484E-2,2.963521E-2,9.115569E-2,1.44312205E-2,-4.861668E-2,7.2268926E-2,-3.5782766E-2,-1.2544098E-1,1.0047596E-1,3.6013905E-2,7.2268926E-2,-3.6006875E-2],"split_indices":[4,0,4,7,2,0,0,3,6,0,1,3,1,2,3,2,8,7,0,1,0,4,4,4,2,8,6,1,1,1,0,0,0,1,3,0,0,0,0,0,0,8,4,5,1,3,4,8,3,7,5,2,0,0,6,0,7,0,0,0,0,0,0,1,1,7,1,0,0,3,2,4,0,5,4,0,5,0,3,1,1,5,8,0,5,1,1,2,7,1,3,0,0,0,0,0,0,0,0,0,0,0,0,0,0,0,0,0,0,0,0,0,0,0,0,0,0,0,0,0,0,0,0,0,0,0,0,0,0,0,0,0,0,0,0,0,0,0,0],"split_type":[0,0,0,0,0,0,0,0,0,0,0,0,0,0,0,0,0,0,0,0,0,0,0,0,0,0,0,0,0,0,0,0,0,0,0,0,0,0,0,0,0,0,0,0,0,0,0,0,0,0,0,0,0,0,0,0,0,0,0,0,0,0,0,0,0,0,0,0,0,0,0,0,0,0,0,0,0,0,0,0,0,0,0,0,0,0,0,0,0,0,0,0,0,0,0,0,0,0,0,0,0,0,0,0,0,0,0,0,0,0,0,0,0,0,0,0,0,0,0,0,0,0,0,0,0,0,0,0,0,0,0,0,0,0,0,0,0,0,0],"sum_hessian":[4.985415E2,5.8512028E1,4.4002948E2,1.641191E1,4.2100117E1,3.5416425E2,8.586521E1,1.1892689E1,4.5192213E0,8.562736E0,3.353738E1,4.8522167E1,3.056421E2,6.32691E1,2.2596107E1,2.3785377E0,9.514151E0,3.092099E0,1.4271226E0,6.6599054E0,1.9028301E0,1.831474E1,1.5222641E1,1.8790447E1,2.973172E1,2.6639622E1,2.7900247E2,2.8780306E1,3.4488796E1,2.0455423E1,2.140684E0,1.1892688E0,1.1892688E0,6.6599054E0,2.8542452E0,1.4271226E0,1.6649764E0,4.7570753E0,1.9028301E0,1.6174057E1,2.140684E0,9.038443E0,6.184198E0,7.6113205E0,1.1179127E1,6.6599054E0,2.3071815E1,1.8552593E1,8.0870285E0,7.230754E1,2.0669492E2,2.2596107E1,6.184198E0,2.4261084E1,1.0227712E1,1.1892688E0,1.9266155E1,1.1892688E0,5.4706364E0,1.6649764E0,1.1892688E0,3.3299527E0,1.4271226E0,3.092099E0,5.9463444E0,2.8542452E0,3.3299527E0,6.4220514E0,1.1892688E0,7.3734665E0,3.8056602E0,3.8056602E0,2.8542452E0,1.9741863E1,3.3299527E0,1.9028301E0,1.6649763E1,3.092099E0,4.9949293E0,2.21204E1,5.0187145E1,1.9979717E1,1.8671521E2,1.6649764E0,2.0931131E1,1.4746933E1,9.514151E0,3.3299527E0,6.8977594E0,1.6649763E1,2.6163914E0,1.4271226E0,1.6649764E0,1.1892688E0,4.7570753E0,1.1892688E0,1.6649764E0,1.4271226E0,1.9028301E0,4.7570753E0,1.6649764E0,1.9028301E0,5.4706364E0,2.140684E0,1.6649764E0,1.4271226E0,2.3785377E0,1.6887617E1,2.8542452E0,1.6649764E0,1.6649764E0,2.6163914E0,1.4033372E1,1.1892688E0,1.9028301E0,3.3299527E0,1.6649764E0,2.0693277E1,1.4271226E0,4.352724E1,6.6599054E0,2.8542452E0,1.7125471E1,1.4746933E2,3.9245872E1,1.5460495E1,5.4706364E0,8.80059E0,5.9463444E0,5.232783E0,4.281368E0,1.9028301E0,1.4271226E0,1.6649764E0,5.232783E0,1.450908E1,2.140684E0,1.4271226E0,1.1892688E0],"tree_param":{"num_deleted":"0","num_feature":"9","num_nodes":"139","size_leaf_vector":"1"}},{"base_weights":[-5.133513E-4,-6.4006114E-1,8.663921E-2,3.71252E-1,-1.0255574E0,1.8483238E-1,-3.1309235E-1,6.9791174E-1,-4.4705498E-1,9.9013604E-2,-1.3012569E0,6.5638655E-1,1.08858936E-1,-6.9292545E-1,7.600467E-1,-3.1192034E-1,9.6081185E-1,-9.103928E-1,3.977405E-2,7.364486E-1,-1.1797034E-1,-1.6910242E0,-7.5041765E-1,3.0710137E-2,1.1110754E0,-5.0932074E-1,1.7015815E-1,-1.192712E0,-2.4796854E-1,9.956366E-1,-7.818874E-2,-6.884959E-2,3.2847166E-2,1.2396215E0,1.6530038E-1,-1.067019E-1,-7.2740423E-3,5.9783185E-4,9.752993E-1,-1.2155527E0,-1.5245627E-1,-1.1270974E0,-1.1298035E-1,7.775356E-1,-4.8438874E-1,1.1925218E0,-9.589469E-3,-1.0135049E0,-3.5432348E-4,-1.450939E-1,2.8141809E-1,-9.293858E-1,-1.4150524E-1,6.73669E-2,-9.262308E-1,-3.4391157E-2,1.1063511E0,2.9242473E-2,1.0004447E-1,7.40624E-2,-6.685764E-2,8.396437E-3,9.248121E-2,-2.2387137E-1,-1.4794815E0,-2.1842133E-1,-1.4939493E0,6.675013E-1,-7.710096E-1,1.0198327E0,-3.4391157E-2,1.2445547E-1,-1.4237629E0,4.8105925E-1,1.3619993E0,5.249353E-2,-1.3370386E0,-3.9113888E-1,7.789982E-2,1.2562723E-1,-5.1408917E-1,-2.7290884E-1,3.4254813E-1,4.670635E-2,-1.071977E0,-4.0145946E-1,7.75836E-1,1.0352938E-1,-1.3651539E0,1.201802E0,3.411079E-1,-6.327454E-2,3.7338093E-2,-1.422058E-1,-4.567104E-2,-7.781582E-2,4.670635E-2,-1.2319003E-1,-3.1808782E-2,-1.6772473E-3,7.40624E-2,1.00200055E-2,-9.4082125E-2,9.885282E-2,3.1323542E-3,-7.006649E-2,4.071229E-2,-1.1998088E-1,-3.345407E-2,6.130853E-2,-1.1867549E-2,1.0753351E-1,4.6293378E-2,-1.2062064E-2,-1.1797541E-1,7.350935E-2,-5.1258493E-2,-3.656506E-2,3.2329254E-2,2.2108402E-2,-5.903445E-2,5.5363193E-2,-4.1846592E-2,1.8685902E-2,4.875604E-2,-5.891762E-2,-1.2795246E-1,-6.74137E-2,2.7899325E-2,8.707149E-2,1.3590751E-2,-4.8436496E-2,7.1910314E-2,-1.2168803E-1,-4.0848218E-2,3.178472E-2,9.608201E-2,6.980701E-2,-3.4391157E-2],"categories":[],"categories_nodes":[],"categories_segments":[],"categories_sizes":[],"default_left":[0,0,0,0,0,0,0,0,0,0,0,0,0,0,0,0,0,0,0,0,0,0,0,0,0,0,0,0,0,0,0,0,0,0,0,0,0,0,0,0,0,0,0,0,0,0,0,0,0,0,0,0,0,0,0,0,0,0,0,0,0,0,0,0,0,0,0,0,0,0,0,0,0,0,0,0,0,0,0,0,0,0,0,0,0,0,0,0,0,0,0,0,0,0,0,0,0,0,0,0,0,0,0,0,0,0,0,0,0,0,0,0,0,0,0,0,0,0,0,0,0,0,0,0,0,0,0,0,0,0,0,0,0,0,0,0,0,0,0],"id":1,"left_children":[1,3,5,7,9,11,13,15,17,19,21,23,25,27,29,31,33,35,-1,37,-1,39,41,43,45,47,49,51,53,55,-1,-1,-1,57,59,-1,-1,-1,61,63,-1,65,67,69,71,73,-1,75,77,79,81,83,-1,85,87,-1,89,-1,-1,-1,-1,-1,-1,91,93,95,97,99,101,103,-1,105,107,109,111,-1,113,115,-1,117,119,121,123,-1,125,127,129,131,133,135,137,-1,-1,-1,-1,-1,-1,-1,-1,-1,-1,-1,-1,-1,-1,-1,-1,-1,-1,-1,-1,-1,-1,-1,-1,-1,-1,-1,-1,-1,-1,-1,-1,-1,-1,-1,-1,-1,-1,-1,-1,-1,-1,-1,-1,-1,-1,-1,-1],"loss_changes":[2.7866236E1,2.3755926E1,1.732808E1,4.9315424E0,1.3670494E1,1.2605605E1,3.604627E1,3.6824222E0,2.991631E0,1.1313783E1,6.277218E0,1.3877657E1,1.1680452E1,1.4133247E1,1.09144E1,1.9413348E0,2.0917444E0,1.5815325E0,0E0,1.3110843E0,0E0,7.4386215E-1,3.801406E0,8.689462E0,3.0073204E0,7.1468344E0,9.830298E0,3.78331E0,7.673746E0,3.9012203E0,0E0,0E0,0E0,8.1991196E-2,4.2176666E0,0E0,0E0,0E0,1.1305122E0,2.4853296E0,0E0,3.064968E0,4.2067523E0,3.2243629E0,7.8438435E0,2.557396E0,0E0,8.691935E0,6.440164E0,7.403483E0,7.095539E0,5.964672E0,0E0,8.689937E0,5.2767677E0,0E0,1.0422878E0,0E0,0E0,0E0,0E0,0E0,0E0,1.9588807E0,1.863039E0,3.469182E0,4.2820454E-1,8.663558E-1,2.0762012E0,2.2800312E0,0E0,4.5168724E0,2.0726967E-1,1.5641273E0,2.3612976E-1,0E0,3.1088638E0,5.2896247E0,0E0,8.296752E0,7.141679E0,6.487402E0,5.196707E0,0E0,2.7072163E0,6.4276676E0,2.1680694E0,3.3911574E0,8.133869E-1,5.231037E-1,2.1248388E0,0E0,0E0,0E0,0E0,0E0,0E0,0E0,0E0,0E0,0E0,0E0,0E0,0E0,0E0,0E0,0E0,0E0,0E0,0E0,0E0,0E0,0E0,0E0,0E0,0E0,0E0,0E0,0E0,0E0,0E0,0E0,0E0,0E0,0E0,0E0,0E0,0E0,0E0,0E0,0E0,0E0,0E0,0E0,0E0,0E0,0E0,0E0,0E0],"parents":[2147483647,0,0,1,1,2,2,3,3,4,4,5,5,6,6,7,7,8,8,9,9,10,10,11,11,12,12,13,13,14,14,15,15,16,16,17,17,19,19,21,21,22,22,23,23,24,24,25,25,26,26,27,27,28,28,29,29,33,33,34,34,38,38,39,39,41,41,42,42,43,43,44,44,45,45,47,47,48,48,49,49,50,50,51,51,53,53,54,54,56,56,63,63,64,64,65,65,66,66,67,67,68,68,69,69,71,71,72,72,73,73,74,74,76,76,77,77,79,79,80,80,81,81,82,82,84,84,85,85,86,86,87,87,88,88,89,89,90,90],"right_children":[2,4,6,8,10,12,14,16,18,20,22,24,26,28,30,32,34,36,-1,38,-1,40,42,44,46,48,50,52,54,56,-1,-1,-1,58,60,-1,-1,-1,62,64,-1,66,68,70,72,74,-1,76,78,80,82,84,-1,86,88,-1,90,-1,-1,-1,-1,-1,-1,92,94,96,98,100,102,104,-1,106,108,110,112,-1,114,116,-1,118,120,122,124,-1,126,128,130,132,134,136,138,-1,-1,-1,-1,-1,-1,-1,-1,-1,-1,-1,-1,-1,-1,-1,-1,-1,-1,-1,-1,-1,-1,-1,-1,-1,-1,-1,-1,-1,-1,-1,-1,-1,-1,-1,-1,-1,-1,-1,-1,-1,-1,-1,-1,-1,-1,-1,-1],"split_conditions":[2.9577423E2,6.64647E0,3.6303687E2,7.551906E1,1.6786926E4,5.6263394E0,7.7620206E0,5.770107E0,1.8215464E1,7.9617214E0,2.048605E2,7.01899E0,1.5929019E2,1.8964092E4,9.380013E0,6.839542E1,4.584319E0,8.376265E1,3.977405E-2,6.2906204E1,-1.1797034E-1,7.2265925E0,2.8397598E2,3.3183463E2,2.3384662E2,4.0280423E0,1.2318942E1,2.1877E2,2.0109732E2,1.2530272E2,-7.818874E-2,-6.884959E-2,3.2847166E-2,1.0494573E4,7.6326385E0,-1.067019E-1,-7.2740423E-3,5.9783185E-4,2.602612E2,2.6595373E4,-1.5245627E-1,3.4331353E0,2.895997E2,4.9551312E2,2.0009901E2,1.5736581E4,-9.589469E-3,2.5440202E0,1.6198948E1,7.4127655E0,3.300786E2,8.471678E3,-1.4150524E-1,7.031684E0,1.299676E1,-3.4391157E-2,8.5840256E1,2.9242473E-2,1.0004447E-1,7.40624E-2,-6.685764E-2,8.396437E-3,9.248121E-2,2.792023E2,1.8212952E2,2.2357848E2,4.5631833E0,6.532733E1,2.1098503E2,5.15274E0,-3.4391157E-2,4.9663973E0,5.428357E0,4.1478445E2,3.4079257E2,5.249353E-2,3.520391E2,6.04336E0,7.789982E-2,6.922042E0,3.303615E2,6.2531796E0,3.393279E2,4.670635E-2,4.046729E2,1.718161E2,1.7515715E2,7.070185E0,4.6346164E2,5.136599E0,6.7496963E0,-6.327454E-2,3.7338093E-2,-1.422058E-1,-4.567104E-2,-7.781582E-2,4.670635E-2,-1.2319003E-1,-3.1808782E-2,-1.6772473E-3,7.40624E-2,1.00200055E-2,-9.4082125E-2,9.885282E-2,3.1323542E-3,-7.006649E-2,4.071229E-2,-1.1998088E-1,-3.345407E-2,6.130853E-2,-1.1867549E-2,1.0753351E-1,4.6293378E-2,-1.2062064E-2,-1.1797541E-1,7.350935E-2,-5.1258493E-2,-3.656506E-2,3.2329254E-2,2.2108402E-2,-5.903445E-2,5.5363193E-2,-4.1846592E-2,1.8685902E-2,4.875604E-2,-5.891762E-2,-1.2795246E-1,-6.74137E-2,2.7899325E-2,8.707149E-2,1.3590751E-2,-4.8436496E-2,7.1910314E-2,-1.2168803E-1,-4.0848218E-2,3.178472E-2,9.608201E-2,6.980701E-2,-3.4391157E-2],"split_indices":[4,0,4,7,2,0,0,3,6,0,1,3,1,2,3,7,8,7,0,7,0,0,4,4,1,8,6,1,1,1,0,0,0,2,3,0,0,0,4,2,0,8,4,5,1,2,0,8,6,3,5,2,0,0,6,0,7,0,0,0,0,0,0,4,1,1,8,7,1,0,0,3,0,5,4,0,5,0,0,0,4,3,4,0,4,1,1,3,5,3,3,0,0,0,0,0,0,0,0,0,0,0,0,0,0,0,0,0,0,0,0,0,0,0,0,0,0,0,0,0,0,0,0,0,0,0,0,0,0,0,0,0,0,0,0,0,0,0,0],"split_type":[0,0,0,0,0,0,0,0,0,0,0,0,0,0,0,0,0,0,0,0,0,0,0,0,0,0,0,0,0,0,0,0,0,0,0,0,0,0,0,0,0,0,0,0,0,0,0,0,0,0,0,0,0,0,0,0,0,0,0,0,0,0,0,0,0,0,0,0,0,0,0,0,0,0,0,0,0,0,0,0,0,0,0,0,0,0,0,0,0,0,0,0,0,0,0,0,0,0,0,0,0,0,0,0,0,0,0,0,0,0,0,0,0,0,0,0,0,0,0,0,0,0,0,0,0,0,0,0,0,0,0,0,0,0,0,0,0,0,0],"sum_hessian":[4.9795346E2,5.895829E1,4.3899515E2,1.6281712E1,4.267658E1,3.5285477E2,8.614038E1,1.174168E1,4.5400305E0,8.528779E0,3.41478E1,4.7901104E1,3.0495367E2,6.388341E1,2.2256968E1,2.386888E0,9.354793E0,3.1264355E0,1.4135951E0,6.5797596E0,1.9490198E0,1.8785503E1,1.5362297E1,2.060923E1,2.7291874E1,2.685205E1,2.7810162E2,2.9296429E1,3.4586983E1,2.0080198E1,2.1767695E0,1.1960366E0,1.1908514E0,6.5136337E0,2.8411584E0,1.4586762E0,1.6677594E0,1.8798189E0,4.6999407E0,9.761132E0,9.02437E0,9.173341E0,6.1889563E0,8.204417E0,1.2404812E1,2.5643553E1,1.648322E0,1.2991409E1,1.3860642E1,7.246627E1,2.0563536E2,2.2933968E1,6.362462E0,2.4225037E1,1.0361946E1,1.1983746E0,1.8881823E1,1.163601E0,5.350033E0,1.6347516E0,1.2064067E0,1.4104545E0,3.2894862E0,2.440283E0,7.3208494E0,3.0971732E0,6.076168E0,2.8244781E0,3.364478E0,7.0060425E0,1.1983746E0,8.05292E0,4.351892E0,5.6718283E0,1.9971724E1,1.8786793E0,1.111273E1,1.0525466E1,3.335176E0,4.217975E1,3.0286516E1,2.0080568E1,1.855548E2,1.6462955E0,2.1287672E1,1.48388405E1,9.386196E0,3.325081E0,7.0368648E0,1.6280613E1,2.6012099E0,1.2219404E0,1.2183427E0,4.1545973E0,3.166252E0,1.4508777E0,1.6462955E0,4.865149E0,1.2110188E0,1.1897265E0,1.6347516E0,1.4237967E0,1.9406816E0,5.102684E0,1.9033586E0,1.931753E0,6.121167E0,3.1488905E0,1.2030014E0,3.5337448E0,2.1380835E0,1.7372189E1,2.5995357E0,2.1378524E0,8.974877E0,1.4359815E0,9.089485E0,1.3826433E1,2.8353317E1,7.623216E0,2.2663301E1,4.0665274E0,1.601404E1,1.4371596E2,4.1838837E1,1.6206158E1,5.081515E0,8.932443E0,5.906397E0,5.118636E0,4.2675595E0,1.9028213E0,1.4222598E0,4.6126676E0,2.4241974E0,2.092623E0,1.418799E1,1.4028351E0,1.1983746E0],"tree_param":{"num_deleted":"0","num_feature":"9","num_nodes":"139","size_leaf_vector":"1"}},{"base_weights":[-1.5294688E-3,-5.993305E-1,8.038693E-2,3.4885266E-1,-9.5497864E-1,1.8887442E-1,-2.3619485E-1,6.6319597E-1,-4.258299E-1,9.094064E-2,-1.2073934E0,6.5363485E-1,1.12795725E-1,-5.607281E-1,7.9217017E-1,-3.387739E-2,8.761743E-1,-8.642897E-1,3.825657E-2,7.02778E-1,-1.1093445E-1,-1.5614417E0,-7.0232815E-1,-3.4036618E-3,1.0667708E0,-4.425271E-1,1.7658179E-1,-2.9108962E-1,-1.2057459E0,9.504538E-1,-5.326457E-2,1.1489661E0,-1.2865502E-2,-1.0101497E-1,-6.9259484E-3,5.686251E-4,9.340449E-1,-4.5023717E-2,-1.6478597E0,-1.0513341E0,-1.0589479E-1,6.7232305E-1,-5.044482E-1,1.30621E0,4.614863E-1,-7.72348E-1,4.1828236E-1,-1.522194E-1,2.660929E-1,-6.7539304E-1,7.181678E-2,-1.5251099E0,-2.5575054E-1,-3.2859813E-2,1.0385941E0,5.48047E-1,9.775908E-2,8.038002E-3,8.8879704E-2,-9.8429036E-1,-1.3570507E-1,-2.0939457E-1,-1.3860186E0,6.421142E-1,-7.280929E-1,9.2008436E-1,-3.2859813E-2,-2.8039422E-2,-1.1718999E0,4.5828143E-1,1.043138E-1,7.487918E-1,-5.1784296E-2,-1.1142077E0,-8.297259E-2,-5.83698E-1,9.992892E-1,1.1741096E-1,-7.3919475E-1,-2.1447534E-2,3.686764E-1,-1.5458003E0,-4.7837475E-1,-4.425091E-1,5.157592E-1,1.3022074E-2,-1.678716E0,7.5226255E-2,-7.8013146E-1,1.1007967E0,-8.238883E-3,6.668581E-2,-6.073207E-3,-9.652392E-2,4.9384395E-3,-7.378384E-2,4.486949E-2,-1.1389581E-1,-3.040976E-2,-1.6085663E-3,7.154102E-2,9.591908E-3,-8.856428E-2,9.347656E-2,-7.4240263E-3,-8.3775446E-2,3.5730097E-2,-1.1116388E-1,-2.9727472E-2,6.038626E-2,-7.4131726E-3,9.390214E-2,-6.464991E-3,6.5501374E-3,-1.04259424E-1,4.753817E-2,-7.832815E-2,3.8001448E-2,-1.0567535E-1,9.315622E-3,9.35078E-2,-8.65816E-3,6.680199E-2,2.9452091E-2,-8.537851E-2,2.8445026E-2,-1.5377179E-2,4.8502464E-2,1.658426E-2,-2.9061055E-2,-1.3569719E-1,-7.519184E-2,-2.3849288E-3,3.5402548E-2,-5.670776E-2,5.3136162E-2,-6.5291844E-2,-1.3122976E-1,-3.0784627E-2,5.3537716E-3,-7.647155E-2,4.295257E-2,9.948735E-2],"categories":[],"categories_nodes":[],"categories_segments":[],"categories_sizes":[],"default_left":[0,0,0,0,0,0,0,0,0,0,0,0,0,0,0,0,0,0,0,0,0,0,0,0,0,0,0,0,0,0,0,0,0,0,0,0,0,0,0,0,0,0,0,0,0,0,0,0,0,0,0,0,0,0,0,0,0,0,0,0,0,0,0,0,0,0,0,0,0,0,0,0,0,0,0,0,0,0,0,0,0,0,0,0,0,0,0,0,0,0,0,0,0,0,0,0,0,0,0,0,0,0,0,0,0,0,0,0,0,0,0,0,0,0,0,0,0,0,0,0,0,0,0,0,0,0,0,0,0,0,0,0,0,0,0,0,0,0,0,0,0,0,0],"id":2,"left_children":[1,3,5,7,9,11,13,15,17,19,21,23,25,27,29,-1,31,33,-1,35,-1,37,39,41,43,45,47,49,51,53,-1,55,-1,-1,-1,-1,57,-1,59,61,63,65,67,69,71,73,75,77,79,81,83,85,87,-1,89,91,-1,-1,-1,93,-1,95,97,99,101,103,-1,105,107,109,-1,111,-1,113,115,117,119,121,123,125,127,129,131,133,135,-1,137,-1,139,141,-1,-1,-1,-1,-1,-1,-1,-1,-1,-1,-1,-1,-1,-1,-1,-1,-1,-1,-1,-1,-1,-1,-1,-1,-1,-1,-1,-1,-1,-1,-1,-1,-1,-1,-1,-1,-1,-1,-1,-1,-1,-1,-1,-1,-1,-1,-1,-1,-1,-1,-1,-1,-1],"loss_changes":[2.4412064E1,2.0592703E1,1.5103297E1,4.4514265E0,1.1714996E1,1.1492142E1,3.7938812E1,3.3803606E0,2.7186317E0,1.0142434E1,5.2481766E0,1.243709E1,1.0077719E1,1.4603312E1,7.182232E0,0E0,3.3105688E0,1.4219544E0,0E0,1.1982129E0,0E0,6.754303E-1,3.3108006E0,6.6634326E0,3.473339E0,8.661648E0,7.5139947E0,8.688942E0,7.203705E0,3.5372925E0,0E0,1.0009384E-1,0E0,0E0,0E0,0E0,1.0388937E0,0E0,1.2874985E-1,2.6006603E0,3.8095233E0,2.7092316E0,3.5595024E0,7.697487E-1,3.6672294E0,4.9946184E0,5.6973276E0,8.787062E0,5.906023E0,4.436989E0,7.710125E0,5.12677E0,5.7321906E0,0E0,1.8337746E0,8.2717514E-1,0E0,0E0,0E0,1.8905339E0,0E0,3.150448E0,3.1555748E-1,8.04953E-1,1.851896E0,2.5091863E0,0E0,4.7161236E0,5.388808E-1,7.116853E-1,0E0,3.5107284E0,0E0,4.87862E0,6.337921E0,4.1835036E0,1.1291909E0,7.040912E0,8.327235E0,4.015186E0,5.9051685E0,8.626404E-1,6.0690317E0,4.8649654E0,5.439026E0,0E0,8.2078934E-1,0E0,1.2669952E0,1.9621925E0,0E0,0E0,0E0,0E0,0E0,0E0,0E0,0E0,0E0,0E0,0E0,0E0,0E0,0E0,0E0,0E0,0E0,0E0,0E0,0E0,0E0,0E0,0E0,0E0,0E0,0E0,0E0,0E0,0E0,0E0,0E0,0E0,0E0,0E0,0E0,0E0,0E0,0E0,0E0,0E0,0E0,0E0,0E0,0E0,0E0,0E0,0E0,0E0,0E0,0E0,0E0,0E0,0E0],"parents":[2147483647,0,0,1,1,2,2,3,3,4,4,5,5,6,6,7,7,8,8,9,9,10,10,11,11,12,12,13,13,14,14,16,16,17,17,19,19,21,21,22,22,23,23,24,24,25,25,26,26,27,27,28,28,29,29,31,31,36,36,38,38,39,39,40,40,41,41,42,42,43,43,44,44,45,45,46,46,47,47,48,48,49,49,50,50,51,51,52,52,54,54,55,55,59,59,61,61,62,62,63,63,64,64,65,65,67,67,68,68,69,69,71,71,73,73,74,74,75,75,76,76,77,77,78,78,79,79,80,80,81,81,82,82,83,83,84,84,86,86,88,88,89,89],"right_children":[2,4,6,8,10,12,14,16,18,20,22,24,26,28,30,-1,32,34,-1,36,-1,38,40,42,44,46,48,50,52,54,-1,56,-1,-1,-1,-1,58,-1,60,62,64,66,68,70,72,74,76,78,80,82,84,86,88,-1,90,92,-1,-1,-1,94,-1,96,98,100,102,104,-1,106,108,110,-1,112,-1,114,116,118,120,122,124,126,128,130,132,134,136,-1,138,-1,140,142,-1,-1,-1,-1,-1,-1,-1,-1,-1,-1,-1,-1,-1,-1,-1,-1,-1,-1,-1,-1,-1,-1,-1,-1,-1,-1,-1,-1,-1,-1,-1,-1,-1,-1,-1,-1,-1,-1,-1,-1,-1,-1,-1,-1,-1,-1,-1,-1,-1,-1,-1,-1,-1],"split_conditions":[2.9577423E2,6.64647E0,3.5360727E2,7.551906E1,1.6786926E4,5.6263394E0,7.9176087E0,5.693752E0,1.8215464E1,7.9617214E0,2.048605E2,6.8514047E0,1.6189636E2,2.0942683E2,9.380013E0,-3.387739E-2,4.7641935E0,8.376265E1,3.825657E-2,6.2906204E1,-1.1093445E-1,1.0212058E1,2.8397598E2,3.3183463E2,4.5697977E2,1.6295837E1,3.5944943E2,6.770927E0,2.5620771E4,1.2530272E2,-5.326457E-2,2.6663937E2,-1.2865502E-2,-1.0101497E-1,-6.9259484E-3,5.686251E-4,2.602612E2,-4.5023717E-2,3.668131E2,3.4331353E0,2.895997E2,4.9551312E2,2.0009901E2,1.5398004E2,2.1505136E2,4.6805173E2,3.8028197E0,7.7446957E0,1.2318942E1,5.626787E0,1.8295371E4,2.9626077E2,1.3376148E1,-3.2859813E-2,1.875614E1,6.586719E1,9.775908E-2,8.038002E-3,8.8879704E-2,3.5944943E2,-1.3570507E-1,2.2357848E2,4.5631833E0,6.532733E1,2.1098503E2,5.15274E0,-3.2859813E-2,4.9663973E0,2.055724E4,3.6584525E2,1.043138E-1,8.2682295E0,-5.1784296E-2,3.520391E2,6.973669E1,2.7657223E0,3.6584525E2,3.3726718E2,3.574172E0,3.303615E2,6.0373722E1,1.3478149E1,1.9116012E4,7.031684E0,9.232766E0,1.3022074E-2,2.6363272E2,7.5226255E-2,3.5944943E2,1.3376148E1,-8.238883E-3,6.668581E-2,-6.073207E-3,-9.652392E-2,4.9384395E-3,-7.378384E-2,4.486949E-2,-1.1389581E-1,-3.040976E-2,-1.6085663E-3,7.154102E-2,9.591908E-3,-8.856428E-2,9.347656E-2,-7.4240263E-3,-8.3775446E-2,3.5730097E-2,-1.1116388E-1,-2.9727472E-2,6.038626E-2,-7.4131726E-3,9.390214E-2,-6.464991E-3,6.5501374E-3,-1.04259424E-1,4.753817E-2,-7.832815E-2,3.8001448E-2,-1.0567535E-1,9.315622E-3,9.35078E-2,-8.65816E-3,6.680199E-2,2.9452091E-2,-8.537851E-2,2.8445026E-2,-1.5377179E-2,4.8502464E-2,1.658426E-2,-2.9061055E-2,-1.3569719E-1,-7.519184E-2,-2.3849288E-3,3.5402548E-2,-5.670776E-2,5.3136162E-2,-6.5291844E-2,-1.3122976E-1,-3.0784627E-2,5.3537716E-3,-7.647155E-2,4.295257E-2,9.948735E-2],"split_indices":[4,0,4,7,2,0,0,3,6,0,1,3,1,1,3,0,8,7,0,7,0,6,4,4,5,6,5,0,2,1,0,4,0,0,0,0,4,0,5,8,4,5,1,1,1,5,8,3,6,3,2,5,6,0,6,7,0,0,0,5,0,1,8,7,1,0,0,3,2,5,0,3,0,5,7,8,5,4,8,4,7,6,2,0,3,0,1,0,5,6,0,0,0,0,0,0,0,0,0,0,0,0,0,0,0,0,0,0,0,0,0,0,0,0,0,0,0,0,0,0,0,0,0,0,0,0,0,0,0,0,0,0,0,0,0,0,0,0,0,0,0,0,0],"split_type":[0,0,0,0,0,0,0,0,0,0,0,0,0,0,0,0,0,0,0,0,0,0,0,0,0,0,0,0,0,0,0,0,0,0,0,0,0,0,0,0,0,0,0,0,0,0,0,0,0,0,0,0,0,0,0,0,0,0,0,0,0,0,0,0,0,0,0,0,0,0,0,0,0,0,0,0,0,0,0,0,0,0,0,0,0,0,0,0,0,0,0,0,0,0,0,0,0,0,0,0,0,0,0,0,0,0,0,0,0,0,0,0,0,0,0,0,0,0,0,0,0,0,0,0,0,0,0,0,0,0,0,0,0,0,0,0,0,0,0,0,0,0,0],"sum_hessian":[4.965297E2,5.9078243E1,4.3745145E2,1.6120077E1,4.2958164E1,3.261042E2,1.1134727E2,1.1569448E1,4.5506287E0,8.476053E0,3.4482113E1,4.4804497E1,2.8129968E2,8.498294E1,2.6364325E1,1.6758544E0,9.893595E0,3.1509838E0,1.3996449E0,6.496737E0,1.9793159E0,1.9042114E1,1.5439997E1,1.7679438E1,2.7125061E1,2.8370222E1,2.5292947E2,6.0953632E1,2.402931E1,2.4183773E1,2.1805527E0,7.7730875E0,2.120507E0,1.4806136E0,1.6703702E0,1.8795445E0,4.6171927E0,2.2264628E0,1.6815653E1,9.259217E0,6.1807795E0,7.381984E0,1.0297454E1,1.8606619E1,8.518441E0,2.058558E1,7.784642E0,5.3972336E1,1.9895714E2,2.918588E1,3.1767752E1,1.753059E1,6.4987197E0,1.2064368E0,2.2977335E1,2.5196824E0,5.253405E0,1.4075546E0,3.2096379E0,4.6808906E0,1.2134762E1,3.0961425E0,6.163075E0,2.7920985E0,3.3886807E0,6.1755476E0,1.2064368E0,6.6166677E0,3.680786E0,2.2709255E0,1.6335693E1,7.098087E0,1.4203541E0,1.334939E1,7.2361903E0,2.8555124E0,4.92913E0,3.753185E1,1.6440487E1,5.2523964E1,1.4643317E2,4.123351E0,2.506253E1,1.4718723E1,1.7049028E1,1.442919E0,1.6087671E1,1.6426951E0,4.8560243E0,2.183613E1,1.1412063E0,1.365622E0,1.1540604E0,3.4584677E0,1.2224227E0,1.4692907E0,1.6268518E0,4.9455986E0,1.2174761E0,1.190164E0,1.6019346E0,1.420551E0,1.9681299E0,4.508924E0,1.6666234E0,1.7102666E0,4.9064007E0,1.978159E0,1.702627E0,1.1251864E0,1.145739E0,4.1172395E0,2.9808471E0,2.6206572E0,1.0728733E1,4.3405895E0,2.8956008E0,1.3965167E0,1.4589957E0,1.4177902E0,3.5113397E0,2.9499561E1,8.032287E0,4.2906423E0,1.2149845E1,1.6167734E1,3.6356228E1,4.9597477E1,9.683569E1,1.2220017E0,2.9013495E0,1.0956721E1,1.4105808E1,3.6292913E0,1.1089432E1,1.5397452E1,1.6515758E0,1.4875122E1,1.2125499E0,1.220042E0,3.6359825E0,7.597328E0,1.4238802E1],"tree_param":{"num_deleted":"0","num_feature":"9","num_nodes":"143","size_leaf_vector":"1"}},{"base_weights":[-2.5729416E-3,-5.617678E-1,7.4271806E-2,3.2889277E-1,-8.919018E-1,1.60895E-1,-2.7606753E-1,6.314351E-1,-4.0615317E-1,8.385571E-2,-1.1243341E0,5.8613855E-1,9.4134815E-2,-6.028875E-1,6.848362E-1,-2.941075E-1,8.822103E-1,-8.2216865E-1,3.6810108E-2,6.716004E-1,-1.0480617E-1,-1.447915E0,-6.5949374E-1,1.5704881E-2,1.0140209E0,-4.0889516E-1,1.5036699E-1,-1.0203708E0,-2.237851E-1,9.083554E-1,-7.031335E-2,-6.541324E-2,3.1957414E-2,1.1496333E0,1.454348E-1,-9.595544E-2,-6.594735E-3,9.023891E-1,-6.8527064E-4,-1.0325925E0,-1.3124886E-1,-9.850223E-1,-9.918423E-2,7.023543E-1,-4.418411E-1,3.455607E-1,1.1874931E0,-6.770706E-1,3.2368484E-1,-1.4816281E-1,2.4826859E-1,-7.933481E-1,-1.21593446E-1,5.965746E-2,-8.2316256E-1,-3.14071E-2,1.0146304E0,2.3999138E-2,9.364559E-2,7.0955865E-2,-6.420498E-2,8.729933E-2,4.887757E-3,-1.2754778E0,-1.4136514E-1,-2.0082545E-1,-1.2931871E0,6.183299E-1,-6.889075E-1,9.333833E-1,-3.14071E-2,1.0288538E-1,-1.2571281E0,7.7078235E-1,-3.4139776E-1,1.2629944E0,-3.8704572E-3,3.3547662E-2,-9.514614E-1,7.3056084E-1,-9.189282E-2,1.0171098E-1,-4.9725223E-1,-2.5270665E-1,3.0658093E-1,4.6699375E-2,-9.234618E-1,-3.5502172E-1,7.060309E-1,1.0195237E-1,-1.210233E0,1.1103735E0,2.7869546E-1,-1.1339529E-1,-7.4947225E-3,4.0438488E-2,-5.6593657E-2,-7.008885E-2,4.3126356E-2,-4.0914092E-2,-1.14026E-1,-1.5426909E-3,6.919889E-2,9.182188E-3,-8.3623044E-2,9.156545E-2,2.6770183E-3,-6.181598E-2,3.6195856E-2,-2.8311966E-2,-1.06726E-1,-6.476714E-3,8.101483E-2,-1.0404125E-1,6.516444E-2,1.00050434E-1,4.171766E-2,-3.504423E-2,6.320833E-2,-2.413223E-2,-1.0977104E-1,8.0730885E-2,-2.7443434E-3,-3.9358124E-2,3.1016067E-2,-4.7340307E-2,7.811204E-2,7.6943715E-3,-8.045752E-2,1.6435476E-2,5.0041832E-2,-4.9854476E-2,-1.1269487E-1,-6.0773194E-2,2.7109753E-2,8.166495E-2,1.008634E-2,-4.6060406E-2,6.985666E-2,-1.0463209E-1,-2.4630442E-2,2.784975E-2,8.915001E-2,6.497954E-2,-3.5789073E-2],"categories":[],"categories_nodes":[],"categories_segments":[],"categories_sizes":[],"default_left":[0,0,0,0,0,0,0,0,0,0,0,0,0,0,0,0,0,0,0,0,0,0,0,0,0,0,0,0,0,0,0,0,0,0,0,0,0,0,0,0,0,0,0,0,0,0,0,0,0,0,0,0,0,0,0,0,0,0,0,0,0,0,0,0,0,0,0,0,0,0,0,0,0,0,0,0,0,0,0,0,0,0,0,0,0,0,0,0,0,0,0,0,0,0,0,0,0,0,0,0,0,0,0,0,0,0,0,0,0,0,0,0,0,0,0,0,0,0,0,0,0,0,0,0,0,0,0,0,0,0,0,0,0,0,0,0,0,0,0,0,0,0,0,0,0],"id":3,"left_children":[1,3,5,7,9,11,13,15,17,19,21,23,25,27,29,31,33,35,-1,37,-1,39,41,43,45,47,49,51,53,55,-1,-1,-1,57,59,-1,-1,61,-1,63,-1,65,67,69,71,73,75,77,79,81,83,85,-1,87,89,-1,91,-1,-1,-1,-1,-1,-1,93,95,97,99,101,103,105,-1,107,109,111,113,115,-1,117,119,121,-1,123,125,127,129,-1,131,133,135,137,139,141,143,-1,-1,-1,-1,-1,-1,-1,-1,-1,-1,-1,-1,-1,-1,-1,-1,-1,-1,-1,-1,-1,-1,-1,-1,-1,-1,-1,-1,-1,-1,-1,-1,-1,-1,-1,-1,-1,-1,-1,-1,-1,-1,-1,-1,-1,-1,-1,-1,-1,-1,-1,-1],"loss_changes":[2.1338062E1,1.7933653E1,1.3294213E1,4.02681E0,1.0082245E1,9.900463E0,2.7709457E1,3.138054E0,2.4752884E0,9.124723E0,4.4052734E0,1.1551662E1,8.668758E0,1.0121149E1,9.020895E0,1.7846367E0,1.8047342E0,1.2863708E0,0E0,1.1719635E0,0E0,7.239418E-1,2.9049463E0,7.0111904E0,2.728014E0,6.2827544E0,8.057283E0,2.9206924E0,6.0890365E0,3.2891273E0,0E0,0E0,0E0,1.9152832E-1,3.8649921E0,0E0,0E0,1.137897E0,0E0,2.18653E0,0E0,2.2295732E0,3.4562504E0,2.6999674E0,6.0863533E0,2.3040533E0,2.0370636E0,4.5004234E0,6.533906E0,6.0167766E0,6.1253786E0,5.059663E0,0E0,6.970373E0,4.2349625E0,0E0,1.0359612E0,0E0,0E0,0E0,0E0,0E0,0E0,2.2026691E0,1.8534207E0,2.8653777E0,3.9531612E-1,7.495923E-1,1.6588235E0,1.9440131E0,0E0,3.5539455E0,2.5780487E-1,1.3192191E0,5.4635353E0,2.570343E-1,0E0,3.3724294E0,4.871978E0,2.0856557E0,0E0,8.167017E0,6.5737424E0,6.5589294E0,5.7159863E0,0E0,2.401947E0,5.4918537E0,2.0706224E0,3.131655E0,8.7414074E-1,5.1688576E-1,1.9830227E0,0E0,0E0,0E0,0E0,0E0,0E0,0E0,0E0,0E0,0E0,0E0,0E0,0E0,0E0,0E0,0E0,0E0,0E0,0E0,0E0,0E0,0E0,0E0,0E0,0E0,0E0,0E0,0E0,0E0,0E0,0E0,0E0,0E0,0E0,0E0,0E0,0E0,0E0,0E0,0E0,0E0,0E0,0E0,0E0,0E0,0E0,0E0,0E0,0E0,0E0,0E0,0E0],"parents":[2147483647,0,0,1,1,2,2,3,3,4,4,5,5,6,6,7,7,8,8,9,9,10,10,11,11,12,12,13,13,14,14,15,15,16,16,17,17,19,19,21,21,22,22,23,23,24,24,25,25,26,26,27,27,28,28,29,29,33,33,34,34,37,37,39,39,41,41,42,42,43,43,44,44,45,45,46,46,47,47,48,48,49,49,50,50,51,51,53,53,54,54,56,56,63,63,64,64,65,65,66,66,67,67,68,68,69,69,71,71,72,72,73,73,74,74,75,75,77,77,78,78,79,79,81,81,82,82,83,83,84,84,86,86,87,87,88,88,89,89,90,90,91,91,92,92],"right_children":[2,4,6,8,10,12,14,16,18,20,22,24,26,28,30,32,34,36,-1,38,-1,40,42,44,46,48,50,52,54,56,-1,-1,-1,58,60,-1,-1,62,-1,64,-1,66,68,70,72,74,76,78,80,82,84,86,-1,88,90,-1,92,-1,-1,-1,-1,-1,-1,94,96,98,100,102,104,106,-1,108,110,112,114,116,-1,118,120,122,-1,124,126,128,130,-1,132,134,136,138,140,142,144,-1,-1,-1,-1,-1,-1,-1,-1,-1,-1,-1,-1,-1,-1,-1,-1,-1,-1,-1,-1,-1,-1,-1,-1,-1,-1,-1,-1,-1,-1,-1,-1,-1,-1,-1,-1,-1,-1,-1,-1,-1,-1,-1,-1,-1,-1,-1,-1,-1,-1,-1,-1],"split_conditions":[2.9577423E2,6.64647E0,3.6303687E2,7.551906E1,1.6786926E4,5.6263394E0,7.7620206E0,5.770107E0,1.8215464E1,7.9617214E0,2.048605E2,7.01899E0,1.6189636E2,1.8964092E4,9.380013E0,6.839542E1,4.584319E0,8.376265E1,3.6810108E-2,2.2933932E2,-1.0480617E-1,7.2265925E0,2.8397598E2,3.3183463E2,1.5736581E4,1.6295837E1,1.2132425E1,2.1877E2,2.0109732E2,1.2530272E2,-7.031335E-2,-6.541324E-2,3.1957414E-2,6.6910696E0,7.6326385E0,-9.595544E-2,-6.594735E-3,7.420641E0,-6.8527064E-4,2.895997E2,-1.3124886E-1,3.4331353E0,2.895997E2,4.9551312E2,2.0009901E2,4.176737E2,2.3384662E2,1.1360427E1,1.94117E1,7.4127655E0,3.300786E2,8.471678E3,-1.21593446E-1,7.031684E0,1.299676E1,-3.14071E-2,8.5840256E1,2.3999138E-2,9.364559E-2,7.0955865E-2,-6.420498E-2,8.729933E-2,4.887757E-3,1.9362949E2,3.0681121E4,2.2357848E2,1.2397703E1,6.532733E1,2.1098503E2,5.15274E0,-3.14071E-2,4.9663973E0,4.998568E1,1.6103897E2,3.377816E2,3.4079257E2,-3.8704572E-3,4.6457333E2,2.1144975E4,7.058866E0,-9.189282E-2,6.922042E0,5.486377E2,2.5740412E4,4.593764E0,4.6699375E-2,4.046729E2,1.718161E2,1.7515715E2,7.070185E0,4.242947E0,5.136599E0,6.7496963E0,-1.1339529E-1,-7.4947225E-3,4.0438488E-2,-5.6593657E-2,-7.008885E-2,4.3126356E-2,-4.0914092E-2,-1.14026E-1,-1.5426909E-3,6.919889E-2,9.182188E-3,-8.3623044E-2,9.156545E-2,2.6770183E-3,-6.181598E-2,3.6195856E-2,-2.8311966E-2,-1.06726E-1,-6.476714E-3,8.101483E-2,-1.0404125E-1,6.516444E-2,1.00050434E-1,4.171766E-2,-3.504423E-2,6.320833E-2,-2.413223E-2,-1.0977104E-1,8.0730885E-2,-2.7443434E-3,-3.9358124E-2,3.1016067E-2,-4.7340307E-2,7.811204E-2,7.6943715E-3,-8.045752E-2,1.6435476E-2,5.0041832E-2,-4.9854476E-2,-1.1269487E-1,-6.0773194E-2,2.7109753E-2,8.166495E-2,1.008634E-2,-4.6060406E-2,6.985666E-2,-1.0463209E-1,-2.4630442E-2,2.784975E-2,8.915001E-2,6.497954E-2,-3.5789073E-2],"split_indices":[4,0,4,7,2,0,0,3,6,0,1,3,1,2,3,7,8,7,0,1,0,0,4,4,2,6,6,1,1,1,0,0,0,3,3,0,0,0,0,4,0,8,4,5,1,5,1,6,6,3,5,2,0,0,6,0,7,0,0,0,0,0,0,1,2,1,6,7,1,0,0,3,7,1,4,4,0,5,2,0,0,0,5,2,8,0,4,1,1,3,8,3,3,0,0,0,0,0,0,0,0,0,0,0,0,0,0,0,0,0,0,0,0,0,0,0,0,0,0,0,0,0,0,0,0,0,0,0,0,0,0,0,0,0,0,0,0,0,0,0,0,0,0,0,0],"split_type":[0,0,0,0,0,0,0,0,0,0,0,0,0,0,0,0,0,0,0,0,0,0,0,0,0,0,0,0,0,0,0,0,0,0,0,0,0,0,0,0,0,0,0,0,0,0,0,0,0,0,0,0,0,0,0,0,0,0,0,0,0,0,0,0,0,0,0,0,0,0,0,0,0,0,0,0,0,0,0,0,0,0,0,0,0,0,0,0,0,0,0,0,0,0,0,0,0,0,0,0,0,0,0,0,0,0,0,0,0,0,0,0,0,0,0,0,0,0,0,0,0,0,0,0,0,0,0,0,0,0,0,0,0,0,0,0,0,0,0,0,0,0,0,0,0],"sum_hessian":[4.945958E2,5.8993443E1,4.3560236E2,1.5954349E1,4.3039093E1,3.4968234E2,8.5920006E1,1.1402201E1,4.552148E0,8.402861E0,3.463623E1,4.63929E1,3.0328946E2,6.439182E1,2.1528187E1,2.3939593E0,9.008242E0,3.166756E0,1.3853917E0,6.407194E0,1.9956666E0,1.9174068E1,1.5462163E1,2.0328524E1,2.6064375E1,2.9864283E1,2.7342517E2,2.983963E1,3.455219E1,1.9308107E1,2.2200792E0,1.2109716E0,1.1829876E0,6.1981716E0,2.81007E0,1.4939353E0,1.6728207E0,4.5417953E0,1.865399E0,9.933993E0,9.240075E0,9.300666E0,6.1614966E0,7.9151044E0,1.241342E1,5.986795E0,2.007758E1,2.1916927E1,7.9473543E0,6.739754E1,2.0602763E2,2.334118E1,6.4984493E0,2.4070051E1,1.0482138E1,1.2135433E0,1.8094564E1,1.1117842E0,5.086387E0,1.5923871E0,1.217683E0,3.1631224E0,1.3786731E0,7.4676857E0,2.4663079E0,3.0897534E0,6.2109127E0,2.757702E0,3.4037945E0,6.701561E0,1.2135433E0,7.9652896E0,4.4481297E0,3.622485E0,2.3643103E0,1.890629E1,1.1712899E0,6.3498363E0,1.5567092E1,6.712449E0,1.2349055E0,3.9693832E1,2.7703705E1,2.1133236E1,1.848944E2,1.6457086E0,2.1695473E1,1.4937614E1,9.132438E0,3.3093214E0,7.1728163E0,1.5561292E1,2.533273E0,5.978888E0,1.4887974E0,1.2262062E0,1.2401017E0,1.4828998E0,1.6068536E0,2.239938E0,3.9709744E0,1.1905823E0,1.5671198E0,1.4173877E0,1.9864068E0,4.803273E0,1.8982875E0,1.974359E0,5.9909306E0,1.2254726E0,3.2226572E0,1.1520355E0,2.4704494E0,1.1898816E0,1.1744286E0,1.6373655E1,2.5326347E0,4.183442E0,2.1663942E0,7.7126017E0,7.8544908E0,4.3487844E0,2.3636646E0,1.2964679E1,2.6729153E1,2.6027718E1,1.6759875E0,1.535531E1,5.7779245E0,1.501072E2,3.4787197E1,1.6480444E1,5.215029E0,9.053595E0,5.88402E0,4.9270573E0,4.2053804E0,1.915365E0,1.3939565E0,5.4485598E0,1.7242565E0,2.0407376E0,1.3520554E1,1.3429387E0,1.1903344E0],"tree_param":{"num_deleted":"0","num_feature":"9","num_nodes":"145","size_leaf_vector":"1"}},{"base_weights":[-3.5453362E-3,-5.294397E-1,6.873122E-2,3.1007227E-1,-8.3745456E-1,1.647088E-1,-2.1021296E-1,6.018094E-1,-3.8787517E-1,7.729996E-2,-1.0532176E0,5.8540934E-1,9.792539E-2,-4.9295166E-1,7.194575E-1,-3.1654835E-2,8.061498E-1,-7.835333E-1,3.5429668E-2,6.4193135E-1,-9.942008E-2,-1.3526464E0,-6.218846E-1,-1.5942749E-2,9.766983E-1,1.6573305E-1,-3.751847E-1,-2.5448728E-1,-1.0589601E0,8.6900014E-1,-4.761649E-2,1.0710244E0,-1.2663457E-2,-8.4651895E-2,2.6657842E-3,-1.6123817E-3,8.713424E-1,-3.7437845E-2,-1.4315886E0,-9.275067E-1,-9.282299E-2,2.2646868E-1,-9.318758E-2,1.2143438E0,3.946227E-1,1.08551584E-1,7.748933E-1,2.3261093E-2,-9.331752E-1,-5.90865E-1,6.818193E-2,-1.3470662E0,-1.9976829E-1,-3.0027783E-2,9.536855E-1,4.8694333E-1,9.2027776E-2,5.885657E-3,8.415814E-2,-1.0239346E0,-1.2787642E-1,-1.9268551E-1,-1.2136006E0,5.959836E-1,-6.529663E-1,4.34497E-1,-9.601701E-2,4.0093523E-1,9.743611E-2,6.6772664E-1,-4.819359E-2,2.0348221E-2,4.9176103E-1,1.1008763E0,-5.450002E-1,-2.645991E-1,9.332619E-1,-1.1233934E0,1.0719348E-2,-1.4009998E0,-4.0780613E-1,-3.753914E-1,4.615645E-1,1.2361494E-2,-1.4822153E0,7.256588E-2,-6.8078524E-1,1.0160601E0,-1.0453498E-2,6.18032E-2,-7.7459784E-3,-9.2512555E-2,-9.970538E-3,-6.6688456E-2,4.146924E-2,-2.3420388E-2,-1.0110543E-1,-1.4795363E-3,6.701447E-2,8.79003E-3,-7.916732E-2,-6.792157E-2,4.868673E-2,-1.090486E-2,5.719669E-2,8.725726E-2,-8.745063E-3,-7.164794E-2,4.0010526E-3,5.0662063E-2,-3.084035E-2,1.2902708E-2,9.164828E-2,-1.0139539E-1,7.188749E-3,-4.6152085E-2,2.6610682E-2,9.251299E-2,-7.486328E-3,9.273255E-3,-9.682181E-2,-2.412621E-2,-1.2426483E-1,-6.530112E-2,-7.816689E-4,3.5373684E-2,-4.9902376E-2,4.84429E-2,-6.1172195E-2,-1.1592318E-1,-2.6835438E-2,-6.808819E-2,7.938726E-3,3.7978567E-2,9.30026E-2],"categories":[],"categories_nodes":[],"categories_segments":[],"categories_sizes":[],"default_left":[0,0,0,0,0,0,0,0,0,0,0,0,0,0,0,0,0,0,0,0,0,0,0,0,0,0,0,0,0,0,0,0,0,0,0,0,0,0,0,0,0,0,0,0,0,0,0,0,0,0,0,0,0,0,0,0,0,0,0,0,0,0,0,0,0,0,0,0,0,0,0,0,0,0,0,0,0,0,0,0,0,0,0,0,0,0,0,0,0,0,0,0,0,0,0,0,0,0,0,0,0,0,0,0,0,0,0,0,0,0,0,0,0,0,0,0,0,0,0,0,0,0,0,0,0,0,0,0,0,0,0,0,0,0,0],"id":4,"left_children":[1,3,5,7,9,11,13,15,17,19,21,23,25,27,29,-1,31,33,-1,35,-1,37,39,41,43,45,47,49,51,53,-1,55,-1,-1,-1,-1,57,-1,59,61,63,65,-1,67,69,71,73,75,77,79,81,83,85,-1,87,89,-1,-1,-1,91,-1,93,95,97,99,101,-1,103,-1,105,-1,107,109,111,113,115,117,119,-1,121,123,125,127,-1,129,-1,131,133,-1,-1,-1,-1,-1,-1,-1,-1,-1,-1,-1,-1,-1,-1,-1,-1,-1,-1,-1,-1,-1,-1,-1,-1,-1,-1,-1,-1,-1,-1,-1,-1,-1,-1,-1,-1,-1,-1,-1,-1,-1,-1,-1,-1,-1,-1,-1],"loss_changes":[1.87757E1,1.5693203E1,1.1662594E1,3.64407E0,8.752865E0,9.037367E0,2.9695517E1,2.8936749E0,2.2577422E0,8.230951E0,3.7590256E0,1.0403028E1,9.062609E0,1.1363338E1,5.906225E0,0E0,2.897058E0,1.2203684E0,0E0,1.1323397E0,0E0,6.4453125E-1,2.5730286E0,5.7479796E0,3.2223911E0,8.487558E0,7.9090877E0,6.7648163E0,5.976616E0,2.986597E0,0E0,1.6858101E-1,0E0,0E0,0E0,0E0,9.976964E-1,0E0,2.526741E-1,1.9341793E0,3.141203E0,5.6330695E0,0E0,7.566681E-1,3.0462346E0,7.633172E0,9.615852E0,5.9241643E0,3.1907415E0,3.9424934E0,5.847543E0,4.069603E0,4.875612E0,0E0,1.710516E0,7.6758295E-1,0E0,0E0,0E0,1.6474819E0,0E0,2.6097667E0,4.55822E-1,6.9946194E-1,1.4914141E0,4.8968525E0,0E0,7.4221313E-1,0E0,3.1697984E0,0E0,6.002699E0,7.2899237E0,1.7172012E0,2.621665E0,3.9647613E0,1.8071036E0,2.8118572E0,0E0,9.028425E-1,4.817009E0,4.203366E0,4.690036E0,0E0,6.796951E-1,0E0,1.1508837E0,1.8708935E0,0E0,0E0,0E0,0E0,0E0,0E0,0E0,0E0,0E0,0E0,0E0,0E0,0E0,0E0,0E0,0E0,0E0,0E0,0E0,0E0,0E0,0E0,0E0,0E0,0E0,0E0,0E0,0E0,0E0,0E0,0E0,0E0,0E0,0E0,0E0,0E0,0E0,0E0,0E0,0E0,0E0,0E0,0E0,0E0,0E0,0E0,0E0],"parents":[2147483647,0,0,1,1,2,2,3,3,4,4,5,5,6,6,7,7,8,8,9,9,10,10,11,11,12,12,13,13,14,14,16,16,17,17,19,19,21,21,22,22,23,23,24,24,25,25,26,26,27,27,28,28,29,29,31,31,36,36,38,38,39,39,40,40,41,41,43,43,44,44,45,45,46,46,47,47,48,48,49,49,50,50,51,51,52,52,54,54,55,55,59,59,61,61,62,62,63,63,64,64,65,65,67,67,69,69,71,71,72,72,73,73,74,74,75,75,76,76,77,77,79,79,80,80,81,81,82,82,84,84,86,86,87,87],"right_children":[2,4,6,8,10,12,14,16,18,20,22,24,26,28,30,-1,32,34,-1,36,-1,38,40,42,44,46,48,50,52,54,-1,56,-1,-1,-1,-1,58,-1,60,62,64,66,-1,68,70,72,74,76,78,80,82,84,86,-1,88,90,-1,-1,-1,92,-1,94,96,98,100,102,-1,104,-1,106,-1,108,110,112,114,116,118,120,-1,122,124,126,128,-1,130,-1,132,134,-1,-1,-1,-1,-1,-1,-1,-1,-1,-1,-1,-1,-1,-1,-1,-1,-1,-1,-1,-1,-1,-1,-1,-1,-1,-1,-1,-1,-1,-1,-1,-1,-1,-1,-1,-1,-1,-1,-1,-1,-1,-1,-1,-1,-1,-1,-1],"split_conditions":[2.9577423E2,6.64647E0,3.5360727E2,7.551906E1,1.6786926E4,5.6263394E0,7.9176087E0,5.693752E0,1.8215464E1,7.9617214E0,2.048605E2,6.8514047E0,3.1145111E4,2.0942683E2,9.380013E0,-3.1654835E-2,4.7641935E0,4.8263718E2,3.5429668E-2,6.2906204E1,-9.942008E-2,1.0212058E1,2.8397598E2,2.2876294E2,4.5697977E2,9.281302E0,7.499844E0,6.770927E0,2.5620771E4,1.2530272E2,-4.761649E-2,2.6663937E2,-1.2663457E-2,-8.4651895E-2,2.6657842E-3,-1.6123817E-3,2.602612E2,-3.7437845E-2,7.2265925E0,3.4331353E0,2.895997E2,4.95742E0,-9.318758E-2,1.5398004E2,2.1505136E2,3.393279E2,8.306927E0,3.3443854E2,4.593764E0,5.626787E0,1.8295371E4,2.9626077E2,1.3376148E1,-3.0027783E-2,1.875614E1,5.652501E0,9.2027776E-2,5.885657E-3,8.415814E-2,2.895997E2,-1.2787642E-1,2.2357848E2,2.1417233E2,6.532733E1,2.1098503E2,4.59867E0,-9.601701E-2,3.79204E0,9.743611E-2,8.2682295E0,-4.819359E-2,1.4490294E2,2.2167546E2,1.103224E1,8.660269E0,6.900686E1,1.6135733E1,2.8910189E0,1.0719348E-2,3.6931E2,1.9116012E4,7.031684E0,9.232766E0,1.2361494E-2,2.6363272E2,7.256588E-2,3.8411725E2,1.3376148E1,-1.0453498E-2,6.18032E-2,-7.7459784E-3,-9.2512555E-2,-9.970538E-3,-6.6688456E-2,4.146924E-2,-2.3420388E-2,-1.0110543E-1,-1.4795363E-3,6.701447E-2,8.79003E-3,-7.916732E-2,-6.792157E-2,4.868673E-2,-1.090486E-2,5.719669E-2,8.725726E-2,-8.745063E-3,-7.164794E-2,4.0010526E-3,5.0662063E-2,-3.084035E-2,1.2902708E-2,9.164828E-2,-1.0139539E-1,7.188749E-3,-4.6152085E-2,2.6610682E-2,9.251299E-2,-7.486328E-3,9.273255E-3,-9.682181E-2,-2.412621E-2,-1.2426483E-1,-6.530112E-2,-7.816689E-4,3.5373684E-2,-4.9902376E-2,4.84429E-2,-6.1172195E-2,-1.1592318E-1,-2.6835438E-2,-6.808819E-2,7.938726E-3,3.7978567E-2,9.30026E-2],"split_indices":[4,0,4,7,2,0,0,3,6,0,1,3,2,1,3,0,8,5,0,7,0,6,4,1,5,0,0,0,2,1,0,4,0,0,0,0,4,0,0,8,4,8,0,1,1,4,3,4,8,3,2,5,6,0,6,0,0,0,0,4,0,1,1,7,1,3,0,8,0,3,0,1,1,6,3,7,6,8,0,4,2,0,3,0,1,0,4,6,0,0,0,0,0,0,0,0,0,0,0,0,0,0,0,0,0,0,0,0,0,0,0,0,0,0,0,0,0,0,0,0,0,0,0,0,0,0,0,0,0,0,0,0,0,0,0],"split_type":[0,0,0,0,0,0,0,0,0,0,0,0,0,0,0,0,0,0,0,0,0,0,0,0,0,0,0,0,0,0,0,0,0,0,0,0,0,0,0,0,0,0,0,0,0,0,0,0,0,0,0,0,0,0,0,0,0,0,0,0,0,0,0,0,0,0,0,0,0,0,0,0,0,0,0,0,0,0,0,0,0,0,0,0,0,0,0,0,0,0,0,0,0,0,0,0,0,0,0,0,0,0,0,0,0,0,0,0,0,0,0,0,0,0,0,0,0,0,0,0,0,0,0,0,0,0,0,0,0,0,0,0,0,0,0],"sum_hessian":[4.920122E2,5.868521E1,4.33327E2,1.5750273E1,4.2934937E1,3.2270276E2,1.1062425E2,1.1204581E1,4.545692E0,8.316755E0,3.4618183E1,4.3145138E1,2.7955762E2,8.518644E1,2.5437815E1,1.6868594E0,9.517722E0,3.1747522E0,1.3709395E0,6.316823E0,1.9999322E0,1.9172668E1,1.5445513E1,1.7385498E1,2.5759638E1,2.4508144E2,3.447617E1,6.0955124E1,2.4231316E1,2.323107E1,2.2067451E0,7.4069924E0,2.1107297E0,1.9676015E0,1.2071508E0,1.8559431E0,4.46088E0,2.2432523E0,1.6929417E1,9.312728E0,6.1327853E0,1.51973295E1,2.1881688E0,1.7520334E1,8.239305E0,2.251271E2,1.9954336E1,2.0672684E1,1.3803488E1,2.9436666E1,3.1518456E1,1.7721184E1,6.5101333E0,1.2197773E0,2.2011292E1,2.430152E0,4.9768405E0,1.3873448E0,3.0735352E0,8.701387E0,8.228029E0,3.078703E0,6.234025E0,2.7218053E0,3.41098E0,1.3978896E1,1.2184333E0,2.1949573E0,1.53253765E1,6.803986E0,1.4353185E0,1.8386092E2,4.126619E1,1.613524E1,3.8190947E0,1.6243587E1,4.4290957E0,1.1692669E1,2.1108189E0,4.199283E0,2.5237385E1,1.483567E1,1.6682785E1,1.4361157E0,1.6285067E1,1.6046278E0,4.9055057E0,2.0889694E1,1.1215987E0,1.2946006E0,1.1355513E0,6.7332783E0,1.9681093E0,1.4922217E0,1.5864811E0,1.2406284E0,4.9933968E0,1.190982E0,1.5308232E0,1.4143084E0,1.9966716E0,1.4855763E0,1.24933195E1,1.1125048E0,1.0824524E0,3.8729148E0,2.931071E0,5.100808E0,1.787601E2,3.449845E1,6.767738E0,2.1402397E0,1.3995002E1,1.1993322E0,2.6197624E0,1.0374941E1,5.868647E0,3.2814088E0,1.1476868E0,1.4160819E0,1.02765875E1,1.2372808E0,2.9620025E0,1.1107851E1,1.4129533E1,3.6237693E0,1.1211902E1,1.5010549E1,1.6722356E0,1.5060869E1,1.2241975E0,3.6871495E0,1.2183561E0,7.3728456E0,1.3516849E1],"tree_param":{"num_deleted":"0","num_feature":"9","num_nodes":"135","size_leaf_vector":"1"}},{"base_weights":[-4.607742E-3,-4.9955615E-1,6.325725E-2,2.9398558E-1,-7.889777E-1,1.3944924E-1,-2.4514624E-1,5.7437843E-1,-3.6732385E-1,7.148347E-2,-9.9032223E-1,6.7830646E-1,9.64915E-2,-5.294506E-1,6.20784E-1,-2.773768E-1,8.151171E-1,-7.424526E-1,3.4110773E-2,6.14308E-1,-9.4646715E-2,-1.270451E0,-5.86609E-1,-1.2796338E-1,8.7361145E-1,-3.7023836E-1,1.446795E-1,-8.8647664E-1,-2.0203091E-1,8.3363456E-1,-6.363717E-2,-6.2261786E-2,3.1123925E-2,1.0740813E0,1.2860171E-1,-8.8292256E-2,-4.6144472E-3,8.410831E-1,-2.233437E-3,-9.04369E-1,-1.1548929E-1,-8.74258E-1,-8.678573E-2,4.3339217E-1,-6.327096E-2,1.0622262E0,1.18609056E-1,-8.803105E-1,1.23254746E-1,-9.999385E-2,2.3430242E-1,-6.8470687E-1,-1.0745499E-1,5.3121056E-2,-7.3587924E-1,-2.8717088E-2,9.363219E-1,8.837994E-2,1.9300064E-2,6.820757E-2,-6.1684966E-2,8.289803E-2,2.362562E-3,-7.28839E-2,-1.1385953E0,-1.8494694E-1,-1.1408598E0,5.7493466E-1,-6.198601E-1,-8.92604E-3,6.515073E-2,3.735946E-1,1.2372859E0,-4.6339102E-2,5.995667E-1,4.713331E-2,-1.1322889E0,8.1319875E-1,-2.3597239E-1,-6.9E-1,3.122212E-2,-5.4817E-2,3.162846E-1,7.671485E-2,-9.2764574E-1,-8.887133E-2,2.274619E-1,9.9591926E-2,-1.0816792E0,1.0333107E0,2.235347E-1,-4.9409166E-2,4.136442E-2,-1.1394879E-1,-3.0054187E-2,-6.35468E-2,3.98914E-2,-3.4363206E-2,-1.01753876E-1,-1.4189559E-3,6.496949E-2,-8.804662E-2,-2.6058322E-3,7.152228E-2,-2.6743371E-2,9.7201355E-2,2.5201771E-2,-5.9041206E-4,6.6578716E-2,-2.4591008E-4,-1.0349194E-1,5.496707E-3,8.654317E-2,1.9388257E-2,-8.180031E-2,-8.2545556E-2,1.1368361E-3,1.3268375E-2,-4.3062296E-2,-4.7798518E-2,8.155109E-3,2.7605696E-2,-2.928445E-2,4.4128675E-2,-5.9667047E-2,-1.3364882E-2,-9.331314E-2,-8.064275E-2,2.744879E-2,-4.3983597E-2,6.800844E-2,-1.9756593E-2,-9.453168E-2,8.363834E-2,2.2476574E-2,6.0825765E-2,-3.687972E-2],"categories":[],"categories_nodes":[],"categories_segments":[],"categories_sizes":[],"default_left":[0,0,0,0,0,0,0,0,0,0,0,0,0,0,0,0,0,0,0,0,0,0,0,0,0,0,0,0,0,0,0,0,0,0,0,0,0,0,0,0,0,0,0,0,0,0,0,0,0,0,0,0,0,0,0,0,0,0,0,0,0,0,0,0,0,0,0,0,0,0,0,0,0,0,0,0,0,0,0,0,0,0,0,0,0,0,0,0,0,0,0,0,0,0,0,0,0,0,0,0,0,0,0,0,0,0,0,0,0,0,0,0,0,0,0,0,0,0,0,0,0,0,0,0,0,0,0,0,0,0,0,0,0,0,0,0,0],"id":5,"left_children":[1,3,5,7,9,11,13,15,17,19,21,23,25,27,29,31,33,35,-1,37,-1,39,41,43,45,47,49,51,53,55,-1,-1,-1,57,59,-1,-1,61,-1,63,-1,65,67,69,-1,71,73,75,77,79,81,83,-1,85,87,-1,89,-1,-1,-1,-1,-1,-1,91,93,95,97,99,101,-1,-1,103,105,-1,107,-1,109,111,113,115,117,119,121,123,125,-1,127,129,131,133,135,-1,-1,-1,-1,-1,-1,-1,-1,-1,-1,-1,-1,-1,-1,-1,-1,-1,-1,-1,-1,-1,-1,-1,-1,-1,-1,-1,-1,-1,-1,-1,-1,-1,-1,-1,-1,-1,-1,-1,-1,-1,-1,-1,-1,-1,-1],"loss_changes":[1.650457E1,1.3839273E1,1.01892605E1,3.2821062E0,7.6392326E0,7.971344E0,2.1495779E1,2.6910167E0,2.0466876E0,7.4463425E0,3.2659683E0,4.1222954E0,7.3118286E0,7.4505157E0,7.4974556E0,1.6438639E0,1.573214E0,1.1665626E0,0E0,1.0800073E0,0E0,5.879402E-1,2.280181E0,2.7111638E0,2.8118258E0,7.781473E0,6.453679E0,2.4277134E0,4.852917E0,2.7906227E0,0E0,0E0,0E0,2.806816E-1,3.549574E0,0E0,0E0,1.1151752E0,0E0,2.0469418E0,0E0,1.6802106E0,2.8595243E0,1.0489981E0,0E0,1.5124798E0,2.229799E0,6.456875E0,4.2491984E0,6.1620984E0,5.1115704E0,4.6031904E0,0E0,5.6321497E0,3.428985E0,0E0,1.0302534E0,0E0,0E0,0E0,0E0,0E0,0E0,1.6335648E0,1.7690239E0,2.380032E0,4.434433E-1,6.538857E-1,1.3894007E0,0E0,0E0,2.3529494E0,2.329464E-1,0E0,6.5164006E-1,0E0,3.7152634E0,1.3851271E0,5.1592617E0,4.207474E0,5.9088106E0,4.673815E0,6.2780704E0,3.5252783E0,4.2025795E0,0E0,4.474784E0,2.902422E0,8.6948967E-1,6.1369514E-1,1.8531716E0,0E0,0E0,0E0,0E0,0E0,0E0,0E0,0E0,0E0,0E0,0E0,0E0,0E0,0E0,0E0,0E0,0E0,0E0,0E0,0E0,0E0,0E0,0E0,0E0,0E0,0E0,0E0,0E0,0E0,0E0,0E0,0E0,0E0,0E0,0E0,0E0,0E0,0E0,0E0,0E0,0E0,0E0,0E0,0E0,0E0,0E0],"parents":[2147483647,0,0,1,1,2,2,3,3,4,4,5,5,6,6,7,7,8,8,9,9,10,10,11,11,12,12,13,13,14,14,15,15,16,16,17,17,19,19,21,21,22,22,23,23,24,24,25,25,26,26,27,27,28,28,29,29,33,33,34,34,37,37,39,39,41,41,42,42,43,43,45,45,46,46,47,47,48,48,49,49,50,50,51,51,53,53,54,54,56,56,63,63,64,64,65,65,66,66,67,67,68,68,71,71,72,72,74,74,76,76,77,77,78,78,79,79,80,80,81,81,82,82,83,83,84,84,86,86,87,87,88,88,89,89,90,90],"right_children":[2,4,6,8,10,12,14,16,18,20,22,24,26,28,30,32,34,36,-1,38,-1,40,42,44,46,48,50,52,54,56,-1,-1,-1,58,60,-1,-1,62,-1,64,-1,66,68,70,-1,72,74,76,78,80,82,84,-1,86,88,-1,90,-1,-1,-1,-1,-1,-1,92,94,96,98,100,102,-1,-1,104,106,-1,108,-1,110,112,114,116,118,120,122,124,126,-1,128,130,132,134,136,-1,-1,-1,-1,-1,-1,-1,-1,-1,-1,-1,-1,-1,-1,-1,-1,-1,-1,-1,-1,-1,-1,-1,-1,-1,-1,-1,-1,-1,-1,-1,-1,-1,-1,-1,-1,-1,-1,-1,-1,-1,-1,-1,-1,-1,-1],"split_conditions":[2.9577423E2,6.64647E0,3.6303687E2,7.551906E1,1.6786926E4,5.0640426E0,7.7620206E0,5.770107E0,1.8215464E1,7.9617214E0,2.048605E2,6.120771E0,1.5929019E2,1.8964092E4,9.380013E0,6.839542E1,4.584319E0,8.376265E1,3.4110773E-2,2.2933932E2,-9.4646715E-2,7.2265925E0,2.8397598E2,2.0145581E2,5.0134534E2,4.0280423E0,1.2318942E1,2.1877E2,2.0109732E2,1.2530272E2,-6.363717E-2,-6.2261786E-2,3.1123925E-2,1.6884214E1,7.6326385E0,-8.8292256E-2,-4.6144472E-3,7.420641E0,-2.233437E-3,2.6595373E4,-1.1548929E-1,3.4331353E0,2.895997E2,1.7131554E2,-6.327096E-2,1.5736581E4,3.6653233E0,2.5440202E0,6.217255E0,5.295663E1,3.5944943E2,1.2036643E4,-1.0745499E-1,4.649254E0,1.299676E1,-2.8717088E-2,8.5840256E1,8.837994E-2,1.9300064E-2,6.820757E-2,-6.1684966E-2,8.289803E-2,2.362562E-3,2.792023E2,1.8212952E2,2.2357848E2,1.2397703E1,6.532733E1,1.0567071E1,-8.92604E-3,6.515073E-2,4.594209E0,3.4962454E2,-4.6339102E-2,1.4787206E4,4.713331E-2,3.520391E2,1.2831114E1,7.209361E1,2.1642802E2,2.2357848E2,3.1913498E2,2.3840959E2,4.046729E2,6.4164586E0,-8.887133E-2,4.8299496E1,7.070185E0,5.7285763E1,2.3594511E2,6.7496963E0,-4.9409166E-2,4.136442E-2,-1.1394879E-1,-3.0054187E-2,-6.35468E-2,3.98914E-2,-3.4363206E-2,-1.01753876E-1,-1.4189559E-3,6.496949E-2,-8.804662E-2,-2.6058322E-3,7.152228E-2,-2.6743371E-2,9.7201355E-2,2.5201771E-2,-5.9041206E-4,6.6578716E-2,-2.4591008E-4,-1.0349194E-1,5.496707E-3,8.654317E-2,1.9388257E-2,-8.180031E-2,-8.2545556E-2,1.1368361E-3,1.3268375E-2,-4.3062296E-2,-4.7798518E-2,8.155109E-3,2.7605696E-2,-2.928445E-2,4.4128675E-2,-5.9667047E-2,-1.3364882E-2,-9.331314E-2,-8.064275E-2,2.744879E-2,-4.3983597E-2,6.800844E-2,-1.9756593E-2,-9.453168E-2,8.363834E-2,2.2476574E-2,6.0825765E-2,-3.687972E-2],"split_indices":[4,0,4,7,2,0,0,3,6,0,1,3,1,2,3,7,8,7,0,1,0,0,4,1,5,8,6,1,1,1,0,0,0,6,3,0,0,0,0,2,0,8,4,1,0,2,8,8,0,7,5,2,0,3,6,0,7,0,0,0,0,0,0,4,1,1,6,7,6,0,0,0,4,0,2,0,5,6,7,1,1,4,1,4,3,0,7,3,7,1,3,0,0,0,0,0,0,0,0,0,0,0,0,0,0,0,0,0,0,0,0,0,0,0,0,0,0,0,0,0,0,0,0,0,0,0,0,0,0,0,0,0,0,0,0,0,0],"split_type":[0,0,0,0,0,0,0,0,0,0,0,0,0,0,0,0,0,0,0,0,0,0,0,0,0,0,0,0,0,0,0,0,0,0,0,0,0,0,0,0,0,0,0,0,0,0,0,0,0,0,0,0,0,0,0,0,0,0,0,0,0,0,0,0,0,0,0,0,0,0,0,0,0,0,0,0,0,0,0,0,0,0,0,0,0,0,0,0,0,0,0,0,0,0,0,0,0,0,0,0,0,0,0,0,0,0,0,0,0,0,0,0,0,0,0,0,0,0,0,0,0,0,0,0,0,0,0,0,0,0,0,0,0,0,0,0,0],"sum_hessian":[4.894177E2,5.824779E1,4.3116992E2,1.5562488E1,4.2685307E1,3.461904E2,8.497952E1,1.1021052E1,4.541435E0,8.216488E0,3.446882E1,2.4468618E1,3.2172177E2,6.42676E1,2.0711922E1,2.3950298E0,8.626023E0,3.1850567E0,1.3563781E0,6.222643E0,1.9938451E0,1.9081572E1,1.5387246E1,4.8385663E0,1.9630053E1,2.948252E1,2.9223926E2,2.9927021E1,3.4340576E1,1.8468992E1,2.24293E0,1.2210922E0,1.1739376E0,5.8534646E0,2.772558E0,1.4990413E0,1.6860152E0,4.3760405E0,1.8466023E0,9.936406E0,9.145165E0,9.291081E0,6.096165E0,2.9326231E0,1.9059432E0,1.5380722E1,4.24933E0,1.4112289E1,1.537023E1,7.831666E1,2.1392259E2,2.3500237E1,6.4267845E0,2.384459E1,1.0495989E1,1.2252159E0,1.7243776E1,4.7978687E0,1.0555962E0,1.5465813E0,1.2259767E0,3.023861E0,1.3521798E0,2.472037E0,7.4643693E0,3.0636349E0,6.227446E0,2.6848538E0,3.4113114E0,1.6126462E0,1.3199769E0,3.7527275E0,1.1627995E1,1.566303E0,2.683027E0,1.8057975E0,1.2306493E1,4.829938E0,1.0540291E1,1.3473813E1,6.484284E1,4.733207E1,1.6659053E2,5.849836E0,1.76504E1,2.2277305E0,2.1616858E1,3.2809744E0,7.2150145E0,1.4782632E1,2.4611452E0,1.2469354E0,1.2251016E0,4.225222E0,3.2391472E0,1.497745E0,1.5658898E0,2.2461731E0,3.981273E0,1.1913644E0,1.4934893E0,1.2352176E0,2.1760938E0,1.9208257E0,1.8319019E0,1.0505391E1,1.1226035E0,1.176199E0,1.5068281E0,2.3957443E0,9.9107485E0,1.9059521E0,2.9239862E0,7.1191034E0,3.4211876E0,8.16096E0,5.312853E0,5.2835464E1,1.200738E1,9.7413025E0,3.7590767E1,1.5566252E2,1.0928002E1,3.8921847E0,1.9576513E0,5.705189E0,1.194521E1,1.4277442E0,2.0189114E1,1.9214089E0,1.3595655E0,1.7370077E0,5.478007E0,1.2830716E1,1.9519153E0,1.2777865E0,1.1833587E0],"tree_param":{"num_deleted":"0","num_feature":"9","num_nodes":"137","size_leaf_vector":"1"}},{"base_weights":[-5.8843833E-3,-4.742761E-1,5.8034956E-2,2.778549E-1,-7.4692434E-1,1.4330585E-1,-1.903515E-1,-5.317753E-1,4.9023E-1,6.5986276E-2,-9.360092E-1,5.299287E-1,8.360833E-2,-4.3904096E-1,6.5587837E-1,3.2170543E-3,-6.0345042E-2,7.622383E-1,-3.1148466E-1,5.878783E-1,-9.03836E-2,-1.200074E0,-5.565367E-1,-4.110226E-2,9.134406E-1,1.4604062E-1,-3.485655E-1,-2.279786E-1,-9.402436E-1,7.969589E-1,-4.2333674E-2,-2.564303E-2,9.6476835E-1,1.1224614E-2,-5.8021914E-2,-3.512876E-3,8.163544E-1,-3.094424E-2,-1.2764908E0,-8.276189E-1,-8.430556E-2,5.7185507E-1,-4.7414672E-1,1.1490085E0,3.552575E-1,9.232942E-2,7.264237E-1,1.1276091E-1,-7.595525E-1,-5.339988E-1,6.814799E-2,-1.2074664E0,-1.4961764E-1,-2.7470673E-2,8.786497E-1,1.1250905E0,1.7063115E-4,3.977252E-3,8.013249E-2,-7.189733E-1,-1.0664831E-1,-1.7758363E-1,-1.0777321E0,-5.029835E-1,5.3872466E-2,-3.0390969E-2,8.286226E-1,1.5169677E-1,-8.3869183E-1,3.5585895E-1,9.2628546E-2,6.211115E-1,-4.619655E-2,9.970427E-3,4.534602E-1,1.0424395E0,-5.1778215E-1,-1.8576515E-1,7.421393E-2,-1.1368499E0,-2.9681697E-1,-1.2812107E0,-3.647133E-1,-9.6513045E-1,2.0901674E-1,1.1552157E-2,-1.3296179E0,7.05999E-2,-5.972329E-1,9.4174355E-1,-1.2511392E-2,2.3458373E-2,9.096854E-2,-7.356864E-2,9.801046E-3,-6.06334E-2,3.838689E-2,-9.092794E-2,-1.810511E-2,-6.600921E-2,3.2707732E-2,8.503604E-2,1.1640571E-2,4.5289345E-2,-4.9893398E-2,-8.8432856E-2,5.563487E-3,5.360099E-2,-1.2076128E-2,8.318601E-2,-8.985202E-3,3.0002335E-2,-5.309071E-3,4.703047E-2,-2.8487882E-2,1.2544622E-2,8.692194E-2,-9.641486E-2,7.2358768E-3,6.862155E-2,-2.8494952E-2,-1.1242021E-1,1.1305421E-2,2.1308761E-2,-9.424855E-2,-1.9386122E-2,-1.1504662E-1,-3.8326296E-3,-6.505244E-2,-9.2449866E-2,-2.0300498E-2,7.6091364E-2,-3.439611E-4,-1.04145944E-1,-2.3302624E-2,1.1903499E-2,-6.2056E-2,3.2969672E-2,8.772822E-2],"categories":[],"categories_nodes":[],"categories_segments":[],"categories_sizes":[],"default_left":[0,0,0,0,0,0,0,0,0,0,0,0,0,0,0,0,0,0,0,0,0,0,0,0,0,0,0,0,0,0,0,0,0,0,0,0,0,0,0,0,0,0,0,0,0,0,0,0,0,0,0,0,0,0,0,0,0,0,0,0,0,0,0,0,0,0,0,0,0,0,0,0,0,0,0,0,0,0,0,0,0,0,0,0,0,0,0,0,0,0,0,0,0,0,0,0,0,0,0,0,0,0,0,0,0,0,0,0,0,0,0,0,0,0,0,0,0,0,0,0,0,0,0,0,0,0,0,0,0,0,0,0,0,0,0,0,0,0,0],"id":6,"left_children":[1,3,5,7,9,11,13,15,17,19,21,23,25,27,29,-1,-1,31,33,35,-1,37,39,41,43,45,47,49,51,53,-1,-1,55,-1,-1,-1,57,-1,59,61,63,65,67,69,71,73,75,77,79,81,83,85,87,-1,89,91,-1,-1,-1,93,-1,95,97,99,-1,-1,101,103,105,107,-1,109,-1,111,113,115,117,119,-1,121,123,125,127,129,131,-1,133,-1,135,137,-1,-1,-1,-1,-1,-1,-1,-1,-1,-1,-1,-1,-1,-1,-1,-1,-1,-1,-1,-1,-1,-1,-1,-1,-1,-1,-1,-1,-1,-1,-1,-1,-1,-1,-1,-1,-1,-1,-1,-1,-1,-1,-1,-1,-1,-1,-1,-1,-1],"loss_changes":[1.4622926E1,1.2234212E1,9.131611E0,3.0689642E0,6.719692E0,7.354541E0,2.349714E1,6.4182854E-1,3.172423E0,6.75055E0,2.860052E0,9.3865795E0,7.5754747E0,8.865648E0,4.831414E0,0E0,0E0,2.641971E0,9.9369454E-1,1.072079E0,0E0,6.7059326E-1,2.01831E0,5.0779085E0,2.9555016E0,7.5510297E0,6.8158436E0,5.6294665E0,5.1254425E0,2.529005E0,0E0,0E0,1.3859797E0,0E0,0E0,0E0,9.624562E-1,0E0,4.099102E-1,1.4749722E0,2.734394E0,2.3303442E0,2.673013E0,7.575798E-1,2.7165956E0,6.682338E0,8.621654E0,4.789046E0,2.9626398E0,3.386425E0,4.8964653E0,3.3029957E0,4.217651E0,0E0,1.6080971E0,1.7076874E-1,0E0,0E0,0E0,1.3916755E0,0E0,2.1731005E0,5.185518E-1,2.235845E0,0E0,0E0,1.185442E0,2.231697E0,2.3262577E0,6.9399047E-1,0E0,2.8791041E0,0E0,5.827466E0,6.2752047E0,1.5115242E0,2.4025087E0,3.3328626E0,0E0,4.9155874E0,5.84552E0,9.552412E-1,4.091544E0,4.1837E-1,5.029972E0,0E0,6.0241127E-1,0E0,1.1613739E0,1.8777962E0,0E0,0E0,0E0,0E0,0E0,0E0,0E0,0E0,0E0,0E0,0E0,0E0,0E0,0E0,0E0,0E0,0E0,0E0,0E0,0E0,0E0,0E0,0E0,0E0,0E0,0E0,0E0,0E0,0E0,0E0,0E0,0E0,0E0,0E0,0E0,0E0,0E0,0E0,0E0,0E0,0E0,0E0,0E0,0E0,0E0,0E0,0E0,0E0,0E0],"parents":[2147483647,0,0,1,1,2,2,3,3,4,4,5,5,6,6,7,7,8,8,9,9,10,10,11,11,12,12,13,13,14,14,17,17,18,18,19,19,21,21,22,22,23,23,24,24,25,25,26,26,27,27,28,28,29,29,32,32,36,36,38,38,39,39,40,40,41,41,42,42,43,43,44,44,45,45,46,46,47,47,48,48,49,49,50,50,51,51,52,52,54,54,55,55,59,59,61,61,62,62,63,63,66,66,67,67,68,68,69,69,71,71,73,73,74,74,75,75,76,76,77,77,79,79,80,80,81,81,82,82,83,83,84,84,86,86,88,88,89,89],"right_children":[2,4,6,8,10,12,14,16,18,20,22,24,26,28,30,-1,-1,32,34,36,-1,38,40,42,44,46,48,50,52,54,-1,-1,56,-1,-1,-1,58,-1,60,62,64,66,68,70,72,74,76,78,80,82,84,86,88,-1,90,92,-1,-1,-1,94,-1,96,98,100,-1,-1,102,104,106,108,-1,110,-1,112,114,116,118,120,-1,122,124,126,128,130,132,-1,134,-1,136,138,-1,-1,-1,-1,-1,-1,-1,-1,-1,-1,-1,-1,-1,-1,-1,-1,-1,-1,-1,-1,-1,-1,-1,-1,-1,-1,-1,-1,-1,-1,-1,-1,-1,-1,-1,-1,-1,-1,-1,-1,-1,-1,-1,-1,-1,-1,-1,-1,-1],"split_conditions":[2.9577423E2,6.64647E0,3.5360727E2,5.693752E0,1.6786926E4,5.6263394E0,7.9176087E0,1.7952141E2,7.7142105E1,7.9617214E0,2.048605E2,6.8514047E0,3.1145111E4,2.0942683E2,9.380013E0,3.2170543E-3,-6.0345042E-2,1.0024039E1,7.7260404E0,6.2906204E1,-9.03836E-2,1.0212058E1,2.8397598E2,3.3183463E2,4.5697977E2,9.281302E0,7.058866E0,6.770927E0,2.5620771E4,1.2530272E2,-4.2333674E-2,-2.564303E-2,2.73777E4,1.1224614E-2,-5.8021914E-2,-3.512876E-3,2.602612E2,-3.094424E-2,3.668131E2,3.4331353E0,8.197353E0,3.3862944E0,4.7586484E0,1.5398004E2,2.1505136E2,3.393279E2,8.306927E0,3.3443854E2,6.762262E1,5.626787E0,3.5631796E2,2.9626077E2,1.3376148E1,-2.7470673E-2,1.875614E1,1.5980373E2,1.7063115E-4,3.977252E-3,8.013249E-2,3.5944943E2,-1.0664831E-1,2.2357848E2,4.5631833E0,1.5164134E1,5.3872466E-2,-3.0390969E-2,3.2279907E2,2.0009901E2,5.428357E0,3.6584525E2,9.2628546E-2,8.2682295E0,-4.619655E-2,3.1239407E2,2.2167546E2,1.103224E1,8.660269E0,3.0092893E0,7.421393E-2,3.917239E4,8.0571144E1,1.3478149E1,6.139743E0,6.34439E0,3.6408142E2,1.1552157E-2,2.6363272E2,7.05999E-2,3.5944943E2,1.3376148E1,-1.2511392E-2,2.3458373E-2,9.096854E-2,-7.356864E-2,9.801046E-3,-6.06334E-2,3.838689E-2,-9.092794E-2,-1.810511E-2,-6.600921E-2,3.2707732E-2,8.503604E-2,1.1640571E-2,4.5289345E-2,-4.9893398E-2,-8.8432856E-2,5.563487E-3,5.360099E-2,-1.2076128E-2,8.318601E-2,-8.985202E-3,3.0002335E-2,-5.309071E-3,4.703047E-2,-2.8487882E-2,1.2544622E-2,8.692194E-2,-9.641486E-2,7.2358768E-3,6.862155E-2,-2.8494952E-2,-1.1242021E-1,1.1305421E-2,2.1308761E-2,-9.424855E-2,-1.9386122E-2,-1.1504662E-1,-3.8326296E-3,-6.505244E-2,-9.2449866E-2,-2.0300498E-2,7.6091364E-2,-3.439611E-4,-1.04145944E-1,-2.3302624E-2,1.1903499E-2,-6.2056E-2,3.2969672E-2,8.772822E-2],"split_indices":[4,0,4,3,2,0,0,1,7,0,1,3,2,1,3,0,0,6,3,7,0,6,4,4,5,0,0,0,2,1,0,0,2,0,0,0,4,0,5,8,0,8,0,1,1,4,3,4,7,3,4,5,6,0,6,1,0,0,0,5,0,1,8,6,0,0,4,1,0,5,0,3,0,4,1,6,3,8,0,2,7,6,0,3,4,0,1,0,5,6,0,0,0,0,0,0,0,0,0,0,0,0,0,0,0,0,0,0,0,0,0,0,0,0,0,0,0,0,0,0,0,0,0,0,0,0,0,0,0,0,0,0,0,0,0,0,0,0,0],"split_type":[0,0,0,0,0,0,0,0,0,0,0,0,0,0,0,0,0,0,0,0,0,0,0,0,0,0,0,0,0,0,0,0,0,0,0,0,0,0,0,0,0,0,0,0,0,0,0,0,0,0,0,0,0,0,0,0,0,0,0,0,0,0,0,0,0,0,0,0,0,0,0,0,0,0,0,0,0,0,0,0,0,0,0,0,0,0,0,0,0,0,0,0,0,0,0,0,0,0,0,0,0,0,0,0,0,0,0,0,0,0,0,0,0,0,0,0,0,0,0,0,0,0,0,0,0,0,0,0,0,0,0,0,0,0,0,0,0,0,0],"sum_hessian":[4.864999E2,5.7647488E1,4.2885242E2,1.5332356E1,4.2315132E1,3.19568E2,1.0928442E2,2.8735764E0,1.2458779E1,8.108071E0,3.420706E1,4.1690205E1,2.778778E2,8.4834496E1,2.4449923E1,1.196368E0,1.6772084E0,9.339338E0,3.119441E0,6.1290817E0,1.97899E0,1.8895626E1,1.5311435E1,1.7108818E1,2.4581387E1,2.4338081E2,3.449698E1,6.0719612E1,2.4114882E1,2.2227194E1,2.2227285E0,1.3408986E0,7.9984403E0,1.899843E0,1.2195979E0,1.8327154E0,4.296366E0,2.2374682E0,1.6658157E1,9.249328E0,6.0621066E0,6.9503407E0,1.0158478E1,1.6541824E1,8.039562E0,2.2382605E2,1.9554764E1,1.6594994E1,1.7901985E1,2.9465939E1,3.1253674E1,1.7629187E1,6.485695E0,1.2299314E0,2.0997263E1,6.711564E0,1.286876E0,1.3670743E0,2.9292922E0,4.6770687E0,1.198109E1,3.0451376E0,6.2041903E0,4.2292404E0,1.8328665E0,1.3260894E0,5.6242514E0,3.9540758E0,6.2044024E0,2.1214285E0,1.4420396E1,6.594813E0,1.4447497E0,1.8309685E2,4.072921E1,1.5723355E1,3.8314085E0,1.2967747E1,3.6272461E0,9.058895E0,8.843089E0,4.2293954E0,2.5236544E1,3.0476625E0,2.820601E1,1.4299597E0,1.6199226E1,1.5659913E0,4.919704E0,1.989577E1,1.1014935E0,1.0998719E0,5.6116924E0,3.4568572E0,1.2202114E0,1.4999261E0,1.5452116E0,4.956597E0,1.2475934E0,3.0622303E0,1.16701E0,3.3997903E0,2.2244608E0,2.7132032E0,1.2408726E0,4.3067555E0,1.897647E0,1.026277E0,1.0951515E0,3.6762767E0,2.9185362E0,3.0727894E1,1.5236894E2,3.3911446E1,6.8177657E0,2.1335769E0,1.3589779E1,1.2172215E0,2.614187E0,1.3878658E0,1.1579882E1,6.9424486E0,2.116446E0,5.947425E0,2.8956645E0,1.2388977E0,2.9904976E0,1.6218975E1,9.017569E0,1.640621E0,1.4070415E0,5.12584E0,2.308017E1,1.4969659E1,1.2295684E0,1.2208236E0,3.6988802E0,7.12645E0,1.276932E1],"tree_param":{"num_deleted":"0","num_feature":"9","num_nodes":"139","size_leaf_vector":"1"}},{"base_weights":[-6.266538E-3,-4.489897E-1,5.3847656E-2,2.7565917E-1,-7.0245326E-1,1.3390128E-1,-1.7964336E-1,8.226351E-1,-7.8362924E-1,6.73372E-2,-8.7614733E-1,5.043194E-1,7.767938E-2,-4.106365E-1,6.223626E-1,4.284599E-1,8.790294E-2,-1.06538974E-1,1.878376E-1,-6.4213E-2,4.49114E-1,4.9711026E-2,-9.602184E-1,-3.8984563E-2,8.777275E-1,1.3587773E-1,-3.2311878E-1,-1.1435869E0,-2.7666152E-1,7.595718E-1,-4.007213E-2,7.241972E-1,-1.1626052E-1,5.503407E-2,-3.1224597E-2,8.301597E-2,-4.537105E-1,-1.1430244E0,-4.360969E-1,1.8353112E-1,-8.498739E-2,1.1113193E0,3.365553E-1,9.590771E-2,8.2775664E-1,1.11361384E-1,-7.072216E-1,-6.976481E-3,-1.2673603E0,-1.1304115E-1,-8.088431E-1,-2.6284546E-2,8.397913E-1,-5.8573196E-3,7.680528E-2,-3.6683843E-2,2.4643024E-2,3.0621175E-2,-8.8150345E-2,-1.10639535E-1,-8.995525E-1,-7.680944E-1,3.7878644E-1,3.8048843E-1,-8.872374E-2,3.4478772E-1,8.9759424E-2,7.515093E-2,-6.980944E-2,-7.7570045E-1,1.26511E-1,1.1203578E0,8.438682E-2,3.1382945E-1,-7.824987E-2,-1.2267469E0,-4.0104032E-1,-2.1855965E-2,-1.466198E0,-1.8622492E-1,8.508858E-2,-9.87789E-1,2.2642625E-2,9.020234E-1,-1.199209E-2,-2.9931825E-2,-1.068733E-1,2.5294969E-2,-8.721183E-2,-2.0138342E-2,6.591281E-2,-6.262794E-2,4.3695543E-2,-1.259111E-2,5.287375E-2,3.5180513E-2,-6.012522E-2,-1.000119E-1,6.963332E-2,3.9135795E-3,3.4809247E-2,9.184243E-3,9.765984E-2,-6.990152E-2,5.0319076E-2,-2.969721E-3,7.909006E-2,-1.1539322E-1,-3.0568799E-2,-1.0921745E-2,-1.0161792E-1,-1.17852755E-1,-3.0397432E-2,-2.8899979E-2,1.9371279E-2,-1.1072395E-1,-2.8131166E-2,3.1137222E-2,8.464969E-2],"categories":[],"categories_nodes":[],"categories_segments":[],"categories_sizes":[],"default_left":[0,0,0,0,0,0,0,0,0,0,0,0,0,0,0,0,0,0,0,0,0,0,0,0,0,0,0,0,0,0,0,0,0,0,0,0,0,0,0,0,0,0,0,0,0,0,0,0,0,0,0,0,0,0,0,0,0,0,0,0,0,0,0,0,0,0,0,0,0,0,0,0,0,0,0,0,0,0,0,0,0,0,0,0,0,0,0,0,0,0,0,0,0,0,0,0,0,0,0,0,0,0,0,0,0,0,0,0,0,0,0,0,0,0,0,0,0,0,0],"id":7,"left_children":[1,3,5,7,9,11,13,15,17,19,21,23,25,27,29,31,-1,-1,33,-1,35,-1,37,39,41,43,45,47,49,51,-1,53,55,-1,-1,-1,57,59,61,63,-1,65,67,69,71,73,75,-1,77,79,81,-1,83,-1,-1,-1,-1,-1,-1,-1,85,87,89,91,-1,93,-1,-1,95,97,99,101,103,105,-1,107,109,-1,111,113,-1,115,-1,117,-1,-1,-1,-1,-1,-1,-1,-1,-1,-1,-1,-1,-1,-1,-1,-1,-1,-1,-1,-1,-1,-1,-1,-1,-1,-1,-1,-1,-1,-1,-1,-1,-1,-1,-1],"loss_changes":[1.2922761E1,1.085536E1,8.016809E0,9.776276E0,5.8468456E0,6.604289E0,2.0560383E1,9.964833E-1,3.9042478E0,3.5216405E0,5.215214E0,8.525676E0,6.5319424E0,8.098773E0,4.3585653E0,1.1618062E0,0E0,0E0,1.3646959E0,0E0,4.6301603E0,0E0,2.7557812E0,4.592122E0,2.767229E0,6.656808E0,6.0138283E0,1.5627117E0,6.3323402E0,2.3137074E0,0E0,1.1563232E0,6.940305E-1,0E0,0E0,0E0,2.7435296E0,6.5963745E-1,3.104528E0,4.7091475E0,0E0,6.960926E-1,2.4838107E0,6.2708473E0,2.7705889E0,4.4307747E0,2.5322914E0,0E0,1.8010731E0,5.4690037E0,3.7140293E0,0E0,1.4783173E0,0E0,0E0,0E0,0E0,0E0,0E0,0E0,3.83255E0,3.760404E0,1.4272163E0,4.0703707E0,0E0,6.912378E-1,0E0,0E0,2.9304698E0,8.832839E0,5.6076016E0,1.5402775E0,3.4879882E0,4.152256E0,0E0,1.0496731E0,3.07908E0,0E0,3.998375E-1,4.9898763E0,0E0,3.9466085E0,0E0,1.7755394E0,0E0,0E0,0E0,0E0,0E0,0E0,0E0,0E0,0E0,0E0,0E0,0E0,0E0,0E0,0E0,0E0,0E0,0E0,0E0,0E0,0E0,0E0,0E0,0E0,0E0,0E0,0E0,0E0,0E0,0E0,0E0,0E0,0E0,0E0,0E0],"parents":[2147483647,0,0,1,1,2,2,3,3,4,4,5,5,6,6,7,7,8,8,9,9,10,10,11,11,12,12,13,13,14,14,15,15,18,18,20,20,22,22,23,23,24,24,25,25,26,26,27,27,28,28,29,29,31,31,32,32,36,36,37,37,38,38,39,39,41,41,42,42,43,43,44,44,45,45,46,46,48,48,49,49,50,50,52,52,60,60,61,61,62,62,63,63,65,65,68,68,69,69,70,70,71,71,72,72,73,73,75,75,76,76,78,78,79,79,81,81,83,83],"right_children":[2,4,6,8,10,12,14,16,18,20,22,24,26,28,30,32,-1,-1,34,-1,36,-1,38,40,42,44,46,48,50,52,-1,54,56,-1,-1,-1,58,60,62,64,-1,66,68,70,72,74,76,-1,78,80,82,-1,84,-1,-1,-1,-1,-1,-1,-1,86,88,90,92,-1,94,-1,-1,96,98,100,102,104,106,-1,108,110,-1,112,114,-1,116,-1,118,-1,-1,-1,-1,-1,-1,-1,-1,-1,-1,-1,-1,-1,-1,-1,-1,-1,-1,-1,-1,-1,-1,-1,-1,-1,-1,-1,-1,-1,-1,-1,-1,-1,-1,-1],"split_conditions":[2.9577423E2,1.834407E4,3.5360727E2,7.2861676E0,6.47614E0,5.6263394E0,7.9176087E0,7.4676847E0,4.2976624E2,5.5707836E0,2.9899066E2,6.8514047E0,3.1145111E4,4.8299496E1,9.380013E0,2.0109732E2,8.790294E-2,-1.06538974E-1,2.1361037E2,-6.4213E-2,7.7260404E0,4.9711026E-2,2.1877E2,2.2876294E2,4.5697977E2,9.794559E0,7.058866E0,3.164188E0,2.1704312E2,1.2530272E2,-4.007213E-2,5.8446736E0,1.3978173E4,5.503407E-2,-3.1224597E-2,8.301597E-2,2.0550946E2,5.818229E0,2.8397598E2,4.95742E0,-8.498739E-2,1.5398004E2,3.3223218E2,1.433002E2,7.964525E0,1.7274662E1,3.212509E2,-6.976481E-3,5.9064054E0,1.9890026E1,2.8338982E4,-2.6284546E-2,1.875614E1,-5.8573196E-3,7.680528E-2,-3.6683843E-2,2.4643024E-2,3.0621175E-2,-8.8150345E-2,-1.10639535E-1,8.222533E0,3.4331353E0,4.3495453E2,4.59867E0,-8.872374E-2,3.79204E0,8.9759424E-2,7.515093E-2,8.2682295E0,1.6295837E1,3.393279E2,3.047322E2,6.264709E1,1.4810631E1,-7.824987E-2,7.2917305E1,8.0571144E1,-2.1855965E-2,7.1914935E0,4.6457333E2,8.508858E-2,7.0427938E0,2.2642625E-2,1.3376148E1,-1.199209E-2,-2.9931825E-2,-1.068733E-1,2.5294969E-2,-8.721183E-2,-2.0138342E-2,6.591281E-2,-6.262794E-2,4.3695543E-2,-1.259111E-2,5.287375E-2,3.5180513E-2,-6.012522E-2,-1.000119E-1,6.963332E-2,3.9135795E-3,3.4809247E-2,9.184243E-3,9.765984E-2,-6.990152E-2,5.0319076E-2,-2.969721E-3,7.909006E-2,-1.1539322E-1,-3.0568799E-2,-1.0921745E-2,-1.0161792E-1,-1.17852755E-1,-3.0397432E-2,-2.8899979E-2,1.9371279E-2,-1.1072395E-1,-2.8131166E-2,3.1137222E-2,8.464969E-2],"split_indices":[4,2,4,0,0,0,0,3,5,3,5,3,2,7,3,1,0,0,1,0,3,0,1,1,5,0,0,8,1,1,0,0,2,0,0,0,1,3,4,8,0,1,4,1,3,6,4,0,3,6,2,0,6,0,0,0,0,0,0,0,3,8,5,3,0,8,0,0,3,6,4,4,7,6,0,7,7,0,0,5,0,0,0,6,0,0,0,0,0,0,0,0,0,0,0,0,0,0,0,0,0,0,0,0,0,0,0,0,0,0,0,0,0,0,0,0,0,0,0],"split_type":[0,0,0,0,0,0,0,0,0,0,0,0,0,0,0,0,0,0,0,0,0,0,0,0,0,0,0,0,0,0,0,0,0,0,0,0,0,0,0,0,0,0,0,0,0,0,0,0,0,0,0,0,0,0,0,0,0,0,0,0,0,0,0,0,0,0,0,0,0,0,0,0,0,0,0,0,0,0,0,0,0,0,0,0,0,0,0,0,0,0,0,0,0,0,0,0,0,0,0,0,0,0,0,0,0,0,0,0,0,0,0,0,0,0,0,0,0,0,0],"sum_hessian":[4.8365506E2,5.7047592E1,4.2660748E2,1.4760358E1,4.228723E1,3.180045E2,1.0860299E2,9.8813925E0,4.878965E0,7.8977437E0,3.438949E1,4.08558E1,2.7714868E2,8.469669E1,2.390629E1,5.689323E0,4.1920695E0,2.6677532E0,2.211212E0,1.9465283E0,5.9512153E0,1.4247534E0,3.2964737E1,1.700677E1,2.3849031E1,2.4258487E2,3.4563828E1,1.1924473E1,7.2772224E1,2.1678026E1,2.2282639E0,3.4738374E0,2.2154853E0,1.0488651E0,1.1623468E0,3.3121111E0,2.6391041E0,2.3564827E1,9.39991E0,1.482432E1,2.1824498E0,1.5922638E1,7.9263945E0,2.3041249E2,1.2172368E1,1.6551535E1,1.8012293E1,1.4414281E0,1.0483045E1,5.6586876E1,1.6185347E1,1.2339907E0,2.0444036E1,1.1463647E0,2.327473E0,1.1510941E0,1.0643913E0,1.4004589E0,1.2386452E0,7.8271885E0,1.57376375E1,6.719633E0,2.6802766E0,1.3587501E1,1.2368195E0,2.1023538E0,1.3820284E1,2.4494364E0,5.476958E0,6.989803E0,2.234227E2,8.370489E0,3.8018785E0,1.470187E1,1.8496654E0,5.564278E0,1.2448014E1,2.191613E0,8.291432E0,5.4254913E1,2.3319595E0,1.4034951E1,2.1503956E0,1.9337912E1,1.1061244E0,8.96148E0,6.776157E0,1.8064938E0,4.91314E0,1.3699539E0,1.3103226E0,1.4907583E0,1.2096742E1,1.0878806E0,1.0144732E0,3.3611467E0,2.115811E0,5.429989E0,1.559814E0,1.8405504E2,3.936766E1,1.5476832E0,6.822806E0,1.1756173E0,2.626261E0,1.0593666E1,4.108204E0,3.3940437E0,2.1702344E0,1.0728029E1,1.7199847E0,7.105829E0,1.1856034E0,3.7562656E1,1.6692259E1,7.0245514E0,7.0104003E0,7.0420914E0,1.229582E1],"tree_param":{"num_deleted":"0","num_feature":"9","num_nodes":"119","size_leaf_vector":"1"}},{"base_weights":[-6.7868032E-3,-4.237953E-1,4.944434E-2,2.6384246E-1,-6.629256E-1,1.24174334E-1,-1.6858442E-1,7.9069483E-1,-7.441061E-1,5.486156E-2,-7.417039E-1,4.7706154E-1,7.1581505E-2,-3.8273764E-1,5.9097236E-1,4.0962955E-1,8.5059196E-2,-1.0136501E-1,1.8241878E-1,1.7009E-3,-9.055364E-1,-4.696945E-2,8.446809E-1,-3.1350616E-1,1.2557004E-1,-1.0715433E0,-2.5674373E-1,7.244736E-1,-3.795535E-2,6.8522714E-2,5.452295E-2,5.3553168E-2,-2.9891765E-2,-7.1364574E-2,3.3082607E-1,-1.0789944E0,-4.0863025E-1,5.287982E-1,-4.458243E-1,1.0765953E0,3.2086188E-1,-4.016594E-1,6.992222E-2,-1.6864088E-1,2.0756128E-1,-4.9112204E-1,-1.0383018E-1,-5.656009E-1,-1.5166849E-3,9.08586E-2,4.5294908E-1,-3.5374317E-2,4.4994585E-2,-4.351674E-2,6.7653227E-1,-6.351261E-1,-1.2078394E0,-7.2521734E-1,3.6530522E-1,-2.995535E-2,7.819989E-1,1.2552874E-1,-7.704264E-1,8.779628E-2,3.5250232E-1,5.7978684E-1,-4.4110134E-2,-4.6961214E-2,-6.8949276E-1,1.2551195E-3,-9.238121E-1,3.2078463E-1,8.432783E-3,-9.3041855E-1,4.2837758E-2,-9.219209E-1,-2.274205E-1,8.466686E-2,-1.0238274E-1,-4.6889838E-2,7.4780786E-1,7.948921E-2,-1.52941E-2,-6.971465E-2,2.6301125E-2,-9.530871E-2,-2.168789E-2,2.4179239E-2,-8.2597665E-2,-1.922056E-2,6.3906394E-2,8.113002E-2,1.04132285E-2,4.1960265E-2,-4.7839653E-2,-8.117279E-2,5.3656287E-3,5.533621E-2,-1.8840466E-2,7.923423E-2,-8.450629E-3,-3.224371E-2,5.5181272E-2,3.187121E-2,-6.6768765E-2,2.0519417E-2,-3.4490194E-2,2.0955011E-2,-1.0080222E-1,3.274375E-2,3.0533606E-3,1.2999534E-2,-3.5972077E-2,-9.43715E-2,-9.542945E-3,-7.811527E-2,-1.3026588E-2,7.891301E-3,-7.200338E-2,-2.7433408E-2,2.1592718E-2,-8.2788385E-2,4.2061005E-2,-3.759975E-2,7.376348E-2],"categories":[],"categories_nodes":[],"categories_segments":[],"categories_sizes":[],"default_left":[0,0,0,0,0,0,0,0,0,0,0,0,0,0,0,0,0,0,0,0,0,0,0,0,0,0,0,0,0,0,0,0,0,0,0,0,0,0,0,0,0,0,0,0,0,0,0,0,0,0,0,0,0,0,0,0,0,0,0,0,0,0,0,0,0,0,0,0,0,0,0,0,0,0,0,0,0,0,0,0,0,0,0,0,0,0,0,0,0,0,0,0,0,0,0,0,0,0,0,0,0,0,0,0,0,0,0,0,0,0,0,0,0,0,0,0,0,0,0,0,0,0,0,0,0],"id":8,"left_children":[1,3,5,7,9,11,13,15,17,-1,19,21,23,25,27,29,-1,-1,31,33,35,37,39,41,43,45,47,49,-1,-1,51,-1,-1,-1,53,55,57,59,61,63,65,67,-1,69,71,73,-1,75,77,-1,79,-1,-1,-1,81,83,85,87,89,-1,91,93,95,-1,97,99,-1,101,103,105,107,109,111,113,-1,115,117,-1,119,121,123,-1,-1,-1,-1,-1,-1,-1,-1,-1,-1,-1,-1,-1,-1,-1,-1,-1,-1,-1,-1,-1,-1,-1,-1,-1,-1,-1,-1,-1,-1,-1,-1,-1,-1,-1,-1,-1,-1,-1,-1,-1,-1,-1,-1],"loss_changes":[1.1313965E1,9.601836E0,6.950019E0,8.823592E0,5.2464657E0,5.8545914E0,1.7953E1,9.316921E-1,3.5324502E0,0E0,4.998516E0,7.9338245E0,5.8048286E0,7.1552896E0,3.9345503E0,1.1355213E0,0E0,0E0,1.2707988E0,2.952378E0,2.4569626E0,4.3331614E0,2.586607E0,4.1506157E0,5.919264E0,1.666995E0,5.808344E0,2.3774052E0,0E0,0E0,1.7031832E0,0E0,0E0,0E0,2.5945222E0,6.2327385E-1,2.7908306E0,2.135904E0,2.152189E0,6.9737434E-1,2.4195218E0,3.3174324E0,0E0,6.892826E0,4.3084335E0,3.3670082E0,0E0,3.807952E0,4.8306293E0,0E0,2.3644435E0,0E0,0E0,0E0,2.0824656E0,2.5254343E0,6.5794563E-1,3.3695555E0,1.3251219E0,0E0,1.0901845E0,1.9718676E0,1.9701209E0,0E0,9.540674E-1,2.553977E0,0E0,5.0436764E0,4.4143753E0,5.757943E0,5.364155E0,3.9348936E0,5.74398E0,1.0720596E0,0E0,1.2428436E0,4.5932126E0,0E0,4.1023784E0,4.990126E0,3.4373097E0,0E0,0E0,0E0,0E0,0E0,0E0,0E0,0E0,0E0,0E0,0E0,0E0,0E0,0E0,0E0,0E0,0E0,0E0,0E0,0E0,0E0,0E0,0E0,0E0,0E0,0E0,0E0,0E0,0E0,0E0,0E0,0E0,0E0,0E0,0E0,0E0,0E0,0E0,0E0,0E0,0E0,0E0,0E0,0E0],"parents":[2147483647,0,0,1,1,2,2,3,3,4,4,5,5,6,6,7,7,8,8,10,10,11,11,12,12,13,13,14,14,15,15,18,18,19,19,20,20,21,21,22,22,23,23,24,24,25,25,26,26,27,27,30,30,34,34,35,35,36,36,37,37,38,38,39,39,40,40,41,41,43,43,44,44,45,45,47,47,48,48,50,50,54,54,55,55,56,56,57,57,58,58,60,60,61,61,62,62,64,64,65,65,67,67,68,68,69,69,70,70,71,71,72,72,73,73,75,75,76,76,78,78,79,79,80,80],"right_children":[2,4,6,8,10,12,14,16,18,-1,20,22,24,26,28,30,-1,-1,32,34,36,38,40,42,44,46,48,50,-1,-1,52,-1,-1,-1,54,56,58,60,62,64,66,68,-1,70,72,74,-1,76,78,-1,80,-1,-1,-1,82,84,86,88,90,-1,92,94,96,-1,98,100,-1,102,104,106,108,110,112,114,-1,116,118,-1,120,122,124,-1,-1,-1,-1,-1,-1,-1,-1,-1,-1,-1,-1,-1,-1,-1,-1,-1,-1,-1,-1,-1,-1,-1,-1,-1,-1,-1,-1,-1,-1,-1,-1,-1,-1,-1,-1,-1,-1,-1,-1,-1,-1,-1,-1],"split_conditions":[2.9577423E2,1.834407E4,3.5360727E2,7.2861676E0,2.9899066E2,5.6263394E0,7.9176087E0,7.4676847E0,4.2976624E2,5.486156E-2,6.47614E0,6.8514047E0,1.6437117E2,4.8299496E1,9.380013E0,1.2775773E1,8.5059196E-2,-1.0136501E-1,2.1361037E2,3.4402995E0,2.1877E2,3.3183463E2,4.5697977E2,5.1825905E0,3.5944943E2,1.2818729E1,1.9116012E4,6.1344666E1,-3.795535E-2,6.8522714E-2,6.7106338E0,5.3553168E-2,-2.9891765E-2,-7.1364574E-2,5.5707836E0,3.668131E2,2.8397598E2,3.3862944E0,4.7586484E0,8.318442E1,2.1505136E2,2.1144975E4,6.992222E-2,8.493784E0,7.11905E1,1.8503766E4,-1.0383018E-1,6.770927E0,1.4490294E2,9.08586E-2,1.3376148E1,-3.5374317E-2,4.4994585E-2,-4.351674E-2,7.7260404E0,3.6017917E2,5.55581E2,3.4331353E0,4.3495453E2,-2.995535E-2,3.2279907E2,2.0009901E2,5.428357E0,8.779628E-2,7.773736E0,8.2682295E0,-4.4110134E-2,1.5689891E2,1.0675517E1,2.3978107E4,6.6657743E0,4.8509848E2,2.2095743E2,4.6346164E2,4.2837758E-2,5.1749615E2,7.3627367E0,8.466686E-2,7.663988E0,3.6650113E2,6.3193306E1,7.948921E-2,-1.52941E-2,-6.971465E-2,2.6301125E-2,-9.530871E-2,-2.168789E-2,2.4179239E-2,-8.2597665E-2,-1.922056E-2,6.3906394E-2,8.113002E-2,1.04132285E-2,4.1960265E-2,-4.7839653E-2,-8.117279E-2,5.3656287E-3,5.533621E-2,-1.8840466E-2,7.923423E-2,-8.450629E-3,-3.224371E-2,5.5181272E-2,3.187121E-2,-6.6768765E-2,2.0519417E-2,-3.4490194E-2,2.0955011E-2,-1.0080222E-1,3.274375E-2,3.0533606E-3,1.2999534E-2,-3.5972077E-2,-9.43715E-2,-9.542945E-3,-7.811527E-2,-1.3026588E-2,7.891301E-3,-7.200338E-2,-2.7433408E-2,2.1592718E-2,-8.2788385E-2,4.2061005E-2,-3.759975E-2,7.376348E-2],"split_indices":[4,2,4,0,5,0,0,3,5,0,0,3,1,7,3,6,0,0,1,8,1,4,5,8,5,6,2,7,0,0,0,0,0,0,3,5,4,8,0,7,1,2,0,3,7,2,0,0,1,0,6,0,0,0,3,5,5,8,5,0,4,1,0,0,3,3,0,1,6,2,0,5,1,5,0,5,0,0,3,4,7,0,0,0,0,0,0,0,0,0,0,0,0,0,0,0,0,0,0,0,0,0,0,0,0,0,0,0,0,0,0,0,0,0,0,0,0,0,0,0,0,0,0,0,0],"split_type":[0,0,0,0,0,0,0,0,0,0,0,0,0,0,0,0,0,0,0,0,0,0,0,0,0,0,0,0,0,0,0,0,0,0,0,0,0,0,0,0,0,0,0,0,0,0,0,0,0,0,0,0,0,0,0,0,0,0,0,0,0,0,0,0,0,0,0,0,0,0,0,0,0,0,0,0,0,0,0,0,0,0,0,0,0,0,0,0,0,0,0,0,0,0,0,0,0,0,0,0,0,0,0,0,0,0,0,0,0,0,0,0,0,0,0,0,0,0,0,0,0,0,0,0,0],"sum_hessian":[4.8060156E2,5.6329205E1,4.2427237E2,1.4507737E1,4.182147E1,3.1629263E2,1.07979744E2,9.669206E0,4.8385315E0,1.7933276E0,4.0028137E1,3.9977936E1,2.763147E2,8.461818E1,2.3361567E1,5.6228714E0,4.0463347E0,2.6454613E0,2.19307E0,7.4071493E0,3.262099E1,1.6842154E1,2.3135782E1,3.3384434E1,2.4293025E2,1.1924192E1,7.2693985E1,2.1129848E1,2.2317166E0,1.6740391E0,3.948832E0,1.0255749E0,1.167495E0,1.4157379E0,5.9914117E0,2.331193E1,9.309059E0,6.7591615E0,1.0082993E1,1.5304584E1,7.831198E0,3.1811064E1,1.5733675E0,5.2715015E1,1.9021524E2,5.076315E0,6.847877E0,3.2341087E1,4.0352898E1,6.324794E0,1.4805056E1,2.0786579E0,1.8701742E0,1.4615023E0,4.529909E0,6.5785036E0,1.6733427E1,6.651242E0,2.6578174E0,1.3248819E0,5.43428E0,3.875232E0,6.2077603E0,1.2999912E1,2.3046713E0,6.3769207E0,1.4542775E0,1.4771385E1,1.703968E1,4.3848465E1,8.866549E0,1.2087528E2,6.933995E1,3.6790392E0,1.3972759E0,1.4907667E1,1.743342E1,2.4707837E0,3.7882114E1,5.805188E0,8.999867E0,3.0139582E0,1.5159512E0,5.1096444E0,1.4688592E0,1.5301724E1,1.4317021E0,1.7947183E0,4.8565235E0,1.3752564E0,1.2825611E0,3.2416394E0,2.1926405E0,2.641069E0,1.234163E0,4.32155E0,1.8862103E0,1.2711968E0,1.0334743E0,3.465633E0,2.9112878E0,1.0221216E1,4.5501685E0,2.4305437E0,1.4609137E1,2.782304E1,1.6025425E1,2.3818066E0,6.484742E0,8.512204E1,3.5753246E1,5.231116E1,1.7028791E1,2.2101822E0,1.4688569E0,1.2514972E1,2.392696E0,1.2578647E1,4.8547745E0,2.2655296E1,1.5226819E1,1.8212081E0,3.98398E0,1.2497556E0,7.7501116E0],"tree_param":{"num_deleted":"0","num_feature":"9","num_nodes":"125","size_leaf_vector":"1"}},{"base_weights":[-6.4760386E-3,-3.9894477E-1,4.6012167E-2,2.543881E-1,-6.249437E-1,1.0561553E-1,-1.9690526E-1,7.625656E-1,-7.081201E-1,5.266472E-2,-7.002389E-1,5.2817225E-1,6.72639E-2,-4.1509193E-1,5.147465E-1,3.9484012E-1,8.244923E-2,-9.677167E-2,1.7741217E-1,-1.1953975E0,-4.550803E-1,-7.358972E-2,8.123913E-1,-5.591281E-1,9.103629E-2,-6.6301167E-1,-5.4598637E-2,7.125582E-1,-5.4750998E-2,6.64522E-2,5.277554E-2,5.214399E-2,-2.8622469E-2,-1.3981678E0,3.86846E-2,8.1466325E-2,-9.5519865E-1,6.796911E-2,-4.472639E-1,-2.6570864E-2,9.184105E-1,-8.206416E-1,3.383884E-2,-1.10569075E-1,1.6972867E-1,-9.810826E-1,-3.617355E-1,3.404921E-1,-4.6548864E-1,-2.60494E-2,8.122182E-1,-3.4541735E-1,5.7236947E-2,-6.0834306E-1,-1.1485795E-1,7.723965E-2,-2.3843119E-1,-1.0765245E0,1.9646006E-2,9.209314E-2,-9.469263E-2,1.0880879E0,-2.0666234E-4,-2.9944652E-3,-1.323509E0,-4.5055166E-1,4.893675E-2,7.486596E-2,5.257E-1,-1.0378131E0,-7.1479087E-3,-1.447864E-1,-1.105913E0,9.893018E-1,-6.2374696E-2,5.161212E-1,-7.7992064E-1,9.178115E-1,1.0569455E-1,-9.024863E-2,3.827302E-2,-1.00800535E-2,-6.1186712E-2,1.4820634E-2,-5.5150833E-2,-9.768488E-2,-1.6318839E-2,5.855969E-2,-1.7796699E-2,8.8317245E-2,2.5244735E-2,-5.5405103E-2,5.815732E-2,-4.288441E-2,6.7193404E-2,-1.1211362E-1,-2.6841642E-2,-4.1997284E-2,6.93646E-2,1.3238564E-2,-3.7786298E-2,9.85856E-3,-5.5634532E-2,5.0746135E-2,-1.5010324E-2,-3.58772E-2,-8.977693E-2,-4.9247846E-2,5.4784082E-2,-1.7587606E-2,-1.0015394E-1,9.5759876E-2,-4.870978E-3,2.7036326E-2,-5.5827662E-2,7.423306E-2,-2.36264E-2,-7.738562E-2,2.9117187E-2,1.5169589E-2,7.548894E-2,5.3825993E-2,-4.1443545E-2],"categories":[],"categories_nodes":[],"categories_segments":[],"categories_sizes":[],"default_left":[0,0,0,0,0,0,0,0,0,0,0,0,0,0,0,0,0,0,0,0,0,0,0,0,0,0,0,0,0,0,0,0,0,0,0,0,0,0,0,0,0,0,0,0,0,0,0,0,0,0,0,0,0,0,0,0,0,0,0,0,0,0,0,0,0,0,0,0,0,0,0,0,0,0,0,0,0,0,0,0,0,0,0,0,0,0,0,0,0,0,0,0,0,0,0,0,0,0,0,0,0,0,0,0,0,0,0,0,0,0,0,0,0,0,0,0,0,0,0,0,0,0,0],"id":9,"left_children":[1,3,5,7,9,11,13,15,17,-1,19,21,23,25,27,29,-1,-1,31,33,35,37,39,41,43,45,47,49,-1,-1,51,-1,-1,53,-1,55,57,-1,59,-1,61,63,-1,65,67,69,71,73,75,-1,77,79,-1,81,-1,-1,83,85,-1,87,-1,89,91,93,95,97,99,101,103,105,-1,107,109,111,113,115,117,119,121,-1,-1,-1,-1,-1,-1,-1,-1,-1,-1,-1,-1,-1,-1,-1,-1,-1,-1,-1,-1,-1,-1,-1,-1,-1,-1,-1,-1,-1,-1,-1,-1,-1,-1,-1,-1,-1,-1,-1,-1,-1,-1,-1,-1],"loss_changes":[9.875661E0,8.508678E0,6.1447163E0,7.996529E0,4.7191334E0,5.478945E0,1.3207193E1,8.6106825E-1,3.211825E0,0E0,4.376562E0,4.8774633E0,4.713381E0,5.737275E0,5.46502E0,1.0554174E0,0E0,0E0,1.1842527E0,5.165415E0,7.7860603E0,4.049626E0,2.7020702E0,3.4320612E0,4.818221E0,3.3044014E0,4.6087084E0,2.1659422E0,0E0,0E0,1.6582322E0,0E0,0E0,3.021183E-1,0E0,4.7295566E0,2.489131E0,0E0,3.5791903E0,0E0,2.7891426E0,3.9269748E0,0E0,4.660669E0,7.321644E0,8.0516815E-1,3.261782E0,3.865571E0,4.680519E0,0E0,1.1415195E0,3.438796E0,0E0,2.198906E-1,0E0,0E0,2.715901E0,2.3922758E0,0E0,1.4718446E0,0E0,6.191788E-1,2.743573E0,2.8862152E0,4.440403E-1,4.6432333E0,4.2582917E0,8.104559E0,5.141548E0,9.244423E-1,0E0,8.347044E0,6.1340284E-1,1.790565E0,3.1287682E0,1.8724772E0,3.606619E0,7.049141E-1,1.7214398E0,0E0,0E0,0E0,0E0,0E0,0E0,0E0,0E0,0E0,0E0,0E0,0E0,0E0,0E0,0E0,0E0,0E0,0E0,0E0,0E0,0E0,0E0,0E0,0E0,0E0,0E0,0E0,0E0,0E0,0E0,0E0,0E0,0E0,0E0,0E0,0E0,0E0,0E0,0E0,0E0,0E0,0E0,0E0,0E0],"parents":[2147483647,0,0,1,1,2,2,3,3,4,4,5,5,6,6,7,7,8,8,10,10,11,11,12,12,13,13,14,14,15,15,18,18,19,19,20,20,21,21,22,22,23,23,24,24,25,25,26,26,27,27,30,30,33,33,35,35,36,36,38,38,40,40,41,41,43,43,44,44,45,45,46,46,47,47,48,48,50,50,51,51,53,53,56,56,57,57,59,59,61,61,62,62,63,63,64,64,65,65,66,66,67,67,68,68,69,69,71,71,72,72,73,73,74,74,75,75,76,76,77,77,78,78],"right_children":[2,4,6,8,10,12,14,16,18,-1,20,22,24,26,28,30,-1,-1,32,34,36,38,40,42,44,46,48,50,-1,-1,52,-1,-1,54,-1,56,58,-1,60,-1,62,64,-1,66,68,70,72,74,76,-1,78,80,-1,82,-1,-1,84,86,-1,88,-1,90,92,94,96,98,100,102,104,106,-1,108,110,112,114,116,118,120,122,-1,-1,-1,-1,-1,-1,-1,-1,-1,-1,-1,-1,-1,-1,-1,-1,-1,-1,-1,-1,-1,-1,-1,-1,-1,-1,-1,-1,-1,-1,-1,-1,-1,-1,-1,-1,-1,-1,-1,-1,-1,-1,-1,-1],"split_conditions":[2.9577423E2,1.834407E4,3.6303687E2,7.2861676E0,2.9899066E2,5.2513537E0,7.7620206E0,7.4676847E0,4.2976624E2,5.266472E-2,5.818229E0,6.4759946E0,1.433002E2,2.129389E4,9.380013E0,1.2775773E1,8.244923E-2,-9.677167E-2,2.1361037E2,2.457196E2,7.6326385E0,3.2010217E2,1.0117084E4,1.6295837E1,1.2397703E1,6.770927E0,1.4873626E1,1.2530272E2,-5.4750998E-2,6.64522E-2,1.8215464E1,5.214399E-2,-2.8622469E-2,1.5689891E2,3.86846E-2,6.579185E0,5.431149E2,6.796911E-2,2.0145581E2,-2.6570864E-2,8.258134E1,1.1360427E1,3.383884E-2,6.0126343E1,4.575331E0,5.8344885E2,4.046729E2,3.7346353E2,1.5766692E2,-2.60494E-2,8.5840256E1,6.7106338E0,5.7236947E-2,3.0191693E4,-1.1485795E-1,7.723965E-2,1.474909E1,1.6090193E1,1.9646006E-2,1.2560446E1,-9.469263E-2,2.2167546E2,8.990495E1,4.6457333E2,4.6772895E0,2.3594511E2,2.2357848E2,4.4861803E0,2.953361E4,3.7561917E2,-7.1479087E-3,3.8295874E2,8.086826E3,7.27998E1,2.0109732E2,4.102719E0,1.852432E1,5.136599E0,6.7496963E0,-9.024863E-2,3.827302E-2,-1.00800535E-2,-6.1186712E-2,1.4820634E-2,-5.5150833E-2,-9.768488E-2,-1.6318839E-2,5.855969E-2,-1.7796699E-2,8.8317245E-2,2.5244735E-2,-5.5405103E-2,5.815732E-2,-4.288441E-2,6.7193404E-2,-1.1211362E-1,-2.6841642E-2,-4.1997284E-2,6.93646E-2,1.3238564E-2,-3.7786298E-2,9.85856E-3,-5.5634532E-2,5.0746135E-2,-1.5010324E-2,-3.58772E-2,-8.977693E-2,-4.9247846E-2,5.4784082E-2,-1.7587606E-2,-1.0015394E-1,9.5759876E-2,-4.870978E-3,2.7036326E-2,-5.5827662E-2,7.423306E-2,-2.36264E-2,-7.738562E-2,2.9117187E-2,1.5169589E-2,7.548894E-2,5.3825993E-2,-4.1443545E-2],"split_indices":[4,2,4,0,5,0,0,3,5,0,3,3,1,2,3,6,0,0,1,1,3,4,2,6,6,0,6,1,0,0,6,0,0,1,0,0,5,0,1,0,7,6,0,7,8,5,4,4,1,0,7,0,0,2,0,0,6,6,0,6,0,1,7,5,8,1,1,8,2,4,0,4,2,7,1,8,6,3,3,0,0,0,0,0,0,0,0,0,0,0,0,0,0,0,0,0,0,0,0,0,0,0,0,0,0,0,0,0,0,0,0,0,0,0,0,0,0,0,0,0,0,0,0],"split_type":[0,0,0,0,0,0,0,0,0,0,0,0,0,0,0,0,0,0,0,0,0,0,0,0,0,0,0,0,0,0,0,0,0,0,0,0,0,0,0,0,0,0,0,0,0,0,0,0,0,0,0,0,0,0,0,0,0,0,0,0,0,0,0,0,0,0,0,0,0,0,0,0,0,0,0,0,0,0,0,0,0,0,0,0,0,0,0,0,0,0,0,0,0,0,0,0,0,0,0,0,0,0,0,0,0,0,0,0,0,0,0,0,0,0,0,0,0,0,0,0,0,0,0],"sum_hessian":[4.7751044E2,5.5549667E1,4.219608E2,1.4244653E1,4.1305016E1,3.3927893E2,8.2681854E1,9.458538E0,4.7861147E0,1.7706125E0,3.95344E1,2.716826E1,3.1211066E2,6.3599487E1,1.908237E1,5.559866E0,3.8986726E0,2.6119092E0,2.1742053E0,1.1808399E1,2.7726004E1,8.953201E0,1.821506E1,1.0588493E1,3.0152216E2,3.718637E1,2.6413118E1,1.6834637E1,2.2477326E0,1.6295978E0,3.930268E0,1.0022142E0,1.1719911E0,1.0720933E1,1.087466E0,1.3779703E1,1.39463005E1,2.0782862E0,6.8749146E0,1.3223081E0,1.6892752E1,8.560415E0,2.0280783E0,8.453731E1,2.1698486E2,1.6991377E1,2.0194992E1,1.3552786E1,1.28603325E1,1.2333086E0,1.5601329E1,2.8477643E0,1.0825038E0,2.351227E0,8.369705E0,2.9158309E0,1.0863873E1,1.2787197E1,1.1591034E0,4.671543E0,2.2033713E0,1.4103259E1,2.7894926E0,3.642986E0,4.917429E0,2.641332E1,5.812399E1,1.7228342E2,4.4701447E1,1.580734E1,1.1840371E0,1.6561422E1,3.6335702E0,4.6340604E0,8.918725E0,2.9644191E0,9.895914E0,1.3312639E1,2.2886891E0,1.2192364E0,1.6285279E0,1.217619E0,1.1336082E0,6.107175E0,4.756697E0,9.715273E0,3.0719244E0,1.0679963E0,3.603547E0,1.20960865E1,2.0071728E0,1.453301E0,1.3361918E0,2.454049E0,1.1889368E0,3.7108994E0,1.2065297E0,2.5016193E1,1.3971261E0,4.7777462E1,1.0346529E1,1.6190501E2,1.0378397E1,3.7063145E1,7.6383004E0,4.3891287E0,1.1418211E1,1.0607683E1,5.9537396E0,1.1788517E0,2.4547186E0,3.4752512E0,1.158809E0,5.796271E0,3.1224544E0,1.766727E0,1.1976922E0,8.23658E0,1.6593337E0,1.830138E0,1.1482501E1,1.1392801E0,1.149409E0],"tree_param":{"num_deleted":"0","num_feature":"9","num_nodes":"123","size_leaf_vector":"1"}},{"base_weights":[-6.3321358E-3,-3.7539935E-1,4.2628754E-2,2.3550023E-1,-5.946042E-1,-6.15316E-3,3.1664336E-1,-5.5693086E-2,3.6932006E-1,4.8188027E-2,-6.671053E-1,7.200909E-2,-3.4750348E-1,4.7276026E-1,-6.086729E-1,7.703585E-1,4.9475826E-2,-1.1796563E0,-4.9236336E-1,2.5876388E-1,-4.0932983E-2,-7.046264E-1,-5.012918E-2,7.913078E-1,1.4224405E-2,-9.484835E-1,6.174267E-2,8.252837E-2,1.6862283E-5,-5.702477E-1,3.9442918E-1,-1.0194556E-2,-9.859535E-2,-6.861908E-1,-8.377063E-3,7.04454E-1,2.6877781E-2,-6.351325E-1,1.7018193E-2,-1.04012765E-1,-5.10996E-1,-3.5439026E-1,5.117465E-1,-4.128769E-1,8.9293194E-1,-1.6748466E-1,8.249466E-1,3.542134E-2,-1.2569501E0,7.4633597E-3,-7.769012E-2,6.498183E-1,-3.0662311E-2,-3.0785346E-1,-1.0428138E0,-7.011643E-1,3.9576706E-1,-4.497555E-2,7.769294E-1,-1.3084282E-1,8.0439687E-1,-3.4483117E-1,-1.3081916E-1,5.042283E-1,-5.108532E-2,-8.378599E-1,-1.3758106E-2,-2.0985156E-1,-1.1112129E-1,-1.0325873E-1,9.6795124E-1,1.9899312E-2,-6.33404E-2,1.9018547E-1,1.0365117E0,7.1631454E-2,-3.276063E-1,8.472239E-2,-7.475601E-3,-1.8563898E-3,-1.1260591E-1,-1.2089162E-2,7.692292E-2,4.4087656E-2,-4.1858204E-2,-1.4101899E-2,-8.586535E-2,-9.119968E-2,1.3589182E-2,6.829433E-2,-1.2546551E-2,8.235962E-2,3.124984E-2,7.486243E-3,-5.2095417E-2,1.935542E-2,8.57148E-2,-5.0748385E-2,2.8345693E-2,4.996425E-2,-3.36387E-2,-1.2957604E-2,2.1564262E-2,-7.656884E-2,-1.7218033E-2,2.8213046E-2,-5.7213914E-2,-2.4331447E-3,-7.6094784E-2,2.5814528E-2,-4.412368E-2,-7.048501E-3,8.687949E-2,7.9733446E-2,-4.638152E-2,5.6220545E-3,8.688895E-2,-5.3646367E-2,1.1360347E-2],"categories":[],"categories_nodes":[],"categories_segments":[],"categories_sizes":[],"default_left":[0,0,0,0,0,0,0,0,0,0,0,0,0,0,0,0,0,0,0,0,0,0,0,0,0,0,0,0,0,0,0,0,0,0,0,0,0,0,0,0,0,0,0,0,0,0,0,0,0,0,0,0,0,0,0,0,0,0,0,0,0,0,0,0,0,0,0,0,0,0,0,0,0,0,0,0,0,0,0,0,0,0,0,0,0,0,0,0,0,0,0,0,0,0,0,0,0,0,0,0,0,0,0,0,0,0,0,0,0,0,0,0,0,0,0,0,0,0,0],"id":10,"left_children":[1,3,5,7,9,11,13,-1,15,-1,17,19,21,23,25,27,29,31,33,35,37,39,41,43,45,47,-1,-1,-1,49,51,-1,-1,53,55,57,59,61,63,-1,65,67,69,71,73,75,77,-1,79,-1,-1,81,-1,83,85,87,89,-1,91,93,95,97,-1,99,101,103,105,107,-1,109,111,-1,-1,113,115,-1,117,-1,-1,-1,-1,-1,-1,-1,-1,-1,-1,-1,-1,-1,-1,-1,-1,-1,-1,-1,-1,-1,-1,-1,-1,-1,-1,-1,-1,-1,-1,-1,-1,-1,-1,-1,-1,-1,-1,-1,-1,-1,-1],"loss_changes":[8.607168E0,7.610634E0,5.624818E0,2.2961726E0,4.136428E0,9.578449E0,9.473742E0,0E0,1.790583E0,0E0,2.9606686E0,6.1733847E0,7.0678263E0,8.0183325E0,5.460252E0,1.5899796E0,2.148867E0,1.136404E0,2.9215393E0,1.1374895E1,6.310059E0,3.2955856E0,6.6045723E0,4.3359814E0,3.607894E0,4.203651E0,0E0,0E0,0E0,1.2341955E0,1.5729983E0,0E0,0E0,2.6835709E0,3.0593219E0,4.028223E0,9.125501E0,4.64097E0,5.5885735E0,0E0,4.083374E0,3.7564814E0,3.917837E0,1.1628933E0,2.8513298E0,3.92076E0,1.3750331E0,0E0,2.0837355E0,0E0,0E0,1.7568209E0,0E0,3.0681834E0,7.4823475E-1,2.0470893E0,2.156579E0,0E0,3.7245579E0,8.133146E0,2.0247078E0,3.649454E0,0E0,3.4856892E0,6.1476636E0,1.4565134E0,3.502868E0,3.2924995E0,0E0,1.6564063E0,1.7083254E0,0E0,0E0,5.1398406E0,2.8299198E0,0E0,3.5091767E0,0E0,0E0,0E0,0E0,0E0,0E0,0E0,0E0,0E0,0E0,0E0,0E0,0E0,0E0,0E0,0E0,0E0,0E0,0E0,0E0,0E0,0E0,0E0,0E0,0E0,0E0,0E0,0E0,0E0,0E0,0E0,0E0,0E0,0E0,0E0,0E0,0E0,0E0,0E0,0E0,0E0,0E0],"parents":[2147483647,0,0,1,1,2,2,3,3,4,4,5,5,6,6,8,8,10,10,11,11,12,12,13,13,14,14,15,15,16,16,17,17,18,18,19,19,20,20,21,21,22,22,23,23,24,24,25,25,29,29,30,30,33,33,34,34,35,35,36,36,37,37,38,38,40,40,41,41,42,42,43,43,44,44,45,45,46,46,48,48,51,51,53,53,54,54,55,55,56,56,58,58,59,59,60,60,61,61,63,63,64,64,65,65,66,66,67,67,69,69,70,70,73,73,74,74,76,76],"right_children":[2,4,6,8,10,12,14,-1,16,-1,18,20,22,24,26,28,30,32,34,36,38,40,42,44,46,48,-1,-1,-1,50,52,-1,-1,54,56,58,60,62,64,-1,66,68,70,72,74,76,78,-1,80,-1,-1,82,-1,84,86,88,90,-1,92,94,96,98,-1,100,102,104,106,108,-1,110,112,-1,-1,114,116,-1,118,-1,-1,-1,-1,-1,-1,-1,-1,-1,-1,-1,-1,-1,-1,-1,-1,-1,-1,-1,-1,-1,-1,-1,-1,-1,-1,-1,-1,-1,-1,-1,-1,-1,-1,-1,-1,-1,-1,-1,-1,-1,-1],"split_conditions":[2.9577423E2,6.64647E0,8.479592E0,9.006143E0,9.076646E3,3.6601892E2,3.0927395E4,-5.5693086E-2,1.345058E1,4.8188027E-2,2.581912E2,6.703487E0,6.770927E0,7.4127655E0,3.504499E2,8.022936E0,1.5530123E1,1.0742146E1,2.1877E2,3.2868066E2,1.6395724E2,5.5707836E0,2.177617E4,1.5570969E2,1.0351743E1,5.3403187E0,6.174267E-2,8.252837E-2,1.6862283E-5,4.5631833E0,2.9027646E2,-1.0194556E-2,-9.859535E-2,7.2667813E0,6.2466137E1,4.875414E0,8.630381E0,1.6043202E2,1.2833461E4,-1.04012765E-1,2.1214371E4,2.1043627E4,3.8411725E2,3.2665625E0,1.103224E1,4.8546257E1,2.2374824E4,3.542134E-2,3.1709938E0,7.4633597E-3,-7.769012E-2,3.6860745E0,-3.0662311E-2,2.0852764E4,5.229711E1,1.5284291E1,1.3478149E1,-4.497555E-2,1.9225417E2,2.0807005E2,5.974583E0,1.6295837E1,-1.3081916E-1,8.533888E0,3.393279E2,4.5964218E2,6.1002455E0,9.422101E0,-1.1112129E-1,3.7422693E2,3.2665625E0,1.9899312E-2,-6.33404E-2,9.557031E0,3.0983875E2,7.1631454E-2,1.4990567E1,8.472239E-2,-7.475601E-3,-1.8563898E-3,-1.1260591E-1,-1.2089162E-2,7.692292E-2,4.4087656E-2,-4.1858204E-2,-1.4101899E-2,-8.586535E-2,-9.119968E-2,1.3589182E-2,6.829433E-2,-1.2546551E-2,8.235962E-2,3.124984E-2,7.486243E-3,-5.2095417E-2,1.935542E-2,8.57148E-2,-5.0748385E-2,2.8345693E-2,4.996425E-2,-3.36387E-2,-1.2957604E-2,2.1564262E-2,-7.656884E-2,-1.7218033E-2,2.8213046E-2,-5.7213914E-2,-2.4331447E-3,-7.6094784E-2,2.5814528E-2,-4.412368E-2,-7.048501E-3,8.687949E-2,7.9733446E-2,-4.638152E-2,5.6220545E-3,8.688895E-2,-5.3646367E-2,1.1360347E-2],"split_indices":[4,0,0,6,2,4,2,0,6,0,4,0,0,3,4,3,6,6,1,4,1,3,2,1,0,3,0,0,0,8,4,0,0,0,7,3,3,1,2,0,2,2,4,8,6,7,2,0,8,0,0,8,0,2,7,6,6,0,1,1,0,6,0,3,4,5,0,3,0,4,8,0,0,6,4,0,6,0,0,0,0,0,0,0,0,0,0,0,0,0,0,0,0,0,0,0,0,0,0,0,0,0,0,0,0,0,0,0,0,0,0,0,0,0,0,0,0,0,0],"split_type":[0,0,0,0,0,0,0,0,0,0,0,0,0,0,0,0,0,0,0,0,0,0,0,0,0,0,0,0,0,0,0,0,0,0,0,0,0,0,0,0,0,0,0,0,0,0,0,0,0,0,0,0,0,0,0,0,0,0,0,0,0,0,0,0,0,0,0,0,0,0,0,0,0,0,0,0,0,0,0,0,0,0,0,0,0,0,0,0,0,0,0,0,0,0,0,0,0,0,0,0,0,0,0,0,0,0,0,0,0,0,0,0,0,0,0,0,0,0,0],"sum_hessian":[4.7444177E2,5.478735E1,4.1965442E2,1.444801E1,4.033934E1,3.5706488E2,6.2589535E1,1.1913683E0,1.3256642E1,1.7979685E0,3.854137E1,2.9117972E2,6.5885155E1,5.397252E1,8.617018E0,5.2568145E0,7.999828E0,8.336883E0,3.020449E1,1.0924579E2,1.8193393E2,2.9313038E1,3.657212E1,3.1419487E1,2.255303E1,7.237155E0,1.3798627E0,3.3797154E0,1.877099E0,2.6270692E0,5.372759E0,1.1843147E0,7.1525674E0,2.1268904E1,8.935586E0,3.6689617E1,7.255617E1,1.5281904E1,1.6665202E2,5.118156E0,2.4194881E1,2.3964426E1,1.2607694E1,2.2068508E0,2.9212637E1,1.9071829E1,3.481201E0,1.1962534E0,6.0409017E0,1.399819E0,1.2272502E0,4.221572E0,1.1511866E0,1.1224356E1,1.0044548E1,3.021378E0,5.914208E0,1.5486636E0,3.5140953E1,6.1011616E1,1.1544555E1,1.3150741E1,2.1311643E0,1.9652794E1,1.4699924E2,1.4185126E1,1.0009754E1,2.2292177E1,1.6722492E0,5.698822E0,6.9088717E0,1.0081884E0,1.1986624E0,5.350309E0,2.3862328E1,1.7610208E0,1.7310808E1,2.4516113E0,1.0295898E0,1.1823869E0,4.858515E0,1.517647E0,2.7039251E0,2.156633E0,9.067723E0,1.3745201E0,8.670028E0,1.6692715E0,1.3521063E0,2.766995E0,3.1472127E0,1.7494972E1,1.7645979E1,4.3880978E1,1.7130636E1,5.0904536E0,6.454101E0,9.056751E0,4.093989E0,1.70544E1,2.5983934E0,1.08498795E2,3.850044E1,1.0382316E1,3.8028104E0,6.9104366E0,3.099318E0,1.9117872E1,3.1743045E0,3.1153753E0,2.583447E0,1.1276197E0,5.781252E0,2.4214714E0,2.9288378E0,2.868654E0,2.0993673E1,9.295593E0,8.015216E0],"tree_param":{"num_deleted":"0","num_feature":"9","num_nodes":"119","size_leaf_vector":"1"}},{"base_weights":[-6.482728E-3,-3.5519513E-1,3.942232E-2,2.4540164E-1,-5.615564E-1,-6.559711E-3,3.00098E-1,7.2059333E-1,-6.3815105E-1,5.1199514E-2,-6.334865E-1,8.4136896E-2,-2.6905352E-1,4.4792885E-1,-5.653924E-1,3.6485875E-1,7.898813E-2,-8.943653E-2,1.8007986E-1,-1.1088659E0,-3.9938498E-1,2.7278164E-1,-3.3081844E-2,-9.389328E-2,-6.960559E-1,7.531081E-1,1.8003613E-2,-8.8439834E-1,6.0019217E-2,-3.500961E-2,5.504879E-2,2.8851712E-2,-8.427803E-3,-1.2992235E0,3.6435988E-2,9.312259E-2,-8.5918653E-1,-5.6893164E-1,3.8011232E-1,-1.3796921E-1,4.3772152E-1,-3.7308168E-1,1.6811861E-1,-9.808429E-1,6.793857E-2,-3.951306E-1,8.526144E-1,-1.5305111E-1,7.9130864E-1,3.4104027E-2,-1.1737589E0,3.815319E-2,-4.624411E-2,-5.655316E-1,-1.06568955E-1,7.306072E-2,-1.9386512E-1,-9.760219E-1,2.0226983E-2,-8.5399866E-1,4.9193382E-2,7.607881E-1,1.6171528E-1,-2.9866982E-1,2.5980008E-1,7.597202E-1,-7.948132E-2,-1.1320558E0,-2.1385366E-1,3.5604125E-1,-7.085633E-1,1.2579844E-2,-1.0817916E0,7.5718656E-2,-3.5304943E-1,1.9221868E-2,-6.0494218E-2,1.8256092E-1,9.927869E-1,6.935303E-2,-3.0404297E-1,8.170312E-2,-7.1848035E-3,-1.7805473E-3,-1.0505849E-1,-9.186483E-3,-5.723077E-2,1.5827306E-2,-5.274013E-2,-8.9274675E-2,-1.3463206E-2,-2.0031206E-2,-9.143409E-2,1.3844164E-2,7.5019136E-2,-1.1063477E-2,3.7800096E-2,-9.530395E-3,-4.2844813E-2,-7.338937E-2,3.3949733E-2,-1.3653552E-2,6.57816E-2,3.377261E-2,-3.784695E-2,-1.490759E-2,-1.01901375E-1,5.1578753E-2,-2.437237E-2,-4.590658E-2,3.6665507E-2,-9.3576364E-2,6.9816173E-3,-9.2320144E-2,-2.8025355E-2,-4.5486722E-2,3.402059E-2,7.7068664E-2,-4.335068E-2,5.3172163E-3,8.351549E-2,-4.952389E-2,1.0638019E-2],"categories":[],"categories_nodes":[],"categories_segments":[],"categories_sizes":[],"default_left":[0,0,0,0,0,0,0,0,0,0,0,0,0,0,0,0,0,0,0,0,0,0,0,0,0,0,0,0,0,0,0,0,0,0,0,0,0,0,0,0,0,0,0,0,0,0,0,0,0,0,0,0,0,0,0,0,0,0,0,0,0,0,0,0,0,0,0,0,0,0,0,0,0,0,0,0,0,0,0,0,0,0,0,0,0,0,0,0,0,0,0,0,0,0,0,0,0,0,0,0,0,0,0,0,0,0,0,0,0,0,0,0,0,0,0,0,0,0,0,0,0,0,0],"id":11,"left_children":[1,3,5,7,9,11,13,15,17,-1,19,21,23,25,27,29,-1,-1,31,33,35,37,39,41,43,45,47,49,-1,51,-1,-1,-1,53,-1,55,57,59,61,63,65,67,69,71,73,75,77,79,81,-1,83,-1,-1,85,-1,-1,87,89,-1,91,-1,93,95,97,99,101,103,105,107,109,111,-1,113,-1,115,-1,-1,117,119,-1,121,-1,-1,-1,-1,-1,-1,-1,-1,-1,-1,-1,-1,-1,-1,-1,-1,-1,-1,-1,-1,-1,-1,-1,-1,-1,-1,-1,-1,-1,-1,-1,-1,-1,-1,-1,-1,-1,-1,-1,-1,-1,-1],"loss_changes":[7.5802555E0,6.9649143E0,5.0192404E0,6.6663327E0,4.128812E0,8.516956E0,8.286455E0,8.085761E-1,2.8001914E0,0E0,3.9599943E0,5.88955E0,6.805235E0,7.095624E0,4.8907256E0,9.705844E-1,0E0,0E0,2.3296952E-1,4.4230556E0,6.437009E0,9.433323E0,8.203858E0,4.9122825E0,5.8465157E0,3.9548454E0,3.2321522E0,3.733821E0,0E0,1.587163E0,0E0,0E0,0E0,2.1710587E-1,0E0,3.843942E0,2.1909342E0,4.7287393E0,7.4496937E0,8.74696E0,5.104046E0,3.67421E0,6.000207E0,2.4327068E0,3.5867372E0,1.0667281E0,2.5853958E0,3.551575E0,1.2736468E0,0E0,1.8126545E0,0E0,0E0,1.942594E-1,0E0,0E0,2.5691245E0,2.0841599E0,0E0,1.8429036E0,0E0,4.359911E0,6.335005E0,4.4677153E0,9.891182E0,2.2332287E0,3.0484352E0,8.692951E-1,3.0303342E0,4.0795345E0,2.9223475E0,0E0,1.4391251E0,0E0,1.5778031E0,0E0,0E0,4.656708E0,2.60779E0,0E0,3.0134425E0,0E0,0E0,0E0,0E0,0E0,0E0,0E0,0E0,0E0,0E0,0E0,0E0,0E0,0E0,0E0,0E0,0E0,0E0,0E0,0E0,0E0,0E0,0E0,0E0,0E0,0E0,0E0,0E0,0E0,0E0,0E0,0E0,0E0,0E0,0E0,0E0,0E0,0E0,0E0,0E0,0E0,0E0],"parents":[2147483647,0,0,1,1,2,2,3,3,4,4,5,5,6,6,7,7,8,8,10,10,11,11,12,12,13,13,14,14,15,15,18,18,19,19,20,20,21,21,22,22,23,23,24,24,25,25,26,26,27,27,29,29,33,33,35,35,36,36,37,37,38,38,39,39,40,40,41,41,42,42,43,43,44,44,45,45,46,46,47,47,48,48,50,50,53,53,56,56,57,57,59,59,61,61,62,62,63,63,64,64,65,65,66,66,67,67,68,68,69,69,70,70,72,72,74,74,77,77,78,78,80,80],"right_children":[2,4,6,8,10,12,14,16,18,-1,20,22,24,26,28,30,-1,-1,32,34,36,38,40,42,44,46,48,50,-1,52,-1,-1,-1,54,-1,56,58,60,62,64,66,68,70,72,74,76,78,80,82,-1,84,-1,-1,86,-1,-1,88,90,-1,92,-1,94,96,98,100,102,104,106,108,110,112,-1,114,-1,116,-1,-1,118,120,-1,122,-1,-1,-1,-1,-1,-1,-1,-1,-1,-1,-1,-1,-1,-1,-1,-1,-1,-1,-1,-1,-1,-1,-1,-1,-1,-1,-1,-1,-1,-1,-1,-1,-1,-1,-1,-1,-1,-1,-1,-1,-1,-1],"split_conditions":[2.9577423E2,1.834407E4,8.479592E0,7.2861676E0,2.9899066E2,3.5360727E2,3.0927395E4,7.4676847E0,4.2976624E2,5.1199514E-2,5.818229E0,6.703487E0,2.1050275E2,7.4127655E0,3.504499E2,1.3978173E4,7.898813E-2,-8.943653E-2,1.4219532E1,2.457196E2,7.6326385E0,5.3403187E0,3.393279E2,6.869639E0,2.5620771E4,1.5570969E2,1.0351743E1,5.3403187E0,6.0019217E-2,1.8959581E2,5.504879E-2,2.8851712E-2,-8.427803E-3,1.5689891E2,3.6435988E-2,6.579185E0,5.431149E2,5.0915033E2,3.2737994E2,2.1417233E2,2.0692316E2,5.626787E0,8.97718E0,2.9626077E2,1.3376148E1,3.2665625E0,1.103224E1,4.8546257E1,2.2374824E4,3.4104027E-2,3.1709938E0,3.815319E-2,-4.624411E-2,3.0191693E4,-1.06568955E-1,7.306072E-2,4.0280423E0,1.6090193E1,2.0226983E-2,2.1626562E4,4.9193382E-2,1.7068299E4,7.5385923E0,7.4769692E0,6.9882064E0,1.6189636E2,6.7836604E0,3.6931E2,2.8045251E0,4.4555264E1,1.2877123E1,1.2579844E-2,4.3833947E0,7.5718656E-2,7.931913E0,1.9221868E-2,-6.0494218E-2,9.557031E0,3.0983875E2,6.935303E-2,1.4990567E1,8.170312E-2,-7.1848035E-3,-1.7805473E-3,-1.0505849E-1,-9.186483E-3,-5.723077E-2,1.5827306E-2,-5.274013E-2,-8.9274675E-2,-1.3463206E-2,-2.0031206E-2,-9.143409E-2,1.3844164E-2,7.5019136E-2,-1.1063477E-2,3.7800096E-2,-9.530395E-3,-4.2844813E-2,-7.338937E-2,3.3949733E-2,-1.3653552E-2,6.57816E-2,3.377261E-2,-3.784695E-2,-1.490759E-2,-1.01901375E-1,5.1578753E-2,-2.437237E-2,-4.590658E-2,3.6665507E-2,-9.3576364E-2,6.9816173E-3,-9.2320144E-2,-2.8025355E-2,-4.5486722E-2,3.402059E-2,7.7068664E-2,-4.335068E-2,5.3172163E-3,8.351549E-2,-4.952389E-2,1.0638019E-2],"split_indices":[4,2,0,0,5,4,2,3,5,0,3,0,1,3,4,2,0,0,6,1,3,3,4,0,2,1,0,3,0,1,0,0,0,1,0,0,5,5,4,1,1,3,3,5,6,8,6,7,2,0,8,0,0,2,0,0,8,6,0,2,0,2,3,3,0,1,3,4,8,7,6,0,8,0,3,0,0,6,4,0,6,0,0,0,0,0,0,0,0,0,0,0,0,0,0,0,0,0,0,0,0,0,0,0,0,0,0,0,0,0,0,0,0,0,0,0,0,0,0,0,0,0,0],"split_type":[0,0,0,0,0,0,0,0,0,0,0,0,0,0,0,0,0,0,0,0,0,0,0,0,0,0,0,0,0,0,0,0,0,0,0,0,0,0,0,0,0,0,0,0,0,0,0,0,0,0,0,0,0,0,0,0,0,0,0,0,0,0,0,0,0,0,0,0,0,0,0,0,0,0,0,0,0,0,0,0,0,0,0,0,0,0,0,0,0,0,0,0,0,0,0,0,0,0,0,0,0,0,0,0,0,0,0,0,0,0,0,0,0,0,0,0,0,0,0,0,0,0,0],"sum_hessian":[4.7166452E2,5.4084007E1,4.1758054E2,1.3782381E1,4.0301624E1,3.5579474E2,6.1785774E1,9.082223E0,4.7001586E0,1.7385378E0,3.8563087E1,2.6493436E2,9.08604E1,5.318408E1,8.601698E0,5.4016175E0,3.6806054E0,2.5292459E0,2.170913E0,1.1491378E1,2.7071709E1,1.0102451E2,1.6390985E2,6.529549E1,2.556491E1,3.0665022E1,2.2519056E1,7.2585483E0,1.3431495E0,3.0273182E0,2.374299E0,1.0917104E0,1.0792024E0,1.0431446E1,1.0599315E0,1.3456022E1,1.3615686E1,1.0938829E1,9.0085686E1,1.3462462E2,2.9285233E1,3.1406347E1,3.3889137E1,1.8416231E1,7.1486807E0,2.208576E0,2.8456446E1,1.909691E1,3.422146E0,1.1882112E0,6.070337E0,1.6293405E0,1.3979776E0,2.2874892E0,8.143957E0,2.7179246E0,1.0738097E1,1.2461381E1,1.1543057E0,9.119215E0,1.819615E0,3.1936113E1,5.814957E1,9.6063614E1,3.8561E1,1.7759605E1,1.1525627E1,4.386771E0,2.7019575E1,2.8396116E1,5.493021E0,1.4343971E0,1.6981833E1,1.7766467E0,5.372034E0,1.000964E0,1.207612E0,5.3214087E0,2.3135036E1,1.716999E0,1.7379911E1,2.3908234E0,1.0313226E0,1.182868E0,4.887469E0,1.2050047E0,1.0824845E0,6.308693E0,4.4294047E0,9.429803E0,3.031578E0,4.161424E0,4.9577904E0,9.895837E0,2.2040276E1,3.0848988E1,2.7300583E1,5.9852608E1,3.6211006E1,4.647418E0,3.391358E1,1.9069567E0,1.5852649E1,5.104997E0,6.42063E0,1.2238523E0,3.1629188E0,2.3951993E0,2.4624376E1,2.9907157E0,2.54054E1,2.9516222E0,2.5413988E0,1.3417532E1,3.5643008E0,4.2765484E0,1.0954854E0,2.3544545E0,2.9669542E0,2.8631773E0,2.027186E1,9.393372E0,7.98654E0],"tree_param":{"num_deleted":"0","num_feature":"9","num_nodes":"123","size_leaf_vector":"1"}},{"base_weights":[-6.0994625E-3,-3.3524016E-1,3.681243E-2,-6.778402E-2,-7.7297086E-1,-6.544636E-3,2.849399E-1,6.5691155E-1,-4.0119156E-1,-8.8959455E-1,3.0158447E-2,6.305445E-2,-3.1230164E-1,