tree
version=v4
num_class=1
num_tree_per_iteration=1
label_index=0
max_feature_idx=8
objective=binary sigmoid:1
feature_names=Column_0 Column_1 Column_2 Column_3 Column_4 Column_5 Column_6 Column_7 Column_8
feature_infos=[0:13.999999999999998] [73.492233689061095:317.33812405558257] [320.94261127435902:61227.196007712133] [0.53035129469961539:13.127000000000002] [129.00000000000003:481.03064230599722] [181.483753985146:753.34261955830459] [2.1999999999999886:28.300000000000011] [8.1758763842742681:124] [1.45:6.7389999999999999]
tree_sizes=6424 6655 6652 6655 6664

Tree=0
num_leaves=63
num_cat=0
split_feature=4 2 4 0 0 2 0 0 1 6 3 1 8 8 1 1 1 0 3 1 0 5 2 4 4 1 3 2 8 3 3 5 0 3 0 0 3 1 2 2 0 3 2 1 5 6 3 4 1 0 3 4 3 6 8 1 5 4 1 1 2 1
split_gain=33.0909 28.2016 21.6739 42.2986 19.8335 17.0768 16.3039 14.0331 15.0797 11.0327 10.7023 9.07351 8.97737 8.8311 8.75713 7.57522 7.88346 7.43659 10.414 9.27767 7.08701 7.5249 6.86156 6.72682 6.35957 6.78824 7.50455 6.46884 6.21882 5.71969 5.41776 5.07692 6.56916 4.96133 4.86441 4.68921 4.59376 4.58168 8.45026 5.51729 5.53478 16.9648 7.06124 10.7296 5.95729 5.37597 5.70928 5.16301 4.80487 4.43745 4.70032 4.42674 4.89806 4.14565 5.6237 5.12318 4.29326 4.0629 3.86336 3.84934 3.78384 3.60597
threshold=296.27654821664925 18414.085099472719 363.51730902931126 7.7550193104860066 6.494037065684922 19008.813163841598 7.3268709982168954 5.2108308321489618 143.36577527003615 12.378728378505345 6.4755535745465709 204.7327400377865 4.5670668341258525 4.4810162752888294 222.49554460967724 253.52898932688137 161.86141914974544 6.9003213422035232 7.5627903298167505 176.35297760779432 8.7207455210818861 361.42643532372807 11922.544286353988 333.98726364035076 329.8775385841729 223.3305719091862 6.643769088595767 15442.335500806903 3.538712531272084 6.6547493293203228 6.7780788731341968 330.30434900209895 7.1169065058700989 6.2062193503730496 6.6301226136697728 6.7408900451404259 5.8857748265781922 184.22376983293779 30912.692160673516 32833.39529981446 8.0474557510629037 8.3611780246418714 18171.94629622647 192.37431002380382 448.63103190945577 15.176098854489767 6.1618582093839818 326.1168018144258 218.56931117089241 7.2351306138262137 6.1938729346141459 401.79112954009503 7.5148424243965755 11.004504054844348 3.8775317173786563 179.57537351501207 409.06015011436733 279.76278466065952 192.37431002380382 217.86165168083866 20505.064236101756 153.12362877531186
decision_type=2 2 2 2 2 2 2 2 2 2 2 2 2 2 2 2 2 2 2 2 2 2 2 2 2 2 2 2 2 2 2 2 2 2 2 2 2 2 2 2 2 2 2 2 2 2 2 2 2 2 2 2 2 2 2 2 2 2 2 2 2 2
left_child=1 6 7 5 -3 14 -1 10 -9 24 23 49 13 15 22 16 61 18 -7 -19 21 60 -4 -2 27 26 36 -10 -13 -24 -15 32 -18 -27 -23 -29 -26 38 47 40 42 -42 43 -39 48 59 -47 -33 -45 50 -6 52 -5 55 -55 -28 -57 -30 -48 -44 -14 -11
right_child=2 4 3 51 11 17 -8 8 9 12 -12 28 20 30 -16 -17 31 19 -20 -21 -22 34 29 -25 25 33 53 35 57 -31 -32 37 -34 -35 -36 -37 -38 39 -40 -41 41 -43 45 44 -46 46 58 -49 -50 -51 -52 -53 -54 54 -56 56 -58 -59 -60 -61 -62 -63
leaf_value=0.50329799867812985 0.48809108624193015 0.45821868394852872 0.44254489262174396 0.50010326917472647 0.33903081621222986 0.37631918895261768 0.39636168930057614 0.39760801262858364 0.51185431769594036 0.45369256238892242 0.50956939159459325 0.45005250695474169 0.46706976610953654 0.37725139827112736 0.32800564831062479 0.4000017447347568 0.47101126363436036 0.5058783571231863 0.45369256238892242 0.42759070147065092 0.53013372650671742 0.51511849784072195 0.41415402922454569 0.40400580571235561 0.43904133926634503 0.43458227135947364 0.48809108624193015 0.48341968176806493 0.34995098251477197 0.35495605873677044 0.45005250695474169 0.45369256238892242 0.40531963822063022 0.36843126394984332 0.47301057397303908 0.42959697804744351 0.49240315191011352 0.49509819295272806 0.42502712584474928 0.50172653713861792 0.49728791379985238 0.39349514564615878 0.47072564787169197 0.4100118971787538 0.38823981561306037 0.4075093590677546 0.42502712584474928 0.50962512149950412 0.47007281184273564 0.32575978077511264 0.40400580571235561 0.53013372650671742 0.44732246537910614 0.37037169350052579 0.43403626304434656 0.39559727765939817 0.45059359627603884 0.41451646577855245 0.47674624680540029 0.52137484311822013 0.40400580571235561 0.39777726641386862
leaf_weight=11.179126977920534 4.7570753097534197 9.0384430885314924 5.7084903717041078 9.9898581504821831 5.2327828407287615 9.7520043849945086 5.2327828407287589 10.94127321243286 5.4706366062164333 5.232782840728758 21.882546424865723 4.994929075241088 4.7570753097534162 5.232782840728758 6.1841979026794425 4.994929075241088 7.611320495605467 6.1841979026794425 7.8491742610931388 9.7520043849945051 6.6599054336547843 9.9898581504821795 6.8977591991424587 4.757075309753418 7.1356129646301296 5.232782840728758 4.7570753097534206 6.4220516681671169 4.9949290752410871 9.989858150482176 4.9949290752410889 5.232782840728766 7.6113204956054688 6.1841979026794434 21.882546424865723 10.94127321243286 9.2762968540191633 5.7084903717041042 4.7570753097534171 8.8005893230438215 22.83396148681641 4.7570753097534171 10.941273212432863 6.6599054336547869 9.5141506195068342 5.7084903717041042 4.7570753097534206 19.504008769989014 6.6599054336547852 8.5627355575561506 5.9463441371917725 4.994929075241088 7.8491742610931388 5.9463441371917716 8.3248817920684797 5.9463441371917716 8.8005893230438215 4.757075309753418 14.984787225723265 5.7084903717041007 4.757075309753418 6.4220516681671143
leaf_count=47 20 38 24 42 22 41 22 46 23 22 92 21 20 22 26 21 32 26 33 41 28 42 29 20 30 22 20 27 21 42 21 22 32 26 92 46 39 24 20 37 96 20 46 28 40 24 20 82 28 36 25 21 33 25 35 25 37 20 63 24 20 27
internal_value=0.448195 0.413349 0.452957 0.430312 0.392289 0.40898 0.469202 0.458412 0.455302 0.457331 0.490321 0.375011 0.463077 0.457917 0.380726 0.460656 0.462511 0.433227 0.410824 0.457971 0.482263 0.47456 0.395155 0.446048 0.441903 0.433549 0.441466 0.464442 0.404684 0.379136 0.412805 0.465554 0.438165 0.39875 0.486209 0.449504 0.469202 0.468608 0.486057 0.4638 0.460402 0.479393 0.452985 0.433786 0.418458 0.466001 0.451549 0.497793 0.440042 0.352845 0.373592 0.488529 0.47688 0.427988 0.407509 0.442972 0.428418 0.381446 0.464284 0.488091 0.435538 0.422882
internal_weight=498.541 59.9391 438.602 85.1516 43.5272 62.3177 16.4119 353.451 322.054 311.113 31.3967 34.4888 226.675 178.628 28.7803 168.4 163.406 33.5374 17.6012 15.9362 48.0465 41.3866 22.5961 9.51415 84.4381 61.6041 50.1871 22.834 14.7469 16.8876 10.2277 151.751 15.2226 11.417 31.8724 17.3633 16.4119 136.528 29.4939 107.034 98.2336 27.591 70.6426 28.5425 22.834 42.1001 25.4504 24.7368 13.3198 19.7419 11.1791 22.834 17.839 33.7752 14.2712 19.504 14.7469 9.752 19.7419 16.6498 9.51415 11.6548
internal_count=2096 252 1844 358 183 262 69 1486 1354 1308 132 145 953 751 121 708 687 141 74 67 202 174 95 40 355 259 211 96 62 71 43 638 64 48 134 73 69 574 124 450 413 116 297 120 96 177 107 104 56 83 47 96 75 142 60 82 62 41 83 70 40 49
is_linear=0
shrinkage=1


Tree=1
num_leaves=63
num_cat=0
split_feature=4 2 4 0 0 2 0 0 3 6 8 2 0 3 4 3 0 8 3 4 4 0 4 3 3 8 2 8 3 0 6 7 6 5 6 7 4 4 5 0 7 5 3 3 3 2 6 0 8 6 7 4 7 7 4 2 8 3 8 8 0 0
split_gain=29.6787 25.0925 19.549 38.1198 17.4666 15.9366 14.8057 12.8478 9.89283 8.70945 8.28647 6.90248 6.78533 9.19531 6.47559 6.46274 9.347 6.20505 8.36947 6.07075 11.0154 7.47437 6.06499 5.75812 8.35369 6.75091 5.65847 5.55593 5.55307 4.52269 5.08375 6.84785 5.50255 5.82077 5.16175 4.38737 4.29054 4.24989 4.23458 12.4352 10.5077 8.88876 7.16045 5.02004 7.46164 4.55452 6.94458 4.9055 4.16947 4.10794 4.04544 4.02497 3.93721 4.28895 3.88854 3.84557 3.91041 3.72571 3.59399 3.41814 3.39094 6.56279
threshold=296.27654821664925 18414.085099472719 363.51730902931126 7.8121584167663514 6.494037065684922 19008.813163841598 7.3268709982168954 5.2108308321489618 6.4755535745465709 12.378728378505345 4.590020300931644 34449.38323807947 6.9003213422035232 7.5627903298167505 329.8775385841729 6.643769088595767 7.0011222257346066 4.4810162752888294 7.0066467381458004 339.4473309408188 350.18954692332341 7.9976330383382193 333.98726364035076 8.2320761896250243 5.7145215045638755 4.1129293222085392 29739.12673586054 3.5743885923214016 6.7993874489442048 9.1306880653369671 15.289697690834574 57.322546366580248 14.851467932156369 421.45134297347147 13.956746521494411 61.92322108951096 337.69917430347601 340.07616269910653 425.93877086358822 7.0526866609326282 54.336700008212617 330.30434900209895 8.4246316781259267 8.7665564726536669 8.3611780246418714 17859.92981337219 15.041066911187217 7.1849327384257302 3.8240115393437111 13.272012732826143 74.092052948040234 404.22369432479564 58.166256400114875 71.272349248838978 383.37951525332329 12097.069192302255 4.0068115649220513 7.185262200119773 3.5848165828715968 3.6159258172519828 6.6301226136697728 6.9680351783722658
decision_type=2 2 2 2 2 2 2 2 2 2 2 2 2 2 2 2 2 2 2 2 2 2 2 2 2 2 2 2 2 2 2 2 2 2 2 2 2 2 2 2 2 2 2 2 2 2 2 2 2 2 2 2 2 2 2 2 2 2 2 2 2 2
left_child=1 6 7 5 -3 51 -1 8 22 11 17 14 13 -7 27 16 -16 28 -19 21 -21 35 -2 24 -6 -26 60 -9 29 30 32 -32 33 34 -11 -17 48 -18 39 -30 -41 -42 58 44 45 47 -47 -40 -33 -14 -37 55 -29 -54 -51 -4 -57 -5 -43 -45 -12 -62
right_child=2 4 3 57 23 12 -8 9 -10 10 26 -13 49 -15 15 19 37 18 -20 20 -22 -23 -24 -25 25 -27 -28 52 38 -31 31 36 -34 -35 -36 50 -38 -39 43 40 41 42 -44 59 -46 46 -48 -49 -50 54 -52 -53 53 -55 -56 56 -58 -59 -60 -61 61 -63
leaf_value=0.05304348173500361 0.038259843550710826 0.0095446297135477268 -0.016419277525677598 0.061974736365018185 -0.094762092798884812 -0.067264815786217291 -0.048699063564341914 0.058552233167712089 0.059174689284318516 0.028048373312805089 0.064380536456709506 -0.065175754898909685 0.041421372004917224 0.0052295007417211071 -0.043460833223316682 -0.058269668129493836 0.050728176172614506 -0.067909761487730522 0.011358048165307494 0.043655845485939142 -0.04257706647200582 -0.094631260657129956 -0.041581575513749414 -0.10441323848139501 -0.0075950302194058286 -0.070750354141581637 -0.0084281084348781041 -0.034065147128162547 0.036729502130511509 0.05897532369077714 0.035225925148821002 -0.0046047676450215146 0.081445733635719886 0.048804278775265525 -0.037666204351744136 0.0255067571438597 0.020968377667478316 -0.0011574753224047106 -0.062514741072541083 0.052566247506507041 -0.076998382933841716 -0.011856955452891919 -0.056576631899682331 0.05162854865016258 -0.068778975944652085 -0.027746411912347026 0.034342903821257167 0.00046675415791041564 -0.054648695950227512 -0.035082315647995604 -0.030461968903756978 -0.095561527292548396 0.052589237921390752 -0.013116403581576211 0.023125482057084718 -0.041699963370247339 -0.090584986050810376 0.019494722253460103 0.04446043584991477 -0.0050143330369456915 -0.019712266766342506 0.040901610028996546
leaf_weight=11.03622803092003 4.7136458754539508 9.018279701471327 5.5141354501247468 11.025406017899515 9.4490178972482699 9.8955049812793749 5.2895166575908652 6.6220758259296444 21.569265425205231 6.6116849929094368 9.3972755372524244 4.7569153755903235 6.1788501292467144 7.8396119177341452 5.9604665040969875 6.7130376398563447 9.724250793457033 6.2579739540815336 7.1172348707914352 7.6538137048482877 7.1749808937311172 4.7858053445816031 4.8013988137245178 8.4597549289464933 9.3517867624759692 7.7281072437763205 7.8057722598314276 4.7486602365970603 25.797225818037987 6.8426475226879111 11.857532590627669 10.436991542577749 4.7375579774379721 10.8625231385231 5.4525917619466782 5.2539180517196646 7.371494695544242 6.6424549072980872 6.2039766013622302 5.207869008183482 6.2384563982486751 5.911394417285921 5.0212268382310858 4.9833315163850767 5.9568374752998343 7.8036228567361858 10.649305015802382 6.1629536300897598 6.9229466617107382 6.4146174490451795 8.3754356205463392 7.2313240170478812 5.2096676528453809 4.7463775426149368 5.1912380307912827 8.7030203342437762 7.7192178666591635 9.7048839777708036 5.4398073107004166 5.7211817651987076 5.4451699852943447 24.824599608778954
leaf_count=47 20 38 23 47 39 41 22 28 92 28 40 20 26 33 25 28 41 26 30 32 30 20 20 35 39 32 33 20 109 29 50 44 20 46 23 22 31 28 26 22 26 25 21 21 25 33 45 26 29 27 35 30 22 20 22 36 32 41 23 24 23 105
internal_value=1.50523e-05 -0.0328616 0.0045446 -0.0169159 -0.0525016 -0.0358247 0.0200791 0.00974501 0.04044 0.00677642 0.0118448 -0.0065897 -0.0133355 -0.0352195 -0.00325654 -0.0113989 0.0101472 0.00707598 -0.0257297 -0.0234385 0.00193165 -0.03841 -0.00202904 -0.068494 -0.0570397 -0.0361708 0.0304857 0.020523 0.00962417 0.0203314 0.016216 0.00398675 0.0323904 0.0222537 -0.0016521 -0.0251833 -0.0109909 0.0296703 0.00209441 0.0117243 -0.0114639 -0.0262117 -0.00686026 -0.00877966 -0.0175509 -0.00764954 0.00808574 -0.0311285 -0.0245617 0.00848744 -0.00888684 -0.0632115 0.00339709 0.0212652 -0.00904627 -0.0525474 -0.0646782 0.0420877 0.0151319 0.0213549 0.0381433 0.0299979
internal_weight=498.244 60.3327 437.911 85.4178 44.0069 64.6875 16.3257 352.493 31.0843 321.409 233.041 88.3679 35.5198 17.7351 83.6109 62.2842 22.3272 185.568 13.3752 39.957 14.8288 25.1282 9.51504 34.9887 26.5289 17.0799 47.4728 21.3268 172.193 71.096 64.2533 36.589 27.6644 22.9268 12.0643 20.3424 24.7314 16.3667 101.097 53.616 27.8188 22.6109 16.3724 47.4812 36.7767 30.8199 18.4529 12.3669 17.3599 17.7847 13.6294 29.1677 14.7047 9.95605 11.6059 21.9364 16.4222 20.7303 11.3512 10.7045 39.667 30.2698
internal_count=2096 252 1844 358 183 270 69 1486 132 1354 983 371 149 74 351 261 94 782 56 167 62 105 40 145 110 71 201 90 726 300 271 154 117 97 51 85 104 69 426 226 117 95 69 200 155 130 78 52 73 75 57 121 62 42 49 91 68 88 48 45 168 128
is_linear=0
shrinkage=0.05


Tree=2
num_leaves=63
num_cat=0
split_feature=4 2 4 0 0 2 0 0 1 3 6 1 0 1 8 1 1 8 1 1 0 5 2 4 2 8 1 8 4 0 8 3 0 2 1 0 5 0 3 1 2 2 0 3 2 1 2 6 3 4 4 6 4 4 8 4 0 3 1 1 3 4
split_gain=26.6817 22.402 17.6535 34.3894 15.4725 14.1006 13.4636 11.7786 13.4944 9.15777 9.14752 8.17236 9.2439 7.78596 7.59151 7.58627 7.43221 7.19972 6.7881 6.9621 6.64327 6.87122 5.65189 5.47404 5.3769 5.98904 8.46253 6.51751 5.76518 7.03488 5.11104 4.9721 4.89511 4.39434 4.6523 4.32111 4.23147 5.19077 4.21663 4.15012 7.79292 4.91252 4.97945 14.5839 6.10756 9.49679 5.51184 4.81881 4.95959 4.80015 4.20473 4.85569 3.84175 3.65316 4.05733 4.38208 3.61873 3.74471 3.54635 3.52987 3.47962 3.47712
threshold=296.27654821664925 18414.085099472719 363.51730902931126 7.8121584167663514 6.494037065684922 19008.813163841598 7.3268709982168954 5.2108308321489618 143.36577527003615 6.4755535745465709 12.378728378505345 201.65126052764936 6.9003213422035232 170.83149224746407 4.5670668341258525 222.49554460967724 204.7327400377865 4.4810162752888294 253.52898932688137 161.86141914974544 8.7207455210818861 361.42643532372807 11922.544286353988 333.98726364035076 31042.811337187322 3.9564293435085087 200.33446569717609 4.1965779964721408 329.110160528351 6.7040611397815182 3.538712531272084 6.6547493293203228 6.8745320887958412 15865.906301977406 212.69486682483486 6.6301226136697728 330.30434900209895 7.1169065058700989 6.7780788731341968 184.22376983293779 30912.692160673516 32833.39529981446 8.0474557510629037 8.3611780246418714 18171.94629622647 192.37431002380382 11800.828208186551 15.176098854489767 6.1618582093839818 326.1168018144258 335.27485159825522 16.030140991821956 335.27485159825522 321.16438830293947 4.8797282486036204 334.86855822330818 7.2351306138262137 6.1938729346141459 217.86165168083866 192.37431002380382 7.185262200119773 279.76278466065952
decision_type=2 2 2 2 2 2 2 2 2 2 2 2 2 2 2 2 2 2 2 2 2 2 2 2 2 2 2 2 2 2 2 2 2 2 2 2 2 2 2 2 2 2 2 2 2 2 2 2 2 2 2 2 2 2 2 2 2 2 2 2 2 2
left_child=1 6 7 5 -3 15 -1 9 -9 23 24 12 13 -7 17 22 56 18 19 -12 21 -16 -4 -2 25 28 27 -27 -10 -30 -18 -24 -26 -28 -35 -23 37 -21 -19 40 49 42 44 -44 45 -41 -47 58 -49 -38 51 -48 -31 -37 -55 -56 57 -6 -46 -50 -5 -32
right_child=2 4 3 60 16 11 -8 8 10 -11 14 -13 -14 -15 20 -17 30 38 -20 36 -22 35 31 -25 32 26 33 -29 29 52 61 -33 -34 34 -36 53 39 -39 -40 41 -42 -43 43 -45 47 46 50 48 59 -51 -52 -53 -54 54 55 -57 -58 -59 -60 -61 -62 -63
leaf_value=0.051106099871346136 0.036702829277608602 0.0090876211574181642 -0.0031766873754700263 0.059867430052087625 -0.095718901517307803 -0.060296125520035708 -0.045840601694740447 -0.047852791251185023 0.048068054248628998 0.057121286678355865 -0.023930205542194643 -0.049571329555391355 0.036409728949623965 0.015078766294701227 -0.013284309496472689 -0.10765075780938477 0.0034508054244802573 -0.062265598318846233 -0.045737636334879317 0.020714996470218187 0.078520614618647316 0.063007691643168884 -0.027963062196506506 -0.039184509496137138 -0.001842647956728144 -0.03796163385402633 -0.0036082982561643339 0.029032468574985894 -0.04634733936805302 -0.0020887989606083895 -0.08697691065606912 -0.082487666203270416 -0.067203332319724404 -0.022650211935745231 -0.081059163936364753 0.060581001554174133 0.0045178243846478875 -0.037588257657040824 0.0015797120712551791 0.044526480151422895 -0.022861567623449972 0.050489588061663648 0.04625167257388603 -0.049460484527558329 0.02074916812174786 0.019852542433544885 -0.025742498858645275 -0.038162976019849887 -0.02283306374521793 0.058660089259380578 -0.00030296726110142343 -0.0859600161503591 0.043549164201386381 0.042262117061231091 -0.038769832976919626 0.027172734712602804 -0.10803013367818233 -0.038501741312021984 0.069853439135339909 0.026645289644036008 0.018607074673510884 -0.027981494594745377
leaf_weight=10.885722532868387 4.6690779924392718 8.9987233281135541 5.7647632360458436 10.847357213497164 5.4150037020444888 7.2416602671146411 5.3370962738990775 11.041185602545736 9.3721668571233732 21.235912978649139 11.709517583250998 10.540552273392676 11.300012320280073 6.5024494081735611 9.4843989759683591 6.3818033784627906 5.0271528214216223 5.3704935014247877 5.0357110798358908 7.527535676956175 6.4745864868164054 9.7057245373725909 7.0438467860221889 4.839339554309845 5.2762655168771726 4.9958689063787487 6.9299638122320202 13.281936019659041 5.7662822157144573 11.207105562090875 5.1475145816802961 10.287951052188872 6.2673708200454712 6.6707448214292508 6.9726266264915466 4.9512620121240642 5.2077473104000154 7.7458506524562836 4.9880701750516891 5.6248348653316524 4.7618014812469474 8.6285762190818769 22.430123522877697 4.8385030478239051 10.837694197893144 4.7745013833045986 6.9192489385604876 5.7588277757167843 4.7622529417276409 19.137751221656799 4.7908426225185385 6.4855423718690872 7.834968850016593 6.5764538198709515 5.4297047406434995 4.7002260535955429 8.868353605270384 6.0596296489238739 5.564919486641883 14.829845026135443 9.6606135517358762 4.8516570776700974
leaf_count=47 20 38 24 47 22 30 22 46 40 92 49 44 48 27 40 26 21 22 21 32 28 42 29 20 22 21 29 56 24 47 21 42 26 28 29 21 22 32 21 24 20 37 96 20 46 20 29 24 20 82 20 27 33 28 23 20 36 25 24 63 41 20
internal_value=2.74393e-05 -0.0310666 0.00433883 -0.0160268 -0.0494505 -0.0338224 0.0192119 0.00929798 0.00646358 0.0388613 0.00840047 -0.0126367 0.00290828 -0.0246357 0.0136689 -0.0593966 -0.0643439 0.00893037 0.0114339 0.0132074 0.0314656 0.0240071 -0.0460635 -0.00192027 -0.00561868 -0.000606469 -0.0140366 0.010721 0.0146588 0.00203742 -0.0376755 -0.0603282 -0.0373288 -0.0360318 -0.0525009 0.0352842 0.0160944 -0.00885332 -0.0315215 0.0189096 0.0356367 0.014327 0.0111305 0.0292687 0.00409972 -0.0137027 -0.0279616 0.0162917 0.00262849 0.0470785 -0.0405079 -0.0548771 0.0166892 0.0228601 0.0116808 -0.00817288 -0.0840424 -0.0655031 0.0374088 0.0146186 0.0404311 -0.058352
internal_weight=497.575 60.5909 436.984 85.571 44.368 65.063 16.2228 351.413 320.669 30.7443 309.628 35.5847 25.0441 13.7441 225.053 29.4784 35.3693 177.73 167.372 162.336 47.3224 40.8478 23.0966 9.50842 84.5753 73.0317 38.8511 18.2778 34.1805 24.8084 15.0263 17.3318 11.5436 20.5733 13.6434 31.3634 150.626 15.2734 10.3586 135.353 29.1073 106.246 97.6171 27.2686 70.3485 28.595 22.9701 41.7535 25.3509 24.3455 18.1956 13.4048 19.0421 21.6576 16.7064 10.1299 20.343 11.4746 16.4026 19.5921 20.508 9.99917
internal_count=2096 252 1844 358 183 270 69 1486 1354 132 1308 149 105 57 953 121 145 751 708 687 202 174 95 40 355 307 163 77 144 104 62 71 48 86 57 134 638 64 43 574 124 450 413 116 297 120 96 177 107 104 76 56 80 92 71 43 83 47 70 83 88 41
is_linear=0
shrinkage=0.05


Tree=3
num_leaves=63
num_cat=0
split_feature=0 1 6 0 2 3 3 3 0 1 0 7 3 3 5 1 8 6 6 5 7 2 2 2 8 5 2 8 5 7 5 7 6 1 2 2 5 6 8 0 0 6 7 7 3 1 1 8 1 8 8 1 5 0 8 3 0 3 1 5 1 2
split_gain=12.4397 9.73801 15.18 11.1927 14.8978 12.0624 8.8187 8.46467 12.5542 7.7482 14.3718 7.62104 7.95984 7.54481 6.73767 7.49206 7.0887 6.57355 6.2217 6.15111 12.6026 6.77677 5.63642 7.22852 7.92048 5.32671 7.26238 6.59774 5.31836 5.24145 5.49028 5.14413 4.8281 4.72792 6.34801 5.95682 4.70207 6.12586 4.47342 7.29998 4.44729 4.29768 4.34543 4.49442 5.21845 5.4758 4.9997 5.70288 3.98216 3.92244 4.15388 6.03765 5.75121 5.00372 3.90242 3.79299 4.26764 5.35642 3.77533 3.76807 3.21729 5.31209
threshold=4.7607385030487954 161.86141914974544 16.188206290291394 8.0887860665152065 30912.692160673516 8.630549790255662 6.1436418133079203 5.3022788204635027 6.2009864220686675 206.33015781833259 5.6871797252712097 82.365034884155946 7.021235126677916 6.1254184244395509 442.54468701266831 215.51369644668139 4.3880763768332942 13.112883074163992 18.703967747001148 323.39907322044081 60.133230117118728 34238.118025767959 17379.199055208246 22328.31606257856 3.8240115393437111 452.39163302987822 18414.085099472719 4.0661931806348948 385.17533549206843 74.092052948040234 371.33642432704329 63.422382679308853 15.257125299811181 230.83899524187737 20323.465767703361 23103.531991477965 464.54944528732238 12.234257882867782 3.4205028056342353 8.1320560993173423 10.054657908484602 19.494391221130861 63.697630154123338 70.831164240506411 6.8948229912883168 190.00674728955019 184.64086927434158 4.5773965309428517 214.11910881097066 3.5743885923214016 3.7585859900752654 197.25167246737027 427.98351549811906 6.8510340106089478 4.0661931806348948 6.4418845288974493 9.1306880653369671 7.5807506005575478 169.73819700488002 382.66037277305958 198.39362948429334 22550.517934262916
decision_type=2 2 2 2 2 2 2 2 2 2 2 2 2 2 2 2 2 2 2 2 2 2 2 2 2 2 2 2 2 2 2 2 2 2 2 2 2 2 2 2 2 2 2 2 2 2 2 2 2 2 2 2 2 2 2 2 2 2 2 2 2 2
left_child=13 2 32 7 5 40 -6 8 -3 10 -9 19 -13 -1 15 31 33 -18 54 20 -12 41 29 -24 -25 26 -10 -27 -26 30 -17 -11 36 34 -16 -35 38 -38 -2 -40 55 42 49 44 45 -44 -45 -48 -36 -21 -51 52 -52 -54 -4 -5 57 60 -15 -33 -57 -62
right_child=1 3 18 4 6 -7 -8 9 25 14 11 12 -14 58 16 22 17 -19 -20 21 -22 -23 23 24 28 27 -28 -29 -30 -31 -32 59 -34 35 48 -37 37 -39 39 -41 -42 -43 43 46 -46 -47 47 -49 -50 50 51 -53 53 -55 -56 56 -58 -59 -60 -61 61 -63
leaf_value=-0.013558834040372343 -0.082844631542581287 -0.07615090020054037 0.014966986901187371 0.042721012841480117 0.020148031487095423 -0.025077950179054117 -0.06595644435515656 0.046847442341816911 0.015777712656330312 -0.059925799833461225 -0.086111422005122576 0.012397529429951756 -0.048792855685572643 0.014350085129802119 -0.049374647007955574 -0.029489742006876769 -0.040759781109659866 0.032845650470063346 -0.028965874393480202 0.018631197820651185 0.013657347821427255 -0.030398226833425985 0.054601372853861851 0.046146816531932998 -0.045322596564924211 0.061014282423208201 -0.053824863845920529 -0.019331470969015961 0.02108915932640441 -0.050455246737163076 0.030786364927305805 -0.027570282069678622 -0.078733745074756403 -0.030883083262366086 -0.025021544445668394 -0.10459879150394609 0.040170477449769038 -0.032089648424080949 -0.010755781572779441 -0.076049788452830169 0.067153529925849068 0.047108927923847667 -0.025982812519351306 0.036615633477473535 0.059479563427795958 0.0491009220015877 -0.030344246456124331 0.033280056114468347 0.038502574711888442 -0.054558209829696204 -0.032662604047495047 -0.045808369918250123 0.069400926266555238 0.0045940825266813359 0.072227030969827632 0.035715382758406126 -0.012270197389526817 0.061557629654746794 0.063981406138503463 0.028055053145190096 -0.045123689743457152 0.029154376149588986
leaf_weight=6.1995490938425091 5.3166357576847103 9.3583639264106733 7.3754704445600527 24.581097543239594 4.7521190941333753 10.535502985119818 7.9458424896001816 19.416342884302139 6.1212186515331295 7.3695716261863735 5.2848190367221815 8.5503134727478045 14.044367060065268 5.3353387713432339 11.559081748127939 6.6520285159349468 4.8014762997627249 8.2371616661548597 4.8074300140142432 16.726499810814857 7.8922283202409744 9.5861013978719694 11.298097342252733 7.2658767402172115 7.7074922174215299 4.942422226071356 9.6653871834278089 5.2898055464029312 4.9510688781738281 5.9679815620183936 8.7434520572423917 8.588666766881941 5.7911708801984778 6.0145530402660352 5.1873732656240445 5.0344930440187454 4.7415683269500715 7.6894215643405914 13.661515578627588 6.2341009378433219 8.1209938079118711 8.7362654805183393 5.0196548104286212 8.9572583138942736 12.157864883542059 4.7036614120006561 10.987661466002466 5.1835235208272925 4.7044844329357147 4.747545093297961 5.2071682214737001 6.2049856632947913 4.8820913881063444 7.6385849714279175 4.9879039824008942 7.9235518276691499 9.1415615826845151 7.9629510641098014 13.595037922263144 4.7163050919771186 4.7267734259366971 4.9046884775161743
leaf_count=26 22 39 31 106 20 44 33 83 26 31 22 36 59 23 48 28 20 35 20 71 33 40 48 31 32 21 40 22 21 25 37 36 24 25 22 21 20 32 57 26 35 37 21 38 52 20 46 22 20 20 22 26 21 32 21 34 39 34 59 20 20 21
internal_value=3.82277e-05 -0.00178941 -0.0204989 0.000971474 0.0164871 0.0246733 -0.0337325 -0.00341973 -0.0264862 -0.000553715 0.00642548 0.00106855 -0.0256371 0.034315 -0.0103016 -0.000913557 -0.0254046 0.00574046 0.0193001 0.00593802 -0.0263562 0.00978078 0.00911223 0.0226528 0.00453651 -0.00862301 -0.0268366 0.0194775 -0.0193474 -0.0106773 0.00474246 -0.0264143 -0.0362325 -0.0378996 -0.0242128 -0.0644716 -0.029694 -0.00452738 -0.0421024 -0.031215 0.0324545 0.0135885 0.0104197 0.0210754 0.037643 0.010339 0.00664869 -0.00995007 0.00518999 -0.000611996 -0.0118347 -0.00335965 0.011498 0.0298637 0.0380681 0.0276978 0.0170432 0.0275444 0.0499933 -0.00785239 0.012116 -0.00729861
internal_weight=496.434 471.304 60.6052 410.698 90.5951 77.8971 12.698 320.103 35.3772 284.726 165.927 146.511 22.5947 25.1299 118.799 73.2605 45.5386 13.0386 17.1708 123.916 13.177 110.739 52.586 31.2225 19.9244 26.0188 15.7866 10.2322 12.6586 21.3635 15.3955 20.6745 43.4344 32.5 21.4509 11.049 37.6432 12.431 25.2123 19.8956 67.3616 101.153 92.4165 47.0096 21.8812 9.72332 25.1284 16.1712 9.89186 45.4069 28.6804 23.9328 17.7278 12.5207 12.3634 59.2406 34.6595 25.518 18.9304 13.305 17.555 9.63146
internal_count=2096 1988 253 1735 386 333 53 1349 148 1201 701 618 95 108 500 309 191 55 72 523 55 468 222 132 84 109 66 43 53 90 65 87 181 136 90 46 157 52 105 83 289 428 391 199 93 41 106 68 42 192 121 101 75 53 52 254 148 109 82 56 75 41
is_linear=0
shrinkage=0.05


Tree=4
num_leaves=63
num_cat=0
split_feature=4 2 4 0 0 2 0 0 3 1 6 6 1 0 1 1 1 1 3 0 7 0 4 4 2 4 1 6 0 7 6 2 7 3 4 2 0 1 2 3 3 1 0 7 2 0 7 3 1 1 2 7 4 1 0 3 2 0 0 3 1 2
split_gain=22.8636 19.7492 15.5321 30.5039 13.3985 12.4665 12.1143 10.2044 15.1115 10.138 9.79908 8.09936 7.05545 8.47352 7.05393 6.60532 6.51837 6.43662 6.3323 8.59908 6.63557 6.2947 5.8801 5.86707 5.23775 7.21295 14.2023 5.5408 6.65931 8.9008 5.56621 5.07285 4.91798 5.70786 4.60279 3.96463 3.95694 3.93609 4.65405 4.11571 7.50089 3.91893 7.60596 6.60253 4.96463 4.55135 4.25759 3.88617 5.17259 3.83716 3.72542 3.36938 3.27083 4.17613 3.17331 4.97679 3.14755 3.1132 3.07383 3.11352 3.0578 3.0088
threshold=296.27654821664925 18414.085099472719 363.51730902931126 7.8121584167663514 6.494037065684922 19008.813163841598 7.3268709982168954 5.6091303563432877 6.8445370173942619 161.86141914974544 12.13201278514879 16.558202613758343 201.65126052764936 6.9003213422035232 201.84887611158396 170.83149224746407 222.49554460967724 204.7327400377865 7.4180736980552089 6.9308178239056142 61.794997057713054 7.0011222257346066 329.8775385841729 339.4473309408188 11800.828208186551 338.58363757760691 210.35818965076928 17.323013577654596 8.6512065447304085 60.346896206580972 18.410659737655809 11922.544286353988 65.083950662475289 7.038069583720941 283.54925307961361 20921.203012197813 6.7102277643784154 217.86165168083866 15707.000401668918 6.2839159130151794 6.5393548421121386 194.50986033317341 7.9173290193194523 68.692867951676718 19498.599287641267 7.2963053046836288 71.03411204368129 8.4246316781259267 151.38075213178635 208.78897129244845 15923.105852621558 67.404342100795972 394.32412943233925 187.89287976171843 7.7444517729326732 5.5746293952224937 24388.665478254083 4.937539147554884 7.2351306138262137 6.1938729346141459 204.35929106739789 22328.31606257856
decision_type=2 2 2 2 2 2 2 2 2 2 2 2 2 2 2 2 2 2 2 2 2 2 2 2 2 2 2 2 2 2 2 2 2 2 2 2 2 2 2 2 2 2 2 2 2 2 2 2 2 2 2 2 2 2 2 2 2 2 2 2 2 2
left_child=1 6 7 5 -3 16 -1 8 14 11 18 23 13 15 57 -7 31 58 19 22 -20 -22 -11 47 -12 27 -27 37 29 30 -29 -4 -33 -34 -19 -28 -31 39 -39 54 -41 42 44 45 -42 -43 -46 48 -9 -23 -10 -14 53 -5 55 -26 -38 -2 59 -6 -45 -40
right_child=2 4 3 52 17 12 -8 9 50 10 24 -13 51 -15 -16 -17 -18 34 20 -21 21 49 -24 -25 25 26 35 28 -30 36 -32 32 33 -35 -36 -37 56 38 61 40 41 43 -44 60 46 -47 -48 -49 -50 -51 -52 -53 -54 -55 -56 -57 -58 -59 -60 -61 -62 -63
leaf_value=0.049435744660761977 0.045349881111865241 0.0087749750331502212 -0.0025759381764102192 -0.0072203228480241582 -0.088109694245882317 -0.055929030524107463 -0.042453345438591972 -0.0021272186788279836 0.018750105641248432 0.016030562501241224 0.040963884241927408 0.020622848783171232 -0.017632039936267722 0.035123209119334454 -0.04605117305644825 0.013468018580656228 -0.099964251027131579 -0.058100346587376818 -0.059993190208641051 0.021021544693869888 0.036236931715590621 -0.005136500816723108 -0.054170870562600872 0.010988262763047908 -0.014433344006179131 0.049321361185484087 -0.041602613661658544 -0.018578564314506545 0.040908204210084675 -0.0058483903973185446 0.057554502864070038 -0.086718015552220154 0.0050985694962336322 -0.071115165678401676 -0.0021254620345728358 0.011005055107252911 -0.036901006460265721 -0.010721779773536227 0.056574164913229301 -0.057060262022894354 0.060806259581594461 -0.062240593406012068 -0.034226339545240923 0.044581237372187658 0.033849697868838763 -0.0036863070317750624 -0.02336167454272535 -0.089472947369885328 -0.067066395312518831 -0.061572990803145447 0.063434086197840731 -0.073854855214934095 0.069074215774311359 0.048123598050901613 0.054573104542009344 0.041363271359990302 -0.087072946872332121 -0.0072371446979877093 -0.099748012541869907 -0.036173016739454965 -0.0037730848828347527 0.020686663438673123
leaf_weight=10.739345490932466 5.6183172315359133 8.9793509989976865 5.7742228507995668 5.7918714880943325 5.478673070669176 7.3226354420185107 5.3855252712965003 5.7715307921171277 5.9331000149250057 4.6760307550430289 16.383254051208496 8.0910743176937086 5.3277144730091077 11.204890996217726 6.6144240200519553 6.4483660459518433 6.4652889966964713 8.8194741457700712 9.6443007439374941 26.45485657453537 5.4555472433567074 7.3840581327676755 8.2377565205097181 4.7969445884227744 8.2854613065719658 29.375594556331635 6.1168393790721884 4.9707388281822222 5.1187899559736243 5.6683377474546459 4.6435258239507675 7.6421274691820171 4.8837388157844526 4.9433033019304276 6.2932376861572257 8.6398784220218641 8.3352213948965055 6.4125290066003826 10.89701744914055 5.4149204790592185 8.5251308828592354 6.8996086865663546 5.6310139745473853 5.4220034182071677 8.6376244127750379 6.394249364733696 5.2154274731874457 4.849379673600196 6.5424991399049759 5.0865432918071747 21.816745400428772 5.3314896821975708 6.1442893147468558 8.2835448384284955 6.2163497656583777 7.7202645987272254 5.0019086003303519 5.6394206136465073 8.9705493152141553 6.0969400703907013 8.2354677170515043 12.586305439472197
leaf_count=47 24 38 24 25 22 30 22 24 26 20 70 34 22 48 28 27 26 36 40 112 23 31 34 20 35 126 26 21 22 24 20 31 20 20 26 37 35 27 47 23 37 29 24 23 37 27 22 20 27 21 96 22 27 36 27 33 21 24 36 25 35 54
internal_value=4.76636e-05 -0.0286817 0.00406143 -0.0150315 -0.0458141 -0.0316384 0.0187458 0.00873757 0.0307866 0.00542576 0.00845268 -0.0221413 -0.0116976 0.00283676 -0.00507075 -0.0234334 -0.055557 -0.0595603 -0.0081744 0.00469498 -0.026551 -0.00855898 -0.0287512 -0.0378973 0.0138361 0.0115014 0.0292178 0.00615462 -0.0116174 -0.0210118 0.0181924 -0.0432049 -0.0566343 -0.0332393 -0.0347913 -0.0108015 -0.040844 0.0114847 0.0270307 0.00585791 -0.000913368 0.00461844 0.0177153 -0.00899252 0.0307854 -0.0340764 0.0123106 -0.0515601 -0.0366297 -0.028156 0.0538804 -0.0457534 0.0386369 0.0253502 0.0242549 0.0124798 -0.0557173 0.0190071 -0.0777792 -0.0607544 0.0154235 0.0373396
internal_weight=495.687 60.7631 434.923 85.5635 44.6382 65.3438 16.1249 349.36 45.622 303.738 273.687 30.0514 35.6351 24.9759 17.8722 13.771 29.7087 35.6589 66.9391 39.3686 27.5704 17.9261 12.9138 21.9604 206.747 190.364 44.1323 146.232 33.7385 28.6197 9.61426 23.2434 17.4692 9.82704 15.1127 14.7567 19.0055 112.493 29.8959 82.5975 60.3754 54.9605 28.0092 26.9513 22.3782 13.2939 13.8531 17.1634 12.314 12.4706 27.7498 10.6592 20.2197 14.0754 22.2221 16.0057 13.3371 11.2577 20.5462 11.5756 13.6575 23.4833
internal_count=2096 252 1844 358 183 270 69 1486 198 1288 1163 125 149 105 76 57 121 145 281 166 115 75 54 91 882 812 189 623 143 121 41 95 71 40 62 63 80 480 128 352 257 234 120 114 96 56 59 71 51 52 122 44 88 61 95 68 56 48 83 47 58 101
is_linear=0
shrinkage=0.05


end of trees

feature_importances:
Column_0=57
Column_1=50
Column_3=45
Column_2=41
Column_4=34
Column_8=26
Column_6=22
Column_7=18
Column_5=17

parameters:
[boosting: gbdt]
[objective: binary]
[metric: custom]
[tree_learner: serial]
[device_type: cpu]
[data_sample_strategy: bagging]
[data: ]
[valid: ]
[num_iterations: 10000]
[learning_rate: 0.05]
[num_leaves: 63]
[num_threads: 0]
[seed: 1237]
[deterministic: 0]
[force_col_wise: 0]
[force_row_wise: 0]
[histogram_pool_size: -1]
[max_depth: -1]
[min_data_in_leaf: 20]
[min_sum_hessian_in_leaf: 0.001]
[bagging_fraction: 1]
[pos_bagging_fraction: 1]
[neg_bagging_fraction: 1]
[bagging_freq: 0]
[bagging_seed: 32458]
[bagging_by_query: 0]
[feature_fraction: 0.9]
[feature_fraction_bynode: 1]
[feature_fraction_seed: 15412]
[extra_trees: 0]
[extra_seed: 19498]
[early_stopping_round: 0]
[early_stopping_min_delta: 0]
[first_metric_only: 0]
[max_delta_step: 0]
[lambda_l1: 0]
[lambda_l2: 0]
[linear_lambda: 0]
[min_gain_to_split: 0]
[drop_rate: 0.1]
[max_drop: 50]
[skip_drop: 0.5]
[xgboost_dart_mode: 0]
[uniform_drop: 0]
[drop_seed: 818]
[top_rate: 0.2]
[other_rate: 0.1]
[min_data_per_group: 100]
[max_cat_threshold: 32]
[cat_l2: 10]
[cat_smooth: 10]
[max_cat_to_onehot: 4]
[top_k: 20]
[monotone_constraints: ]
[monotone_constraints_method: basic]
[monotone_penalty: 0]
[feature_contri: ]
[forcedsplits_filename: ]
[refit_decay_rate: 0.9]
[cegb_tradeoff: 1]
[cegb_penalty_split: 0]
[cegb_penalty_feature_lazy: ]
[cegb_penalty_feature_coupled: ]
[path_smooth: 0]
[interaction_constraints: ]
[verbosity: -1]
[saved_feature_importance_type: 0]
[use_quantized_grad: 0]
[num_grad_quant_bins: 4]
[quant_train_renew_leaf: 0]
[stochastic_rounding: 1]
[linear_tree: 0]
[max_bin: 255]
[max_bin_by_feature: ]
[min_data_in_bin: 3]
[bin_construct_sample_cnt: 200000]
[data_random_seed: 4078]
[is_enable_sparse: 1]
[enable_bundle: 1]
[use_missing: 1]
[zero_as_missing: 0]
[feature_pre_filter: 1]
[pre_partition: 0]
[two_round: 0]
[header: 0]
[label_column: ]
[weight_column: ]
[group_column: ]
[ignore_column: ]
[categorical_feature: ]
[forcedbins_filename: ]
[precise_float_parser: 0]
[parser_config_file: ]
[objective_seed: 21231]
[num_class: 1]
[is_unbalance: 0]
[scale_pos_weight: 1]
[sigmoid: 1]
[boost_from_average: 1]
[reg_sqrt: 0]
[alpha: 0.9]
[fair_c: 1]
[poisson_max_delta_step: 0.7]
[tweedie_variance_power: 1.5]
[lambdarank_truncation_level: 30]
[lambdarank_norm: 1]
[label_gain: ]
[lambdarank_position_bias_regularization: 0]
[eval_at: ]
[multi_error_top_k: 1]
[auc_mu_weights: ]
[num_machines: 1]
[local_listen_port: 12400]
[time_out: 120]
[machine_list_filename: ]
[machines: ]
[gpu_platform_id: -1]
[gpu_device_id: -1]
[gpu_use_dp: 0]
[num_gpu: 1]

end of parameters

pandas_categorical:null
