tree
version=v4
num_class=1
num_tree_per_iteration=1
label_index=0
max_feature_idx=8
objective=binary sigmoid:1
feature_names=Column_0 Column_1 Column_2 Column_3 Column_4 Column_5 Column_6 Column_7 Column_8
feature_infos=[0:13.999999999999998] [73.492233689061095:317.33812405558257] [320.94261127435902:61227.196007712133] [0.53035129469961539:13.127000000000002] [129.00000000000003:481.03064230599722] [181.483753985146:753.34261955830459] [2.1999999999999886:28.300000000000011] [8.1758763842742681:124] [1.45:6.7389999999999999]
tree_sizes=6437 6644 6636 6647 6652 6661 6664 6662 6667 6664

Tree=0
num_leaves=63
num_cat=0
split_feature=4 2 4 2 1 2 3 3 1 3 1 5 7 2 6 7 5 6 3 1 4 6 6 2 1 5 5 7 1 8 1 3 1 8 6 3 6 2 4 6 8 2 1 5 7 1 8 2 1 7 4 2 1 4 3 1 2 7 6 5 2 8
split_gain=33.0909 28.2016 21.6739 16.4999 11.2842 14.3968 10.7711 15.1187 8.55627 8.64572 7.96605 8.26776 7.82264 7.61272 7.49538 13.101 7.89691 7.15309 8.25356 6.94658 6.89931 6.86803 9.99508 6.68107 6.63552 5.88597 5.59202 7.68049 7.5015 6.09843 6.82301 6.17769 5.98753 5.87835 6.06253 7.78399 5.3624 5.26818 5.08566 9.38743 4.95814 5.12352 4.83572 6.3616 4.75734 4.73471 5.99503 4.7298 5.9794 4.68257 4.58983 6.31456 8.899 6.17844 5.87032 7.23723 8.60566 6.60179 6.10424 5.40682 6.81091 4.58647
threshold=296.27654821664925 18414.085099472719 363.51730902931126 21765.627444848171 217.86165168083866 12097.069192302255 5.7145215045638755 8.0878688617254699 145.12120399747477 6.3623228224983794 238.7440793661149 441.93468276361494 86.405868660652729 21893.481429603384 12.378728378505345 60.133230117118728 361.42643532372807 14.950187689444848 5.2053406265042677 227.39635381868743 369.88447451801005 16.618103464136656 11.93261762010866 15775.691282644357 173.60135655148417 485.63918983323009 347.73154423850207 85.814435748884137 210.35818965076928 4.557368180389842 220.98510750533305 5.5052765736462383 158.74593025873676 4.4116454949343664 16.577932800795825 7.8264479356336878 16.577932800795825 30589.570747183952 332.62644352226272 10.80961492087434 4.4515736993928474 14226.073222127192 170.83149224746407 447.03875101988996 74.696529490558518 195.82280050010758 4.0661931806348948 27418.389543691268 221.55257822992388 54.103683174285912 334.05378909161681 19744.820833656922 192.69113555102919 312.92503296445744 5.8607432020622872 192.37431002380382 30912.692160673516 70.68230290177398 17.619411710448194 442.54468701266831 31347.368079924639 4.4230776372661103
decision_type=2 2 2 2 2 2 2 2 2 2 2 2 2 2 2 2 2 2 2 2 2 2 2 2 2 2 2 2 2 2 2 2 2 2 2 2 2 2 2 2 2 2 2 2 2 2 2 2 2 2 2 2 2 2 2 2 2 2 2 2 2 2
left_child=1 -1 8 4 5 44 -3 24 9 -2 14 13 40 -12 15 16 -10 -5 -19 26 -20 22 -11 -13 -8 -25 27 28 -16 32 31 -31 36 49 35 -35 -28 -15 -17 -40 41 -7 -18 -44 -4 -45 -47 -26 -49 -34 51 52 53 -51 -53 56 57 -56 -57 -52 -61 -30
right_child=2 6 3 17 -6 12 7 -9 10 21 11 23 -14 37 19 38 42 18 20 -21 -22 -23 -24 25 47 -27 29 -29 61 30 -32 -33 33 34 -36 -37 -38 -39 39 -41 -42 -43 43 45 -46 46 -48 48 -50 50 59 54 -54 -55 55 58 -58 -59 -60 60 -62 -63
leaf_value=0.46920236380412722 0.33903081621222986 0.3505766170425218 0.49303727921425811 0.47758042617573337 0.36663456992143362 0.3641759359878205 0.37247382551376523 0.36017411692566248 0.3619631654475684 0.4806717967834383 0.49071875125847936 0.33609077143846844 0.48162298773965523 0.38174793733688001 0.45014109237460009 0.48431802878226982 0.37247382551376523 0.35495605873677044 0.38460151020553074 0.49509819295272806 0.47084282356919693 0.51102343547726869 0.37878022155348323 0.36196316544756835 0.47174117058340181 0.46006265939873864 0.39303816042588935 0.5080060211041979 0.42502712584474928 0.44004235451074475 0.40400580571235561 0.50010326917472658 0.48937810584187263 0.38220591816765109 0.48809108624193021 0.48809108624193021 0.47758042617573337 0.47280285341837114 0.47529550007438626 0.42759070147065092 0.36196316544756835 0.42502712584474928 0.47331934777051843 0.47280285341837119 0.41547198033002486 0.43816545092749531 0.34794895202597259 0.45655910604333971 0.37247382551376518 0.40400580571235567 0.5058783571231863 0.5145623782605 0.41802001913395137 0.49509819295272806 0.50385707634122534 0.49751443664610662 0.35495605873677044 0.41334861466008616 0.43055905219537915 0.47758042617573337 0.38298448557996201 0.33903081621222986
leaf_weight=16.411909818649292 2.616391420364379 11.416980743408201 8.0870280265808088 19.028301239013672 10.703419446945189 4.5192215442657568 3.805660247802737 11.17912697792053 4.7570753097534206 4.0435140132904035 7.6113204956054705 3.0920989513397199 3.0920989513397208 4.0435140132904053 26.877475500106812 18.55259370803833 2.8542451858520534 2.8542451858520499 3.0920989513397208 19.979716300964355 9.2762968540191633 2.616391420364379 5.9463441371917725 2.378537654876709 8.5627355575561541 4.2813677787780762 5.4706366062164289 4.5192215442657462 3.8056602478027335 4.994929075241088 2.3785376548767081 29.969574451446533 23.309669017791748 6.4220516681671125 3.5678064823150626 2.378537654876709 2.8542451858520508 2.6163914203643799 21.882546424865723 19.504008769989014 7.1356129646301261 14.746933460235594 8.800589323043825 2.6163914203643781 2.616391420364379 3.8056602478027344 3.5678064823150635 4.7570753097534162 3.8056602478027344 2.3785376548767116 12.368395805358888 6.4220516681671134 17.839032411575317 8.5627355575561506 3.8056602478027362 13.795518398284914 2.8542451858520499 4.2813677787780762 4.5192215442657462 9.5141506195068342 2.3785376548767081 2.6163914203643799
leaf_count=69 11 48 34 80 45 19 16 47 20 17 32 13 13 17 113 78 12 12 13 84 39 11 25 10 36 18 23 19 16 21 10 126 98 27 15 10 12 11 92 82 30 62 37 11 11 16 15 20 16 10 52 27 75 36 16 58 12 18 19 40 10 11
internal_value=0.448195 0.413349 0.452957 0.430312 0.412257 0.424405 0.392289 0.40712 0.458412 0.421743 0.460063 0.432312 0.406379 0.456559 0.462184 0.449639 0.420293 0.457143 0.431596 0.466938 0.449282 0.438909 0.420022 0.396828 0.432193 0.425027 0.464232 0.446842 0.438541 0.468099 0.485949 0.491523 0.463076 0.465824 0.433112 0.410824 0.422024 0.41752 0.462565 0.452814 0.397567 0.410753 0.433112 0.442323 0.474077 0.415017 0.394512 0.445465 0.419188 0.469435 0.464196 0.457218 0.439794 0.475296 0.471274 0.461772 0.429597 0.455941 0.480993 0.482733 0.458661 0.389992
internal_weight=498.541 59.9391 438.602 85.1516 50.9007 40.1973 43.5272 32.1103 353.451 15.2226 338.228 24.0232 29.4939 14.2712 314.205 86.3409 26.4018 34.2509 15.2226 227.864 12.3684 12.6062 9.98986 9.752 20.9311 6.65991 207.884 37.8187 33.2995 170.065 37.343 34.9645 132.722 124.398 12.3684 8.80059 8.32488 6.65991 59.9391 41.3866 26.4018 19.2662 21.6447 18.7904 10.7034 9.98986 7.37347 17.1255 8.56274 112.029 88.7195 64.4584 28.7803 10.9413 35.6781 29.256 10.9413 8.08703 18.3147 24.2611 11.8927 6.42205
internal_count=2096 252 1844 358 214 169 183 135 1486 64 1422 101 124 60 1321 363 111 144 64 958 52 53 42 41 88 28 874 159 140 715 157 147 558 523 52 37 35 28 252 174 111 81 91 79 45 42 31 72 36 471 373 271 121 46 150 123 46 34 77 102 50 27
is_linear=0
shrinkage=1


Tree=1
num_leaves=63
num_cat=0
split_feature=4 0 4 0 2 2 0 1 0 3 3 6 4 1 1 1 7 1 7 0 3 1 6 5 2 0 2 3 7 6 6 1 6 5 2 1 4 2 7 3 7 7 3 1 1 3 0 2 6 7 6 2 0 3 1 5 0 2 2 1 2 3
split_gain=29.6796 27.2304 19.5547 40.8418 17.9495 15.6666 13.7978 14.021 12.02 11.7629 10.786 10.1829 10.0334 9.76199 7.86526 7.86489 7.42801 8.0842 7.35107 7.35055 10.8456 9.32278 7.65844 6.95527 6.40223 6.70528 6.00128 5.63795 10.2538 5.45993 6.28295 5.04921 5.57727 5.02047 5.48877 4.89578 4.80803 5.77131 6.58411 6.86369 4.70818 4.72643 4.68857 4.40531 7.66187 4.34011 7.2323 6.64822 5.185 4.92267 5.24988 4.28847 4.0856 7.13234 3.97539 3.69474 3.64598 9.59353 7.49955 21.1157 10.6044 7.09701
threshold=296.27654821664925 6.6542146867728702 363.51730902931126 7.7550193104860066 17165.02761184466 19008.813163841598 5.2108308321489618 143.36577527003615 7.9309494901927637 9.3391245146213269 6.4755535745465709 12.378728378505345 323.5363042889748 204.7327400377865 200.97161195451051 222.49554460967724 60.133230117118728 223.71269802326466 76.339414294047927 6.9003213422035232 5.8857748265781922 176.35297760779432 13.272012732826143 329.60751538207177 23256.511034214782 7.0971463225835807 11922.544286353988 6.6547493293203228 67.304132236872263 16.618103464136656 11.93261762010866 161.86141914974544 16.558202613758343 361.42643532372807 13159.368307211533 153.89490857685698 259.1637027402017 21834.484552426573 62.969894059439078 7.0066467381458004 81.388755572713052 71.827452359338139 5.8182513192616705 170.83149224746407 201.65126052764936 8.4098618874036006 7.0446712072460871 31042.811337187322 10.839022174700888 77.93596298662986 11.585082929108326 21893.481429603384 7.4963714437828299 7.4301620315649926 183.45034600818943 477.11344080953899 7.9976330383382193 27686.491114807104 18171.94629622647 192.37431002380382 11800.828208186551 8.630549790255662
decision_type=2 2 2 2 2 2 2 2 2 2 2 2 2 2 2 2 2 2 2 2 2 2 2 2 2 2 2 2 2 2 2 2 2 2 2 2 2 2 2 2 2 2 2 2 2 2 2 2 2 2 2 2 2 2 2 2 2 2 2 2 2 2
left_child=1 18 6 5 8 15 10 29 -3 -5 12 16 -2 -6 -14 26 33 45 42 20 -7 -21 -23 24 40 -26 -4 28 -28 30 -8 32 35 -9 -35 -25 -15 -38 -39 -40 41 -13 -1 -22 -45 47 -47 49 -49 -18 54 -19 55 -54 -51 -36 58 61 59 -33 -61 -58
right_child=2 4 3 9 13 19 7 11 -10 -11 -12 23 14 36 -16 -17 17 51 -20 21 43 22 -24 31 25 -27 27 -29 -30 -31 -32 56 -34 34 52 -37 37 38 39 -41 -42 -43 -44 44 -46 46 -48 48 -50 50 -52 -53 53 -55 -56 -57 57 -59 -60 60 -62 -63
leaf_value=-0.021190644586978377 0.080732028004258091 0.043558802773175004 -0.0065137258659454444 0.052594529907191212 -0.094215862463697786 -0.11099299558124075 -0.016377499243130565 -0.073006783565699923 -0.087693732300435118 -0.064843809993667609 0.06081261448655554 0.0079359377955622278 0.0040709006983107466 -0.093300370344576083 -0.10844332235326488 -0.11418981256722167 0.041013972950078498 -0.010108217575326227 -0.031609497593344131 0.058042513923217715 -0.049714224671213232 0.03231509084748331 -0.057628104868453413 0.0022760894519719974 0.0068620039609235328 -0.085620186226608802 -0.093850162361093004 -0.089709773153139799 0.027529023411211908 0.018418392348946253 -0.10302660752013021 0.042705768979812347 0.030440574661922577 0.046888838117861681 0.017016157845849447 -0.072130978481304606 -0.081465533919434938 -0.062338297671424264 0.08241550089383734 -0.029283784843790781 0.048961558993293186 -0.06921954838079146 0.056866796445700078 0.043648593811470071 -0.058219033139111968 0.036452824715289066 -0.058789724745731714 -0.088441713389003127 0.011730555677082002 0.064981390198996389 -0.064985264964276854 -0.076706564001741195 -0.01021554591646885 -0.11022146803982316 -0.0030582548612178226 -0.041463764640384967 0.048620150661576739 -0.013302599007708769 0.02331473599499621 0.035268339620860706 -0.042255927996627009 -0.017830585433988033
leaf_weight=2.3950688391923931 2.5923120230436343 6.6284435987472516 5.6848181188106599 20.440985471010212 19.049506574869156 3.8486479222774532 3.5620312392711622 5.0752729475498226 2.3673012852668762 2.3805565237998954 21.794767186045647 8.0928440839052218 4.5083096921443939 3.3775735795497885 2.3696498572826385 6.2863682806491843 22.27111428976059 5.9542144238948804 4.7908170521259299 6.1930598169565192 5.7014089673757544 4.0384725332260114 5.7172058820724487 4.3183242827653867 3.3294825255870801 4.7647440582513809 3.3727875798940685 10.094186961650847 3.5940141230821609 2.3693984746932975 5.069519892334938 16.996545553207397 4.9548567831516257 2.8520114421844509 6.1749007254838961 4.5296023339033127 3.3466206490993491 3.1036128401756269 2.8608433604240417 2.6485290229320526 4.7153295874595633 2.6299384683370581 9.7761362642049772 5.2282112687826139 2.8532459437847137 3.3216234594583494 4.983952671289444 2.3614517599344245 2.8518579751253128 3.0761738419532758 2.3800691813230506 4.0691639333963394 3.8016814291477194 3.3573904484510422 7.1059820502996445 4.8007881939411163 36.685272023081779 9.9772077202796918 91.517773002386093 5.4403161853551891 23.317618891596794 4.5122708678245536
leaf_count=10 11 28 24 86 79 16 15 21 10 10 92 34 19 14 10 26 94 25 20 26 24 17 24 18 14 20 14 42 15 10 21 72 21 12 26 19 14 13 12 11 20 11 41 22 12 14 21 10 12 13 10 17 16 14 30 20 155 42 387 23 98 19
internal_value=1.38556e-05 -0.0328598 0.00454378 -0.0169174 -0.0538618 -0.0377887 0.00974545 0.0066592 0.00901866 0.0403443 0.041454 0.00862635 -0.00309782 -0.0703116 -0.0346934 -0.0646873 -0.00618679 0.00372214 0.0208554 -0.0145333 -0.0367821 0.010063 -0.0203951 0.0141661 -0.0115611 -0.0475785 -0.051006 -0.0658311 -0.0312334 -0.0488132 -0.0672686 0.0171596 -0.0120314 -0.0283815 -0.0175897 -0.0358158 -0.0406214 -0.0257441 -0.00409324 0.0287181 0.00732285 -0.0109877 0.0415065 -0.0160598 0.00768313 0.0121939 -0.0206997 0.0190159 -0.0336441 0.0268972 0.00187011 -0.037145 -0.0277301 -0.0571153 0.0174975 -0.00856308 0.0192977 0.0306883 0.0150513 -0.00147715 -0.0275902 0.041342
internal_weight=498.264 60.3445 437.92 85.434 43.3824 62.6124 352.486 321.221 8.99574 22.8215 31.265 310.22 9.47027 34.3867 6.87796 29.0322 84.4376 58.3756 16.962 33.5803 17.6315 15.9487 9.75568 225.782 23.5323 8.09423 22.7458 17.061 6.9668 11.0009 8.63155 202.25 13.8028 26.062 20.9868 8.84793 15.3372 11.9596 8.61299 5.50937 15.4381 10.7228 12.1712 13.7829 8.08146 48.3522 8.30558 40.0466 5.21331 34.8333 12.5622 10.0234 18.1348 7.15907 10.1822 10.9757 188.447 51.1748 137.272 45.7545 28.7579 41.1975
internal_count=2096 252 1844 358 181 262 1486 1354 38 96 132 1308 40 143 29 121 355 246 71 141 74 67 41 953 99 34 95 71 29 46 36 854 58 109 88 37 64 50 36 23 65 45 51 58 34 204 35 169 22 147 53 42 76 30 43 46 796 216 580 193 121 174
is_linear=0
shrinkage=0.05


Tree=2
num_leaves=63
num_cat=0
split_feature=4 0 4 0 2 2 0 1 0 6 1 8 8 1 1 0 1 1 0 1 1 7 4 5 2 2 7 6 1 7 0 6 1 0 2 1 5 7 6 5 1 6 6 0 7 5 0 2 8 4 5 2 5 8 7 4 5 1 0 6 8 4
split_gain=26.6625 24.3007 17.6455 36.8051 15.879 14.7438 12.6417 12.584 10.7703 9.22395 8.51205 8.43912 8.18131 8.50964 7.5557 10.0073 7.2483 7.18705 7.09515 6.8561 6.85566 6.7114 6.94536 6.70237 10.0263 6.69168 6.68454 6.25407 10.6576 6.48973 7.52686 6.205 5.8567 5.6925 6.64513 5.37768 5.19278 4.95618 6.46802 4.91111 4.85058 4.84329 5.50208 4.8273 4.62104 5.14576 6.9203 4.68509 4.58601 4.72944 4.46406 4.42659 5.71124 4.35088 4.32715 4.3191 4.22585 6.68468 4.16953 4.14874 5.03895 4.10783
threshold=296.27654821664925 6.6542146867728702 363.51730902931126 7.8121584167663514 17165.02761184466 19008.813163841598 5.2108308321489618 143.36577527003615 7.9309494901927637 12.378728378505345 204.7327400377865 4.5670668341258525 4.4810162752888294 257.62681102267294 201.65126052764936 6.9003213422035232 222.07781768799768 170.83149224746407 8.7207455210818861 161.86141914974544 222.49554460967724 53.320894754454692 332.62644352226272 361.42643532372807 26158.284849533014 31554.980996952861 76.339414294047927 10.941122212138085 231.98593811386937 65.361958491513491 7.8937273776355665 13.272012732826143 191.49699234624751 7.3268709982168954 10218.262387729394 163.0368327878866 430.29587778567264 66.617005089647549 14.392326273710639 362.23970736295104 197.25167246737027 16.618103464136656 11.93261762010866 6.6301226136697728 42.739188116401571 330.30434900209895 7.1169065058700989 25000.149134044335 3.538712531272084 285.03896213948809 337.9155432154385 24584.27357785654 395.4056830288817 4.6001183613276888 72.116082096424947 312.92503296445744 477.11344080953899 196.65438458422537 6.3099895956227998 9.9540731949806815 4.1621223905429057 353.12284808605335
decision_type=2 2 2 2 2 2 2 2 2 2 2 2 2 2 2 2 2 2 2 2 2 2 2 2 2 2 2 2 2 2 2 2 2 2 2 2 2 2 2 2 2 2 2 2 2 2 2 2 2 2 2 2 2 2 2 2 2 2 2 2 2 2
left_child=1 26 6 5 8 20 16 41 -3 21 -6 12 13 19 15 17 -2 35 23 37 33 25 58 24 32 39 53 28 61 36 40 -16 -13 34 -4 -7 -29 38 -11 -9 -31 42 -8 -25 -21 46 54 -48 -12 -50 -47 52 -14 -1 -46 -45 57 -41 -23 -60 -61 -24
right_child=2 4 3 -5 10 14 7 9 -10 11 48 18 51 -15 31 -17 -18 -19 -20 44 -22 22 27 43 -26 -27 -28 29 -30 30 -32 -33 -34 -35 -36 -37 -38 -39 -40 56 -42 -43 -44 55 45 50 47 -49 49 -51 -52 -53 -54 -55 -56 -57 -58 -59 59 60 -62 -63
leaf_value=0.058320560789720956 0.049785723307204169 0.041828280847588578 0.039294577972080511 0.042020839554784029 -0.088093113763672695 -0.030329027930488646 -0.015501699413263443 -0.079623689916252655 -0.081751387671001152 -0.053938450869775591 -0.0029961371986068149 0.080351903516081222 -0.064706124409413077 -0.062814096436656544 0.0080657081295958995 0.036855968240681637 -0.018931497911812263 0.011837790464207625 0.080423539701547947 0.047581959606909627 -0.10654290733815118 0.062743264305999441 0.02794683057205043 0.064654516983548446 -0.090223583839232235 -0.10407226462282866 -0.029839578811085482 -0.1117382921456762 -0.070586097058801436 0.040057092447928988 -0.07173903509709488 -0.074301171663666482 -0.0159967149864144 -0.12043741317962071 -0.04972950323009355 -0.12172480054345165 -0.021514055432058938 -0.06311737716313158 0.044083261008204658 -0.041333378983585758 -0.026677318712861942 0.017573415921251466 -0.096227901246562525 0.080148561401910512 -0.01631941888907577 0.061858139795589032 -0.018612747753073838 -0.10226082638792298 -0.086208230325569485 -0.013862435837808953 0.014546213062581359 -0.071761573995218264 0.036764107400814365 -0.0089532652284836488 0.064686482559531661 0.013733055318253418 -0.044043598840125847 0.066781174029900289 -0.028441397992445411 0.056952369367673818 -0.013431225943017953 -0.03036673700125523
leaf_weight=8.7410708367824572 26.452625840902332 6.5593194365501386 2.3698891401290991 20.706566840410233 19.346540629863739 4.8122290074825305 3.5747732967138273 2.6933861672878256 2.4111939966678619 2.8936159163713437 5.7621390074491492 2.5832621902227384 2.3795013725757581 3.7992847412824622 3.3418112546205503 11.327779307961462 4.4886354506015769 6.4048260450363159 6.5794446468353263 10.588985741138456 6.3975316882133475 5.4298506379127529 19.812927126884468 9.8326615393161791 2.8781800419092178 2.9042225033044806 4.8204388320446006 3.5898995995521572 3.8635205626487723 5.9482603073120099 3.8514050096273413 7.2408433556556702 4.0501415431499481 2.4261479973793021 18.149663046002388 2.4182662516832352 2.8694672584533691 4.7851603329181671 4.022327721118927 2.3989703208208066 5.0216639488935471 2.3594190180301657 5.1539365351200104 2.8148264586925533 3.5653718411922437 5.1979736238718024 4.4983521401882172 2.6660936325788498 6.0825969725847226 3.593719869852066 122.10607495903969 4.5339012891054153 3.323773980140686 3.3148149847984305 3.0664548724889755 18.778925523161888 3.8712072968482971 3.5386962741613388 4.5204091370105735 6.3517663627862913 4.2407360076904297 3.5631712824106208
leaf_count=37 113 28 10 88 79 20 15 11 10 12 24 11 10 16 14 48 19 27 28 45 26 23 84 42 12 12 20 15 16 25 16 30 17 10 75 10 12 20 17 10 21 10 21 12 15 22 19 11 25 15 518 19 14 14 13 80 16 15 19 27 18 15
internal_value=2.75686e-05 -0.0310437 0.00433819 -0.0160195 -0.0507022 -0.0345406 0.0092964 0.00634995 0.00861117 0.00822547 -0.0659982 0.0135157 0.00850381 0.0111606 -0.0128861 0.00212322 0.0398169 -0.0267316 0.0322296 0.0128807 -0.0607725 -0.00586242 0.000794227 0.0244839 -0.0122901 -0.0357023 0.0199253 -0.00952298 0.00634355 -0.0298324 -0.0116043 -0.0482912 0.0215246 -0.0480111 -0.0394477 -0.0608967 -0.0716577 -0.0239966 0.00307119 -0.0198203 0.00950831 -0.0459865 -0.0631671 0.0356141 0.0157254 0.0133347 -0.0156702 -0.0497406 -0.0383103 -0.0593395 0.016478 -0.0348859 -0.00557096 0.0398233 0.0211365 0.0223906 -0.00339908 0.0231001 0.0251626 0.0116604 0.0287741 0.0190582
internal_weight=497.671 60.6318 437.039 85.5956 43.7555 64.889 351.443 320.502 8.97051 309.414 34.785 224.944 177.427 167.19 35.5458 24.9631 30.9413 13.6353 47.5174 163.39 29.3432 84.4696 69.0631 40.938 9.51158 15.4065 16.8763 48.5203 27.2396 21.2807 14.8213 10.5827 6.6334 22.9457 20.5196 7.2305 6.45937 11.7011 6.91594 12.5023 10.9699 11.0881 8.72871 31.4264 151.689 141.1 13.7963 7.16445 15.4385 9.67632 127.304 10.2372 5.70328 12.0559 6.63183 21.5938 9.80887 5.93767 20.5428 15.1129 10.5925 23.3761
internal_count=2096 252 1844 358 181 270 1486 1354 38 1308 143 953 751 708 149 105 132 57 202 692 121 355 291 174 40 64 71 204 115 89 62 44 28 95 85 30 27 49 29 52 46 46 36 134 643 598 58 30 64 40 540 43 24 51 28 92 41 25 87 64 45 99
is_linear=0
shrinkage=0.05


Tree=3
num_leaves=63
num_cat=0
split_feature=4 0 4 0 2 2 0 1 3 3 0 4 6 8 1 8 3 1 1 0 1 7 1 7 4 0 3 1 7 2 0 6 1 3 0 0 2 2 1 7 6 3 0 6 6 7 4 8 4 7 0 1 7 1 3 8 1 3 6 4 6 3
split_gain=24.0075 21.7632 15.9449 33.2537 14.1112 12.3025 11.5745 11.3218 10.8298 10.0325 9.682 9.26285 8.35597 7.73931 7.51749 7.36161 7.79452 7.61767 6.66963 6.63979 6.19583 6.08138 6.08037 6.02619 6.30618 6.00605 9.46757 8.02174 6.48671 5.88672 5.50655 5.22089 9.54345 5.21449 5.00134 4.98802 5.9491 4.50785 5.58359 4.39942 5.83883 4.38641 4.32919 4.31796 4.87361 4.25412 4.13159 4.07769 4.17596 3.9652 6.87303 5.46284 4.02092 3.88221 3.95665 3.84451 6.13815 4.69626 3.78695 6.90448 8.04453 3.88735
threshold=296.27654821664925 6.6542146867728702 363.51730902931126 7.7550193104860066 17165.02761184466 19008.813163841598 5.2108308321489618 143.36577527003615 9.3391245146213269 6.4755535745465709 7.9309494901927637 323.5363042889748 12.378728378505345 4.5670668341258525 204.7327400377865 4.4810162752888294 7.1253445604104124 257.62681102267294 200.97161195451051 8.7207455210818861 161.86141914974544 76.339414294047927 222.49554460967724 53.320894754454692 329.8775385841729 6.9003213422035232 5.8857748265781922 176.35297760779432 73.673274060920889 31554.980996952861 6.6301226136697728 10.941122212138085 231.98593811386937 5.6607552597322366 6.3099895956227998 7.3268709982168954 10218.262387729394 29739.12673586054 196.48298337439525 66.617005089647549 14.392326273710639 5.8182513192616705 6.9680351783722658 16.618103464136656 11.93261762010866 42.739188116401571 336.47182900037916 3.538712531272084 285.03896213948809 65.766312772959694 7.7994374825550841 207.09052878022459 71.272349248838978 147.94247618686521 6.4418845288974493 4.3343688889831222 183.45034600818943 6.6547493293203228 11.433352852413039 324.04327026116187 9.9540731949806815 7.0471210644899545
decision_type=2 2 2 2 2 2 2 2 2 2 2 2 2 2 2 2 2 2 2 2 2 2 2 2 2 2 2 2 2 2 2 2 2 2 2 2 2 2 2 2 2 2 2 2 2 2 2 2 2 2 2 2 2 2 2 2 2 2 2 2 2 2
left_child=1 21 6 5 10 22 9 43 -5 11 -3 -2 23 15 -6 17 46 20 -13 30 39 41 35 29 34 26 -7 -27 -29 -9 -15 32 55 -33 -25 36 -4 42 -39 40 -14 -1 -32 44 -8 -22 -17 -16 -49 -35 51 52 -51 -38 -55 57 -57 -26 59 60 -36 -60
right_child=2 4 3 8 14 25 7 12 -10 -11 -12 18 13 19 47 16 -18 -19 -20 -21 45 -23 -24 24 31 27 -28 28 -30 -31 37 33 -34 49 58 -37 53 38 -40 -41 -42 -43 -44 -45 -46 -47 -48 48 -50 50 -52 -53 -54 54 -56 56 -58 -59 61 -61 -62 -63
leaf_value=-0.022481498628627031 0.077326416051981858 0.040183846683455871 0.037687675455054498 0.049206440045672178 -0.082786607360986045 -0.101440513243356 -0.014677380117019715 -0.018791257754576036 -0.063360272402729984 0.057257871347364486 -0.076571271380707129 0.0014127985497320019 -0.050750854423013206 0.052644292841031198 -0.0028446320358772028 -0.10694141311672273 0.016241486992657844 -0.058884824220790548 -0.1017836063353585 0.078074999638629516 0.045761984777673397 -0.028191516086772946 -0.10012080935011661 0.069212596588363304 0.070424125938140819 0.054570087449999471 -0.013586919720479821 0.0060979728384418846 -0.085537051926746752 -0.097312156680221598 -0.0170025340320041 0.034231537965151874 -0.066262654696341503 -0.067396669652364363 -0.10518368955971301 -0.11246155014730536 -0.090989202187836349 -0.086851390535395728 0.015402353298680456 -0.059233806619012952 0.042335854778851503 0.053353078989174796 0.033213672937253601 0.016766440300202256 -0.090414078900521722 0.012714800962868903 -0.021118654178553686 -0.080906873363307652 -0.013132744952077001 0.080302715903892985 -0.078038578970367756 -0.054668403110787737 -0.0012180224045921289 0.0049488894633896901 -0.052124459024024176 0.058884583315740896 -0.036735230311329574 0.012802629586320349 -0.0058677083372733812 0.060235261631141061 0.014060900601449714 0.079898852853860267
leaf_weight=2.3822009265422848 2.5117779076099414 6.4881888031959516 2.3479534238576987 19.994750887155536 19.551522925496101 3.9351768791675594 3.5864542722702009 12.51670855283737 2.392336666584014 21.239740744233131 2.4446713924407959 4.4511263370513916 2.9208515137433988 11.552873149514197 5.7654911428689948 3.3850473761558515 4.5243114978075027 3.8488135486841193 2.415322944521904 6.4419591873884192 10.462845802307127 4.8464309424161902 6.4655303359031668 4.8885303288698223 5.3747646659612718 6.0545045584440222 13.893880262970923 7.1566072851419431 2.6450512260198593 2.9494016468524924 5.6319033056497636 3.0959333628416088 3.9085841774940482 6.5376937538385418 2.6451904028654081 2.4671301841735831 3.9160237312316921 2.3702637851238242 3.0567451119422913 4.8423847854137421 3.9800188094377518 9.5558864474296552 18.040083512663841 2.3495867401361457 5.2094980031251907 140.61784099042416 2.3941889256238937 6.1550711542367917 3.6034674644470215 2.3482405543327314 3.6509931683540335 2.8873398452997208 4.2507092654705048 4.3564185053110114 10.024116799235342 2.342714458703993 5.9182291179895401 10.336572676897047 2.3361575454473487 2.3651017844676971 3.0396698415279388 3.0408655107021332
leaf_count=10 11 28 10 86 79 16 15 52 10 92 10 19 12 50 24 14 19 16 10 28 45 20 26 21 23 26 58 30 11 12 24 13 16 27 11 10 16 10 13 20 17 41 77 10 21 598 10 25 15 10 15 12 18 18 41 10 25 44 10 10 13 13
internal_value=3.81517e-05 -0.0293971 0.00414319 -0.015195 -0.0478724 -0.0337284 0.00887189 0.00605887 0.0371773 0.0382396 0.00823127 -0.004833 0.00784746 0.0128988 -0.0621606 0.00810526 -0.0329093 0.0106407 -0.0348873 0.0309125 0.0122842 0.0190445 -0.057259 -0.00555773 0.000767888 -0.0130673 -0.0329777 0.0093204 -0.0186304 -0.0337653 0.0234389 -0.00832379 0.00618336 -0.0260864 0.025911 -0.0452684 -0.0372384 0.0118437 -0.0292573 -0.0226999 0.00293612 0.0382206 0.0212665 -0.0434486 -0.0595333 0.0150034 -0.0713873 -0.0361834 -0.0558804 -0.0355777 -0.0197432 0.00269298 0.0277912 -0.0468535 -0.0348347 0.0179954 -0.00961848 0.0325146 0.0101457 -0.0115563 -0.0414241 0.0426358
internal_weight=496.709 60.7929 435.917 85.6495 44.0084 63.2624 350.267 319.649 22.3871 30.618 8.93286 9.37823 308.504 224.07 35.0756 176.976 10.3035 166.673 6.86645 47.0938 162.824 16.7845 29.5772 84.4334 68.9673 33.6852 17.8291 15.8562 9.80166 15.4661 40.6519 50.6518 27.8809 22.7709 18.3155 23.1116 20.6445 29.099 5.42701 11.7433 6.90087 11.9381 23.672 11.1455 8.79595 151.081 5.77924 15.524 9.75854 19.675 13.1373 9.48629 6.59895 18.2966 14.3805 23.9723 8.26094 15.7113 13.427 8.04996 5.68486 5.37702
internal_count=2096 252 1844 358 181 262 1486 1354 96 132 38 40 1308 953 143 751 43 708 29 202 692 71 121 355 291 141 74 67 41 64 174 213 118 95 78 95 85 124 23 49 29 51 101 46 36 643 24 64 40 82 55 40 28 75 59 102 35 67 57 34 24 23
is_linear=0
shrinkage=0.05


Tree=4
num_leaves=63
num_cat=0
split_feature=4 0 4 0 0 1 1 3 4 6 8 0 0 7 4 1 7 1 3 3 0 3 3 4 0 7 4 7 5 0 0 3 6 1 3 0 8 7 1 3 8 8 0 3 5 1 5 6 6 6 1 8 6 7 5 5 3 3 1 6 1 5
split_gain=21.6628 19.5523 14.4228 30.248 10.6288 10.2059 9.34336 9.27551 8.4799 7.5657 7.14376 7.12073 7.51357 6.99785 6.4534 8.52248 6.05181 5.88601 5.79709 5.55275 5.50117 8.4538 6.94168 6.11541 5.46524 5.41255 5.73329 5.39162 5.26714 5.23302 5.18392 4.74963 4.69537 8.57191 4.69009 4.64313 4.56093 4.68584 4.89563 4.50179 5.26545 8.56401 4.4125 4.23391 4.21067 4.93201 5.54217 4.131 4.11893 4.11839 4.59025 3.94587 3.90181 4.79065 7.34658 6.31388 5.01656 4.59621 3.88384 8.37939 4.77745 5.50019
threshold=296.27654821664925 6.6542146867728702 363.51730902931126 7.8121584167663514 5.2108308321489618 143.36577527003615 217.86165168083866 6.4755535745465709 323.5363042889748 12.378728378505345 4.590020300931644 8.1691903385348947 6.6301226136697728 48.379586039416452 257.74916656905299 218.99986733002609 62.969894059439078 200.97161195451051 9.2965758156118969 5.68741362185383 6.7745178127675638 5.6339846997011991 8.9869135375010334 375.71015804650818 6.2768790416736344 53.320894754454692 329.8775385841729 77.566206396116925 330.30434900209895 8.7207455210818861 7.0971463225835807 7.4726596371332485 10.941122212138085 231.98593811386937 5.6607552597322366 6.3099895956227998 3.7284668622381072 55.662949283378971 161.86141914974544 8.4246316781259267 4.073319775807696 3.4077591100386981 7.0446712072460871 8.3611780246418714 362.23970736295104 177.46539867849813 477.11344080953899 14.573494661733152 14.023690841162621 11.094006546714812 169.73819700488002 4.6001183613276888 18.04776788985254 66.617005089647549 424.27199643940054 484.59725111450376 7.3788709807202819 8.1778557906817113 246.12559739754104 15.432340755202718 227.39635381868743 442.54468701266831
decision_type=2 2 2 2 2 2 2 2 2 2 2 2 2 2 2 2 2 2 2 2 2 2 2 2 2 2 2 2 2 2 2 2 2 2 2 2 2 2 2 2 2 2 2 2 2 2 2 2 2 2 2 2 2 2 2 2 2 2 2 2 2 2
left_child=1 19 4 6 7 -6 13 8 -2 25 28 12 -12 -4 -3 29 -17 -10 -5 -1 21 -15 49 24 -23 44 35 51 30 39 47 -32 33 -28 -34 -27 37 -30 -39 40 41 -16 -8 -25 -7 -46 -47 -11 -18 -22 -51 -21 53 54 -14 -56 -55 -58 60 -60 -38 -62
right_child=2 14 3 18 5 9 42 -9 17 10 11 -13 52 20 15 16 48 -19 -20 27 22 23 -24 43 -26 26 32 -29 36 -31 31 -33 34 -35 -36 -37 58 38 -40 -41 -42 -43 -44 -45 45 46 -48 -49 -50 50 -52 -53 -54 56 55 -57 57 -59 59 -61 61 -63
leaf_value=-0.041596662547876521 0.075294526287551566 -0.082772678066943273 -0.069655038068590774 0.049258167239762111 -0.041150904790857694 -0.080432386507753723 -0.089419551997859614 0.055324203464427193 0.0013426443639647564 -0.023829649341470124 0.05714428425928525 0.071093763354601519 -0.092111552707334302 -0.10943445713115525 -0.056927569824523322 -0.051273689944949234 0.068500043456151571 -0.095103749795342668 -0.030267409277262347 0.070517672252796579 0.079675043411578578 0.058721494356173992 -0.056317769441542077 -0.024673148829633229 -0.037082760355268883 0.067051559736626853 0.017194976556706366 -0.025076622875398299 0.040634971833881151 -0.10885818769384537 -0.020896859848237859 -0.10164951023733722 0.032771547518844472 -0.062390819788445066 -0.033629658102332483 0.009704944828728107 0.00102522395992978 -0.05081386869363478 0.015644573302327464 -0.094565278293827659 -0.067065527826739676 0.032778049206860387 -0.03536297047640119 -0.097949903413637976 -0.077427898702203179 0.030128631009358538 -0.048691130483746126 0.044247316062262482 -0.007470000726590733 0.041103648356564132 -0.01436633372293818 0.0042184604731840079 0.05325409150770645 0.045072254886356765 0.04911072597042565 -0.055567153551378118 -0.063320063296034249 0.027191075223134728 0.024797854007237715 -0.10113811027247432 0.079418757122210235 0.00062026613487474469
leaf_weight=3.1479990631341961 2.4520922899246234 9.1264252215623838 6.3364180922508231 17.633484005928043 11.177375465631483 3.4737537801265708 8.4378253668546659 20.891886830329895 4.4495543539524078 4.7380579411983508 10.011558145284651 8.617867559194563 3.1162192374467903 2.9714884161949184 5.1226636469364255 3.6229200661182386 3.3480861186981201 2.4546174705028534 2.6338761001825324 7.0926455259323102 2.3297964334487977 3.8488227576017406 3.853917956352233 10.404336676001547 2.4274803847074509 4.7961270958185223 23.850194260478023 3.1578113436698905 19.497467637062073 3.4703922718763343 5.7457794696092588 2.6656887233257294 3.0727643966674831 3.9426447153091422 19.763907536864281 13.367130011320112 70.070338889956474 2.9179505556821814 55.053405985236168 3.4626451134681693 6.6378429085016242 5.5357012450695038 6.8315206915140143 2.4320863783359519 2.7046086937189093 5.6892807930707914 3.6681783348321915 4.2070884704589844 3.8196761161088943 6.3168074786663047 9.1059394180774671 3.2830181419849396 3.7352185845375052 7.2259279042482358 3.2667405903339386 2.5768759697675705 2.7977235168218613 2.8127390444278717 2.6122865229845038 2.6717759519815445 4.4265023022890073 4.4316281974315643
leaf_count=13 11 37 26 77 46 14 34 92 19 20 44 38 13 12 21 15 14 10 11 31 10 16 16 43 10 21 102 13 84 14 24 11 13 16 82 57 298 12 235 14 27 23 28 10 11 24 15 18 16 27 38 14 16 31 14 11 12 12 11 11 19 19
internal_value=4.69415e-05 -0.0278995 0.00395915 -0.0144371 0.00846994 0.0057816 -0.0309997 0.0367952 -0.00457875 0.00748741 0.0123079 0.0303191 0.0204327 -0.0205504 -0.0453251 -0.035566 0.00139478 -0.0329466 0.0389233 0.0182162 -0.0134288 -0.0309779 0.00450826 -0.0187801 0.0216674 -0.00527143 0.000748328 0.0321291 0.00786537 -0.0520267 -0.0183094 -0.0464883 -0.00789728 0.00590507 -0.0246951 0.0248477 0.0106752 0.019431 0.0122994 -0.0425258 -0.0321077 -0.0103366 -0.0652346 -0.0385567 -0.031927 -0.0179579 -0.000769173 0.00818836 0.0280159 0.017713 0.00835291 0.0495396 0.00603712 -0.00205445 -0.0301119 0.00295063 0.0175297 -0.0179434 0.00262069 -0.038879 0.00539899 0.0399967
internal_weight=495.345 60.8278 434.517 85.5638 348.953 318.705 65.2964 30.2482 9.35626 307.527 223.199 44.1609 35.543 50.0271 44.1464 35.0199 10.7907 6.90417 20.2674 16.6815 43.6907 22.0842 21.6065 19.1127 6.2763 84.3286 68.7928 13.5335 179.038 24.2292 17.3566 8.41147 50.6295 27.7928 22.8367 18.1633 161.681 77.4688 57.9714 20.7589 17.2962 10.6584 15.2693 12.8364 15.5358 12.0621 9.35746 8.94515 7.16776 17.7525 15.4227 10.3757 25.5314 21.7962 8.95984 5.84362 12.8364 5.61046 84.2125 5.28406 78.9285 8.85813
internal_count=2096 252 1844 358 1486 1354 270 132 40 1308 953 191 153 208 181 144 45 29 88 71 182 91 91 79 26 355 291 58 762 99 73 35 213 118 95 78 689 331 247 85 71 44 62 53 64 50 39 38 30 75 65 45 109 93 38 25 55 24 358 22 336 38
is_linear=0
shrinkage=0.05


Tree=5
num_leaves=63
num_cat=0
split_feature=4 2 0 4 0 0 2 0 3 6 0 4 8 2 6 3 0 4 0 4 5 8 3 3 3 6 0 2 3 0 5 5 2 8 3 3 3 3 0 0 6 2 7 0 4 2 2 5 8 0 2 6 0 8 3 2 3 2 2 0 5 2
split_gain=19.5577 18.0479 13.7188 13.0495 27.3888 11.9319 11.2963 9.81885 15.6375 7.04517 8.32594 6.40305 6.33067 6.29986 6.01377 6.00079 7.80375 7.08399 6.79965 8.66372 5.69144 5.58812 7.31926 5.44808 5.32397 5.26229 4.82279 4.67545 4.53795 8.01376 4.95679 6.66236 5.2208 4.39011 4.38642 6.69828 4.31234 6.54023 4.27954 4.27312 4.10113 8.42717 6.34454 5.80627 4.79642 6.62723 5.88217 4.04269 4.83586 4.03107 7.99624 5.46506 5.46261 4.73503 4.66876 5.22569 4.31929 4.45766 4.31433 6.15994 4.36128 3.94313
threshold=296.27654821664925 18414.085099472719 7.9976330383382193 363.51730902931126 7.8121584167663514 6.494037065684922 19008.813163841598 5.6091303563432877 6.8445370173942619 12.13201278514879 9.8594662840314555 333.98726364035076 4.590020300931644 29739.12673586054 11.981396007652537 7.4180736980552089 7.0648944079737799 346.41352260520358 6.9308178239056142 329.8775385841729 366.6941090754537 4.4810162752888294 6.7993874489442048 7.0066467381458004 9.2965758156118969 10.348935963725411 9.1306880653369671 18259.632106450052 6.3267567530879374 6.9003213422035232 496.99369663943367 463.42544804776924 27195.356575708414 3.805222693977262 6.0053046296777657 7.9092939484518228 8.2320761896250243 5.9784756722702914 4.7607385030487954 8.8569077901408111 15.289697690834574 32905.339542254173 57.322546366580248 7.2963053046836288 341.94143511064868 12830.541124031561 15707.000401668918 504.09826660858602 4.1314420771512035 7.7360089314418401 27841.679892281849 14.191200408196439 5.9623903886134091 3.7011168372686858 8.4098618874036006 15442.335500806903 8.8703958582140903 14905.098149316282 22404.851877244811 8.2483493901303149 459.89417288773791 18086.756845410706
decision_type=2 2 2 2 2 2 2 2 2 2 2 2 2 2 2 2 2 2 2 2 2 2 2 2 2 2 2 2 2 2 2 2 2 2 2 2 2 2 2 2 2 2 2 2 2 2 2 2 2 2 2 2 2 2 2 2 2 2 2 2 2 2
left_child=1 2 -1 7 6 34 -5 8 11 10 14 33 21 -14 15 18 -17 -18 19 -9 -15 22 26 -23 -6 -8 40 -25 29 -27 31 32 -30 -2 -3 -36 37 -7 -13 -20 41 43 -42 -11 45 -44 -47 48 -39 52 51 -51 -24 -52 58 -56 61 -58 59 -53 -61 -54
right_child=3 5 -4 4 24 36 25 9 -10 12 -12 38 13 20 -16 16 17 -19 39 -21 -22 23 49 27 -26 28 -28 -29 30 -31 -32 -33 -34 -35 35 -37 -38 47 -40 -41 42 -43 44 -45 -46 46 -48 -49 -50 50 53 54 56 -55 55 -57 57 -59 -60 60 -62 -63
leaf_value=0.038594785064447565 -0.019677396012605645 -0.044846720253285996 -0.089277504036699512 -0.052125459156132641 0.047510054438727113 -0.073124121133380932 0.05001744285965655 0.034875983983826686 0.053320988566310693 0.019068441638830536 0.083542069097919155 0.0096812828904546382 0.034184901936176931 -0.079119075239056452 -0.06257568225535462 -0.0020091358770207893 -0.075393772219670946 0.020908093087431065 0.027231710777545343 -0.049786145849012559 0.013522742548908917 -0.061117935169723615 -0.048746099703997452 -0.049451418073421793 -0.028584293764342624 -0.087328501586918766 0.058667617371489726 0.034791748933766943 -0.027029718830788432 0.0039499867922925692 -0.055828748711060278 0.080940037099767381 0.031844956757470178 0.064436000635785612 0.078519835167136426 -0.02547281912598617 -0.086327007249613744 0.01590779912044505 -0.054352864705798747 -0.037527577663388642 0.034866401312204739 -0.04131751751305178 0.056616418885114123 0.069349943107286455 0.031936979674227275 -0.10658200793989653 -0.021400300396247785 -0.075976460462272105 -0.048639141195300904 -0.043232994681564524 -0.021760224289257276 -0.045414357273719147 -0.016830928533760309 -0.11875333341743255 0.020768079419814352 -0.075671254367952578 -0.025681152312701985 0.050827905155634227 0.066092638650916774 0.059565885239325572 -0.011333676047654916 0.013397304713294486
leaf_weight=13.618939280509951 2.5150022357702282 2.6629054844379407 2.4793527871370307 29.766002520918846 17.374823525547985 12.152340278029444 3.27310487627983 4.4089989662170401 27.593037337064743 13.103061527013784 2.3806743025779715 4.1994365602731687 38.069205477833748 2.4072501957416526 5.3360830545425406 15.371429935097696 9.4746709614992124 2.3916714787483206 23.064293280243877 9.6043418645858747 5.3255171179771423 6.0717051923274976 4.2362075597047797 2.6207825690507889 2.6491089165210715 5.2076966613531095 7.217953994870185 4.432664543390274 10.319496706128129 4.4672883749008179 3.8694396764039984 2.5803430229425421 5.9288592785596839 4.0482013076543808 3.4446423947811127 2.8129373788833618 8.7134403735399228 7.020510718226431 6.890564501285553 2.8635698854923239 11.340748861432074 3.5772614926099768 2.3058437258005204 10.219262719154356 5.1563879996538153 2.3797238916158703 13.660904407501219 2.9663236588239661 4.9461368173360825 7.1155456155538586 2.3764125555753699 3.9800295680761399 16.258606493473053 2.6743184328079224 2.5590400695800772 3.1139261722564697 2.3493116348981848 10.039232611656187 3.9370251893997184 5.1057695150375348 3.771063819527626 32.065150529146194
leaf_count=59 11 11 10 121 77 49 14 19 122 56 10 18 166 10 22 65 39 10 98 40 23 25 18 11 11 21 31 19 43 19 16 11 25 18 15 12 35 29 29 12 49 15 10 44 22 10 58 12 20 30 10 17 69 11 11 13 10 43 17 22 16 137
internal_value=5.46162e-05 -0.0264962 0.0189007 0.00378343 -0.0137241 -0.0428385 -0.0293873 0.00808644 0.0298098 0.00483573 -0.00846523 -0.00693952 0.00921514 0.0258275 -0.0114858 -0.00742772 -0.0255237 -0.055984 0.00491278 -0.023149 -0.0153171 0.00502686 0.00747401 -0.0263975 0.037443 -0.0104001 0.0199949 0.00349031 -0.0165086 -0.0451819 -0.00428677 0.00630549 -0.00554695 0.032204 0.00890049 0.0317726 -0.055731 -0.0458882 -0.0301051 0.0200795 0.015474 0.0301401 0.00415158 0.0411005 -0.0106691 -0.0226438 -0.0340375 -0.0237237 -0.0107712 -0.00119683 -0.014973 -0.00504581 0.00614919 -0.0731172 0.00704857 -0.0321681 0.00997951 0.036319 0.0202959 0.00627207 0.0294463 0.00322697
internal_weight=493.866 60.8175 16.0983 433.048 85.4362 44.7192 65.4122 347.612 45.2462 302.366 74.8957 17.6532 227.47 45.802 72.5151 67.179 27.2378 11.8663 39.9412 14.0133 7.73277 181.668 168.543 13.1252 20.0239 35.6462 68.9611 7.05345 32.3731 9.67499 22.6981 18.8287 16.2484 6.5632 8.92049 6.25758 35.7988 27.0853 11.09 25.9279 61.7432 26.8996 34.8436 23.3223 23.5029 18.3465 16.0406 14.933 11.9666 99.5816 34.6331 29.5824 64.9485 5.05073 22.4669 5.67297 60.7123 12.3885 16.7939 12.8569 8.87683 48.3238
internal_count=2096 252 69 1844 358 183 270 1486 198 1288 315 76 973 199 305 283 114 49 169 59 33 774 719 55 88 149 295 30 135 40 95 79 68 29 38 27 145 110 47 110 264 115 149 100 100 78 68 61 49 424 147 126 277 21 96 24 259 53 72 55 38 206
is_linear=0
shrinkage=0.05


Tree=6
num_leaves=63
num_cat=0
split_feature=0 3 1 6 0 3 2 3 0 1 0 6 6 3 8 3 3 7 5 8 5 1 7 8 6 5 2 2 7 7 6 5 6 8 2 5 7 7 1 0 3 5 0 7 6 3 8 5 5 2 3 0 3 8 8 7 2 8 5 8 1 8
split_gain=10.5827 7.88045 7.66551 11.6194 10.6446 13.9295 11.3588 7.34728 9.11458 7.05524 10.6308 6.46466 6.43614 6.59029 6.41142 6.57437 6.26839 5.84337 5.65975 5.30094 4.9069 7.35069 10.0213 6.92548 6.5186 5.88342 7.3229 5.08871 7.60158 5.95254 5.6983 4.97972 4.84767 4.81891 4.76165 4.60366 5.29768 4.65951 4.5954 4.56102 4.61025 4.96998 4.53142 4.51605 4.4846 6.03112 5.64602 6.91491 4.41847 4.41079 6.0714 4.83414 10.7298 8.29428 5.94518 9.71011 5.16577 4.36791 4.28041 5.69949 4.27657 4.68997
threshold=4.7607385030487954 5.3329795444121464 161.86141914974544 16.188206290291394 8.0887860665152065 8.8489894441361745 27686.491114807104 4.9660597911499291 6.2009864220686675 206.33015781833259 6.3099895956227998 19.494391221130861 19.494391221130861 8.9658657838595719 3.2235159771601505 6.4571211562601682 6.0472572165898404 72.116082096424947 458.91417081547428 5.1882468696825521 442.54468701266831 215.51369644668139 83.503377534162411 4.3880763768332942 12.69898356728652 413.60049913424893 22621.63705632569 17379.199055208246 40.118424172179104 74.092052948040234 11.829546005905572 392.25991011220952 15.257125299811181 4.2565085969839265 35020.04984828813 464.54944528732238 69.700025784477688 61.051154475117578 169.73819700488002 10.278285178147984 6.8298864986475278 526.21879726488226 9.9078171955712708 61.92322108951096 14.073333163315029 7.6092432117538698 3.9946349164894968 428.80986113896284 507.46086867296759 30682.665950177441 6.1115572051103291 6.9775748667254378 7.0789034264909176 2.8569313457168568 3.5743885923214016 63.697630154123338 25000.149134044335 3.4896143368515622 424.27199643940054 3.4077591100386981 246.12559739754104 3.9946349164894968
decision_type=2 2 2 2 2 2 2 2 2 2 2 2 2 2 2 2 2 2 2 2 2 2 2 2 2 2 2 2 2 2 2 2 2 2 2 2 2 2 2 2 2 2 2 2 2 2 2 2 2 2 2 2 2 2 2 2 2 2 2 2 2 2
left_child=1 -1 3 19 7 6 39 8 18 10 16 -5 13 49 -8 -16 -9 -15 -4 32 21 22 25 33 -25 26 -11 29 -29 30 -23 -31 35 60 -30 -2 37 -37 -3 40 41 58 -7 -14 45 -42 47 -46 -40 50 -12 52 -52 -53 -55 -56 -57 -51 59 -6 61 -22
right_child=2 38 4 11 5 42 14 9 -10 20 12 -13 43 17 15 -17 -18 -19 -20 -21 23 27 -24 24 -26 -27 -28 28 34 31 -32 -33 -34 -35 -36 36 -38 -39 48 -41 44 -43 -44 -45 46 -47 -48 -49 -50 57 51 53 -54 54 55 56 -58 -59 -60 -61 -62 -63
leaf_value=-0.036449831234264367 -0.04201434473826967 0.0084174659936306299 -0.10806358871614635 0.02965645175162155 -0.018515884253718345 -0.06186892115327839 0.049868649103509542 -0.017396906676232352 -0.010014057585819421 -0.081253961201035896 0.029578401380664976 -0.059029709625562345 0.077472489650274159 -0.0032055999185230579 0.0084189048042741365 -0.057631142535161523 0.034552676769414641 -0.079687003939847581 -0.014349609442477511 0.041146990562932133 -0.033013143975277708 -0.062103318886121528 0.060684672254495746 -0.04958570160512954 0.029121665849358949 0.025385541046772986 -0.010092345245037489 -0.066221844580950567 0.034737207051006878 -0.0042370225669928685 0.017956999273431109 -0.094279872388195518 -0.079256970992979223 -0.08638309263603261 -0.026936914518362561 -0.013835579048430344 -0.044468043964969756 0.067174865369321726 0.07190401061133582 0.076928640666609607 -0.042008122183147138 -0.010947164697039333 0.018562643687104582 0.0056456332576114302 0.033156116578931881 0.035082312113179866 0.059339258012004084 -0.062823247463648549 -0.0010470442774458426 -0.066106459082179173 -0.056396389483376878 -0.059607153848487728 0.013919209613197975 0.039399473943406878 -0.034887997846170672 0.032989781434491071 -0.031250960073595381 -0.009939045796564341 0.073469627171956695 0.052503868556307821 -0.077182724978058059 0.01730818889600266
leaf_weight=3.5807175785303142 23.656202122569084 6.3734942972660091 4.8283727169036892 14.443349108099939 3.9678801894187989 6.9993620812892896 3.4580554664135006 6.8811167478561392 17.32931661605835 9.3233801126480156 17.456051781773567 2.3956448882818213 4.1138300597667676 4.6983214616775495 7.311569541692732 7.772311732172966 37.190300822257996 5.3313160091638565 2.4179324805736542 2.3518606573343268 19.08043089509011 2.6567279994487825 2.771727427840232 3.6334426552057257 9.5317547619342786 2.7844309806823722 5.9048201739788047 2.3554624915123012 25.502202346920971 2.8483637720346442 13.599522203207014 3.3313392102718353 5.6041584759950629 4.0754957497119895 3.5674113780260077 3.8659993410110456 4.8203359395265579 3.2817530930042267 12.042464628815649 5.4122312366962424 6.3707577288150805 3.7432872951030722 2.3354312628507614 4.6756499260663986 5.6842471361160296 4.2161292433738708 8.3743065148591977 2.8014737069606781 2.5078774988651267 4.5555689185857799 11.41999100148678 4.5081004053354254 10.335430964827536 13.487907141447065 12.437270462512968 16.81132730841637 3.8450973331928244 14.410587817430494 11.396542072296141 9.8078238815069181 3.881478175520896 6.1139409244060507
leaf_count=15 98 28 20 62 17 29 15 29 73 39 75 10 18 20 31 32 162 22 10 10 80 11 12 15 41 12 25 10 109 12 58 14 23 17 15 16 20 14 54 24 27 16 10 20 25 18 37 12 11 19 48 19 44 58 52 72 16 60 50 43 16 26
internal_value=6.22945e-05 0.0320923 -0.00161564 -0.0182352 0.000849443 0.0160647 0.0227838 -0.0034442 -0.0297044 -0.0012425 0.00525976 0.0170393 -0.00202836 -0.00507064 -0.0115373 -0.0256149 0.0264415 -0.0438598 -0.0767933 -0.031865 -0.0104968 -0.00256418 -0.0278223 -0.0232812 0.00739934 -0.0414415 -0.0536606 0.00718266 0.0201685 -0.0110061 0.00487289 -0.0527771 -0.0360299 -0.0354652 0.0271686 -0.0292297 -0.00395952 0.0233588 0.043822 0.0330854 0.0288753 0.0428075 -0.0417461 0.0392635 0.0141977 -0.0113076 0.0302132 0.00146951 0.0593303 -0.00151019 0.00309371 -0.00325288 -0.0229913 0.00515229 0.0114196 1.59416e-05 0.0210317 -0.0234302 0.0508012 0.0320477 -0.0283282 -0.0208016
internal_weight=492.271 24.5046 467.766 60.4193 407.347 89.6514 80.3166 317.695 24.5756 293.12 172.158 16.839 128.086 119.297 18.5419 15.0839 44.0714 10.0296 7.24631 43.5803 120.962 74.6454 20.7844 46.3165 13.1652 18.0126 15.2282 53.861 31.4251 22.436 16.2563 6.1797 41.2284 33.1513 29.0696 35.6243 11.9681 7.14775 20.9238 61.7747 56.3624 28.9155 9.33479 8.78948 27.4469 10.5869 16.86 8.48572 14.5503 109.267 90.3012 72.8451 21.7554 51.0897 46.5816 33.0937 20.6564 18.9662 25.1722 13.7757 29.0758 25.1944
internal_count=2096 108 1988 253 1735 386 347 1349 103 1246 734 72 543 505 78 63 191 42 30 181 512 317 88 195 56 76 64 229 134 95 69 26 171 139 124 148 50 30 93 269 245 126 39 38 119 45 74 37 65 463 384 309 92 217 198 140 88 79 110 60 122 106
is_linear=0
shrinkage=0.05


Tree=7
num_leaves=63
num_cat=0
split_feature=4 2 0 4 0 0 2 0 3 1 6 8 1 1 3 6 4 1 1 4 3 4 1 2 6 0 7 6 2 2 7 8 2 3 7 2 1 3 1 0 2 6 8 3 6 8 2 3 2 1 4 3 3 3 3 0 7 0 6 2 4 2
split_gain=16.9973 16.0343 12.38 11.3924 23.8748 10.4404 9.81456 8.60014 13.8448 7.66899 7.33784 7.04046 6.263 5.81767 7.41263 5.3101 5.25708 5.12702 5.08577 4.88469 4.64329 4.61932 13.3735 7.90258 5.86234 7.00945 7.78583 5.73915 4.87553 12.0241 4.71148 4.56048 4.51129 4.44325 7.82793 4.06453 4.06208 6.87493 8.46663 7.31264 6.38503 7.99335 5.26665 4.66874 5.83365 4.1303 4.12361 4.25094 4.06 4.10663 4.04151 4.02597 5.08542 3.99703 3.89904 6.4785 5.53766 6.49963 5.40526 5.69695 4.59732 3.89197
threshold=296.27654821664925 18414.085099472719 7.3268709982168954 363.51730902931126 7.8121584167663514 6.494037065684922 19008.813163841598 5.6091303563432877 6.8445370173942619 161.86141914974544 12.13201278514879 4.4009290519641953 201.84887611158396 201.65126052764936 4.6584744910025178 13.272012732826143 353.12284808605335 222.49554460967724 173.60135655148417 356.58745932140602 9.2965758156118969 338.58363757760691 210.35818965076928 11800.828208186551 17.323013577654596 9.2698186707047832 60.346896206580972 18.503083995373405 18086.756845410706 23414.484310176111 74.696529490558518 4.7358617419704538 11922.544286353988 6.6547493293203228 67.304132236872263 14990.35944561575 214.11910881097066 6.2839159130151794 204.35929106739789 6.1158307628816759 15707.000401668918 14.532315847803149 3.003373230525106 6.0558037659559609 15.120201372556268 3.7345874014544758 21765.627444848171 7.6946799286768774 20921.203012197813 236.70452356118946 333.98726364035076 8.8703958582140903 5.7145215045638755 6.3882059952349817 7.4180736980552089 6.9308178239056142 66.03320092777615 6.8510340106089478 9.5025875986510489 24584.27357785654 329.8775385841729 11642.438269677703
decision_type=2 2 2 2 2 2 2 2 2 2 2 2 2 2 2 2 2 2 2 2 2 2 2 2 2 2 2 2 2 2 2 2 2 2 2 2 2 2 2 2 2 2 2 2 2 2 2 2 2 2 2 2 2 2 2 2 2 2 2 2 2 2
left_child=1 2 -1 7 6 -3 17 8 12 11 16 -9 -2 14 -8 -15 54 32 -7 -18 -6 23 -23 -12 36 26 27 -26 35 -30 -31 -16 -5 34 -34 -28 37 45 39 -39 41 -38 -41 44 -42 -25 -40 -48 49 -24 -14 52 -20 -13 55 60 -56 -58 -59 -60 -11 -10
right_child=3 5 -4 4 20 18 13 9 61 10 21 53 50 15 31 -17 19 -19 51 -21 -22 22 48 24 25 -27 28 -29 29 30 -32 -33 33 -35 -36 -37 40 38 46 42 43 -43 -44 -45 -46 -47 47 -49 -50 -51 -52 -53 -54 -55 56 -57 57 58 59 -61 -62 -63
leaf_value=0.049284817039818601 0.016589029674535155 0.0085780396924251216 -0.044267294149083432 0.00064708064639476483 0.045147279603461821 -0.083025814064418765 -0.078385478209006404 -0.03585050783449921 -0.012506260548441041 0.015888881714764085 0.047432265633080742 -0.039732909369263748 0.002441237948140865 0.011863344076482756 0.023512412777160992 -0.063980388959197151 -0.097933448428670009 -0.087808330672159041 -0.071672959777458009 -0.0082010124886933121 -0.025796230814407486 0.043904203932801505 -0.067523552335459286 0.06218710979360588 -0.01926342618471584 0.059938633762640338 -0.025469678616940397 0.056309093247266018 0.039538050299634864 -0.08675925733573947 -0.0067249120995127674 -0.034927000641536581 -0.073286888369662073 -0.070911936227788949 0.03147434711921232 -0.10277046170878322 0.038016093132668904 0.075450987729886246 -0.078191057361499852 -0.052767752989896714 0.035722014629842307 -0.065352553742889591 0.0048727941782460114 0.044595343837249168 -0.066282255125670111 0.013343566183606881 -0.047662449776688459 0.036490665416108535 0.010530868879888513 0.014018321092039827 -0.077576197554904691 -0.09804985134255631 -0.019513814092342326 0.035164986970812065 -0.042741967519228159 0.022671366516079691 0.06549176561076607 -0.06982079990939527 0.053254972359166264 -0.039316547052174168 -0.048304972129936501 0.056429989282830231
leaf_weight=10.674079835414885 11.07202945649624 8.8366258144378644 5.2883925884962073 5.8094205707311692 16.979531899094585 9.6977997422218305 2.4743778407573727 20.54761636257172 2.2330147325992611 4.6320974379777891 11.621591553092001 2.3813136368989927 2.6555352360010138 3.3549038469791395 18.251436263322834 7.3944345414638519 2.932631090283393 6.4813379496335974 6.4550947993993821 3.1410173624753952 2.6689769029617301 32.246929556131363 4.703138902783393 6.1983609348535564 5.5717054158449191 2.9377508908510199 2.8133757859468487 4.5751098990440369 5.0712011754512778 5.2441665977239591 2.8318025022745132 4.0857281386852256 3.4889395534992245 10.465304255485533 3.6471288651227951 4.2990420013666153 3.4980504661798468 3.336019665002822 4.9796378314495069 4.4671810567378989 3.4661146700382259 4.0188924372196198 35.109172165393829 23.037905633449554 2.3533256053924561 14.345195040106772 4.2349908202886581 2.3242745101451874 8.59858490526676 2.2987461239099503 3.8890795111656189 2.7327150702476493 16.927929028868675 7.0696235150098801 11.812116608023645 24.06230790913105 3.2732715159654608 3.1519074887037259 3.5271208435297012 3.1429543197154999 7.0097426176071167 24.638861164450645
leaf_count=47 48 38 22 24 77 39 10 85 10 20 51 10 12 14 78 30 12 26 26 13 11 141 20 27 24 13 12 20 22 22 12 17 14 42 15 18 15 15 21 19 15 17 151 100 10 62 18 10 37 10 16 11 69 30 49 103 14 13 15 13 29 112
internal_value=7.00579e-05 -0.0247197 0.0182909 0.00356071 -0.0128254 -0.040096 -0.0273356 0.00759855 0.0281174 0.00456447 0.00722105 -0.0194228 -0.00633168 -0.00958414 0.00372721 -0.0403093 -0.0071792 -0.0484533 -0.0521058 -0.0515279 0.0355106 0.0119241 0.0255182 0.00776357 0.00457787 -0.0138139 -0.0209396 0.0148116 -0.0388452 -0.0208043 -0.0586956 0.0128232 -0.0375578 -0.0501675 -0.0197451 -0.0721935 0.0100844 0.00343408 -0.00586462 0.00435918 0.0237958 -0.0172494 -0.00163338 0.0344874 -0.00552753 0.0280805 -0.0438862 -0.0178428 -0.0124866 -0.040753 -0.0451084 -0.040624 -0.0339128 0.0162933 -0.00273519 0.00785676 -0.0179185 0.00447263 -0.0158626 0.00963507 -0.0227633 0.0507015
internal_weight=491.069 60.6126 15.9625 430.456 85.1015 44.6502 65.453 345.355 44.4885 300.866 270.867 29.9986 17.6166 35.5609 24.8115 10.7493 66.6852 29.8921 35.8135 6.07365 19.6485 204.182 47.8474 156.335 144.713 33.3442 30.4064 10.1468 20.2596 13.1472 8.07597 22.3372 23.4108 17.6014 7.13607 7.11242 111.369 74.9948 54.4513 42.9124 36.3743 7.51694 39.5764 28.8573 5.81944 20.5436 11.5389 6.55927 15.6005 7.00189 6.54461 26.1157 23.383 9.45094 60.6115 35.7041 24.9074 13.0953 9.82198 6.67008 11.6418 26.8719
internal_count=2096 252 69 1844 358 183 270 1486 198 1288 1163 125 76 149 105 44 281 121 145 25 88 882 208 674 623 143 130 44 86 56 34 95 95 71 29 30 480 323 234 185 157 32 170 125 25 89 49 28 67 30 28 106 95 40 256 152 104 55 41 28 49 122
is_linear=0
shrinkage=0.05


Tree=8
num_leaves=63
num_cat=0
split_feature=4 2 0 4 0 0 2 0 3 1 8 6 1 1 0 3 1 3 0 6 7 1 1 4 4 6 8 6 1 3 6 3 4 1 2 6 0 7 6 2 2 4 2 7 0 4 7 3 8 3 3 1 3 3 1 0 2 6 2 8 3 6
split_gain=15.3932 14.4798 11.6164 10.3319 21.682 9.42111 8.87037 7.88648 12.8133 6.92781 6.69284 6.65661 5.63307 5.2295 7.14841 6.95157 7.16232 4.81793 6.9745 6.36439 5.11289 4.9013 4.78828 5.12797 4.76167 4.75603 5.30477 4.75359 4.70538 4.483 4.43449 4.27131 4.22181 12.2729 7.26074 5.29739 6.39002 6.97358 5.26291 4.28114 10.7855 4.17292 6.37926 4.14318 3.88844 3.80084 3.79048 4.49864 5.86049 3.71051 6.07103 3.7088 6.25067 7.78903 6.68171 5.92815 5.82845 7.15658 4.53872 4.32293 4.29528 5.22889
threshold=296.27654821664925 18414.085099472719 7.9976330383382193 363.51730902931126 7.8121584167663514 6.494037065684922 19008.813163841598 5.6091303563432877 6.8445370173942619 161.86141914974544 5.1882468696825521 12.13201278514879 201.84887611158396 201.65126052764936 6.9003213422035232 5.8857748265781922 170.83149224746407 7.4180736980552089 6.9308178239056142 11.863309337800532 61.794997057713054 243.14704645209099 204.7327400377865 259.1637027402017 329.8775385841729 16.577932800795825 4.0322634212089552 13.272012732826143 222.49554460967724 8.5926646793111825 15.257125299811181 9.2965758156118969 338.58363757760691 210.35818965076928 11800.828208186551 17.323013577654596 9.2698186707047832 60.346896206580972 18.503083995373405 18086.756845410706 23414.484310176111 404.22369432479564 12227.13609392629 74.696529490558518 7.0446712072460871 331.00435863752261 57.173071841753959 6.7993874489442048 3.6159258172519828 6.0053046296777657 7.9092939484518228 214.11910881097066 6.2839159130151794 6.4820118418373971 204.35929106739789 6.1158307628816759 15707.000401668918 14.532315847803149 21765.627444848171 2.9418352449764833 6.0558037659559609 15.120201372556268
decision_type=2 2 2 2 2 2 2 2 2 2 2 2 2 2 2 2 2 2 2 2 2 2 2 2 2 2 2 2 2 2 2 2 2 2 2 2 2 2 2 2 2 2 2 2 2 2 2 2 2 2 2 2 2 2 2 2 2 2 2 2 2 2
left_child=1 2 -1 7 6 49 28 8 12 10 25 17 45 14 15 -8 -17 18 24 -20 29 -22 -7 -24 -11 30 -27 -15 41 -19 -9 -6 34 -34 -13 51 37 38 -37 -39 -41 42 -5 -42 -44 -2 -25 -48 -49 -3 -51 52 -36 -54 55 -55 57 -53 -56 -57 61 -58
right_child=3 5 -4 4 31 22 13 9 -10 11 -12 32 -14 27 -16 16 -18 20 19 -21 21 -23 23 46 -26 26 -28 -29 -30 -31 -32 -33 33 -35 35 36 -38 39 -40 40 43 -43 44 -45 -46 -47 47 48 -50 50 -52 56 53 54 58 59 60 -59 -60 -61 -62 -63
leaf_value=0.036050455815558324 0.060556517539335289 -0.040916295211419443 -0.081497370301549354 0.033360764292716442 0.043593309449142484 -0.06523088773758183 -0.092043324706461427 -0.027678890140778258 0.049064047497742333 0.015156593425803881 0.059459400250633038 0.045728258416298351 -0.042644587322226125 0.011293777563552225 0.033505869926371244 -0.0406067703598261 0.040408021452659468 -0.073865327837286818 0.027263361525078397 -0.057845077540103353 0.0042156029135459669 -0.068655195451081064 -0.081509497177295526 -0.06736808019807837 -0.048207860948024289 -0.027265848111421732 0.060754838898915177 -0.060458099666037074 -0.083938914517414739 0.00037808884337758788 -0.091599262879717064 -0.024408136359109728 0.042265809042868675 -0.011825247475036629 0.026898415236399353 -0.018207742849454232 0.058057132358169998 -0.067638975012015212 0.054413542292351208 0.037988074303556163 -0.081204382479714232 -0.071929020575638908 -0.018430332010150489 -0.0063786522791174126 -0.073398401234417585 -0.0034416706140198115 0.03944737328457304 0.024950626968435387 -0.084390985758468984 0.075373434213809293 -0.024413229690623681 0.036470541013763604 -0.074644839903262497 0.073610682872744179 -0.074954774641902908 -0.047201490507785743 0.034281503023701414 -0.06131333373764513 -0.0081565761745241421 0.0089851373606805399 0.042904430556095913 -0.062096967532448172
leaf_weight=13.340206414461134 3.3196347057819384 2.6803157776594144 2.4948055893182746 3.8589380234480002 16.712430045008663 20.604108273983002 2.7255349159240749 17.305680960416804 26.394168630242348 4.6135850995779029 2.5275958925485602 11.456172212958334 6.5750401467084876 3.348071873188017 11.03211787343025 5.8482950031757337 5.1134889870882034 6.8721679747104663 23.673894792795185 2.4212634712457648 15.135525539517404 2.7225879579782477 3.4812107533216468 2.4730054289102545 8.2966703474521619 4.0434173643589011 2.9683593064546585 7.4328906834125519 6.442030042409896 2.8876118063926697 3.2178749293088904 2.6794438511133185 31.832762464880943 15.638457015156744 20.381094112992287 5.5992820560932177 2.8827139586210242 7.2084643840789822 4.4996926188468933 5.0156416147947303 5.3206337541341764 5.9293221533298484 8.4069112390279752 2.8361342996358871 5.2119135558605185 7.7041271775960922 4.3333507329225522 2.4175249636173248 2.4852956682443619 3.3225966393947601 2.816190242767334 3.4648336917161933 3.7957567870616904 3.2506137043237677 4.3581473976373655 3.8176605552434912 3.4320531040430096 4.0681230872869492 6.1056275069713593 33.144818633794785 22.755819156765938 2.3854638487100601
leaf_count=59 15 11 10 16 77 83 11 71 122 20 11 51 28 14 48 24 22 28 102 10 64 11 14 10 34 17 13 30 26 12 13 11 141 67 89 24 13 30 20 22 22 24 34 12 21 33 18 10 10 15 12 15 16 15 18 16 15 17 26 143 100 10
internal_value=7.62116e-05 -0.0235446 0.0175308 0.00340709 -0.012231 -0.0381238 -0.0260082 0.0072602 0.0270299 0.00436049 -0.0184071 0.00689672 -0.00601629 -0.00911672 0.00355668 -0.0205827 -0.00281472 -0.006819 0.0044951 0.0193665 -0.0227982 -0.00689403 -0.0495287 -0.0282305 -0.0255641 -0.0255549 0.00999675 -0.0381753 -0.0460978 -0.051899 -0.0377009 0.0341973 0.0113926 0.0244466 0.00741459 0.0043733 -0.0130965 -0.019826 0.0141493 -0.0366612 -0.019709 -0.0356833 -0.0233869 -0.0551872 -0.0394666 0.0158304 -0.0123903 0.00233013 -0.0304759 0.00816575 0.0295959 0.00962597 0.00327722 -0.00556072 -0.000386243 0.008875 0.0227879 -0.016337 -0.0359779 0.00318192 0.0331026 -0.00523834
internal_weight=489.119 60.4486 15.835 428.671 84.7414 44.6136 65.3495 343.929 43.993 299.936 30.0629 269.873 17.5988 35.5004 24.7194 13.6873 10.9618 66.6233 39.0054 26.0952 27.6179 17.8581 35.7945 15.1904 12.9103 27.5353 7.01178 10.781 29.8491 9.75978 20.5236 19.3919 203.25 47.4712 155.779 144.323 33.3626 30.4798 10.099 20.3809 13.1724 23.4071 17.4778 8.15677 13.6188 11.0238 11.7092 9.23617 4.90282 8.8191 6.13879 110.96 74.8537 54.4726 50.6769 40.2131 36.1063 7.53296 10.4638 36.9625 28.5733 5.81752
internal_count=2096 252 69 1844 358 183 270 1486 198 1288 125 1163 76 149 105 57 46 281 166 112 115 75 145 62 54 114 30 44 121 40 84 88 882 208 674 623 143 130 44 86 56 95 71 34 55 48 48 38 20 38 27 480 323 234 218 174 157 32 44 159 125 25
is_linear=0
shrinkage=0.05


Tree=9
num_leaves=63
num_cat=0
split_feature=0 3 1 6 0 3 2 3 0 6 3 5 1 0 7 3 7 5 1 7 8 2 5 6 5 7 2 5 2 8 7 8 3 2 5 2 7 5 7 5 5 1 5 8 8 5 7 5 7 8 6 2 1 0 1 5 1 8 3 5 8 8
split_gain=8.72292 6.53085 5.64166 9.6734 8.77417 11.9658 10.467 6.19704 9.04189 5.54421 5.44559 5.4077 5.19275 10.5053 7.6019 7.16018 5.78582 5.31823 6.69599 8.85385 5.84252 5.49535 5.40435 5.29257 5.08374 10.0329 5.15494 4.89467 7.68864 5.86215 4.58018 5.50813 4.78872 4.43646 4.43449 4.39159 6.57136 5.17928 4.58074 5.33072 4.57212 4.36591 4.25824 4.20499 4.19908 4.14306 4.13722 5.75065 5.24298 4.0186 3.90512 4.07544 3.75899 4.6354 5.55574 3.66451 3.42392 4.33681 3.2633 3.24167 3.20852 6.26961
threshold=4.7607385030487954 5.3329795444121464 161.86141914974544 16.188206290291394 8.0887860665152065 8.8489894441361745 34238.118025767959 5.3022788204635027 6.2009864220686675 19.494391221130861 6.8132221707727441 458.91417081547428 206.33015781833259 5.6871797252712097 82.365034884155946 7.021235126677916 87.21850313896914 442.54468701266831 215.51369644668139 83.503377534162411 4.3880763768332942 22621.63705632569 391.01195330780735 13.112883074163992 323.39907322044081 60.133230117118728 37195.678102651647 452.39163302987822 12830.541124031561 4.0661931806348948 83.503377534162411 4.1129293222085392 4.4074036009287525 30589.570747183952 448.63103190945577 17379.199055208246 40.118424172179104 330.30434900209895 74.092052948040234 392.25991011220952 371.33642432704329 169.73819700488002 512.39141634494501 4.2565085969839265 5.1882468696825521 507.46086867296759 69.217185511482469 463.42544804776924 61.051154475117578 4.7859835991386603 14.073333163315029 15442.335500806903 186.35945525358321 9.2698186707047832 236.70452356118946 346.5469676469491 250.20462500635048 3.9946349164894968 7.5479217444012203 336.93551221461217 4.4899878763119858 4.0477470221587284
decision_type=2 2 2 2 2 2 2 2 2 2 2 2 2 2 2 2 2 2 2 2 2 2 2 2 2 2 2 2 2 2 2 2 2 2 2 2 2 2 2 2 2 2 2 2 2 2 2 2 2 2 2 2 2 2 2 2 2 2 2 2 2 2
left_child=1 -1 3 44 7 6 10 8 11 -5 52 -4 13 -9 24 16 -16 18 19 21 43 22 -14 -22 25 -15 -26 28 -10 -29 31 32 -30 -12 -28 38 -37 -38 40 -40 59 -3 -31 56 46 -43 47 55 -49 -39 -7 -52 -6 54 -54 -2 57 -19 -25 -20 61 -17
right_child=2 41 4 9 5 50 -8 12 27 -11 33 -13 17 14 15 60 -18 20 35 -21 23 -23 -24 58 26 -27 34 29 30 42 -32 -33 -34 -35 -36 36 37 49 39 -41 -42 45 -44 -45 -46 -47 -48 48 -50 -51 51 -53 53 -55 -56 -57 -58 -59 -60 -61 -62 -63
leaf_value=-0.032665660430872413 0.010148798048610987 0.0058471665642859712 -0.092824262526559967 0.028568168369119819 0.074295432747341336 -0.079255078309523469 -0.039177169988427477 0.04069916840950679 0.055852501811959714 -0.053466434064888491 0.017292073847250976 -0.013867917990170406 -0.081605513529031559 -0.076631076839173098 -0.03588415008548456 -0.060565579530459324 0.047619380289789154 -0.032090675455491414 0.010553834391894848 0.059496871351189889 -0.035068469759025438 -0.0028098761486333246 -0.0027828039315829119 0.0022400325110481212 0.011617370795777024 0.012328648752686458 0.012735643013755732 0.059312490039693938 -0.028967133855554075 0.028538867884547171 0.023028215629997982 -0.0081911083093700252 -0.11585956692551083 -0.05252807096185616 -0.074285999848188941 -0.057750610550836426 -0.0072555693232366509 0.04913930149757012 0.0083219895237492316 -0.086983986335110508 0.030586190850823883 0.068814435106052105 -0.061635815193046263 -0.080741924400349954 0.03780373727589792 -0.0026162857986872612 -0.05119726018954035 -0.021116310101211441 0.05662623162021449 -0.020173006320717071 0.037989729802175083 -0.048316627225277894 0.030312751632004298 0.060927688206082888 -0.040930933732810842 -0.048869361091112659 -0.075627925266287116 0.016535224002049174 0.066405274810000067 -0.059810712826225756 -0.093585679679162426 0.022411994470856997
leaf_weight=3.5742954313755062 3.3156790286302629 6.2269442230463055 6.1031605899333936 14.242001265287401 6.5471662580966941 3.6519484221935254 6.6171549707651129 18.352695673704147 2.4617889523506191 2.4078196138143531 32.641660436987877 3.3638464659452438 7.7975956499576622 5.3520409911870939 3.7631519287824649 7.5628611892461759 4.6225881725549698 19.140410318970687 3.240172520279887 2.7257087826728812 4.7983104884624463 7.0192441642284384 3.0156024396419525 4.3663440644741058 102.68316534161568 7.771801233291626 2.6006111204624167 4.8293575793504697 2.5895870029926282 2.5889632999897003 2.3312315791845313 4.0364852696657181 4.089783564209938 2.4456416070461264 3.3494745790958405 2.413848131895068 7.5352830737829235 18.234434828162197 2.6048899143934241 3.3592865020036697 8.5091328173875791 11.490514278411863 2.6484546661376953 4.1065791696310034 2.2897323071956626 2.4655572474002829 16.457737252116203 4.8443913459777814 3.9264886230230331 2.3620871156454077 2.318718209862709 3.3353523313999176 17.3940306454897 9.7566655129194242 3.2473404556512824 12.721731036901472 3.163906678557395 6.0299448519945136 3.6279168128967285 3.3078096061944962 3.0589392334222785 3.2567506432533264
leaf_count=15 14 28 25 62 30 15 28 83 11 10 144 14 32 22 16 32 20 80 14 12 20 30 13 19 443 33 11 21 11 11 10 17 17 10 14 10 32 80 11 14 37 54 11 17 10 11 68 20 17 10 10 14 77 44 14 52 13 26 16 14 13 14
internal_value=8.09632e-05 0.0296294 -0.00143543 -0.0157113 0.000698717 0.0146603 0.021004 -0.00320248 -0.0230239 0.0167047 0.0265324 -0.0647692 -0.000719405 0.00507216 0.000532202 -0.0263312 0.0101467 -0.00873246 -0.000303337 -0.0244317 -0.0221728 -0.0372603 -0.0596233 0.00644313 0.00544439 -0.0239501 0.00899549 -0.00757157 -0.0251943 0.019578 -0.0404866 -0.0543043 -0.0821714 0.0124255 -0.0362513 0.0093159 0.0214205 0.0282138 -0.00827307 -0.0453585 0.00641662 0.0406615 -0.0170606 -0.0334571 -0.0281028 0.0561951 -0.0317597 -0.0188649 0.0136869 0.0411903 -0.0389534 -0.0129226 0.0399299 0.0325283 0.0191046 -0.0366676 -0.0266039 -0.0204416 0.0313592 -0.0249919 -0.0483719 -0.035589
internal_weight=486.694 23.7573 462.937 60.2056 402.731 87.9557 78.6497 314.775 35.0427 16.6498 72.0325 9.46701 279.733 162.374 144.021 22.2643 8.38574 117.359 72.1251 20.5582 45.2334 17.8324 10.8132 12.7926 121.757 13.1238 108.633 25.5757 15.5089 10.0668 13.0471 10.7159 6.67937 35.0873 5.95009 51.5669 30.5457 28.1318 21.0213 5.96418 15.0571 20.183 5.23742 32.4408 43.5558 13.9561 41.266 24.8083 8.77088 20.5965 9.30602 5.65407 36.9452 30.398 20.6414 16.0374 28.3343 25.1704 7.99426 6.54798 13.8786 10.8196
internal_count=2096 108 1988 253 1735 386 347 1349 148 72 319 39 1201 701 618 95 36 500 309 87 191 75 45 55 523 55 468 109 66 43 55 45 28 154 25 222 132 122 90 25 65 93 22 136 181 65 171 103 37 90 39 24 165 135 91 66 119 106 35 28 59 46
is_linear=0
shrinkage=0.05


end of trees

feature_importances:
Column_1=91
Column_3=87
Column_0=86
Column_2=80
Column_6=68
Column_7=58
Column_8=51
Column_5=50
Column_4=49

parameters:
[boosting: gbdt]
[objective: binary]
[metric: custom]
[tree_learner: serial]
[device_type: cpu]
[data_sample_strategy: bagging]
[data: ]
[valid: ]
[num_iterations: 10000]
[learning_rate: 0.05]
[num_leaves: 63]
[num_threads: 0]
[seed: 1]
[deterministic: 0]
[force_col_wise: 0]
[force_row_wise: 0]
[histogram_pool_size: -1]
[max_depth: -1]
[min_data_in_leaf: 10]
[min_sum_hessian_in_leaf: 0.001]
[bagging_fraction: 0.9]
[pos_bagging_fraction: 1]
[neg_bagging_fraction: 1]
[bagging_freq: 0]
[bagging_seed: 18467]
[bagging_by_query: 0]
[feature_fraction: 0.9]
[feature_fraction_bynode: 1]
[feature_fraction_seed: 26500]
[extra_trees: 0]
[extra_seed: 15724]
[early_stopping_round: 0]
[early_stopping_min_delta: 0]
[first_metric_only: 0]
[max_delta_step: 0]
[lambda_l1: 0]
[lambda_l2: 0]
[linear_lambda: 0]
[min_gain_to_split: 0]
[drop_rate: 0.1]
[max_drop: 50]
[skip_drop: 0.5]
[xgboost_dart_mode: 0]
[uniform_drop: 0]
[drop_seed: 6334]
[top_rate: 0.2]
[other_rate: 0.1]
[min_data_per_group: 100]
[max_cat_threshold: 32]
[cat_l2: 10]
[cat_smooth: 10]
[max_cat_to_onehot: 4]
[top_k: 20]
[monotone_constraints: ]
[monotone_constraints_method: basic]
[monotone_penalty: 0]
[feature_contri: ]
[forcedsplits_filename: ]
[refit_decay_rate: 0.9]
[cegb_tradeoff: 1]
[cegb_penalty_split: 0]
[cegb_penalty_feature_lazy: ]
[cegb_penalty_feature_coupled: ]
[path_smooth: 0]
[interaction_constraints: ]
[verbosity: -1]
[saved_feature_importance_type: 0]
[use_quantized_grad: 0]
[num_grad_quant_bins: 4]
[quant_train_renew_leaf: 0]
[stochastic_rounding: 1]
[linear_tree: 0]
[max_bin: 255]
[max_bin_by_feature: ]
[min_data_in_bin: 3]
[bin_construct_sample_cnt: 200000]
[data_random_seed: 41]
[is_enable_sparse: 1]
[enable_bundle: 1]
[use_missing: 1]
[zero_as_missing: 0]
[feature_pre_filter: 1]
[pre_partition: 0]
[two_round: 0]
[header: 0]
[label_column: ]
[weight_column: ]
[group_column: ]
[ignore_column: ]
[categorical_feature: ]
[forcedbins_filename: ]
[precise_float_parser: 0]
[parser_config_file: ]
[objective_seed: 19169]
[num_class: 1]
[is_unbalance: 0]
[scale_pos_weight: 1]
[sigmoid: 1]
[boost_from_average: 1]
[reg_sqrt: 0]
[alpha: 0.9]
[fair_c: 1]
[poisson_max_delta_step: 0.7]
[tweedie_variance_power: 1.5]
[lambdarank_truncation_level: 30]
[lambdarank_norm: 1]
[label_gain: ]
[lambdarank_position_bias_regularization: 0]
[eval_at: ]
[multi_error_top_k: 1]
[auc_mu_weights: ]
[num_machines: 1]
[local_listen_port: 12400]
[time_out: 120]
[machine_list_filename: ]
[machines: ]
[gpu_platform_id: -1]
[gpu_device_id: -1]
[gpu_use_dp: 0]
[num_gpu: 1]

end of parameters

pandas_categorical:null
