tree
version=v4
num_class=1
num_tree_per_iteration=1
label_index=0
max_feature_idx=8
objective=binary sigmoid:1
feature_names=Column_0 Column_1 Column_2 Column_3 Column_4 Column_5 Column_6 Column_7 Column_8
feature_infos=[0:13.999999999999998] [73.492233689061095:323.12400000000002] [320.94261127435902:61227.196007712133] [0.35200000000000031:13.127000000000002] [129.00000000000003:481.03064230599722] [181.483753985146:753.34261955830459] [4.3718986084411426:28.300000000000011] [0.73799999999999955:118.3572747362022] [1.4961009425719864:6.7389999999999999]
tree_sizes=6444 6643 6634 6665 6660 6644 6678 6662 6651 6682 6663 6677 6663 6675 6679 6685 6660 6668 6675 6665 6662 6669 6671 6668 6655 6678 6665 6662 6675 6686 6670 6675 6648 6693 6680 6676 6680 6672 6662 6683 6669 6665 6688 6684

Tree=0
num_leaves=63
num_cat=0
split_feature=4 2 3 4 3 3 1 5 1 8 8 1 5 7 8 7 5 8 8 7 2 3 2 7 3 1 1 2 2 4 8 1 8 8 1 4 3 2 1 4 1 8 7 6 2 4 4 2 4 7 4 3 3 4 8 3 4 8 6 1 2 7
split_gain=26.8732 18.6068 18.4324 15.4703 22.5431 13.5657 11.5453 11.0945 9.32536 8.92537 7.72383 8.81183 8.42243 7.6553 7.46265 7.38729 7.90031 7.37528 7.1632 14.3264 7.06005 6.93106 6.89626 7.48292 6.32499 6.22099 7.45259 10.3441 6.14443 6.01361 8.68756 7.09988 8.12781 5.93001 6.40092 6.67488 5.7633 5.45704 5.45124 5.38036 5.23851 6.61629 5.04152 7.12793 5.01571 5.68922 6.22919 4.97387 4.61173 4.57757 6.38704 4.49143 5.58276 5.43619 6.2833 4.72806 4.45227 6.59649 4.31016 4.24614 4.24355 4.19421
threshold=295.93565051145885 17409.348842110645 5.7284697306307129 387.32842254386139 8.1475008190381768 8.2549687843325898 280.6791609674836 349.62359162489071 138.43600245868802 4.1085286968321482 4.6293631364755763 238.45991402954516 425.11516597740979 49.568138597002871 3.9661262395878292 66.150626146094126 430.33263203651012 4.3258349437238319 4.4132818598388583 81.081640956803611 23999.491095146706 9.6157387319673813 15739.275282499175 72.09130549622779 6.5881539099818509 163.27552671537353 185.89088687435523 31364.464048223294 13340.223041350222 333.99414667854745 4.0587841383895613 199.49276386613488 3.7624190098299768 3.0933774615394083 226.08892714383896 359.56394447401402 7.1073357703638154 13853.478810860623 157.53279964014072 352.93526834944095 215.55612970366741 3.3836138802789364 65.308103680467482 11.885011228273671 26217.787658644538 333.53256261154587 366.62195324406383 21081.229125371236 338.06125366988505 77.591593002147007 279.1744950400477 5.3021144059030751 6.8707658901073767 333.27583171351745 3.4219727346148261 4.3695884441737434 330.88214847262469 3.4896108379298689 11.48310530567713 237.81280407981808 16008.748370011903 71.72220957902806
decision_type=2 2 2 2 2 2 2 2 2 2 2 2 2 2 2 2 2 2 2 2 2 2 2 2 2 2 2 2 2 2 2 2 2 2 2 2 2 2 2 2 2 2 2 2 2 2 2 2 2 2 2 2 2 2 2 2 2 2 2 2 2 2
left_child=1 38 61 6 13 9 7 21 42 40 11 15 -13 -5 -15 25 -17 29 -11 -20 37 28 -14 24 -24 -10 27 -27 36 30 31 32 56 -28 -35 -36 -2 -16 -1 -19 41 -4 -9 -44 45 -12 -47 -6 -31 50 -7 55 -53 -54 -55 -30 -18 -58 -56 -40 -60 -3
right_child=3 2 5 4 47 49 -8 8 10 18 44 12 22 14 20 16 17 39 19 -21 -22 -23 23 -25 -26 26 33 -29 51 48 -32 -33 -34 34 35 -37 -38 -39 59 -41 -42 -43 43 -45 -46 46 -48 -49 -50 -51 -52 52 53 54 58 -57 57 -59 60 -61 -62 -63
leaf_value=0.5281924232370836 0.5281924232370836 0.32463821138352034 0.38811210540237351 0.36009604183543148 0.34141866612413663 0.35309202594369582 0.35309202594369582 0.36751205866197484 0.43343220823125023 0.33717380800793328 0.45352151001114305 0.47337838582350134 0.33423506008133097 0.48521323481052481 0.45815226431972855 0.46295340424551495 0.46815800130792207 0.41994854127389847 0.48043776942979605 0.33717380800793334 0.48616832788667058 0.37060206567303461 0.39888751446658188 0.35309202594369588 0.49817521227250283 0.50261253911074522 0.49621756807916068 0.41695217083893138 0.44414423253625751 0.52819242323708349 0.48316660679021251 0.44737685525552007 0.3401898914062883 0.44939724445505913 0.52068812049593849 0.42313218486105098 0.44414423253625751 0.37288598389860056 0.42631582844820348 0.33717380800793334 0.5165190634175244 0.48879483384607136 0.50718037556187712 0.39686712526704282 0.49859798989172233 0.51030982947095038 0.43626471465805505 0.42313218486105098 0.4572426518662564 0.31807194648501835 0.44737685525552007 0.45894817521651665 0.39349980993447764 0.39371531811576183 0.39888751446658194 0.35039817367764375 0.36230783632755836 0.46515628021146405 0.40212013718584444 0.48616832788667058 0.47470721097292157 0.38202165680086425
leaf_weight=2.61754585802555 3.5693807154893857 7.6146788597106916 2.8555045723915153 2.3795871436595943 8.5665137171745283 4.2832568585872632 2.8555045723915091 4.0452981442213041 12.135894432663916 2.6175458580255491 28.793004438281059 5.4730504304170635 3.0934632867574683 10.470183432102205 2.8555045723915082 59.013761162757874 3.3314220011234301 7.8526375740766508 5.2350917160511017 2.6175458580255508 3.5693807154893866 3.8073394298553458 3.0934632867574674 2.85550457239151 3.3314220011234283 27.365252152085308 10.94610086083412 4.045298144221305 2.3795871436595908 2.6175458580255535 6.6628440022468558 12.373853147029875 4.5212155729532233 51.39908230304718 6.6628440022468549 2.3795871436595917 4.7591742873191833 5.4730504304170609 7.8526375740766508 2.6175458580255508 4.283256858587265 3.8073394298553467 2.3795871436595917 3.8073394298553467 16.895068719983101 11.184059575200079 3.8073394298553458 2.3795871436595908 18.322821006178856 2.85550457239151 3.0934632867574692 20.940366864204407 9.2803898602724058 5.9489678591489819 3.0934632867574718 3.0934632867574692 4.5212155729532242 2.3795871436595917 2.3795871436595908 4.7591742873191833 13.087729290127752 5.4730504304170609
leaf_count=11 15 32 12 10 36 18 12 17 51 11 121 23 13 44 12 248 14 33 22 11 15 16 13 12 14 115 46 17 10 11 28 52 19 216 28 10 20 23 33 11 18 16 10 16 71 47 16 10 77 12 13 88 39 25 13 13 19 10 10 20 55 23
internal_value=0.446189 0.414794 0.398544 0.45048 0.41893 0.419183 0.453273 0.453988 0.457898 0.44181 0.459411 0.455623 0.421731 0.445356 0.454427 0.458152 0.449699 0.437703 0.408806 0.432683 0.427335 0.436265 0.398888 0.420438 0.45037 0.467288 0.471285 0.491581 0.439913 0.445058 0.432011 0.419446 0.39602 0.462355 0.456222 0.495016 0.480165 0.40212 0.46253 0.399255 0.473378 0.445645 0.410916 0.439295 0.475456 0.466527 0.491505 0.359182 0.466111 0.371824 0.392631 0.434344 0.438663 0.426092 0.438432 0.391157 0.420689 0.397773 0.452765 0.448902 0.46354 0.348635
internal_weight=498.761 59.9656 44.7362 438.796 35.6938 31.6485 403.102 400.247 327.907 21.4163 317.675 256.995 17.8469 24.7477 22.3681 239.149 124.214 65.2007 10.4702 7.85264 11.8979 72.3394 12.3739 9.28039 6.42489 114.934 102.798 31.4106 68.5321 54.7305 33.7901 27.1273 14.7534 71.3876 60.4415 9.04243 8.32856 8.32856 15.2294 10.4702 10.9461 6.66284 10.2322 6.18693 60.6795 43.7844 14.9914 10.9461 20.9404 10.2322 7.37672 60.2036 54.7305 33.7901 24.5097 5.47305 10.2322 6.9008 18.5608 12.6118 15.4673 13.0877
internal_count=2096 252 188 1844 150 133 1694 1682 1378 90 1335 1080 75 104 94 1005 522 274 44 33 50 304 52 39 27 483 432 132 288 230 142 114 62 300 254 38 35 35 64 44 46 28 43 26 255 184 63 46 88 43 31 253 230 142 103 23 43 29 78 53 65 55
is_linear=0
shrinkage=1


Tree=1
num_leaves=63
num_cat=0
split_feature=4 2 4 0 0 3 1 1 0 3 3 0 4 2 3 2 5 7 7 0 2 2 0 4 2 6 3 4 3 6 1 3 0 7 0 2 6 0 4 7 0 0 3 3 4 1 0 1 7 0 5 4 4 3 6 5 4 3 5 2 6 3
split_gain=24.5497 17.2472 12.0064 31.4046 13.1996 26.8266 23.8361 13.6828 15.1835 15.1231 12.1317 13.5457 10.19 9.75919 9.14636 8.75622 8.66262 11.5649 9.14852 9.67667 10.5526 8.47373 8.10111 9.81919 10.0546 7.52984 7.35959 7.32744 7.56644 7.64075 7.2146 7.0561 7.05561 7.63912 6.84642 6.73991 6.4285 6.11861 6.08203 5.91407 5.77155 5.75377 11.1282 10.994 6.04233 11.5244 9.21682 8.05576 10.0109 5.59286 5.4643 7.55062 5.36089 5.08832 4.72345 8.10099 7.5866 4.6378 4.62106 4.77523 4.54689 4.35957
threshold=262.07978681416972 15944.863224857019 387.32842254386139 7.9073471424845847 6.1403102943411207 5.2592295105369358 221.80215556508873 163.94224104752871 8.3160167521228825 8.530759190800163 8.9400641439829798 7.0397446385810607 327.93607373782413 34552.122864001896 7.7099152384910878 19517.311420659094 350.5589249160227 83.372596864142963 86.1252118461138 6.4925209840550533 22312.610006219162 34369.608032833021 6.5279600211693767 299.2159970971444 17601.868054584062 17.350441039217291 5.5020337564525938 293.36140974364849 6.812679457864923 15.03010710131676 189.46082069974941 7.6423643678816662 7.4158254165126616 86.725787171654503 7.3722629758658522 12048.889956375153 17.304546183426201 6.1031323053418491 337.52287169237155 54.953814875722635 5.9412092064254516 7.0397446385810607 6.235137755104442 6.7018567603180452 333.53256261154587 217.94088900349939 7.6310614054107058 214.16813927491873 74.582346156977522 8.7606285596482074 400.93480998663279 373.47498454996025 333.27583171351745 7.5684421730558258 11.829546005905572 407.8261791912517 347.91206945247205 6.398148851018882 430.33263203651012 18462.281296279831 18.752170308100492 6.9723680883766548
decision_type=2 2 2 2 2 2 2 2 2 2 2 2 2 2 2 2 2 2 2 2 2 2 2 2 2 2 2 2 2 2 2 2 2 2 2 2 2 2 2 2 2 2 2 2 2 2 2 2 2 2 2 2 2 2 2 2 2 2 2 2 2 2
left_child=1 -1 4 10 5 -2 15 13 16 21 11 39 -8 36 -13 -7 32 22 -19 -20 58 27 35 24 -24 -11 -26 -10 -29 30 -30 -14 33 -9 -28 -18 54 -3 -34 -4 57 42 -25 -44 47 -46 61 -43 -49 -32 -17 -52 -50 -37 55 -6 -56 -41 -21 -60 -38 -47
right_child=2 37 3 -5 7 6 12 8 9 25 -12 14 31 -15 -16 50 17 18 19 20 -22 -23 23 41 26 -27 34 28 29 -31 49 -33 38 -35 -36 53 60 -39 -40 40 -42 44 43 -45 45 46 -48 48 52 -51 51 -53 -54 -55 56 -57 -58 -59 59 -61 -62 -63
leaf_value=0.038605694081966041 -0.058738737607958162 -0.02106562748577501 -0.12363270772371913 0.058020295257551029 -0.062083879775353228 0.018934597160033772 0.033173397663149348 -0.017428760653796935 -0.038990204812127734 -0.08269711241863141 -0.10719109055222271 0.05446106560783897 -0.087188180685906877 -0.09459005754499572 -0.050370692968542401 0.076258364819614038 -0.044737703446996839 -0.080260732141256938 -0.10648519241185339 0.070245675303344593 -0.047524717502998637 -0.034302966694865898 0.040194765672550176 0.041622642928263121 -0.12101564998230302 0.023941862547743449 0.0055799638644701867 0.060253199479975407 -0.05898799619939752 0.050587269335501873 0.081478591935784606 -0.0073683578408599354 -0.083856647064067577 0.065163942171713535 -0.079563042174336962 0.020659515909884352 0.067606367099982634 -0.10351125994206625 -0.013035457391402459 -0.12731253845142876 0.01223865369090287 -0.0090277070015663766 -0.086975791683794046 -0.0086308732927441595 0.042538784527164086 0.0424499925833694 -0.10655137797031343 0.052418097810339265 0.024416929403989537 -0.011418307186213368 0.04941292540607771 -0.044123112054458846 -0.074618269883976504 0.070999955930820646 -0.056465458429879462 0.038255921032409948 0.016535616217112661 -0.031033743397960101 -0.028834209348383849 0.060514626955475992 -0.02281606868607168 -0.043842477803762214
leaf_weight=3.5405502468347576 9.5497247874736768 2.873854771256446 3.3708643019199425 8.5290036499500257 3.1067831814289111 25.423008665442467 5.202479004859927 31.018947809934616 2.8694248348474494 4.5358924716711035 7.2744598835706702 5.4646706432104093 6.1941211372613889 4.7860477268695822 3.3599741011857986 18.738779067993164 2.3735063821077373 6.4453893899917629 2.3831084221601513 4.5003052502870577 6.9190346747636786 4.2878998070955268 3.5727469623088863 7.5712648332119015 3.1506593823432913 2.6066599935293198 5.2282659560441953 28.414803683757782 4.2685373276472109 11.170850679278372 2.6068430691957474 5.0067411512136459 7.1859455555677396 3.077373966574668 4.3053016364574432 10.669731840491297 3.3430238366127005 10.373118251562117 5.2436854094266891 2.383951872587204 2.8569331914186478 41.962931945919991 5.9317086637020138 18.270460933446884 30.994747042655945 3.8000154942274076 2.3820516765117645 13.94414657354355 2.6137982904911032 4.280855193734169 23.252193361520771 2.3782451897859564 2.8634262979030609 9.4795060902833921 16.500494912266735 5.706067830324173 4.5377622991800299 2.6315021961927414 4.0488532036542892 2.3711520731449127 2.3801012486219406 2.3805786669254303
leaf_count=15 40 12 14 36 13 107 22 130 12 19 30 23 26 20 14 79 10 27 10 19 29 18 15 32 13 11 22 120 18 47 11 21 30 13 18 45 14 43 22 10 12 177 25 77 131 16 10 59 11 18 98 10 12 40 69 24 19 11 17 10 10 10
internal_value=1.31682e-05 -0.0594244 0.00208457 -0.0257445 0.00432366 0.0207748 0.0295842 -0.000175504 0.00339272 0.0248648 -0.0518736 -0.0318214 -0.0246512 -0.0275586 0.0145465 0.0423312 -0.00231487 0.00224366 -0.0283874 -0.0118542 0.000787345 0.0333329 0.00700686 0.00278139 -0.0338958 -0.0437794 -0.0547647 0.0387425 0.0431382 0.0213567 -0.00791223 -0.051509 -0.0217305 -0.00997433 -0.0328701 0.0349554 -0.0185403 -0.0856252 -0.0539793 -0.0682148 -0.0444855 0.00727417 -0.011282 -0.0278324 0.0131151 0.0283539 -0.0229918 0.00329487 0.0299198 0.0237411 0.0557371 0.0407337 -0.0273575 0.0443429 -0.027847 0.00288326 -0.0407198 -0.0767971 0.0313975 0.00416571 0.030002 0.00921273
internal_weight=498.495 16.7875 481.707 35.8714 445.836 95.7453 86.1956 350.091 309.73 65.0418 27.3424 20.0679 16.4033 40.3603 8.82464 69.7922 244.689 198.163 26.6678 20.2225 17.8393 57.8992 171.495 148.972 16.257 7.14255 12.6842 53.6113 50.7419 22.3271 11.1562 11.2009 46.526 34.0963 9.53357 22.5227 35.5742 13.247 12.4296 11.2433 7.87239 132.715 31.7734 24.2022 100.942 39.5574 8.56265 61.3843 19.4214 6.8877 44.3692 25.6304 5.47722 20.1492 29.8511 8.81285 21.0383 5.01545 10.9203 6.42001 5.72313 6.18059
internal_count=2096 70 2026 150 1876 403 363 1473 1304 274 114 84 69 169 37 294 1030 835 112 85 75 244 723 628 68 30 53 226 214 94 47 47 195 143 40 95 149 55 52 47 33 560 134 102 426 167 36 259 82 29 187 108 23 85 125 37 88 21 46 27 24 26
is_linear=0
shrinkage=0.05


Tree=2
num_leaves=63
num_cat=0
split_feature=4 2 1 4 0 0 1 0 0 2 4 1 1 4 4 4 1 7 5 4 4 4 1 0 7 4 5 6 2 0 7 5 4 0 1 2 0 8 0 0 1 0 4 7 1 1 7 7 7 6 5 8 2 5 4 0 2 7 4 7 0 0
split_gain=21.9549 15.2863 11.1073 11.276 26.973 15.055 11.4029 12.9399 10.4106 10.4065 10.1078 9.5053 8.42181 8.89943 8.11449 7.592 7.09821 15.2486 6.62753 7.9819 12.8005 9.1384 7.46327 6.75575 8.81997 6.59177 6.46855 7.13229 7.60457 6.49537 6.7143 6.42503 6.19098 6.17187 6.16058 5.89143 5.60685 5.3416 7.58972 5.3392 5.27587 5.97716 7.79034 6.89089 5.70863 6.54559 5.6096 5.22397 6.06573 5.14376 5.20847 6.35877 4.9161 10.0266 9.15076 4.89167 4.5636 6.03766 5.93455 7.21542 4.42933 8.05199
threshold=262.07978681416972 15944.863224857019 280.6791609674836 387.32842254386139 7.9073471424845847 5.6077396415180356 163.94224104752871 8.3160167521228825 7.0456098721311848 26953.596417891404 327.93607373782413 230.23951440939797 219.19166244815503 409.11840539485985 333.27583171351745 355.12602511889276 173.3864367587627 79.856440858082593 352.25820079965075 295.93565051145885 272.64278148256386 371.66247342215729 209.63101109806146 7.4158254165126616 70.04941903704561 383.03592547735076 483.7279980336437 16.132163743597264 11690.859304831547 6.5489920610117913 71.43250839670479 485.78176600791801 334.88147839895134 9.2764855779009689 220.46360217487467 18041.269998119653 7.2710072251008704 4.0036830203097731 6.5489920610117913 6.1031323053418491 214.98265059225841 6.5873703653187095 337.88900655770163 62.003067242516259 222.48685721678063 229.73315520752854 81.526290157637774 55.053960925755774 67.114792465937953 18.081479790338481 434.86789296495255 3.5262962446872215 29220.977534850816 449.3381731121853 295.93565051145885 7.1306605273985051 22554.135920152574 57.101167996013764 341.03296829266441 57.863790014053755 9.6720639874340915 9.13302959372235
decision_type=2 2 2 2 2 2 2 2 2 2 2 2 2 2 2 2 2 2 2 2 2 2 2 2 2 2 2 2 2 2 2 2 2 2 2 2 2 2 2 2 2 2 2 2 2 2 2 2 2 2 2 2 2 2 2 2 2 2 2 2 2 2
left_child=1 -1 3 5 9 10 8 16 37 12 -2 49 13 31 -10 52 17 -8 23 20 -20 26 -22 24 35 34 27 28 -21 -30 -31 47 -29 -16 55 -18 -32 38 -7 -3 41 -28 43 -43 -42 -46 -44 -5 -49 50 -12 -52 54 -54 -9 -23 57 -37 59 -58 61 -56
right_child=2 39 -4 4 -6 6 7 15 14 -11 11 -13 -14 -15 33 -17 18 -19 19 21 22 25 -24 -25 -26 -27 40 32 29 30 36 -33 -34 -35 -36 56 -38 -39 -40 -41 44 42 46 -45 45 -47 -48 48 -50 -51 51 -53 53 -55 60 -57 58 -59 -60 -61 -62 -63
leaf_value=0.037032125927267033 0.056469907431526759 -0.019927618140028698 -0.082305519354264112 -0.098311395626893464 0.055232151126074241 -0.072680899224086659 0.04886545874846502 -0.058572481980895798 -0.085763680059977823 0.028667833294883052 0.034806570026610445 -0.049178179792727483 -0.11549193996924144 -0.093560205952413183 -0.045426756560837084 0.061996458351741779 -0.060002019618508755 -0.05198946132693183 0.08043127316786608 -0.032025592599147057 -0.073811722424276652 -0.066069559810352549 -0.0073860931128476642 -0.049774213530559754 0.023989340683211235 0.029365391215028121 0.041246740016157066 -0.020223028367645834 0.053393691292316914 0.03022996300350779 -0.025859094426133478 0.046323740861470085 0.025594648238774349 0.030576750360969452 -0.12181934932166152 -0.021524253233582129 0.02474298262786305 0.0226901456266968 0.008067625001200009 -0.096681798477128558 -0.08694601101349983 -0.068519059390747705 0.055684766375527953 -0.0040176824913792228 0.038456038987197134 -0.051173266120401843 -0.031742950046966818 0.043523474415622855 -0.055026985490370363 0.070191535635360874 -0.073892917929144444 0.010139576408806791 -0.05692085696206494 0.0522027309746875 0.034366839345153347 0.022042801703371011 -0.012780832870013529 0.08327239780350823 0.03262733753056548 -0.10878695210819855 0.057438614313681857 -0.027374667749575005
leaf_weight=3.5073027759790447 20.700906738638878 2.8857566118240348 3.8755929321050635 2.6902747601270764 8.1762958467006666 4.8009300827980059 17.20306454598904 3.1390004754066458 8.476007744669916 3.7840404361486426 15.284546762704851 5.2760282009840003 5.3979093283414832 6.0956213623285285 8.895253971219061 11.225382864475248 8.383117541670801 4.7916856706142417 2.3502282798290279 6.1615208387374869 9.4283892065286654 4.0432384610176069 7.667446941137313 13.03003805875778 13.779352262616156 2.8508694320917121 7.5448072701692572 23.02661095559597 16.674918785691261 41.488274723291397 12.561607316136362 2.8403609842061988 10.845352962613104 3.8173937499523154 2.660677507519722 2.8714340329170254 9.7024613916873914 12.599791094660757 7.3884373903274536 10.545716956257818 3.8256781995296469 6.6505265533924165 6.103937625885008 10.972228586673735 3.5357895195484144 4.8054152578115463 2.6232353299856186 2.6087818741798401 3.888897716999054 4.9296512454748145 2.8696109056472769 10.446759968996046 5.7277744412422162 3.3281776458024979 22.785551920533184 2.5804344415664673 5.247559577226637 2.6362203657627106 3.0763355791568747 3.1210380047559738 10.814153775572775 6.8736815899610511
leaf_count=15 88 12 16 11 35 20 73 13 35 16 65 22 22 25 37 48 35 20 10 26 39 17 32 54 58 12 32 97 71 176 53 12 46 16 11 12 41 53 31 43 16 28 26 46 15 20 11 11 16 21 12 44 24 14 97 11 22 11 13 13 46 29
internal_value=2.81041e-05 -0.0559192 0.00199841 0.00268322 -0.024435 0.00486204 0.00121892 0.00441337 -0.0221352 -0.04829 0.0282555 0.0132049 -0.0606705 -0.0443429 -0.0478696 0.0246634 -0.000339176 0.0268936 -0.00273271 0.00144194 -0.0289789 0.00475312 -0.04402 -0.0185926 -0.00820531 -0.0371365 0.0078058 0.0138995 0.021509 0.0256102 0.0183432 -0.0194009 -0.00555282 -0.0226042 -0.0575567 -0.025715 -0.00380721 -0.000138677 -0.0237362 -0.0801911 -0.0081306 0.00200784 -0.00922749 -0.0283594 -0.0363745 -0.0131799 0.0294055 -0.0397189 -0.0154595 0.0230209 0.0148906 -0.007969 0.0167065 -0.0168165 0.0236674 -0.031743 -0.00876001 0.0286363 -0.0267563 -0.048586 0.0300457 0.0200579
internal_weight=497.919 16.9388 480.98 477.105 35.4822 441.623 382.115 336.137 45.9778 27.3059 59.5075 38.8066 23.5218 18.1239 21.1887 63.8937 272.243 21.9948 250.249 198.104 19.4461 178.658 17.0958 52.1451 39.1151 12.1352 166.522 120.461 86.5888 80.4273 63.7523 12.0283 33.872 12.7126 9.28435 25.3357 22.2641 24.7892 12.1894 13.4315 46.0616 33.8947 26.3499 17.6228 12.1669 8.3412 8.72717 9.18795 6.49768 33.5306 28.6009 13.3164 52.6683 9.05595 43.6124 6.62367 16.9526 5.50765 11.4449 8.3686 40.4734 29.6592
internal_count=2096 70 2026 2010 148 1862 1610 1418 192 113 252 164 97 75 88 271 1147 93 1054 836 81 755 71 218 164 51 704 510 367 341 270 50 143 53 39 106 94 104 51 55 194 143 111 74 51 35 37 38 27 142 121 56 223 38 185 28 71 23 48 35 172 126
is_linear=0
shrinkage=0.05


Tree=3
num_leaves=63
num_cat=0
split_feature=4 2 1 4 0 0 3 3 0 1 0 3 4 1 0 4 1 7 6 2 4 6 0 3 6 1 0 1 2 6 2 4 4 8 0 3 2 6 3 3 2 7 2 2 3 6 0 3 2 3 0 3 8 3 0 3 0 3 3 1 4 4
split_gain=19.7096 13.6256 9.90422 10.1755 24.3761 13.7127 23.1636 10.2708 13.7412 10.27 11.7743 13.8778 9.52278 10.3662 9.28556 7.14883 6.4509 13.8568 6.29147 6.12598 6.03211 5.70033 5.53224 5.27294 6.3042 7.7686 5.23856 9.8014 7.78428 7.91668 6.87894 6.61149 8.32471 6.11559 5.98817 5.85685 7.58544 7.20138 6.6343 6.47877 7.69687 5.74158 6.68372 6.45436 5.3703 5.27393 4.94141 8.17258 8.83391 7.82512 6.38126 4.85399 4.82091 7.32463 6.73692 4.75274 4.72088 4.61838 4.60268 4.36845 4.74643 11.3423
threshold=262.07978681416972 15944.863224857019 280.6791609674836 387.32842254386139 7.9073471424845847 5.6077396415180356 5.5020337564525938 8.0223697755542531 7.0397446385810607 163.94224104752871 8.3160167521228825 8.530759190800163 327.93607373782413 230.23951440939797 7.0456098721311848 333.27583171351745 173.3864367587627 79.856440858082593 17.350441039217291 29220.977534850816 295.93565051145885 13.178184777836409 9.2764855779009689 6.812679457864923 15.03010710131676 189.46082069974941 6.5489920610117913 183.78236231898214 12713.031865604835 7.6061641167904677 12048.889956375153 295.93565051145885 275.5038827398086 2.3637224671007964 7.0397446385810607 6.1323385886104065 17867.072413327431 18.659095055572099 8.2695110359761816 7.9249303762392591 28937.306393658033 77.274009251936675 14807.341021869066 19000.330743391442 8.4493387896584036 19.517014135207862 7.1592256507253582 6.4729363414282313 16823.30802306726 7.6682153787231986 7.6079870512438275 7.4448274630457432 4.0036830203097731 6.0673024839675893 6.5489920610117913 8.2549687843325898 6.1031323053418491 7.8220894567122317 5.3021144059030751 178.22049688175866 359.56394447401402 337.30885330112875
decision_type=2 2 2 2 2 2 2 2 2 2 2 2 2 2 2 2 2 2 2 2 2 2 2 2 2 2 2 2 2 2 2 2 2 2 2 2 2 2 2 2 2 2 2 2 2 2 2 2 2 2 2 2 2 2 2 2 2 2 2 2 2 2
left_child=1 -1 3 5 7 6 21 8 58 14 16 19 -8 -14 52 57 17 -11 -13 20 -12 -2 55 -22 25 -25 27 -18 34 -30 -29 32 -31 -33 -28 41 46 38 39 59 -41 42 -35 -43 -40 -39 47 -37 51 -48 -51 -49 54 -54 -7 -17 -3 -16 -5 -38 61 -61
right_child=2 56 -4 4 -6 9 12 -9 -10 10 11 18 13 -15 15 22 26 -19 -20 -21 23 -23 -24 24 -26 -27 28 30 29 31 -32 33 -34 35 -36 36 37 45 44 40 -42 43 -44 -45 -46 -47 49 48 -50 50 -52 -53 53 -55 -56 -57 -58 -59 -60 60 -62 -63
leaf_value=0.035532546579566185 0.0022034508639563136 -0.018859203861805514 -0.077191800789648851 -0.11564426227146313 0.053273198706120128 -0.068124575171283119 0.069719405274278834 -0.081390557542125166 0.039438836544675046 0.047005508200644308 -0.037554588653459973 -0.076794610342389061 0.0351276436646073 -0.04572307511868838 -0.040282956973388462 -0.069623534306706467 0.055084074582916469 -0.048905078611991497 0.020914263114329923 -0.0057280078740718473 0.058497427784636846 -0.083880455217214753 0.029244001341372301 -0.06711342886660325 0.050468227051043119 0.028475746274710098 -0.036006380394276304 -0.054007035789305449 -0.08316289965580774 0.0289075281052904 0.0078090195292487043 -0.084225425142392174 -0.05460867184553414 -0.049062329275853155 0.037857559866265933 -0.11118292777870753 -0.064236059669981763 -0.094138551156802516 0.081341103859102204 -0.013207070133461103 -0.12097991660488575 0.043022217760750887 0.034989269531622784 -0.052519599951448274 0.015516827788321023 -0.010526841901793576 0.031087131226207189 0.034595252703377856 -0.097546104924816787 0.0069630178016052121 -0.087813510268959602 -0.033285921971384941 -0.044780059417911834 0.043650365396275537 0.0076778890685499342 0.0065786220589143553 -0.090844685654132507 -0.11391270480803697 -0.036388851859534027 -0.001520588383966532 -0.031895919218121925 0.062587979913304642
leaf_weight=3.4734296798706081 3.1031969636678678 2.896493285894393 3.9243675619363776 2.4470830261707324 8.0561774522066099 4.8641873449087161 17.315333515405655 11.600691512227057 6.0916759371757498 16.994918167591099 2.4294896721839896 4.6110074371099463 28.987861514091492 4.5926248133182517 3.9099525362253207 5.8108326047658903 10.245007231831549 4.8379419445991507 2.5633815079927444 9.0500129610300046 25.155543774366379 5.0568399280309677 3.7924427241086951 3.3412210643291491 10.459261342883108 5.8417686223983765 3.3538619428873089 5.0583375096321097 3.5945984274148932 3.78364169597626 40.807671099901199 2.3889058530330649 14.11454503238201 2.6360010951757458 15.087440207600592 3.8452003896236446 2.3815633952617636 3.3652746677398673 4.0199730545282391 5.236904338002204 2.4232530146837234 2.601610600948332 23.022198721766472 5.5147376507520676 13.519411042332647 4.290510892868042 6.8831695169210416 4.2577010542154294 3.591513752937316 3.3267483860254288 3.8100034892559052 6.903765395283699 3.1163280159234992 9.4198911637067777 7.3756420165300369 3.1583911627531052 10.658929586410521 4.6775559633970261 7.286391019821167 34.009475156664848 7.3988628834485999 8.6552259773015958
leaf_count=15 13 12 16 10 35 20 75 47 26 73 10 19 124 19 16 24 44 20 11 38 109 21 16 14 45 25 14 21 15 16 173 10 58 11 64 16 10 14 17 22 10 11 98 23 57 18 29 18 15 14 16 29 13 40 31 13 43 19 30 143 31 37
internal_value=3.93949e-05 -0.0528229 0.00191478 0.00256687 -0.0231919 0.00464129 0.027062 -0.045653 -0.0194555 0.00117092 0.00421297 0.0236075 0.0396005 0.0240701 -0.0209502 -0.0451176 -0.000312015 0.0257527 -0.0418836 0.0319565 0.0391779 -0.0511434 -0.0213833 0.0433393 0.0239264 -0.00630427 -0.00258713 0.0108681 -0.00647848 -0.0097243 0.000991629 -0.00818935 -0.0369535 -0.0048481 0.0244242 -0.00359804 -0.00885607 -0.00101414 0.00354772 -0.00434747 -0.0473005 0.0147595 0.0263542 -0.0218947 0.0306036 -0.0472803 -0.0293637 -0.0462605 -0.0293392 -0.00694922 -0.0436341 -0.00739168 -0.000125484 0.0216678 -0.0224465 -0.04279 -0.075463 -0.0803886 -0.0563144 0.00192626 0.00507365 0.0114849
internal_weight=497.028 17.0289 479.999 476.075 35.482 440.593 59.0559 27.4258 15.8251 381.537 335.412 63.4517 50.8958 33.5805 46.1252 21.3492 271.96 21.8329 7.17439 56.2773 47.2273 8.16004 12.7617 44.7978 19.6423 9.18299 250.127 56.111 194.016 175.575 45.866 171.98 17.8982 154.082 18.4413 151.693 117.919 85.3005 77.6447 60.1053 7.66016 33.7745 25.6582 8.11635 17.5394 7.65579 32.6181 18.5982 14.753 14.0199 7.13675 11.1615 24.776 12.5362 12.2398 8.96922 13.5554 8.58751 9.73347 52.4451 50.0636 42.6647
internal_count=2096 70 2026 2010 148 1862 252 113 66 1610 1418 271 218 143 192 88 1147 93 30 241 203 34 53 193 84 39 1054 238 816 738 194 723 74 649 78 639 496 359 327 253 32 143 109 34 74 32 137 78 62 59 30 47 104 53 51 37 55 35 40 221 211 180
is_linear=0
shrinkage=0.05


Tree=4
num_leaves=63
num_cat=0
split_feature=4 1 4 0 0 3 3 0 1 0 3 4 1 0 3 4 3 3 5 0 7 4 3 0 4 0 4 1 4 8 8 6 3 5 6 8 0 6 1 1 6 7 6 8 1 3 1 3 0 6 0 7 4 8 3 0 5 7 4 3 0 3
split_gain=17.7526 8.8655 9.19673 22.0624 12.5071 21.0337 9.31065 9.79158 9.26297 10.7283 12.6002 8.94778 9.39913 8.31104 7.17343 6.35676 6.30062 6.78586 6.17155 7.4524 7.17767 7.04238 12.6518 10.3208 6.54691 8.00595 6.85882 9.37321 6.78956 6.7622 6.75188 5.59162 5.52179 5.0282 5.02673 4.82796 4.76176 7.87421 7.34872 6.32953 7.63846 7.4481 8.84338 4.74323 4.5829 5.57339 8.36187 7.41802 4.79033 5.9752 6.20597 4.39258 4.66643 4.35799 6.64983 6.00341 4.35352 5.16337 4.35056 5.54012 6.10996 4.82973
threshold=262.07978681416972 280.6791609674836 387.32842254386139 7.9073471424845847 5.6077396415180356 5.5020337564525938 8.9400641439829798 7.0397446385810607 163.94224104752871 8.3160167521228825 8.530759190800163 327.93607373782413 230.23951440939797 7.0456098721311848 7.7099152384910878 333.27583171351745 6.3786412352975406 9.7430366715097865 352.25820079965075 7.4158254165126616 81.081640956803611 295.93565051145885 5.7754647250822257 7.3325537051933809 365.33117369145026 7.2963053046836288 333.53256261154587 208.82776130317311 338.06125366988505 4.3896665401591397 3.598692314871307 17.350441039217291 8.5993206351408329 484.72602544354362 13.178184777836409 4.5015022773389672 6.2793237980892993 15.149824908469499 205.94666110964695 217.94088900349939 11.19883699529723 73.403060437479652 15.40993231838141 3.8727487177206128 170.28057078266673 5.8133364446549693 192.77653283872078 5.3362088830447512 6.6352215089107967 11.144556003511044 6.9680351783722658 54.953814875722635 396.28039922439075 4.0036830203097731 6.0673024839675893 6.5489920610117913 397.24198827173478 83.211537788606122 321.78158916603417 7.0742971274352078 9.13302959372235 5.3362088830447512
decision_type=2 2 2 2 2 2 2 2 2 2 2 2 2 2 2 2 2 2 2 2 2 2 2 2 2 2 2 2 2 2 2 2 2 2 2 2 2 2 2 2 2 2 2 2 2 2 2 2 2 2 2 2 2 2 2 2 2 2 2 2 2 2
left_child=16 2 4 6 5 34 7 51 13 18 58 -7 -13 53 -9 -15 -1 -18 19 20 -10 22 -20 32 26 30 36 56 -29 -30 -26 -12 -24 35 -2 -17 37 -23 -39 44 -41 -42 -43 -32 -38 46 -46 -48 -47 -50 -51 -4 -53 55 -55 -6 -28 -58 61 -60 -61 -11
right_child=1 -3 3 -5 8 11 -8 14 9 10 31 12 -14 15 -16 33 17 -19 21 -21 -22 24 23 -25 25 -27 27 28 29 -31 43 -33 -34 -35 -36 -37 39 38 -40 40 41 42 -44 -45 45 48 47 -49 49 50 -52 52 -54 54 -56 -57 57 -59 59 60 -62 -63
leaf_value=-0.081115499921980971 0.0020942716442618552 -0.072677922656580088 -0.10539892847415511 0.051426193187807646 -0.064060739863147226 0.067630876519563662 -0.090816473202838352 0.050621674926183448 -0.013312580562144991 0.063238265247225464 -0.072111528274751993 0.033685035031188248 -0.043096692338675052 -0.075720875455201161 -0.042131811343321682 -0.06145797070820385 0.0073141934054002117 -0.090682145917694024 -0.099070733708324726 -0.047732480683811147 0.046444494303590836 0.054858874103469651 0.044721233390353408 -0.063896093234586102 0.01112261344630912 0.030673595048528398 0.072504434046248789 0.053137412894461215 -0.044585051613228552 0.036488393749366139 -0.12094987098359707 0.019981517523362857 -0.035831873322909151 0.029681271090192154 -0.078539537685926294 0.021132602092745922 0.035203229239436654 0.021447332602508043 -0.084767695147277125 -0.06511832636741921 0.051574427227619263 0.03968726133449875 -0.060496983472990498 -0.041888950820993663 0.079174730199906812 0.015556200674856255 -0.049432030938203808 0.059899522559334797 0.015185166982633932 -0.076096869841106141 -0.023140708247632202 0.021898134729054948 -0.061300248788012802 -0.042176431122571932 0.041931970366953383 0.0073065679228024628 0.038215940763801352 -0.020942889869034351 0.053760285575568938 0.038072946890364688 -0.030190510456571625 -0.0052913520623534679
leaf_weight=8.3455795198678988 3.1017632037401182 3.9587347805500022 3.2384093999862733 7.9314379543066016 4.9127811342477816 16.966410025954247 7.4821589291095725 5.3172744959592801 35.164294317364693 3.2236033529043189 4.66348011791706 28.724642351269722 4.6279258131980887 8.6586709469556826 3.4286445826292038 6.785992890596388 6.2598685175180417 2.4610657393932343 4.4483720362186459 13.390133455395697 5.8629372417926779 10.412852093577387 8.0381498336791974 4.9048738330602637 4.9593807458877626 5.8790415227413169 7.4332628846168509 3.724597945809367 9.7781288176774961 3.4899901002645484 2.4187053740024558 2.5492567121982574 2.8931520581245413 3.6171506196260443 5.1286926865577698 2.3936107009649277 5.5923949033021918 5.1243023723363867 2.3870613127946854 2.3687812238931683 14.224460780620577 4.7435247898101789 4.1123403459787369 8.7969122081994993 3.9528754502534849 9.1701803505420667 4.5366314798593521 2.3577565401792526 8.2890872508287412 6.5228311866521826 36.437270119786263 2.4039071798324567 5.638498529791832 3.1425606608390799 9.3182411640882474 7.3632739186286926 25.889681071043018 4.301124081015586 25.131100714206696 9.7408931106328946 4.9404923617839804 12.700360044836996
leaf_count=34 13 16 13 35 20 75 30 23 147 14 19 124 19 35 14 28 26 10 18 55 25 45 34 20 21 25 32 16 41 15 10 11 12 15 21 10 24 22 10 10 61 20 17 37 17 39 19 10 35 27 153 10 23 13 40 31 112 18 110 42 21 54
internal_value=4.99468e-05 0.00183646 0.00245783 -0.0220435 0.00443448 0.0259488 -0.0432265 -0.0254465 0.00112611 0.00402398 0.0226224 0.038069 0.023031 -0.0198621 0.0142597 -0.0426349 -0.0500597 -0.0203406 -0.000286535 -0.0153438 -0.00477308 0.00348614 -0.0245653 -0.00363682 0.00637594 -0.0192955 0.00961392 0.0243069 -0.00651448 -0.0232598 -0.0374575 -0.0395623 0.0234015 -0.020248 -0.0481516 -0.0399222 0.00293947 0.0267121 -0.0123071 -0.00122546 0.0203874 0.029163 -0.00683464 -0.0589388 -0.00838178 -0.011802 0.0211981 -0.0120426 -0.0177265 -0.0236819 -0.0311813 -0.0562304 -0.0364319 -0.000110196 0.0207202 -0.0212541 0.0382273 0.0297879 0.0306696 0.0395043 0.0151013 0.0085816
internal_weight=495.762 478.695 474.736 35.4403 439.296 58.5494 27.5089 20.0267 380.747 334.554 62.9492 50.319 33.3526 46.1923 8.74592 21.4554 17.0665 8.72093 271.605 54.4174 41.0272 217.188 20.2845 15.8362 196.903 22.054 174.849 54.6168 16.9927 13.2681 16.175 7.21274 10.9313 12.7968 8.23046 9.1796 120.232 17.9242 7.51136 102.308 25.4491 23.0803 8.85587 11.2156 76.859 71.2666 10.8473 6.89439 60.4194 51.2492 42.9601 11.2808 8.04241 24.7369 12.4608 12.2761 37.6241 30.1908 55.7364 39.8125 14.6814 15.924
internal_count=2096 2026 2010 148 1862 252 113 83 1610 1418 271 218 143 192 37 88 70 36 1147 227 172 920 84 66 836 93 743 234 72 56 68 30 46 53 34 38 509 77 32 432 108 98 37 47 324 300 46 29 254 215 180 46 33 104 53 51 162 130 241 173 63 68
is_linear=0
shrinkage=0.05


Tree=5
num_leaves=63
num_cat=0
split_feature=4 2 5 3 0 3 2 2 4 3 0 0 4 0 0 4 6 3 5 5 8 2 7 4 3 2 0 7 7 4 0 5 0 3 2 7 0 3 5 5 8 6 3 0 7 7 4 4 8 3 0 7 7 6 6 5 7 3 3 3 5 7
split_gain=15.9768 11.9746 8.0797 7.63404 12.9205 9.32909 12.2031 7.50725 6.62534 10.3499 13.3744 7.26027 13.1096 11.805 7.86899 7.76581 8.691 12.3413 6.98998 6.95912 6.4912 7.16989 6.51271 5.95752 8.43332 5.73204 6.24791 5.35347 5.20873 5.10697 5.0237 4.93467 4.8205 4.78197 4.78559 4.73162 6.50729 4.84308 4.54793 4.50486 4.4157 4.33786 4.3216 4.1922 4.17002 7.63008 5.60634 5.21784 5.07352 10.2714 9.71976 6.4663 5.42132 6.56538 4.16207 4.291 4.13679 4.07204 4.50683 4.05862 4.04099 4.00836
threshold=262.07978681416972 15944.863224857019 358.05019677374173 7.2539869072595033 6.9901332234641878 5.4306675981794452 19344.47042163791 19882.844915943784 295.93565051145885 5.6919646778610646 7.3325537051933809 8.1785327084512112 371.66247342215729 7.0397446385810607 7.6079870512438275 355.12602511889276 14.356298494298928 5.5020337564525938 464.9380630283419 597.06826807736263 4.559586430583523 15895.785241222306 59.503512202816644 383.03592547735076 7.7099152384910878 31364.464048223294 9.5415745751086831 77.591593002147007 82.884793013191768 335.37267777893175 7.0954246218196024 276.81970595449076 7.0456098721311848 9.2077063315493426 9468.9694127272214 70.04941903704561 7.9073471424845847 6.0673024839675893 459.0356778368178 459.88821983835436 4.6293631364755763 19.347492084608067 3.6582881256171027 6.1031323053418491 66.150626146094126 63.029259250517001 314.27026684413039 321.78158916603417 3.6757623501513188 7.9249303762392591 5.9046863346475851 61.113329777169014 60.415006899159295 13.139400169348649 15.40993231838141 442.90774941882029 71.72220957902806 5.3021144059030751 8.9400641439829798 9.5021899768787623 418.42638070862751 49.852446212588823
decision_type=2 2 2 2 2 2 2 2 2 2 2 2 2 2 2 2 2 2 2 2 2 2 2 2 2 2 2 2 2 2 2 2 2 2 2 2 2 2 2 2 2 2 2 2 2 2 2 2 2 2 2 2 2 2 2 2 2 2 2 2 2 2
left_child=1 -1 3 5 7 6 -2 29 9 56 18 12 14 57 19 16 17 -13 -11 20 33 22 -22 -15 -25 26 -19 -20 35 59 -23 -6 -8 34 -10 37 38 -16 -37 -12 -39 -18 -36 -3 45 48 54 -48 50 51 -44 -50 -52 -54 -46 -56 -4 -14 -59 -5 -24 -33
right_child=2 43 8 4 31 -7 32 -9 11 10 39 15 13 23 28 -17 41 25 27 -21 21 30 60 24 -26 -27 -28 -29 -30 -31 -32 61 -34 -35 42 36 -38 40 -40 -41 -42 -43 44 -45 46 -47 47 -49 49 -51 52 -53 53 -55 55 -57 -58 58 -60 -61 -62 -63
leaf_value=0.035523845460729106 0.02774794708599547 -0.015393286225571613 -0.095957515137869209 0.045549891246310759 0.017685802958796692 0.013056604359805364 -0.10558519204274262 0.034882763742307275 -0.058287096568984786 0.056744114681126459 -0.093558506305125577 0.077849320182962728 -0.096463943587570544 -0.033629131215932598 0.029381337887301174 0.052263607144278336 0.037308655933112042 -0.029030777843329414 0.021455514719167637 -0.049338533751232309 0.058982117690384112 0.04914752691229457 -0.085352373398675838 0.06889963364245659 -0.013490689951285433 -0.079124592945229361 0.043048958811560678 -0.066834675348391687 -0.069069178986945465 -0.072160342580585235 -0.007010603611376948 0.0080033723740329694 -0.019008212028390953 0.037656890679606245 -0.058866560161336151 0.037513339316710137 0.079645394595800945 -0.046817661338447183 -0.060415358385828559 -0.017880155602743825 0.015011191337722328 -0.028327250652126906 -0.029366463640890728 -0.082946869322064867 0.057298901972582007 0.05820335723008993 -0.057637298693765826 -0.0019123211956819331 0.020985511999944837 -0.063653486419848179 0.062804623712934993 -0.059745867976818037 0.059066136266041458 -0.054264683749451786 0.043449982980744331 -0.047120354224443994 -0.022079346370870532 -0.026196794326553752 -0.089064444007036309 -0.043124926291763968 -0.00092678918338353136 -0.05676283968645221
leaf_weight=3.4710751622915295 4.4898760020732862 2.9222003519535056 4.7113762944936779 2.8144838064908999 2.905352950096133 43.864630088210106 4.8810355514287949 10.971206843852995 2.8408722877502433 8.5791945755481773 3.7223801016807547 3.4341340065002468 3.442918628454211 5.9574039727449444 3.9568129777908423 16.050992250442505 26.091100081801418 12.50971437990666 4.9529011696577063 4.5128819197416297 2.3361819684505445 28.563494682312012 2.6471321135759354 6.1348365098237974 6.2906827479600906 3.8996024578809729 3.9575051218271247 2.6278731971979141 3.8739804029464713 3.6678455322980881 4.6275155395269385 2.6339785903692272 2.3975018113851547 13.00169952213764 2.42437919974327 2.3400713205337507 3.2616320997476578 12.344877928495409 2.403122216463089 4.1685550659894943 3.7694965451955786 2.7860891222953788 5.7117511183023479 10.727456152439116 6.7328428477048856 9.8832925558090192 4.5578644126653662 53.620229423046112 20.262179896235473 5.736465409398078 12.871219441294672 2.8263137489557257 2.5353145897388449 2.576698437333107 2.5973106920719147 2.6339632123708725 3.1695819497108459 15.916607037186624 3.4727091789245597 2.382883295416832 3.0509149134159088 25.682436987757683
leaf_count=15 19 12 19 12 12 187 20 47 12 37 15 15 14 25 17 71 113 53 21 19 10 124 11 27 26 16 17 11 16 15 20 11 10 56 10 10 14 52 10 17 16 12 24 43 29 43 19 227 87 24 56 12 11 11 11 11 13 66 14 10 13 106
internal_value=5.88937e-05 -0.0473978 0.00176199 -0.0103617 -0.0243227 0.00245125 -0.0370783 0.0072327 0.00525436 -0.0165169 -0.00022211 0.00730845 0.00361171 -0.0223436 0.00829333 0.0218157 0.0125383 -0.00983195 0.0258325 0.0120343 0.0134766 0.0310589 -0.0113233 0.00747868 0.0271878 -0.0246162 -0.0117081 -0.00915025 -0.0147204 -0.0269858 0.0413179 -0.0443711 -0.0770673 0.00867035 0.00593563 -0.00722128 0.0252813 -0.020184 -0.0121019 -0.0535798 -0.0323546 0.0309761 0.0072874 -0.0684846 0.00849742 0.0178999 0.000132334 -0.006278 0.0103155 -0.00377431 0.0274558 0.011103 0.0455035 0.001942 0.031304 -0.00215247 -0.066245 -0.0463545 -0.0374567 0.00489436 -0.0401482 -0.0507383
internal_weight=494.189 17.1207 477.068 106.691 51.0582 55.633 11.7684 19.8364 370.377 31.9319 24.0509 338.445 269.716 41.2152 228.501 68.7291 52.6781 23.801 16.16 196.551 192.038 41.2252 8.03423 18.3829 12.4255 20.3668 16.4672 7.58077 31.95 8.86521 33.191 31.2218 7.27854 150.812 137.811 28.076 8.00483 20.0712 4.74319 7.89094 16.1144 28.8772 134.97 13.6497 132.545 62.4032 70.1422 58.1781 52.5199 28.825 23.695 23.0885 17.9832 5.11201 11.9641 5.23127 7.88096 22.8322 19.3893 5.19737 5.69805 28.3164
internal_count=2096 70 2026 449 213 236 49 84 1577 133 101 1444 1147 172 975 297 226 101 69 840 821 178 34 78 53 86 70 32 135 37 144 129 30 643 587 119 34 85 20 32 68 125 575 55 565 268 297 246 225 123 102 99 78 22 51 22 32 94 80 22 24 117
is_linear=0
shrinkage=0.05


Tree=6
num_leaves=63
num_cat=0
split_feature=1 0 3 3 0 2 3 5 2 0 6 1 0 2 1 7 7 0 2 1 6 5 2 1 3 1 7 7 6 8 1 5 1 1 7 2 2 7 6 6 7 8 2 3 2 5 2 8 7 7 2 7 2 2 0 3 1 7 2 1 3 5
split_gain=7.52423 9.5911 9.88467 7.09607 8.9964 10.6086 9.67938 9.04543 10.4175 8.63458 8.9372 7.58871 12.3211 16.2934 8.2164 9.78455 7.72701 6.91168 6.77458 6.55799 7.12183 7.78813 6.48295 5.86495 5.57769 5.25009 5.15066 5.5219 5.1494 4.9754 5.33147 4.68663 5.75435 5.98702 5.73209 7.06849 6.76362 5.05353 4.73782 4.67342 5.07294 7.88798 6.53254 5.60818 8.96008 6.44028 6.33945 8.17682 4.9767 4.53255 4.90236 6.55386 5.29802 4.49891 4.80547 4.47167 4.90268 4.45618 4.36555 4.34785 4.26107 4.22914
threshold=280.6791609674836 4.7245490690906484 5.2592295105369358 8.9749204674363359 8.1785327084512112 34050.412961375587 5.3916223523094056 452.93238882588633 18873.352992616066 7.7210555907926457 13.951542521987564 209.85008890623121 6.1031323053418491 16283.224976514597 213.9332039029766 69.419849739882139 68.012350855721863 5.1672831489863382 11384.690137067066 189.46082069974941 14.516121775427623 480.07808244922495 8548.6480770395628 149.4357891577416 4.2370700491529343 138.43600245868802 73.736393294005026 79.046902196729306 11.885011228273671 4.3193083291635306 191.81428474466915 337.76133757403232 207.37968975073281 206.31576362469693 83.211537788606122 34369.608032833021 21338.033421081458 86.990552431901676 13.886016418615784 11.19883699529723 63.697630154123338 3.5719832105876739 15269.228425769539 8.091695529664916 17359.142411870922 488.68707108534915 15182.809250154178 4.345479253640824 59.981464898927129 73.403060437479652 18608.798585452005 82.73759484279249 22312.610006219162 25182.792389886785 6.9024688896324697 6.344774343518627 199.62219562886887 61.852442836892749 17446.333037952998 181.35763797224146 8.2243807221968979 462.46878185371924
decision_type=2 2 2 2 2 2 2 2 2 2 2 2 2 2 2 2 2 2 2 2 2 2 2 2 2 2 2 2 2 2 2 2 2 2 2 2 2 2 2 2 2 2 2 2 2 2 2 2 2 2 2 2 2 2 2 2 2 2 2 2 2 2
left_child=1 2 -1 4 6 18 7 8 24 22 -11 12 13 16 15 -13 -8 -16 -6 20 21 28 -5 -24 -3 -4 -25 -28 -20 -9 -31 55 33 34 35 39 37 -36 -38 -33 41 60 -43 44 46 -45 47 -42 61 -19 51 -51 -52 -10 -55 -14 57 59 -59 -57 -41 -44
right_child=-2 3 25 9 5 -7 11 29 53 10 -12 14 31 -15 17 -17 -18 49 19 -21 -22 -23 23 26 -26 -27 27 -29 -30 30 -32 32 -34 -35 36 -37 38 -39 -40 40 43 42 48 45 -46 -47 -48 -49 -50 50 52 -53 -54 54 -56 56 -58 58 -60 -61 -62 -63
leaf_value=-0.045183935558429089 -0.068445915108711231 0.064718447862496753 -0.017751161018142832 -0.073456709557143729 0.060779629157964567 -0.039232178768909415 0.020669498345765619 0.021058457270231624 -0.092726733947664591 -0.084359052403822937 -0.0089475248463462189 -0.079833575645431323 0.024688990113719698 0.050435629782795623 -0.083630668624365079 0.0026919766348609615 -0.067833554801692744 0.0075604134354346365 -0.0069474423366605031 0.026896248745540609 0.028362457426320677 0.036755998904953451 -0.073891058475984414 0.020010238823205267 -0.021656593482622173 0.053404089563619576 -0.063727330993023232 0.0093043207596631549 -0.081284735669147068 -0.090703139717736136 0.010394949879550641 0.039747874991487256 0.049472166475727206 -0.069656093474190967 -0.049773528882607963 -0.034249528718389592 -0.11347154693185868 0.030871437551543486 -0.029132640476050516 0.0096177977386656469 0.048337727343912194 0.02578205482495723 -2.6648962077070868e-05 0.012931621252456508 0.044900424542025447 -0.083647797550408812 -0.056292980459712663 -0.052797157569691992 -0.087800311366466655 -0.087800159582734794 0.045980149554461967 -0.0040136254920031941 -0.021997131849739109 -0.083065109101252435 -0.018210748392282469 -0.0078956911414343502 -0.079747437950914546 -0.040706866503452711 0.034441826618535232 -0.098070480686245423 0.07744162255776138 -0.051803229221900227
leaf_weight=3.6771062612533596 3.9751355350017539 2.600644379854204 3.0119287520647076 3.1944737136363974 9.6261712312698346 7.9186792373657218 4.8968105465173704 12.742787480354311 7.3368644416332272 8.4121149480342847 7.3718638420104972 8.572013854980467 4.2706412523984936 29.146756634116173 2.6447774916887274 6.1820605397224417 4.9686604738235474 46.947027534246445 3.8206654191017169 44.531993702054024 8.7435778677463514 3.2792047411203376 2.4394134432077399 22.413456559181213 6.6438640207052231 18.60891680419445 4.5709728449583036 5.9669489115476608 5.969369113445282 2.4469170719385138 2.7921053171157837 12.531270638108252 6.5349821001291266 2.9005289971828452 2.900997728109358 9.3574201315641385 2.7056933492422095 5.8799808025360107 4.3300883322954178 10.664231285452841 6.4759191870689374 5.3993163704872158 8.5123892128467578 4.9506281912326804 23.779874488711357 2.6501788944005966 4.2854118049144736 2.8907063752412796 3.7884898632764807 4.8423181772232073 4.23593646287918 4.505550354719162 8.8649886697530729 4.6336165368556959 7.4463262110948563 2.6616602241992977 4.1651640832424155 3.1406074315309507 5.0242426991462708 2.6853770613670349 2.9581307023763648 7.3485944867134085
leaf_count=15 16 11 13 13 43 33 21 54 30 34 31 36 18 128 11 26 21 199 16 195 38 14 10 96 28 82 19 25 25 10 12 54 28 12 12 39 11 25 18 46 28 23 36 21 102 11 18 12 16 20 18 19 37 19 31 11 17 13 21 11 13 31
internal_value=6.60272e-05 0.000623197 0.0306025 -0.00101308 0.00124219 0.0158412 -0.00252331 -0.0236041 -0.0410446 -0.0179841 -0.0491383 0.00100603 0.00655715 0.0316364 -0.0112612 -0.0452548 -0.0239043 -0.00429925 0.0215816 0.0158942 -0.0065669 -0.0299353 -0.00523996 0.000917478 0.00264224 0.0434917 0.00645561 -0.0223742 -0.0522738 0.00419447 -0.0368235 0.000153708 0.00374016 0.00133602 0.00303206 0.00723684 -0.025039 0.00422852 -0.0615662 0.0112708 0.00700747 -0.00627558 -0.0229286 0.0184141 0.0263652 -0.0207428 -0.00592062 0.0171257 -0.0363134 -0.00127582 -0.019755 -0.0474161 -1.7963e-05 -0.0618443 -0.0430875 -0.0212275 -0.0323206 -0.0177009 0.0055359 -0.0531831 0.0243459 -0.0240154
internal_weight=492.775 488.799 25.298 463.501 409.132 83.8897 325.243 46.6431 28.6613 54.3692 15.784 278.599 191.805 39.0122 86.7947 14.7541 9.86547 72.0406 75.971 66.3448 21.8128 13.0692 38.5853 35.3908 9.24451 21.6208 32.9514 10.5379 9.79003 17.9818 5.23902 152.793 130.845 124.31 121.409 105.593 15.8168 8.78098 7.03578 96.2351 83.7039 38.6712 25.0488 45.0327 37.4319 7.60081 13.652 9.36663 19.6495 69.3958 22.4488 9.34787 13.1009 19.4168 12.0799 21.9477 17.6771 13.5119 8.16485 5.34704 13.6224 15.861
internal_count=2096 2080 110 1970 1742 364 1378 195 119 228 65 1183 817 170 366 62 42 304 331 288 93 55 163 150 39 95 140 44 41 76 22 647 556 528 516 450 66 37 29 411 357 165 106 192 160 32 58 40 83 293 94 39 55 80 50 91 73 56 34 22 59 67
is_linear=0
shrinkage=0.05


Tree=7
num_leaves=63
num_cat=0
split_feature=4 2 4 0 1 0 3 2 4 1 3 1 0 3 3 2 0 1 4 6 7 8 3 2 2 4 6 8 3 3 1 1 1 8 3 6 1 2 6 0 8 0 7 4 3 8 3 7 7 7 3 3 0 3 7 3 0 4 6 6 2 7
split_gain=13.9116 10.6211 7.22842 19.7584 8.36202 10.7169 17.0691 8.24252 8.13972 8.05654 9.16255 7.89227 8.59394 10.5131 7.70625 7.34664 5.49802 5.32929 7.19064 5.34055 6.00974 6.88234 10.2407 5.37893 5.08921 5.17875 4.69724 4.6873 12.5127 10.3184 4.84356 7.81128 6.15416 5.29313 4.4559 5.4017 6.2335 4.34438 3.88546 3.86902 3.85432 4.72017 5.70724 4.78761 4.55802 4.48238 4.32164 5.32197 6.67348 4.63906 4.44775 3.90411 3.93537 3.87358 3.84123 3.7651 3.69205 3.53065 3.76307 4.47507 4.78817 4.32046
threshold=262.07978681416972 15944.863224857019 387.32842254386139 7.9073471424845847 280.6791609674836 5.6077396415180356 5.5020337564525938 26953.596417891404 327.93607373782413 225.25973196884738 6.9723680883766548 163.94224104752871 8.3160167521228825 8.530759190800163 8.0223697755542531 34552.122864001896 6.8246990188337078 184.9481446491769 323.60256743688655 15.923070517212581 76.827989454555478 4.4577490206149246 7.5100407918531831 21026.534780450191 29220.977534850816 295.93565051145885 15.923070517212581 4.4047589510308702 6.235137755104442 7.9436632310631454 149.4357891577416 159.35868511327581 136.11675204275463 3.6488256517669062 6.812679457864923 15.03010710131676 189.46082069974941 14807.341021869066 13.178184777836409 6.8766015424844342 4.7243892454356251 7.4810629427594053 32.053142605137332 370.24710038831637 7.0742971274352078 4.7809020040514838 7.4448274630457432 82.884793013191768 65.308103680467482 54.114724642843292 8.3443512870866421 8.92118305009007 7.5045986109389329 9.1629893924136372 79.701647241489368 6.398148851018882 6.1031323053418491 286.99451623840463 18.312226386747003 13.352127989085917 27231.728222877191 70.04941903704561
decision_type=2 2 2 2 2 2 2 2 2 2 2 2 2 2 2 2 2 2 2 2 2 2 2 2 2 2 2 2 2 2 2 2 2 2 2 2 2 2 2 2 2 2 2 2 2 2 2 2 2 2 2 2 2 2 2 2 2 2 2 2 2 2
left_child=1 -1 4 7 5 6 38 14 -8 37 -11 15 17 24 16 27 55 18 39 20 21 -20 -23 -22 25 -14 -15 29 -29 30 32 33 -7 -32 -27 36 -36 -10 -2 -13 41 42 -19 -44 -45 -42 47 48 49 -47 -48 52 -43 -52 -26 -4 -3 -54 59 60 -59 -61
right_child=2 56 3 -5 -6 11 8 -9 9 10 -12 12 13 26 -16 -17 -18 40 19 -21 23 22 -24 -25 54 34 -28 28 -30 -31 31 -33 -34 -35 35 -37 -38 -39 -40 -41 45 51 43 44 -46 46 50 -49 -50 -51 53 -53 57 -55 -56 -57 -58 58 -60 61 -62 -63
leaf_value=0.034286677723205698 0.0022853973645356831 -0.014300473445302379 -0.080582444382859622 0.049534531265316373 -0.073645636861050481 -0.023288723096034566 0.064308495610070793 0.029083552543785821 -0.0089666793614941957 -0.093911760626259 0.031420362282070229 0.012485253684154263 -0.036074987344986743 -0.07803889921034883 -0.083013434036335987 -0.075879762100694859 0.013969340993478706 -0.072029030231595653 0.037736573257094251 0.047702262970661186 0.0072090293648131914 -0.070856694048463023 0.041363126527857119 -0.082022048343837195 0.013411481397508791 0.053239027054058675 0.0026282079292790994 -0.064398714354146 0.045675152839366844 -0.06266089835500141 -0.020552581845194651 0.036780751148517983 0.061649439443158795 -0.11565491919345161 -0.060587330863761446 0.046096244811033235 0.024922687998800448 0.042266935468106358 -0.068418712014424413 -0.040145603573096683 0.058037689599702583 -0.078691979090729794 0.0017309674031977238 -0.076937025583700525 -0.001285855768955345 0.032836853331545922 -0.052336769426899535 -0.033282718211584787 0.065659134968356195 -0.048042867720246206 0.04086756183999863 -0.070730748313495059 -0.067505254650442659 -0.034464007631015529 -0.06038175034024023 -0.011646045111664217 -0.077671317740779233 -0.0078162894736540402 -0.054656616576472576 -0.011869361799184306 -0.083039010425978999 0.03564812030781913
leaf_weight=3.4364711493253735 3.0964777767658216 2.9265170097351065 4.7040102630853706 7.9295172840356818 3.4914907813072196 3.630199953913694 16.271251022815704 3.7317233830690375 5.1027731150388744 2.9625667482614508 2.8718381375074387 5.9389268308877936 2.4383773058652869 3.4751063734292975 10.450606197118757 4.9616915285587302 5.2827232182025901 2.8761937469243994 19.492359176278118 14.082961201667784 3.9975231289863578 4.2353654056787473 3.9095067381858826 2.9244262278079987 6.5874297916889173 23.887721329927444 3.7542121261358261 3.6273482888936988 8.9570837616920453 10.308349460363386 3.6589905917644483 3.3150607198476791 5.1692628413438797 2.4379099458456039 3.402812525629999 10.081723868846892 5.7035315334796906 21.877463161945343 5.2165777981281281 8.4747537672519666 4.4240455776453009 2.4180347472429267 118.19123505055904 3.8997046947479239 4.0681001543998718 4.1964950859546715 5.4709725230932218 3.8110453635454169 7.611399382352829 3.0698817074298859 3.9061958789825439 3.6912250667810431 2.7306173890829077 3.0302936583757401 2.4081995934247971 3.4213012903928757 10.709003314375876 7.7730155289173144 3.8882380276918402 9.4786496758461016 2.906525507569313 9.6577980965375883
leaf_count=15 13 12 19 36 14 15 75 16 22 12 12 26 10 14 42 20 23 12 85 61 17 18 17 12 28 109 16 15 39 42 15 14 22 10 14 45 25 97 21 35 19 10 501 16 17 18 23 16 33 13 17 15 11 13 10 14 43 33 16 40 12 41
internal_value=7.25551e-05 -0.0442718 0.00166845 -0.0200263 0.00342439 0.00404248 0.0241729 -0.0400182 0.0353937 0.0210562 -0.0322202 0.000985376 0.00367714 0.0205075 -0.0508264 -0.0184082 -0.025739 -0.000169123 0.0125578 0.021749 0.011173 0.0216078 -0.0169916 -0.0304898 0.0280214 0.0348134 -0.0361482 -0.0114708 0.0139474 -0.0226867 -5.97495e-05 -0.0249924 0.0266084 -0.0585803 0.0388262 0.0208833 -0.00703026 0.0325771 -0.0420826 -0.0184599 -0.00404411 -0.00714767 -0.00238576 -0.00079802 -0.038312 0.0109475 0.00424801 0.0194357 0.0329398 -0.00133302 -0.0186285 -0.0215904 -0.0169219 0.00795801 -0.00634354 -0.0515556 -0.0640704 -0.0128224 -0.00839219 -0.00235895 -0.0282888 0.0121118
internal_weight=491.443 17.072 474.371 35.5199 438.851 435.359 57.3989 27.5904 49.0859 32.8146 5.8344 377.961 331.895 61.7391 23.8586 46.0659 13.408 270.155 63.0558 48.6421 34.5592 27.6372 8.14487 6.92195 54.5098 45.5142 7.22932 41.1042 12.5844 28.5198 18.2114 9.41196 8.79946 6.0969 43.0758 19.1881 9.10634 26.9802 8.31306 14.4137 207.1 171.579 129.035 126.159 7.9678 35.5203 31.0963 18.6888 14.8778 7.26638 12.4075 42.5441 38.8529 6.93649 8.99563 8.12531 13.6355 36.4348 33.7042 29.816 10.6795 19.1364
internal_count=2096 70 2026 150 1876 1862 252 114 218 143 24 1610 1418 271 98 192 56 1147 271 210 149 120 35 29 241 203 30 172 54 118 76 39 37 25 193 84 39 119 34 61 876 724 546 534 33 152 133 80 64 31 53 178 163 30 38 33 55 153 142 126 45 81
is_linear=0
shrinkage=0.05


Tree=8
num_leaves=63
num_cat=0
split_feature=4 4 0 0 3 2 4 0 3 1 0 2 3 1 4 8 0 3 4 4 0 4 1 7 0 7 2 0 2 4 6 1 1 1 8 7 0 1 0 8 3 1 8 8 6 4 6 7 6 2 7 3 2 8 7 4 3 6 3 8 1 6
split_gain=12.705 6.57645 13.8127 6.7525 8.3566 6.48451 6.10215 9.73586 16.328 6.59705 9.27622 11.2102 9.16382 8.03281 9.50566 11.0557 8.94918 11.0354 9.388 9.13546 10.6111 10.1135 8.94638 10.1819 7.89979 7.39124 8.24032 6.7574 6.60901 6.53766 6.44506 6.02273 5.99358 5.94278 5.73634 6.06816 5.58559 5.34966 5.28872 4.96055 6.00496 6.92936 6.33216 6.04726 6.28471 5.38602 5.11116 4.912 5.57392 4.85438 10.8901 4.83225 4.71914 4.70851 4.70106 4.68829 4.67831 4.43483 4.35026 4.30607 4.29846 4.25888
threshold=257.74916656905299 409.11840539485985 7.4653491593259753 4.7245490690906484 5.2592295105369358 18301.936797623479 295.93565051145885 7.3325537051933809 5.7754647250822257 136.11675204275463 8.4350249263815673 31364.464048223294 7.9249303762392591 210.09208302304776 338.06125366988505 4.3896665401591397 6.1403102943411207 4.9035870586610608 384.99360827671893 333.53256261154587 6.7913970364571208 358.55180906986442 214.16813927491873 69.419849739882139 8.7349482702425423 59.162922921604341 19882.844915943784 6.7157592834531927 25671.015957968939 312.24259702391834 11.48310530567713 227.15422213962285 207.05816781664979 243.64729123898761 3.6123899035541744 58.812014611668552 6.6242099967747547 210.66217241243507 7.4920492349268946 2.8630121959146337 7.5479217444012203 185.26298828941614 4.4317840954997836 4.559586430583523 14.140658420786879 325.48763531771016 15.129905488271591 51.128479305050625 14.356298494298928 14692.362453403393 73.861260659038479 5.8851762975761837 25671.015957968939 3.7302776621035112 63.37727531083231 326.94829734644435 6.1323385886104065 10.5967083424016 8.2695110359761816 4.4443629203789836 221.80215556508873 15.058889084829191
decision_type=2 2 2 2 2 2 2 2 2 2 2 2 2 2 2 2 2 2 2 2 2 2 2 2 2 2 2 2 2 2 2 2 2 2 2 2 2 2 2 2 2 2 2 2 2 2 2 2 2 2 2 2 2 2 2 2 2 2 2 2 2 2
left_child=5 3 52 4 -2 -1 7 8 -5 -8 13 12 -12 16 22 28 17 -11 49 27 21 36 23 -15 -14 -24 29 -18 -16 -27 -28 37 39 -6 -22 47 -21 -26 -32 54 42 45 -41 -44 -45 -42 -47 48 -36 50 -19 -13 -3 -30 -29 61 -31 -10 -9 -49 -58 -43
right_child=1 2 -4 6 33 -7 9 58 57 10 11 51 24 14 15 -17 19 18 -20 20 34 -23 25 -25 31 26 30 32 53 56 38 -33 -34 -35 35 -37 -38 -39 -40 40 41 55 43 44 -46 46 -48 59 -50 -51 -52 -53 -54 -55 -56 -57 60 -59 -60 -61 -62 -63
leaf_value=0.011300041703129683 -0.047251978795001578 -0.079388042219740329 0.050369677929900908 -0.058121327817010696 0.048708136016627712 -0.067765980157433486 -0.038296402246244851 -0.030959002220748363 -0.038905968010079971 -0.072157754873866276 0.042433598786807976 0.025299583825516093 0.078299551332140269 -0.077589827209823659 -0.062691797211929259 0.022251312517784554 0.015041426339894049 0.050738617170046435 -0.062937748481224284 0.045853366119558273 0.046558343267444888 -0.057284862068652437 0.033528061523319996 0.017508179971591296 -0.017238031626220892 0.040693697392174225 -0.052719026009925209 -0.004421765924907799 0.021992008402138469 0.0098349609166971438 0.04646705923078745 0.04199758173585659 0.043729346101242503 -0.035054091339441193 -0.042798206629467948 0.025705352290691114 -0.030090078534111539 -0.10460375754308671 -0.014907288164511985 0.0086315535024529301 -0.053824062630282249 -0.06743451940361124 -0.10026275145389983 0.023611063471631728 -0.053292859934898698 -0.010126192122833723 0.079245419980450524 -0.10341915784629344 0.060255744677705517 0.045194890397318666 -0.087036501702341923 -0.057019559534739521 0.0011859975142060619 -0.051527139748073152 -0.093050344910200145 -0.089454294812183061 -0.01426923341940154 0.033539800098946713 -0.088479369609801253 -0.010429738526614373 -0.085347393347833783 0.022527885797834331
leaf_weight=3.4848234653472892 3.205864384770396 8.1588516980409604 3.7485530376434317 8.3498241305351275 18.92191277444363 10.135420083999632 9.4290982931852323 10.800318598747252 2.395888194441798 2.7005487978458396 39.589594528079033 2.573343411087988 2.2642519921064368 7.0090285539627057 19.209416240453724 7.4613984972238532 22.597186699509621 3.6394584476947776 2.4499644935131064 6.1191330850124377 19.751079365611076 8.8870006054639799 19.398875638842583 4.7034640312194824 5.262175500392912 2.5425502061843863 2.8780561238527325 2.3424311876296988 4.9371865987777692 2.8099526017904273 11.82754221558571 2.5550173670053482 3.9794101715087882 2.3843857049942008 2.378212556242941 26.91795925796032 4.0064379125833511 2.6269143223762512 4.9913706779479972 29.914429724216461 4.1254336684942263 2.9080677926540357 2.6602352857589713 5.1610379219055158 5.4746694713830948 5.2210610657930374 2.3065199106931686 2.3936427086591721 2.9270090460777283 34.060563877224922 2.3671280741691589 5.8026585727930069 2.337985783815383 3.8966590762138367 4.1415664851665497 6.7892324477434158 3.0870880931615812 17.85789281129837 4.7252165526151648 2.5942513346672058 6.8398576825857162 2.4023661017417908
leaf_count=15 13 33 17 34 86 41 39 44 10 11 180 11 10 29 79 32 97 16 10 27 86 37 84 20 22 11 12 10 21 12 51 11 17 10 10 116 17 11 21 127 17 12 11 22 23 22 10 10 13 153 10 24 10 16 17 28 13 77 19 11 28 10
internal_value=7.77418e-05 0.00144075 -0.0320194 0.00247347 0.02801 -0.0475364 0.00104121 -0.0165881 0.000714348 0.00302121 0.00403713 0.0219743 0.0305754 0.000665722 -0.0109731 -0.0318395 0.00601079 0.0258513 0.0320766 0.000913343 0.013984 -0.0183595 0.000237088 -0.0394007 -0.0063659 0.0087751 -0.00495356 -0.00901471 -0.0462314 -0.0325086 0.0164216 -0.0247211 -0.0160356 0.0393343 0.0247795 0.0132196 0.0158044 -0.0463291 0.0282529 -0.0192737 -0.0152302 -0.0354253 -0.00412905 -0.032839 -0.0159748 -0.00790662 0.0172581 -0.0194324 0.014059 0.0378863 -0.003557 -0.0317288 -0.0614416 -0.0104377 -0.0610321 -0.0619281 -0.0471213 0.0249699 -0.0484654 -0.0550545 -0.0632435 -0.0267368
internal_weight=489.418 475.798 14.2454 461.553 24.5122 13.6202 437.041 44.1291 28.6036 392.912 383.482 60.674 52.298 322.808 101.592 35.5047 221.216 45.2177 42.5171 175.998 75.9747 19.0126 66.0878 11.7125 12.7084 54.3753 34.9764 100.024 28.0433 15.2794 19.697 10.4441 77.4265 21.3063 56.9622 37.2111 10.1256 7.88909 16.8189 73.4471 66.9631 23.7527 43.2104 13.2959 10.6357 11.653 7.52758 10.2931 5.30522 40.0672 6.00659 8.376 10.4968 8.83385 6.484 12.0997 12.7369 20.2538 15.5255 4.98789 9.92695 5.31043
internal_count=2096 2040 60 1980 109 56 1871 184 121 1687 1648 269 234 1379 429 148 950 200 189 750 327 81 281 49 54 232 148 423 116 64 84 44 326 96 246 160 44 33 72 309 282 99 183 56 45 49 32 44 23 179 26 35 43 37 27 50 53 87 63 21 41 22
is_linear=0
shrinkage=0.05


Tree=9
num_leaves=63
num_cat=0
split_feature=1 0 3 5 5 0 3 0 2 3 2 1 7 7 3 5 2 1 0 8 1 0 8 6 7 1 1 6 5 3 3 0 7 0 8 7 2 0 6 2 1 6 0 3 0 3 3 3 2 7 1 2 2 0 7 0 2 0 8 2 7 2
split_gain=6.01768 7.54854 7.42174 5.69441 5.02503 5.00826 4.9028 9.36393 5.73699 7.26662 5.5857 4.86923 4.86392 4.83978 4.78183 5.55579 5.16855 13.5178 5.65066 4.93538 5.38001 6.51637 6.15358 6.24103 4.74361 4.65955 4.57914 4.51249 4.37173 4.32321 4.70731 4.29749 4.21973 4.06226 3.96222 4.85289 3.94257 3.88781 3.74289 6.07422 4.99366 3.79793 3.66409 5.29323 3.60537 3.56983 4.98111 4.20415 3.56793 3.37852 3.35769 6.34279 7.28154 6.55674 6.51848 5.68704 5.13617 8.92185 4.93601 4.67887 4.47829 6.79324
threshold=280.6791609674836 4.7245490690906484 5.2592295105369358 358.05019677374173 276.81970595449076 5.0952717324620815 7.6054698030160752 6.6242099967747547 13757.96341283328 5.1282397012480061 20237.302920295482 144.42556819171028 59.297663143400605 63.697630154123338 9.9670816489226564 486.97713843343797 34369.608032833021 203.08769997513653 10.124954496454885 5.015166221677938 210.09208302304776 7.0397446385810607 4.3552078077667113 16.423890146860035 51.854758358264512 221.80215556508873 161.36095128107596 10.216229963859918 507.07791966677388 8.530759190800163 8.053600444768227 7.1167369620110721 77.134694877444176 5.3535494064261409 4.5164626415685127 81.081640956803611 42439.004915905549 7.4920492349268946 12.32143239223487 23038.202669086586 207.69302691365837 16.423890146860035 7.8726165477100194 9.0872493566478756 7.3942804997354425 6.5717399918238497 5.9366338037443187 7.9436632310631454 18538.147639328472 57.863790014053755 199.49276386613488 20123.358926562451 17446.333037952998 6.7157592834531927 79.27488305373015 6.8909118805256364 15182.809250154178 5.8612316682030743 3.3459837225986462 21442.001798520021 51.854758358264512 23615.753791934105
decision_type=2 2 2 2 2 2 2 2 2 2 2 2 2 2 2 2 2 2 2 2 2 2 2 2 2 2 2 2 2 2 2 2 2 2 2 2 2 2 2 2 2 2 2 2 2 2 2 2 2 2 2 2 2 2 2 2 2 2 2 2 2 2
left_child=1 2 -1 4 12 25 8 10 -6 31 -8 -4 -3 26 16 -16 18 -18 19 20 33 22 23 45 -23 32 -9 -26 -13 30 -28 -10 -5 -7 35 -15 -19 44 -21 40 41 -40 -39 49 -29 46 -22 -47 -24 -44 51 52 56 -53 55 -55 57 -35 -58 -57 61 -52
right_child=-2 3 11 5 6 14 7 13 9 -11 -12 28 -14 34 15 -17 17 36 -20 38 21 24 48 -25 27 -27 29 37 -30 -31 -32 -33 -34 50 -36 -37 -38 42 39 -41 -42 -43 43 -45 -46 47 -48 -49 -50 -51 60 53 -54 54 -56 59 58 -59 -60 -61 -62 -63
leaf_value=-0.037515670530737455 -0.061211897871012499 -0.021296345907094283 -0.011729188214046886 0.011997084328948793 0.036199166827110253 0.061823958640697924 -0.032379931715319443 0.042484296198524674 -0.090801811381524655 -0.0042367311284191014 0.048769669996270547 0.060683925913505868 0.058489931136701936 -0.068746611964420098 -0.046027455939482653 0.028880360265697482 -0.042006363456255733 0.046025161488529344 0.048284206098803878 0.05454699313531014 -0.006862285104370397 0.035179205185726453 -0.037018864077900546 -0.084352859367516256 -0.048486703313537716 -0.08471893714638043 -0.047736148632220587 0.011220340573623503 -0.014615173767319509 -0.088098904119862542 0.042690283794808825 -0.0088266332842750501 -0.067930570145513944 -0.077652767526821043 -0.11179584309778552 0.0017733854409831416 -0.024823884655685739 -0.041857394793516051 -0.058864131643845123 0.049257482165822146 0.038981799516672695 0.018473049146726081 -0.035618314084652485 -0.070126650002164156 0.078576088305543468 0.029318654020983409 -0.095624247251259287 -0.042942203455953426 0.037506591023309846 0.0170537263451024 0.035093768719595846 0.015373402339058631 0.04038135411803602 -0.0669723230928925 -0.049375569007191714 -0.042977984917362946 0.024616956471332527 0.022821162149522175 -0.038211482723478206 0.0079264712684344058 0.025941445487144332 -0.085902846685693687
leaf_weight=3.7053734511137035 3.9714963287115088 3.1640832573175421 3.8135128617286709 5.6654514670371992 7.1902874559164038 3.4557442367076865 3.5886292755603773 2.385940536856654 4.2123644798994055 45.521094039082527 5.183450773358345 14.703541383147241 4.8199961632490158 8.8070908337831479 9.5736426860094053 3.3385154306888571 18.236744120717052 8.0880459100007993 7.8003952354192725 7.9706233292818096 3.1312559843063417 9.2573080062866193 2.4099574387073508 5.9118112921714774 5.0681773424148551 2.9613893628120422 3.6496682465076429 14.555039674043657 2.2184099704027167 2.7117314338684082 2.3762473165988922 2.5768026113510132 2.3306323438882828 2.3883847743272808 3.1917145401239386 3.3742676824331275 2.5931536108255377 6.8023574352264431 4.9259382188320178 7.0862089544534674 3.4677634537220001 2.3423593491315842 3.6892862170934739 2.426778480410575 2.3007892519235602 4.6906234472990018 3.1915806829929352 3.5258959382772446 4.8142325431108475 17.417386323213577 2.2859189212322226 22.3735371530056 19.267217263579369 3.5524924695491782 11.966361775994299 5.3959822803735724 4.3995852768421164 29.495039656758308 10.800011023879049 27.619645178318024 35.231915608048439 2.3552501052618027
leaf_count=15 16 13 17 25 32 16 15 10 17 194 23 68 21 36 40 14 76 35 36 35 13 41 10 24 21 12 15 62 10 11 10 11 10 10 13 14 11 28 21 32 15 10 16 10 10 20 13 15 21 77 10 98 85 15 50 23 19 129 45 119 153 10
internal_value=8.39021e-05 0.000587541 0.027663 -0.000854445 -0.0112238 0.00213716 -0.0144332 -0.0292047 -0.00567748 -0.0114336 0.0155716 0.0393103 0.0268707 -0.0440285 0.00319351 -0.0266596 0.00435354 -0.0158441 0.00627881 0.00517025 0.00317249 -0.00687451 -0.0270238 -0.0410365 0.00219028 -0.031142 -0.018907 -0.00365339 0.0508125 -0.0356708 -0.0120776 -0.0596884 -0.0112996 0.00813473 -0.0622058 -0.0492124 0.0288246 0.00116152 0.0260658 0.0133282 -0.0103866 -0.0339406 -0.00953611 -0.000193625 0.0204143 -0.0234238 -0.0516667 -0.00169013 0.0126452 0.00784705 0.00708728 0.00337694 0.0144883 -0.00702021 -0.0173433 -0.00686119 0.00389241 0.0152947 -0.0200255 -0.000393211 0.0198597 -0.0263083
internal_weight=487.326 483.355 24.4408 458.914 102.753 356.16 94.7693 35.2687 59.5005 52.3103 8.77208 20.7355 7.98408 26.4967 345.203 12.9122 332.291 28.9179 303.373 295.572 269.78 89.1925 27.6754 20.4512 61.5171 10.9575 11.1236 52.2598 16.922 8.73765 6.02592 6.78917 7.99608 180.587 15.3731 12.1814 10.6812 47.1916 25.7929 17.8223 10.7361 7.2683 30.3358 23.5335 16.8558 14.5394 6.32284 8.21652 7.22419 21.1067 177.131 137.258 66.3502 70.908 48.5345 36.5681 47.083 31.8834 15.1996 33.0156 39.8731 4.64117
internal_count=2096 2080 110 1970 435 1535 401 147 254 222 38 95 34 109 1488 54 1434 122 1312 1276 1163 381 116 85 265 47 46 224 78 36 25 28 35 782 63 50 46 203 113 78 46 31 131 103 72 61 26 35 31 93 766 593 288 305 207 157 203 139 64 142 173 20
is_linear=0
shrinkage=0.05


Tree=10
num_leaves=63
num_cat=0
split_feature=4 5 2 4 3 0 3 8 2 0 3 3 5 0 8 0 4 0 0 4 6 3 2 6 5 3 3 3 8 4 5 8 0 7 0 4 6 4 0 3 3 8 7 3 3 8 3 8 8 7 3 5 3 6 5 5 5 2 8 5 5 6
split_gain=11.3088 5.88343 5.78161 5.67877 7.80409 10.418 6.11585 5.70503 6.89416 5.45513 7.9284 5.89779 6.77118 7.45985 5.65209 4.56667 7.05128 8.88599 7.86597 5.52124 5.43606 9.07367 10.1419 4.54931 4.30939 5.31313 6.50478 4.80934 5.76981 7.30401 4.15965 4.04833 3.90392 3.80101 3.78988 9.97183 4.59409 4.4862 4.44237 4.01372 3.85176 3.78917 3.66666 3.66127 4.50222 3.63487 3.62009 4.94166 3.56865 3.43428 3.40784 4.45941 4.91748 3.77022 3.42076 3.27642 3.66472 3.26745 4.01855 3.19661 4.45235 3.65346
threshold=257.74916656905299 358.05019677374173 18301.936797623479 295.93565051145885 5.6919646778610646 7.3325537051933809 8.5993206351408329 4.617313184674174 25928.139695789305 5.4589776431746051 6.398148851018882 6.7018567603180452 303.29498764118586 6.9274400962827212 4.7393969408417735 8.1785327084512112 362.62268489463162 6.8246990188337078 7.6079870512438275 355.12602511889276 15.890364081050992 7.9815668034983789 29220.977534850816 17.648345560736406 485.78176600791801 9.3977649498843814 8.3443512870866421 8.1290870449469796 4.3636092499014065 356.3611756443654 420.68126700738611 4.0087527010886221 5.0542423956708395 69.648181381136254 6.9901332234641878 319.06565447002134 13.796421098672484 323.8345606631309 7.1306605273985051 7.9632957941168465 7.2325897128191157 3.6488256517669062 66.159168210199383 7.4025043481546646 8.4640819490501258 3.9661262395878292 7.0185775102740751 4.165102454713149 4.6397147823763856 71.72220957902806 5.8520838036638354 501.26406386782315 6.235137755104442 16.011468294869278 520.15624380167981 530.0710610277057 507.07791966677388 21609.032267581049 3.741616896162316 472.33605970421161 381.84983301927144 14.847449416174074
decision_type=2 2 2 2 2 2 2 2 2 2 2 2 2 2 2 2 2 2 2 2 2 2 2 2 2 2 2 2 2 2 2 2 2 2 2 2 2 2 2 2 2 2 2 2 2 2 2 2 2 2 2 2 2 2 2 2 2 2 2 2 2 2
left_child=2 9 -1 4 49 6 -6 15 55 10 -2 12 -11 14 42 16 18 30 24 20 21 22 -17 -22 31 26 27 28 29 50 -18 45 -33 -7 35 -13 43 38 -36 -38 -39 -25 -14 -37 -45 -5 47 -19 -12 -3 54 -52 -53 -54 -26 56 -9 -15 -59 60 -20 -61
right_child=1 3 -4 7 5 33 -8 8 -10 11 48 34 13 57 -16 19 17 46 59 -21 23 -23 -24 41 25 -27 -28 -29 -30 -31 -32 32 -34 -35 37 36 39 40 -40 -41 -42 -43 -44 44 -46 -47 -48 -49 -50 -51 51 52 53 -55 -56 -57 -58 58 -60 61 -62 -63
leaf_value=0.010760195429220775 -0.035286717633941006 -0.078426668672194527 -0.064105984325848311 0.0099778670061900273 0.037621070150657562 -0.01614223652193324 -0.040196095249344671 0.0092874077434747845 0.045993826372064894 0.043042595926677508 0.072458155943970898 0.05936291875338278 -0.049646853144347386 0.034467787334120002 -0.10993092202955551 0.0265010222949509 -0.012811984874827199 0.052835206114583325 -0.062058434891961126 0.046912783616951156 0.054071344825580125 -0.056404561782519604 -0.062715835204711093 0.041180075404008129 -0.018031153710858155 0.060533521835902541 -0.065368954018652239 0.059551853870523301 -0.061282078163947533 0.078345884863752713 -0.060724801218528635 0.07422269420255069 0.022131776878103748 -0.083264136131401059 -0.012097918100165453 -0.092337653470189782 0.046757659268556198 0.014707279767194038 -0.07959783873398707 -0.031828333919070161 -0.030126170678483138 -0.036556279154881861 0.025805550312953469 0.023166996320039643 -0.072179634912025087 -0.042016503591505328 -0.01227214955699559 -0.029695611789776439 -0.0014122275864687105 -0.016191515084904552 0.030830337657097136 -0.087936599094679782 -0.039056421123612184 0.014435688309466094 0.061287255668903876 0.04711093343477913 -0.04425061988366271 0.025107725943639993 -0.042508472941897552 -0.085037852227086916 0.0021315256608713689 -0.011277906323382393
leaf_weight=3.4651929587125769 3.9364344328641883 5.6636752933263761 10.081366032361982 64.988585188984871 13.32878871262074 4.9017034620046598 3.1149895787239066 35.953799292445183 18.100889801979065 8.2270381003618223 5.7257512360811216 4.6669401526451137 4.3249576091766375 7.8654744625091579 2.4534982293844223 17.792567014694221 7.1582409888505962 6.0681292563676852 3.3714626133441987 11.470566257834433 9.2304210811853391 6.6069789826869956 3.880049228668212 2.8890788108110419 2.3851607143878999 2.93261395394802 4.565949782729148 2.9154032021760932 4.3232662528753272 2.7382323592901221 12.337465569376944 4.0705018043518058 30.907276540994644 3.702191025018692 3.5785729438066465 3.1111949086189252 3.1841413974761954 6.0318357944488552 7.644561380147934 3.317761167883873 23.281481176614761 3.4271787405014038 2.5651163011789322 2.5494217872619629 2.4070718884468079 3.5447077751159659 15.348174363374708 2.5870215743780136 2.2883756458759308 3.6421977579593658 3.9161476194858578 2.8748545497655895 7.601425886154173 5.8130953311920166 3.160402849316597 5.1010451018810263 3.5082534402608863 4.2465724200010282 4.5537314713001251 3.6678870916366568 13.593260034918783 3.0957723408937454
leaf_count=15 17 23 41 283 59 20 13 157 82 36 27 20 18 35 10 80 30 27 14 54 42 27 16 13 10 13 19 13 18 12 51 19 134 15 15 13 14 26 31 14 96 15 11 11 10 15 65 11 10 15 17 12 32 25 14 23 15 18 19 15 58 13
internal_value=8.71899e-05 0.00137927 -0.0449553 0.00438098 -0.014971 -0.000445204 0.02288 0.00638387 0.0199719 -0.00899696 0.0228225 -0.0130419 0.00350582 -0.00900009 -0.0447625 0.00322159 -8.86649e-05 -0.0180572 0.00449648 0.0160302 0.00794742 -0.00510909 0.0105285 0.0316974 0.00881556 -0.00444388 -0.00917297 -0.00199126 -0.00745938 0.000708238 -0.0431326 0.0143527 0.0281938 -0.0450243 -0.02252 -0.0042436 -0.0246181 -0.031193 -0.058075 0.00665716 -0.0209007 -0.000999392 -0.0215566 -0.0498234 -0.0231371 0.00728859 0.00230937 0.0281668 0.051365 -0.0540686 -0.00754733 -0.0170764 -0.0285937 -0.015876 0.0271722 0.00940218 0.00452777 0.0110499 -0.00988039 -0.0222129 -0.0106252 -0.0512774
internal_weight=485.786 472.239 13.5466 366.279 34.3535 25.0477 16.4438 331.926 62.664 105.96 11.9506 94.0094 34.2364 26.0094 9.34357 269.262 213.965 43.499 170.466 55.2968 43.8263 28.2796 21.6726 15.5467 146.738 43.2266 40.2939 35.728 32.8126 28.4893 19.4957 103.511 34.9778 8.60389 59.773 19.2365 14.5696 40.5365 11.2231 6.5019 29.3133 6.31626 6.89007 8.06769 4.95649 68.5333 24.0033 8.65515 8.01413 9.30587 25.7511 20.2055 16.2894 13.4145 5.54556 44.5631 39.4621 16.6658 8.8003 23.7284 16.9647 6.76366
internal_count=2096 2040 56 1589 145 107 72 1444 277 451 54 397 147 111 39 1167 920 184 736 247 193 123 96 70 636 185 172 153 140 122 81 451 153 35 250 82 62 168 46 28 122 28 29 34 21 298 103 38 37 38 110 86 69 57 24 195 172 72 37 100 72 28
is_linear=0
shrinkage=0.05


Tree=11
num_leaves=63
num_cat=0
split_feature=1 0 3 3 6 0 2 3 3 5 2 3 0 2 1 2 7 6 1 0 3 8 1 5 0 5 2 0 3 5 2 5 6 6 2 0 7 7 8 6 6 5 5 7 3 7 0 2 8 5 3 5 5 3 7 3 2 5 5 1 6 8
split_gain=5.35459 6.4524 6.52213 4.6647 5.7606 4.77595 10.3877 6.21039 6.09478 6.24281 9.58439 4.97821 4.89582 12.9834 6.13563 5.32533 5.34706 4.57436 4.54209 4.41142 4.20355 4.01545 4.02104 3.99079 4.22476 3.911 3.81901 5.84633 6.21445 6.51794 5.87554 5.30151 7.44369 5.96523 6.06649 7.04188 5.97717 6.86195 6.39713 6.1248 5.86358 5.73111 5.14566 4.90114 4.6316 4.54417 4.69346 4.97437 4.50874 4.20469 3.93005 3.75663 4.38812 4.02107 3.97363 4.10124 3.72598 3.68443 3.57257 3.2974 3.27514 3.69214
threshold=280.6791609674836 4.7245490690906484 5.2592295105369358 9.9670816489226564 15.870390041450863 8.3160167521228825 34050.412961375587 6.7725400546517243 5.3916223523094056 452.93238882588633 18873.352992616066 4.2370700491529343 6.268678046187989 8548.6480770395628 207.95404983699527 16283.224976514597 73.861260659038479 19.053406043100612 144.42556819171028 5.1672831489863382 6.8572748888804123 4.3193083291635306 191.81428474466915 447.46723462670838 6.6460636501153196 507.07791966677388 13606.323481639003 6.7047136589810892 7.7099152384910878 405.88818249287857 12628.02548559569 488.68707108534915 11.19883699529723 7.6061641167904677 17359.142411870922 7.1306605273985051 63.633592783170322 77.831918885977188 4.7632251103191106 15.217653948473869 17.220906456811353 343.57879749886598 307.65543685537472 81.960336672853174 6.7816282093277165 59.981464898927129 6.8387230009186117 19272.303802210947 2.9135529616101077 447.01027074016048 7.3024310394792726 361.47844333735685 450.10202842346888 6.8276745628753739 71.021784571628061 7.1452401421544502 25287.060931137701 597.06826807736263 358.05019677374173 193.16505600555129 11.86116131997065 4.1426350974922128
decision_type=2 2 2 2 2 2 2 2 2 2 2 2 2 2 2 2 2 2 2 2 2 2 2 2 2 2 2 2 2 2 2 2 2 2 2 2 2 2 2 2 2 2 2 2 2 2 2 2 2 2 2 2 2 2 2 2 2 2 2 2 2 2
left_child=1 2 -1 5 23 8 7 17 9 10 11 -3 13 -10 15 16 20 -7 -4 -16 -15 -11 -23 24 -5 -20 27 -14 29 -29 58 33 -33 -28 48 36 45 41 39 43 57 42 -38 -39 -45 46 50 -48 -35 56 -36 53 60 -37 55 -54 59 -34 -30 -49 -53 -62
right_child=-2 3 18 4 -6 6 -8 -9 12 21 -12 -13 26 14 19 -17 -18 -19 25 -21 -22 22 -24 -25 -26 -27 31 28 30 -31 -32 32 40 34 35 51 37 38 -40 -41 -42 -43 -44 44 -46 -47 47 49 -50 -51 -52 52 54 -55 -56 -57 -58 -59 -60 -61 61 -63
leaf_value=-0.035182478160879556 -0.057868137282124116 0.064258484546650563 -0.012268431607095962 -0.018167326565551613 0.01508099395297784 0.038908461168217195 -0.040717274203311574 0.0036536746108660765 -0.10131737714924327 0.019137785177447363 -0.052848876209128572 -0.014789691874162051 -0.039701799710795432 -0.032344705137925263 -0.06202032689599505 0.033937900266322499 -0.047046469101127891 -0.035534472164022855 0.058148464819511074 0.002382214461385433 0.048399534565140782 -0.079668911524912484 0.0086895354381474246 -0.0077576201973878897 -0.094967593990025523 -0.013008590110965383 -0.075103963249835745 0.0018043589791050373 -0.030796115712279765 0.063464817463181833 -0.064232177154235667 0.032010080710806098 -0.034337589974196281 -0.078717745278219758 0.067044562171182806 0.016512757178178652 0.059876520028407487 -0.098611368482008854 0.076601382318521552 0.039636773602118543 0.0042710195038224647 0.054799111991878424 -0.032918224984709782 0.04075561151116696 -0.049643937397537495 -0.045353448813657889 0.05734569368823509 -0.066052125277065485 -0.013589689712878401 -0.076637815786936139 0.0014311676691129835 0.04517588741807535 -0.060959537328590718 -0.042248714617542892 -0.081970073930081044 0.021941205194240962 0.028223429299683984 -0.095844138800987022 0.041212947069059307 0.00043962556654492471 0.022090312085558107 -0.018481902921759882
leaf_weight=3.6953075975179699 3.9524848759174338 2.7732639312744158 3.79052406549454 2.818098336458208 5.8714204132556906 30.375211536884308 8.4428054839372617 35.653597116470337 2.4595373421907416 13.012615054845812 19.875234246253967 7.0675726383924484 4.6028712838888159 2.3931070715188962 3.1228703707456615 38.706461057066917 4.5321038067340851 2.2140040993690482 14.177556201815607 17.899229094386101 4.9376457333564758 2.4357248097658148 2.7316427379846573 4.5040609389543533 4.9116062521934509 2.2355304062366477 2.6975368410348883 7.0924739539623323 2.673751622438429 10.830550536513327 3.3252547085285187 5.8117585331201544 26.419114962220196 2.9234010130166999 4.7759124934673363 3.7742956578731564 2.3494121283292797 2.4272771030664426 2.244417041540145 3.5492970943450919 10.062846362590788 20.832773894071579 4.1028797626495361 2.3261293023824692 3.6249071657657623 4.9776181727647772 2.4546394348144558 3.3198747336864454 29.206647723913193 2.6453050076961508 4.3708127588033676 5.2828179150819805 2.3818493336439115 12.733653068542479 2.6410984247922897 3.9928715229034424 4.631501629948616 2.6820009946823111 4.8411410450935364 4.2534477263689041 11.004888817667963 11.432856410741804
leaf_count=15 16 12 17 12 25 142 35 157 10 56 82 30 19 10 13 177 19 10 68 77 22 10 12 19 20 10 11 31 11 48 14 25 111 12 21 16 10 10 10 15 43 92 17 10 15 21 11 14 123 11 19 23 10 52 11 17 20 11 21 18 48 49
internal_value=9.03745e-05 0.000567688 0.0258927 -0.000759485 -0.0256299 0.000268719 0.0116016 0.0180744 -0.00213703 -0.0187487 -0.0328679 0.00748702 0.000402074 0.0116371 0.0155176 0.0249553 -0.00435343 0.0338511 0.0370636 -0.0071849 0.0220408 0.00432992 -0.0329597 -0.0451686 -0.0669677 0.0484566 -0.00307458 0.0126177 0.0209902 0.0390646 -0.00889396 -0.00561709 -0.0207936 -0.00137638 -0.000119697 0.00482111 0.0149187 0.0273857 -0.000839741 -0.0154118 -0.0286295 0.0420462 0.000870249 -0.038732 -0.0143087 -0.00152608 0.00672132 -0.00859101 -0.0195155 -0.01949 0.0356908 -0.0090015 -9.86101e-05 -0.0288138 -0.0303998 -0.00903381 -0.00710358 -0.0400061 0.0155926 -0.028708 0.00975653 0.00141728
internal_weight=483.889 479.937 23.8989 456.038 18.1052 437.933 76.6856 68.2428 361.247 47.8961 29.7161 9.84084 313.351 74.051 71.5914 50.5693 11.8629 32.5892 20.2036 21.0221 7.33075 18.18 5.16737 12.2338 7.7297 16.4131 239.3 33.366 28.7632 17.923 10.8401 205.934 44.9757 160.958 158.261 126.131 72.8862 41.4571 14.172 11.9276 39.164 27.2851 6.45229 8.37831 5.95104 31.4291 26.4515 17.3048 32.13 14.8501 9.14673 53.2443 36.7364 16.5079 9.01582 6.37472 12.2048 29.1011 7.51489 7.57332 27.7206 22.4377
internal_count=2096 2080 110 1970 76 1894 344 309 1550 202 124 42 1348 328 318 228 51 152 95 90 32 78 22 51 32 78 1020 144 125 79 46 876 190 686 675 540 314 179 60 50 165 119 27 35 25 135 114 74 135 63 40 226 158 68 38 27 52 122 32 32 120 97
is_linear=0
shrinkage=0.05


Tree=12
num_leaves=63
num_cat=0
split_feature=4 4 0 1 0 3 0 4 0 3 5 5 5 1 1 0 1 4 1 0 4 8 6 0 7 0 0 7 8 3 0 4 4 8 0 4 5 1 1 7 3 5 5 5 1 4 6 6 7 7 7 4 8 3 0 3 3 8 3 1 0 7
split_gain=10.0605 5.43469 11.8251 5.22856 7.33104 6.23998 5.03823 4.55042 9.80157 15.6429 6.03345 6.00111 5.85819 7.94907 5.26047 5.48741 6.74639 9.89274 9.58294 6.52084 5.63112 6.59342 5.73007 5.138 4.66002 4.87296 4.51309 4.69118 4.44991 4.31697 4.13824 8.92754 6.28121 6.67857 7.68948 7.42894 6.06013 5.05742 4.9524 4.24295 4.77726 4.22113 4.04227 3.93193 3.86835 3.85015 3.71341 4.89069 4.68349 4.01089 9.52635 3.69678 3.63978 4.05187 11.5052 3.55051 3.54766 3.53636 3.50069 3.46801 4.4633 6.04258
threshold=255.29393596573081 409.11840539485985 7.4653491593259753 280.6791609674836 4.7245490690906484 5.2592295105369358 6.5109139728701866 295.93565051145885 7.3325537051933809 5.7754647250822257 349.62359162489071 459.88821983835436 464.9380630283419 219.60852192372553 136.11675204275463 8.1785327084512112 210.09208302304776 352.80529025789468 213.22313849735355 6.9901332234641878 321.78158916603417 4.3020975037151734 12.403806957557181 9.5415745751086831 51.128479305050625 7.4920492349268946 9.0205722269163857 83.679517328303348 4.1319222474357193 9.2077063315493426 6.3167450082951087 366.62195324406383 333.53256261154587 3.5719832105876739 6.8766015424844342 347.05163049263359 437.13447722915538 207.05816781664979 179.26029932374459 73.861260659038479 6.0555781249398031 398.01253194859498 411.36328458038111 428.80986113896284 205.94666110964695 359.56394447401402 10.817140325190026 14.036129134835479 73.55928584739199 67.664664944070282 57.336880530954041 360.25840874935 4.345479253640824 7.9815668034983789 9.4442443610073905 7.1761987802944658 7.6313820254113747 4.3552078077667113 6.2974270314012033 221.45010953679719 7.3436035592313171 77.726535582774119
decision_type=2 2 2 2 2 2 2 2 2 2 2 2 2 2 2 2 2 2 2 2 2 2 2 2 2 2 2 2 2 2 2 2 2 2 2 2 2 2 2 2 2 2 2 2 2 2 2 2 2 2 2 2 2 2 2 2 2 2 2 2 2 2
left_child=6 3 42 4 5 -2 -1 8 9 -6 26 -10 -11 -14 -12 16 30 18 57 28 21 43 23 51 -21 59 27 -9 29 -20 31 39 37 -34 35 -35 -33 44 -37 40 -16 -36 -3 -17 -32 -7 -43 48 -48 50 -49 -22 53 -24 -55 -28 -13 -18 -27 -26 61 -61
right_child=1 2 -4 -5 7 45 -8 10 11 12 14 56 13 -15 15 20 17 -19 19 24 22 -23 52 -25 25 58 55 -29 -30 -31 32 36 33 34 41 38 -38 -39 -40 -41 -42 46 -44 -45 -46 -47 47 49 -50 -51 -52 -53 -54 54 -56 -57 -58 -59 -60 60 -62 -63
leaf_value=0.014996851576322814 -0.036746764179900498 -0.078118484389030476 0.048082361520378064 -0.055191881345052735 -0.052962258699741464 0.051685753277895166 -0.063214746957157383 -0.01920167936273931 -0.068058624924376962 0.04775223972211478 -0.032970129420055269 0.030950971214491821 -0.050938814755616749 0.058340037583837226 -0.0072796412236947067 0.045507012848494316 -0.071568897298597764 -0.042139618021150745 -0.047350630111191269 0.074901703359150515 -0.038404478293033062 -0.060573012005402826 0.038947163719833387 0.058387977753522474 0.06185785361276646 -0.060845322638815938 0.059160244243929128 0.021627485805401619 0.015126772578092898 0.023853982847526219 -0.0067406102816436235 0.028419033384470049 0.042737371507631586 0.026619455448326952 0.054488915043668741 -0.0019490201085573093 -0.066746983141099905 0.045320315485631389 -0.091536113403068303 0.0064906262663127759 0.051549313815103463 0.060775031632601832 -0.011015737620022947 -0.019491093781067788 -0.070685964260700659 -0.006609422657868679 0.0038506411993489316 0.05975247674975475 -0.074504535220893606 0.057537629690931229 -0.067036134964367625 0.032603865764796479 0.064071049703243524 0.061911372027630418 -0.085424711234960871 -0.018015532436369643 -0.046894764797603267 0.0012559190113113827 0.0073671179132104945 0.027420645425726326 0.07608244757174959 -0.068231979505919249
leaf_weight=2.6597927808761588 2.9664618521928814 7.0471352189779264 3.6360745728015891 3.9373040944337836 8.5310646593570727 15.715852230787279 9.1172632128000242 56.624959036707878 10.269681558012964 13.01016639173031 8.4459024816751462 3.1900252699851981 4.3253559470176688 2.7047167867422104 4.0707610547542599 4.9953965842723829 5.5914699137210837 17.147248283028603 9.5321917235851306 3.9666488170623806 6.7392390668392164 4.1377603262662879 19.844061568379406 2.7830157876014701 6.345545753836638 2.6698735356330854 3.9524901658296576 8.0333729535341245 8.8087286353111249 2.7406641542911521 61.949801743030548 2.7408162951469413 17.348491087555885 3.6658856421709043 6.4867678582668331 2.3234829753637314 4.2932082861661911 4.5575635880231848 4.590312272310257 11.700950235128401 22.66435395181179 2.916922643780711 3.2930685430765152 4.3552993983030319 2.4589682817459098 3.4550710767507544 4.4083591699600246 2.9085333794355375 3.3611883074045181 4.5615391135215759 3.0196066945791245 2.5176762193441391 10.129791706800459 2.7050992846488944 2.5970803648233414 2.3922963738441467 2.7042652070522308 2.3751087635755539 6.364956334233284 4.9744968861341459 2.2464065402746201 2.4713464677333832
leaf_count=11 12 29 17 16 35 77 38 238 42 58 35 13 18 12 18 23 23 71 40 18 29 18 93 13 28 11 19 35 38 12 264 12 78 16 29 10 18 20 19 52 106 13 14 19 10 15 19 13 14 20 13 12 47 12 11 10 11 10 27 22 10 10
internal_value=9.37925e-05 0.00123681 -0.0294754 0.00217745 0.00267676 0.0307372 -0.045551 0.00123299 -0.0138619 0.00374169 0.0029846 -0.0449779 0.0278804 -0.00889539 0.00595662 0.0070308 0.00369732 -0.00876908 0.00108181 0.00917845 0.0204768 -0.00802172 0.028601 -0.00118243 0.0245448 0.016578 -0.0101801 -0.0141289 -0.0119883 -0.0314499 0.00921352 0.0221239 0.00450053 0.0170067 0.0053341 -0.03092 -0.0296654 -0.00558017 -0.061429 0.0316017 0.0425919 0.0191995 -0.0567481 0.0152327 -0.00918189 0.0411795 0.00838947 2.08495e-05 -0.0300466 0.0222914 -0.00482962 -0.0190918 0.0387662 0.0285725 -0.0102559 0.0300612 -0.00476419 -0.0498573 -0.0127903 0.0331226 0.0143095 -0.00432737
internal_weight=482.079 470.302 13.9763 456.326 452.388 22.1374 11.7771 430.251 44.7353 28.5713 385.516 16.164 20.0402 7.03007 314.513 306.067 245.262 75.2347 58.0874 50.1209 60.8044 13.4885 47.316 12.0399 29.0393 25.0726 71.0031 64.6583 21.0816 12.2729 170.028 45.4701 124.557 55.5911 38.2426 10.5797 7.03402 68.9663 6.9138 38.4361 26.7351 27.6629 10.3402 9.3507 64.4088 19.1709 21.1761 18.2592 7.76955 10.4897 5.92814 9.25692 35.276 25.1462 5.30218 6.34479 5.89429 7.96658 9.03483 16.0378 9.69225 7.44584
internal_count=2096 2047 60 1987 1971 104 49 1867 189 123 1678 66 88 30 1376 1341 1064 320 249 216 277 60 217 54 126 108 302 273 90 52 744 206 538 244 166 45 30 294 29 176 124 121 43 42 274 92 92 79 33 46 26 41 163 116 23 29 24 33 38 70 42 32
is_linear=0
shrinkage=0.05


Tree=13
num_leaves=63
num_cat=0
split_feature=4 3 2 4 2 1 0 3 4 0 3 5 5 1 5 1 0 4 1 2 0 4 3 6 4 6 5 0 0 7 2 0 1 5 5 2 2 3 2 6 3 3 2 6 4 4 1 7 6 3 0 6 7 1 3 5 7 3 7 7 0 3
split_gain=9.18538 5.40098 4.97829 4.97812 11.2122 4.76097 6.69064 5.72824 3.84111 7.45808 12.7035 5.75884 5.51203 6.61225 5.46525 4.74697 5.02365 6.14836 13.0491 6.80685 5.50292 5.33869 6.74567 6.46387 6.29435 5.27621 5.02934 5.1222 4.85451 5.02365 6.39304 5.74915 5.60526 4.55784 5.51465 6.66741 4.55723 4.28039 4.95096 4.23737 4.03342 4.02264 3.72094 3.69323 3.66764 3.61464 5.77685 3.55172 3.93892 3.51469 3.48733 6.88292 4.31328 5.56946 6.22738 5.70404 4.21873 4.13149 3.45403 3.23033 3.21186 8.5733
threshold=257.74916656905299 6.8884730851576936 32009.56677129964 409.11840539485985 24856.620158291771 280.6791609674836 4.7245490690906484 5.2592295105369358 295.93565051145885 7.3325537051933809 5.7754647250822257 459.88821983835436 464.9380630283419 219.60852192372553 349.62359162489071 136.11675204275463 8.1785327084512112 371.66247342215729 177.06836478661111 29917.711581847783 6.5279600211693767 355.12602511889276 5.3362088830447512 14.298549807362521 330.88214847262469 10.941647075435215 597.06826807736263 6.9640888254077327 8.0165073396506781 72.590145641880596 17446.333037952998 5.5750186213139541 193.16505600555129 544.42975316437276 486.97713843343797 26670.819724525794 19882.844915943784 8.92118305009007 13683.034189454165 10.053233054054859 7.1073357703638154 7.6313820254113747 20237.302920295482 15.870390041450863 343.03686806238346 331.11639908712237 164.88807745938968 66.688039489657129 14.010964880947826 6.603821544352507 6.1031323053418491 13.951542521987564 49.852446212588823 189.01633714485826 6.3591722444586987 336.93551221461217 65.364921735150588 6.6531836672531144 51.128479305050625 77.591593002147007 6.3951697965013823 6.0555781249398031
decision_type=2 2 2 2 2 2 2 2 2 2 2 2 2 2 2 2 2 2 2 2 2 2 2 2 2 2 2 2 2 2 2 2 2 2 2 2 2 2 2 2 2 2 2 2 2 2 2 2 2 2 2 2 2 2 2 2 2 2 2 2 2 2
left_child=1 -1 -3 5 -5 6 7 -2 9 10 42 -11 58 -14 37 -16 17 26 20 25 -19 22 -18 -24 36 -20 28 -28 29 60 31 -31 59 34 39 -36 -25 38 40 -32 -10 -13 -8 -39 -26 -9 -47 48 -48 -38 51 -40 -52 56 55 -55 -54 -58 -12 -33 61 -17
right_child=3 2 -4 4 -6 -7 8 45 14 11 12 41 13 -15 15 16 21 18 19 -21 -22 -23 23 24 44 -27 27 -29 -30 30 33 32 -34 -35 35 -37 49 43 50 -41 -42 -43 -44 -45 -46 46 47 -49 -50 -51 52 -53 53 54 -56 -57 57 -59 -60 -61 -62 -63
leaf_value=-0.072513085985515743 -0.034882793398486947 0.023608424818579554 -0.066227824481758069 -0.059097670334845899 0.037351673292640601 -0.052711334396768297 -0.00050555174111581609 0.067960072319635564 0.062798569159983067 -0.06406545010728254 -0.011434960706163292 0.039990944733896222 -0.048039600600298632 0.054847772207699555 -0.03121062122467412 -0.021079091059287347 0.062827060753658723 -0.018856249339931561 0.022649975413020142 0.039723932107236494 0.057171010745704243 0.049551131689189662 -0.016910152340611224 0.026945747286326815 0.054040719013073446 -0.057832482780149068 -0.095207772090291076 0.0063477521659887157 -0.031070136763600244 -0.094832786929005222 -0.033046716829314482 -0.024057853953994342 -0.032975215690359043 0.065249526291788373 -0.063712011480131378 0.024872232353612897 -0.088846195478027176 -0.066141291049151438 -0.024522521757786866 0.021414936350148114 -0.0026789830573047489 -0.044563270199353272 -0.072275762046668121 0.00804709615087742 -0.0073245746079457913 -0.045620472004230979 -0.038962932183267115 0.072195081723242419 0.052774068797956875 -0.0016725362913573814 0.021283243688954095 0.064481007959205347 -0.078568620227104369 0.065506973003466418 -0.024729374963219156 -0.027736427615057842 -0.074527889680124068 0.0064705371528182192 0.057291392865731809 0.042292727064273131 0.0099602862524275342 0.038376892394744559
leaf_weight=6.6914440989494306 2.9686602950096157 4.2557507902383804 2.4184724986553192 9.4228096604347211 4.4297995120286933 3.9169680923223487 2.6660002917051333 7.1140216290950802 4.438326492905615 9.7461257278919202 2.2301094532012966 2.9323570281267157 4.3562327474355689 2.4341580420732498 8.4751500040292722 7.4852106571197501 5.7992741614580146 3.7287135571241361 2.3086000680923524 2.4710769057273856 6.5806010067462921 11.969921395182608 18.456083208322525 4.1020084023475665 12.222306221723555 17.270011216402054 2.4182716161012641 2.5518044680356979 7.720065936446189 2.4383777230978039 4.077801212668418 2.8116963505744952 14.109213426709173 3.4139409214258185 5.5134703963994962 3.4553790092468262 2.3225316256284714 5.6355655044317228 4.5697593092918378 28.767287716269493 5.003295361995697 2.7034701555967331 5.5980737656354904 2.3885444551706314 3.0406546741724005 2.4433398097753516 2.1785538643598539 4.5695108622312546 2.5278231501579285 2.3026093244552612 6.381133258342742 4.1401973813772202 6.3902043700218183 4.3977112919092205 18.186199203133583 2.6157070696353912 2.4351961016654968 4.4533499032258987 10.143716782331465 5.2777377814054489 89.898431912064552 31.9136942923069
leaf_count=28 12 18 10 40 20 16 11 37 21 40 10 12 18 11 35 32 28 16 10 11 29 59 80 19 57 72 10 11 33 10 17 12 59 15 23 15 10 23 20 126 21 11 23 10 14 11 10 22 12 10 27 19 26 20 75 11 10 19 46 23 392 148
internal_value=9.85195e-05 -0.0407698 -0.00894465 0.00126989 -0.028255 0.00217382 0.00265311 0.0296701 0.00127285 -0.0129331 0.00269539 -0.0408009 0.0250406 -0.0111575 0.00285685 0.0056992 0.00672676 0.00353736 -0.0167622 -0.038473 0.0296732 0.0196618 0.0122461 0.00533541 0.0224494 -0.0483424 0.00663797 -0.0430657 0.00783204 0.00933999 -0.00146293 -0.0219558 -0.0139508 0.00970018 0.00516479 -0.0295836 -0.0114204 -0.00966337 -0.00528347 0.0146534 0.0281008 -0.00056917 -0.0491226 -0.0440576 0.0418157 0.0398455 0.0227789 0.0407958 0.0103096 -0.0454471 -0.0111674 0.0177845 -0.0167888 -0.0231025 -0.00929391 0.0307311 -0.0493077 -0.0221635 0.044905 0.0192308 0.0151773 0.0270811
internal_weight=479.685 13.3657 6.67422 466.319 13.8526 452.466 448.549 21.8019 426.747 42.8102 27.4283 15.382 19.1642 6.79039 383.937 312.902 304.427 244.211 32.359 22.0497 10.3093 60.2154 48.2455 42.4462 23.9901 19.5786 211.852 4.97008 206.882 199.162 69.8649 24.637 22.1986 45.2279 41.8139 8.96885 8.72715 71.0352 63.0111 32.8451 9.44162 5.63583 8.26407 8.02411 15.263 18.8332 11.7192 9.27589 4.70638 4.62514 53.5695 8.70996 44.8595 38.4784 25.1996 7.01342 13.2788 6.88855 12.3738 8.08943 129.297 39.3989
internal_count=2096 56 28 2040 60 1980 1964 104 1860 182 119 63 85 29 1678 1376 1341 1064 138 93 45 277 218 190 110 82 926 21 905 872 300 104 94 196 181 38 39 302 269 143 42 23 34 33 71 92 55 44 22 20 227 39 188 161 106 31 55 29 56 35 572 180
is_linear=0
shrinkage=0.05


Tree=14
num_leaves=63
num_cat=0
split_feature=1 0 3 8 3 0 2 3 3 5 2 3 0 2 7 8 8 1 2 3 1 6 6 6 6 3 1 1 6 0 2 6 0 8 3 3 7 5 6 8 6 1 6 8 2 8 5 5 3 0 1 1 6 0 8 3 8 8 5 8 6 2
split_gain=4.00364 4.93503 4.92433 4.27767 3.99498 3.89488 8.53519 5.48774 4.42536 5.34401 8.00583 4.60025 4.17643 9.99908 8.28376 4.68851 4.99054 4.25358 4.20709 6.29224 6.36625 3.99056 3.76005 3.65982 3.65177 3.65066 5.53679 3.95925 3.58817 5.00505 5.64265 3.91767 4.48077 3.49243 3.47805 3.46443 3.42696 4.64824 4.4546 4.39457 4.98037 3.38554 3.3854 3.34135 3.29025 4.21153 3.77833 3.54631 4.85522 4.57873 6.11785 5.18526 4.21615 4.09227 4.02176 3.77412 5.68231 4.45974 3.7244 3.26185 3.54801 3.25969
threshold=280.6791609674836 4.7245490690906484 5.2592295105369358 3.4219727346148261 10.902674720772827 8.3160167521228825 34050.412961375587 6.7725400546517243 5.3916223523094056 452.93238882588633 18873.352992616066 4.2370700491529343 6.5279600211693767 16461.981204985252 68.730230273298218 4.0154103533073693 2.4599008538196849 207.95404983699527 13606.323481639003 7.7099152384910878 229.25326041972841 19.053406043100612 7.0908080829977402 12.908052828842218 17.033033893679747 9.2558326696347368 195.82280050010758 228.18494273381853 15.03010710131676 10.201035131771631 16735.116160589223 10.679219215897549 9.0875291000579939 4.3193083291635306 6.7495370325716335 7.6423643678816662 62.882542771471442 402.63865420760254 14.827592255281816 3.741616896162316 14.779691061882462 191.81428474466915 12.368723909376373 3.805222693977262 17867.072413327431 2.4599008538196849 352.25820079965075 475.33685388439386 9.9670816489226564 7.1592256507253582 215.55612970366741 209.85008890623121 10.504163291045872 7.2606120225176722 3.7036058122187367 5.8952813270329871 4.7632251103191106 4.4899878763119858 424.25408766214201 4.8127270282763153 13.976069005705485 12048.889956375153
decision_type=2 2 2 2 2 2 2 2 2 2 2 2 2 2 2 2 2 2 2 2 2 2 2 2 2 2 2 2 2 2 2 2 2 2 2 2 2 2 2 2 2 2 2 2 2 2 2 2 2 2 2 2 2 2 2 2 2 2 2 2 2 2
left_child=1 2 -1 -4 5 8 7 21 9 10 11 -3 13 14 25 16 -15 36 19 20 -14 -7 -20 61 -21 26 43 -28 29 30 -9 -32 -33 -11 -17 -19 39 -38 -39 40 -18 -35 -12 -10 46 -46 -24 48 49 50 51 55 -49 -51 -52 -47 57 -57 -56 60 -36 -16
right_child=-2 4 3 -5 -6 6 -8 28 12 33 42 -13 18 15 23 34 17 35 22 24 -22 -23 44 -25 -26 -27 27 -29 -30 -31 31 32 -34 41 59 -37 37 38 -40 -41 -42 -43 -44 -45 45 47 -48 52 -50 53 54 -53 -54 -55 58 56 -58 -59 -60 -61 -62 -63
leaf_value=-0.02976276649228057 -0.050400978425926092 0.062548068994646377 -0.012620375008513927 0.045452620030331292 -0.043195453570029956 0.036192566379315338 -0.037558359816074888 -0.059136829838015707 -0.013488122777492759 0.018809653106079533 -0.010159685281286945 -0.013910194632014192 0.041931949563867602 0.073282680404724979 -0.052003472253936235 0.054283060808181849 -0.064182100754377344 -0.051771090118717999 -0.06065689568498666 -0.025957325918516655 -0.046620571540956758 -0.033382171115299591 -0.042740093529408503 -0.066668327733148069 0.043840739519220191 0.053856498385456475 -0.07649905955646169 0.0018644219034491258 0.018895324068941375 0.059663958907618719 0.042548173114302673 0.016822509355066705 -0.063195852013097048 -0.073440961601273669 0.0010713965645291099 0.011837913583564024 0.058038461754228013 0.037053223451322809 -0.043766115566924613 0.050630155349113706 0.017250904977147371 0.0082411785469963944 -0.059246822374689513 0.062211878914920339 0.058065869191551246 -0.051694629308462206 -0.0093139568625444369 0.04325568701550872 -0.064997251551748569 -0.065625917768561762 0.078245147704546644 -0.05008083302157891 -0.021044303448466251 -0.0043366079857794096 -5.7204941217918915e-05 0.012894814432959366 0.066714446961682924 -0.0486801485589025 0.074021615003350846 -0.0032711789116228992 0.056760814159244902 0.027085267889601652
leaf_weight=3.6863751858472851 3.8923165351152411 2.7285590320825595 4.0075393617153194 15.191403269767759 5.4466597139835349 29.25667437911034 8.3669639080762845 6.2356105893850389 2.5185520499944705 12.914601400494577 4.569410145282748 7.0514607578516006 16.726954475045208 2.5789001286029807 2.6266525685787183 11.819610163569449 4.2658104896545428 5.7096623629331571 3.1768300235271445 10.811244949698446 2.3099436163902274 2.2171518355607978 11.163842767477034 7.9640124887228012 2.266864910721778 3.4414755254983893 3.1549656540155411 3.2955100536346436 18.039247781038284 2.1491995006799689 3.6730866879224759 3.6827865689992905 3.3326746225357056 2.389674484729766 4.4615699499845523 3.4244484156370163 6.7467799782752973 3.6772250384092331 3.1788969486951828 2.2915469259023666 3.3537227362394333 2.7039877474308014 15.185472294688223 3.4607437700033188 2.8556486070156089 2.3457395136356345 34.829821273684502 2.7496943175792685 2.6657234430313101 2.9091889113187781 4.9881993234157553 4.0448052287101737 34.994899213314056 42.679847329854965 5.8642726391553861 25.917774856090549 4.4234885275363913 3.3169772475957862 2.3874862194061279 8.6081468313932401 7.9679293036460876 2.5849848538637161
leaf_count=15 16 12 19 76 23 142 35 26 11 56 19 30 75 12 11 55 18 24 13 46 10 10 46 33 10 15 13 14 83 10 16 16 14 10 20 15 32 17 14 11 16 12 63 16 13 10 148 12 11 12 22 17 148 183 25 112 20 14 11 40 37 11
internal_value=0.000101815 0.000517061 0.0231675 0.0333306 -0.000633568 -0.00011269 0.0101174 0.0159335 -0.00225133 -0.0164868 -0.0295764 0.00742114 -0.000140039 0.00851579 -0.0160451 0.0189942 0.00632233 0.00103308 -0.00390298 0.012843 0.031187 0.0312914 -0.00671404 -0.0453509 -0.013859 0.00828334 -0.00433466 -0.0364636 0.00290895 -0.0122107 -0.0213381 0.000713439 -0.02119 0.00498123 0.0325801 -0.0279236 0.0122814 0.0285746 -0.000419323 -0.0100809 -0.0283395 -0.0300797 -0.0478927 0.0303261 -0.00580318 -0.00204194 -0.0174273 -0.00327425 0.00158985 0.00338502 0.0133369 0.00359599 -0.01636 -0.00824768 0.0428017 0.00962622 0.0138999 0.00590851 0.0213761 0.0203867 0.0367711 -0.0127753
