tree
version=v4
num_class=1
num_tree_per_iteration=1
label_index=0
max_feature_idx=8
objective=binary sigmoid:1
feature_names=Column_0 Column_1 Column_2 Column_3 Column_4 Column_5 Column_6 Column_7 Column_8
feature_infos=[0:13.999999999999998] [73.492233689061095:323.12400000000002] [320.94261127435902:56867.859236154443] [0.35200000000000031:13.127000000000002] [129.00000000000003:481.03064230599722] [210.31918197203672:753.34261955830459] [2.1999999999999886:27.00670661116601] [0.73799999999999955:124] [1.45:6.4942494674729963]
tree_sizes=6451 6563 6590 6578 6579 6563 6583

Tree=0
num_leaves=63
num_cat=0
split_feature=1 1 0 0 2 1 7 2 1 2 0 0 0 2 7 5 0 7 1 5 2 5 0 2 0 7 5 5 2 7 7 0 1 2 1 2 5 7 5 1 2 0 5 2 7 0 1 2 2 2 1 7 5 2 7 2 7 5 2 7 7 1
split_gain=15.9203 10.3137 12.4096 10.1814 13.3949 9.60419 7.20435 6.79375 8.79421 8.69039 7.29029 6.57326 6.16923 6.11415 5.75247 5.64664 5.16564 6.23633 5.16373 5.14784 5.84294 6.18973 4.92089 6.31637 4.88171 6.80325 4.64707 8.39593 6.67097 4.77645 5.3724 6.02826 4.73375 4.61655 4.46334 4.40252 4.39615 7.63161 7.10061 5.47817 7.34003 6.08388 5.45085 4.95695 4.89005 6.36974 6.13155 4.68268 4.30837 6.16118 4.45278 4.23719 4.80386 5.00787 5.64308 5.62909 4.63581 4.23743 4.19991 4.12027 7.51227 5.81942
threshold=279.71978873831029 162.20811369230435 4.5841669232317352 8.3125223926996856 29097.367558897637 209.90968663801078 83.827486262436281 20541.136161953051 250.32242553955322 21276.851812575351 6.3363049296455705 7.7441118754515381 7.8208150470426867 9070.3411571168654 40.967164561250414 487.59111299299678 6.3217077993965356 45.67709031299372 236.5614223975675 385.96506536675923 35208.592402025031 486.89489253368157 7.3684670534133518 18442.283426173904 10.089804851243366 75.359553307121601 534.23467882605621 501.50686772836252 23050.886556940117 53.888886860740634 67.056618597028219 6.0438625500800738 191.36533451672727 23288.269979095425 220.81833708252063 22409.852230558205 328.57235850470107 57.242978208634476 334.07360986251155 199.79490641068762 20089.972440186673 6.7085109978669779 430.72135810591948 20360.224802978351 79.292081529652123 7.0594031578666234 197.64774039763725 23050.886556940117 12266.144334105886 18237.551534638547 179.14392720032959 75.899386135425587 510.36000275724797 23111.179333204822 60.225745113316201 30682.665950177441 65.309957340204321 426.45219998264139 25420.945101816116 67.890127559062321 82.728374090483769 226.41167531147349
decision_type=2 2 2 2 2 2 2 2 2 2 2 2 2 2 2 2 2 2 2 2 2 2 2 2 2 2 2 2 2 2 2 2 2 2 2 2 2 2 2 2 2 2 2 2 2 2 2 2 2 2 2 2 2 2 2 2 2 2 2 2 2 2
left_child=1 14 15 5 24 16 -6 8 10 -9 18 19 -13 -12 -1 -3 26 -18 -7 58 21 35 59 -24 25 -5 27 28 29 -4 -31 -32 -30 -27 -23 -21 37 -19 -38 40 41 42 -40 -41 46 -46 51 -39 -43 50 -50 52 53 57 -55 -56 -57 -42 -11 61 -61 -15
right_child=-2 2 3 4 6 7 -8 9 -10 11 13 12 -14 22 -16 -17 17 36 -20 20 -22 34 23 -25 -26 33 -28 -29 32 30 31 -33 -34 -35 -36 -37 38 47 39 43 44 48 -44 -45 45 -47 -48 -49 49 -51 -52 -53 -54 54 55 56 -58 -59 -60 60 -62 -63
leaf_value=0.086534783119194658 0.038780129311907052 0.68573001825905555 0.2489006060639726 0.4921608895521018 0.40783788976104751 0.11821591930354153 0.017768081636700517 0.72476168576717925 0.56408132119207044 0.19913522999111502 0.58742804083118882 0.010127337027534378 0.36751700423046091 0.35396084444000514 0.38885449761904844 0.38628707163263054 0.57476541323031105 0.091310248499923752 0.42400100335736018 0.77420179794413446 0.72476168576717925 0.15784839947141072 0.32594478087306306 0.032600115289787512 0.6922035631140615 0.73217770259372272 0.69779435185247563 0.25390347455806922 0.54234472014875335 0.62138690576081546 0.31794019128250817 0.64489688917363397 0.745219663219713 0.4509395260178814 0.44531757346264222 0.49404116227471534 0.77420179794413579 0.49404116227471534 0.16718708732705811 0.42295562785113106 0.18586446303835302 0.69015360724330965 0.51559198040313226 0.57132685487317614 0.38628707163263054 0.086534783119194714 0.127677254091627 0.25390347455806922 0.57248614026215294 0.63011918531414812 0.36751700423046091 0.64489688917363397 0.24500948612411935 0.66457372311697105 0.55629908131236427 0.086534783119194769 0.42812101270543995 0.49404116227471528 0.42272754592249923 0.18586446303835275 0.52700123705935298 0.64812951189289647
leaf_weight=2.61754585802555 3.8073394298553458 13.563646718859674 3.8073394298553493 35.455848440527916 9.2803898602724058 9.7563072890043241 2.3795871436595908 4.045298144221305 6.6628440022468558 4.5212155729532268 4.2832568585872641 2.6175458580255491 7.3767201453447342 6.1869265735149401 65.914563879370689 3.0934632867574683 14.039564147591589 3.8073394298553493 2.8555045723915091 2.6175458580255606 4.045298144221305 3.5693807154893857 10.708142146468161 4.045298144221305 9.7563072890043241 9.5183485746383649 5.2350917160511008 4.9971330016851416 13.801605433225633 7.8526375740766552 8.3285550028085691 3.0934632867574683 6.900802716612815 3.0934632867574683 5.4730504304170609 15.705275148153303 2.61754585802555 9.2803898602724058 4.2832568585872641 15.943233862519262 4.759174287319186 4.7591742873191825 3.0934632867574692 20.702408149838448 6.1869265735149366 5.2350917160511017 3.0934632867574683 4.9971330016851416 5.9489678591489854 8.3285550028085691 14.753440290689467 3.0934632867574683 6.4248852878808966 5.4730504304170635 6.4248852878808957 2.6175458580255508 4.0452981442213058 2.85550457239151 13.087729290127752 7.1387614309787732 4.0452981442213058 4.7591742873191833
leaf_count=11 16 57 16 149 39 41 10 17 28 19 18 11 31 26 277 13 59 16 12 11 17 15 45 17 41 40 22 21 58 33 35 13 29 13 23 66 11 39 18 67 20 20 13 87 26 22 13 21 25 35 62 13 27 23 27 11 17 12 55 30 17 20
internal_value=0.446189 0.449323 0.460897 0.454018 0.523784 0.439772 0.328232 0.395256 0.347343 0.441181 0.32049 0.421742 0.273915 0.361248 0.377308 0.630119 0.465133 0.447348 0.18745 0.451881 0.500408 0.467243 0.334982 0.245512 0.563217 0.537036 0.518725 0.499508 0.527539 0.453606 0.494041 0.406491 0.60997 0.663195 0.331843 0.534064 0.435319 0.342902 0.448113 0.441446 0.415246 0.477847 0.313292 0.506776 0.363919 0.248901 0.39779 0.409993 0.513771 0.484856 0.426416 0.421199 0.399973 0.438009 0.494041 0.422728 0.293926 0.301431 0.365319 0.394629 0.309254 0.48186
internal_weight=498.761 494.954 426.422 409.765 69.4839 340.281 11.66 123.501 60.4415 63.0591 53.7787 59.0138 9.99427 41.1669 68.5321 16.6571 216.78 162.764 12.6118 49.0195 31.4106 27.3653 36.8836 14.7534 57.824 48.0677 54.0166 48.7815 43.7844 23.082 19.2747 11.422 20.7024 12.6118 9.04243 18.3228 148.724 18.0849 130.639 128.022 91.3761 41.1669 7.37672 36.6456 50.2093 11.422 38.7873 14.2775 33.7901 29.031 20.7024 35.6938 32.6003 26.1755 18.5608 13.0877 6.66284 7.61468 17.6089 22.1302 11.1841 10.9461
internal_count=2096 2080 1792 1722 292 1430 49 519 254 265 226 248 42 173 288 70 911 684 53 206 132 115 155 62 243 202 227 205 184 97 81 48 87 53 38 77 625 76 549 538 384 173 31 154 211 48 163 60 142 122 87 150 137 110 78 55 28 32 74 93 47 46
is_linear=0
shrinkage=1


Tree=1
num_leaves=63
num_cat=0
split_feature=4 0 4 0 3 3 0 4 4 0 3 0 4 3 0 0 2 2 0 8 4 8 3 2 2 3 0 0 2 4 8 0 3 0 4 8 8 4 3 8 3 0 3 3 8 0 2 2 2 2 0 0 4 8 0 4 4 3 8 4 4 3
split_gain=22.7091 19.3955 13.8438 23.438 19.0762 11.895 8.04645 7.3072 7.40058 17.0517 10.8548 8.30685 9.37821 7.99923 14.8089 10.5287 9.04862 8.40798 7.65432 7.22654 6.8374 6.52996 6.9979 6.32808 6.02063 6.08958 5.76009 5.20358 5.97004 5.18288 5.01182 5.38881 4.88802 4.5294 4.33956 4.23129 4.16176 4.65263 4.11578 4.07605 4.05917 3.987 9.55911 9.40622 4.26112 4.02173 3.88178 3.54582 3.53415 3.4568 3.42662 3.71552 8.79401 7.98667 9.1989 6.32471 5.08936 4.80386 4.48532 4.23272 4.67033 4.13832
threshold=286.44433403881254 7.3198165852487245 387.53573276283402 6.7997473043388812 8.1739296097513527 5.6857822703498986 6.4972516415191617 381.97011030512118 362.50648807695802 7.7611050546100175 7.6946799286768774 5.0452107419489414 333.89797451525891 7.3791633141809676 6.631197694446592 8.5219343258633717 30258.796058437747 34431.317704009423 9.8983520264943952 4.6013648294528489 296.27654821664925 3.4780992941353133 9.4076726524796843 25108.623128086092 17211.235711911373 7.7936601080255974 6.8659625150439174 7.7327408932164632 32237.661607735979 325.19812608671333 3.2661210721110998 6.3996683371377214 6.151483154283933 5.3039534985410386 409.47434153228198 3.5363192816803806 4.1181876010032159 335.37267777893175 5.4991146384488179 4.5966354234201647 8.0494853168739322 7.7069104975217737 8.8557730874012197 8.2616631960277189 4.6336749402992545 7.5750095603420382 17680.311728999051 27695.29836464459 19536.312102988784 16538.139095528237 8.4043608515722781 6.9877707168389493 316.92949073941116 3.6151665561479005 6.6676532904137096 301.81801341897784 347.58459327582005 7.0164718425887624 4.8553784887432618 356.35112337790861 354.00673721026823 5.9223299949729391
decision_type=2 2 2 2 2 2 2 2 2 2 2 2 2 2 2 2 2 2 2 2 2 2 2 2 2 2 2 2 2 2 2 2 2 2 2 2 2 2 2 2 2 2 2 2 2 2 2 2 2 2 2 2 2 2 2 2 2 2 2 2 2 2
left_child=1 5 7 49 34 47 40 8 11 10 26 12 -2 15 24 33 18 -17 20 23 -16 -6 -23 -8 25 -15 38 28 -18 -30 -12 -32 -14 -13 -5 -3 37 -34 -10 -9 -7 45 43 44 -43 -22 -11 -1 -45 -4 51 52 57 56 58 61 -54 -35 -55 60 -57 -53
right_child=2 35 3 4 21 6 19 39 9 46 30 13 32 14 16 17 27 -19 -20 -21 41 22 -24 -25 -26 -27 -28 -29 29 -31 31 -33 36 50 -36 -37 -38 -39 -40 -41 -42 42 -44 48 -46 -47 -48 -49 -50 -51 -52 55 53 54 -56 59 -58 -59 -60 -61 -62 -63
leaf_value=-0.1277145510922886 0.24865905627867868 -0.17215618087790238 -0.44391420846499496 0.088510135501452314 -0.50211060098916782 0.25705455948250683 0.16338072287790173 0.29387092147574184 -0.52926008633441324 0.0082459536728178018 -0.19882207970710844 -0.17666386256582514 -0.20383876070659876 -0.27497623219546741 -0.32575452918344661 0.18346936850632944 -0.34922068373162624 -0.18871048713108662 0.25217025759434331 -0.31985301991432991 -0.012647195106319425 0.11609044324393242 -0.31959325147198209 -0.19294450619313455 0.14830613727340666 0.052718846438513128 -0.10665379044588066 -0.35593720831953291 -0.16066587346113553 0.24042577318848504 0.31791777077173983 -0.017500998141908055 -0.16805306894759386 0.067842886157273102 0.33356513492014483 -0.4119073569905341 0.19497994551894782 0.17610930175030026 -0.24093130093984294 -0.016359878643592628 -0.015809334108325326 -0.061586306780117332 -0.26825530065230513 0.28367463987070379 -0.33664614322433295 0.21009549493827961 0.26037567728489214 -0.4246352625592611 0.0024367784433654456 -0.23422012263843339 -0.19522568338615232 -0.21822864854520777 -0.20414825821834476 0.11418662749727833 -0.15612712871038253 0.079117479479519623 0.10144702411050442 0.32394035684057132 -0.11630071855045321 0.27950808347433903 -0.17103094110526965 0.063067760433214146
leaf_weight=3.0648176223039654 14.127584323287012 4.3004791885614386 5.3189270347356779 10.091516852378847 2.3913048356771451 6.2690732926130313 4.9243145883083326 6.1094415783882123 2.5728241503238705 3.9093999713659269 2.6251702308654767 4.292751118540763 3.0296962261199942 2.8934558928012839 3.3314088732004157 28.905435487627987 2.6291118860244733 2.6506320834159842 3.6169579923152915 3.6146801710128775 44.423301160335541 2.8367102742195129 3.0711442828178406 3.3497421592473984 24.822046592831612 10.499307751655577 11.726520553231238 5.6089042127132416 2.8523664474487305 2.350707158446312 3.2477852255105972 4.6720367223024368 3.9918809533119184 13.558682516217234 4.0508252978324881 9.3384222835302335 6.2818285971879959 2.5910231322050095 8.5991706401109678 2.344030886888504 3.343970462679863 15.042036354541784 8.5914884358644468 4.2853624969720832 2.6496771574020377 3.497682958841323 6.5097998678684235 3.3863018155097961 3.0660682320594788 7.6922929733991623 2.6223811358213416 5.0161444097757322 13.912238225340845 20.810182705521587 9.3308424204587919 73.649056866765022 2.5848851501941672 3.7374010086059561 4.0314713120460501 4.0199104547500601 3.1115975826978675 3.5885749310255051
leaf_count=13 61 18 22 43 10 27 21 26 11 17 11 18 13 12 14 124 11 11 16 15 188 12 13 14 106 44 49 23 12 10 14 20 17 57 17 39 27 11 36 10 14 64 36 18 11 15 28 14 13 32 11 21 58 89 39 311 11 16 17 17 13 15
internal_value=0.000656043 -0.140787 0.0136204 -0.106376 0.017446 -0.0453863 0.0260762 0.0237902 0.019994 -0.0576373 -0.12724 0.0292975 0.130093 0.0202907 -0.0161859 0.0463989 -0.0559886 0.152207 -0.032768 -0.0839402 -0.0449089 -0.223264 -0.110396 0.0191229 0.089995 -0.0180784 -0.204563 -0.208887 -0.103579 0.0205441 0.0406659 0.120049 0.0247078 0.0260728 0.158702 -0.336311 0.0785314 -0.0325912 -0.307331 0.207848 0.162137 -0.0334368 -0.08622 -0.0237697 -0.102782 0.00361047 0.165774 -0.283573 0.166378 -0.319942 0.0315131 0.0352919 4.72122e-05 -0.0419847 0.0131856 0.0620908 -0.156265 0.123181 0.0767816 0.0794541 0.0689774 -0.100915
internal_weight=495.365 41.5918 453.773 35.4527 22.4415 27.9529 21.5018 418.32 409.867 43.8627 33.4435 366.004 30.022 335.982 140.16 195.822 101.945 31.5561 88.504 11.8887 84.887 8.29916 5.90785 8.27406 38.2148 13.3928 22.8985 13.4411 7.83219 5.20307 10.545 7.91982 15.8944 164.266 14.1423 13.6389 12.8647 6.5829 11.172 8.45347 9.61304 81.5556 33.6346 25.0431 17.6917 47.921 10.4192 6.45112 7.35143 13.0112 159.973 157.351 67.9657 50.6696 34.1725 89.3853 16.4971 17.2961 24.8417 80.7806 76.7607 8.60472
internal_count=2096 175 1921 149 95 118 91 1772 1736 186 141 1550 129 1421 593 828 431 135 375 50 359 35 25 35 162 56 96 56 33 22 45 34 68 693 60 57 55 28 47 36 41 345 142 106 75 203 45 27 31 54 675 664 287 214 145 377 69 73 106 341 324 36
is_linear=0
shrinkage=0.2


Tree=2
num_leaves=63
num_cat=0
split_feature=3 0 0 3 0 0 3 7 7 7 8 8 8 7 5 8 5 8 8 0 0 5 5 0 8 0 0 8 3 3 3 5 3 7 8 7 8 5 0 0 3 3 7 3 7 0 3 5 5 3 0 5 5 8 3 8 8 8 3 5 0 8
split_gain=5.69057 12.683 7.83569 9.64151 11.9576 9.63713 6.42826 10.048 6.5854 5.45521 5.41042 5.00729 4.33145 4.31159 5.68664 5.39068 4.89709 4.12995 5.40369 4.70401 5.11001 4.06642 5.22841 4.94183 4.5483 6.19734 5.83248 3.80365 6.33397 3.67366 3.61104 3.59372 3.50733 3.19405 3.06495 3.74442 3.66091 3.03836 3.01456 6.04106 4.99571 4.90701 7.25014 4.19964 3.38117 5.62715 5.36653 3.89487 5.037 3.1993 3.93335 4.63892 10.1892 10.2359 6.03374 8.08907 6.89092 5.46872 5.33824 4.23949 6.42349 4.37226
threshold=8.8557730874012197 7.7200167465524521 8.5219343258633717 5.3671883890007503 5.8937793719552465 4.5841669232317352 7.3398841673694317 50.258169195011654 60.374881842665879 52.420076509651018 4.7541536506131692 5.7089010615590992 4.1518778414645334 89.823133372085707 456.99694638080621 4.2491611709014849 516.50068820113165 5.1015345553674507 2.9234174736230374 9.1696913260320443 8.9310098451477646 554.12978681012692 507.63315542548929 6.5928084822022921 4.0071695218752224 6.1859380273428988 5.3039534985410386 4.0666028711062561 4.6477324912898235 5.2111053953395778 8.4509366997465936 473.03879076428461 6.4646869571353287 68.558119358716326 4.5542603391517043 75.67005696384534 3.5666899377308985 426.45219998264139 6.4972516415191617 6.5700765464484361 8.5272362718677019 8.3571961464937896 75.475065573934899 8.0330743770751258 78.306032686189369 6.1050329743439571 7.0623288049659001 414.77772970092548 476.30942961810644 7.6946799286768774 6.7524134695808327 403.57855682643151 368.15204253725011 3.496271973492509 7.8472351942625407 4.3020975037151734 4.3901411751577912 4.157791963339398 8.3964957696995839 453.83823086833047 7.4675876882609256 3.7587529261772956
decision_type=2 2 2 2 2 2 2 2 2 2 2 2 2 2 2 2 2 2 2 2 2 2 2 2 2 2 2 2 2 2 2 2 2 2 2 2 2 2 2 2 2 2 2 2 2 2 2 2 2 2 2 2 2 2 2 2 2 2 2 2 2 2
left_child=2 21 3 4 34 -5 17 -8 -9 -6 12 38 31 14 27 -16 -17 18 -4 20 -20 22 23 24 25 26 -2 28 -11 -21 33 37 -22 -10 35 36 -1 -3 40 -40 41 42 43 -7 -44 47 -47 -46 -49 -41 -51 52 53 -52 55 -53 59 -54 -55 -56 -61 -62
right_child=1 10 6 5 9 11 7 8 30 13 -12 -13 -14 -15 15 16 -18 -19 19 29 32 -23 -24 -25 -26 -27 -28 -29 -30 -31 -32 -33 -34 -35 -36 -37 -38 -39 39 49 -42 -43 44 -45 45 46 -48 48 -50 50 51 54 57 58 56 -57 -58 -59 -60 60 61 -63
leaf_value=-0.27704018295476879 0.12215453418652189 -0.14740706913332047 0.27430367369307523 0.1571077400362644 0.18652772779655699 0.054728100584502393 0.32094909180854164 -0.29297868127352122 0.052270248383704976 -0.058325598649499412 0.060466905411983685 -0.25868926755501132 -0.41547582622908774 0.13877399418085026 0.17024397549593023 0.085778447264902247 -0.31917591704761383 0.30300216457906626 0.060915651064019416 0.30832529995805663 -0.36356590818297302 0.2448333840609673 -0.2642331012660884 -0.064157333642058598 0.18924565985658193 0.25114886813746606 -0.2224955477891134 -0.050526610179862846 -0.36637549904006372 0.086929845659716495 0.2255284565072484 -0.0017036937265790205 -0.014150351012485072 -0.17793615609358832 -0.44678756701642119 -0.40320334012933473 0.026419559969980508 -0.42353937130953467 -0.21896508610794327 0.014108706007107279 0.26077195629671007 -0.19679885487413853 -0.2148053947840193 0.2227781040305748 0.18277827801034199 0.014409724141953864 -0.39132228621304677 -0.23118770714418535 0.1332910733445728 -0.22611858240889535 -0.393057416206748 0.0020838538896041834 0.31868594291267471 0.13517803586553231 0.044649653166940494 -0.47867846881479964 0.14933658175884451 0.027386338510786885 -0.18786826918825367 -0.26871747040898702 -0.12786827163918116 0.22542363360837203
leaf_weight=3.0838010609149915 3.1508794873952883 3.8514215797185916 5.8700374960899344 17.170347779989243 4.1820086836814871 50.189957067370415 2.9206025600433376 4.3367492705583599 5.0431177318096143 4.9573832601308876 2.6175378262996665 2.8959984928369513 4.4674618095159522 4.0480693727731696 5.6956400722265226 2.3757341951131821 2.4024112522602081 4.3837071061134329 11.045206293463709 3.9595301002264049 2.3136994391679755 2.5530652403831473 3.1213788241147986 20.412067592144012 8.2633838951587659 2.7983922064304343 5.2144230604171753 9.5021447539329511 5.7861094921827316 12.344406664371489 2.2115199565887442 3.144605278968811 2.2828488647937775 4.6188341230154037 2.6966077238321295 2.6573220044374466 3.2831757515668869 2.7192957699298859 5.2605115622282019 144.90101517736912 3.8190267235040656 3.7477779686450949 4.5671669542789486 6.7480811178684226 5.3387221395969409 2.5563742667436591 2.6617264002561569 3.0753525793552399 2.9924097210168839 4.2638649493455878 3.1306291073560741 2.5390184074640265 5.7456317842006666 6.0513812303543073 6.3050307035446229 3.1202924400568008 6.1864746361970893 4.6757975220680237 3.0913670510053635 8.1024908870458585 3.7380328327417365 2.2413661032915115
leaf_count=13 14 16 26 78 18 216 13 18 22 21 11 12 18 17 24 10 10 20 49 18 10 11 13 86 37 12 22 40 24 55 10 13 10 20 11 11 14 11 22 615 17 16 19 30 23 11 11 13 13 18 13 11 25 26 27 13 26 20 13 34 16 10
internal_value=0.00124612 -0.0552142 0.00948336 -0.00160888 -0.0825831 0.0114117 0.0756397 -0.0205272 -0.0820511 -0.0292859 -0.203726 0.00301538 -0.252485 -0.0552451 -0.080812 0.0388249 -0.117829 0.119236 0.0979337 0.0655256 -0.0128284 -0.000394365 -0.0149678 0.00456202 0.0767656 -0.00649235 -0.0926795 -0.142704 -0.224232 0.140697 -0.00501049 -0.177535 -0.190031 -0.0577784 -0.259694 -0.203787 -0.120559 -0.261685 0.00558409 -0.00735003 0.0371816 0.0267526 0.0374761 0.0746448 -0.0623888 -0.0205164 -0.192552 0.0581845 -0.0514394 -0.00189562 -0.0410744 -0.0267099 0.0425574 -0.0809291 -0.0754805 -0.262987 -0.0355474 0.187988 0.0259489 -0.091651 -0.152678 0.00456251
internal_weight=489.43 62.3139 427.117 365.786 50.6704 315.116 61.3303 19.1308 16.2102 38.9495 16.8003 297.945 14.1828 34.7675 30.7194 10.4738 4.77815 42.1994 37.8157 31.9457 15.6418 45.5136 42.9605 39.8391 19.4271 11.1637 8.3653 20.2456 10.7435 16.3039 11.8735 9.71532 4.59655 9.66195 11.7209 9.0243 6.36698 6.57072 295.049 209.353 85.6966 81.8776 78.1298 56.938 21.1918 16.6246 5.2181 11.4065 6.06776 204.092 59.1914 54.9275 22.6948 12.2734 32.2327 5.65931 26.5734 10.4214 9.14275 20.3869 14.0819 5.9794
internal_count=2096 264 1832 1561 213 1348 271 83 70 164 69 1270 58 146 129 44 20 188 168 142 69 195 184 171 85 48 36 85 45 73 52 40 20 42 49 38 27 27 1258 889 369 352 336 246 90 71 22 49 26 867 252 234 97 52 137 24 113 45 39 87 60 26
is_linear=0
shrinkage=0.2


Tree=3
num_leaves=63
num_cat=0
split_feature=4 2 4 1 2 1 6 2 1 6 1 4 5 6 5 6 1 4 6 6 5 4 6 1 1 5 4 4 5 4 6 2 6 4 4 1 5 1 1 2 1 1 6 5 2 1 2 1 5 1 2 2 6 6 2 5 5 4 4 6 1 2
split_gain=13.0169 7.83997 6.98014 7.68431 8.89558 6.34836 5.78449 6.92219 5.25061 6.91945 5.08931 5.30862 4.97167 14.4948 4.87671 4.8332 4.73456 4.30213 4.20723 7.19176 4.06387 4.04803 4.78918 3.74785 4.26441 3.7421 3.53079 3.52178 5.01936 3.96824 3.96708 3.42417 3.31699 4.2819 5.35019 4.14564 3.29285 3.59542 6.75328 4.1658 4.0896 5.28785 4.22799 3.85048 4.32735 4.38316 4.21983 6.22615 3.55693 3.4405 3.22394 8.49251 3.14234 4.22144 3.11124 3.10907 3.68745 3.58264 3.22534 4.83787 3.05207 3.20281
threshold=286.44433403881254 26928.455168035951 350.70706656406838 217.81492431493612 27145.879151268218 139.34670230715275 13.51565692784675 27939.898923762928 185.89088687435523 13.142816321548823 225.09353483594921 388.78535069666862 487.59111299299678 11.987362864204103 505.72245312122817 16.235151950130987 276.71666670377982 369.5370697365737 11.835458658716592 15.139500986112497 327.65477414223966 344.66110407824982 7.0481536956524744 238.45991402954516 153.76184212449724 397.48909176471886 378.33614119454825 311.38925376469962 315.02161214645247 319.41011709089213 17.432476487012796 13337.200675591264 14.944946426611468 381.97011030512118 411.19297151202619 179.57892350353998 484.59725111450376 173.48749610311827 152.97022612436589 38673.208930549568 162.20811369230435 167.42114582582812 15.522182676620249 456.26097083318081 30850.70797127295 195.89836790363555 25108.623128086092 207.3412575457634 436.77670370699622 220.48900687245114 30682.665950177441 23050.886556940117 15.357436288064465 18.134337936292983 38973.543112168649 404.87732354087251 486.89489253368157 274.56975604509029 279.1744950400477 13.178184777836409 252.53751682880844 14727.001793032412
decision_type=2 2 2 2 2 2 2 2 2 2 2 2 2 2 2 2 2 2 2 2 2 2 2 2 2 2 2 2 2 2 2 2 2 2 2 2 2 2 2 2 2 2 2 2 2 2 2 2 2 2 2 2 2 2 2 2 2 2 2 2 2 2
left_child=1 23 5 6 10 18 12 17 -3 -10 -5 26 -4 -14 -9 -6 20 25 -2 -20 27 22 -22 24 -1 -8 -12 28 -7 -29 50 -19 35 -34 -35 -33 37 38 -24 43 48 42 -42 -39 45 -45 47 -47 -40 -49 51 -31 -27 -54 -11 58 57 -57 59 -26 61 -38
right_child=2 8 3 4 15 16 7 14 9 54 11 -13 13 -15 -16 -17 -18 31 19 -21 21 -23 36 -25 55 52 -28 29 -30 30 -32 32 33 34 -36 -37 60 39 40 -41 41 -43 -44 44 -46 46 -48 49 -50 -51 -52 -53 53 -55 -56 56 -58 -59 -60 -61 -62 -63
leaf_value=0.18437374402478857 0.052386856070074178 -0.38601685979873723 -0.10484334331264118 -0.35625367046695899 0.19528695780390781 0.26332995196774073 0.19290993448708549 0.24208038842008725 -0.32857665575772421 -0.10687003375891997 -0.11522775712323292 -0.31125082169064133 0.23157587692757567 -0.28109123684251192 -0.073944550812371224 -0.15660074274055258 -0.20447396841936516 0.08765143593846958 -0.39734440530964088 0.012793859843593637 -0.20862700388135047 0.14423481953037717 0.13620977916052426 0.13925344468525544 0.10360257313786225 -0.14431593155573827 0.15914908114708481 -0.28603302148085125 -0.10528216389743222 -0.018166102343434073 0.15194251348801904 0.1503337282104763 -0.32169775493184849 0.03283517255578005 -0.30912855568358522 -0.14509916126532682 0.090637681573015605 0.045397804330748713 -0.078921538122361218 0.2376103971235784 0.2719625933332252 -0.11019169920575995 -0.062215026646149509 0.27072312856922237 -0.092383489482578421 -0.22184425082792583 0.31291345995235342 0.26736438700882253 -0.34252934255717299 0.0030792932215377208 0.12045432886506935 -0.33348704941811935 0.19424195292999469 -0.10493196123637627 0.17788300748007679 -0.07803963469212033 -0.028245724803735973 -0.39132886534817002 0.17743631704026935 -0.27612740000654068 0.22273297259399399 -0.027169288706971263
leaf_weight=2.3433680385351243 3.499740928411482 4.9146454632282284 28.347299218177795 5.3628728687763276 4.5173592865467063 3.4641196876764289 6.8945249319076565 9.2461603879928571 4.6340637952089292 4.6571988314390182 8.1316024512052518 4.5026564747095099 6.5830534398555738 3.3177566081285477 2.4762905538082114 2.3859334588050842 3.3447234630584708 5.6531689465045956 3.8801386058330536 3.0579083114862442 3.1388432979583731 14.866749584674833 9.3092445582151395 4.1242883056402198 2.5561795383691814 3.7311316430568677 2.4386256337165824 2.8504354208707836 2.5767813473939896 12.392667338252076 3.7685423195362082 4.1635602712631252 4.0212141424417487 5.9827259182929975 2.6365945786237717 3.4945429414510727 11.180278986692427 125.79274414479733 5.8873950690031069 5.4564861208200446 3.7701345235109311 7.5817608833312988 2.5310916900634766 8.8491915911436134 3.0559679418802252 2.8207430988550168 2.7029909789562216 3.6342994272708893 3.1392001956701279 4.3033630102872849 2.9757174700498572 4.7170181572437277 4.8632882982492447 3.0822300165891647 2.2892629951238632 2.3565109074115735 4.1340972930192947 3.8381000757217407 2.5464399009943008 2.8254363983869553 2.4077821224927893 52.94526806473732
leaf_count=10 15 20 122 22 20 15 30 41 19 20 35 19 29 14 11 10 14 25 16 13 13 66 40 18 11 16 11 12 11 54 17 18 17 26 11 15 49 553 25 25 17 33 11 39 13 12 12 16 13 19 13 20 22 13 10 10 18 16 11 12 11 227
internal_value=0.00146923 -0.106019 0.0114993 -0.0292395 -0.122621 0.0270144 -0.00222223 0.0385837 -0.212806 -0.139298 -0.188928 -0.129394 -0.062229 0.0597814 0.175322 0.0736666 0.0321887 0.00258179 -0.126395 -0.216578 0.0347745 0.0427499 0.0369135 -0.0347744 -0.069616 0.0760744 -0.0519271 -0.0318077 0.106096 -0.0630035 -0.0363525 -0.0500097 -0.0883483 -0.151277 -0.0717693 0.0155219 0.0399316 0.0534122 -0.00743304 0.0659293 -0.0658019 0.00233498 0.137729 0.059732 0.130815 0.161388 0.089513 0.0333849 -0.170597 0.124084 -0.0716816 -0.105098 0.00708837 0.0781862 -0.0130274 -0.102217 -0.174526 -0.27215 -0.00801239 -0.0957619 0.00167077 -0.00662966
internal_weight=482.954 41.2196 441.734 121.833 27.3391 319.901 94.4935 56.2454 16.4952 11.5805 20.4358 15.0729 38.2481 9.90081 11.7225 6.90329 309.464 44.523 10.4378 6.93805 306.119 273.374 258.507 24.7244 20.6001 18.5712 10.5702 32.7453 6.0409 26.7044 23.8539 25.9518 20.2986 12.6405 8.61932 7.6581 255.368 188.835 32.2188 156.616 22.9096 13.883 6.30123 151.159 25.3666 22.3106 13.4614 10.7584 9.0266 7.93766 20.0854 17.1097 11.6766 7.94552 6.94646 18.2568 10.3287 6.19461 7.92806 5.38162 66.5333 64.1255
internal_count=2096 175 1921 527 117 1394 410 245 69 49 87 65 165 43 52 30 1350 193 44 29 1336 1194 1128 106 88 81 46 142 26 116 104 112 87 54 37 33 1115 828 139 689 99 61 28 664 111 98 59 47 38 35 87 74 51 35 30 78 44 26 34 23 287 276
is_linear=0
shrinkage=0.2


Tree=4
num_leaves=63
num_cat=0
split_feature=4 2 1 1 0 4 0 4 2 0 4 2 1 0 1 1 2 8 0 8 4 4 0 8 0 0 2 0 1 1 0 1 2 4 1 0 4 2 4 8 2 8 1 1 0 8 1 1 1 0 1 0 0 1 1 0 1 8 4 1 8 8
split_gain=9.05363 7.16298 5.77852 4.61473 5.1364 8.64613 10.6185 7.69375 7.86073 6.35189 12.2763 6.78417 6.20783 8.31948 5.82332 5.74727 5.39332 5.00911 4.7878 4.38991 4.2168 4.14142 4.08407 4.2734 3.6756 4.09805 5.01678 3.66663 3.62245 5.60273 3.61642 7.67529 3.43108 3.41426 5.01219 5.59078 7.79838 4.63105 3.39171 3.26463 3.97613 3.11191 3.61633 4.63124 3.04583 3.82701 3.01406 2.90484 2.86186 2.81262 3.00125 2.77938 4.78815 2.50187 2.49637 2.47474 2.34528 7.03364 4.33114 4.32369 3.68212 5.04668
threshold=258.97027262410091 18354.450431053319 279.71978873831029 126.23296490432541 8.5219343258633717 363.62331720682454 7.9073471424845847 355.4437761849228 21736.677561335167 5.6220172273750668 333.89797451525891 17633.182766106529 163.99179027344326 7.095185736856747 200.62926142865783 204.70357549787451 18990.65029300551 3.8014896719239544 9.9845403406416313 5.7089010615590992 303.82117541608039 321.30834626000006 6.0706371871044897 4.5796165797457613 7.3496580643720657 6.7997473043388812 13654.1413412522 6.7651780900826219 210.79273494728236 222.07781768799768 6.8944356815626886 177.08807598570576 20017.329660380317 339.28001541773091 207.82133329895657 6.8551964214724048 354.80320563820027 27695.29836464459 339.83399534831091 3.4346685289168266 20583.142636872926 4.2683760006998801 170.64118824113342 200.62926142865783 7.8539160298811312 4.5228526184126867 222.7759081975008 152.02423507812759 185.89088687435523 8.3697596591596586 171.51360850282282 7.6647108099516617 8.0887860665152065 183.5592406630735 215.69777732459389 9.2340109954568756 219.64069062631069 3.8702248510976478 334.12957469691668 224.74228406517884 4.0273322473346331 4.2979543383340282
decision_type=2 2 2 2 2 2 2 2 2 2 2 2 2 2 2 2 2 2 2 2 2 2 2 2 2 2 2 2 2 2 2 2 2 2 2 2 2 2 2 2 2 2 2 2 2 2 2 2 2 2 2 2 2 2 2 2 2 2 2 2 2 2
left_child=1 -1 3 32 5 9 16 8 18 10 -5 15 13 17 -10 -12 24 39 20 33 -6 -16 -19 -24 25 -7 53 -3 -22 -30 41 -32 -2 49 35 36 37 48 -34 40 -11 42 -18 -44 45 54 -13 -15 -35 50 -14 -37 -53 -27 -36 -31 -52 59 60 -58 -59 -62
right_child=2 27 -4 4 7 6 -8 -9 14 12 11 46 19 47 21 -17 30 22 -20 -21 28 -23 23 -25 -26 26 -28 -29 29 55 31 -33 38 34 44 51 -38 -39 -40 -41 -42 -43 43 -45 -46 -47 -48 -49 -50 -51 56 52 -54 -55 -56 -57 57 58 -60 -61 61 -63
leaf_value=0.073400306527501666 -0.3009916354602607 -0.038019015233648222 -0.24721310504365404 0.18981939115559615 -0.16839290829993731 -0.200609791266918 0.19537987087720732 0.19147859408796572 -0.21966424465837894 0.17024540742231381 -0.056084482799328053 0.094444966280029297 0.11122389613598427 -0.12018912841255409 -0.13600100048316652 -0.43531708203338271 -0.20764901360830645 0.31668866686251151 0.27065138771398728 -0.25364324650079301 0.16248098672446795 0.11220681488675283 0.15160069460693038 -0.13889588309736198 -0.31094376164103626 0.25702175613092082 -0.15918165480925486 -0.32526172454341429 -0.23173110712236553 -0.0022079849575831452 0.2587116357424748 -0.044924594073951718 -0.15783273007690851 0.15013003220614662 -0.31976697213548771 0.2136908154624414 -0.30386336781699891 0.2914382772565714 0.14206535533222622 -0.25775522195861383 -0.19607806265580821 -0.21348863090092163 0.18722111211146458 -0.13757384566200739 0.12247018218702332 0.084532583488642635 -0.13864417476763094 -0.35993829923823073 -0.13483469654837577 -0.16462831256239055 -0.010786490955511674 -0.10483443550429997 0.23988654249347047 -0.019080329591571538 -0.081095144072336478 0.27619435071401893 0.28323711673709995 -0.17866659394728451 -0.28471320687098495 0.07414579208290091 0.19653722564176801 -0.033044353659531837
leaf_weight=3.7275422662496558 3.1303085535764676 2.3671012818813306 3.5712246149778357 22.755676597356796 2.9730578362941804 11.783693268895155 5.8711959570646277 14.665085807442663 7.0184741765260723 2.3749485909938866 5.1752656698226955 13.69146351516247 10.792958885431288 3.6187442392110807 4.4882069677114469 2.3128725588321686 3.3010277748107928 2.2838648408651343 4.9574113041162482 2.4112987518310538 11.036666497588159 6.7073731571435928 4.2755394130945188 3.8491861969232559 4.8013085424900046 2.4666814357042295 5.8257952034473419 7.1375192105770111 2.9834357947111112 3.1411672830581665 4.3764404803514507 13.927248030900953 4.0369469076395035 2.4075171798467618 2.3793477565050143 15.566122353076937 2.6680729389190665 2.9367620646953583 2.4083619713783264 4.0089791715145111 2.3658581525087357 6.1928366422653189 4.0242917090654373 3.1155875474214554 4.3732968568801871 4.3418020606040946 2.6482756882905951 4.5798020660877228 3.4012957066297531 3.8156133741140357 133.17204800248146 3.4181796461343756 3.0497276932001114 2.8062334805727005 6.6582985669374466 2.1522212028503418 5.3035447448492077 3.9266833364963594 2.4160988032817832 15.567659392952917 5.4314997047185924 12.988753601908682
leaf_count=16 13 10 15 110 13 50 27 70 30 10 23 63 47 15 20 10 14 10 26 10 51 31 18 16 20 11 25 30 13 14 20 60 17 11 10 69 11 14 11 17 10 26 19 13 19 19 12 19 15 16 578 15 14 12 28 11 23 17 10 68 25 56
internal_value=0.00154606 -0.161573 0.00621058 0.00818165 0.0111078 0.00270851 -0.0618003 0.0655161 0.0248797 0.0164743 0.0847575 -0.0155768 0.00488147 -0.0855166 -0.076836 -0.173219 -0.0859128 -0.0133671 0.0928822 0.0148926 0.0533392 0.0127025 0.0803964 0.0139745 -0.15185 -0.118468 -0.031257 -0.253725 0.087472 -0.0125482 -0.0336655 0.0276753 -0.129205 0.0175397 0.0634642 0.109053 -0.00455742 0.0867539 -0.0457724 -0.124906 -0.0125651 -0.101165 -0.0345416 0.0454922 -0.0224287 -0.0697913 0.0566669 -0.254116 -0.0167284 0.00538262 0.00880403 0.167903 0.0577073 0.110081 -0.14393 0.110987 0.00262185 0.0417507 -0.0303345 0.127278 -0.00283172 0.0346514
internal_weight=475.962 13.2322 462.729 459.158 449.582 389.459 68.4923 60.1231 45.458 320.967 46.5836 23.8279 274.384 27.3569 18.2141 7.48814 62.6211 19.1584 27.244 247.027 22.2865 11.1956 10.4086 8.12473 27.6837 22.8824 11.0987 9.50462 19.3135 8.27682 34.9374 18.3037 9.57562 244.615 51.2004 33.4477 11.4136 8.74557 6.44531 8.74979 4.74081 16.6337 10.4409 7.13988 17.7527 13.3794 16.3397 8.19855 5.80881 193.415 189.599 22.034 6.46791 5.27291 9.03765 5.29339 178.806 45.6342 24.763 20.8712 22.3469 18.4203
internal_count=2096 56 2040 2025 1984 1705 297 279 209 1408 218 108 1190 115 81 33 270 81 128 1075 102 51 44 34 118 98 48 40 89 38 152 80 41 1065 225 149 51 40 28 37 20 72 46 32 76 57 75 34 26 840 824 98 29 23 38 25 777 199 108 91 98 81
is_linear=0
shrinkage=0.2


Tree=5
num_leaves=63
num_cat=0
split_feature=4 5 3 4 7 3 5 3 7 4 6 6 7 5 6 5 7 3 6 6 4 7 3 5 5 3 6 7 7 7 4 5 4 4 7 7 4 7 5 5 5 3 4 7 5 7 6 3 7 7 7 7 4 4 5 3 3 7 5 3 7 5
split_gain=6.9074 4.45165 6.39398 5.53925 4.95421 4.33181 6.2209 4.7028 6.82501 5.65172 3.49904 3.93228 3.28294 5.46868 2.98131 4.99161 4.41463 4.15119 4.13325 5.4667 5.36133 4.33608 4.12621 3.99513 5.19845 3.44818 3.34065 5.30297 3.14779 3.05643 4.36964 7.54293 4.10466 3.39916 3.97201 3.62704 2.88392 3.30788 5.49095 2.83978 4.42481 4.13825 3.2283 3.22395 3.93062 2.83306 2.69863 3.22068 2.55339 3.48069 2.54936 3.43978 4.54037 4.73382 2.80682 4.10558 2.79048 2.60519 2.51274 2.50184 2.44268 2.39938
threshold=294.86743435902105 360.05971859143295 9.2439793076437429 314.17580812433505 34.936714108973653 8.2829386990379579 372.01256776136341 6.718401145395215 70.268157017556931 258.97027262410091 10.089768879347391 19.14631987191169 72.09130549622779 355.82439011000895 12.77168525680071 496.1798758745818 78.306032686189369 9.5882812719414368 13.930045821937059 13.635442206801317 320.10152395597407 55.944844000755332 9.5187632633031765 401.64149748034248 534.23467882605621 6.875000674134351 14.683775162275966 58.955610948197211 46.094109707123657 64.465567540330781 328.0794813135048 412.94736993469832 333.89797451525891 375.84794420765195 36.546454753725378 51.334515082243193 309.08046115143821 69.983423595542035 479.24717710487784 442.22223985129875 483.7279980336437 7.3791633141809676 341.73880852034887 63.413482425494117 391.15379368035593 98.641051512923283 15.139500986112497 5.8164595870377811 75.475065573934899 81.402812543625956 70.701714375878637 71.629476943032742 322.23135846189558 359.81595874442053 320.09885549503264 6.7704982175988535 7.1445257408918641 81.105364765932563 417.94238614061828 8.5474706058736221 66.098585486197166 349.84056035561292
decision_type=2 2 2 2 2 2 2 2 2 2 2 2 2 2 2 2 2 2 2 2 2 2 2 2 2 2 2 2 2 2 2 2 2 2 2 2 2 2 2 2 2 2 2 2 2 2 2 2 2 2 2 2 2 2 2 2 2 2 2 2 2 2
left_child=5 2 4 10 -2 7 -7 8 46 -10 -3 36 13 -9 16 22 -5 18 19 25 -20 28 29 -18 45 -17 -23 -28 -22 33 31 -31 -32 34 -16 -35 37 -12 -39 42 41 -41 43 44 -36 -25 47 -1 -11 -50 61 -52 57 54 55 -54 -55 -53 -34 -43 -60 -6
right_child=1 3 -4 14 50 6 -8 12 9 48 11 -13 -14 -15 15 17 23 -19 20 -21 21 26 -24 24 -26 -27 27 -29 -30 30 32 -33 58 35 39 -37 -38 38 -40 40 -42 59 -44 -45 -46 -47 -48 -49 49 -51 51 52 53 56 -56 -57 -58 -59 60 -61 -62 -63
leaf_value=-0.18624211668804039 -0.31456153698117406 -0.09414092923631151 -0.20535742478560601 0.005420287165143289 -0.052849471973902898 0.058650365850322378 -0.25713272523502401 -0.1528891267962765 -0.21670310771666959 0.31289505318681088 0.15114039448156863 -0.13329405196413555 -0.081360556672754825 0.19679644834792182 0.22213689900316178 0.15034733158005223 0.098005576918124296 0.24204795289241707 -0.25742058728170186 -0.36776799979265262 -0.021803930307025543 0.12841199843456594 -0.08559124421164227 -0.22279332232073493 0.14659643281506021 -0.19946314847651456 -0.33374381571022615 -0.026899923978055948 0.22940735654598191 -0.29458264675472612 0.30298337653011626 0.086817798341004448 0.13033328380329398 -0.29522524258767385 0.048836732564116525 0.014763781405057297 0.20521917562944583 0.11647305588436768 -0.19034739483290411 0.245852739502122 -0.12596291612303734 -0.054267285581057624 0.081671451110252924 0.16183232317018525 -0.15596389931279636 0.014148045790881442 -0.28115654282978231 0.071257635798367552 -0.13033099316457575 0.20307013233009444 0.30986733119711096 -0.27215647602653553 0.21388261263416819 0.043184199799815227 0.18785263864628385 -0.11951945436906508 -0.19461824058463073 -0.0015062057695983712 0.21160917974896376 0.2069448071586685 0.029545402391775274 0.053599854792713765
leaf_weight=6.2402853518724459 2.1200278401374808 3.7380661517381659 7.4713476896286002 69.120054438710213 42.73374080657959 3.4501462876796714 9.0172132700681669 2.3119013756513578 2.5178583860397321 2.1670778542757034 12.795894443988802 2.5020281672477713 4.90505027770996 7.9077938497066498 4.2329902946948996 2.1940318793058387 3.3669637292623547 2.1927536875009528 3.3347539007663718 3.3104225695133209 3.2280733883380872 4.584020838141444 8.9679888039827329 12.221625953912737 2.1919269561767569 2.3180017918348312 2.4988002926111248 22.89482718706131 5.224125474691391 3.2118743509054166 3.7536302357912055 5.8553726971149445 28.626673325896263 2.6858296841382971 5.4289608746767142 3.4480947703123093 12.078024268150328 5.979555815458296 3.8259617835283279 6.7460550516843814 3.2272114902734748 4.7951844185590744 8.8459032475948316 2.2478926181793204 12.110152035951613 2.4178557693958274 5.7591529041528693 2.8213476836681366 2.2720233649015427 2.7914078831672668 1.7813781797885919 2.8481877893209484 2.4938660115003648 4.3459021747112265 10.154275104403494 3.6247532069683075 3.6162354648113251 2.8422030806541443 3.2905669957399395 2.1129463464021683 28.287871107459068 10.563449054956434
leaf_count=27 9 17 32 310 190 16 39 10 11 10 60 11 22 36 20 10 15 10 14 14 14 20 39 53 10 10 11 101 24 14 18 26 132 12 25 16 56 27 16 32 14 21 41 10 54 11 25 13 10 12 8 12 12 19 47 16 16 13 15 10 130 48
internal_value=0.00168818 0.0103201 -0.0277954 0.0215913 -0.0125685 -0.0669039 -0.169745 -0.0346029 -0.0886155 0.0413584 0.090309 0.108853 0.053137 0.117691 0.0115118 0.0257004 -0.0186157 -0.0272453 -0.0391535 -0.172575 -0.0141639 0.00694468 0.0455845 -0.100868 -0.140651 -0.0293635 -0.0287276 -0.0570942 0.133464 0.0547103 0.08165 -0.048285 0.100071 0.0195053 0.0368261 -0.12097 0.126323 0.0841616 -0.00324355 0.0195915 0.0846535 0.134433 -0.0187677 -0.0636697 -0.092571 -0.18366 -0.174106 -0.106069 0.131222 0.053469 -0.00503667 0.039869 0.0237968 0.0615457 0.123375 0.0163707 -0.0648207 -0.136974 0.0874195 0.025628 0.048517 -0.0317513
internal_weight=466.65 414.488 94.5954 319.893 87.124 52.1613 12.4674 39.6939 24.5692 9.74837 40.9195 37.1815 15.1247 10.2197 278.973 189.655 89.3184 51.7798 49.5871 7.82246 41.7646 38.4298 137.875 20.1984 16.8314 4.51203 29.9776 25.3936 8.4522 128.907 73.026 9.06725 63.9587 55.8812 49.7473 6.13392 34.6794 22.6014 9.80552 45.5143 16.8814 13.6542 28.6329 19.787 17.5391 14.6395 14.8208 9.06163 7.23051 5.06343 85.004 31.7068 29.9254 24.235 16.2729 6.11862 7.96214 5.69039 60.2051 6.90813 31.5784 53.2972
internal_count=2096 1865 422 1443 390 231 55 176 108 43 187 170 68 46 1256 857 399 228 218 34 184 170 629 89 74 20 132 112 38 590 335 40 295 255 227 28 159 103 43 207 77 63 130 89 79 64 65 40 32 22 381 143 135 110 75 28 35 25 277 31 145 238
is_linear=0
shrinkage=0.2


Tree=6
num_leaves=63
num_cat=0
split_feature=0 0 2 0 8 0 2 6 2 6 7 8 6 6 6 7 8 6 6 8 8 8 2 7 6 2 8 8 0 6 2 2 2 8 6 2 7 0 0 7 7 0 0 2 0 2 7 8 7 7 7 0 8 6 0 0 7 7 6 6 7 0
split_gain=2.81139 3.78508 3.087 6.4203 5.23624 4.22579 6.45994 3.78218 3.37876 4.20135 6.56299 4.16119 6.82721 3.47871 3.46517 4.15331 3.27017 2.80733 2.79601 2.65436 2.61436 2.66779 2.61072 3.55388 2.55324 3.4099 2.56577 6.46258 4.70241 3.64689 2.96602 4.00251 3.9476 2.88166 5.21037 3.35771 3.28699 3.1206 3.4045 2.72895 4.37924 4.65879 8.39324 3.49454 4.61492 4.68733 5.37992 4.68046 4.32452 5.37329 4.9065 6.69114 5.21545 4.22371 3.60802 3.20637 3.09194 2.90543 4.53534 2.68386 2.65701 3.01273
threshold=3.5330623528562168 3.6797540388782282 34431.317704009423 7.7327408932164632 2.9476505535416924 10.089804851243366 25986.640150014315 14.082545301107219 26421.453726518757 13.734185302224832 68.718015594075609 4.9387493174549109 16.617590250174917 11.174851552235937 7.550089032327862 70.357075544715698 3.3781145082637152 8.379260398015477 16.163516295040612 3.7178227167987745 4.3821603905182025 3.6026725306747194 39196.217984042749 66.575400727548811 9.0159018588511532 26120.273870510126 5.0133722597847248 4.8287288801049248 7.8703176409554354 14.189459334759905 14444.615632558982 18354.450431053319 21811.2371396046 4.5387399655882588 11.04567564042364 16918.108035112975 66.098585486197166 6.8659625150439174 7.8834829703350815 68.173434366235654 69.049410716150064 9.6035131106935179 7.9194889426173667 18127.469627116061 5.3393819559500084 12141.983775053859 39.95280846295497 3.2416196439238898 64.671111421121537 45.67709031299372 51.75115728497034 7.0388438172055992 3.928297143014122 16.55375733012065 7.3948532015094139 8.8546993828675458 60.094190383351112 61.247775118354383 14.027531369740673 14.592217337202131 66.098585486197166 7.2187791670077637
decision_type=2 2 2 2 2 2 2 2 2 2 2 2 2 2 2 2 2 2 2 2 2 2 2 2 2 2 2 2 2 2 2 2 2 2 2 2 2 2 2 2 2 2 2 2 2 2 2 2 2 2 2 2 2 2 2 2 2 2 2 2 2 2
left_child=-1 -2 5 4 -4 8 -7 22 14 13 11 12 -11 16 15 -3 -10 19 -9 -16 21 -14 -6 -24 -19 26 27 33 29 -28 -31 -32 -33 39 36 -36 -35 -37 -39 43 59 42 -42 44 -26 46 -46 -47 49 -45 54 57 53 56 -51 -44 -53 -52 -59 -41 -50 -62
right_child=1 2 3 -5 7 6 -8 18 9 10 -12 -13 20 -15 17 -17 -18 24 -20 -21 -22 -23 23 -25 25 -27 28 -29 -30 30 31 32 -34 34 35 37 -38 38 -40 40 41 -43 55 48 45 47 -48 -49 60 50 51 52 -54 -55 -56 -57 -58 58 -60 -61 61 -63
leaf_value=0.15394919895307704 -0.29453464839843752 -0.32063340560026754 0.2847089856799489 -0.18470890476423499 -0.18911012262715809 0.22570318773612172 -0.14413714835945804 0.13549849667499195 -0.092623071232988796 0.1334157418792826 0.16197256206236521 -0.19878274025389495 0.0012985954150515049 -0.068757560789542635 0.3103264667443757 0.008948894578116779 0.11210424690844839 -0.12900026196417799 -0.040519373913747686 0.036686283554102868 0.11348720467564458 -0.22463586924171561 0.14866804096071304 -0.1855077263318726 -0.23867115554225926 -0.21507419280384169 0.08672525777620349 -0.15337579841216598 0.21312334268899719 -0.2597349343635133 0.15883830279656583 -0.31119873994917691 0.051676159231860579 -0.29856457698457212 0.21591416438234853 0.16613151419661931 0.043890668216764267 -0.12701313524626714 0.11421343487551455 -0.360453076116865 -0.042282759081690081 -0.28399527833069721 0.071452747796014279 0.17438442568517554 -0.20617278047308712 -0.1638103609147511 0.11472821398363114 -0.0087274152563444722 0.2915100019146491 -0.20335485035113265 0.155032192440172 -0.050193473627438936 -0.26849807087070254 -0.23238518860617488 0.057184868051913834 0.29141140317885633 0.21073677393862311 0.14558571819810184 -0.2039328305779543 -0.091663641902777176 0.17389187207869794 -0.043819939336306048
leaf_weight=4.8038957417011252 1.7369232922792424 3.0492625385522834 2.323512569069865 10.664309814572333 7.0766832828521746 7.6169163733720762 2.5121839493513107 6.7010818645358068 4.2777978628873816 14.078738689422613 20.79565554857254 3.2566032707691184 3.6398274451494199 20.016294091939926 2.1280560195446006 3.0684784650802612 11.539819739758967 6.6126403361558905 7.8251849710941315 4.2492898553609848 2.2581016421318045 4.9111179411411285 2.8260753452777863 2.3162856251001358 3.6968606859445563 3.012395203113555 12.686713680624967 11.599373593926428 5.9850157499313346 2.5590572655200949 3.2496241182088834 2.3835976719856262 2.413252055644989 2.3455768674612072 6.9976564645767239 5.6515111327171317 2.1476059705018997 5.3511976450681669 4.159223809838295 2.4117526262998572 73.532018855214119 2.6406252533197394 11.639937639236448 7.3613440096378318 2.3911389261484173 10.145281851291655 16.579250603914261 33.449880838394165 3.5243230462074271 7.5132367759942991 13.363615781068804 3.7478756159543973 4.0948102772235861 2.3451649099588394 2.9651691168546677 3.43264066427946 3.5250588804483414 3.2821855992078772 2.7120781540870667 3.8707453310489655 6.7216683328151685 4.089228019118309
leaf_count=25 8 13 12 47 31 42 12 31 19 68 97 14 17 90 10 13 53 29 36 19 11 22 14 11 16 13 57 52 29 11 14 10 11 10 31 27 10 23 20 10 326 12 56 35 11 44 75 150 17 33 62 17 18 10 14 18 17 15 12 17 30 19
internal_value=0.00174962 0.000142906 0.00127198 -0.051976 -0.00328099 0.00638747 0.133977 -0.0283003 0.00318426 0.0386704 0.0767689 0.0138126 0.041631 -0.0133625 -0.00625546 -0.155325 0.0567367 -0.0033378 0.0406791 0.127997 -0.0779181 -0.128464 -0.110304 -0.00185553 -0.00607325 -0.00335985 -0.00120934 -0.00736613 0.0549993 0.0143688 -0.0721866 -0.0125397 -0.12864 -0.000742364 0.0614986 0.101317 -0.134881 0.0484279 -0.0215167 -0.00798531 -0.0333359 -0.0222154 -0.0144137 0.0108149 -0.0215363 -0.00870628 0.07428 -0.0448177 0.0436703 0.0163477 -0.010366 0.0274217 -0.0794645 0.00101465 -0.129628 0.121546 0.0762747 0.103139 -0.0125524 -0.194848 0.140704 0.0915422
internal_weight=459.862 455.059 453.322 39.7331 29.0688 413.588 10.1291 26.7453 403.459 84.774 48.94 28.1444 24.8878 35.8339 318.685 6.11774 15.8176 312.568 14.5263 6.37735 10.809 8.55095 12.219 5.14236 306.19 299.578 296.565 267.288 29.2773 23.2922 10.6055 8.04647 4.79685 255.689 26.6528 22.1596 4.49318 15.1619 9.51042 229.036 97.5277 91.2452 88.6046 131.508 66.2624 62.5656 18.9704 43.5952 65.2458 50.9105 43.5492 33.0708 13.7129 9.6181 10.4784 15.0726 7.27293 19.3579 5.99426 6.2825 14.3352 10.8109
internal_count=2096 2071 2063 182 135 1881 54 123 1827 391 229 132 118 162 1436 26 72 1410 67 29 50 39 56 25 1381 1352 1339 1207 132 103 46 35 21 1155 121 101 20 70 43 1034 439 412 400 595 296 280 86 194 299 233 198 151 62 44 47 74 34 89 27 27 66 49
is_linear=0
shrinkage=0.2


end of trees

feature_importances:
Column_0=72
Column_2=56
Column_7=53
Column_4=47
Column_1=46
Column_5=45
Column_8=44
Column_3=38
Column_6=33

parameters:
[boosting: gbdt]
[objective: binary]
[metric: custom]
[tree_learner: serial]
[device_type: cpu]
[data_sample_strategy: bagging]
[data: ]
[valid: ]
[num_iterations: 10000]
[learning_rate: 0.2]
[num_leaves: 63]
[num_threads: 0]
[seed: 1236]
[deterministic: 0]
[force_col_wise: 0]
[force_row_wise: 0]
[histogram_pool_size: -1]
[max_depth: -1]
[min_data_in_leaf: 10]
[min_sum_hessian_in_leaf: 0.001]
[bagging_fraction: 1]
[pos_bagging_fraction: 1]
[neg_bagging_fraction: 1]
[bagging_freq: 0]
[bagging_seed: 21709]
[bagging_by_query: 0]
[feature_fraction: 0.5]
[feature_fraction_bynode: 1]
[feature_fraction_seed: 24116]
[extra_trees: 0]
[extra_seed: 15571]
[early_stopping_round: 0]
[early_stopping_min_delta: 0]
[first_metric_only: 0]
[max_delta_step: 0]
[lambda_l1: 0]
[lambda_l2: 0]
[linear_lambda: 0]
[min_gain_to_split: 0]
[drop_rate: 0.1]
[max_drop: 50]
[skip_drop: 0.5]
[xgboost_dart_mode: 0]
[uniform_drop: 0]
[drop_seed: 15722]
[top_rate: 0.2]
[other_rate: 0.1]
[min_data_per_group: 100]
[max_cat_threshold: 32]
[cat_l2: 10]
[cat_smooth: 10]
[max_cat_to_onehot: 4]
[top_k: 20]
[monotone_constraints: ]
[monotone_constraints_method: basic]
[monotone_penalty: 0]
[feature_contri: ]
[forcedsplits_filename: ]
[refit_decay_rate: 0.9]
[cegb_tradeoff: 1]
[cegb_penalty_split: 0]
[cegb_penalty_feature_lazy: ]
[cegb_penalty_feature_coupled: ]
[path_smooth: 0]
[interaction_constraints: ]
[verbosity: -1]
[saved_feature_importance_type: 0]
[use_quantized_grad: 0]
[num_grad_quant_bins: 4]
[quant_train_renew_leaf: 0]
[stochastic_rounding: 1]
[linear_tree: 0]
[max_bin: 255]
[max_bin_by_feature: ]
[min_data_in_bin: 3]
[bin_construct_sample_cnt: 200000]
[data_random_seed: 4074]
[is_enable_sparse: 1]
[enable_bundle: 1]
[use_missing: 1]
[zero_as_missing: 0]
[feature_pre_filter: 1]
[pre_partition: 0]
[two_round: 0]
[header: 0]
[label_column: ]
[weight_column: ]
[group_column: ]
[ignore_column: ]
[categorical_feature: ]
[forcedbins_filename: ]
[precise_float_parser: 0]
[parser_config_file: ]
[objective_seed: 10917]
[num_class: 1]
[is_unbalance: 0]
[scale_pos_weight: 1]
[sigmoid: 1]
[boost_from_average: 1]
[reg_sqrt: 0]
[alpha: 0.9]
[fair_c: 1]
[poisson_max_delta_step: 0.7]
[tweedie_variance_power: 1.5]
[lambdarank_truncation_level: 30]
[lambdarank_norm: 1]
[label_gain: ]
[lambdarank_position_bias_regularization: 0]
[eval_at: ]
[multi_error_top_k: 1]
[auc_mu_weights: ]
[num_machines: 1]
[local_listen_port: 12400]
[time_out: 120]
[machine_list_filename: ]
[machines: ]
[gpu_platform_id: -1]
[gpu_device_id: -1]
[gpu_use_dp: 0]
[num_gpu: 1]

end of parameters

pandas_categorical:null
